{"gen": 36, "layers": [42, 64, 32, 7], "weights": [[[0.9310757950792732, -0.7361195647090818, -0.03814187960669236, -0.09265057123150762, 1.1153668750105676, -0.9664774361623639, -0.3592255523446126, -0.4974395225061287, 0.3934767841836587, -1.0218465716861327, -0.12668983960581764, -0.9600771803831926, -0.5003511436802949, 0.4776835172699295, -0.7011181575405531, 0.603060671165356, 0.33656875462828, -0.6725136872950062, 0.6396844371434685, 0.058229925549461124, 0.470855989814505, -0.5092474345151258, -0.8880780533536236, 0.906420294498469, -0.6877691431858712, -0.44564814218019927, 0.8101827666389321, 0.7185133839020412, 0.6996259258458427, 0.2463050867410001, -0.10925461542105401, 0.9191647012244297, 0.8404863906425701, -0.46623327121551056, 1.1015343461288318, 0.6574316422305958, -1.122317271720028, 0.49596111502918794, 0.768411569698188, -0.09009919747583318, -0.6753905685210451, 0.22730159768384653, 0.8466428827380478, -0.24463645412188706, -0.3862901758618623, 0.08395112547614303, 0.10494908048651297, -0.7057007895456775, -0.3151842597917117, 0.3568248203343809, -0.2210499458603145, -0.08321004536410523, 0.6829267379713796, -0.3127801031976433, 0.9240129341243856, -0.11875447279802924, -0.8504922564312094, -0.2755076534864406, 0.9037364155159485, -0.29186071913841355, -0.5680027671656356, 0.41112483600855565, 0.25002383563566116, 0.11551003393370152], [0.41744427588179966, 0.3205228997462676, 0.06455472869481542, -0.038526980814696396, -0.5933440007200812, -0.5835692911388037, 0.0440432567800957, 0.7709142397461378, -0.431064795744082, 0.9431212071569574, 0.5248881128947451, -0.7770959619871245, -0.42315822780035395, -0.6142916725199656, 0.797503260449416, -0.5098684390558403, -0.7271096709857305, 0.10689086388333731, -0.4200315133299101, -0.46047828063429275, -0.2612383637300979, 0.9732887028310854, 0.5163961651868848, -0.8427301897364188, -0.5980780426223609, -0.4315450615644636, -0.9868394223991765, -0.16583053637032216, -0.31860837363418504, 0.8186654505039519, 0.16433928468438813, 0.15909219103444946, 0.6162435416568479, 0.06323279584324928, -0.21994719470364527, 0.1023281638868156, -0.8733303037657155, -0.1769005102101412, -0.6209594419990971, -0.5095434889610341, -0.053983336324657204, -1.0988147170997082, 0.6794639692422801, -0.13543718637750463, -0.03202477113381292, -0.16049262581419083, -0.41626492483956434, 0.018800476575000655, 0.9824524701522147, -0.5661753735251371, 0.23140737458782001, -0.3719065003485091, 0.37923533001821114, 0.1552314361668036, 1.0207195146618717, -0.7454950295775111, 0.6928028117388172, -0.04199656624761942, -0.026351090671228972, -0.4410592480939993, 0.8056378175011047, -0.875811641503914, 0.3224305347904588, 0.40879403017800015], [-0.2940772649565491, -0.6090285917357667, -0.26903732570151745, 0.1816431075639941, 0.26592938591405324, 0.9595069336475255, 0.16839954441831767, 0.9603663371826002, 0.6914228613436547, -0.2227192831428871, 0.17966190063536344, -0.3618610508110102, 0.5310973701120585, 0.87341789667966, -0.5188663065818286, 0.6040401670710214, 0.01718761866836352, 0.3581904414772101, -1.147381613357112, -0.5219009831746672, 0.12148859387225874, -0.14099303995978263, 0.23231843003178382, 0.7994180275405399, -0.9692029198542939, -0.9472378786342975, 0.5289194032563431, 1.0492670357783196, 0.6486758617215209, 0.6092256897068428, 0.0020723468754332355, -0.49183749690821515, 0.72462109629815, 0.8654949399790789, 0.5714813276234446, -0.17836363394321703, 0.37242527947908327, 0.6708555875422287, -0.7374842895114246, 0.8025833435584433, -0.8681008211989472, 0.4838762118546901, 0.13828722888251918, -0.42496476129881533, -0.018578382901371246, -0.9492809849477991, -0.1876178896224745, 0.03814444595646305, 0.08933120553977729, 0.6933516109787952, -0.41868616529352815, 0.8243747745219115, 0.5242083273828707, 0.3747678764174444, 0.3848541097282595, 1.0953088009092897, 0.6029360744398845, -0.2300545402235446, 0.508813136134527, 1.111741957351669, -0.42146651812575503, 0.30452809324101393, 0.3914758351670648, 1.0487077780946823], [-0.009596158525502118, -0.6237175828980608, 0.047573225935452455, -0.31611876045508797, -0.04625251724608794, 0.491318283282451, 0.512390214986404, -0.10513448201515163, -0.609676270392438, 0.5862700890894882, 0.22866086075518505, -0.8383236889933757, 0.9327062173052495, 0.23078503841661258, 0.865166533303922, -0.04764518451993298, 0.6647420247428213, -0.5436726088212895, -0.6935759529394234, 0.07102867593098432, 0.293269271789206, -0.4354060872932104, 0.0043944867250472145, 0.7026624310619857, -0.5076039201443631, 0.9856468891385999, 0.7504462245686804, -0.4429948035164439, 0.432432392614743, 0.37201955792889274, 0.6404663334695349, 0.8098244591837087, 0.5757027917902737, 0.06922997028492181, -0.5223676521775937, -0.29301755618344255, -0.6171507276327073, 0.22103760612822465, -1.187290471280755, -0.5463860652611505, 0.12003340197130685, -0.9539318534883939, 0.4694395280592012, -0.8723549530089221, -0.2793500501157593, 0.5676135667678022, -0.6214908470944704, 0.7411606705374341, -0.9901306976240998, -0.5844716212284891, 0.16015579566354723, -0.32797033569939427, 0.2890262043801331, 0.17940443526302663, -0.13622375454832542, 0.9064763796578269, -0.9469165227980254, 0.20196140984874536, 0.0833106632338354, -0.6567422842891334, 0.09011291646190939, -0.9509060454095859, -0.40852651649294636, 0.350989330522712], [1.0657956104495208, 0.5765579424784686, 0.4644675760701463, 0.027379548063142235, -1.0117664441001533, -0.009236883710536912, 0.6643756811616787, 0.6672739919252548, -0.9281034928488999, 0.23379314466692533, -0.05985704617350196, 0.5355768306125647, -0.5385289129337648, -0.06821982233258952, 0.41349017490527407, -0.42806174881371906, 1.0398122582735905, 0.34985988504297927, 0.2413330152447637, -0.10703008387570756, -0.6137748607169359, 0.5345317833656067, 0.36647536999382613, -0.21311887853501793, -0.044218425074310896, 0.20255044117818738, -0.07323744963159659, 0.6401064706505216, 0.02136377690175015, 0.5764690586746398, -0.2758497929924073, -0.040018951023153074, -0.9112594303227042, 0.6480879651223292, -0.006198596882221856, -0.9021013221114241, -0.37926894871404776, 0.6131991808763437, -0.9719307015055272, -0.30818039856706314, -0.6631588668997996, -0.6107787483913489, -0.5892497370147015, -0.2788992053780235, -0.0909187292994135, 0.20992328834841448, -0.5988204198971964, -0.2966302284700283, 0.9010467924940977, -0.5697439879317611, 0.11288683163223596, -0.31879152076094813, 0.37434854315732374, -0.0491834267166031, -0.2611149544797155, -0.30589018070756363, 0.056548614840831846, 0.296166571217641, 0.7097461854791545, -0.7782092700575778, 0.803225075160664, -0.7971465587851381, 0.10315792144626715, 0.33828977305071845], [-0.762323749238017, -0.539079168149253, -0.10335759171302192, -0.3953725818027534, 0.882477292831737, -0.09746652122189448, 1.1438046525879735, 1.3922516852648577, 0.7364062425075467, 0.01612781011069386, 0.8441560615833026, 0.08877568542519909, -0.10834869581856435, -0.3846303043986014, -0.5660713319835274, -0.3000036931233937, -0.03731507337577329, 0.10035425198462647, -0.6109528855439574, 0.8701078571254948, 0.5600656262851886, 0.6276028214686399, 0.3787748141657029, -0.12089877055132203, -0.4559821886226624, -0.3712051475418067, -0.03874715784715565, -0.15588986416156442, -0.764816111013232, -0.6452885019656313, 0.7635795832459898, 0.6648118189306468, -0.416664767690882, -0.31963785452748816, -0.7614743519170118, -0.24697711559807659, 0.8552214428081937, 0.5250775819423483, -0.5718809924573725, 0.781752887619777, 0.8611628095411504, -0.39050285713561866, -0.37658407559746604, -0.06596616023777523, 0.1385814203518448, -0.2811024651752576, -0.7122342112589963, -0.06992661492739496, -0.1284205967960616, 0.2916407085017471, 0.7572472680433803, -0.41212593531787434, 1.127560472392672, -0.8165901560991251, 0.7343666924817798, -0.4422844997408723, 0.06166291369909277, 0.6221402687751023, 0.8188245871133896, -0.20031220852919876, 0.12410567058229934, 0.7021193283479218, -0.7580282761861767, 0.3794062883799111], [-0.35499282229454054, -0.2502973532302499, 0.8743784557413253, 0.6412076584244646, 0.4471624266160868, -0.1169094496603856, -0.3094245879253011, 0.03516394426065083, -0.002246957282434775, -1.0070787500296408, -0.9149726376617997, -0.5022798912077369, -0.7226947371605903, -0.8554673428060369, 0.6213277494612148, 0.08614513223817474, -0.444990072339243, 0.8554644623811537, 0.6313907442018782, -0.4200432236778656, -0.5715189771292973, 1.0059900517694274, 0.26191065629131555, 0.6977701392110778, 0.29104647994249316, -0.33855111253150216, 1.0647883212754372, -1.206846253370859, -0.11143303499811479, -0.21466277058613126, 0.8685282007366233, -0.12936670643310172, 0.5979771814036966, 0.03474894607273628, -0.25281274651630165, 1.0378919235682473, 0.9466553687125613, 1.033928845130057, 0.5380487264711811, 0.09119847039428308, 1.0891720412282049, -0.04455219205719658, 0.37067921674242804, -0.15355979188712143, 0.9429750178126819, 0.027517511410070743, -0.30050017442038246, -0.8788582797748259, 0.2168092355824649, 0.07853174488540318, 0.15021951990192278, -0.28391265551202005, 0.1811860858674606, 0.4594890230786735, 0.6765409717471913, 0.11079991988677666, 1.1771126556516196, 0.8896576754493385, -0.2711914629120022, 0.7255158826611174, 0.19410884947933216, -0.566408322873673, 0.6451898772151757, -0.01548619992399378], [-0.5842798489652424, -0.29615169836719246, 0.15460604975881778, 0.5058429143567017, -0.47406825940690317, -0.6617050253091723, -0.9287651592276888, 0.18648226429997863, -0.8078165864769649, 1.0283782335487743, 0.9432925468820818, 0.7895712742798906, -0.1388798527094757, -0.6128633615179434, -0.26881904577174487, 0.38968415602102807, -0.8654430754016864, -0.31803506021566413, 0.4835666391262987, 0.033117097232985414, -0.25711349510446974, 0.043969821108690695, 0.4722166983541274, -0.04804727435545595, -0.7883316124924583, 0.3735107578983269, 1.0885699320665165, 0.5997548452960048, -0.08915249009893382, -0.2351374224831146, -0.7316476225930927, -0.5192760310849265, 0.38319337707956136, 0.4919427569930665, -0.4282072352592595, 0.458717865837419, -0.40273455024396865, 0.2175343440533973, 0.7468128399299342, -0.46190764391742983, -1.0017677185501621, -1.0735913610113936, 0.6114015480728001, -1.0082809702439675, -1.0314639235779355, 0.27520392522134157, 0.6993382373351154, 0.20332019203135987, -0.5208468817732225, 0.5408294063680408, 0.6411207272148187, -0.7109034530832068, 0.9640398195866375, 0.40975916110874133, -0.3578259666989636, 0.8126205857274964, 0.5341528661778187, 0.40264227793040996, -0.09628614145896028, 0.5986524908858779, 0.6364363973828718, 0.5347453079367246, 0.305939436302738, -0.06564415426077559], [0.2534750012299292, 0.046122418544180754, 0.2921014457563197, -0.6920833814599414, 0.7797346263855423, -0.25088804626678324, 0.08280606219061892, -0.8062214334217348, -0.2607011481913547, -0.9045697782538937, -0.05836744632047457, 0.18221375683292682, 0.7721354452662178, -0.4322760480809745, 1.0804092692294434, -0.3371893216637209, 0.8995768846057375, 0.5504091008705402, -0.6769345086887345, 0.9023181149328195, 0.4021863466609158, -0.12400162082523566, 1.1193659774999247, -0.33394106699233655, -0.9722397737689696, -0.29866702275972823, -0.24316830039783088, 0.09555011137648353, -0.9514812517814175, 0.5062549835161497, 0.590247783936904, 1.1573079200566005, 0.5864509569699947, -0.12815453445515862, 0.6653084173630479, -0.1934198632939152, -0.17121537018578234, -0.7685253327849109, 0.749094487690351, -0.569882125750395, 0.7062502160937879, 0.8179927414680245, 0.8145629129201026, -0.5509877681626376, -0.49382392272700565, 0.6729358534257142, -0.7198315736373502, 0.17433138524743605, 0.18991685710033285, -0.014357293201767565, -0.8552845183029083, 0.15922101186626544, -0.3791633897933706, 0.2429172346356685, 0.16201616071475727, 0.26829449676375744, 0.717320344556394, -0.08650198258251393, -0.17570264368040675, 0.7360138472452924, -0.308792769790726, 0.3004450073814932, 0.04077965505307223, 0.012027758882137618], [-1.0053384167283361, -0.6054253309191319, -0.6854069194525276, 0.8072728737530607, 0.1364925389732265, 0.14627758610702618, 0.05615657850859669, 0.3432032016331189, -0.10837632477910311, 0.8725910350444057, -0.42823529280833383, 0.22253587578654138, -0.3610092547668703, 0.5599363343086401, 1.3149171078535615, -0.2647229732213919, 0.5781310807612214, 0.6814468765410207, 0.6294814933313273, 0.3494555835659684, 0.7594608307714822, -0.012033820975304293, -0.6601046124411738, -1.0939627325667065, -0.7251550328922942, 0.75564337717023, 0.08358896183257349, -1.058429618136395, -0.8883366737318215, 0.2926988526030196, -0.4667602835767363, 0.027789313445361535, -0.4327852442860182, -0.8832543505726349, 0.6758364274402012, 0.20894394094893137, -0.7881569951588966, -0.19373040744821715, 0.9090011413504909, -0.981843614171545, 0.07832947482419886, -0.4032629149145691, 0.020089008139389113, 0.38670074700898494, 0.894375038860557, 0.5613242033576855, 0.4212722812885915, 0.07413306202005847, 0.6240201775124371, -0.9752899960593622, 0.8197889157015276, -0.48551115619727236, 1.1945452790188644, -0.3781923213596813, -0.4031182639500589, 1.0020196961112628, 1.1086487637546647, -0.006715297729847439, -0.3187288885172968, -0.13701069491276957, 0.897295748389468, 1.2131362407967419, 0.4505942057462322, -0.006040748913770026], [-0.434813370753046, 0.09351199063954803, 0.767432316281303, -0.30565311848598675, 1.2283948452393225, -0.9204492873065007, -0.3335145678354898, -0.0011856783317861844, 0.3555555225482288, 0.6319487942968331, -0.5024976677156786, 0.04353253184140249, 0.09803978951246886, 0.339552965538107, -0.5320997659745292, -0.1557632266294582, 0.739030636214809, -0.4728188644651198, -0.15072702391921045, 0.6277482076092684, -0.5084743413556321, 0.869381010731024, 0.3268225617510687, -0.6232387471058719, 0.9311189133354997, -0.21144983153497252, -0.1471211050515721, 0.3991375736258519, -0.3885200674491896, 0.40088162017420537, -0.3869419054650525, 0.06809591736578328, 0.3354276451830007, -1.020088238923796, -0.7455773081894944, 0.5481076367800597, -0.3629922103335031, -0.2791882599785648, -0.6911824496577555, -0.24970834445216422, 0.8291517400240289, 0.37899204382733825, 0.2557121685374152, -0.6798992936878113, -0.008479460334870853, 0.945474451764691, 0.10127242966889712, -1.1535547483535886, -0.49405511929689344, 0.1809610466509193, 0.7611506436428617, -0.9064330987609633, -0.737142226677873, 0.47838540895728776, 0.20099743441237417, 1.001607170518491, 0.6211181673201103, -0.4239955785120498, 0.047624176800064824, 0.5511456179372067, -0.7863362253463946, -0.40729926901133523, -0.9731055690133484, -0.3649168536383057], [-0.05504580422147176, 0.3758169448820943, -0.4081458542171033, -0.4026090443758637, -0.6801145662462108, 0.7408168522106248, 0.41532996855494125, 0.4216285053697323, -0.35154948672484415, -0.3973156042978869, 0.36728933761091104, 0.6559601667121049, -0.9860093978825464, 0.4015182602937168, 0.17856521011451892, -0.36794166799360106, -0.511086631821426, 0.22282415685420762, 0.4838054036653133, -0.30361148109769276, 0.02508260036345896, 0.11314231651427176, -0.06084489870684655, 0.4605124821211416, -0.25151744977939805, -0.6167018860713609, 0.5993316522884845, -0.16446773638807205, 0.7222381024863832, -0.2725375147237445, 0.27684748084220384, -0.4547954247538801, -0.09066934774586938, -0.7942692535860025, -0.1807625336521366, 0.2319491529273888, -0.14042632025434365, 1.0324550432890531, 0.15491172575506523, 0.2877135692245739, -1.202233336868077, -0.24492233907232067, -0.4360868515230921, -0.35420208334323755, -0.9877558032389668, 0.3653294395491481, -0.1889977176522179, -0.7920316078657279, -0.5425562206738379, -0.1696264952576299, 0.06574984461333913, -0.015666202033609473, -0.8411269300792344, 0.8595126672908041, -0.4483446915960945, -0.4729165714005938, -0.6773948020874869, 0.173243572943023, 0.14965630215920603, -0.5439572348939523, -0.04098735857676626, -0.9975260073283634, 0.6218837985657899, 0.42843351135832297], [0.7534847785293504, -0.548053004028612, 0.19584749686108832, -0.9592960890495981, -0.12592130451470168, 0.05732020749067438, -0.20490735600045173, 0.18757704815907916, -0.1147000022753828, 0.13800463715369995, -0.5895041777243717, 0.8251518437647402, -0.11676835582551999, 0.14277730296936839, -0.4489527581230138, -0.5274282128499983, -0.8194677943531647, -0.8616901534049944, 0.23290077586095084, 0.5185859523659901, 0.6966469128394431, 0.5770278700476775, -0.3394016652234558, -0.015023179016995286, 0.11401014636956983, -0.3685749509485979, -0.5149595429665482, -0.6074383737072953, -0.4599410002959595, 0.37592193499985493, 0.5021696129939348, -0.8579415824612393, -0.5300806433837695, 0.35971940939246594, -0.37995459223350475, 0.6428114818528257, 0.24544508791956088, -0.017370810479269343, 0.19843683041735954, 0.6821716110910241, -0.20345064436909643, -0.9340123111776768, 0.9390308673289501, -0.3862932613693689, -0.4452687690431043, 0.45023041301111777, 0.1926817687885834, 0.2581984562808838, 0.6276400778235053, -0.5032663689445092, 0.8679443633481447, 0.5045510574527426, 0.9539834955628421, 0.012179879076980742, -0.7698618902866586, -0.7902767544908437, -0.003623568583144161, 0.622242883308194, -0.18240957751795545, 0.5470737193388703, 0.6444798043331482, 0.03747605959358152, 0.23895383134549092, 0.21077988138528853], [-0.1960477440603344, 0.7751446757335552, 0.642659262177801, -0.7007602217404845, -1.03113934911878, 0.8273416180839099, 0.6420272677758783, -0.19815436825067298, 0.8071556886564327, 0.14045495531647387, -0.24415690987018138, -0.23461599539056666, 0.4737657148836448, -0.1934636089627373, 0.5689126839316767, -0.11782902034620717, 0.7611146248085625, -0.09179777417135097, 0.14367551853795751, 0.49404732646473165, -0.3896383329091294, -0.24278004910864603, -0.969739015401523, 0.09092492921353693, -0.2588982574332978, 0.021541219814576577, 0.009322787925546869, -0.6500021388155497, -0.6946154030236485, -0.38018113353100974, 0.8913249831028699, -0.6521179533131521, -0.059154053206649834, -0.4111384218628176, -1.0000341880207952, -0.2544427582892613, 0.509090820249064, -0.55564586695956, 0.13272799245566397, -0.9294926347895173, 1.1355688181553183, 0.09081118968909471, 0.2606101962074107, 0.8252978017059618, 0.7351084139247233, -0.33549401788926325, -0.3169221677456088, 0.36445150320998204, 0.6000462479425841, 0.48183102974066194, -0.19528358817266256, 0.010150938152126485, 0.3952202063552924, 0.48746733333335274, -0.13691297740728403, -0.01510695427035012, 0.08369244173624418, 0.3907408886520739, 0.25776861281954455, -0.22431174094976244, -0.7785822741928232, 0.11465787812373004, -0.578999075157593, 0.9559114570161787], [0.23068934464705704, 0.4444778910301097, -1.0344490915476576, -0.6583142456742133, 0.557191127093267, 1.0663419014194706, 0.1421291433895146, -0.9294773003965737, -0.5066070019035862, 0.7384226017943245, -0.3333661005007491, -0.32888875071649615, 0.5939031401954702, 0.03906996974309219, -0.7439657296453532, 0.05334141328875761, -0.07164971882649186, 0.42088585654620364, -0.5048140158017432, -0.7135904016499601, -0.41022141494507586, -0.8089576818132184, 0.9054075253029279, -0.9640260784094099, -0.4914202576872416, 0.15421288928304072, 0.7791064004158089, -0.5072137817885768, -1.0102300596282983, 0.4220096417850604, 0.07477463473061471, 0.23702759821122008, -0.15751786548170485, -0.001975502641844895, 0.5873423096829682, -0.8046325426597722, 0.33317343441590924, -0.44709516434048185, -0.47676331178205783, -0.6312334904961425, 1.1845981429681338, 0.9909377554579866, -0.1303382737512167, 0.613943535156386, 0.9319694010223124, -1.2039039242494467, 0.25869269538432305, -0.7006586943341927, -0.7487591440077495, 0.23115794846401885, -0.7410690573655216, 0.3481851711830846, 1.0748908600703542, -0.39598734339154423, -1.2080716571236334, 0.7324375264075241, 0.9716886287734896, -0.07038650252288162, 0.5976506652711456, -0.32801374755365875, 0.9579325471812628, 0.44087360353498556, 0.5515074899803883, 0.4353296467349394], [-0.31833396109177287, -0.8850917101219187, -0.8073110949141299, -0.3975725781029643, 0.591845628802051, -0.6658718691335029, -0.6534438981677704, 0.4835901560332762, 0.025130004360242097, -0.6210061400509919, 0.03436924718311185, 0.5019408600986717, 0.3872978144193479, 0.5374159723447327, 0.8441817479253391, -0.025633646375288633, -0.5571026198446035, -0.2733944817607696, -0.8227847583269524, -0.41151531743170666, -0.21791073643297384, 0.08962630342702028, -0.854990157982329, 0.4848113347527566, -0.2593413070412925, -1.0538303085858187, 0.7082121738677014, -0.941038388410701, -0.752512059515943, -0.39628610443625645, 0.20243344897687562, -0.5718146008701188, -0.4096167968386156, 0.0025239797369781213, -0.897334806825439, 0.30607787539871045, -0.11509212131431265, 0.8462040869947511, -0.6270643442515853, -0.5073214647095966, -0.6793308890306151, 0.861722756950023, -0.5095909261321769, -0.4147813305859538, -0.5870666868823777, -0.9144170678296369, 0.5249402841558801, 0.045270385832197835, 0.5824898723246773, 0.7401549739069504, 0.5449096130067559, -0.19851314235796647, 0.9282095473513247, -0.47584786177864996, -0.47829592913209745, -0.09665815947123317, -0.1691151259379689, -0.5763217758187372, 1.0425257690152716, -0.5071369045580023, 1.1579388332338385, -0.15827519996704928, 0.6375623094269792, 0.029773852609872364], [-0.7961018367333714, 0.8211044077221625, -0.7392395647433675, 0.8775800429949101, -0.3657470504773594, 0.7241050970209095, 0.41319317483953777, 0.5177592074231714, 0.6682444921951753, -0.8830371282378549, -1.0011169441372059, -0.19813722708588463, -0.5238856480067375, 0.8759355345910802, -0.3522416177263947, 0.3416934699129083, -0.21865088041978814, 0.042197274493708525, 0.10804214902611395, -0.8586978700973379, -0.7912932957543515, 0.3001180919483715, 0.25303263388034175, -1.0068682741901551, 0.3479195751572662, -0.6354174866755021, -0.3845670193561884, 0.7225874551888237, -0.3692177310902699, 0.513927953846513, 0.1363216080669557, -0.4976065463998013, -0.6260350499542436, 0.5716341301592791, -0.3010463672596753, 0.020778250513742567, -0.9461684139902898, 0.2078620051608037, 0.8281728352085658, -0.032766218918026266, 0.7528814340452025, 1.0413232668102559, 0.48538917797707404, -0.1892036968981317, -0.764726687180121, -0.10520187912040473, -0.042126184713347614, -0.2865743679085927, 0.3687614851472438, 0.14943988047525375, -1.068027591233903, 0.5619112996178134, -0.6279254327249781, -1.0071374881394681, -0.2546779605710602, 0.5841419743268418, 0.9380538065987496, 0.5842210604813689, 0.5558392262340133, -0.24295930136168115, 0.8006966389530197, 0.8403875656681506, 0.6185427562169694, -0.5734895340003094], [0.2331173590813238, 0.744698144496166, -0.7115695873899075, -0.5712050952535479, -0.15093824882621426, -0.040940617672580996, 0.5187092045317543, -1.0523751058744333, -0.00014426847256268638, 0.6567537805751036, -0.9746782349375929, 0.55217882819081, -0.5327364572748474, -0.19342747661942267, 0.8227904073712816, 0.5331359097376379, -0.2062770054625538, -0.5293992233933886, -0.8016564965441043, -0.17167669152858364, -0.6423151338991702, -0.8424592928492046, -0.5798744702096987, -0.6876951185925735, -0.35555130865499246, 0.3878926360295088, -0.5221625995145451, 0.3121334490361402, -0.021346402307392424, 0.4494847741449563, 0.8754070141433473, 0.9553898108345529, -0.11280891274274218, -0.11013313136986944, -0.7591676540684851, 0.2279956157146832, 0.4101768521279555, -0.7167471774113474, -0.6111191445728579, 0.5294081721130548, 0.2647029781102281, -0.8352805676825763, -0.8190476429102844, 0.16979822312692922, -0.4625548652452486, -0.5474867742635279, 0.5664202522077341, -0.9029793911798425, -0.7483767159296173, -0.8462377937102759, -0.201573847538697, -0.3024427007946793, -0.6223719693040978, 0.3242108060092077, -0.021587350800954606, -0.6603800539391403, 0.18552880040493352, 0.3685198739530819, 1.1486404857728199, -0.1741832905528035, -0.3807695316239567, 0.3620403671980626, 0.3960721154706036, 1.0288533285194572], [-0.33975385918708034, -0.9783129904967465, -0.5675198412994641, 0.12307972886051544, 0.07120496254881706, -0.5593798617851855, -0.6082936250022535, -0.36381010164332817, 0.4508635344746318, 0.8039332250006271, -0.6202170691204258, -0.7436565603023804, -0.12074094941733057, 0.6855142459396506, 0.17140198543426383, -0.24235094265549145, 0.24039842487368235, 0.06577869782440701, 0.26534278960998803, 0.38884299173729187, -0.642568468483634, -0.0725201771758836, 1.2484447567771064, 1.2417058984842475, -0.7661659130365833, 0.4620922502122407, 0.09299717299006552, -0.8814521977556158, 1.0874055322184157, -0.09134869703840978, 0.6148396927001144, 0.35166814308024197, -0.42537236151951097, 0.03188516276182989, 0.26464809430651304, -0.08069398879814822, 1.0340444194707392, 0.16838033714977296, 0.6541647210707208, -0.6713780006883889, 0.9507803048611218, -0.729166057646301, 0.20828929408925015, -0.4642160978483136, 0.49479171030102514, 0.3170683590666324, -0.3492142182716703, -0.4127998290359535, -0.5936232067454259, -0.9803154559000561, -0.05493424204445181, -0.18172918512097186, 0.6392048380846279, -0.6956455259453167, 0.23281942847015596, -0.25380940624875076, 0.5518524753854589, -0.9620617017676668, 0.7627398034425141, -0.7252051153556979, 0.5038861925677715, -0.7701123089354294, -0.554245122196295, -0.35677023745888536], [0.4939449273953766, -0.6394837895552647, 0.38378913692843475, -0.30213091517205265, -0.31723225992988635, -0.6743473676884946, 0.7255613950139548, 0.10586888264184564, -0.2582200207929949, 0.7663729426350281, -0.2923124973650881, 1.0333415203866851, 0.6097142802824258, -0.5835525825446368, -0.0665507547054059, -0.2441415183194952, -0.5850760322729986, -0.712166382928543, -1.0998306014446773, -0.09109932184426646, 0.6949937307852083, -0.029652123494808464, -0.9352120896410725, 0.43096937996199436, -0.13331881697483056, 0.5505341033914124, -0.11134456262287792, 0.5064823263155794, 0.8660601215136854, -0.2853002202417171, -1.2056033145287066, -0.632453055685316, 0.776515377846059, 0.9188825145750854, -0.9539142993411327, 0.9274400067350882, -0.3663107918142564, -0.5075906277048808, 0.19939123893445881, -0.8863097243308055, 0.8529666595022016, -0.0701582447005103, -0.5455566888240914, -0.48982108757950327, 0.7498319942176678, 0.5932671210875119, -0.8262340364899465, -0.5640325501964312, -0.7237246462789269, -0.22396674602156835, -0.5875544477174512, -0.8078739147623306, 0.4259644378647466, 0.5268427673193647, -1.0200632466703756, -0.4265732970939613, -0.7460448023574419, 0.4967452239036163, 0.7968895511773392, 0.6909412705696679, -0.2828518971414816, 0.018172331087049954, 0.23448338460074775, -0.2005885427142297], [1.0622545075996113, -0.5862900420194677, -0.9659288068572346, -0.5100108516374073, 0.8416124767853563, -0.6543016595179536, -0.44241579207191206, 0.06287837234570547, 0.9311625329189288, -0.07631506816512873, 0.18717836261817394, 0.7569120237492737, 0.2936183157211916, -0.03971631090673934, 0.5448343624069576, -0.7824614030055281, -0.749484706031702, 0.5869117072299852, 0.4811600436641804, -0.10802744766563203, -0.3744786543260526, 0.20247244807824777, 0.8367459110233344, -0.9009992835032989, 0.16204936612666235, 0.3182559568179545, 0.40296608275004464, 0.36906068519291063, 0.3204309673054765, 0.8716150655715861, -0.20913577725851207, -0.49576646564953847, -0.2924278383585841, 0.9753689651633269, 0.4431064220029281, 0.6181445884690187, -0.03465675932170627, 0.2656250400465484, -0.3871912730626847, -0.4161740710465002, -0.03568855070845986, 0.5603952446309108, 0.7451413401021209, 1.1590027136849859, -0.07410810976834786, 0.7347364764346047, -0.17970699838034698, -0.7055331527413391, 0.18285438025367814, -0.4097384607089495, 0.9947731282653812, 0.47075411249773574, -0.3048660568984339, 0.3029173203370429, -0.008390595471675527, 0.44307631686093873, -0.19964145846558615, 0.00914704043190704, -0.28817928769741935, 0.8541440029243181, -0.3845359219579084, 0.38243307136478943, 0.8726951677164602, -0.46723762935690355], [0.059357763261685, 0.16867905735278368, -0.43733782162608204, -0.03341237161903608, -0.13144202975423785, -0.9347429062672535, 0.7003651928487045, -0.6982002258265458, 0.11609748570665471, 0.12031787562632953, -1.194963147734408, -1.0258039335648743, 0.19452879054677824, 0.452287654047783, 0.607245712808606, 0.6843791221255711, -0.5779542759539614, 0.3532921434699602, 0.5319262391670939, -0.808807895621638, 0.8414789960520921, -0.0625660936613936, -0.10334273914802958, 0.4035337725740531, -0.6137502327887856, 0.32653044508850915, -0.1286749031406451, 1.0914003313237288, 0.8667278978556585, -0.8094060864602126, 1.1108094416275764, 0.31140763422598794, -0.6630383130111465, 0.7094231037202372, 0.13072508105651623, -0.185449137097242, 0.44066674938835637, 1.2986667519784298, 0.5902672749122336, -0.6078282658354476, 0.3609449360718727, 0.7765413708353923, -1.2560978212306455, -0.844772317121766, -0.713738199575116, 0.3445885585799835, 0.6961796643340133, -0.4170401129669462, -1.0853646960386125, -0.7316596480828947, 0.2256901366561001, -0.03668874780497966, -0.5396227541192035, 0.6669861185811925, -0.7730042963278406, 0.08483961637268797, 0.8474989397740087, 0.5740674020213204, 0.3602734940015412, -0.7794705812214845, -1.0201940260063442, 0.7029387313794005, 0.7379030514368143, -0.12954061925229615], [-0.6629370684584945, 1.09158856317427, 0.9099466260983402, 0.12468660266087254, -0.8588838041840067, -0.4606434924162395, 0.8794958652676371, 0.9963664238043538, 0.16802242764142825, 0.8130619705038455, 0.37345747369591087, 0.1471627576684475, 0.3678783727547167, 0.753599450447593, -0.44065078724568174, 0.46729689067684366, -0.23505558012432268, 0.08617114997494317, -0.5198778968210572, 0.29287245310119503, 0.9936432332191492, -0.5375082688376184, 0.5663674245793493, -0.158493324228905, 0.04607676480858839, 0.1821311025327636, 0.9530447597517737, 0.23628264140140373, 0.5330514520161549, 1.051517016819282, -0.5675250121459502, -0.6051075999631399, -0.38215367004355294, -0.34904572772510034, 1.0324894111798228, -0.7113638802840299, 0.14335035151418135, -0.6248694639090623, -0.46734858988673633, -0.7642492041128138, -0.17098470903878255, 0.634005048498042, 0.01884626309502779, 0.2789271497223879, 0.5529301522557749, -1.0494039163966478, -0.7291961662765495, 0.6563842081950222, -0.8346047695230041, 0.7146992009508756, 0.5038583517244671, 0.9388591687887498, 0.08966932741698898, 0.9563471157619599, -0.34573650386572163, 0.18839853529384545, 0.8066920954575879, 1.006489988640531, 0.5745821151774891, -0.10190303454740987, 0.6590303346524917, -0.0464978309597875, -0.29854033219142534, -0.7284281643862156], [-0.44971822850397825, -0.9740843337878211, -0.6503438404071529, 0.7682501364210444, -0.2206596441533888, 0.07427263802599308, -0.9684322387056351, -0.057317323331557056, -0.0032660485553803824, 0.04840971093688555, -0.4442822081656262, -1.220985465301222, -0.9366549364871956, -0.8300281141300891, 0.10910112811916786, 0.24953894616879632, -0.27867768392570735, 0.4448705858764025, 0.8587075416259695, -0.09939991587498662, -0.29172695713109664, 0.7549149709633862, -0.07339429807430502, 0.9073669742938659, -0.9298809291752669, -1.0405010541985313, 0.1087019511794846, 0.4269347816446173, -0.7468505145782661, 0.2174590949678697, -0.5558417914625293, 1.1673480506832739, -0.3880554615883359, -0.8799325214696392, 0.4477497391951391, 0.6511483300485094, -0.0539218743174266, 0.6321508825996344, 0.6461236265832542, -0.14495169114324843, -0.6846826654207202, -0.9098322874385897, 0.522610925371371, -0.47565922239693637, -0.9858292944799445, -0.851669959716794, -0.2570896327698829, -0.516837155458053, 1.0137624579870539, -0.07751646870694796, -0.08185121188164254, 0.8168592905506445, -0.6644778830674902, 0.2749725082600377, -0.8719852261851182, -0.6896030003499712, 0.9708909958170194, 0.9033974738534756, -0.4152863885366623, -0.4371074953939731, -0.5794809031634027, 0.6664289772995368, -0.6853174910355925, -0.47522287640417044], [0.004021543847408598, 1.1475139625788673, 0.17135342830346598, -0.7146382583633151, -0.356127507394535, -0.07128971611496511, -0.7282114070306812, -1.0481175495600965, 0.6546237379051225, -0.2444360531728133, -0.07944818091435105, -0.4086067402344053, 0.5671440281300048, 0.6260410919422345, 0.8543156587329147, 0.2809883328874072, -0.8156689724500324, 0.7136231332347659, 1.0242139398454595, -0.6409538180502243, -0.3472887462011752, -0.1552839181159043, -0.8239867960956013, -0.12159859845693836, -0.7742709188179336, -0.6753369177409116, 0.0686290669190359, -0.8835914586167221, -0.8655396544127434, -0.9701822476823132, -0.6124970359828003, 0.6605096968962171, -0.4612120897569863, 0.7705021337543004, -0.3251570039921422, 0.13039434545197195, 0.46802425301226414, 0.5236516607719766, -0.6268127999909676, -0.5743565687699157, 0.10270926516623861, -0.6439632553312286, -0.3678756596884133, 0.6010297554604018, -0.04195583520466521, 0.40603014176991803, 0.12807898761757802, 0.09784664937202579, -0.7762176540813512, -0.595083327882181, 1.1570045172560939, 0.08481177837918213, -0.649637476283663, 0.11368021221317264, -1.0687805114947635, 0.6579864926775487, -0.176316209445948, 0.3369778083454844, -0.7651651919773972, 0.7231347828851626, 0.63747652644696, -0.8747006398600057, -0.34763350370472035, 0.8940789647933753], [-0.06472680617056614, -0.5505988829545141, 0.18824951793068118, -0.16233163000386103, 1.27282909838705, -0.007047533253711323, 0.8747402942089973, 0.1869666511844457, -0.0513435501538565, -0.566811753543477, 0.2791060599341838, -0.14782139814748016, -0.027724644510376047, -0.7378869136186942, -0.8622984768566193, 0.14808890159984148, -0.48706858599689007, -0.5388802479884601, 0.5632910002815134, 0.23274151529307444, -0.6022559343942794, -1.0269741393668272, -0.6866560828991704, 0.40237286520451826, -0.5446416215900335, -0.49535506285814923, 0.19742481487938712, 0.13724620399096826, -0.7926756849254556, -0.8694218202731205, -1.1160827584413295, 0.6486102894190007, 0.7199637768927896, 0.23088568755680278, -0.4489101158895007, -0.7582249010773727, -0.08891180191701918, 0.7955970463091123, 0.4797117237971418, -0.2650613473444451, -0.26415940750062034, -0.341806924595642, -0.27039740351820896, 0.2815753210023767, 0.7447366113959678, 0.6088004044365051, 0.4347824620630596, 0.3058341322385113, -0.15317283004509058, -0.8389431074267832, 0.7598347551612157, 0.5973581126424459, 0.7616838392282353, 0.21473720635888166, -0.7002426468740921, 0.21681523980484937, 0.6214307592861055, 0.06340357730414783, 1.060068202926163, 0.1507955663567335, 0.19127196746790687, 0.4121744169789123, -0.2269370154401714, 0.7708780937876364], [0.7936160163346274, -0.08845160557548351, -0.11110419430851544, -0.32417112989153046, -0.3506665916465439, -0.7361245874938257, 0.6818142874235915, 0.9925670389424338, 1.0919425368307456, 1.1360093611401598, 0.5199342263176456, 0.3880527125581227, 0.44489916054416473, -0.35884290248341955, -0.6453962292869436, 0.8602303552244784, 0.5184845544542431, -0.7904581770441933, 0.5966406628880618, 0.2872134190090504, 0.5240621236043683, 0.11117550442378003, -0.5350954651175066, -0.29016285053386776, -0.9347924338832925, 0.5682965627499048, 0.15437862573137487, -0.22783834140545173, -0.5080037021061883, -0.29177117202707337, -0.6037636632691659, -0.4697167341984474, 0.18894302215286185, 0.9270766616856841, 0.9487723344487886, -0.06770618616211684, -0.31884141864815785, -0.4611134313485519, 0.0056583597321604225, -0.24537381531189303, -0.46061440145954446, 0.6045820361869174, -0.9827265902052952, -0.0920299016564591, -0.10570595883135936, 0.7914931338485224, 0.7603657826478647, -0.620385118067664, -0.8892325114936173, 0.7049408993628089, -0.8122248014766213, -0.8605772690043185, 0.5235517975252911, -0.9246177332234196, -0.7454451698136795, -1.1198210181583104, 0.04959144450710963, 0.9251632577516155, -0.03725755511287513, 0.10383251990683746, -0.6895326628950683, -0.6737268914331478, 0.5948864793749472, 0.6649406450728769], [-0.7585625230539759, -0.056225066645767686, 0.5366799402217819, -0.7325807785952951, 0.5051477066352504, -0.876192541335455, -0.943089599128216, -0.06690707810901665, 0.3337824336971658, -0.28296169431736934, -0.39480817342777297, -0.14116423795307248, -0.21230081965963404, 0.41130641730586975, -0.5943452442848967, -1.090656403668029, -0.35455917328937253, 0.18734367917133352, -0.2226482632177916, -0.04940177577789551, -0.5151697685582848, -0.7104916894705624, 0.74543617442376, -0.9443204642161435, -0.013030425407601248, 0.010252758696592534, 0.8264198011641438, -0.3224241299538817, -0.09351466745714919, -0.1459133678323789, -0.033273037187535645, 0.3635517125686472, -0.6280785213830793, -0.3422145089012347, 0.5900286964476926, 0.4696779613867248, 0.2384460549136791, -0.38395008763765287, -0.4296788001742774, 0.26006626653258225, -0.26180481227151875, -0.019013432132880297, 0.7789574845871664, -0.8565576878595287, -0.6846333560882062, -0.4212506394378773, 0.27542733079959814, 0.5141129718804475, 0.5666805956148757, 0.12710794756644767, 1.1271854649828525, 0.1833200169557684, 0.20091361045940442, 0.41770137771907506, 0.6020330162707971, 0.7638820304988043, 0.021509342691327975, -0.470935195123781, 0.8294326212174538, 0.9212658303710459, -0.789871431229243, 0.19662765106638885, -0.04227405683058567, -0.013736267199038088], [0.6268296424168804, -0.3004177757051919, 0.11675798033438112, 0.06949258651104866, 0.5739410366812688, 0.7379005524595846, 0.13220618774945497, 0.7845450231857172, 0.3007122212004323, 0.6495330929856802, 1.4062762698059568, -0.8539017741379478, 0.1980918315237304, 0.4572137581265068, 0.38786422784313646, 0.7097411948132389, 0.19923764183551126, -0.7332923790453385, -0.44342795497077414, 0.06581746172864175, -0.9743111725985028, 0.020018695786066944, 0.5345495444078281, -0.4650741779860841, -0.7331478888060308, 1.097030403600397, -0.062352712948677766, 0.8950437140617484, 0.7046135228171819, -0.1835397004345712, 0.70557516191857, 0.05747211454783291, 0.31655657129971476, -0.3137083926973637, -1.2830902861578906, -0.5374055752241255, 0.6697029264672135, 0.5697649159841066, 0.2339020290356551, 0.50528350830626, 0.17574582224392826, 0.6638317725962295, -0.2077079194239678, -0.8249221147205779, 0.273172713346749, 0.47914768782467193, 0.1411187900265593, -0.5934750417410923, 0.07129326127449062, -0.29999549778354406, -0.5955246431180796, 1.0632374504883688, -0.24614489480299673, 1.060930074658206, 0.025764205824216263, -0.29798212672196156, 0.8064534033295757, 0.21588262218333504, 1.1098971541007667, 0.2626568053205844, -0.3105563209966274, 0.8604663082312085, -0.8861941679134816, 0.3064221754267747], [-0.3297437642939075, -0.063903521199388, 0.2761699123709172, -0.7511766510344868, 0.3929825441660793, 0.3023182421161331, -1.145457044989989, 0.19498731258983376, -0.28161440626884915, -0.6108454763537148, -0.027489670202494997, -0.5376846200619092, -0.6701568058156449, -0.02578282004406775, 0.48480367936408947, -0.13839954392835002, -0.7101267865193848, 0.15740822727929718, 0.5773993457050774, -1.1523821360030322, -0.33718033266599, 0.11180938676302998, -0.6386238301390993, -0.47443239400539083, 0.16393955620677775, -0.9345931027877759, 0.40753790205540386, 0.10822194773593305, 0.9555704704894785, 0.9266507794627301, -0.4447197702797115, -0.3119563605714015, 0.9069805742557397, -0.6464628058283945, -0.4816990040796374, 0.05666024884793943, -0.006556211485102742, -0.5451434409323976, 0.7417582249565532, -0.5032852931387967, 0.050873708166621234, -0.5998780862235208, -0.1931188459111413, -0.879215126606101, 0.11198162531913398, -0.11302944984071721, -0.7118720583529791, -0.2696257251952341, -0.8974535173377071, 0.10630950846690372, 1.0098006874119991, 0.1488081860690818, 0.7631119176313836, -0.34746024186161945, 0.29489337042089075, 0.8076490039143215, 0.31999327801161226, -0.02658484625955749, 0.2063852760759744, -0.24892583681348263, -0.5912125178570523, -0.7976813827182686, 0.15021581679669624, 0.09961550412557993], [-0.7174201037476242, 0.5364342204192083, 0.33783733061854726, -0.8539067575824157, 0.1753053764095629, 0.2382754636345891, 0.5418327018524158, -0.2616038340504311, -1.0009519620307488, -0.5942692169121254, 0.059007446920557774, 0.10287293148186667, 0.42338525226963686, 0.5462708772187418, 0.07555989315364904, 1.0057241750454597, -0.6894248623971587, -1.0834722756223072, 0.873765195291279, 0.47552221375947656, -0.7094045225553877, 0.769128341022527, 0.3874833975699067, -1.048471418294352, 0.8026812120091519, 0.5482835002777346, -0.5100394786384608, -0.6276325130552987, 0.6214920304180065, 0.1647468362281644, -0.3725480874827488, -0.9258823196367796, -0.1809324057740962, -0.9721939004457418, 0.1672413046117108, 0.7996033719412508, 0.19590681533996696, -0.12565959298367627, -0.7236159016662109, 0.9953919197558546, -0.698856652938906, -0.5552009822721834, 0.038717095738427285, -0.011998633625320046, -0.10504097644537524, 0.9933801271309436, -0.4075472055417169, 0.47244345369039575, -0.9208721722514314, 0.6929388664053054, 0.7617412587272707, 0.15112270823401674, -0.9751910558171687, -0.15222425482310759, -0.9334864966285583, 0.9617584973920623, -0.07132330274561531, -0.9441912214383595, 0.5935776590065096, -0.5770937709401701, 0.6599430369378494, 0.595893219304989, -0.24730482684020508, -0.013919816626210252], [0.4108668667648586, 0.3855206311349063, 0.7648454995438053, -0.05573824067032379, 0.7466919837842235, -0.3849313437782414, 0.7664546913435745, 0.46946601012594086, -0.6005059484978065, -0.3932467850218966, 0.5728822402248398, 0.0024469208004221144, 0.5614365667666219, 0.7566238062247339, -0.406908636025476, -0.740063051727338, 0.6348084270238689, -0.624396548186278, 0.7896106049868299, -0.4352033019340425, -0.031697433336126894, 0.023698372198778128, -0.6699020640369319, 0.7023778489073271, 0.09900504703402908, -0.3823469238176045, -1.033499641096906, -0.22883182355117387, 0.4588340142322501, -0.7161579766985594, -0.9705380542377398, -0.20242030945402717, -0.9086458814928345, -0.4306274918386892, -0.9607612557490686, 0.4535666454545738, -0.1615330670119326, 0.6861416431110184, -0.2730218704600419, 0.6042747566480361, 0.3364937513374504, 0.1885890056727314, 0.0008962188743487628, -0.7055432309290017, -0.7605193989798849, 0.7148456456959993, -0.3140919042602849, -0.6989005679633765, 0.6093615787522488, -0.01786836096673885, 1.0161693595867265, -0.19758063661448216, -0.24260292345949114, -0.855108112565838, 0.429178999195417, -0.17935044914599624, 0.025308837436500885, 0.6303827819841095, 0.4862310444763354, -0.6615783272312339, -0.25946727946922543, 1.0065402960934764, -0.6163857428272943, -0.08339958966833597], [0.5673415109955993, 0.19832568017135005, -0.7387503588585355, 0.24940609985222656, 0.6865909349757499, -0.39093113241932914, -0.9768000774688771, -0.13589334250102145, -0.06995247740869052, -0.3624531807723167, 0.30437808957095963, 0.2392500804427932, 0.2286286765187989, 0.05911216332555016, 0.22883391184907867, -0.7616363102731795, 0.2406749890342808, 0.36675514693820016, -0.9868994889045866, 0.036380164832205894, 0.9016927484871002, 0.7819646438954968, -0.25050444031278624, 0.6743029729686689, -0.8609116607097576, -0.33022825894146707, -0.9898366143227989, -0.6317948293653906, 0.4904784673048749, -0.14609066414032396, -0.35504221724194973, 0.19420161802748187, -0.5891868480439021, 0.9462280753630206, 0.03684121662350946, -0.9779649961321921, -0.6760731632813635, 0.012035024589180347, -0.10761498505170901, -0.5053547272915939, 0.2612827705888816, -1.3111806319575037, -0.15754872662929453, 0.6698490196165101, 0.20279270129627336, 0.14157741975814334, -1.15699355623708, 0.15146296901802553, 0.4054454720799727, 0.13573410247014683, -0.9344007774849284, -0.18421575432475581, -0.5035903915398754, 0.4490392250908906, -0.7383599342051557, 0.11969427747642902, -0.35699069782764375, -0.19180997307725728, -0.9980797137002464, 0.24454765725293579, 0.1393209771280856, 0.31668661672578924, -0.577892444916779, -0.4176847252307681], [-0.7253156091142166, -0.6327411271261042, 0.7772099031332906, -0.36240643395485667, 0.12159633933212395, -0.32285423936677204, 1.0042707848771826, 0.40015605405286064, -0.7534722622139439, 0.17630929625578937, -0.4021689085276523, 0.6838720750783309, -0.050104389044774114, 0.5444768840155015, 0.22780286875719602, 0.5177212986995349, -0.1578741405186105, -0.832475654669931, 0.01139781313627258, 0.39691980047127745, -0.19725825985506032, -0.8276810441196296, 0.8436417290746853, 0.5561265448908579, -0.29047763399263443, -0.1724514026189655, -0.7121133548409727, -0.16594365446835363, 0.008930479194917896, 0.027473075789666974, 0.6324655809163675, 0.5609023451822142, 0.8777346361775725, 0.9356575360829126, 0.27372064933828216, -0.19797998684967433, -0.13552712534038824, 0.9197672063828947, -0.9788467996966685, -0.42079683320503597, 0.060654410582422914, -0.18829805273645095, -0.7686684893195533, 0.5741268926383679, 0.9453952734051668, -0.7928359186547542, -0.7697175358726313, -0.11598784962862156, -0.6475944646283311, 0.08540478723282434, -0.4978321225641655, -0.6147332956417453, -0.40155595200669136, -0.48339548614119937, -0.10082053584379214, -0.5713044171924068, -0.9230977691408959, -1.1074425115206377, -1.1104439931332317, -0.837958832632588, -0.1306528764333268, -1.2541916143765255, 0.7646454436208143, 0.14949931026660176], [-0.35001326129403165, 0.043966665768912026, 0.5545612541390145, 0.7130404876665976, -0.733125811482582, 0.5216161527679594, 0.06528104802463672, 0.03812380208137783, 0.042842334720715365, -0.2919627234977664, -0.9065111784571951, 0.5716501330919396, 0.37397856845883165, 0.6249776350995855, -0.8438460640864148, 0.8021995848669204, -0.5344673453736521, 0.46867736163055146, -0.18488247244152797, 0.5997864883842151, -0.10457988063907568, -0.8191112413889607, 0.8509304905780034, 0.532659428682287, -0.8020676422990596, -0.9518367962895514, 0.2013817685768166, -0.49561673775946424, 0.8967054066638438, -0.6818202982450836, 0.25621771765023044, 0.3554680329841703, 0.2057785232428436, -0.45181409649780696, 0.8462423345475651, 0.7339745041774337, 0.43453541893085285, -0.9658986578789535, -0.0658081155727764, -0.9481358682328059, 0.2042602204928111, 0.7712057863698216, 0.2336243404282487, -0.8585134142805574, 1.2525400363964556, -0.914033361816114, 0.7473386890760455, 0.5100049923645064, 0.31007934663877734, -0.33689417472484323, -0.16461240027824878, 0.5781909956738913, -0.6204627702311887, -0.052173659932588635, 1.031730296999137, -1.145827760577858, -1.0198186758914134, -0.5367773851013589, 0.5884950003338261, -0.49788685504589764, 1.094166354015002, 0.3364139194788417, -0.4442539673663628, 0.5951417241428999], [0.8276669123190462, -1.006980578794853, -0.2056978362675157, 0.02622024726983204, 0.5163132798454233, -0.5722312139621114, 0.5507486355873941, -0.5756388461523151, -0.4533079621947196, 0.499238529016758, -0.6073232847359308, -0.30139769077473877, 0.16689115484010317, 1.0164297143505006, 0.8074408122864384, 0.140647927264458, -0.2785597314338125, -0.8186164511660268, -0.3505468151687574, 0.33984182817213726, -0.11777690402883625, -0.6373012068748098, -1.0177621993232324, 0.5899775367328328, -0.38375346417094797, 0.12682803600327966, -1.0617282132439627, 0.4763119042657581, 0.8559304536732512, -0.6543540912381888, -0.7093564542835997, -0.6256959814985918, 0.6363865883944915, 0.044827412661710614, 0.4130865896003842, 0.3575408171432775, -0.8306866144784077, -0.25880493945105726, -0.9733244840792283, 0.34293801496112797, -0.8725010886195866, -0.09264473496287869, 0.7407805935433093, 0.04119518331350789, -0.8616423944204229, 0.05087651285876695, -0.5949103293550071, 0.659764219409986, 0.29312380573188523, -0.8555867492196869, 0.19058972422206785, 0.3596896589631432, 0.8070236960578203, 0.622385308640779, -0.39280455166448847, -0.8910578948683179, -0.6463106825768954, 0.21624330482596904, 0.6258257702641629, -0.16046220279570347, 0.2627279027660317, 0.10152455585310438, 1.0450165670325267, -0.46509381806511474], [-0.1988194685931414, -1.0871384253505458, -0.7431042998705746, -0.24022963138794484, -0.7210313294622923, -0.3040059239134457, -0.3816196642339051, -0.5939257532336788, -0.024339417035488857, 0.1777113686322877, 0.5299765911629333, -1.011706233542657, -7.00267265839119e-05, 0.36472767455871863, -0.6430569337209047, -0.5349610489286274, -0.9041011119092748, -0.317335287741063, 0.05176423869207607, 1.0575349218572505, 0.7782454502994625, 0.5898558648950981, -0.670228963900097, 0.46812966757073227, 0.0557846587816519, 0.2573766550963441, -0.5622389560454863, -0.5841770274782714, 0.8513679918793764, 0.7556500942263398, 0.5112269873462472, 0.13966551266230004, -1.188113727178186, -1.1764169568678455, -0.9533886737695921, -0.7048481706458576, 0.7563109826950977, 0.5449511402735012, 0.8091893957139169, 0.2418580015144122, 0.9413507821209792, 0.11351043189186524, 0.08789842830624511, 1.0466436854074694, -0.6402724776969558, 0.05403454688041172, 1.0285367480970167, 0.4716100955874838, 0.4270899990266909, 0.9765867204751547, -0.8983251991147438, 0.503261243271678, -0.7652672915588614, -0.9124247751597689, -0.854813580313041, 0.7378042409589723, 0.3422569236496196, -0.12281098139162945, -0.6723782750840057, -0.6158323897197172, -0.6196622384596331, 0.8124961394787038, -0.6889090565812136, -0.6006028913679942], [1.0686633213588013, 0.3313395803550485, -0.09565081965331668, 0.5369884420284938, -0.8620526974851103, 0.6940804732324493, -0.13857207259951151, 0.08501337087759889, -0.8079673699213397, 0.7313129439459453, -0.7964182396769259, -0.40593222614086644, 0.38189635815113954, -0.7044452745036764, -0.11157806519502109, -0.7519308243322773, -0.3173892852970255, -0.61030861048795, -0.36842622181540297, 0.8885522986316996, 0.4101866452988247, 0.9165522045995675, -0.44841246919662564, 0.4772612529420502, 0.029663774635245933, -0.6244613908729681, 0.48482456517618744, -0.020683145206430737, -0.35901303990542244, -0.015088237015625694, -0.03786408006517118, 0.9731597367419532, 0.22578750942836856, -0.557011126534811, -0.3784802324690956, 0.8039315517893145, -0.9768408442994527, 0.39754515672543755, -0.8617080329535843, 0.7971243560105712, -0.9779424051332901, -0.5654840754391643, 0.8248349769436946, -0.3053063923136572, -0.4661306152538501, -0.5157440924079134, -0.021188583468024998, 0.03524649039917623, 0.8618719576951686, -0.40168652214025424, 0.15912162488574771, 0.693899696032576, 0.2995059406329677, 0.02992103493381328, 0.9093653572950846, -0.47813379315592996, 0.9725808585530891, 0.4750567628570884, 0.7935514556529732, 0.8723916491364558, -0.6743450146497961, -0.6473991953762261, 0.6470333070801383, -0.2812343495954609], [0.17093543529754385, -0.9758422961924295, 0.7254446113136714, -1.0115691339936077, -0.2435935235093165, 0.3692210415912814, 0.29440163532735514, -0.11131092777536614, -1.0433749428145804, -0.760299314376413, 0.3126070413939622, -0.7350252464228313, -0.7009334243329255, 0.41891969209081104, -1.14999076878558, 0.936073252642897, 0.1067550102375846, -0.6137962788866753, 0.2208871567584163, 0.27936635492016215, -0.8997018607247487, 0.8405261948195413, 1.0030097452598887, -0.8019462363967598, 0.14746876802511547, -0.16558862801583799, -0.2408921920519036, 0.005318110760027295, 0.18939641995570491, 1.080779580140029, -0.6997821648081356, -0.10708049266866697, 0.23730243017958572, 0.7904024343003384, -0.27194445910431464, -0.41026292173652285, -0.9440378326987593, -0.8839697984964653, -0.43414530675038837, -0.3652635373148382, 0.8282555771668083, 0.0799930349227373, 0.25841627452246324, 0.8406201774556354, -0.04321919464852144, 0.7209331352487596, -0.6928683501913784, -0.5521487378115932, 0.39618278854688127, -0.6706581922123783, 0.5662855947624342, -0.8168501687091718, -0.14074303835515303, -0.9994554532902032, 0.07727235521532799, -0.5824571206846532, 0.07390947330101383, 0.6783752934905622, -1.3494629454188585, 0.056034455477346604, 0.8425100791068021, -0.1338924166765152, -0.5579424242597028, -0.06971269292761104], [0.6085952134298169, 0.8352655728760545, 0.52314529780956, -0.6940319329851097, -0.6840303427051266, 0.5283430646900747, 0.8476479130678302, 1.078595925786639, 0.0019444234959993811, -0.05709649854431812, -0.04903291096057243, 0.39136331633416355, 0.9931594941093751, -0.672322602428221, -0.6904431741546093, 0.9321517290177578, -0.7306768309200741, 0.17128307580304464, -0.4970942563941483, -0.05923557554391793, -0.49888987223365167, -0.36606095982156667, 0.7108327197379398, 0.3410764124992072, -0.3489524299325827, -0.7286885947966903, -0.46400694732250425, -0.410818439589631, -0.9622841889148832, -0.4407903788747702, 0.9911881067611583, 0.3037243003440922, 0.7188402955158999, -0.5378429619264062, 0.5928871607021307, 0.13975773892651472, -0.9710390574810713, 0.7169008329491116, -0.2227086919886978, -0.6663586536210013, 0.6652513579671788, -0.29501585740306935, 0.20481437102056493, 0.3212360766135539, -0.18079972825993004, 0.040240929317784745, 0.025041823839758115, -0.28342379603163975, 0.6030364625040494, 0.8153793641589633, 0.97023052457012, 0.30786732621013646, 0.6456179554505691, -0.6995546229743028, -0.39640037102814596, -0.511813781343068, -0.48173145852098276, 0.07788251394410162, -0.151229100203633, 0.29617768324753174, 0.40766819823983835, -0.5141243827299827, 0.6542955226765819, -0.4161962015868048], [-0.733026472016609, 0.43245934985987633, -0.17313777172358588, 0.07204786323590484, 0.17366410313838393, -0.5232685426774231, 1.1177253546824248, 0.49201971044211223, -0.7731625283794192, -0.6516978501912117, 0.7071524546489449, 1.0322055948935853, -0.11360170977485859, 0.7557515689230082, -0.60988450308629, -0.956568006820444, 0.12615974912076044, 0.6092355400914654, 0.4664457120352713, 0.362670915651889, -1.0315305861882904, 0.8216324357987272, -0.647495976063661, -0.6444411472717053, -1.0870339471722839, -0.1975596273420943, -0.32083345101939575, -0.7419652786358397, 0.860089939077026, -0.4559212363253651, -0.8311002715247519, 0.9293632930360813, 0.3149334897829427, -0.20109140481233673, -0.34982232365266136, -0.1171195567367449, 0.7711285844571317, -0.6560494034472233, 0.7641225660079817, -0.4212334374229725, -0.5587929576357621, 0.7734233470780729, 0.9206409266146132, -0.19310580752744272, -0.32619211063204495, 0.36363871322512337, -0.5707107602942912, 1.1339546965283418, 0.2221931574197301, 0.1901578705539361, -0.6220828474751453, 1.3906949624674791, 0.7897518643978165, -0.5033849115445401, -0.10084198739993937, -0.34171589797878205, -0.5940480862130959, 0.5382170284461009, 0.4462615483297416, -0.8752432450308785, -0.009319978320653344, -0.567840843636219, 0.19787335248215737, -0.08514710299933233], [0.6216673123864298, -0.09136013245218126, -0.3787458140761471, 0.25814656689554083, -0.5314721878200923, 0.7097317866923301, -0.3475080942574394, -0.5561814296490286, 0.3805954531971163, 0.8046455493565008, -0.4125321648332805, 0.2760153577093313, -0.0042664015247998385, 0.2501555780353902, -1.0538550276451135, 0.715226315868408, -0.2972071784062275, 1.0074088572747286, 0.04246406142232854, -0.8298345439634488, -0.5353786117383738, 0.783988165378244, 0.7441084906535281, 0.5959729125069597, 0.7455511232637134, 0.3119930854789159, 1.0939828467923969, -0.34743360541893126, -0.780382166854652, 0.826212640479137, -0.26105961148310436, 0.8630204037220086, 0.650507284434118, 0.9597359382808073, -0.7651944598097823, 1.1268640366849993, -0.07653730071101232, -0.20761302266231105, 0.43250674305149356, 0.7807184418743194, -0.8124633824322232, 0.6385662908489503, 0.4985263110045288, -0.4820888359668352, -0.4833736927213181, 0.7062711469658475, -0.43925686254573704, -0.5283145890457471, -0.5110016948716946, 0.4508799926238621, 0.7358056438536581, 0.06385519005997224, 1.0672079144079565, 0.7769588058830996, 0.4084383666013462, 0.5083779805282687, -0.15102387124471284, -0.013475170331422976, 0.3525535250092029, 0.6644829951665548, 0.10669335865092215, 0.9447640722182887, -0.700023250694381, 0.44962465398768325]], [[0.46414815057898035, -0.09414186651842857, 0.09197983992053996, -0.7725200380190385, -0.20012383801628295, -0.47208696812187056, 0.5841534200102096, 0.5662904606618225, -0.814459887803244, -0.9170722080561801, 0.8113590524205334, -0.9965519422545734, -0.885061972011736, -0.2200343498757879, -0.20434442349885001, 1.26826289530137, 0.9222625257890067, -0.5662451513430631, 0.12109717893263994, 0.2968054836777124, -0.7054515081370332, 0.6923148557999935, 0.71951792520891, 0.4686302385367453, -0.922994151576173, 0.3891889614010151, -0.503058314672651, -0.131730445854098, -0.9555550203440308, -0.09356169543765268, 0.17672985504176214, -1.2795358315675558], [0.5272436039929131, -0.8024748201997903, 0.21979120600747654, 0.7709954325009913, 0.6580939549838826, -0.7955896617443214, -0.28318022905099627, 0.0759673761555939, 0.6114773065724244, 0.7447480945977415, 0.6069065543832496, -0.4821017934500384, -0.503702593489442, -0.2060234590603703, -0.6333109173683571, 0.7815578559464997, -0.7481760284103729, -0.7529570510762265, 0.3050345524724493, 0.14805973029147682, -1.2955922278157266, 0.2844023462045711, 0.5252163212190035, 0.7516098103108554, 0.6737018371711312, 0.17253307796994216, 0.22626210981975797, 0.35166517562942434, -0.4937707897826741, -0.7582177520528546, -0.28182859422873446, 0.25744850676011005], [-1.0172652205040364, 0.5846079165720921, -0.4441672843989665, 0.641437859037817, -0.3489633260416662, -0.003519512512780665, 0.4809936425951801, 1.0974887903046007, 0.30463692757161426, -0.9457517555945281, 0.5734342280092396, 0.0669933270187317, 0.25451601607217467, -0.8504772213777944, -0.06677008843796481, 0.4907177347491992, 0.9232783747933988, 0.1553233552667213, -0.4958582657110758, -0.1220701552301637, -0.1609336742212976, -0.5840536743134281, 0.2849777215021429, 0.2689761137314116, 0.23351959099258718, -0.5306574096577601, 0.6338411390186104, -0.11123679183825859, 0.40360522240102714, 0.5908007435247463, 0.21593701804661639, 0.058558557384682366], [0.40828359689897076, 0.5946401273028595, 0.09643935912160409, -0.5465292535559275, 0.10587610245574042, -0.667649452350756, -0.23855943133316315, -1.0003035789567154, -0.04042445890905105, -0.6025285027939438, 0.320518581478495, 0.894924890241251, 0.8524892446078299, 0.4246078181221685, -0.7177634944436669, 0.6584360796154729, -0.9129222642374589, 1.0288492979610067, 0.6823269994868675, 0.5223969091302362, 0.15476012530759875, -0.24933829178788738, 0.06728348461907527, -0.5489209752320904, -0.22408329369410795, -0.9510472668446612, 1.036247447135834, 0.7167064554426728, 0.19049313393372813, 0.15108243629032603, -0.5481600512074845, 0.8407685826851214], [0.7722311464981187, 0.0923530954083499, -0.22682738516750556, -0.6680219514949024, 0.24041234654309576, -0.7716426443843434, -1.064745336254625, -0.03742107679780403, 0.045424866532330334, -0.8792192096931377, -0.6676278290368527, 0.4941520260979365, -0.9423591686552758, -0.950720731340329, 0.49098399405101256, -0.7875000666548615, 0.35463199952694835, -0.6546876328756235, -0.5962825607977138, -0.12875782586663762, 0.9217850548072468, -0.42943528831085764, 0.42053057103745795, 0.8807030701823537, -0.5293643292028924, -0.8371954397414815, -0.47887416147289513, -0.0630231046863334, -0.6274142497692363, -0.6768599944448802, 0.16430528946822012, -0.4623942472428114], [1.0318858476821502, 0.5693238343897261, -0.005560036221594367, 0.5385111138428782, -0.7041068002559214, -0.7940861696468842, -0.0735108470405631, 0.24609327662178818, -0.11984425715903053, -0.08880632797622004, 0.9278446473331684, 0.8168510467048525, -0.6029118317515236, 0.37256384726563685, 0.21184380018061671, 0.8153807351714952, -0.8409533878131707, 0.34127620969395545, 0.9600281988925005, 0.3039034726461357, -0.44338122581887107, 1.1116946906838443, 0.9436473577533148, -0.9169470791326603, -0.3950472434989914, 0.22690626076951137, 0.43541707726723217, -0.16106345480987985, -0.7527032939947025, 0.3838636452113687, -0.3632653699152482, -0.672261682078355], [-1.0421328204318472, 0.6698613969250136, -0.5618501385472108, 0.4351860229636892, -0.542984090790976, 0.3799454207624381, 0.6952019556914978, 0.3088545730909581, -0.40849561218209673, 0.48838915275285755, -0.13824379775698686, 0.741960502337008, -0.4619243329936816, 0.23929653426346556, -0.7638708453036547, 0.08387025023194894, -0.5394383948174585, -0.6127375147726746, 0.7356759526875976, 0.15886360341723232, -0.7234581063014739, -0.13744247669277007, -0.7466137340297393, 0.4570546103557948, 0.8232663801923433, 0.0880889361705258, -0.3990222162448755, 0.6552417503389729, 0.20849822741060367, -0.2779730166572999, -0.4878749737415073, 0.9229128314675388], [-0.5390779701605546, 0.009383199396331001, -0.8822859530208695, 0.43849399693055985, 0.7215639435643686, 0.6687159359838031, -0.24850194530867772, 0.9009848760506323, -0.06509770218055137, 0.18923204011432868, 0.22246159727014705, -0.887392675265286, 0.44590510842965286, 0.8593474788059574, 0.05968255493901441, 0.4889851119353269, -0.10768709530313263, 0.7154288360944844, 0.5689051770043972, -0.31161617483244497, -0.17404190236413658, 0.3519753251828476, 0.07031397156904627, 0.7530774845376385, -1.2636383017374104, -0.5984388180229717, -1.043115561615388, 0.6813781379466559, 0.43661029950054003, -0.6604826587900525, -0.4819754589766827, -0.11708378115262452], [0.778767801422743, 0.2710070416195243, -0.10143272937142478, -0.5064053118565238, 0.40553074927165805, -0.16234120405054256, -0.7348394394348761, 0.405597847965502, -0.20838874832528398, -0.6548195992715089, -0.7796707341019842, 0.7797186409152153, -0.3950086033126441, -0.7335649802813683, 0.23877458003881893, 0.4902350175728188, 0.2868474677399768, -0.5100835393884614, 0.0037696268033798747, 0.022953004105561066, 0.63031928567635, 1.0048394038230803, 0.24162801996109842, 0.47887553278725487, 0.5600402814142518, 0.733685690739366, 0.8453958692094051, -0.6767029346467586, -0.7328144576896395, 0.6944511230860025, -0.168370086344457, -0.34485874476191], [0.6099344293661296, -0.14354018660054185, -0.849523640344718, -0.49105117243942964, -0.17577674292032106, -1.1357735449758415, -0.9387133131721137, -0.7140145042807999, -0.47437214356632873, -0.5639802086281213, -0.7213087635279478, -0.6488776564102816, 0.6513116553829984, -1.1003803772132599, 0.49367429530946483, -0.6095501023212142, 0.7906946879588396, -0.6075076685784262, 0.404857555798711, 0.4175541484315957, 0.9593175067844936, -0.6099473040418837, -0.5940800009779375, 0.9251123964675341, -0.3248846541100683, -0.9557932342465184, 0.09502987641612912, -0.03081387563700208, -0.24888441616714588, 0.20504889273245963, 0.3786839548387406, -0.7701238695146391], [0.856781165676624, 0.5303556017257266, 0.48553302092439415, 0.7985961224464756, 0.4655672004082484, -0.2220493511982596, -0.9562191690866417, -0.11282175932044106, 0.9291165707268135, 0.9867950086720448, 0.7841476362983106, 0.31629532945341726, -0.5161675388068727, 0.38927164757306454, 1.1205872729994868, -0.6210303059851994, 0.21989562388872538, 0.5692728543755343, 0.8586208284150573, -0.7248135110764449, -0.9460123334138018, -0.09503679085199616, -0.3563139548189299, -0.2465432418863051, -0.17983004471471026, -0.8333436067176854, 0.7861298279042473, -0.7438933960235533, -0.09668426599712471, 0.2719995049537758, 0.14795270518133724, 0.5785069289261892], [0.9210150541779072, 0.0808079890293599, -0.13493535027027614, -0.6482525985565767, -0.4006991955689319, -0.4818561607465123, 0.061917687110955646, 0.37053068274100165, -0.46271705768191584, -0.5812888228722136, -1.00230185343668, 0.10875175441267582, -0.6692980545990035, -0.7565507904054876, 0.7156357719362587, 0.7614565994990155, 0.9599705945306389, 0.38803173617993314, 0.853162254946802, 0.47170149580282283, 0.3994790280644174, 0.16742864114455414, -0.866682135396234, -0.15450569239719675, -0.9051980777823898, 0.34744663853550606, 0.7010986512125562, 0.6476112159252561, -0.6919717428380538, 0.10168344691733008, -0.13236621221857336, -1.0091234676935836], [0.9517063166613505, -0.7949907827878777, 0.09481218323874649, 0.25904657143541154, 0.09249007732077544, -0.7978707669728896, 0.7496746062609317, -0.534939523709762, -0.22560092581491178, -0.5566757494720256, -0.4170651683630803, 0.3894113878049739, 0.20250821575334457, -0.5090339585480915, -0.6208128551199452, 0.5300119626797235, 0.2566843712242344, 0.24300819813064517, -0.13034575173227422, -0.6747880383666331, 0.7246549220763301, 0.3271658704680064, 1.1130006208251553, 0.3831079158084091, -0.6003971701507497, -0.21398195594967778, -0.5876274734558911, 0.6386425753843369, 0.20452321155646253, -0.3002447671782692, -0.5846380175567226, -0.42449720588607887], [0.47217149302859196, -0.43235206230947554, -0.9670259485849748, 0.4552128516330348, -0.2844867223196182, 0.7547890656793904, -0.8461922280613654, -0.37870092832055935, -0.30239020897795466, 0.3627524376795096, -0.8321886080845531, -0.00809419337903429, 0.5868303824111475, 0.05029048415431059, 0.14281115795951158, -0.427112631626985, -0.4318813194342986, -0.6440399176682221, 0.11833254979717145, -1.3027446261001572, -0.7270852021465806, 0.003905228128466065, -0.45738739051526994, 0.0015673185707288206, -0.6206248628078492, 0.027388995878423132, 0.7418628184361882, -0.8246603476866561, -0.37751193265031335, -0.24352551099795933, -1.021552818309901, -0.41624056194007675], [-0.07869221950739437, 0.2975836373993471, 0.27562350193657326, 0.6224016845729544, -0.018727156476120534, -1.0167489686210338, -0.7756759692090752, 0.6936145609292448, -0.31232326774556846, -0.4908056747864916, 0.3577798889326855, 0.11211666932430671, 0.7506312361929494, 0.5181717999154104, -1.1892578022870581, 1.0076988532090438, -0.6479413983807841, 0.03944874382870648, 0.09125245493203403, -0.4277352657014002, -0.0371344108466428, 1.0221625614737972, -0.5686216742312656, 1.3092115792900423, 0.5552484188943481, 1.354824903188644, -0.41629716732895156, -0.1309116802423134, 0.5199387052173362, 0.9740415461653168, 1.0737677697154087, 0.4517132102797697], [0.7111233749828262, -0.3111015760722833, -0.6503155353586442, 0.7031852510601991, 0.6832984340959619, -0.2924264508533653, -0.5650413123984116, -0.4360899855222871, 0.713534703366059, -0.05694263955545803, -0.031002927307104404, -0.12679851590745056, 0.31204765441971416, -0.1437750325188867, -0.5357444396842974, -0.3016589673286293, -0.8209551431386937, -0.3253177833170221, -0.049710496005271845, 0.2683596682240005, 0.7301330893958313, 0.2449061169187125, -0.4598934954185796, -0.17197736352494486, 0.5763523283753538, 0.497713314655034, -0.7834439006358194, 0.690363394988192, 0.6244590162477917, 0.6562519138346978, 0.7400256229701602, 0.7677632203662755], [-0.9233898299347734, 0.21801113866377658, -0.35775032120466416, -0.2957817973518268, 0.8536044177283989, 0.053780194743981234, 0.3752045671638122, 0.5449440568769414, -0.2900707176004873, 0.4202595319078881, -0.0020878895045853716, -0.6294860283824393, -0.06373228530129474, 0.6825359686697168, 0.7148866096162587, 0.47924026794904284, 0.21026541279634642, -0.7992995672039379, 0.8359969132848464, 0.9880191730875028, -1.0484356912091195, 0.3746901944641896, 0.5890774147613265, -0.05369399677845939, 0.6776487695027892, 1.150753596172156, -0.07280118330758537, -0.1369846825300848, 0.7538314749567421, 0.31246066604760486, 0.47521512828280654, 0.21662240339439504], [0.7726714531702659, 1.024978301022521, -0.3669408385777764, 0.6666411840855393, 0.450174114380022, -0.13148327503550558, 0.49452098371164926, -0.6770758932513633, -0.5098887323097114, -0.7662872593736816, -0.6845113388159434, 0.17549907315057772, -1.051845339580954, -0.6286001328646608, -0.2901966160433696, -0.9016678130624196, 0.49751046837787916, 0.011195822928326835, -0.5576999346999886, 0.8922078091490722, 0.27756307338033137, 0.6622140651819715, -1.0379268518029259, -0.3642263990944215, -0.489832917721243, -0.38841036503049303, -1.0760424397228232, 0.7769630788014922, -0.5069013406577974, 0.614893605317824, 0.9749664190666716, 0.8794244336965849], [-0.16673765562323345, 0.3990886238810549, -0.2449227477036277, 0.9402473503958501, -0.8302390543199977, -0.6034451866105354, 0.055258613049308236, -0.03449416003353581, 0.7996526110442179, -0.3053295148066506, 0.5782129930606011, -0.0021606926876156065, 0.22943730864272247, -0.20182460555442697, 0.562963042174178, 0.6162782504300701, -0.8159568285207213, 0.27585289689366477, -0.6715366056439332, 0.8316180381310737, -1.0132097546835452, -1.1205665024450482, -0.0052196838360601934, -0.6446371408529932, 0.8958406041719602, 0.14902680522315723, -0.6982937910686511, -0.02943389387085398, -0.6143945686068659, -0.4155129000581799, -0.01092147456083906, 0.6476921792480091], [0.4198256374761341, -0.7154753560896496, 0.8629577884135735, -0.7575701251326483, -0.8737368855577922, -0.8259672010373216, 1.0855354697753814, -0.22090005182787423, -0.5427803441119872, 0.561416228722877, -0.012917321048362549, 0.05317156724280021, 0.621029575441512, -0.6757277179587484, -0.30154152698049713, 0.427847059977679, 0.21815260808744713, 0.27321305769904547, 0.6062033487839293, 0.2421208328864667, -1.050063621921297, -0.24634584674503301, 0.3145743107763029, 0.13617362638761338, -0.5680678115063602, 0.6341566537767724, 0.9233775344793649, -0.4563373531937239, -0.6886266832452327, -0.5787297041637466, 0.6509864774909037, 0.4847011560210155], [0.648700277449865, 0.023746944718661723, -1.0300086317704966, 0.27306516201352543, -0.48935041071273383, -0.1395772898582021, 0.2683395906101865, -0.5511415688822623, -0.9509625655948849, 0.12065647333891891, -0.8903151325247585, -0.991125456196707, -0.4175085826687231, -0.576501681345834, -0.24008640919856758, -0.9894481394718209, -0.14904587911714523, -0.072882885172742, -0.4416637490927397, 0.6878759966319097, 0.26528074136986995, 0.9551189618762139, 0.5286943747800398, 0.4284257997293984, 0.10105247628908462, -0.5841139530976767, -0.3478090606180044, 0.9482859474977428, -0.6612708448583839, -0.11015001339678746, -1.0618062901846639, 0.9094193265516651], [-0.09554356151893369, 0.4074647493866562, -0.08622341377330986, -0.8459067034704454, 0.41719053546212664, 0.5470042348677887, 0.21524330870248515, -0.8413347132106436, 1.1049886685198806, -0.9283356088642636, -0.28891904010257796, 0.17666368482838588, 0.971895357885319, -0.011357089047531136, 0.3636406151704322, -0.498406131013708, 0.8089266063366802, -0.5778141930351581, 1.3163573318296449, 0.9222933605656717, -0.5727933296892499, -0.27360148681909074, 0.24226235358661946, -0.1746438197304331, -1.0714706341114322, -0.6062105528025652, -1.0768637792993974, -1.0258460148060333, 0.1935831959482986, 1.0813457628717809, 0.28726427301866647, 0.5734437609086106], [0.4404794304422266, 0.612632411463472, -0.7703587058091647, 0.029733902751126175, 0.5284817292859578, -0.04802344116093018, -0.2203427378999634, -0.9744857099814009, 0.9979009043804574, -0.6256546972701047, -0.3653711647957028, 0.3012451565616849, -0.36098664697201943, -0.5224718500853796, -0.105805647952145, 0.126458126061829, -1.1876357837653984, 0.6251070550511745, 0.46620970722500543, -0.5340113830450929, -0.5948038061387095, 0.5833646770432924, -0.5603467092147449, -0.7991631196354785, -1.0227110206311907, 0.5840210963630078, 0.4203653778575944, -0.2656007527432305, 0.23022466749695236, -0.5115390913665675, -0.8008094539354216, -1.0344855614460127], [0.4913255015195954, -0.6440045670977297, 0.4809565344899897, -0.9884223737836029, 0.8259679182712443, -0.4383509728943248, 0.6923542142124678, -0.05736750530308502, 0.680024211395731, -0.49760276005588605, 0.9288561962314418, 0.6964903539594597, -0.374873047635197, 0.40267226575711146, -0.00013852187153829966, 0.24138666158341043, -0.1958344210148027, -1.065394530059704, -0.7213982095590263, 0.798965250366573, -0.8971246788139997, -0.9498486499154464, 0.8696957156040421, 0.11565619890012233, 0.3027369269472536, -0.2094406246453266, 0.777539120973364, 0.4858189737246915, 0.6690039282350185, -0.43145447577171775, -0.6016191402032207, 0.25466657070754184], [0.44909603379470686, 0.7212855480107387, -0.48300017129052575, -0.6886912772863406, -0.42885566581132606, 0.05611357979743912, -1.3289450994088767, 0.4780538604091228, -0.5457264136430681, -0.28718574317813095, 0.38596384284869234, -0.1083142483432347, -0.4625409558671006, -0.1231870611860602, -0.3542798540448493, 0.30743102767325, -0.5486793963107655, 0.7919306634666666, -0.4458313307680305, 0.014916888786562565, -1.1255299192195207, -0.36795067614084764, -0.19018204198266492, -1.0657551454240388, -0.04962185391413932, 0.38857634702336813, 0.4509653811599198, -0.299244095032806, 0.7596298452405178, 0.9114269619559693, -0.8570832088983685, -0.573619392866974], [-0.9331284600680844, 1.0201823813352662, -0.36677573130114133, 0.015422942915893658, -0.8702545805071749, -1.0954847771069827, 0.5929291534320896, -0.21235262554014053, 0.8687934306193575, 0.03312501217919518, -0.8109085778911378, 1.1760722093682303, 0.36664328080775477, -1.1130165301158323, -1.0161108882270156, 1.2173496452897237, 0.5133065120561996, -0.02507599943060862, -1.0306136735923002, 0.4759747847006895, -0.8779686055271249, 0.3737512514343853, 0.311970242155434, -0.9116826658628323, -0.060908482585739374, 0.6673536085258235, 0.6141460174020973, -0.07845715723616856, -0.6010405384513445, -1.0031148611557144, -0.07599508520634693, -0.37420300427710645], [0.7257795670992848, 0.7944671107980016, 0.6797853098252176, -1.0399262822473745, 0.6576759306544724, -0.04638904668688592, 0.6685583622478377, -0.22623920447012003, 0.7569151346788494, -0.52266128973172, 0.8537341237727641, -0.30843044583078455, 0.7984085773838931, -0.7057205688688134, 0.7480642376634185, -0.3606097358461978, 0.14002281961672786, -0.9121926543968432, -0.4609933069087072, -0.07679630162627962, 0.4750838215607005, -0.41781656295246095, 0.9401494999224618, -0.32118100293352214, 0.12315181484549076, 0.30461465304290286, -0.2553582997309481, 0.7048195582459466, 0.22708654890359609, 0.5425711996602562, -0.28967817479833524, -1.103187988753079], [-0.5638724569739049, 0.018962747000016, -0.9592994213237226, -0.5829474363125791, -0.298798742758568, 0.8246542447171901, -0.12208455503558838, -0.3500785145827951, 0.16007417932988632, -0.10095615944857776, 0.4555428827785056, 1.3940828664845797, -0.2029177161341124, 0.08247845551500313, 0.16322244361602328, 0.5172597082890635, -0.1747553943747014, 0.19383730999169407, 0.38598272707362574, -0.9097540936862529, 0.4807925984578555, 0.2737164446697514, 0.8355587023699588, 0.5719462433545813, -9.071923320654873e-05, -0.6813144942267959, 0.42731551053941363, 0.09729593430006221, 0.24278188898013947, -0.421280268653035, 0.7305911772782256, 0.8528282428284882], [-0.36623681531879215, -0.174926948250054, 0.8898213436454767, 0.2546236788455567, -0.3704604653193294, -0.2318928936414264, -0.2702853480536753, 0.04203260703093184, -0.19319749585325913, -0.6303499643208668, -0.13943753276663484, 0.8996588155543707, -0.5116192466349208, 0.7113620399358045, 0.6495830428825983, -0.41520084239282723, -0.3351479725904534, -0.3926962757729746, 0.5961532590093516, -1.1434397285348747, -0.7053580050717233, 0.15375635861290976, 0.23055419154247309, -0.6957393122590985, 0.3232677283918729, -0.8862474188483113, -0.8160152235556556, -0.04835210354855712, -0.6449728352967656, -0.7466838335112258, 0.4126172010712679, -0.1427673834747746], [1.2845218094027353, -0.44057512512019503, 0.17514577488365513, 0.7599741003785201, 0.09568071976221501, -1.1076295183880516, 0.696416581769715, 0.14553484105521317, 0.36491197862188984, 0.22460773844387844, 0.7845372945864214, 0.42056216434586896, -0.2440848631436693, -0.9250954856523009, 0.37474770386727635, -0.6465784202223224, -0.044367842498592304, -0.7585610771986823, -0.5305617280519602, -0.07368012385304959, 0.7814414113481877, 0.9254987534015144, 0.558038663970794, -0.2194947836977033, -0.17564718885940242, -0.4160187645278214, -0.5442401841071851, -1.2374124440124625, -0.5966106503460169, 0.07870095945939962, -0.5956023018178324, 0.6160444918094783], [-0.26470430699014325, 0.7508740217284293, -0.2715308377541424, 0.7099038521900679, -0.4756628277676416, -0.8534861726160134, 0.10527338932823974, 0.23013371739440164, 1.099861716674439, 0.01888055709651163, 0.7367184387838123, 0.66225277068151, 0.823551059817601, 0.2578232164567652, 0.333085247561767, -0.5368399564787334, 0.10138168200337469, -0.9311535386007537, -0.8105451336212701, -0.882249250324918, -0.7115696103737266, -0.3344970841716372, 0.177090014817911, 0.6160373884730933, -0.3896074444847254, -0.649537315685621, -0.8778463458893878, 0.6707700062486854, 0.4542301108580835, -0.4088911785227035, -0.09727800878659285, 0.25089934464437846], [-0.47589597155081514, 0.387513594838035, -0.06555956664952176, 1.0115069285200524, -0.6485075906063619, 0.2482143178831485, 0.9083193759501522, 0.2158478042801441, 0.7012841415811732, -0.7750337826698457, -0.20628753563619134, 0.32157882687734907, 0.7044291015115551, 0.46734664166324363, 0.8511501609701837, 0.11356344742844911, -0.812249768681407, 0.12005415475288952, 0.34383590139755155, 0.03162608557908299, -1.0599200147419392, -0.9802223965276216, 0.16307000552981862, -0.8195627763785372, -0.4650292202117502, -0.02903138530969975, -0.889862687255334, 0.6661962931278151, 0.17981378783629004, 0.8779569916915131, 0.4583070495389944, -0.9720248872550098], [0.2639723300380167, 0.8854083494351179, 0.06234039844462093, -0.13625345184425736, -0.6129251230621511, 0.9045281035281704, -0.8891529140422009, -0.31104867691657095, -0.8458545503431838, 1.009954125759434, 0.28185214514254, -0.4197782303233736, 0.6607640498811599, -0.011628012884715832, -0.785422369857753, -0.7552220621162086, 0.5270495236103031, -0.8846165177798813, -0.7814861676942069, 1.0809611025721417, 0.7932481007970755, -0.7053125207102047, -0.45927313909767875, -0.5026074888135758, -0.5155447076143937, -0.8759576673261137, -0.22496302839980292, 0.9664518387296621, 0.22517854107028318, -0.4396554134715539, -0.3241391576763323, -1.0608186861256759], [0.18151744324852334, 0.8619419682002205, 0.7132669171043766, -0.4889880797342291, 0.9742511633279414, -0.18976564114611183, 0.13059195794359774, -0.2599814711986655, -0.0330830980321763, -0.19483690897114708, 0.7905021005117534, -0.9172934120369927, -0.6890879169340204, -0.5770920034172455, -0.2657809294865109, -0.6625046708480561, 0.17422960693724981, -0.2328838398390433, 0.16514903254796912, 0.14165362531174058, -0.2957744756486974, 1.0465345169563502, -0.4674957349975467, -0.3456648421232221, 0.05415207669396336, 0.19355080010819944, 0.2028700487077816, -0.11253329113156234, 0.22303180828114658, 0.7318445711379613, -0.7979829844304472, -0.4263278671398683], [-0.31426816521548934, 0.44024223550187525, 1.1170959547721027, 0.708856189798241, -0.6381539581934741, -0.6977931782792239, -0.7843513267226598, 0.022493532479189456, -0.050537556916030936, 0.03640727546810109, 0.7148833706159524, -0.4384494259042101, -0.885687722169912, 0.9504343702748583, 0.27295051382596097, -0.6772911064802469, 0.38794211165531306, -0.7025354254895927, -0.4587415279198444, 0.27568518219033594, -0.41909090258426646, 0.9815999408888676, -0.46672365380268566, -0.31659881642450416, -1.149362018175695, -0.1387101892356725, -0.35726622508593053, -1.0286531303525572, -0.6920482513222145, 0.3646679749308447, 0.9409500387905284, 0.39638612101286447], [0.43477181499870426, 0.30903498351556624, -0.4064241187143199, -0.8232710641809666, 0.41460850732467136, -0.4423377634122684, -0.9124657785451851, 0.06092458451242744, -0.02339327576497525, -0.46934789907048335, -0.8749164411324513, -0.027064348060495923, -0.5424864520070649, -0.12996874459841115, -0.252814993959752, -0.46838845754054026, 0.38127839214961096, -0.6098780694216593, -0.5296962802811624, 0.3554508401299382, -0.18764144785190803, -0.7209146386692001, -0.7430772460576265, 0.8225946270288557, 0.5953079014599938, -0.8322293025189363, 0.8461352830980244, 0.09633844835157866, -0.9169236861204831, -0.18543146624820667, -0.4476129804398816, 1.0139908455173425], [1.1250027042911661, 0.5869739700600546, 0.5550670748510085, 0.6214035664145419, 0.7804189327046365, -0.562240135521501, 0.7155419369155493, 0.8452601908915451, -0.7768423548618173, 0.9043207570325308, 0.28770893932239083, 0.30366323371859727, -0.704894249254376, -0.1426606530078602, 0.43669003774631243, 1.1763825957823915, -0.23437198154865935, -0.3783385112289944, -0.6018011587413963, 0.677786877401406, 0.8068115246319119, -0.6311304848128229, 0.6327296276258368, 0.10328956894357608, 0.772999783715267, -0.21435945801908174, 0.43654038616822133, 0.42324766499915534, -0.972716739889712, -0.08038765030982128, 0.8665294990755841, 0.35846382007128375], [0.31798408298600195, 0.6934680252682609, 0.09147132028966568, 0.14386486758997838, 0.7162472269188914, 0.7771227246438537, -0.15684268115684047, 0.21439805739529222, -0.15511212432665103, 0.7687894271240066, -1.2008752422197735, 0.03831387917408273, 1.0636605751310715, -0.4940840013847162, -0.8363446747522424, -0.07222426930275712, -0.3482196348063637, -0.7437625088451236, -0.19269069440985334, -0.3084527125363878, 1.0306099350145672, 0.49310779930766807, 1.1999031557038538, -0.703808748957014, 0.044095677315233575, 0.8078348343921451, -0.5998074083316066, -0.6148327739911453, -1.0693337754995802, 0.4069833671029187, -0.6137774980468211, 0.7810107328058343], [-0.965805490552156, 1.066555795212557, 0.046730606120835606, -0.45180130992481515, -0.6530912208682595, -0.6865684692116636, 0.6612173192817847, 0.21913908704802307, -0.6181653586687427, 1.4394162355063171, 0.16093533071609759, -0.5991650436128019, -0.5904832577040422, -0.24579398958236148, 0.17975291962799664, 0.09539713809767142, -0.42891090254625464, 0.7113634671727278, 1.0028085242111087, -0.9504203080167162, 0.08123964064821097, 0.11249136669338707, 0.3554277469504309, 0.9460581449855852, -0.14597058635322854, -0.38744693556805676, -0.36415485738728504, 0.42619997073121246, 0.16998308994950412, 1.0440396500526554, 0.6599950330887532, 0.6065872158666533], [-0.891301214221573, 1.0124081164643222, -0.2609505339425013, -0.18902696110945177, -0.03930712309859695, 0.5498799531738521, -0.22981185519247438, -0.48473554462463725, -0.7314852618704792, -0.7820124142308851, 0.6743708318747663, -0.20698301931148372, -0.45690712165496317, -0.8788257616626651, -1.2406733658044402, 0.9450857802126285, 0.3053530099205989, 0.9238256212693201, -0.1610981112951126, -0.8910954623718844, 0.48216259629769487, -0.7381884079635413, 0.6915523365498959, -0.14723522736642808, -0.5920096456685194, -0.9654424246853873, 0.4964475908072326, 0.5331696812469785, -0.6331888747916263, 0.20994190263232224, -0.6493617146126146, -0.5016252793188698], [-0.36595753302830886, 0.9837226322693141, 0.726271612315146, -0.43745718311071824, -0.41999188594354014, 0.7204136031381922, 0.20132776424766127, 0.5835952541269288, -0.8284089964073977, 0.8650760697445004, 0.37346447373475955, -0.7477052921453948, -0.1855818855028061, 0.476324633305438, -0.8331234614412312, -0.434237186413512, 0.795787994677162, 0.2493045317488051, 0.5161424956140126, -0.7232229855027063, 0.7919840189797371, 0.8241307769051798, 0.42088765996693034, 0.6554902008486571, 0.2827582623292231, 0.09206817349270398, 0.0986683965472738, -0.7025583942552632, -0.6764054083783181, -0.595136849595596, 0.9901172706765402, -0.3266414389841238], [-0.22751131122405463, 0.44460190231408053, 0.5699333097322066, 0.6621604988034597, 0.7717998299969442, 0.9593893442153381, 0.705571464921589, 0.15492227545957213, -0.5612454926670128, 0.08029943352122043, 0.07849539403190162, 0.34402860034468763, 0.3729395328714014, 0.7680032362524102, 0.5425251617141391, 0.8789818992774183, -0.8779076606007891, -0.02391222631134959, 0.02848996365509679, -0.8083996144230825, -0.21495561434282412, 0.48297518598443795, -0.4739408376152795, 0.429098607812452, 0.4461724087488915, -0.045767746104426986, 0.2872411895949803, 0.36815897721590063, -0.5435492709287263, -0.1873046775938163, -0.586640396823811, 0.04526806687650825], [-1.057593048483103, 0.6164194624977872, -0.30348057713869153, -0.33007953345469, -1.0361393130491625, -0.05499822411737022, -0.21085991897697287, -0.5517734686455622, -0.6234209064786933, -0.728834520868838, 0.06618288179056567, 0.3196609743393591, 0.02651884114342181, -0.16129829613218347, -0.6805006092484309, -0.5934860353839092, -1.0334272051190556, 0.09424145294713457, -1.0016161956076473, -1.208773738984434, 0.1590719206302716, -0.853003041769341, 0.055860684840030386, 0.3052429829296067, 0.7899579981985381, -0.7136866530042854, 0.8558183599048551, 0.02062697088475743, -0.04392887329861713, -1.0188971387869987, 0.4210596069737572, -0.44290427219455386], [-0.370254933212238, 0.4029025965160791, 0.3705347763969108, -0.22632434120006328, 0.3598766318849383, -0.7933014445443559, 0.8411594127221751, -0.29489505179771597, -0.23058679588155745, 0.4424497053176892, -0.6602731786804814, -0.42300727530486065, -0.19459784841633784, -0.2132371074082357, 0.020689372680522226, -0.5798886013812651, -0.6228866409067362, 0.7722835712158143, 0.40234249874173306, -0.9261607921427281, 0.9230219257753115, -0.7167733801436631, 0.4368238404342413, -0.020659097556679395, 0.4371129900941574, -0.8658110093830679, -0.7941470675678812, -0.814443479475177, -0.07306755236160642, 0.1451485536565583, 0.3114938053995048, -0.8036516604442141], [-0.5927810215470553, 0.6270140309458533, 0.8864511220715716, 0.5470127243665461, -0.522469311396352, 0.44758080306901044, -0.10850743657141412, -0.8956345547158667, -0.34450337877615783, 0.9040858866754643, -0.8205642881584488, 0.4646091120537396, 1.1413308778004867, -1.0254035696057187, -0.574631355214533, 0.8053045355255593, -0.23816504861476062, -0.4229075222174622, 0.09921155665544815, -0.5085304921824496, -0.0522061548513326, 0.21228694318396596, 0.31044443067175925, -0.27956677557853177, 0.36366730701419997, 0.4564097459660547, 0.5166275088663653, -0.20744662116919113, -0.7407868209317401, -0.9211766594815451, -0.14378369179216907, 0.23103353174702104], [0.02897964720260001, 0.7477823587242787, -0.9453399013681864, -0.5771755906528158, 1.0461519533895873, 0.23193159838416594, 0.7652355328797907, 0.43351735300467553, -0.6090408821126633, 0.6932948660640189, 0.48756596082510867, -0.14134686524161713, -0.9047671829891935, 0.6157704730845691, 0.08015361039871109, 1.1183802401692855, -0.8053206190821871, -0.44609376674565715, 0.5151956003204401, 0.4031312359960211, -0.9228386266099701, 0.1559376501860117, -0.17488469248874564, 0.5664407145763, 0.41634157198422167, 0.815625394718492, -0.9257915816155862, -0.741661149390924, 0.5776598606390825, -0.3892269158122528, 0.9043931716166485, -0.38571735122631495], [-0.26378028015287647, 0.6311641151240084, 0.6993188688631065, -0.7273084165101665, -0.26148488059203456, -0.5299452815719424, -0.13279863440079787, 0.32214220629861323, 0.5455131915997109, -0.898399565138863, -0.3521456485235243, -0.7198378333262864, 0.7063927380296179, 0.06527005018534085, -0.4383964255376071, -0.8483545986419807, 0.3364680680145376, 0.32380726814861616, 0.013336240563439619, -0.13427665505640382, -0.7649745279953459, -0.05944326359249976, 0.39646456226040877, -0.2939077556827062, -0.6103035194814186, 0.5615840559487687, 0.3317881967798391, 0.48476654153034404, 0.5901028388728929, 0.08360729857605656, -0.8263883722136557, 0.634310221167466], [0.16412831543724157, 0.5246528730471242, 1.1396821896773404, 0.3199672714622526, 0.6939717749024019, 0.08332010078006427, 0.658925855327889, 0.8763592931194232, -0.312583230133852, -0.7707382094503334, 0.3658269963855908, -0.5250740283297486, -0.7125705979291451, -0.579941156255509, 0.6776158738766757, 0.4800536720847887, 0.6691358300927117, -0.11397965326052324, 0.8258799494022515, -0.8957631865315039, -0.22092123277637565, 0.6535771719120064, -0.9272419810957253, -0.40310064146511915, -0.47036792282960427, -0.18767123841675395, 0.36039056854889656, 0.04252033472177138, 0.3870199704350666, -1.0797664039540442, 0.2525341621435883, -0.4658607609301043], [0.5338465716232857, 0.9996259763382553, 0.13458987406245226, -0.3621069453198752, 0.6929880015519799, -0.572116779502197, -0.27662203821581677, 0.7186742582782678, 1.0243134065511903, 0.750404924990429, -0.062194825786248006, -0.19222039537982544, 0.44070989611882244, 0.8517016390466484, -0.07428458105004176, -1.1370094631727028, -0.7472821457299821, 0.030918682891478488, -0.3015121191698066, -1.2370198318620373, -0.46843648568793705, 0.7198993737802624, 0.1335336514040427, 0.37512344157643884, 0.4737238397867207, -0.1854333134377201, 0.18937261434466643, -0.24949845401343373, -0.1975178013197944, 0.9628829587572731, 0.5917410140252042, -0.23859014668260325], [1.1155689380826517, 0.9697115517255357, -0.8862642874657303, 0.4343814981395363, -0.9482042171840144, 0.204034491364511, -0.5994506504020247, 0.11869164903564247, 0.1295030711862921, -0.8369972372490382, 0.9555809357193373, -0.9009510780891923, 1.0050521112508108, -0.7116474613571849, 1.247400166406122, -0.3863435751968902, -0.15606669490356767, -0.3730777994968006, -0.2955454321870822, -0.7366776956966555, 0.32549239387935797, -0.8866862907204306, -0.6808064484077535, -0.6847074828928299, 0.8194809047916843, 0.2208248837201317, -0.3502548497755726, -0.786483924298039, 0.7629514470275429, 1.1995994810679131, 0.15318522051727726, 0.6158913653089793], [1.1041617188673514, -0.23863201701825218, 0.8601708428242432, -1.133308285270823, 0.1464612711527066, 0.8446747470665628, 0.276813543144666, 0.5243230357484561, 0.9815748364007785, 0.24873652176364622, 0.7022979202275373, 0.4535994074046041, -1.0755126032083964, 0.8222036562452366, -0.18202496544376112, -0.6272910807927727, -0.20458511792031406, -0.4813283415730221, 0.4809927151553314, -0.5254588951984263, -0.26909628317566414, -0.38048559038909974, -0.7689473608735247, -0.1641204448539944, -0.19239624691641016, 0.1784554128015254, 0.9202714417432325, -0.017328943804807796, -0.973240265058257, -0.2524597394304404, 0.8617858822717006, -0.3481322446838749], [-0.8258732103405043, -0.39109050391870814, -0.4570700205708215, -0.1746816218949389, 0.003557906682863153, 0.4656555117376544, 0.6271600628998618, 0.46853629041854516, -0.42359584820539065, -0.8066831920587765, 0.9208125345958915, 0.46354487737968963, 0.8673709403028802, 0.8931196442843751, 0.316305268912091, -0.8278578071794556, 0.6089765657407936, 0.7493011388295175, 0.015616901600398858, 0.9259880160735049, 0.09090819450890181, 0.40122951841907284, 0.7826417159141303, 0.007899062290793079, 0.8836127347007018, -0.6492136688116312, 0.20842660927034515, 0.8050238497356472, -0.43798801970253437, -0.5955625633954043, 0.2045452895772136, 0.4523616067420283], [0.29905974410134234, -0.8200335680788466, 0.23908551351563773, -0.5530278007563503, -1.1684839939459937, -0.14082661774748342, 0.758824194703237, 0.3801277246541435, -0.019374430593514853, -0.14197491601421025, -0.02401484443885179, -0.2644121018709133, -0.043202178205153915, 0.06200020643954409, 0.12382607766281821, -0.6879328325842954, -0.05508216202305214, 0.6551237239486476, -0.4706954885322287, -0.7127360278409767, -0.6647798249061908, -1.0111723983013887, 0.440107729653935, -0.7248668265719501, -0.3747472705997188, -0.30364429803196863, 0.2176851225414113, -0.4501794962326594, 0.947839713893396, 0.8161780874600545, 0.8550542117607453, -0.8761644680903153], [-0.7999095722205471, 0.6602400489678985, 0.28412621959119716, -0.716248390364741, -0.5301172043310519, -0.39204655019539014, -0.8892077159277404, 0.08408605682403988, -0.5527736091648192, 0.0844503640178411, -0.7965513519484022, -0.43154870688401337, -0.5232519963976188, 0.10850204174982606, 0.032440127608396284, -0.14704778463135962, -0.7268859178017675, 0.8073002767051655, 0.05727168995611098, 0.8602745935493982, -0.4123126415576722, 0.30034910004340765, -0.04220360360537001, 0.1410480351174587, 0.9334959478774207, 0.8405923061447348, 0.21651476614167847, 0.24975407065314043, -0.27704865308303184, -0.7710084878984189, 0.4874793390738109, 0.49547934553506306], [-0.7607716504855228, 1.2397228537100609, -0.6979035123621525, -0.2508342726793937, -0.5514587864526772, -0.6100294072405633, 0.8654425676170083, 0.5529361923657674, -0.9738023160968623, 0.8574929127431528, -0.8379461745328001, -0.5107090722650665, 1.197250412704497, -0.043270464164301546, -0.6599692460236668, -0.8960517491910668, 0.29546748509712406, 0.21412072645092958, 0.6682552037643132, -0.5655339654584959, -0.4061496903400387, -0.6467370058107408, -0.7517042959478197, 0.4202404577112088, -0.1420656181188727, -0.7374133017620256, -0.34692729278654005, -0.16531731514158723, 0.5142181961726224, -1.106368541329907, 0.008936013111592726, -0.20194319972742064], [0.4685767047226325, -1.028698508274866, -0.9532493500922097, 0.058604824267739095, -0.8848740397389128, 0.8524145275591033, -0.29752399439684796, -0.8652074830375973, 0.22034606317831176, -0.20361867744799583, 0.5507601699295052, 0.6914043537808447, 0.22145019184813314, 0.37349450857096445, -0.5805249171066332, 1.0045390738482347, -0.6440842669385665, -0.27122556767177913, -0.594868458357376, -0.11133942768436059, -0.5224730607128045, 0.6902499941477157, -0.7514133796278497, -1.0053198267362853, -0.8748436489009848, 0.25694412201226896, 0.43854799289032853, -1.0011998453388948, 0.984925810220286, -0.8780431655205414, -0.11645244273069275, -0.5921009229093812], [0.5715547905230728, 0.9387265782188315, 0.3134903980651595, -0.6073451653469162, -0.8436023140423693, 0.2891103819245547, 0.4137574732963558, -0.7673931604872555, 1.1395918753519445, 0.2680307833738227, -0.6426870053436313, 0.7664483377197279, -0.5006601107845776, 0.7890522604544646, 0.7560696471970557, -0.34713578247651933, 0.7388608635137499, -0.3800703573875969, -0.06974228491903929, 0.08851152393943393, -0.2827324242217752, -0.2275587858176876, 0.7326091098438842, 0.776651081135477, 0.3285592542763672, -1.059643204866501, 0.27129661516514264, 0.13869319527857632, 0.632037371875876, -0.5612731262149591, 0.23397288333142985, -0.19086605949442254], [-0.12266405986039892, 0.5479290064062441, -0.18899037462913948, 0.3762291659768026, 1.113367082066222, 0.6195312202237095, -0.7346702885413935, -1.056353421258292, -0.7546006898284918, 0.2064745344344642, -0.9597946145772507, 0.9506970804218511, 0.3246285164387162, 0.042446488306258676, -0.6184807116534775, -0.22620805011569636, 1.0549874905247356, 0.18893607328091983, -0.7498393427198303, 0.16213338951273792, -0.6520575570004029, -0.3726652597569889, -0.029972532271294604, -0.5174212394255313, 0.6612214081589742, 0.4638447226712234, -0.31934622726387657, 0.41319143749920456, -0.6982631273608992, -0.11225959457421313, 0.26607939307506545, 0.022190270409275008], [0.9576152337810431, 0.528950871939508, -0.891334736543215, 0.49761031938901173, 0.22112561317109553, 0.43617314509016464, -0.06518720530567006, 0.19350911772081658, 0.7081967435355854, 0.26008421777052176, 0.2449742052657781, -0.27048605157280975, 0.3749349794924466, 0.21774823193998843, 0.20125416703646723, -0.5310056850382068, -0.32392799425610785, 1.0873177675279302, -0.6827560649550513, 0.2746533036394469, -0.10973330957680075, 0.5161596034676237, -0.1866213680430539, 0.23677601117105143, 0.8865383724920989, 0.26620329586018887, 0.9282696024707435, 0.7329693416826715, 0.0716555176050126, 1.0380152027836735, 0.24692710737208334, -0.8876241684077071], [-0.9936718059738159, -0.22434857423760257, -0.6250382329685035, -0.2516160669188264, -0.2156419661503961, 1.0714440270118621, -0.30333698658843405, -0.6188988706653162, -0.04288974532042773, -0.1303351080259317, -1.1467678061240036, 0.27780218366523046, -0.452949613559788, -0.3463207227721044, -0.44109109286671727, 0.07976181675860916, 0.3109003013309105, 0.8033274237697828, 0.34782182968105574, 0.5849905496804351, 0.5937947341882414, 0.6485591956300829, 0.08144285255465297, 0.9574449461986166, -0.8327722886102252, 0.5321227731451795, 0.5025572102778688, 0.23351604951221888, 0.05355744207954892, 0.9161651554849086, -0.41252524334627755, -0.2837887821331072], [-0.7556206656269385, 1.0932665928323833, -0.5978818314197556, 0.9295356152848662, 0.29275604479320644, -0.09362996474808136, -0.6617929214717018, 0.5504030456477444, 0.6660742516727167, 0.5301272554984108, -0.04472452480522117, -0.9071086154947293, -0.31020305897192524, 0.21731559942591291, 0.7069674917658129, -0.4764827734677507, 0.2145726225423747, -0.6323656273793302, -0.1373173247369301, -0.131055597473249, -0.09020515709949958, -1.0704702441791487, 0.07772747286464718, 0.9890710687090125, 1.0238252907128058, 0.3827726264141769, 0.19784333419974684, 0.03665705271561635, 0.3656484966186274, 0.36345224352322614, 0.018601134175401345, 0.41084280424447445], [-0.6353317453542657, -0.8490860107267174, -0.5748914022428572, 0.6065134356309432, -0.21971936191647662, 0.2209116962086728, 0.8265519399309674, -0.9392011458089293, 0.30904988969724634, -0.7043041614683556, -0.6722203976995511, -0.5332429086137431, 0.9004736455010013, -0.4745573185697463, 0.6065936043692577, -0.06604235951234665, 0.46330020656798776, 1.0092331997775947, -0.2928863999164254, 0.1870115531672886, -1.233324986502303, 1.063185437604092, 0.4686258852026862, 0.7715298665696186, 0.7331975917348011, 0.7642524529490193, -0.7622354556648181, -0.8591545127312632, -0.5535257238194429, -0.31225659615513945, 0.006984433929248091, -1.0439759875190482], [0.6468640632813265, 0.24480635401065606, -0.1554958681138836, 0.10782017841664929, 0.5211244965864792, 0.7015327379194674, 0.3259415868704207, 0.12191072085659518, 1.0129084387476024, 0.40917450124871724, 0.6413438477455591, -0.7618049698787948, 0.6386632424752889, 0.6294666479891166, 0.05396107254978681, -0.007594957651609358, -0.7240017822015083, 0.2475844914579059, 0.6104276145857435, -1.0509613475142918, -0.07700957752155808, 0.6087719238299885, -1.0456025877949862, -0.12598896005780338, 0.957903085457413, 0.8487355159051649, -0.7481742027145764, 0.5741044636559423, -0.08530990254772963, 0.6953294992045504, 0.6545409407271372, -0.09434997144464723], [-0.22577842963647315, -0.7372301001881927, 0.6782026422150004, -0.20818233357424304, 0.11520474370449885, -0.15590668574245992, 0.2127460582355579, 0.129000639931025, -1.0345487291858506, 0.9754646991857537, 0.5094878398184124, 0.16026711084017015, -0.2935537589220506, -0.5268945722076304, 0.6613028982343693, -0.5176395638359367, 0.25475629946435907, 0.17637894804167664, 0.44220616852226396, -0.0712327932298065, 0.23727638889358338, 1.104367651355488, 0.17187885251246265, -0.6593139342869183, 0.3422572226198312, -0.8031062882022422, -0.08281512751910088, -0.9792793427073212, 0.5723214421989544, 1.2013071499078711, 0.935292130970453, -0.3626356395148429]], [[0.5658432100114226, 0.8670030176189473, 0.5991415375974276, 0.5937597493298383, 0.8120395814325168, -0.24984476014669213, -0.34632169919173894], [-0.11734689771755502, 0.05433861688888708, 1.0779607599289114, 0.07826058091293636, -0.8764493936624097, 0.5631576015409699, -1.0141759390762202], [-1.009036108452411, -0.6906402251288604, 0.7380889766336715, -0.5375891778401872, -0.1711911263522258, -0.1464549890906929, -0.8058750791597241], [-1.098978193449734, 0.2525581026072999, 0.4278592772415847, 0.29587597531753074, 0.4835310649370371, 0.19712253646604266, -0.39814451577720433], [0.45259115200707833, -0.3514109916093747, -0.7940587200063606, -0.8820705858703576, 0.5151097162712814, -0.26895139840607446, -0.18381715793771022], [0.6980555742875175, 0.9994844559537881, -0.5334235191349801, -1.2192638372560938, 0.5682108581951372, 0.48116799430437684, -0.9896371579515868], [-0.8967598982276413, 0.10030515721699174, -0.1519865273320861, -0.37917369618863084, 0.5332581041640599, 0.20555121464019227, -0.3716298170681883], [-0.5326291709939213, 0.35270229859683444, -0.7685621171385508, 0.0878523006953423, -0.789715301564627, -1.1238048907034932, 0.12253752987963899], [0.404460650881272, 0.8692571767753272, -0.26247293030720753, -1.0595614379027907, -0.7986011638845738, 0.30466155938853295, 1.3091839700610781], 