{"gen": 341, "layers": [49, 64, 32, 7], "weights": [[[0.06984990062244857, 0.11305962763612444, 0.153914293732136, 0.026467660432753653, 0.27361206904909596, -0.1170868527403855, -0.4062446651162468, 0.017273001332948065, -0.10701249903412736, 0.23722710457224075, -0.48524721865564174, 0.6345885781395085, 0.6556191141456352, -0.45605245126141414, -0.07109888487244098, -0.26506792518755823, -0.13480763865402576, -0.19801298241563725, 0.0538995107637851, -0.13809184882826184, 0.7221713639237247, 0.03549754668184214, 0.3872834580569535, -0.03328654623899228, 0.273610742069899, 0.039801853666613755, 0.10495907320193258, 0.5520226173485921, -0.14662080756910809, 0.44705459215258864, 0.35882414926753675, 0.43268126162566894, -0.3294477573118362, 0.028110676515133062, 0.10771508428562349, -0.09860867536288916, -0.029437078537642422, -0.08545096440035337, 0.6762438400440588, 0.10891679146546436, -0.20380599180496572, 0.0026987539447014468, 0.38032475264929927, -0.3094434589489598, -0.7430011040889758, 0.22713803211270864, -0.3670722831407584, -0.4783467714634557, -0.11224257684118827, -0.49905124895218816, -0.25397138954684456, 0.3929125649252887, -0.6985183041468318, 0.059151360883096436, 0.0877407585007818, -0.15736772676890462, -0.3312236594572299, 0.053349541690170345, 0.4033734345958584, -0.1892877525798974, 0.7223903283911738, 0.2348446095264171, -0.3247164680580996, -0.29509387751788757], [0.3867933780270927, 0.17009451470028283, -0.1534300908702846, 0.22878792462359118, -0.31638845646252634, 0.7142991841162778, 0.05152516974954303, -0.3275825176138941, -0.5127340006769575, 0.211626402034974, -0.10024854575931595, 0.19018595741887265, -0.17761312136557636, 0.05270569067572475, 0.9253705428185782, -0.1393581102769518, 0.08103077793970503, 0.11033692696707903, -0.5109355128066516, 0.13904957693023648, 0.17963541795712545, 0.13346399932496866, 0.1256977018256031, -0.3727143674550006, 0.19698110765070323, -0.16944691745733842, -0.7714010550652463, -0.014444694941306355, -0.02705455143779487, -0.04683310792834763, 0.06614885664935306, -0.2937584187117405, 0.423191902003266, -0.05402405421965769, 0.01714351384073361, -0.03138147223353455, -0.15997635244739347, 0.35150705752498834, -0.08347824510310102, 0.06359337379584716, 0.06871890162334986, -0.03896184627808504, -0.16505491988956345, 0.1544328668925322, -0.01609392035293688, -0.3296651863190924, 0.43688841201246786, 0.3186024210089132, 0.12252902439933015, -0.3015563489435672, -0.228608321864617, -0.3262533036512006, 0.18319869320428625, -0.024959849523303924, -0.008125129243297296, -0.376280761605941, 0.1744937566474513, -0.16111961923025817, -0.041248151894707305, 0.006630879020173785, -0.8133619206140453, 0.16949153440076078, 0.2438416860741672, 0.09063413704131612], [-0.2402410538486183, 0.137774785245804, 0.2085906067126182, -0.23110488194102466, 0.02635154106470917, 0.823377111598861, 0.142075235046089, -0.4417904214045794, -0.2990913753313791, 0.5755705622119108, 0.0033998961538308455, 0.33143981441351383, 0.32893921784932484, -0.015963581610239082, 0.1455669646531395, -0.38594896576999504, 0.2110234842020161, 0.5819644592893217, 0.18198794069635785, -0.2318522641748004, 0.16225334241686315, -0.3830769334608812, 0.053320425888599164, 0.3677506437377089, -0.06277032303133437, -0.22517776537604728, -0.1440556652856105, 0.09723440836766493, -0.6631347171620602, 0.0552766028888689, 0.7183213760347406, -0.11834705156634558, 0.44540194376308245, -0.007702436573686783, 0.4768738188026307, -0.07474824777986223, -0.3269406008487535, 0.039942318704288056, 0.4286925847853054, 0.21300018028671866, 0.7126482962674285, 0.3946223088468275, -0.25066728156805596, -0.9074377609304705, -0.3657077689306583, -0.46917928896416333, 0.09668805518495836, 0.003881328889310122, 0.050844635837669676, 0.21231154649222725, 0.3700255597887662, 0.3075899381284936, -0.009473942201464284, -0.3020238340071368, -0.000608768430038364, 0.15774576616705835, 0.5604472626455939, 0.12353226665242899, 0.3945544989579002, 0.10702392263537547, 0.03967662679340817, 0.2532116107573764, 0.28570376691361116, 0.4518109103752426], [-0.09789478678579548, 0.751219405213666, -0.1227100516570302, -0.0747010428427805, -0.26341010794986536, 0.23343136099365627, -0.49973036895908995, 0.012259597847466544, 0.8084612068113871, -0.05599458297014894, -0.21112291751091417, -0.4473614960005194, 0.008470381067838907, 0.00017457686797909305, 0.342854773275604, 0.14217839197042728, 0.08946571918259004, -0.0009149953450150403, -0.48019067174423924, -0.4670672557867241, 0.9254361885314601, 0.057929691387436553, 0.12923838686739159, 0.44313804472361656, -0.9349204577356498, -0.0003343611741862494, -0.1231581630884675, -0.14380731749891254, -0.290711940983469, -0.11015417249302097, 0.1889677889617409, 0.2640564903538429, 0.03206372098615064, -0.2431531265524465, 0.0775198205363798, -0.025676080131400034, -0.25698871432244713, -0.6882095285301603, 0.625642743785999, -0.5645672273726355, 0.5364237233221841, 0.09310978189917977, -0.4662141739070155, -0.41219189495873915, 0.3450526708453738, 0.3933319825559807, -0.10448080311738939, 0.18959762799694677, 0.1505157547593707, 0.3090020416418107, -0.02431657547726251, -0.4956402666877464, -4.977014320760515e-05, 0.7741074206004338, -0.28075778652394195, -0.14107577956479653, 0.33413018266811245, -0.8796961520346255, 0.3612632644503222, 0.28703453172689614, 0.39135223227040905, 0.4448046657910365, 0.6038333156663057, -0.1558865244238351], [-0.054290681020153664, 0.263248724569415, 0.47304145215289256, 0.7699238359171564, -0.10869733734556418, -0.2448532301680096, 0.10131552938739079, 0.7215176235713576, 0.18581542803008755, 0.0838627366975454, -0.08420846138631664, -0.2677864930953831, -0.6408778953319287, -0.04466329670913497, -0.6421378870350319, 0.06663827018945387, -0.30679648826917183, 0.0052446437275274135, -0.09331800014071127, -0.5569710253416583, -0.12794947119578925, -0.1208304306059176, 0.1990352310001485, -0.09785113497467157, -0.11234346204198836, 0.10982915330081378, 0.4852476149598198, -0.37116249815293284, -0.2321230325029707, -0.16000965150982607, 0.3546593344201918, -0.1122081430735578, 0.1401297548319463, 0.13833192979864464, -0.6636745169941092, -0.29522006927922, -0.44689676919589955, 0.4092771017648727, -0.14272290873520202, -0.1989505187107379, -0.18285923385469474, -0.05076061428901294, -0.28669096096721364, 0.43658637627420727, 0.08614693386329904, 0.17218214377424143, -0.11517977462237335, 0.3585675259907813, 0.5655397009264821, -0.6104548849450654, 0.024994317007136484, -0.28850200343024174, -0.3237389965879753, 0.4336602360605457, 0.7609273587990458, 0.029154859337601716, -0.19425316052424504, 0.2891067668675694, -0.2273783403760681, 0.7006609075928548, -0.1987994167892273, -0.23610225937046636, -0.7226047153195466, -0.25217756225923593], [-0.16644188827973316, -0.2797550286360742, -0.13107631099905112, -0.04860693673469882, -0.3080658137068053, 0.22596439249432995, 0.3869624279625823, 0.18259140241558583, 0.02702208267939166, 0.22691680197082786, 0.40392402535315286, 0.11741850912220236, 0.6312074901344559, 0.1571809999126559, -0.3274947396226697, -0.4695561191246034, 0.17513130172969546, -0.4788571351939344, 0.06544834364338604, 0.022592929976459716, 0.0257409100281554, -0.012774040171578183, 0.6112653155207811, -0.5265346143879714, -0.21124077346436665, 0.5352105638450101, 0.21520897752587953, 0.1100154049075181, 0.004335211783842392, 0.19462586185996902, 0.030945125006068552, -0.5863064092134959, -0.19374823688387735, 0.21573388835889976, 0.017377926570737407, -0.018728416462619846, -0.06790473289666164, 0.2733356961670733, -0.5279949704545492, -0.22975770026311804, 0.14116808269362005, 0.5872803587258731, -0.381723280455962, -0.1935288124767369, -0.023121745254094998, -0.026357647000704008, 0.43370100214429036, 0.06268087243800827, 0.04625384167251458, 0.46912043367770195, 0.1780592243790692, 0.1826788191264154, 0.25064232759838645, 0.3585224594436525, -0.2744404122377668, -0.9688064716735538, -0.3068547940172063, -0.2663439154172256, 0.39307768262111537, 0.3493221988233854, -0.0791315625145632, 0.5707303982127739, 0.08342203964140595, -0.24124056578396924], [-0.6114599833126984, 0.02758533351875257, -0.2830971563302728, 0.3454824812095075, -0.11194511710712374, -0.19818598549056587, -0.10848750477972374, -0.1080892119850304, 0.059449861809847494, -0.3824811196871529, -0.5155612972232865, -0.0753725013235124, 0.0013799742892001456, 0.30127921901009674, -0.1669904206594739, 0.05596911316799489, 0.02670178068450293, 0.6632075302001954, 0.2855240555520411, 0.07189261945912175, -0.5642375655081067, 0.4246294319273684, -0.5129516686327985, -0.14968662878011427, 0.5890290126870356, -0.16795558511702846, 0.0943051670904921, 0.3060680083048347, -0.057522195051095217, 0.5360283367198088, -0.004786260326112207, 0.5102319278858815, -0.17376685508413423, -0.4964423361368533, -0.7778173605991746, 0.2060873232754152, -0.5854813093791034, 0.10239743093514075, -0.1906635698961532, 0.2241802831564411, 0.20196957609322372, -0.05251652020345312, -0.013683082152870346, 0.23801225727573308, 0.1618529669403437, -0.10849107327914233, -0.05956553601387166, -0.00769722726289633, -0.2817126734446331, 0.3661064409120611, 0.17546441759314224, 0.12160054808960526, -0.25551703717607727, 0.2164662960828867, 0.129734691492549, -0.17021818475786488, 0.5673831890965678, -0.25668346045995455, 0.6020496999940916, -0.33445318109602096, 0.33067442761383, -0.14819729635191164, -0.6316265211814419, -0.07599636119513326], [-0.14153941479208407, 0.3495479019436343, 0.07877316205332323, 0.28594391755779053, 0.01061797513076261, -0.3663843866479192, -0.5770951374774752, 0.044445435440549415, 0.08524119047502747, -0.0468836175752883, 0.014737819926436344, -0.0850169616859509, 0.6023511236627906, -0.34834460643875026, 0.35383136366932333, 0.7090296782479816, 0.3729935661029253, -0.002355141643350147, -0.4364083142281792, -0.16094710792057945, -0.04868576411863723, 0.24769679157422766, 0.5001762757480591, -0.8981696921418076, -0.1159339436410425, -0.0991308500723163, 0.1785855058995233, -0.015686462108564326, -0.39320518644641295, 0.040714599955727675, -0.4459627201213034, -0.674704916480005, -0.061590807773357514, 0.26203970902660867, 0.45075786603429857, 0.4683248465236524, -0.2522521168568928, -0.481018279310844, -0.07984506793024314, -0.08368326711111528, 0.16753696226563933, 0.07496321062534639, -0.5921195497585573, -0.5792411681644968, -0.5061863311685177, -0.13161018427508928, -0.3385915287924892, -0.5464920380973809, 0.6808568638464539, 0.13333995721643854, 0.07638903445529908, 0.20189590841752836, 0.3094261143438672, 0.3757099792793353, 0.45960830447318957, -0.8010013295778244, 0.06063182898116232, 0.12397396945365706, 0.04421726048317914, -0.14579311835895695, -0.06384373473834903, 0.32401167736263053, 0.641989483967654, -0.5999871091648658], [-0.1427868843922151, 0.04472547275699538, 0.13228314339278055, -0.31997972206261227, 0.1185342692162936, 0.5327323921126688, -0.0890380238351711, 0.3161187489856889, -0.1767784724449074, 0.07826073287623052, 0.7174263309057142, 0.14687135441967683, -0.03231958112596249, -0.2896650978443588, 0.3622855969860213, -0.871960101224493, -0.19029455399838013, -0.7166385816198609, -0.02868840006487731, -0.11434433808068938, 0.031135654412682068, 0.3765640610960744, -0.13461088680986877, -0.36851672129052765, 0.4428778837976619, -1.2485963020431559, 0.2007705732448399, -0.7877027754503515, 0.2608058686490826, 0.08668379828243321, 0.0834641037210521, 0.044987411998527925, 0.02842886153344146, 0.3243334626980357, -0.11581895891022519, -0.2504195694293332, 0.08602388712111779, 0.2951216000787496, 0.2644551706527583, 0.04017770953350306, 0.1305081861930098, 0.08233479973095288, 0.1122276823421508, 0.1727664965196102, 0.22675430878107072, 0.19402250943144406, 0.13756129664493713, -0.5061588359810351, -0.5051620685709409, -0.6418029382137963, 0.25849547956658137, 0.2094788432157325, -0.2725920477370562, 0.27459107349683476, -0.4712479989040233, -0.6735165409959993, -0.4404135680519497, 0.0032731107826036673, 0.11558853512736693, 0.251974446611359, 0.5983997456830425, -0.3423894265901546, 0.2058342353901075, -0.34181812171716847], [-0.19518157163886948, -0.46992423296510405, 0.3338814029194411, -0.01629653699637974, 0.6774592547260102, 0.06881749921444331, -0.035174239277047, -0.20504198839153018, -0.3133663298262911, -0.11917184590478219, 0.29947666523098554, 0.0679121150671437, -0.07041527213010415, 0.5685407017603402, -0.0805357715815413, 0.5756888714298837, -0.25683433419145996, -0.39352105183930813, -0.11907615551789548, 0.4194900829769517, 0.14485443096295003, -0.4254519124107912, -0.19443631475084414, 0.14923142259281677, 0.11383346558266515, -0.14106920552193505, -0.17466901003328436, -0.4789925317423229, 0.06056336300260202, 0.16699019159078854, 0.31531500343667224, 0.001985687333972228, -0.13168468743625467, 0.3852517584543456, 0.30877614166304784, -0.025209814738438818, 0.4801051386366324, -0.08153903957061663, -0.030073107416706366, 0.2523981613434329, 0.3942127316460104, -0.2554096889112924, -0.07120839729525492, -0.05981450544345559, -0.28717223725690527, -0.006200250423838469, -0.03196251530776959, 0.6122956947362078, 0.067720927115532, 0.19090241664574104, 0.06138510259292402, -0.3086001437245054, -0.1983508419295642, 0.4917485487113172, 0.010998751837762041, 0.031179675931964745, 0.09814225043763447, 0.2791750588299936, -0.07992119778926537, -0.07791277957393847, 0.007137930291424191, -0.1286559045695258, -1.0302108122903177, -0.35385509664354076], [-0.1591804772561478, -0.06786873486911431, 0.020782347499687538, 0.017152026613698263, 0.13271363912170323, 0.374032962134671, -0.24791896179709894, 0.352766975487203, 0.023058856386881165, -0.13435300072596937, -0.32695236905112096, 0.23196493000743704, 0.2906860416439432, -0.2616799523825016, 0.4041982751983724, -0.07473452023085772, -0.3320231067248917, -0.14729935473711978, 0.4021652120189179, -0.3603711318706033, 0.6172593165606673, 0.13508512030469774, -0.179620358956078, -0.05535287148964085, -0.006110516395192424, -0.1529565484175544, -0.41431074951153873, 0.04091592942555566, -0.11976269843513121, -0.1794484931192866, 0.11515632764028545, -0.0932422051892748, 0.307538410818197, -0.051306729177196364, 0.011661458435640792, 0.06926355701612182, 0.2311471049608512, 0.1273030892654226, -0.17012205726435284, -0.15690567640697273, -0.34549515119707497, 0.30426864158493433, 0.17672415593014226, 0.5605326427078657, 0.12397341531983146, -0.01545473010311625, -0.43180731912488585, -0.6057177331004037, -0.19751251119641375, -0.5301507100734457, 0.13998625568080827, -0.47438102913924546, -0.15086361054095673, -0.15144879184340024, 0.006181822685309295, 0.5592526562278862, -0.0627060085117342, -0.35263827106239404, 0.19961202239337617, -0.2223436930361006, 0.14969288774069453, -0.2374392217344976, -0.3616971195272544, 0.26602144481248413], [0.3168006353075932, -0.5872569551465977, 0.10032834527510114, -0.16089401738122608, 0.4936370641099335, -0.03677144768061424, 0.023950297133641083, -0.6074060650599561, 0.5373797302507307, -0.23971223463463956, 0.11818617528308985, 0.16009596130046336, 0.6202467065882352, -1.015361045622447, -0.30889260172568495, -0.3840928982436167, -0.4555025994100372, 0.11464051593320002, -0.26440171560463227, 0.4034708241482022, -0.49134216925529844, -0.017807776131484952, 0.4475544370608828, -0.7557554134464914, -0.026977161665977658, -0.14496502903567016, 0.23124730446657862, -0.3730500103184064, -0.33812423914200856, -0.3439074705600855, 0.26326114756372726, 0.5540037952146425, -0.2114738650919198, 0.06551156202201229, 0.10893605063564328, -0.06701396586522206, -0.6448132856698259, 0.09983714082893148, 0.1877219233001041, 0.4217038109868934, 0.350989787594768, -0.9119070763524917, -0.07117331233254297, 0.280584518566592, -0.3223626386940786, 0.00441836156824778, 0.4408546412439287, 0.6197200402740957, -0.5320467125473091, 0.37558381619245557, 0.05802103661038339, 0.5104932420535054, -0.0650732771455663, -0.1547031898115213, 0.6974894809414894, -0.02110531361576509, 0.009333078770971802, -0.40818747962817187, 0.25990051536476594, -0.1708973665077693, 0.017943195422470165, -0.09252841976814123, -0.1758905308639227, 0.3848528836492762], [0.5161336917741568, 0.07515731895699128, 0.013167752513176922, -0.4799468029437938, 0.39122343134258336, -0.08154286187288529, 0.1549418035483369, -0.4068578440754392, -0.023554568920330077, 0.4424541816282069, 0.03659266683187868, 0.472657132237117, 0.1767578538353697, 0.6627220231782607, 0.12561607127193336, 0.06042524651928904, 0.5943288573250837, 0.21207187271654535, 0.10191714012881688, -0.007418275477216521, -0.3013125254901447, -0.030078870492031395, 0.23850215922692994, -0.1910465191036935, 0.32033641261798024, 0.3005277162619205, -0.132038337977217, -0.009954460705338624, -0.43473935740177566, 0.09101541658590041, 0.09956236647571089, 0.25659331349142395, 0.2309092935317386, -0.6540405315931808, -0.15434288225091017, 0.23396921684785318, -0.4129458868938159, 0.6372040429327673, -0.17790885315687696, 0.2045525547674902, -0.14167731741630557, 0.05465553159299785, 0.4414834369321224, 0.30980240069573634, 0.23806026992028625, -0.08128545228780289, -0.2735567419288492, 0.41476496121133094, -0.39386018249155735, 0.17365104925663646, -0.2490869251018394, -0.23815002563877893, -0.4417303404786324, 0.6150322780475576, -0.6944237623861323, -0.20110795832479153, -0.09358338846663626, -0.24734088284576963, 0.4282601795665428, 0.13537426296196536, -0.19913243394271737, -0.4763853788487192, -0.06568702620320191, -0.013366387370741445], [0.05147844488509565, -0.08173832732117994, 0.0025077665244339, -0.3050574019669286, 0.1616830563780979, -0.28094674881435394, 0.26787851426353315, 0.6126051791778732, -0.16414749172244963, -0.4125943622586814, -0.28558059430667937, 0.028551985341009393, -0.07055671029299466, -0.15617622378061544, -0.24760072902221184, -0.31561265738519434, -0.10245121436794453, 0.1606243522621542, 0.3438279754828753, 0.5746234659567063, 0.22016117542366112, -0.23745657535760664, -0.07653206861415628, -0.15483276043923333, -0.2762365267434527, -0.14165365910915748, -0.13844874662916312, -0.42234907021697726, -0.6474145077872703, -0.08895112433003954, -0.06473181276660378, -0.20948027814989892, -0.010733029515409115, -0.07869945863612815, 0.06452248471492811, 0.2927776648357801, -0.1356942039118587, -0.16769554439334636, 0.3125691696137053, -0.6479858331706568, -0.08350704812782306, -0.22619427877409906, -0.5335785225610908, 0.16572988256729113, 0.49017564382467277, 0.01311657144626001, -0.41680750546951434, -0.2623901319995184, 0.40614081731015655, -0.13887735690948957, -0.08790017488489922, -0.00599447122325681, 0.04380385281009264, -0.1591735996545692, -0.3562104752008222, 0.07589254712849468, -0.1852482130750546, 0.43474777053446373, 0.2076290472726536, 0.3194477582962652, -0.25250254139660133, 0.002481072143095906, 0.16563726177942964, 0.016970122934904765], [-0.2729431625962163, -0.05353862851583244, 0.1818395394309227, 0.032666635224327174, -0.11057742221424198, -0.049595167190215346, 0.6527547909404635, 0.3800677954086071, 0.20547511525786455, 0.353400581941564, -0.25409064369552575, 0.08785220195809211, -0.15718768227865923, -0.8023106875581892, 0.9532760137809461, 0.3082664031866391, 0.3709513872546924, 0.30816662692128133, 0.440536607097501, 0.05015109161847006, -0.11090903247635221, -0.2554887793026917, 0.09742343489134135, 0.14672971136283366, 0.11866234040335977, -0.1739788932961347, -0.023032767014559637, 0.03908271601749628, 0.02035058494970907, 0.548093560832032, 0.07315332781732503, -0.2802839391831036, 0.029918336877320945, -0.03538912102130413, -0.25392313916856313, -0.11026841827456933, -0.146774423206986, 0.019382322897434957, -0.19306234846662915, 0.1515370568412345, 0.25903979031754537, 0.022665448115593425, -0.316095375371039, -0.00186883825819588, 0.037204019780342885, 0.23308602111951857, -0.6332287695822857, 0.35755695097679036, 0.28683593171080785, 0.0607425197737653, -0.537377856657488, 0.07264181433926607, 0.5536509730227922, 0.06502798320188358, 0.0045402534228774745, -0.2140607236231512, -0.20198349271803417, 0.2782788087100497, 0.3270463354738727, 0.34207114038323266, 0.07684336032356899, 0.8138927665346252, -0.31747821697596446, -0.05227030079559816], [-0.08003678967836404, 0.7765084003861341, -0.0917205018851978, 0.11326184309230787, 0.07891632508894858, -0.6270093596509075, 0.14290207768800206, -0.25433498488225187, 0.07995614482642784, 0.08932465600557347, -0.02014272279047438, -0.03871856476397228, 0.22567881137395882, 0.08073091605820924, -0.059067904525359975, -0.46268966011720236, 0.6200879948745429, -0.0014639830107982174, 0.061863232796666535, -0.09063950871151731, -0.5289495678641346, -0.3326477006907696, 0.2316323149151124, -0.14921409699599655, 0.47501647791462326, 0.2849169752117083, -0.18009585525507174, 0.5048407487266086, -0.07166615644222014, 0.5087359959870481, -0.2542484057201581, -0.13363672318152048, -0.20546558241339286, -0.021218694183831797, 0.06570980236262515, -0.24864005342427234, 0.0009977677859358848, 0.08440227372759744, 0.5055099104563853, -0.16495393574049647, -0.8670460609341345, -0.38529403937938617, -0.10212776376656583, -0.1326609937960356, -0.355373040629416, 0.014452357521319792, 1.216060661029821, 0.30687345397225213, -0.23062262560971736, -0.296729750466245, 0.03985088412756949, 0.08398292840198239, -0.036323775908620466, 0.04127622440607469, -0.1358890524509254, 0.02067684041298855, 0.13736475009127622, -0.31931532633484133, 0.15597187380834146, 0.15620367712734815, -0.34218412686619387, 0.2218613526294602, 0.2371112594010902, -0.1261244851553478], [-0.3270786263567002, -0.16902356202167504, 0.3783429076247142, -0.35961760807782533, 0.20143667976065097, -0.4174032463172889, -0.44448286757729855, 0.1565593792210523, 0.5945583666305057, 0.4951133740764913, 0.32345076071444767, 0.020790157358656174, -0.2926243301606539, -0.4969674488999367, 0.05150813207672494, 0.2606306643059591, 0.37925732901898423, -0.4806157765541614, 0.3835199188128506, -0.6128977967799658, 0.11731085930848802, 0.1928190398101174, 0.0806181837900555, 0.04421968286428981, -0.13506350156678412, -0.7068902871167869, 0.2368267960458527, -0.2113403406051867, 0.42372963024809457, -0.6335309400859633, 0.26530529082671905, -0.10925364662253621, 0.19539419372562875, -0.06868802023407646, 0.20731840721859748, -0.05761579022663288, -0.5173601148888226, -0.34975525880462216, 0.5244954489233047, 0.050272646717173554, 0.2295205971072336, 0.12058247034750798, -0.3040466983127014, -0.02806094937977109, -0.27278908512581285, 0.19168746034616155, 0.5611481207948688, 0.14810951431240196, -0.5424435994983337, -0.22365233665636497, 0.282773011211045, -0.26630116533279874, -0.6418942247168893, 0.42444915131761335, -0.25200794216771033, -0.004023677446827682, -0.3955264598193349, -0.4206386115285962, 0.39136668170488303, -0.069633713290832, 0.480248387621744, 0.21135295464285062, -0.101521032198523, 0.4856981342724354], [0.016587272097499713, 0.7590206143321385, 0.046938164200314984, -0.1963355280357498, 0.311343341981774, -0.2512543211114013, -0.6395184812952903, -0.008968998550248236, -0.5588575195848754, 0.2941604719690138, -0.010538836321629599, 0.6230693879099963, 0.07923669339220961, -0.13675823130333453, 0.7561292924575117, 0.6296295354361923, -0.3016249910999795, 0.41975848824898604, 0.3817450215988721, -0.10070825613395262, 0.01669565732267194, 0.6515241336914569, -0.14722792648765778, 0.3603021373164088, 0.43766695531057564, 0.551861687920625, -0.14600645834782708, 0.1371179907610912, 0.02692013631931992, -0.6698354479838876, 0.44000977173031025, 0.3513268666352026, -0.16263420060280787, -0.14934177614614683, 0.0020729860127049935, -0.08606672968876432, -0.24739570890495424, -0.11093762140021608, -0.029660946182718393, -0.3793114526492963, 0.19899337618010607, 0.016704352180643194, 0.1622166347714797, -0.1091790112319322, 0.06977432595374326, -0.0011575131134026126, -0.19268503052044691, 0.28811280058739847, 0.14745037089120236, -0.21213210398782323, -0.1991991935216909, -0.2294028679093286, -0.18696025911933858, -0.33218622392273606, 0.12908979790162242, 0.15503998702924623, 0.22838927930165162, 0.18093880194879405, 0.4047869129083317, -0.30048219927146164, 0.11235110955168533, 0.16645079336844967, -0.1294921820275288, 0.4258460667009812], [0.09884132241327565, 0.2185682005257444, 0.3618078275905156, 0.24252992025831807, -0.013941862010498305, -0.0036059551443087794, 0.20259117060058865, -0.3029990535151223, -0.2244233031189485, -0.17154852145135305, -0.1550891769779276, -0.3293645441519844, 0.4299106085475198, 0.09617116908431454, 0.02644916298449307, -0.06856861900780764, 0.16780358912306856, -0.012969726532114596, -0.530204414524876, -0.142307223765175, -0.01625636146654874, -0.04780283290189955, -0.16944824850083925, 0.2736886689706525, 0.10547511677761656, 0.24790754373593935, 0.4206455905225385, 0.06288247080817928, 0.32445748504993555, 0.08066985828824745, 0.07039397249690867, 0.36690379602432643, -0.5466529449271648, -0.3058639298862897, 0.03819562676314115, 0.6463745119403225, 0.06773144409919067, -0.26970292736320917, -0.2806738694048681, 0.03866442986693518, -0.24101564245064597, -0.567276740220991, -0.3994454876411408, 0.1944352067510334, 0.5867242465665613, -0.22838496040241404, -0.16090272188774854, -0.4733868479118905, 0.006118928201414606, -0.04014733992100489, 0.2120136413003431, 0.10418100354009872, -0.13579449241594937, 0.017420130504127662, 0.5090872546570057, 0.040623926585365795, -0.06784371675235296, -0.4930031120021667, -0.021019307527937865, 0.015134196542295081, -0.17382490200753106, 0.0874009505678, -0.4080636892042242, -0.10796504889719839], [0.6731051303055868, 0.17651918368404926, -0.4566584412297914, 0.6715481359789682, 0.766523096484886, 0.010219548016094931, -0.46674902939081453, 0.009002579129918436, 0.34349557455619406, 0.5431018846057031, -0.6451445076405042, -0.08233228253770236, -0.4419968195843764, 0.3542994780567961, 0.3538474193957399, -0.05135356109129847, -0.2862074537536161, -0.7511924811385655, -0.3466756582545249, -0.2223712032831897, -0.017520287230113736, -0.17737406033952893, -0.02680958931093876, -0.3079817295338945, -0.09139649708204783, -0.2111713705073317, -0.21921065230828476, 0.3474920854524399, 0.19450563620629172, -0.8606853570683496, -0.34021329980270726, -0.04488710794325782, -0.22395711227460324, 0.35655646891600473, 0.2123679121116184, -0.027155316751245565, -0.14290023432048896, 0.021737220813922337, -0.2088094565622907, 0.16257779524189006, -0.03963939042053128, -0.5254907546312636, 0.07245407961256795, -0.07159552991902024, 0.29673090555027576, -1.1574097377086117, 0.33973090753585944, 0.42685252881839797, -0.5297822403502392, -0.6724357113417111, -0.2505292855209617, 0.24465016143777452, -0.13454090933617058, -0.3201219336820981, -0.26627779349149056, 0.058492421516995546, 0.06814620248278093, 0.228222750429272, 0.05308418249624019, 0.2795832539272833, 0.15348386313095475, 0.08645099084047554, 0.09308617981065552, 0.48177846452013967], [-0.3589387876328132, 0.11186326247149664, -0.02140976325584888, 0.4520799060955711, 0.10619281557488548, 0.05059395804447714, 0.42845091468484925, 0.1976500286634888, 0.07480847223036928, 0.01648125458478567, 0.18737133549611792, 0.39731771363260365, 0.049293257017724613, -0.5366122641994612, -0.1909990116735184, 0.39119046446098826, -0.31534501370417717, 0.07646255148804898, 0.3451109987706389, 0.027356221680204382, 0.3771895022277921, 0.6608199415219987, -0.12545480659834937, 0.08417726518419084, -0.20207973682476665, -0.5418406288509751, -0.3820915091537524, 0.3024970285794268, -0.3640721356085089, 0.46748669674910603, -0.29855289024805026, -0.13930775624765004, 0.22921732452703858, 0.3847620034497827, -0.419615173031257, -0.4905810144890041, -0.3170094837164899, -0.0021214245640390652, 0.16178680157889722, -0.9656978448887434, 0.35040550912446894, -0.6858680233150874, 0.5973453865671663, 0.036820655187947894, 0.5492404642733578, -0.02308049590892357, -0.28801250253473676, 0.27972491153890583, -0.2934024547732443, -0.11187597053291416, 0.08334044681772973, -0.06248701696137584, -0.2645678322552287, -0.7110706368534294, 0.07319396360201008, 0.1328665789419712, -0.11977112388596008, 0.03126010827266862, 0.40953550782598924, 0.268272569399011, -0.5884934482265927, -0.4582401279057869, 0.29261407319376653, 0.45939056563163666], [0.11039143002851987, 0.45176464731033805, 0.4169510984299805, -0.10054225298679441, -0.08633176816120251, -0.1883555826366247, 0.15967439664189575, -0.7046027782006116, -0.395216034831886, 0.4245134743320125, -0.22224921038937248, -0.042082941556084295, 0.32826494329085704, -0.28486116420296986, -0.06051044979032908, 0.6091523501495026, 0.1166891069588581, 0.15920348024246214, -0.2610139614181482, -0.3429255578640043, 0.8053248575797959, -0.008787605951483686, -0.18360509544247314, -0.006926032631183737, -0.03919305811304531, -0.6028761481701738, -0.1212648695233358, -0.23096369298126793, -0.18910579309546746, -0.46559431067310575, 0.17094942969032886, -0.3964140765248452, 0.47179099808101105, -0.41993710528698536, -0.6801387613760405, -0.3356278555090538, -0.04657215707832099, -0.36132495204668347, 0.18226093882724936, 0.24019695981472824, -0.500238267230635, 0.4016904223633992, 0.5021999674548486, 0.481240254617708, 0.600874132293874, 0.21138691978465005, 0.042345278611351206, 0.37398812610022425, -0.03997441580228566, 0.008612941599914074, -0.19453896950226832, -0.23938213200456115, 0.04018688386426946, 0.5451499145950792, 0.24563321716022227, -0.3186681656439648, 0.24045153811565775, 0.2618745955978072, 0.057942270340377584, 0.03813465581133903, -0.6167112684384206, -0.1602813489882121, -0.476075266797145, 0.17878061872787007], [0.35774467433105306, 0.3985185206762163, -0.5742704332893048, -0.3113057255900585, 0.5120386698313303, -0.07255069272187703, -0.4273013619087544, -0.07223282705553102, 0.10872059601835804, -0.33358377042022685, -0.17781464260114055, -0.3174936128304012, -0.04646466026032273, -0.4444882949292033, 0.2930784110466692, 0.0958138392216785, -0.1945289028319057, 0.08149888417499711, -0.005595224132535446, 0.03274072226966004, 0.017019293077288125, 0.4365419559512067, -0.05535481649411239, 0.34506088065610135, 0.15811246400596507, -0.21699136498022686, 0.002540248999256833, -0.25393651442720405, 0.19565355892147832, 0.3174733968676124, -0.5889679297358139, 0.01304384144151526, 0.11164399325834812, 0.060134519214734734, 0.3229767560244692, -0.44150116768994646, 0.49346019416936926, 0.08258082747080155, 0.1289410200283925, 0.12005253482907365, 0.4030843570073748, -0.4632961476492204, 0.23198028800836745, 0.4581877736410453, -0.38848372323234837, -0.28951678845713485, -0.47281578866817825, 0.14965792858500757, 0.03678625973485585, -0.19551483378493603, 0.11833617450695981, -0.7046115684136316, 0.3050464544510681, -0.29596397700008914, 0.281125461407548, -0.4158690734821798, 0.11914202720828855, 0.10809861154268931, -0.7800276261655009, 0.0669093215987853, 0.4653218605390297, 0.08794096892807717, 0.22921030412861398, -0.20502154642235118], [0.09415183118860326, 0.7459228345862812, 0.21025260153870648, -0.18929490587345774, -0.04467143447508304, 0.10835058002743063, -0.3110791318522351, 0.04503965230517329, 0.20759548974402045, -0.10185725324399209, 0.3281152784932991, 0.7796987209013211, -0.012622924876559966, 0.23939306608357416, -0.2793604716971611, 0.20126562316488283, -0.48349366149623574, 0.1301108784751627, 0.20088333408824618, -0.09361652130673526, 0.32951721212797425, 0.3707540622821361, -0.05711123623909692, 0.08783514208044808, -0.12007468501250125, 0.27053969016343, -0.17749633073825563, -0.39883364125514637, -0.08764258895517739, 0.08318252659500064, 0.2912680663332299, -0.1878975114946343, 0.16537289184246928, -0.07579788557535223, -0.28462848616943365, 0.18803620141981145, -0.13956825772742207, -0.010607344876770931, 0.3764240223875801, -0.7250928343765279, -0.026716653725683732, 0.02098556976852393, -0.2776279313168264, -0.5998330350127036, -0.0941489113286149, -0.12737596756570937, -0.22678213268507655, -0.09677231544319582, -0.1530501883628079, -0.1994356774622975, -0.010476312945789393, 0.0442809333822255, 0.0211267401214808, -0.2728174511786439, 0.11490593046686841, 0.025913121113749462, 0.3836368051393597, -0.18025327052177662, 0.19691500765611722, 0.19496860483612008, -0.307795221924151, 0.3848407181159079, 0.29224465410759753, -0.41121422272839947], [-0.8649250871145097, 0.2600440173459333, 0.14046674814589258, 0.020246363356640356, -0.5653036743852414, 0.4783672560277468, 0.17990373171879015, -0.07471729428215561, 0.2673615882418568, 0.22296208311900909, 0.08151964687123786, -0.40563037048858236, -0.2927876504530556, 0.007956450343888343, -0.5985080824277874, -0.23418230495539524, -0.08035457275327335, -0.5007805029112422, 0.06928207599797893, -0.37662547393377, 0.5958413984107866, -0.5222977566389387, 0.5153305978690367, -0.20679316003304524, -0.3515949697562652, -0.10198489749409063, 0.21529708026399433, -0.03008606957838607, -0.5019805844783618, 0.13988689394044937, 0.41705798380628295, 0.07985750486579096, -0.08329032971791196, -0.010492404341919101, -0.038126795798228204, 0.013206091159168628, 0.07303826185391592, 0.4019239015512422, -0.11417432188747222, -0.020280192836349863, 0.46519978534448736, -0.5157492411136821, -0.3323994370772004, 0.2731365896507241, -0.10307603715846053, 0.03284178014286768, -0.5187598491905987, -0.05516477160078883, 0.21296766285820698, 0.25493404019227534, -0.09893148261466966, 0.21777224963618483, 0.06400572971991021, 0.014416369595526723, -0.142049604875545, -0.1443159808273211, -0.07759684690113151, 0.37965402649910684, -0.1359452230883958, 0.019001054177317185, 0.2806371227046214, 0.05234047983465459, -0.38543563119265295, -0.13459066397475658], [0.34574285715656194, -0.5935129760970591, -0.11316527051370957, -0.24329936912122374, -0.14205226891661235, 0.21547696909872627, -0.06918368447974911, 0.21128544170595576, -0.1339674993576743, 0.2505225830989873, 0.16912760742899466, 0.09329479316673472, -0.1950077726216101, -0.07822760696138799, 0.11511358639396142, 0.6811416891272194, 0.11297211107652828, 0.37626260733304556, 0.0016036371092093063, -0.05201248401810529, -0.14577377281963363, 0.4942140469720564, 0.13597999223977322, -0.24988661500739806, 0.09434446441703416, -0.38530734198005434, -0.05171317718169044, 0.6009426391621574, 0.33545829068515126, -0.26048520575062845, -0.18630676488016643, 0.4878300708581835, -0.1664239511057874, 0.3765163166002022, -0.3574715179451158, 0.513261044461945, -0.23791552359897886, -0.49927212709781127, -0.09696935281380233, 0.2790441167852314, 0.3046912626241888, 0.043931074577427565, -0.3844211392451376, -0.23019442057487963, -0.15327698781156165, -0.18870878111532716, 0.27151802770051925, -0.29493814971646376, 0.3561473956917837, -0.11341422776437164, 0.25723998194427167, 0.08061320085300051, 0.0823493499296104, -0.28410927140376857, 0.16010443902100754, -0.16854163010062237, 0.27703704689557695, -0.18075749119507203, 0.10120038587850004, 0.04172915395400643, -0.33453383410210663, 0.3185803604486781, -0.13462701911933284, -0.3710194559456277], [-0.09903974906257494, 0.2854325802215346, -0.044257954505117436, -0.20765714015013795, 0.12256104862611454, -0.560034565077143, 0.11200019055640507, -0.2663300481062498, 0.0032529018866567123, -0.4294785901479867, -0.1109830217724682, -0.5169244662184201, 0.25872893254849144, 0.47190670765210635, -0.06756904863930303, 0.46664537162531766, 0.3669438664543238, 0.43295322884451076, -0.39890700663341055, -0.2386927857779071, 0.33579503244194436, 0.11861276503422385, 0.33881147820731194, 0.017675339120542567, -0.3320011264514306, -0.8523806234556096, -0.04325931587469798, -0.4534365621550795, -0.47624429053804346, 0.1934568533294064, -0.5853325278640215, -0.1527908267782221, -0.044029501907898, -0.0976999872832252, -0.1921594256493416, -0.3118431794570498, 0.7594102162142776, -0.33773035150768477, -0.11457384618871362, 0.6242882597626724, -0.690167183340275, 0.016903566943560704, -0.022845778721501914, -0.22038550219009534, 0.3313575472827605, 0.043204151905764265, -0.16483709494192175, -0.4193998186569603, 0.04682420599274694, 0.2236352882468715, 0.11544655795003332, 0.38452267838400583, 0.06727659059535719, -0.3081015048633946, 0.03578081585107567, -0.3848548522142079, -0.10662013818368073, 0.4988196660647894, -0.21090983852979486, 0.04029457835551043, -0.06481107589988905, -0.2477886960524156, -0.2865264943731376, -0.7095173645879166], [-0.2113460777900009, 0.5820950555499147, 0.30109324654647723, 0.2710062796789645, -0.8317872935524709, 0.29914098985391174, -0.17528231958315396, -0.32828485091498605, -0.015356488943666662, 0.20698773784352276, 0.0036852638470105865, 0.26350224610688305, 0.5144675751948496, 0.49072510126408925, -0.002514981920190038, -0.13583766814920792, 0.4237863134464333, 0.632909401152702, -0.2666996621763605, 0.4610047467805735, 0.18915558709411917, -0.6171801832265292, 0.5645239669110852, 0.10417631940440301, 0.21421241559141158, -0.12705402189900467, -0.5110475392907711, -0.472771152964684, 0.12957983088916902, -0.20381499976665382, 0.027368084447523155, 0.08243749576118782, -0.1291821532132994, -0.009177027826475014, 0.16218154901253035, -0.3371639990361723, 0.1333608146821516, -0.24519092878300222, 0.22959545818817648, 0.041050620697298444, 0.1621719091965492, -0.11697328430689595, 0.2386498649111928, -0.14668944073144133, 0.27527640993986474, 0.09201089897420422, -0.23444058314638672, 0.28569530626562745, -0.6632596201926101, -0.2899406147221183, 0.057545712553918306, -0.01792263940641653, 0.33167407240519386, 0.4151912800823725, -0.16451644888904557, 0.14300762210445814, 0.11686480048587732, -0.3864377229975937, 0.37615257877912217, 0.3075678447266063, 0.19031069881169616, -0.03666051644177222, 0.17109824700911988, -0.6416546221298556], [-0.5573975528181242, 0.33668385715048516, -0.39255620313886325, -0.6731245875067101, -0.1629484360609493, -0.3662582104750505, 0.2755363939426792, -0.3411507271182908, -0.35949559014266014, 0.3972089301408091, -0.4991380737940983, 0.28359760857306543, 0.7838909436534975, -0.5236075059591657, -0.5120634117301793, -0.38901185013912637, -0.23696556288916185, 0.04973166710140799, -0.3673633902913154, -0.4332318628859442, 0.026006370248590153, 0.3555496989489367, -0.08101292416145305, 0.5338867569926466, 0.5365266692763835, -0.25239041712981963, 0.0946370251403207, 0.004449796229126691, 0.286029571143872, 0.21869669237251857, -0.26776324762528886, 0.21940033133377038, 0.13221141635002798, -0.5574498481288935, 0.02032677139978394, 0.026589957932785634, 0.0967148111192579, 0.1568969844823808, -0.15246544005155088, -0.12710776383510006, 0.19566531112182417, 0.4451094735444125, -0.07894548596658808, 0.08087489012881936, 0.3587491529836255, 0.1886199640345999, -0.09321193404674276, -0.019707072806371424, 0.21933316971870453, -0.08803329659900345, -0.11710038355978201, -0.3473021892865835, -0.05995624655965173, -0.22210049936747625, -0.12439292215875541, -0.1398392440310696, -0.49997999785455266, -0.08712311255684503, 0.21049395910605448, 0.24953328211019699, -0.06357795819030934, -0.6649786357422358, 0.028696862446211252, 0.11170104502114934], [-0.07597426062298891, 0.1072454659578334, 0.3441239968917917, -0.3625490409161478, -0.10919974330918797, 0.080589260267235, 0.4072990509232998, -0.2304933399557778, 0.3467334652020244, -0.2438241257848143, 1.1333514298064846, -0.09702186936025409, -0.06347580687043781, -0.5289316288305764, 0.703138870545534, -0.06550669085133097, -0.06425982335491688, -0.07002963958078166, -0.42726469535161243, -0.3868981208747116, 0.15788624480633892, -0.37771893334751244, 0.36748299096709863, -0.03366139922304223, -0.09667990239741664, -0.5191185428096494, 0.365386335470288, 0.02042799551562752, -0.8290687807594678, 0.7997022069011969, -0.12836455133950125, -0.06048033229144007, 0.25766801184531835, 0.7008385450430866, 0.5102916828183104, 0.22603826492235016, -0.078463662194383, -0.03655986861729521, 0.1683066107074218, -0.5051361032261786, 0.12120522676458374, 0.24938870663677326, 0.11139636289051819, 0.9728104248101177, 0.12420470337773082, -0.22679777272879856, 0.20768914026563948, -0.23643793388819748, 0.3980484048426119, -0.20045959974150807, 1.0392857346058613, 0.39146399701738605, 0.3475765345215522, -0.33035934628904645, -0.2926682508219124, 0.05908384334369984, -0.5181389436174552, 0.12181396911641894, -0.14371644356732782, 0.01816219372538251, 0.07926424369041542, 0.29064611824491565, 0.12458191400165171, -0.42245677118825015], [0.2036575987803643, 0.0797254400745339, 0.1045530698141527, -0.43813975083446294, -0.028426209634540487, 0.22814591489610506, 0.48881595143214557, -0.004558787337236269, 0.43041499744593065, 0.07727525999733173, -0.2569126531090597, 0.07143585578082834, -0.5173897853627113, -0.010493115334242733, 0.2787435949676293, 0.4147984515588404, 0.10195222455779629, -0.07143475168325111, 0.24593671045107332, -0.21236746255991878, -0.19695415602280883, -0.08525330142652643, 0.33205731329221494, 0.5072387686383, 0.1262198063720885, -0.06218036534501128, 0.2580101843595978, 0.23918781994685365, 0.21618440598675623, 0.251154502063882, -0.09640318894226334, 0.38815715999911343, 0.1682591468457677, 0.14745176631749904, -0.08341040342410173, 0.2596466532564251, 0.06845362441316259, 0.36190859791087354, 0.5094581340440473, -0.19658100768487444, 0.21562495651068617, 0.15789865633776026, 0.49492875143141685, 0.2428895413793751, -0.41106521385826195, 0.46059190424990176, -0.05308320719073515, -0.23305056683755507, 0.014461354103456047, 0.3936254698175928, 0.5276135651074393, -0.11909388950252044, -0.19011761915823347, -0.11376658398276683, -0.22195440249120488, -0.12388983153596421, 0.10965830779608338, 0.07418694368480784, 0.44105464707158504, -0.11635200265659908, 0.16934007068822207, -0.36448768532244374, -0.25812101103457324, -0.02124201643250231], [-0.15607483255410917, -0.18496726708142266, -0.2871144352436196, -0.13900960905479873, -0.29569758218858894, 0.21762976708255452, -0.1494554045180195, -0.34264122225764737, 0.06387412168644736, 0.2210494883814157, -0.11226669140987416, 0.6490617660918684, -0.19966832435205964, -0.6029589121591962, -0.10716031996071444, -0.52806239613582, 0.1298969351840245, 0.337266778277069, 0.364056160165926, 0.11499468696625935, 0.36535446697853374, 0.23074841139817462, 0.3044392038733195, -0.16239020141456387, 0.321611310625254, 0.21116711599287463, 0.0464064427550209, 0.7627269806144223, -0.21986346520141767, -0.8032597388423578, -0.313542452646978, -0.34372405783523635, 0.2921937935840675, 0.13534889901929906, 0.19400768930262058, 0.2654023762182722, -0.13563113204218147, -0.08101663574890992, 0.5972817800202443, -0.029566580544374065, -0.05136215875753034, 0.06332263329388334, -0.07593603419187767, -0.18641530997434075, 0.18209274935962902, 0.2771770477154989, -0.5810834027281061, -0.06577868356705872, -0.22661205972437792, -0.17913421760343154, -0.03797486008620394, -0.19097233717126874, -0.03836013652583822, -0.06788580943554184, -0.26025700268666613, -0.14365227968744526, -0.5053048158491001, -0.03648817282079094, -0.37168554858046443, -0.2998105303209052, -0.030454762180388024, -0.3966492435949331, -0.3377338639573437, -1.1492213241930835], [-0.08953037845972955, -0.7131125441893434, -0.5507486218894341, 0.1419940052404065, 0.3858530218469982, 0.2352090010381825, -0.11109344154281696, -0.06104802748554931, -0.27230326997036874, -0.10629102551133594, -0.10715767667651416, -0.8675682633424054, -0.5682337649628636, -0.23258220867992233, 0.3859289382114448, 0.033310014123962874, 0.3349066323960892, 0.34968203766200917, 0.3268849111141536, 0.5436922733403898, -0.5135523168060578, -0.5826070482462057, -0.3466215371973851, -0.01792842057375614, -0.07687905560726623, 1.1071106952592003, 0.21395441559616413, 0.05092297240045813, 0.1832645676816029, -0.5331623231300234, -0.014054619178223168, 0.05288820856131026, -0.4851330456567841, -0.333813808169503, -0.20436430219918003, -0.13518919910590962, -0.3896864120720292, 0.2954489554572422, -0.08278997438697278, -0.36437096392284757, 0.507955688740957, -0.005741963311726474, -0.10496820078702979, -0.13543791885937262, -0.01227654273343281, -0.08196229977383725, -0.4072579781921635, 0.5488125792819045, -0.47032799903258754, 0.13278071067483307, -0.1776823854362115, 0.12730419220974393, -0.03454385886729646, 0.30502939855660566, 0.3535358700344493, 0.07237391322898602, 0.2838751768412523, -0.43335420712012757, 0.05726143554981494, -0.0891022534687983, 0.19705390805063547, 0.8071142553090592, 0.0122244455859011, 0.4137166744279901], [0.11874724528354656, 0.1570478230070432, -0.8551467899321924, -0.24374594622688273, 0.1915799250111547, 0.09795248617907874, -0.5243531105750354, -0.1466078330970015, 0.38727416823567623, -0.4852205401686754, -0.13659520152003699, -0.008611351547989358, -0.25923632020265247, 0.44468908638317695, 0.24328012978931382, -0.6624938439664675, -0.026228365765802338, 0.22540530038031922, -0.05249308897759521, 0.1972112554681151, -0.056438245716269105, 0.02461276541549993, -0.35435051341986407, 0.19065524989954444, 0.1081891346494216, 0.35654769066805714, -0.18228675302634645, 0.2720137623556255, -0.1930221155832201, -0.2673016657388045, 0.3305063184478349, 0.14798084102708228, 0.20207915480703562, 0.04687610648329799, -0.34024923636440935, 0.012791122685514423, 0.12068488753358568, 0.041735508190903235, -0.297792861486785, -0.5694272268485632, 0.06721996692690324, 0.15322404637456685, 0.07906572203621987, 0.05929932453988274, -0.35090416690131687, -0.18516430060610808, -0.3567232349551233, 0.28102410375543363, 0.2138423312637225, 0.030529579784344025, -0.19793876274165553, -0.05187282801237001, 0.14239211823254586, -0.38639474432899384, 0.12009095050994577, -0.06139383215129166, -0.09739556368556851, 0.024676238066078913, -0.14089732884794073, -0.2781856915902791, -0.28568615219464916, 0.25277527614856704, -0.03236143587741984, 0.0047893327185541896], [-0.03430733616945179, -0.1070843702290996, -0.19871890210454848, -0.4491134701846274, -0.7594545121406074, -0.49300776490355186, -0.2159899378317248, -0.018322504040393026, 0.46716209669987574, -0.28125675277099926, 0.14923816717970137, -0.042265552042580055, 0.24953308332135235, 0.49367590046324067, 0.07746831790215403, 0.3649256103044798, -0.177726255990977, 0.2253990787274512, 0.06758604058635272, -0.011535800257918753, 0.2599500578471561, -0.376132340336547, 0.3364847449446083, 0.003064178925236041, 0.31168929147127716, -0.7642679422394437, -0.19661360257132035, 0.014541749472959468, 0.1702670487940057, 0.33363532156624354, -0.6368403211430822, -0.374623002649942, -0.06364643881939135, 0.13154908477332927, -0.2692316554144643, 0.34987351399640026, 0.41716194858299915, 0.32493783129639514, -0.10240376000378498, -0.42872336276417916, 0.114365092583827, -0.2589322952935469, 0.5803337840252872, -0.7728474263303996, 0.16783865142329246, 0.05058394470721724, 0.001076686920623491, 0.05438071829257655, -0.1689079601266074, -0.5071072494761278, -0.10230730916661662, 0.27149822271232965, 0.012521612619856834, 0.506092941173546, -0.028688862322812952, 0.2722247011426881, -0.06279498034740778, 0.04053013000550957, 0.0642051120291539, -0.17700411463895627, -0.41779273558370456, -0.15433510225077043, 0.07653108895178394, -0.15689392197499583], [-0.3513244260874809, -0.09459038868093013, -0.22170003374006994, 0.06876630050482305, 0.11919563980782623, 0.1562352487025175, 0.2929465393244572, 0.08277400333526942, -0.3172775272637134, 0.010597174606202032, 0.0350796836071979, 0.2783998496083466, -0.1671931485998129, 0.18890910706708516, 0.1940993830292642, 0.6549892353759288, -0.11359929215904717, 0.4471546078755581, 0.1444106832566289, 0.5049340350186244, -0.2131915747422367, -0.010138301044561744, 0.016867145245338173, 0.38641183718004674, -0.4150837906657286, -0.05592158759536675, 0.0026760942855071994, 0.3647081534052057, 0.4289237470050303, -0.14550926306068257, -0.28405073173670836, -0.22713964877414053, -0.26278708845596993, -0.677846242167001, 0.2057159237465567, 0.6648933005643093, 0.05117528887768976, 0.26901931140979024, -0.16502296875787276, -0.24158959472894284, -0.306661860486837, 0.47332701436581637, -0.07155536736329292, -0.14828639881152425, 0.06777781838632006, -0.7629747872426664, 0.23543725551579334, 0.5344454470291983, -0.12571673147882215, 0.3929039625266497, 0.13983106940833243, 0.07608923334322679, 0.3339188956410986, 0.1710426379014017, -0.2172586635854394, -0.03903638936946351, 0.807022392223502, -0.0716337153848405, 0.1437236581080703, -0.25804966914149846, -0.416885250502971, -0.4662470999213529, 0.22163543408585865, -0.28270916792322137], [0.07910151379081864, 0.08469028691412972, -0.006225275996779374, -0.2445612678440504, -0.14211045451045382, 0.17548273954351432, -0.0883611840371739, -0.054233481775942026, 0.3085284010788203, 0.6375358711772293, 0.15654458935037655, -0.385602443155267, 0.24632046459132226, -0.08394713595609682, -0.182906058673042, 0.5319916234839367, 0.1555629478256473, -0.1413695238401704, -0.22185121091761842, 0.2651746904382097, -0.11997741903505323, -0.02312832344401845, -0.22383420972208998, -0.15102159208560553, 0.6544796869126653, -0.06086549704841232, -0.3693197811609113, -0.019976025803428766, -0.5137415894366418, 0.45365167840987747, -0.296415394504725, 0.14407821128060233, -0.3867843399334825, 0.36032357368089785, 0.367187791114121, 0.4922252279178178, 0.15163234421873995, -0.19659648585709466, -0.0768438197039628, -0.08830017618870308, 0.3326759711243383, -0.6373384038954789, 0.5309829607338913, 0.2656881297521068, 0.09648937562592164, 0.43451457928058623, 0.20636570804014986, 0.3774619822216545, -0.273231974201664, 0.07331429847854225, 0.2166554422626873, 0.1749322286551087, 0.09757686891261762, -0.6014830846372708, -0.49787861781002146, 0.297455853038138, 0.14662738100297643, -0.057365704104339575, -0.01639933369453218, -0.1687938683860716, -0.35676020287296817, 0.5484149167228024, -0.05742996744175447, -0.10425612926353493], [-0.09071607647399994, -0.30188437165044285, 0.273126043347331, 0.2090126218329811, 0.10078931694614507, -0.09428124858794847, -0.25117979287839326, 0.5314115756199199, -0.6390713458225462, -0.03296835676443837, -0.2574015084173066, 0.45719489196876467, 0.2808300291527786, -0.23655103991095858, 0.05272980673245423, 0.5778077740457807, -0.1278554013680384, -0.19073963164722027, -0.3085389439490355, -0.46983487786112144, -0.011869925499842443, -0.08365145996705799, -0.021366519513008237, 0.45780872505474285, -0.5386951937171892, -0.4425229887034372, 0.3466048669778193, -0.3958885425868968, 0.13681673321189294, 0.20796795135671942, -0.08869254456062413, -0.2364079390442836, -0.3384138468493397, 0.4484628063439268, 0.13404249908961258, 0.32415189845472053, 0.002794481355951896, 0.07581944759167236, -0.04993838504071867, -0.1448784070219796, 0.3942919848667575, -0.1741486304276949, -0.22019054630382442, 0.003918898055376019, -0.22330812109392337, -0.35921190982192885, 0.24510465062629985, -0.046351920494391685, -0.09353068715229712, 0.07807141157767446, 0.4533881550956898, -0.33368353083716484, 0.551606767800438, 0.24962292008446005, -0.057550455433175524, -0.6525806461909096, 0.17012580938559663, 0.2210243159180696, 0.3227653180981705, -0.12282896929525948, -0.14195470185769296, 0.37926519573637046, -0.10999488268934755, -0.12458612809294857], [0.17175567793022906, 0.30644809948286367, 0.2745915062639966, -0.28303991278955326, -0.45798272043015203, 0.6749864936853287, 0.032049440879468066, -0.0802053315483579, -0.11524628858772111, 0.29627545989494314, 0.032261399107629506, 0.23897534416390806, 0.3404904734154301, 0.42690091566420324, 0.6970188163251697, -0.2545628675326162, -0.2941542206982744, 0.046412353479677586, 0.21785318066126239, -0.19531184905316198, 0.549271501026679, 0.31287612876375276, 0.005497250274764303, 0.4404078785218579, 0.48465791552574755, -0.41901889896162187, 0.524245009519366, 0.35308998131016356, -0.00466202577033403, 0.20297808887829571, -0.7018215474186896, -0.04064377094904181, 0.2699629918304789, -0.024712050406657058, 0.21999495004549938, -0.38398354766415993, -0.7617324699329079, -0.2780046918789673, -0.11352710296681516, -0.3967430761797315, -0.17011923110286423, 0.5179987556313771, 0.059041617202912657, -0.2370033275788995, 0.3558813725386294, -0.23409353475616845, -0.17840860934861014, 0.3571022278765852, -0.14267959166263267, -0.3080494718925576, 0.03420574636294559, -0.0441800557581834, 0.6061601629647981, 0.4066177936150423, -0.017667799200553103, -0.3339568329272044, -0.4298627214696442, -0.599400543017839, -0.39126195210603143, 0.007242987658357965, 0.31248670137036966, 0.18768774610866693, -0.09574654241168284, -0.19591914045836714], [0.203715521667982, -0.08031615093215723, -0.5130363214562607, 0.872677396052779, -0.23901997203783018, -0.32959520233076983, -0.48412006094002674, 0.3473936028703924, -0.06675204233132508, -0.1125646359764314, -0.20235861732291718, 0.06979856723144971, -0.16619366791076637, 0.29712418098338195, 0.24469750125702872, -0.6354285355526164, 0.27539721057625305, -0.09881051366001936, -0.21278059715071504, -0.025706554337345436, 0.030498110396027654, 0.08622200412550061, 0.1361742073482163, 0.47727342524307387, 0.39189045961910435, -0.04266980419256722, 0.054608504442104404, -0.4874308609957411, 0.03215011325447006, -0.13119793425699236, 0.522292989820758, 0.1302295748020027, 0.0018099484569277415, 0.1635142318297507, -0.43069454045184535, -0.21509378324786496, 0.2659046053736926, 0.09896468760881716, 0.1347671035212487, 0.23809513828238552, -0.3550245657714994, 0.1332420970044819, -0.1813845173311673, -0.12305589273696445, -0.00017003751943805005, 0.030646628287363132, 0.2344485889560046, 0.54491303394412, -0.19648915972928682, 0.3492489150671471, 1.0709310433399961, 0.012393158362317446, 0.20326417643599018, 0.28055690730074495, 0.3403433720687444, 0.3907049836368535, 0.08275051995035275, 0.09917372857583483, 0.1652670415431185, -0.331917402957855, 0.45958541080324905, -0.48352174031165324, -0.3007671335095067, -0.08957771050166573], [0.3321205095969358, 0.18430448042424372, -0.33762923252897775, 0.29258771693722135, 0.4329090386395504, 0.21767182904300628, -0.6273438843465727, 0.638593383116747, 0.33502837044381634, 0.21567006161617305, -0.12528252520808233, 0.3323640494410865, -0.34723102391053023, -0.0045651738783555286, 0.2885065222253801, -0.6237194324933247, -0.3031582005098031, 0.7490093985041449, -0.42661768461253086, -0.20660373468160534, 0.06541377121045978, 0.18611742268272832, 0.40136322207669745, -0.3787904015234472, 0.11431345955549628, -0.12739719134123947, 0.7422932262156247, 0.3714023297787672, -0.672957570794264, -0.0273235288788264, 0.5054109402483994, 0.18338292543906717, -0.23192223306258627, -0.06079526623744221, -0.1734318506392126, -0.4273598075735272, -0.5953446133351149, -0.44668803160204557, -0.3193229309183961, -0.6478295038288077, -0.1867527415368427, -0.430756523737353, -0.2001580181841852, -0.0019404279507609984, -0.20402468685998776, -0.5394280305703494, -0.8092942275201859, -0.11966347117819649, 0.011142573811739637, 0.2504931073766185, -0.2193259129774595, -0.08698121783345723, -0.39427335147619935, 0.2062394355776466, 0.2985877666492362, -0.056016253593802634, 0.03608308075797387, -0.38635584460428474, -0.05928380736665365, -0.12529470832369258, 0.1692259581158259, 0.002365803611679424, -0.6950896740483992, -0.43707438359964096], [0.2802920516703005, -0.31683443797816113, -0.07575618949874659, 0.2353925153870641, -0.01304747682186716, -0.06467186098994339, 0.01766194515751283, -0.1970091380760853, 0.30340778758839, -0.21761954560052266, 0.40321183611432504, 0.5435177399958259, 0.24709272955618833, 0.13583167744372984, 0.24905947689531258, -0.48070529681998825, 0.07774887056868926, -0.057966308091280505, 0.19787040033611628, 0.2340469178999378, 0.4611458626576246, 0.1624750164872227, 0.28429423968622813, 0.08101324930103355, 0.05494043257148653, -0.40969275484859774, -0.2723541053646172, -0.33528118065703344, 0.7922845021861714, -0.1084169563669466, -0.3540086588026261, 0.35390119056397246, -0.26064153928334677, -0.16135552120398253, 0.25215812102660895, -0.6938446811220366, 0.3257826120785225, -0.1659795237330081, 0.17246768131557919, -0.5587613654205313, 0.5466042233811571, 0.13576787245496938, -0.1256464973370227, 0.013132107692180461, -0.07230594298855177, 0.2896565311425147, -0.45934971363255267, -0.6835133969593233, -0.7171730332320484, 0.10704724577936026, -0.10703615163484372, 0.28442939875397216, 0.19374437298477587, -0.29748701461224675, 0.27115661367478106, 0.051088317507540844, 0.523181326047517, 0.07315521308363465, -0.2610011217890878, -0.29848388057060077, 0.3045174102036036, 0.17530817795419498, -0.2108570009200502, 0.5887904836762256], [-0.04656855474637664, 0.499837673260571, 0.14812973720192815, -0.06871025114988925, -0.3539144629639386, 0.25906048171747487, -0.1891025691764553, -0.11257275792797526, -0.05157233808935866, 0.006068879552695416, 0.2797234969373959, -0.8868208706904976, 0.07928523073916618, 0.4770095021902459, -0.08845169889133486, 0.5920121157060764, -0.1237733511711458, -0.06328017754869168, 0.058105345430046196, 0.42181009417035953, 0.45146028235737407, 0.2523019173495957, -0.2547255781048263, -0.2035215732380804, -0.10077746992594955, 0.19326970836283378, 0.19637267397521355, 0.09288224753427009, -0.47478449021559394, 0.1547027483674002, 0.4715208497371337, -0.4251557185658131, 0.04615022472496046, 0.04638908826402441, -0.36324823058798633, 0.690574108563435, 0.2994495044386572, 0.39184152331004257, 0.13851531420291344, -0.08780669061172332, -0.4982778808481772, -0.04895805994961767, -0.6982784156094496, 0.20537328480983308, 0.4440023153723214, -0.5126830658771843, -0.22022441422893255, -0.0098402364897678, -0.6725997398440215, 0.21809676739246767, 0.056287113137049975, -0.6473892008897164, 0.07955822105719794, 0.38510553323233504, -0.14518079388331073, 0.5187843956716977, -0.3879148664414012, -0.16522339422152407, 0.5092045467513053, -0.190997575530418, 0.294530259080831, -0.02154605091018588, -0.2901075284176446, -0.16056512956184446], [0.48236189671316515, -0.10041269721745087, 0.2095629040383962, -0.17534639516541387, 0.1024549748230675, -0.035250098352319945, 0.09030865118984481, -0.12553720822680184, 0.34692328400477784, -0.3102855876707587, 0.06286467271186831, -0.5235614541276689, -0.26598586256537815, 0.17063042158422817, 0.7738042537583595, -0.06362425219404026, -0.4715692651326944, -0.014609499380584234, -0.3049761356840973, 0.19316304355852543, -0.06048238088836052, 0.2661513317193298, -0.06343751519111926, 0.034617888363946296, -0.30213047944959215, 0.15785188534684225, 0.024605286679399267, 0.32501777808930604, -0.10954433326905422, 0.02964122077313845, 0.006074008231459531, -0.2774458370087564, -0.544347776882003, 0.033921469089333946, -0.10090642634965269, 0.06486795968030325, 0.11617007862050849, -0.02858704199353146, 0.4296213160068336, -0.10865954775135163, -0.2267715157520298, 0.1923295937738074, 0.1825044770841728, -0.728474151470132, 0.26276901326232355, -0.21762586949446458, 0.21901754673261886, -0.2744584938227129, 0.4747231595475741, 0.29889760073894717, -0.06690756825241771, 0.5023996393796386, -0.12874697146462274, 0.333804182911099, 0.3102462039874727, -0.08025728532944502, 0.6348358579933217, -0.08973049650695773, -0.67331532348642, -0.5810200859760731, -0.4930901832877259, -0.24366743903383103, 0.8186242883363324, -0.5106971302372855], [0.1434582147778701, -0.14851590890639738, 0.6581032215215218, -0.08731766555064197, -0.593194017583136, 0.27132701475078164, -0.03435930341275807, 0.07773510616603695, -0.5709347558244926, 0.06166170956879711, -0.29565437351219126, 0.3592289875962856, 0.36002880668864573, -0.8145264401178686, 0.27373321678435164, 0.5650337389724404, 0.08998772832277714, -0.27690426724389955, 0.04907896457775981, -0.22576879866521807, 0.19328258140823165, 0.362694750359086, 0.3366152295952179, -0.23731172194117398, 0.003042601970655524, -0.24656525056225265, 0.07531471179013988, -0.271581075794759, -0.3436198909464922, 0.051667692062137345, 0.160600664986558, 0.2029317836028407, 0.20514015667492744, -0.08538150931736038, -0.32356952135880906, 0.058121071751469695, 0.12267884217608287, -0.36440291529746766, -0.4473312639058276, -0.16511090278639426, 0.18528030306022839, -0.3849834486086295, -0.11798570149604427, -0.6954377722903625, -0.4533253073659562, -0.4396018070598305, -0.06033987480172114, -0.26475521843293276, -0.13324547331264203, -0.024538602433862706, -0.5006082456533806, 0.4128426395095568, -0.39212943900620073, -0.15647422472372316, 0.3886228923234302, -0.5686165109767121, 0.028363368600207526, 0.2547889434119973, -0.1325451636831487, 0.009075271762341396, -0.14994981522164996, -0.15588656312345056, -0.544474969275692, -0.16367337886671685], [-0.49480494180430185, 0.5776942482434101, 0.4161245931694275, 0.38492151632114746, 0.08651938777066631, 0.14108043323632283, 0.0269454127042399, 0.0026298180026546754, -0.3643993635781129, 0.5217426615698125, -0.45482050280660385, 0.4557229578881235, -0.18663642966578495, 0.04089646149179916, 0.0752778806551915, -0.130068954168677, 0.022330413818999275, 0.06095197574615694, -0.4069097302644011, -0.01894523847250186, -0.18707507306349072, 0.28724969494275493, -0.14992708382982078, 0.49781279080565355, 0.23660560524969507, 0.08750945574375686, -0.005979571249400294, 0.2738969545263769, -0.019540963535413503, -0.09603506002449619, 0.1973023849829947, 0.176207446880686, -0.1948976627089277, 0.35290360995722597, -0.09435299194309538, 0.3727600636476376, 0.5810440581988932, -0.37122566442870225, 0.11086294189936928, -0.3055048522837623, -0.16635110030653844, 0.2710849483341206, 0.011969057780855899, 0.38493935358145265, 0.07524688497415331, 0.41946235306785734, -0.4093514268306154, -0.06397054913962465, 0.2689276870871629, 0.3923801879786717, -0.19169426333856868, -0.18771943097027566, -0.1428353277453072, 0.3299004056400335, -0.21388580614084649, -0.04873959668980016, 0.0011355467809300748, 0.04339171966258373, 0.6188409591504106, -0.1391055098767845, -0.1422145798641851, 0.5130454535011671, 0.008013903964418896, 0.031827753723659334], [0.2549752415683321, 0.4979094178732703, 0.12755661788285136, 0.02059485922231889, 0.1434342257275179, -0.10139952014876341, 0.2633536417684091, 0.4234511415228555, 0.2723641668372486, -0.478948123807959, -0.635963750420368, 0.21174057018754075, 0.08851632848459212, 0.047108633777788504, 0.34728603010145664, -0.5616337498852062, 0.41183296475006337, 0.0719955852493517, 0.16415141189811233, 0.09634489978231155, 0.10262597795381778, -0.4426995767135436, 0.3585661741995074, 0.7756827751607602, 0.5646179019249882, -0.011315404370435688, 0.08501730022171917, 0.2590372793371714, 0.9445426781198886, 0.060680969942888234, 0.4487726407426011, 0.2780894029215086, 0.09523735987976482, -0.11641603704746058, 0.7156085622407659, 0.05288273042010975, -0.5334672139981685, -0.12441314732312138, 0.3934312281195715, 0.11191045527800747, 0.11687126794268744, 0.41521657689380853, 0.056504064684043266, 0.16683305360042586, -0.1308560347035321, 0.20299418448114567, -0.05770929228219091, -0.1526311098245003, 0.5188704116051529, -0.06734399932723797, -0.31939546987436757, -0.018897427882523545, 0.57900519583092, 0.36447894000809095, 0.4895739273694071, 0.5251308722696021, 0.16268855195246648, -0.0933273961703685, 0.5727193672874671, 0.13452040265370446, -0.1345916283644224, -0.66606671596402, 0.02314557911983832, -0.14574574078071115], [0.14912177493189857, -0.8992984214093043, 0.3026373318551337, 0.501158116338143, 0.553985110184286, -0.03624645695017172, -0.3564886025323582, -0.09398986771547081, 0.32094168345779045, -0.23561733774339225, 0.2854852370737225, 0.4546014063000905, -0.2647887420422009, -0.33204048726516583, -0.03041514459251689, -0.3237634270782586, -0.051798507139957865, -0.1955284873914067, -0.07260528985475556, 0.04986532618615978, 0.2545788554680178, 0.4273289864996575, -0.29553956469429143, -0.7370884452850305, 0.24256655497376123, -0.3685717584105314, 0.2015146006939239, 0.7152540719409926, -0.3541927646158182, -0.47287195827111456, 0.4686601687187146, 0.028944641373711028, -0.1688498779418721, 0.10802251015843613, 0.07433830379126256, -0.21696131862968296, -0.43230972197432865, 0.1269456672679988, 0.15491628698119483, -0.34737386226926154, 0.13436097368169142, -0.09668256090626061, 0.27911670038711994, -0.28405644348527676, -0.4442287960474922, 0.27440347674277815, 0.44325866193346, -0.2454948056997884, -0.14556715530006697, 0.006635910993809932, -0.7369597286276077, 0.5831544809864395, 0.08270717686213135, 0.1287659317211907, -0.02611154195063577, -0.18409767203343305, -0.19447991869856948, 0.05282867881482589, -0.2012273699529342, 0.718813231710353, -0.2334241211233484, 0.028651672819079904, 0.6828357248014468, 0.35288454923399576], [-0.48021512682432804, 0.024906325143464535, 0.21085729497196395, -0.31333350651478326, 0.6192215246670548, -0.1394201647319094, -0.5576827746977363, 0.1112995128143923, 0.41750264144967514, 0.03197661843403594, -0.3789661056625435, -0.50986270248246, -0.20959137045380083, 0.10938302623375316, 0.523693541828466, -0.12976609293309105, -0.3324236675259115, 0.06923228913402497, 0.1665373399313665, -0.5291203788494993, -0.25079488686740486, 0.3626113718928948, -0.23449307058099475, -0.10433532827154142, 0.10132847711924482, 0.23780993538091486, 0.19774704892970954, 0.47918230568375414, 0.22270640860513133, 0.31219622565082367, -0.4196098152571202, -0.3779518897368522, 0.22543750455189462, -0.20444722832422157, -0.4663256538337368, -0.1557526684529052, -0.6010099542253876, -0.22444198909177726, -0.38275609686357176, 0.6174268935345841, 0.8053053313100653, -0.40603929233572095, -0.2215172954217165, 0.7239950950278923, 0.05069546455012484, 0.09138516881812042, -0.6610669743005477, 0.10890191227696107, -0.03762603665034192, -0.27575834094923196, -0.554657886764587, 0.08367110218910805, 0.23449703021297288, 0.18286029909193402, 0.14034397910024352, -0.6495970032785893, -0.15597767333472368, -0.007885108573309966, 0.6059265639379567, -0.05482085693999498, -0.20091711874926718, -0.38616469102932055, 0.6660191126371595, 0.08461085984123813]], [[0.33612704184009595, -0.11582695856711868, -0.2372416666548757, 0.48429726242002213, -0.053398180215682434, -0.4981648183898411, -0.8542896199146403, 0.5506465695164624, -0.15684503561760643, -0.35764857731951166, 0.19938584405790824, -0.2383416973438053, 0.5054541831555731, -0.041457572614947244, 0.11921844987760268, -0.33496199133989957, 0.07729194227549475, 0.36070725378977025, -0.04928686634172819, -0.2731823788660343, -0.26509071461530764, -0.29779500444848317, -0.831769800364671, -0.18757830630347747, -0.03779367905637999, -0.42877433824862826, -0.11522307053954167, -0.0034703353125256453, -0.1017057831769909, -0.5926125302954995, -0.10874274820097642, -0.06735437370785469], [-0.19225765517799343, -0.5562676073951676, -0.08428630242206059, -0.1343617420518166, 0.36686651857221114, -0.16904485472883302, -0.06362761270117145, -0.11171284798141928, -0.38517336408181735, -0.5894644126291879, -0.06484202703285004, -0.5071186214652325, 0.35081034563778646, -0.13791512510908469, -0.2262001448155033, -0.09338811919087049, -0.17122537352044023, 0.5070797648242201, 0.22590820923260316, 0.30830098287795565, 0.1540002599877964, -0.24567106450030296, 0.0016459815675390085, 0.19439013891359921, -0.5481353157898442, 0.3540219839684651, 0.48104694862326763, -0.3912406654846987, 0.1583187089333261, 0.34171393201528794, 0.4356326369311759, 0.3242208886263664], [0.7529203094446437, -0.437618196189755, -0.14021946055960868, 0.08024002768689699, 0.021658846318924636, 0.44909098495218025, -0.35500777665254674, 0.32499626293544076, -0.180521145190592, 0.1735702973144366, 0.06002462533927449, -0.02684484698083431, 0.21393305559168974, 0.08235202330934839, -0.17377608478848425, -0.10256451599463529, 0.6586391527616318, 0.07171759012138944, 0.5920934751565293, -0.013797564293832386, 0.45194281027156585, -0.0907245920984423, 0.0986369325649708, 0.05875597449841393, -0.32695962054907685, 0.08324749957460352, 0.329298396414647, -0.3467621763201989, 0.7165019114959915, -0.08909015669577079, -0.04062165205007781, -0.35078426703236687], [0.20840900466150405, -0.10269109539988243, -0.5399744697762735, 0.07733624446230712, -0.41000121823839003, -0.26186556040418607, -0.2866665250814759, -0.23904747032605292, -0.20644450390336896, -0.19767831616356266, -0.4318406024841612, -0.23635928365478653, 0.27377935881792786, -0.3272904548895392, 0.07056350844066897, 0.07188891704912524, -0.39897149482492195, -0.11331598215441047, -0.46155354027540146, -0.19072416668269934, -0.5308970640248286, -0.08306328703534857, -0.013954666486794573, 0.08289967077351727, -0.11154052941286885, -0.06997618172029006, 0.2951628848832428, -0.4392721058690343, 0.010524527038430214, -0.12421770467602256, -0.29430044288636426, 0.28042070501843425], [-0.4719005250816681, -0.12720705488391032, 0.18259385343965592, -0.03564446126171944, 0.10717369447493307, -0.339788131009408, -0.026008152940850755, 0.24775757898639864, 0.10135730534084077, -0.12335998311186508, 0.19909613296553777, -0.2607984669327306, 0.09728468444503084, 0.003128538805250354, 0.23296696788733276, -0.18419396962816448, -0.12194313094406328, -0.3505974299580484, 0.08752607355497978, 0.15511948355987135, -0.07679496033561677, 0.30862310644885727, 0.7091465838114227, 0.33467738334281955, 0.05670571387848497, -0.3012566790173839, -0.29725237651602127, -0.15102140182910098, -1.000915997904763, -0.7175269302487767, 0.5242445434741972, 0.2900697780342046], [0.402027612645669, -0.27749473430871935, 0.20754696675995296, -0.03621588418450019, 0.35402273023568825, 0.0054763820990168174, -0.09017730991146021, -0.14955472021991265, -0.027677809750685723, 0.03823823042951941, -0.07849874649346882, -0.14693632758825448, 0.5254696274963248, -0.03195229092076743, 0.11871848503164513, 0.4353043817250648, 0.14530168855843292, -0.11252611574994496, -0.034667158602548494, 0.017798081158065804, -0.5397577584667743, 0.004694333206873632, -0.0008444100719178504, 0.20259653304617323, -0.06390209801877729, 0.08124407060766663, 0.1296257470055167, -0.15507088470527286, -0.6370830589684925, -0.07183640484743674, -0.11932252447699658, -0.1365466621466617], [-0.26337870577537764, 0.22099740621814365, 0.43646324397728614, -0.07214608073874845, -0.6750557789052131, -0.29868590369467074, 0.1474933759874241, -0.3484683089225977, -0.33772511232724534, -0.018539425961535908, -0.44056216118669483, -0.15842516679402244, -0.18713347345712603, -0.010098177621175694, 0.2898269424539559, 0.04824653779662099, -0.03743235043587454, 0.7626748440961676, 0.0448718804540617, -0.3271546671201972, -0.08387993461791954, 0.02675226693551773, -0.18203440263680107, 0.1660886102519638, 0.5263703165358488, -0.25106727479431845, 0.13080989468440665, -0.2218547962199514, 0.29748547208226866, 0.7141643220928248, -0.5375668616662824, 0.25610245661396447], [0.07197566393099941, -0.27627158778467525, -0.4063820266443538, -0.15153852801232073, -0.21706723222757907, 0.11009613946939045, 0.1953988991585399, 0.289473118581353, 0.15943131072626315, -0.44218055716659704, 0.45188678135846666, 0.04867866148939153, -0.4525862709072812, 0.10585551648583902, 0.45487112110024536, 0.06294928987930025, -0.27705026570370445, -0.2206107370559408, -0.15867260582321738, -0.6775973111947476, -0.16764352638638602, -0.0023468193084061006, -0.36497735467712555, -0.005924270673864806, -0.2592840841703667, 0.29508390502728665, -0.48745920266414217, 0.24633300498854646, -0.1457522087334216, 0.16619986424655167, 0.5792508705931211, 0.1318172962987642], [-0.5952133029995837, 0.24341641400413086, -0.14483935462376565, -0.003213050909029666, 0.022158045508226903, -0.2611095538654806, 0.471246480431599, -0.48262292786457106, 0.25942853418226847, -0.26844672594540925, -0.42125545111475793, -0.0848368090142162, 0.1379261669796066, 0.07230566107551124, 0.027175022682869265, 0.22466800367586084, 0.266298805493805, -0.07347479179818736, 0.1891020207253408, 0.017041425449515323, -0.034598757324457316, -0.2749086869286286, 0.4591067583568646, 0.06325491437458651, -0.3404182824183937, 0.3216292663539182, 0.10514168485899501, -0.545312230529261, 0.16365099719630122, 0.0051974393009286066, -0.46290107305272077, -0.47082759407090496], [-0.09348214613828935, -0.2423719994509271, 0.057652937714995627, -0.09193864233494137, 0.14576832578529642, 0.7618917619922176, 0.5449209335350539, -0.1527244198320104, -0.7455969443358993, 0.1321900284742632, -0.48283505483942185, 0.3241597331574721, 0.07068586202441077, 0.29287526251887286, -0.09473661333630214, -0.5744903787977752, -0.09236409017957938, 0.5122604743440377, -0.2222874251174309, -0.24968918687721087, 0.07104403571120199, -0.3861123069668742, -0.3985717109437911, 0.13367942615253856, 0.2332685211258987, 0.44222197727176565, -0.39401982440102495, -0.2529391169811595, 0.13522829630069955, 0.02830333354618171, -0.08218470869227594, 0.14215053433307615], [0.4228266036129271, 0.09753839588018572, 0.03500287258139845, -0.19140383162263244, 0.18202497221521796, 0.17855117335648774, 0.2690856439963876, -0.044789910053204936, 0.3277423956682441, -0.26113004176792437, -0.3627968473699155, 0.031182201279313537, 0.0673743619293932, 0.31414980383768315, -0.33951957826516876, -0.4201682422916417, 0.05383204531116462, 0.3956104584901879, -0.04736414490116384, -0.2053449803693428, -0.06399203102039647, -0.0018477070443171071, -0.4715563518695118, 0.17389104174856715, -0.029851211869643707, -0.2074878572493242, -0.12679070979178622, 0.0029942114229108163, 0.5528981808844536, 0.374309974905967, 0.1479670427798043, -0.14357827236690843], [-0.49942720950037073, 0.16776546985783505, 0.1423357276978062, 0.5287981162101741, 0.07785403944177326, -0.08480248715334254, 0.0778328223979084, 0.32581062646464604, -0.2415411397571464, -0.3057547480897347, -0.22896826250020283, -0.03477596078941682, -0.6100225251404701, -0.005171425813504826, 0.24319940220921973, 0.2227294839591251, 0.3264211544016618, -0.007548154420947847, 0.03222207653986607, -0.07592965191758828, 0.22185692751109176, 0.2192404919972062, -0.27022877852929944, 0.035912090990695374, 0.24188237363704415, 0.02539832370385328, -0.14762846974054644, -0.3500070036932102, 0.5205816246302625, 0.2712479036243885, 0.015070104388296554, -0.002716808898259679], [0.39956599215455313, 0.29917525672942896, 0.2804267802991476, -0.06774766772753354, 0.6625496964101817, -0.11214713367682345, 0.5707686792199789, 0.3087838815485145, -0.12419407500860309, -0.27170672297002757, 0.35495956039135707, -0.3403015626997916, 0.23637206187598034, 0.16805428746349962, -0.2219486918987981, -0.3681392297174913, -0.06809729432538816, -0.005398620745330894, -0.21369329795434003, -0.12975266146869183, 0.13683399728991963, 0.03708634386587795, -0.4443942418331544, 0.27944094679884546, -0.3737179990498844, -0.14740364535965442, 0.0008523026098082956, 0.04920473377729401, -0.013716894073843038, 0.13936066865072547, 0.08549276628582236, 0.12035957628605536], [-0.254045365308037, 0.2969584823089717, -0.7804841716743968, 0.20570661917218824, 0.12085643824774787, -0.7147951139437785, -0.25162009490282194, -0.1382456781472834, 0.06417783436422128, 0.42091440102726935, 0.1424008286534343, 0.8635455910865297, -0.30298890545428825, -0.2001807793946898, -0.41398596954374894, -0.11663401382680998, 0.22779393302024, 0.36233422606254484, -0.22603629870728034, 0.3689703720102299, 0.17971661075775625, -0.5452482931938457, -0.3923298203357, 0.8173801669628923, -0.3065819315729108, -0.5437840511215731, 0.0054888768451811405, -0.02769113920170636, 0.35337556697419875, 0.5345155539845111, -0.28052955701905874, 0.10786643435263732], [-0.08818708899742628, -0.06320964102358327, -0.6610541347098414, -0.4584932261638374, 0.248822512032159, -0.0473623881035193, -0.3366257424282249, 0.09088902127438592, 0.40457033287825267, -0.36118275361305113, 0.054351472486014185, 0.26356082047549845, -0.04884329782526837, -0.22225337061322922, -0.5713594587662073, -0.09903157734535202, 0.3876597889740249, 0.16846902058164157, -0.5495352314415357, -0.5452842877354828, -0.8374616915109074, 0.08201450998069547, 0.24015982129632876, 0.11998629204564844, -0.04567993725286936, -0.4486447712139791, -0.25711747906955734, -0.18773177951555073, -0.1600575010509138, 0.5129665906774785, 0.1270238524183169, -0.6672300841433699], [-0.036966941753311965, 0.3959891543683358, 0.2079697427278362, -0.12451718846320252, -0.27348893504452326, -0.43884296394967165, 0.41777853695243744, -0.3661899429440294, -0.3201109631034357, 0.5053848818088202, -0.16977800641505392, 0.3185819899392184, 0.4891735847066582, -0.4932852751384034, 0.13026184740422467, -0.5475853913879531, -0.13040392062132508, -0.13353065748772888, -0.19065159217672115, 0.6607743696798923, -0.4180184613755445, -0.6242731860481793, 0.031399717011038414, 0.4011948952613034, 0.31063299481778056, 0.1517738500810318, 0.005771896482298773, -0.28132527893932663, -0.3106379151752261, -0.5300994319538854, 0.18606838642455947, -0.10247116153902557], [0.17664508344405228, 0.37559306868654324, -0.12220212765833616, -0.08180439757620725, 0.17015281001146906, 0.3297868634930227, 0.037607065978243065, -0.20698036959666608, -0.09216547894573364, 0.10767107736218967, 0.2563794923971597, 0.2906654002466895, -0.14034239467499152, 0.38536615241940425, 0.5312288757699427, 0.05925922117989996, 0.03882342055458424, 0.08993850470424575, 0.32500196833968137, 0.2946747973128216, -0.12255459999601999, 0.23064881942647672, 0.2976858993385871, 0.14470513859094888, 0.7799385917089042, -0.35149028488725326, 0.2220192313726992, -0.22284278538739555, -0.05609262153238157, -0.1512728304414345, -0.5558055907062801, 0.6565318584060121], [-0.057911435962143154, 0.0063328923265902025, 0.680456091122775, -0.2602860321470578, -0.14987295319156388, 0.6812675947581471, -0.2914806725972176, 0.09560177544151326, -0.49645064926659827, -0.09707858930176873, -0.2328133497924252, -0.4300749055196415, -0.7210329610383464, -0.28255537598445446, 0.4336228354400744, -0.2591519853780336, 0.3256180830743877, -0.10467565188218923, -0.6952649841515389, 0.04136160871306117, 0.13854512032243985, -0.1420696886228501, -0.15049122632935683, 0.20466492482409246, -0.08437250225382648, 0.08653829950123977, 0.3354094711901893, -0.5199224854783465, -0.6621101198645128, -0.17474180536587766, -0.4254175328059507, 0.5069673022719655], [0.16296696532033197, 0.14368488731234236, 0.08071974154339107, 0.12183789064417243, -0.19246191343174532, -0.03162021710437551, -0.13226435353715035, 0.08542383453138641, -0.3979278203027253, -0.546163159091131, -0.3972341704190585, -0.4759521687798474, -0.5734605201462897, -0.013501422832205503, -0.040712827829480026, 0.8314927352031042, -0.08480591569865155, -0.1655476710285021, -0.08039846808278292, -0.18154561755639928, 0.03276898733495328, -0.5493503960528342, -0.25934429824791905, 0.5705637581230706, -0.3086056861777312, 0.19797519052235113, 0.20029903480975345, -0.2484323465410961, -0.1324319218314824, -0.08011570004532836, 0.4871737097482846, 0.2512248847519165], [-0.26114720156783283, 0.007316676615932095, 0.1616939893190421, 0.051413159184941604, -0.30623728141941026, -0.04796813273467265, -0.4502014766162379, 0.609831045712849, -0.09344223514774676, -0.3103132223920347, 0.8394312188040987, -0.09699614275929402, 0.032755221627979954, 0.5516806190066275, 0.4022077814711749, 0.6843817671899785, -0.01825301300312781, 0.23208601441885865, -0.4228198237858891, -0.18794738605466085, 0.5113391779189741, 0.1466077651558116, 0.19199111688534432, 0.17581270360455928, 0.07578572752826339, 0.3535968016610373, 0.33525800412276613, -0.34838345769054935, 0.5529043156831763, 0.045661285660099506, -0.186278910008609, -0.17392846184708521], [0.17198512875135077, -0.43693467341064135, 0.30290602968277563, -0.18424915005592543, 0.3502226747008527, -0.31227269252313433, -0.5911516728381762, 0.46792233103256864, -0.38751211058433355, 0.17461121796775428, 0.43545936670794677, 0.6397023999168291, 0.13896628972141514, 0.07782156351380691, -0.19808321935531303, -0.14086020603306085, 0.3171526256218302, -0.013104990095188717, 0.010459336166289733, -0.16294395694930888, -0.31413279057318116, -0.2024365233747255, -0.12198731186422089, -0.650452185703896, -0.07830598536935368, -0.13403257897005225, 0.10282743392248879, 0.03533531287522015, 0.2722694940786044, 0.15579069314474792, 0.13187398418073895, 0.19780058296271333], [0.28421211692223913, -0.05872626707268349, 0.24610397913510118, 0.37673555695678895, 0.08935516721729382, 0.016128826826044204, 0.26767063862763246, -0.23138972546924585, -0.36761653867480026, 0.2246396688405198, -0.27703906077771107, 0.5013500728836281, -0.034747063315712014, -0.4073982816966399, 0.6503230625734904, -0.16998463066505531, -0.1360750968705519, 0.05305862493098315, 0.06005916755800989, 0.3638415079085097, 0.2613231418384425, -0.02486485500848069, 0.005704866335554168, -0.04939092762042668, -0.2505329420934584, 0.21022112752127606, 0.1021408660512124, -0.20208282100431496, -0.17938759387052705, -0.44138382374066487, -0.01931221604111696, -0.1961404419696505], [-0.00840402886263733, 0.19861750952242882, -0.021491794525298105, -0.2488289090798382, 0.04133487825557223, 0.35181799981414374, 0.6064845578212205, 0.000659521956940301, -0.5677417008683593, -0.1509901269666892, -0.8450590046820845, 0.6724112341767209, -0.3650156292270205, -0.2553138532288291, -0.1979346741638567, -0.24808987175568056, -0.32468533674917716, -0.025250303360385213, -0.16802246602622137, -0.17993915996719678, -0.06731349830867092, 0.4949582114733088, 0.702911695578419, -0.28876794391680144, 0.0890606370537983, -0.24649873713029616, -0.565542209954966, -0.14154977501556962, 0.2467976049284809, 0.2192493300786915, 0.5564274790644358, -0.08544997140289005], [0.12127235600563707, -0.044265347668331484, -0.02496284036492896, 0.1573480026530076, -0.5152554774172791, 0.28205850242683306, 0.26380169252352564, -0.22005882021430148, -0.09166407205059816, -0.01732005705080295, -0.5282486300616333, -0.24480605321733254, -0.13209420579838638, 0.1846914169269651, 0.5778787456390659, 0.2768899436335429, -0.15096000144222615, -0.4504674660473848, 0.5280039452392911, 0.1450859749420437, 0.16938713349693646, 0.06388181800660243, 0.021783142135884323, -0.03413750253614241, 0.025323169385170725, 0.36619746534458525, 0.40491248098917826, 0.3401596661013506, 0.339818528613174, 0.5239684913964168, -0.14637379531330566, 0.12262061163254466], [0.5308864489805963, -0.915734852283231, -0.23132849210306602, 0.6670902154288534, -0.23055740586821483, 0.33155911622563955, -0.2943343575679923, -0.27827763798434046, 0.13403309060521076, -0.22257293704850922, 0.3940755286029705, -0.05987560910527497, -0.2625100967356812, -0.15377873365145198, -0.2993563009029651, -0.14079089344727486, 0.03676352548516263, 0.1494519589161328, -0.12728175587259422, -0.5101622996086926, 0.05959773381326216, -0.038153661602902934, 0.23559516598986255, -0.3230363364867373, 0.07948242689013406, -0.24558523806777743, -0.09889021934053037, 0.03515160455194562, -0.0730683775582953, 0.29196957785406746, -0.020217724336160196, -0.061978737818437275], [0.08700682530051594, -0.1514544548324977, 0.5957773452087424, -0.2901435671141028, -0.02795114910663606, 0.011565023354178887, -0.21117974286780483, 0.09368337263367614, -0.05808346806156111, -0.004119411034882813, -0.49171015827324277, 0.39026956847439237, 0.4931007595317623, -0.05041647677817962, 0.2526621020228467, -0.6640982433832748, -0.40925605824788974, 0.38810169391778104, -0.580191726963609, 0.18823345698771995, 0.27270901202218184, 0.054600484210952926, 0.0811352908267124, 0.013781466344570567, 0.030266448174371356, -0.15727581584522968, 0.06254895897898972, -0.32612781544312064, -0.06721120102602302, -0.4155144474314447, 0.38007630919352836, -0.08347390212442245], [0.025836929533249745, -0.12640345310210924, 0.19752146745974086, 0.2240684659613695, -0.29174852031607185, 0.23882462615586564, 0.11138458691111268, 0.3063039542886345, 0.4706989941711313, 0.12057831753327099, -0.23261424986923732, -0.4435422047540644, 0.24686240937943207, -0.12445385116407838, -0.16784196490451023, -0.3854262385412915, 0.22016386666778828, -0.03414206405907714, -0.18773446645057915, -0.4900389097020968, -0.26884129411719976, 0.18056781065167404, 0.23804747712004928, -0.12775214089969225, 0.28403161888377604, -0.19430389246503302, -0.08180674209432508, -0.21107553994887682, 0.039257705053826496, -0.009646824651415586, -0.41773375604716406, -0.6864675425091326], [0.07296855075659403, 0.20664380868317858, 0.33530516722046966, 0.21226788652304737, 0.07352774475510088, -0.494218175544471, 0.4932462929697729, -0.8186977475329477, -0.10857960173524224, 0.24422479091706062, 0.15752456118013466, -0.1818877483308233, -0.3687769864887016, 0.0949754068038073, 0.09314009648815182, -0.22288573466727557, -0.43834624680545714, -0.5594323747149016, -0.012699096733286735, -0.39433561557616875, 0.09466189591615137, -0.16948522924313655, 0.04643513018495441, -0.9300374717324716, 0.6540609064397044, 0.2196680574759052, -0.22516749037522457, -0.6597477474714304, 0.0801475475096487, -0.5567727820809697, 0.19253626888422104, -0.014464187925186972], [-0.20389211914551517, 0.21696508315374896, 0.06411692368089487, -0.5845343794976164, 0.2630618977004776, -0.05584964612657376, 0.15635417926190473, -0.06378978147116109, 0.06261532454354302, 0.06462317281669994, -0.10190619305734337, -0.026139164038815638, -0.2272940544968025, 0.25361257868750525, -0.19794970068734907, 0.11082877600686174, -0.43672595410736653, -0.1225152061402403, 0.32490211454582124, 0.46095566273433364, -0.1502067297283727, 0.17644238633370277, 0.013687994067556006, 0.46782162718223447, -0.03918358485920239, 0.1576981349388651, -0.003962190743836993, 0.1429069957693764, -0.05201591134196176, 0.5199025742593194, 0.243071417623851, 0.3042859539557781], [-0.6157978271463024, 0.0008527865464928059, -0.2739541201667063, 0.18590656966357375, -0.4814783920573771, -0.12038598732397988, 0.17012409778265844, 0.23974203938434183, 0.5873804753460806, -0.04952329344470957, -0.09720180406240393, -0.14336836201918476, 0.08223014932764922, 0.3927564701160667, 0.05051864739253509, -0.3199699575783542, -0.37938497171156255, 0.07319230914780239, 0.22333960529079064, 0.4018014084652896, -0.046076774434094, -0.48502967755244125, 0.09713578035609853, -0.6009223829042786, -0.4156157672241891, -0.34168083198865284, -0.4921068179022954, 0.5461173201906447, 0.37378333688444715, 0.16483363789290348, -0.3458473208224739, 0.24969962382022814], [0.13869231490154135, -0.2601002086041281, 0.15587745689223712, -0.2954630831796307, 0.07754930781231457, -0.5274403115501854, -0.015852442185480344, 0.14757484038058155, 0.37757920217520957, 0.1235756065005182, 0.19092891625041383, 0.43705573848609663, -0.06976757404402756, -0.09186682902960729, 0.41655091433003144, -0.09051796048428895, -0.062001031241729614, -0.048695414327022235, -0.05760264595275295, 0.20580751088722216, 0.34850788919165976, 0.6320490210558093, -0.07272677627081024, -0.2255739941674486, -0.02841239535992741, 0.0030129052588830966, 0.08159389746233549, 0.11047687124624699, 0.17390142055597865, 0.5161087024566716, -0.4719134665717963, -0.4337700145926277], [0.10411310819448687, -0.13021432527986562, -0.296059119592788, -0.28876828719549974, 0.15793106280205219, 0.32678967723779057, 0.4443075158112885, -0.2723975013129694, 0.24455255096466977, 0.5916222957248398, 0.1305157674989801, -0.3361968190425419, 0.3396250358630401, -0.36225499627550845, 0.44089234097846486, -0.45625450392785205, 0.20663397996673402, -0.8078986200521078, -0.05721952803879302, 0.16826205786922951, -0.157072912762762, 0.07962199385487814, -0.314258404619623, -0.2509579538504657, -0.3589773093257335, -0.0930511117644071, -0.38449829808311775, -0.050284263908380256, -0.05711767553115372, 0.05329566123311274, -0.5023313915396977, 0.06648454750168413], [-0.15341293115469787, -0.16170810086424425, -0.032839319956227415, -0.5360023131903359, -0.00227938586976451, 0.5537338931905861, 0.3063854865892836, -0.0796436202990913, 0.5104368350276736, 0.2426735475587011, 0.11094176144968577, -0.3164501502052558, 0.43775443893522215, -0.5042899390580632, 0.0726420431590786, -0.15382960660766634, -0.2570014224292959, -0.4434936819227884, 0.6453255369775875, -0.09481211217538328, 0.3912427089392207, 0.21231199519599112, -0.167095811767786, 0.21674748109856093, -0.09369261192570422, 0.43707044948779616, -0.11432596204349531, 0.10863012099724913, 0.1360189307974973, 0.12690619175746853, -0.44682569849801657, 0.12670766312931175], [0.040406932888121805, -0.5114908834971464, 0.21051969541179416, 0.0839926896128555, 0.22984162113151033, 0.3933487672654852, 0.2846987922785599, -0.18292697088444046, -0.41562308297650397, 0.21778188460039116, -0.15664431327890363, 0.024474826923501194, -0.07762523707232337, -0.20094807831897943, -0.35616002476777203, -0.038314468131710716, 0.23282477998506437, 0.42244474990483144, -0.011768893913370994, -0.17792496509615585, 0.3172639478868859, -0.1796489812836558, -0.7333252480405035, 0.37959910554447013, 0.1812558313733231, 0.43866188996483046, -0.21878830796005458, 0.48205493389965454, 0.16776621878917397, 0.11714542011070898, -0.22570670682561791, 0.6169383481941993], [-0.17510105817021904, 0.3733957646216344, 0.37367530279271377, -0.34413553054778173, -0.49110891636698256, 0.035887393740653376, -0.20515018070577382, 0.8130253585007221, 0.5297319332939455, 0.6176433428777158, 0.011395302703844085, 0.0392910500476122, 0.22656514890528145, -0.31025293312778784, 0.04615876311422276, -0.03936993187245727, 0.13756194657991846, 0.22968001917609648, -0.37646601774253124, -0.13866356774183705, -0.05165852721585377, -0.17084076950245017, -0.06941274908367313, 0.31256846312302405, -0.15560917245920233, 0.22537647492023183, -0.3743448731351647, -0.13589038465951445, -0.04340338018994256, 0.2651982495895185, 0.1929398824196229, 0.0936692760909927], [-0.4020649786641628, -0.022354857214267016, 0.3276222099938219, -0.4965293298013603, 0.08629668893194557, 0.0759300996042294, -0.22944674576950552, 0.2537994099811652, -0.06386205026669378, 0.1684849724409824, 0.19202423857497217, 0.09492667248091408, -0.0617316730854107, -0.11623462649144763, 0.8291961552921454, 0.19946397585322398, -0.07599940664431931, 0.2519435032803969, 0.48043176468382326, 0.046336287840201884, -0.12797521652997154, 0.5763510302919036, 0.46021726643523575, 0.06322739014173213, 0.163614242764639, -0.2630079216844828, -0.6951201046096772, -0.09673776634566976, 0.27657103188220633, -0.13550648739422913, -0.46545663962724354, -0.47524063048838555], [0.38109076282422794, -0.7066328837417851, 0.08070910871297488, 0.35153920237119674, 0.45101848659403054, -0.14811288117140434, 0.2191562115031966, 0.24950620026392142, -0.19212778573044723, 0.1949323114823729, 0.3597479340203564, -0.25690820437930234, 0.3087749985833849, -0.1925756981973509, 0.08882710286386102, -0.08628088324967997, -0.15100789269883613, -0.12140741237392826, 0.411446713985053, 0.6620596884601682, 0.14881901312220447, -0.016375983894812488, -0.08699213166974873, -0.40516608764637696, -0.29559591769885646, -0.49170712102244635, -0.14806790117348076, -0.2559350003088993, 0.23758924200779852, 0.10916236351177912, 0.1326585768179498, 0.3197791925261601], [0.16642940112485854, -0.5546926590025886, -0.326390944658476, 0.016203314511340047, -0.059962447552577215, -0.1224542032861365, -0.5625680046682707, 0.10316481638612023, -0.6305951561530247, -0.4785206130770286, -0.4225752694069968, 0.2244063327400053, -0.3230258184960834, 0.48414280896830914, -0.025094698221485242, 0.20566227688972752, 0.37689422592058963, -0.4505131190047152, 0.14588931257713258, 0.26940567546240396, -0.025051311018806647, 0.4062753112740394, 0.1649283019130289, -0.7874620200073026, 0.019039352387752697, -0.22479326105481437, 0.024714852727948027, 0.1056993263070405, 0.6106417173828708, 0.8152095749732106, 0.0026980682918019013, -0.3364647377487904], [0.149189024758527, 0.03807195685679897, 0.6658593268344037, 0.010477960864320263, 0.23942475104857674, 0.0908175548942215, 0.2943223198471458, -0.0631827157160148, 0.14982152487483857, 0.43144896875405436, -0.15065035762437032, 0.11524641067990314, 0.21846908367462858, -0.7591389381652424, 0.19916110524562544, -0.007748998745342832, -0.13206293972422004, -0.31865320527510704, 0.31673094034868, -0.2605404629676368, -0.019541007002507108, 0.029183826012962582, 0.43948136895313655, 0.5173646195126197, 0.09166735477825055, 0.058668760122124325, -0.4694731034478377, -0.12986757655907008, -0.09400929915262923, 0.5299668063606322, -0.06821775753075891, 0.29177542927675176], [0.2765406492838093, -0.14403720103396628, -0.6512245961078726, 0.20767838082364568, -0.08010948923007744, -0.32986639761941333, -0.4873215412788588, -0.27009028906646043, 0.5315515875728006, -0.168230976268827, 0.3253492105272366, 0.5258696825005601, 0.3058651669286299, -0.5387069879565246, 0.08727045309939012, 0.18941214087405642, -0.14636086394252104, -0.4995442420785898, 0.3202785807029155, 0.1586342698609523, -0.009641991594266838, 0.4503278271153534, 0.03817437596229711, 0.2683769103186456, 0.4610199734417691, -0.3416517556221756, 0.6384395822329351, -0.163631477156727, -0.12019035814333157, -0.2257790399687187, -0.37207040350561194, -0.20852656950277337], [-0.009308096736929273, 0.17845577381565622, -0.600778835248768, -0.13186337510320836, 0.017744705075238943, 0.21784064027839833, -0.1789256287780576, -0.3117537526183679, -0.2828800196298225, -0.166452719191901, -0.024216378691957405, -0.16022967853663403, 0.3177596943330907, -0.17325129585751387, 0.20293784379798055, 0.13009978204759765, -0.5151336143818976, -0.5119565202640262, 0.8567264538592579, -0.17391501984961408, -0.12490889079992036, 0.1393258943100402, -0.5015786668477054, -0.5957234860862478, -0.5958006342538525, 0.20677610562307455, -0.3590423578796194, 0.5427671186439755, -0.05373918725147669, -0.16018742369897437, 0.1468616254255345, 0.47328726105240887], [0.5085885639198646, 0.19522955361232763, 0.22261526708763682, 0.632761356082859, 0.004179179001977479, -0.20152522909963175, 0.33744838707773694, -0.13518033710337643, -0.1286769895442893, 0.45569108852916423, -0.9307987008703088, 0.1824927397017481, -0.41318465075606287, 0.22235344970480694, -0.0033359995924510132, 0.23054564409777778, -0.6146646154950702, 0.3243941377346722, 0.20329282868053436, -0.2185082339283434, 0.3489710719344696, 0.289650766167275, 0.20848499876158832, 0.2789190417221444, -0.0642272385822755, 0.5872001822491063, -0.08869556588150827, -0.18587266174183456, 0.22244087498288342, 0.17120972725344438, -0.4914925927171076, -0.41376673124487756], [0.4445917469098277, 0.5804124511692339, 0.2370029635963499, -0.3584530252402462, 0.3386445415866004, -0.11828614511474746, 0.5135682394023838, 0.1472734054587694, -0.1460181661794903, 0.12776147266201487, 0.12398209244189358, -0.2058672030024836, 0.07694554062933869, 0.7607088108264529, -0.17192030722917315, 0.10833692678196061, -0.15493786767249298, -0.15883546714638178, -0.08261503636446368, -0.36904249605793105, 0.14816587654349464, -0.18675853085736951, 0.05060899886838838, 0.46542606352087684, -0.4884483833022499, -0.7571343447727094, 0.23449484857286138, 0.4841685499564279, 0.16920760065938537, -0.04393448830022828, -0.11178560612711953, -0.40805782748224756], [-0.2522661329428478, 0.17206714634717415, -0.16723844225469423, 0.12007433732933025, 0.1663960386972301, -0.2788688402960488, 0.08535871239851088, -0.2247274607819176, 0.24424670652284272, 0.31451454523316064, 0.6385667133389172, -0.42238677198327274, 0.621410906088987, 0.11971387785383585, 0.6696352493002867, -0.08390684177152756, -0.23680583479939055, -0.13970299542170414, -0.31757586612752237, -0.2266006768224087, -0.19040322450309263, 0.0674540219766505, 0.02772691977981882, 0.3144672048278277, 0.3575535852925635, 0.1755950946616639, 0.02147717129091764, 0.626895249312274, -0.23215860160533575, -0.47205286246227374, -0.07619313810924991, -0.04924123960118987], [-0.08087745023820318, 0.2892105488172626, -0.20259897056316434, -0.17094891550351096, 0.27646520514383893, -0.17623123752716033, -0.05197974487129694, -0.04860003182703291, 0.07965503346742993, 0.10447956221482792, 0.1344746347207406, -0.16371621337080466, 0.34326777067123754, -0.0014711556366742453, -0.3247682653938771, -0.2618189116167558, 0.04278935496735137, 0.2734766039991089, -0.22591475411362208, 0.041723970935627776, -0.06385916577247477, 0.042361676170186026, 0.19221850770033408, -0.33934601320632707, -0.03616577066745604, -0.10435114307583544, -0.01747998243148734, -0.06233599854063746, 0.21338113026660066, 0.14164266437702838, -0.08265497836137066, -0.2869223844820819], [0.3484735944908397, -0.3602469672951302, -0.2635555539111704, -0.3134898583731576, 0.17447058155712666, 0.44549932665861874, 0.11754967420370889, 0.1987700400897029, -0.12600657829686315, 0.06337475131798452, 0.29024050387859085, -0.05786383741405025, 0.1763293526003911, 0.1151506875934748, -0.2582838445762459, 0.784108925595858, -0.29627268580114924, -0.2000539312136742, 0.13349812821793294, 0.06191761517917024, -0.6339165982057996, -0.1210342851927641, 0.47397728553297913, -0.12365251877307247, -0.0336860656545381, 0.20978837050174867, -0.07032959975857116, -0.012387146273553652, 0.16962144510291735, 0.12350784008796274, -0.29758457763080376, 0.07693634051629737], [-0.40873101142037793, -0.15699572374744755, 0.1509783715781575, -0.08450600107168936, -0.11157113276028795, 0.12382151768334852, -0.11431594249921245, 0.40721531655090587, 0.3950427624809228, -0.7844317652905825, 0.3095540826938239, 0.4518533294899014, -0.1116762238010845, -0.021567827673285907, -0.04214478740029968, -0.011859439256701762, 0.034748475863366, -0.14883762531282257, 0.21634517776127704, 0.19400221826904188, 0.23045258767666033, 0.06308281579423759, -0.2541906576273752, -0.2663247779907442, 0.0738717482667695, -0.20358230810891173, -0.6990764847872174, 0.08331145351770486, 0.33574649045443405, 0.15570226353097122, 0.09707119343310427, 0.5394216278224356], [-0.2488045314904518, 0.44945604276209083, -0.7917905988838333, -0.14076866828679466, 0.5459051057405575, 0.12410171128603455, 0.4632836341694555, 0.004496958331912409, 0.3720712323585285, -0.10043722211846216, 0.16130640542141353, 0.2780806831287012, -0.18579218826372249, -0.04377519736257976, -0.08628554595233362, 0.05303796673993736, -0.13422546377049335, -0.0796537566896778, 0.08555232542214365, -0.2182716316291479, -0.07299693849071155, 0.1557045401139562, 0.19104194886119022, -0.05839555366089753, 0.3403235497951515, 0.5648962364558217, -0.098867990818213, -0.3319689631748864, -0.00033272992283247285, 0.8639233245112258, -0.19573304520049395, -0.35249506981718787], [0.1277254851810759, -0.03613378454154596, -0.209672345503659, -0.10354417844555154, -0.09841809408832652, 0.10498977113353146, -0.09383343164344515, -0.3371261426648349, 0.18134215451655936, 0.03421892020863634, -0.4615070619225147, 0.5175780494790901, 0.3517198767805403, 0.3412868734534647, 0.11620404050298379, -0.4648193340807998, -0.1685554493719743, 0.05444137030002746, 0.469699457471006, -0.11846985454465497, 0.0857924598424827, 0.01582267869270394, -0.4606774409249097, -0.038568056377174066, -0.4555656418735993, -0.5468826702609141, -0.06567536541211656, -0.17136913725354339, 0.34225538487346147, -0.2799420475350531, -0.23359736676749257, -0.16868856888643344], [0.20080297692152937, 0.2428307644060416, -0.6359190980324664, -0.43479949020491665, 0.01677337588258779, -0.4559528118715483, -0.2917205961778083, -0.5853271185795106, -0.1146089921668441, -0.548305549376455, -0.21842475380765158, 0.048735471967591114, -0.20702045172603337, -0.0821197576054773,