{"gen": 1, "layers": [49, 64, 32, 7], "weights": [[[-0.4216370445740975, -0.1896214404515844, -0.5422479766867143, 0.5249655437583841, 0.4881017200017932, 0.1560012629103995, -0.12282315058283544, -0.31677926653126265, 0.6137773053570814, 0.5985291972755511, 0.2738262404716383, 0.26135073256230723, -0.29167356051437215, 0.018143829897328503, 0.14774425479121028, 0.30445860283774195, 0.46064131924917706, 0.037356810225198545, -0.04604826816585039, 0.39045017635815715, 0.3477198513057643, -0.5956776089382022, -0.13031915573879493, 0.09191981930127546, -0.1946227407164716, 0.7011923762253056, -0.43106664959112695, -0.28188579379077094, -0.2959710300002304, 0.4903859395241398, 0.410118090863192, -0.6114812214395159, 0.1888547329688579, 0.1545256923438848, 0.332346907755549, 0.8026624465912271, -0.3040462047965448, -0.33547852584091975, -0.29948267212271773, -0.07601807875732336, -0.10732343759821328, 0.0589975063513255, 0.2708727256733061, -0.11768443187464195, 0.417879671382533, 0.04994851610665185, -0.43939698470268923, -0.09287727407114704, 0.07997116958032757, 0.2739292182030546, -0.5832245089292848, 0.46139351141758567, 0.3329677194195061, -0.12444594281371169, 0.5289169194158195, -0.48667979683026863, 0.02840064483705057, -0.6869734770241998, -0.11144886128088427, -0.13023309827898277, -0.6436035469295041, 0.1889745760939341, 0.6384918465830907, -0.6272870811218657], [-0.3420089122214873, 0.20184079736320848, -0.29148544262337606, -0.6274488394213974, -0.6444747103639256, -0.42605270353442415, -0.15653260162878269, -0.5643007916975915, -0.4662163594003941, 0.08461561404937301, 0.024482747929374327, 0.14627745795371483, 0.1272387740589317, 0.043120294958708394, 0.2991161186838899, 0.2029842438850662, 0.3263913735679068, -0.42451790756268815, -0.14560524066152902, -0.8856196001768675, 0.32173509536984213, 0.013722348161879672, -0.017790169728655658, -0.8934647682638464, 0.39439221015621817, 0.07277021631140729, 0.08378213723160688, 0.6967701545769388, -0.15473873261998983, -0.14716912688308448, 0.38653267465349683, -0.137833527583463, -0.7086114584735151, 0.171200264361565, -0.07370690339491537, -0.431504478238416, -0.2504443498789767, 0.5206195292237805, -0.11042643860242252, -0.07563647981762178, 0.5014284235034403, 0.6990088033548184, 0.4911797438421428, -0.3351427263679485, 0.25637470577012433, 0.06679339227746237, 0.38849316589642624, 0.21155215310870853, 0.8868119277455323, -0.2019894412838803, 0.03668582765466677, 0.218665665710296, 0.0342532801551981, -0.127577055970029, 0.6060498536454402, 0.29125687298677494, -0.7048943230581578, 0.06911345845352757, -0.11002518486742063, 0.2657217594029906, -0.13983062455777395, -0.001632802245903231, -0.1952566245770962, -0.2587232737054339], [-0.10824241166963658, -0.15245842877821092, -0.10382309999629735, 0.45631715871408607, 0.003025909723573472, -0.5035464334313811, -0.8438264990323, 0.4911644809172192, 0.3172672701693183, 0.3533335106531717, 0.30798249670405486, 0.43267880935230607, -0.1535443982145247, -0.4642823447643729, -0.12372034013087113, 0.8311929602139642, 0.8878407828634706, -0.12089198231353193, -0.36438735819043566, -0.0021161952272091278, -0.48653617370612734, 0.5675488388265905, -0.37718572397167827, 0.3907104728256111, 0.6246291831282622, -0.4884643497511828, 0.07134960172415883, -0.3844363292084767, 0.06006573695012571, 0.16271060791815495, -0.6097309597100162, 0.45375449964121006, 0.6531070440227627, -0.08806004152628977, -0.5315643752164934, -0.7218273975520841, -0.2470191964285885, -0.5665998216534829, -0.2826372017950861, 0.6637523180652584, 0.42816605989122825, 0.09227360044220756, 0.18324989512541556, -0.2079027647799414, 0.32385597811915934, -0.1371473536294512, 0.2961467382921852, -0.3159205564829717, 0.4258092487065638, -0.27348860545686937, 0.6093588147395707, -0.35123936226324215, -0.3993135629560859, -0.10581356864464742, -0.8973519775989415, 0.02967788358766399, 0.5629218886621316, 0.599418376824292, -0.1391142307955111, 0.14345765878779043, -0.7583347417742468, 0.006371567168967696, 0.6957792648649807, -0.3509817448534568], [-0.18069033011065655, -0.12928263149633024, 0.15741587394433953, 0.7993552417090118, -0.3836794462158437, 0.734858165197886, 0.37024011436326654, -0.027702188155928065, -0.287088959674881, -0.3474990660806928, -0.16108238140678055, -0.2625098294520891, 0.2992695089952849, -0.3447067335070553, 0.5024793075286326, 0.16403868102138786, 0.33523259704312924, 0.27166001834839637, -0.09691496895238072, -0.6617107739242556, -0.2734787286403202, -0.3654468989975248, 0.20965016595490193, -0.5514898297244453, -0.5625150655101218, 0.0804624866685325, 0.1483176420801523, 0.12495422105570139, 0.2397146031030255, -0.14630298782187479, 0.6944297737782019, -0.7505841080607799, -0.07764264565919432, -0.08663784673062669, 0.171856771873517, -0.0827105701448928, 0.2776525100428663, -0.33006484572151024, 0.58976504171334, 0.4307118656515724, -0.3634444937924528, -0.5985838619448035, -0.5122906506538316, -0.06766104176838417, 0.23406923610069674, -0.7274075711427385, 0.49784654744274615, 0.7569157606648822, -0.230960979937488, -0.16106869167696802, -0.6739821092871683, -0.38374593260933654, -0.22418966312000932, -0.638175706505222, 0.23782706809857013, -0.386704896123641, 0.6247522712033353, 0.8010236522155232, -0.23882728563614286, -0.17972028142845053, 0.5714656732467971, 0.34182828394786213, -0.1795836206417376, 0.10841981966778491], [-0.2832346651967279, 0.136723882387094, -0.10087876709377253, 0.7700681983141224, -0.3185503311829264, -0.4544913877933682, 0.049985603655453015, -0.46016267825969737, -0.04361243300088602, -0.19438724982497468, -0.06731994661591068, -0.5818848256239407, -0.2592786217813704, -0.5157400367784509, -0.3595734470514883, -0.5954691450965138, 0.008672304429351518, -0.34118189957972567, -0.23245420023770091, 0.062444633394410136, 0.2125631991141882, 0.277140413516048, -0.45716740485906027, -0.012332216824856523, 0.06330287695703463, -0.5234957938184002, -0.44428338765820163, -0.04717315986791881, 0.7467743673281672, 0.007724178268626036, 0.19454082423841057, 0.11684811126671546, 0.5943204667928801, -0.7779950613697206, 0.02310105033737453, 0.04849765092723324, 0.5701277718601682, 0.015562270199957151, 0.29049467921272853, -0.018665693110920367, -0.4539136164884606, -0.25498678500491656, 0.19473019098245636, 0.27456343279624096, -0.39213158843312523, -0.08422303691438005, -0.4062983521793283, 0.6158208227629643, -0.6105990535855088, -0.20153611684083217, -0.10003847030283802, -0.028366179071012576, -0.4008918743534375, -0.11429698971224023, -0.051614723295811515, 0.4640405863101227, 0.29396188581924776, -0.5726414604818227, -0.18665540794913116, 0.09556475808198006, 0.03856699914101913, -0.5123878275594586, -0.2703598478512347, 0.0925806030833447], [0.2187273443926443, 0.3695132371290498, 0.3661320478359652, 0.8911184745435586, 0.5748029348112732, 0.7441122102714658, 0.29600235291331045, 0.012800270029480199, 0.08323854598870717, -0.1369330170338009, 0.2061492256458468, -0.3814890435143843, 0.6826022519838023, 0.25910497800189813, 0.6829288842426795, -0.6943621801202063, -0.8450408135267281, 0.15315646215163148, -0.37235833609118385, -0.22449126540125736, 0.027957342848128564, -0.24254364391686878, 0.43880684470866305, 0.09338686081084879, 0.19257206375952884, -0.24452627838535024, -0.14068792023364962, -0.1115328863349837, 0.7022568925191817, -0.37659098669598357, 0.5496030193364424, 0.6547549021530504, 0.4946754808756978, -0.18567165791583284, -0.12828558832556547, -0.506156945111769, 0.1891768324190417, 0.05898861988960458, -0.11247456906876985, 0.5571527772241938, -0.19355662314865096, -0.10655873945448813, 0.05646961363103731, 0.1944538142061315, 0.32362053874458807, -0.623507485066664, -0.18821269080826192, -0.025792434586934254, -0.9993904829840364, 0.32891831240007463, -0.5291994807130179, 0.19030428787452375, 0.3634881215367631, 0.05450998006026497, -0.8918276354573033, 0.8339294957152832, -0.0041276730721496735, 0.012848688686493248, -0.0008447094946684164, 0.36924276631128217, -0.6796367968345487, 0.17936093814454543, 0.20857373338212326, 0.5788580310332552], [-0.42492007138842414, -0.23514724846095092, 0.4637976289868678, 0.0581802003329458, -0.7116405749980306, 0.18039194379212048, 0.36207414972144, 0.05198266462589285, -0.3824057648128686, -0.038670297849383, 0.09655028207343103, -0.04405060427099439, -0.2633470239072838, -0.08511814064631745, -0.34587841568327105, 0.1837426769936802, -0.752245523117713, 0.07364662998229149, 0.12763355409740026, 0.47616938109763074, -0.8068669805676645, -0.2763060973198702, -0.8455861628980041, -0.10692866753298569, -0.17161320105396838, 0.4234788986167719, -0.08611093583036089, -0.1485097383570615, 0.43699100840163774, -0.142550145107815, -0.3299263426627719, 0.4169139713029275, -0.13347210127453257, -0.3116915154696883, 0.6797362396513378, 0.3240408333934359, 0.3509608129715393, 0.6005385651979963, -0.31806771983439375, 0.2108611995446381, 0.2737539772174825, -0.0621711125379899, -0.07598446575607176, -0.0968384269436301, 0.44982025062193165, -0.30736866839724697, -0.7793464166859628, 0.27548751224718315, -0.6275748132315864, -0.08704224483804257, -0.14661238361179707, -0.3501896460148427, -0.43842461633326435, -0.31010763507126793, -0.4771820538380863, 0.2823538450194122, 0.49552116196465756, -0.6335431900765373, 0.8781915677106014, -0.4521261283274679, 0.4871530835876904, 0.40892236285546435, -0.03839984003495758, 0.023631273897359084], [0.15773484486438105, -0.2224652813409943, 0.20920826902033554, 0.48888828585713184, 0.35299043180848483, 0.14789189127536684, 0.03140214271615105, 0.30716548649564934, 0.31952461607366045, -0.2633069518725124, -0.4233229352106921, -0.5181275416185678, -0.050051748215883984, 0.18379625478299, -0.11748317489794347, 0.2090754499373486, -0.3148202560868635, -0.03679776607934149, -0.01921335176835204, 0.006742049380672577, 0.0820465667413709, 0.01669992537591837, 0.26528693174923423, 0.019918353458485027, 0.04056629030471648, -0.8714914174965905, -0.10256563944242839, 0.10201312470779056, -0.5123024586316886, 0.4079457605773844, -0.06057930158633018, 0.31616432092353886, -0.9129539846497632, -0.047061579634354644, 0.2227399617923982, -0.9184322849579365, -0.016604361560428993, 0.3361854877618251, -0.28539941925078843, 0.21434331507384874, -0.553035630728234, -0.014531830318246064, -0.17805711941235536, -0.45638750084769875, 0.07936105225126844, 0.08965114859330069, 0.20375271442442744, -0.39048913040375177, -0.34667126215339983, 0.5227534494301298, 0.34592079015826294, -0.2997688232376268, 0.07691085873086112, -0.19391668664224615, -0.41953817485001754, -0.4682319879860799, 0.02386966361467091, 0.7107699920112048, 0.5426210034599247, -0.33598307173561703, 0.45095648285143597, 0.07896615702943188, -0.16187837719865483, 0.4929244115772229], [0.640801453447924, -0.18116019870387567, -0.35016795544379287, -0.17759353464793204, -0.03805747594288844, 0.2011251778270129, 0.43954626075865566, -0.26375096707165124, 0.09395595637087018, 0.09309163155319677, 0.22445604340586245, -0.6634985066944565, 0.2342308608503703, 0.7193716954774366, -0.24061162022401672, 0.5577622333548203, -0.0777338421870033, -0.34280695921083504, -0.12810533320165018, 0.918581182260487, 0.14114713795751166, 0.15568217721760824, 0.15028607182666243, -0.42961318878422106, -0.1996458952272161, -0.859619932589701, -0.11385621610612251, 0.3758222208144628, 0.7863727439714218, -0.16918483910967308, 0.679758736882218, 0.1922060715344434, -0.21257886587692487, -0.23817860894949072, -0.13136630762328871, 0.4008423935040044, -0.7741761834472275, -0.2557866304881721, 0.32824134219269907, -0.11215259058476701, 0.7242981374140539, 0.3486295509128078, 0.11274492416379095, -0.5473107637007737, -0.7891930056546642, -0.3392861365666413, 0.07609468414476017, 0.09277062945677755, -0.5318962039426786, 0.5006288609665707, 0.04305436269266369, 0.36078983385123636, 0.0012941042323996177, 0.13337724165218096, 0.6561440023311819, 0.6519405432678549, -0.9578646613515523, -0.2849065963311993, 0.6441142520300386, 0.18496856233327863, 0.680435778012429, 0.3595364530758999, 0.590120148626441, -0.3872095447568975], [-0.2711095355261329, 0.6099487916189041, 0.4647971385657716, -0.17686583044628712, 0.639458847347042, 0.5352248375219802, 0.5478489378664791, -0.38232695483880774, -0.19006718710154658, -0.7481160408494917, 0.2002022818437159, -0.21239374252357815, -0.6668090681929466, 0.2825068096805635, -0.12086067198096828, -0.4020589418974865, 0.49380663213563175, -0.09988676506495797, -0.2511591036190495, -0.10631951605400675, 0.009450530936757406, 0.42844537263931004, 0.020031403422273164, 0.20665022168939012, -0.35654562869594497, 0.49911054646440633, 0.3621232303742349, 0.6939695158653438, -0.2844792204523552, 0.15613075011199895, 0.0282037691716861, -0.5934162075414656, 0.22010102227942308, 0.5854071291051622, 0.2748715099980614, 0.5824904430270935, 0.4284920416521546, -0.500710270117381, 0.5629497562336618, 0.160814081986692, -0.1585657640196994, -0.4706954115813333, 0.4675823643755089, 0.0409313293229725, -0.41940955243421885, -0.6373985965671035, -0.9049256106952273, 0.535328525127392, 0.001381622776085889, -0.04493693192557113, -0.08379481002807965, 0.06594050026898535, 0.2569853553538789, 0.1354233723652578, -0.544498653139871, 0.19441439966307428, -0.4381359068656049, 0.1202844166835802, -0.18483889130569553, -0.4666678680201126, -0.12095850901324545, 0.48831867058435874, -0.28168858950457454, -0.4787516805317937], [-0.08154044450021825, -0.3532130905919494, 0.28761509057920065, 0.0268918411688632, 0.30452918320198574, 0.7427110462348661, 0.5315437357376246, -0.04681998275440746, 0.18312250529570728, 0.8662121085891672, 0.025182350465825204, -0.38941448472811946, -0.5038599679966631, -0.051453784293110205, -0.3281203615801275, 0.6260493909683048, 0.2566106015781814, -0.04121843191805119, -0.3132292306500195, -0.32688006721895246, -0.2562099963250073, -0.3047058855914135, 0.02154646461282017, -0.375456065877362, -0.5707126145014345, 0.577394808271356, -0.1824321439436284, 0.4835478758505364, -0.06598640188629856, -0.2377627254960295, -0.11111169255417652, -0.15142419909793858, -0.6305869181200182, 0.2818373364156279, -0.43286372327999434, -0.5693977613343322, -0.8676486689055201, 0.07433879247188699, -0.17156555820920127, 0.5763726866262879, -0.43670348372810663, -0.1865693752050407, -0.05003107420076425, 0.5018181085172283, -0.12049270356931563, -0.05179632227715947, 0.43866236137940695, 0.35287597280128535, 0.7104202003702883, -0.9619742131954151, -0.6785898414905065, 0.12888135666408806, 0.06717491615859916, -0.11203942981408166, -0.5341929987351276, 0.5437067596228337, 0.3790763936297027, -0.3409814248346825, 0.2526198207314745, -0.36543032013107457, -0.6456708662208748, 0.45717500438155445, -0.6912888886175282, -0.1553994009187467], [0.921514794305177, 0.43946692264859744, -0.10228625346986708, 0.32970544049803585, 0.027353387340422697, 0.08434272440768198, 0.2623816559825328, -0.15306686128950653, -0.1282937650303062, -0.010995859580730238, 0.417597492996605, 0.13938152562937056, -0.5429115473315458, -0.04268751214177113, 0.5942511317966093, 0.21763083222536617, -0.12880841333066984, 0.9756762868221776, -0.304057366376252, -0.3338377171501863, 0.2349015924408887, -0.5573517434681841, -0.1970982956076761, 0.0667058657481846, -0.4068261419767797, 0.1646022559488064, -0.629642902286531, 0.05103971396098883, 0.31456798277517917, -0.03192284876949669, 0.4909191266369418, 0.24248534192610538, 0.24941675681193787, -0.7475890600091251, 0.6516251053297959, -0.4190787076415331, 0.3247714431902784, -0.26777457851320174, 0.42535178021233677, 0.29090317790782105, -0.30043559851053936, -0.7236515179218014, 0.2106494125055537, 0.1907323956354321, -0.2505827984368083, -0.49129520902383894, 0.4895777789136451, -0.18833568336414397, 0.012129162934514381, -0.30359132190727256, 0.30537497252124945, -0.6122054938329223, 0.21390424797641594, 0.17371073155615477, 0.31526522548201874, 0.1729502017726504, -0.18456333962682814, -0.028528669005241203, -0.005950278849554236, -0.5380642917605283, 0.03858045388950182, 0.1801674153373619, 0.09021131131441429, 0.5280078309321588], [0.4267147698347291, -0.48936808408072435, -0.5639078388389211, 0.2086479343382147, -0.04596939525320032, 0.11987180260201884, -0.29640466415869005, -0.09491936278445967, 0.09610882266519938, -0.1733732579880023, -0.5951548451933676, 0.4760199610447242, -0.13942751620073213, -0.11818539767864789, -0.13700279427176854, 0.436846875066341, -0.2998388220623788, -0.418965641372826, -0.07883905859239643, 0.6243588124754396, 0.6438611654817071, 0.3469578441923442, -0.41957144716452943, 0.1348945999661329, 0.6548357427301892, 0.438981266549724, 0.3701787708376225, -0.19379243129190565, 0.2726747361178453, 0.765975360415039, -0.475849073903021, 0.20925788859238414, 0.8959915564961438, -0.528117316062306, 0.4948429864792723, -0.0026839705646739542, 0.5417309134521421, -0.24310016476277418, 0.08364943494634847, 0.6733329607971308, -0.1383247597542766, 0.011885416201169008, 0.558531605002708, 0.17234850711672267, 0.26901129640323396, 0.17730372560101115, -0.05254593219199977, -0.515515451518093, 0.1305714322212142, 0.142277315490262, 0.6789279211614114, -0.14369017487331237, -0.36015535630720175, -0.8296310921108361, -0.17604168877299792, 0.19126321590559836, -0.13236641894810264, -0.24869047802768418, 0.8873714764998497, 0.7457901776925704, 0.2516588598243188, -0.2711891038826615, -0.39063034452759027, 0.3502374244606219], [-0.41026338004587426, 0.06996732656046126, -0.8876115520035218, 0.35902752364525625, 0.613275775536389, -0.6265541024177556, -0.38080219398451065, 0.3397889969571194, 0.23794822899964396, 0.613483564649558, -0.24332443269571713, 0.08419087043025779, 0.4879321952124346, -0.5288794823853142, 0.1784295465949891, -0.06355741548660188, -0.31349351325622654, -0.21242366960481318, 0.3434287225255953, -0.5376299470661798, 0.8190518497944661, -0.3969161299304763, -0.18125897077314734, 0.2646010042727851, 0.1005466989003374, -0.2835507084912382, -0.1022054449643407, -0.18455820733844586, -0.22128930219337484, 0.11224996683382993, 0.254678682566788, -0.05454776475761125, -0.0959888511803294, -0.31211713471729585, 0.36608548730221324, 0.5164858459386155, -0.5583184293547023, -0.2960405881964505, -0.3984251024411908, 0.664524001824939, -0.29622381376158763, 0.5148268366412277, -0.14215586645117928, -0.39233088257071946, 0.17627301296823972, -0.4098908122996715, -0.3213218234326113, 0.5459160991078197, -0.1863444449593693, -0.07318604280293783, 0.013030208647994368, -0.2595685436000075, 0.47839004914869654, 0.2405765563030482, 0.16998229816489918, -0.12431897453359964, 0.16580929067623784, -0.05180760935375206, -0.17702894351972231, -0.03366706705143263, 0.7758831076225823, 0.3743045368444356, 0.25264481390832727, -0.355233359891863], [0.4274745048906259, -0.2987824353487657, -0.19200441269818191, -0.15402066889554844, -0.6575429243332567, -0.8753171133753637, 0.1675777346825209, 0.5381193669304741, -0.2856392537964574, -0.6136775077643313, 0.09599146431640349, -0.12251457624146456, -0.2258776753745103, -0.8444839155068347, -0.4496986427898586, -0.08802487569590589, -0.21258033871324244, 0.24304215641329652, -0.22678771544517218, -0.6584009190912221, 0.44154456331425007, -0.2770693562414528, -0.21467791363504574, 0.6280089416142042, 0.386438976080143, -0.056448653114814035, -0.22548580564213294, -0.2947642047676352, 0.67871843550859, 0.7206091995265654, 0.5074181630677881, 0.4578414374955355, 0.04340032069921573, 0.6540728793625412, -0.1500503734490175, -0.41252763906642487, 0.421664987648696, 0.7785270847112372, 0.12246685935465063, 0.7223354775664499, -0.3372049665594873, -0.06796503445039137, 0.18305577780193166, -0.21174544004774942, 0.2626804345973801, -0.3194316390670956, 0.2143481292257764, -0.18425486786797196, 0.27615970508836696, 0.7569217971648438, -0.15419701698639765, -0.4506554201772771, 0.31970762425904353, 0.15790085120402708, 0.6090248667026348, -0.05511929692935491, -0.5422325819809597, -0.6355268728242822, 0.7440563928434779, 0.5114397848329095, -0.3155019366940567, -0.2510647506231003, 0.48991165403716663, 0.19407026362714244], [0.5283138125381276, 0.0487909438769806, -0.05410162978200228, 0.06963265160883503, 0.4126903627540419, 0.7683533362724002, 0.06897300436394926, 0.07679341899707315, 0.205217818725692, 0.34832456622899677, -0.6009710083240193, -0.3959861154711213, 0.32865250989935235, 0.09709021731656176, 0.19507888065522971, -0.23187581891901, -0.5691191072088461, 0.3034138753714465, 0.13660153542130604, -0.14645987570293073, 0.04956441116311561, 0.18996407885256053, 0.5548355452667791, -0.3531917782982432, -0.4758620411052785, 0.7629295836190793, 0.440761437683049, -0.489754643357717, 0.45030270895894264, -0.32018530881899376, 0.2655138170346689, 0.015880863462391703, -0.3707936318925398, -0.3945631527322273, -0.32270964900763904, -0.37801536506129474, 0.07751517184161993, -0.33324207391473415, 0.3562212912052085, -0.20072889270686, -0.6119015286868331, 0.10893149162716109, 0.3456125981554659, 0.3863843987895557, 0.3531043254044842, 0.37282753985158956, -0.5809756804942791, -0.2224998167271227, 0.27794574583415665, -0.7781273554827159, 0.5878382368884724, -0.44859581582456753, 0.10923527664239052, 0.8462613553790452, -0.21898968073620995, 0.19708138183272605, 0.036271506000903675, -0.65996862272616, 0.18974229128461517, -0.07867452730194902, 0.4540102266535039, -0.39913379155478934, -0.2965817222075525, -0.6005733757513374], [0.21581129816770717, 0.6310058305654295, 0.6838469776913443, 0.044984535410018234, -0.7035026172799413, -0.007449802586308452, -0.02972879477752846, 0.02980364130935209, -0.11244292121986002, -0.11843482181576026, -0.5640173987227882, -0.20547300040423433, -0.15674318821501387, -0.35662315231610475, -0.06442194252260325, -0.4672050573466111, 0.24651177887352171, 0.15088802512952065, -0.615137539736109, 0.07773590294624044, 0.25285320488251906, -0.34008872582209393, -0.2805193381936162, 0.6810012358433835, -0.032725980107589314, 0.36513887851633975, 0.5349163498964031, -0.03806286203768028, 0.6226696696321529, -0.04550599268328348, 0.36126742157273506, -0.2068623078190297, -0.5652002928061948, 0.34582626541162687, 0.1626008399100468, 0.5262364578180465, -0.8537343512934267, 0.045670942444351575, -0.3457209931250915, -0.2961924318419954, -0.44404263056444304, -0.5600336537233558, -0.47845869644912165, -0.2939272596841336, -0.6779627934121553, -0.8090594978074198, 0.3132185836048835, 0.18380194328863683, 0.15850390889292953, 0.1468074906414718, 0.7290696857437813, -0.035652110711724694, 0.23766151190943227, 0.16650808035923392, -0.01747617225080722, 0.9447174537862849, 0.11459308013864322, -0.3587664582605943, 0.16900989426269106, -0.7934867944152644, 0.5719812993926038, -0.7059906418069392, 0.4086782203755819, 0.9427781636678589], [-0.6523099479178588, -0.0014396497035290556, -0.3531244456186702, -0.32996898653473494, 0.595310192247789, -0.7149534258146839, -0.3168916090087398, -0.6189586572895426, -0.30415694841657415, 0.1245516944794568, -0.05591889194512069, -0.03428182887595721, 0.017481676838603133, 0.5997316282931636, 0.37593372101844136, -0.10984480206404745, -0.5896997393173867, -0.5573089602595989, -0.1326014841440425, 0.32611589860387746, -0.28947804885358674, -0.4607947084766504, 0.23858812544604213, 0.13988964767906104, 0.7798810581199355, -0.33498615681108945, 0.17006032380637515, 0.8552812884735406, -0.0571895302745099, 0.26393345160454224, 0.03229915854183896, -0.2521847164920319, -0.018705768926914224, -0.0075403108593343204, 0.05892431433084144, -0.4546286528107697, 0.4635414650527052, -0.5819767297591183, 0.18124413335511347, -0.614781276983714, -0.5520200974970989, 0.6814276025587368, -0.4102646358496441, -0.21843712125078485, 0.6705818232540166, -0.24927593504278034, 0.34518086475280507, 0.05443838826690628, 0.20097383533138047, -0.8350515244549911, -0.439961535911884, -0.34145195994697586, -0.03278204858926115, 0.442125219027354, 0.003009622370266807, 0.7226351176713259, -0.2539478944616578, -0.4633308420724903, -0.203253944946592, 0.6802096390380501, 0.037912637447525266, 0.08119237510417743, 0.2275497949260099, -0.44123093088759574], [0.47706387478749546, -0.8085461031931093, -0.06275515609997273, 0.21461801907861489, 0.03167406781552706, 0.4003655018753569, 0.1883588765256421, 0.3679706578872275, 0.4230896099368725, 0.17583657850824796, 0.47088556574407947, -0.04103746791358487, -0.6874860098715365, 0.8547206006534507, 0.3470263666643413, -0.0909378516085152, -0.26627396887276045, -0.0513019995023023, -0.35526036092279545, -0.2245006207685213, 0.27951665843422746, 0.5503286268704858, 0.4833412576739464, 0.41706623492913697, 0.5299478821714201, 0.1409259283072124, -0.44665186913792865, -0.17485601903947856, -0.4188549219554413, -0.5237949928589122, 0.1339472233114146, 0.3449383649975749, -0.5529118750225689, 0.24665757983937364, -0.16851443757429185, 0.1886516211516437, 0.3686241584995451, 0.2108606072240149, -0.5529716508530733, 0.1376975972029727, -0.5617623763683461, 0.1554068496739074, -0.4170166165866793, 0.24420597910960828, -0.5265908867301967, -0.331818055106994, -0.3952450494786207, 0.1977165256047142, -0.42879526124917333, -0.11879038413036969, 0.5022200110627983, 0.3084257850219094, -0.09104168407821345, -0.939272900043381, 0.5147611828555648, 0.11601653788566921, -0.7891334466149189, -0.6164364828271945, -0.2080684100819601, 0.03853074555834923, 0.7401418380855013, 0.3697950468736439, 0.525619745584885, 0.3899121309646555], [-0.7653630742049495, -0.19689118953198503, 0.2670999554625334, -0.10053790592891576, -0.29299779536744563, 0.13764990053163279, -0.167680955771895, 0.43328373505576456, 0.503281333112296, 0.48444642794432946, -0.3103799442163072, 0.5409133728337515, -0.08643861167501274, 0.6392352194663394, -0.4577008612161056, -0.35377896937032394, 0.3764655595266446, -0.35480277104724844, 0.08221722172222873, 0.07024079004119432, -0.20991589939696986, 0.024184942586082954, -0.23104850253940767, 0.05243707908240969, -0.09639034612089364, -0.4135347920847755, 0.7498733635559461, 0.7665103171644538, 0.14506838494217766, 0.4453583549477962, -0.1539555611579988, 0.3502979927807244, -0.31525974891901243, -0.40429257006534625, -0.02327415711733416, -0.08472767486956645, -0.08646004022001763, -0.2884380512987067, -0.7143168580720096, 0.10260795019077829, -0.497925817344539, 0.2215485325041377, -0.1564991202882633, -0.5168211613499594, -0.42039904957497365, 0.6105243386350199, 0.37434831669316204, 0.3182668329707399, -0.29121192137167096, -0.4282215272504555, -0.33496435073565023, 0.09883316138672116, 0.23987031100734213, 0.24858173507634496, -0.005731508934711194, -0.8561377886306676, -0.06265439615912649, -0.5729857836637618, 0.17400874069125738, -0.32205004565292217, -0.9554175627143998, -0.14201620191964093, 0.11254463228853262, -0.5631864105252478], [0.49928977068665614, -0.5155205678184938, 0.23885372649351677, 0.08716341837448749, -0.16159040411226278, -0.15236514059511783, 0.062396422579010014, 0.5317981607684188, 0.34055512008974625, -0.07266858692810041, -0.03774680692377108, 0.36789328032625257, 0.030471718691469474, 0.1286156940860902, -0.0746999934576622, -0.45827643357878334, 0.5621271596676233, -0.8878115354697376, 0.5058897635794668, 0.12846584144794493, -0.2761719728370109, -0.2618531043499601, -0.13889591208399532, 0.022980257293435336, -0.06608037932019206, -0.09276183452200909, 0.43876071794854155, -0.4883963148856968, 0.3716756908923261, -0.42172842059996396, 0.13103118792436663, 0.6172819285569708, 0.5831645805265808, -0.2184766598307415, -0.3715640498986143, -0.31611943702390455, 0.009817985669533846, 0.3701838454021642, 0.26907809727860743, 0.34483823608520925, 0.036841568749558795, 0.4638097927786061, 0.27624571541065945, 0.6756172113852055, -0.1450247479017216, -0.19772761637906622, -0.5779540210003588, 0.5431834100461932, 0.039919023564047196, -0.7165457144085725, 0.37717013215602524, 0.4948499065384697, 0.108081643633913, -0.18019776235573837, 0.6035044436278276, 0.674537429191143, 0.009326372266528271, -0.6641311690402222, -0.3874932544677848, -0.17686824405214513, -0.1784248181437369, 0.7307820888609667, -0.3465806689130294, -0.6276343301227044], [-0.5212151533793125, 0.44338425362689715, 0.0964290140229643, 0.43459514452548964, 0.0356569327057108, -0.029751379885351814, -0.3774973755571135, -0.7147326836769683, -0.6647806365168422, -0.15139930536759483, 0.7528264460392086, -0.23746133640596156, 0.36407558568153275, -0.1956903300934365, 0.05052655220140234, 0.059663374387699045, -0.647933875108313, 0.9059478528335203, -0.5806397883539822, -0.1141066751345872, -0.1668427939105379, -0.050093550293770044, 0.24869303816917288, -0.22863642495633874, -0.028178590468132647, 0.4576590927096787, -0.10545023838351353, 0.09238362349290496, 0.3589134783335942, 0.6183352273576271, -0.6219562212590002, -0.15632437183408554, 0.45598564301618777, 0.15882210777571948, -0.7940469985166841, 0.014198545868922219, -0.44410919826901984, -0.6094365686535759, 0.5162550473211879, -0.04928323591888273, 0.09930812205237882, -0.6627670614807021, -0.8650489891537416, 0.7682361720291842, -0.4994967058404649, 0.4531655655702975, -0.005800298501198231, 0.6519186560393612, 0.13731242006764388, -0.03313783462666739, 0.3439859948112274, -0.10852913652058904, 0.09257292089725111, 0.14157288426906858, 0.2718485716766469, -0.02373165611335204, 0.6585426787827813, -0.19880367446935077, 0.7193653125087892, 0.17385006826565186, -0.449841011591371, -0.06312571105768983, 0.11428764412476888, 0.8106703936973789], [-0.0014900909113914063, 0.6934853911048873, -0.25343543186476425, 0.39193900495242995, 0.06270020835098544, 0.15156727047789853, 0.5774363525797047, -0.32241122458809357, 0.33186657028144884, -0.9108226775226297, -0.4962471790547252, 0.11751695985384347, 0.0961662499258783, -0.28920612802883316, -0.12305043399731297, -0.727022448477348, 0.8357025346836504, -0.10878675778018199, 0.425113244087871, 0.5824292047607738, 0.1391321429829846, -0.48505935432777725, -0.06537414808212871, 0.33491511139022145, 0.15717761763847504, 0.4947662562142957, -0.5779729761605696, 0.14556335877480608, 0.16507019548981083, -0.6396528130666115, -0.16427301153752327, 0.206052848110844, -0.20727488497428526, 0.524957297725529, 0.2748572390644586, -0.34106028003932365, -0.10854575602556366, -0.35913687434232433, -0.13321917263342686, 0.7887201711677477, 0.15613602772670454, -0.2810198256695259, 0.047624916115569516, -0.2296351873528042, -0.15187937904462867, -0.7693547065499003, 0.05213188105298289, 0.4579959837839903, -0.18618391622328134, 0.05527598834994596, -0.3179791588799311, -0.43451999136486485, -0.014733146226316829, 0.20037885981348813, 0.5675486198995187, -0.7686953187048736, -0.44710721503861106, -0.9770843298695485, -0.16120796294330486, 0.107398645486938, 0.8317070024462653, 0.037506393275702155, 0.31145140325333864, -0.7561863360993223], [0.25457884423507104, 0.2967350832547848, 0.9544263378318828, -0.11513316411330876, 0.15011657116242016, 0.4439697112220472, 0.09252775656699808, 0.5672600418436079, 0.44116751005661203, 0.7721678663338458, 0.2285445580683576, -0.32773210654319607, 0.10206378062208193, 0.7459165362799292, 0.44477676640043295, -0.18254863042304714, 0.2167956747659101, -0.18561514124578254, 0.32330549643747664, -0.4132215137106977, -0.364353937818378, -0.29768576109724354, 0.37996316455694973, 0.0361585503760109, -0.8496812489957929, 0.8859696497425461, -0.40866743015643314, -0.9200843334278297, -0.09793586090633377, -0.6741122677421376, 0.06719853640079954, -0.22532684688281535, 0.11509683230345302, 0.3441811664292803, 0.5732541157478429, -0.3411360091063207, 0.44792715371602265, 0.332174257886768, 0.32285179442656275, 0.4979489086610477, 0.4225228107858886, 0.5484122578351858, 0.28104472740607667, 0.1897225962799058, -0.49550190989541887, -0.4833007820634224, 0.2893702776140476, -0.6506535447854711, 0.27084633220520987, 0.39988277114673704, 0.0428010854573222, 0.46408744244810707, -0.3050983015388091, -0.48868057357681305, 0.5673144338442999, -0.33823862683005257, -0.0879018527956289, -0.40987591761280295, -0.6463480960081475, -0.9628772800670045, -0.3491250874223022, -0.4109501424513242, 0.268322055206402, -0.1703629039730601], [-0.2680015236109772, -0.24647200467845698, 0.7503113244486106, 0.8466721669704742, 0.04356882239762305, 0.03189948457971015, -0.3435042160900631, -0.8802237514014992, 0.10216715817451805, 0.21862954373926224, -0.31392870700058684, -0.3134808013332868, -0.1567719286606336, -0.06298700101823917, 0.31885326771262823, 0.3801052381046104, -0.09365300204738708, 0.04583784110286315, -0.9793418242694434, -0.48004667409416885, 0.5143924002389508, -0.0026497675019530043, -0.6062182454599914, 0.9088036670294024, -0.20806398216627942, 0.3115360862848059, 0.23953112884792882, 0.3764395989578624, -0.6411110083848331, -0.06497360369150995, -0.3175601768165748, -0.3791201773734316, -0.08580409571743719, -0.7141973106881461, -0.1248836051605764, 0.09297441158659558, -0.40163168157683615, 0.116368694463937, 0.3673211046047808, -0.12333428406551594, 0.5243937237004573, -0.3453759272814582, 0.6468394928715053, -0.17118163109113682, -0.6977592684831367, 0.05215795167013426, 0.18854772774867706, 0.4430542876924145, 0.8026643204088089, 0.154501023197544, 0.2453251009348033, -0.38532163082620663, -0.14501776679959846, -0.741530247237509, 0.5759448287642199, 0.17353232954252945, -0.2100607901928926, 0.26520982742934585, 0.9127429025652887, -0.3413902013461552, -0.5136716855247828, 0.6141469205157196, -0.467074851476008, 0.06970789825446551], [0.3659387597326451, 0.5332140854859369, 0.4284118704516149, 0.1729752395527615, 0.39945127332998365, -0.4798219024976962, -0.6943502397616397, 0.9485632261903194, 0.33447054463904136, 0.3326423711203259, 0.4418436327915376, 0.02585008690268964, -0.005948707859567914, 0.8974786985314107, 0.05181310327309907, 0.09161247201368672, -0.7112792529710408, -0.10094248086166335, -0.5520717759696464, 0.2651455782252836, -0.6336160138035235, -0.4618940504696174, 0.8085403871660324, -0.14184654183239928, 0.3216689757605986, -0.39189610182429513, 0.6707409264835681, -0.055034718552651296, -0.13489400945233226, 0.4516885771755381, -0.10282578123216135, 0.3325674906079822, 0.1354754205169928, -0.49722875138221156, -0.5854647269593688, 0.04846381817405454, 0.8813429568888068, -0.309434725870641, -0.20799224616493073, 0.006985916928702041, 0.5093096131182179, -0.16102705667202596, 0.19546567031853568, -0.12678367703976084, 0.10601720105700169, -0.6533340817013765, -0.2782244251187647, 0.12597567028299916, -0.0520460975662036, 0.277251512200796, -0.31089834881351774, 0.41998335337873083, 0.4404456422004608, 0.3680244044156339, -0.3972860809281774, -0.4584554323854342, -0.03080151882278348, 0.136623105095124, 0.003682115294562853, 0.49334215745650445, 0.1184067995255732, 0.6923550252398982, -0.20553223011907573, -0.39865313661123114], [0.3322886708893748, -0.34780287986840186, -0.46156491881588757, -0.47173387524820554, 0.46508650517671757, 0.6159452620259814, -0.07572272971268917, 0.23754763142764485, -0.6678889363835594, 0.5466841714200503, 0.0349589239749879, 0.3010098649633672, -0.08242510325913144, -0.7204051519683013, -0.6092376782122437, -0.2894897158258588, -0.49038213399652764, 0.4486200512099301, -0.3848299403649328, -0.7131538523497513, 0.2232204603342023, -0.4175163731328888, 0.3066311070538199, -0.36402748199990287, -0.2243783515905663, -0.4968627238511861, 0.22177991012610465, 0.8232992435614971, 0.27839228556052187, 0.40067769065532016, 0.365464876997629, -0.42968592032041186, -0.2880908829215305, 0.2473862629998816, 0.16225745599772934, -0.6215292453546835, -0.8964408734942539, -0.5004009622343896, 0.2577719992370505, 0.1278916460730749, 0.4575062911526671, 0.8352425499944505, 0.6023278912682565, 0.3108972348537774, -0.8243846764514342, -0.04874213894191304, 0.30338267227352855, -0.3933069040846635, 0.0654478954798825, -0.10000081060207455, -0.19678760412761542, -0.31247116638100514, -0.6870860967873726, 0.3475713569740926, -0.15234925492026127, 0.5069316525449641, -0.42059813004238544, -0.17184011644778274, -0.002008283199575467, -0.31998871618253333, 0.6624609496301173, 0.29766431664715853, 0.28826003900534525, -0.2976495860471742], [-0.6368603587625026, 0.5554468745206144, -0.4235417086166439, -0.345485351335564, -0.5709011305653843, -0.7702333909976131, -0.03487421622036069, 0.061329499276306376, 0.23540743399891506, -0.3735376099387352, -0.020277748003142637, -0.016885586340389724, -0.3835113314655131, -0.534954539121449, -0.2248241564092155, -0.5500562634414873, 0.061924969802002905, -0.191311037789201, 0.11300879642243244, -0.24478194702706754, -0.5866040088952241, 0.065707639154294, 0.559819579187608, -0.30622190353408896, -0.006348328924024926, 0.6691794021316329, 0.017824841511966616, 0.3997596825804064, -0.17746602200406725, -0.211485482813632, 0.7166257454544878, -0.2584952247188964, 0.014338564347168514, 0.10935808594655405, 0.7444652141904348, -0.22626130929211397, 0.1671349629240365, 0.5399713115586278, 0.25948784053673124, -0.03938364479733436, -0.0984468610054614, 0.24674246793365584, 0.15702485740675115, 0.44760372292389505, 0.8316063240037914, 0.334989902923429, -0.18122253916888448, -0.24757656761943858, 0.2246332693711678, 0.03234074098944256, 0.036815823493724364, 0.2876999666713953, -0.09418448344907071, -0.061449392793844426, 0.14208150225072314, -0.17070511097661506, -0.5724319206813624, 0.7111077980704663, -0.5658308627748, -0.4289290340393074, -0.1752418837946453, 0.29398464727860174, 0.04056074319522662, 0.33269585565866067], [0.38996952841545507, -0.25853273414472533, 0.2043537887650717, 0.3163200857183086, 0.2730940688306054, -0.21151739807199077, 0.2844551017874749, -0.22714795271414412, 0.194555855510282, -0.333941033140856, -0.21357282796375876, 0.49900499948879284, -0.19647581365994005, -0.6581645991278577, -0.2619394807973676, 0.46507099057944634, 0.6039236106691467, -0.37694342877025894, 0.2604141830978045, 0.6201621857215218, 0.4637850233500945, 0.31212120236172947, 0.3807339735426932, 0.4903665144189213, -0.8692197808602028, 0.2645731068890037, -0.28827625903813714, -0.07090004029589103, -0.06466265598731014, 0.36641070345757076, 0.6821757202924149, -0.5704955748642491, 0.6579374478157122, 0.7072578916082723, -0.2687569392085257, -0.5538211615213152, -0.42337349244212563, -0.1592147237332574, 0.4119493762850882, 0.6873024432116268, 0.37717319024880236, -0.6523176316290644, -0.45328417890021844, -0.3961064817311144, 0.24204233541069917, -0.10936920924604032, 0.14447167487540996, 0.8106561420662723, 0.7534054510347675, 0.15111586813061745, -0.6358436579824375, 0.15707311331042556, -0.2593139856291208, 0.4173278364510743, 0.6301972588205792, -0.601072946697433, 0.7325072072006806, 0.02273988983240549, 0.5388676581159279, -0.1627708344683232, 0.30255606341153385, 0.32014158393204895, 0.6739338549175835, 0.306591766126484], [-0.4646858418534272, 0.1376483495007086, -0.08674072078457906, 0.05726364975150999, 0.41889621315607484, 0.0008683422209930791, 0.6098712370536578, -0.8589540424501353, -0.4259135956987411, -0.9150261921401436, -0.9314451759293785, 0.004415044854309658, 0.26124228987939535, -0.21583760662335139, -0.42482446870898694, 0.679321364156853, 0.1613650892132451, 0.39791177763386143, -0.6815769913758579, -0.18578514492335052, 0.1835094972259529, 0.27415392709710307, -0.16488621003296744, -0.3484588985893105, -0.38945103120430735, 0.042556573805421855, 0.5628310386219344, 0.14945370536178904, -0.4600565820527722, -0.30543462786678277, 0.3491110451321351, -0.05039339053277225, -0.8291604871741494, -0.19405333915000733, 0.19193574832571203, 0.12420147589087949, 0.8166375627989797, -0.5345465224352803, 0.16135995743318832, -0.7802144242954839, -0.7618156366847129, 0.7721929127560496, 0.3893114021287264, 0.07985487541214364, -0.2313523499825505, -0.04594788492067392, -0.4970683703701605, 0.09075282007931706, 0.44863371503053917, 0.13119684274294918, 0.35796933090247157, 0.1671721544376188, 0.06642414027011848, -0.16033544693161128, 0.11981952001474083, -0.031237384567941895, -0.1102022206958877, 0.32618219171773416, -0.7186294939758459, -0.5445969631567507, 0.39355715138356345, -0.4090872624074716, -0.3832337981189099, -0.18873638693347738], [0.23562537678937728, 0.07088457258952374, -0.08063758026456802, -0.2602471974605642, -0.21493692888557903, -0.024929740630701712, -0.05089597312277094, 0.1501920930643833, -0.8738803256212476, 0.3988837001465444, 0.43312575096153416, 0.2475997308134491, 0.4702835317002574, 0.73241475340002, 0.5163427138200635, -0.3485293775202661, 0.9611444933366381, 0.21949101123993087, -0.6347166569770385, -0.2676248453667207, -0.4079067091082553, -0.4477395518287401, 0.1027876939068384, 0.5744845304715112, -0.6553838863849044, 0.3854159630722881, 0.5221854983209601, -0.2775126339062163, -0.1312813899846328, -0.14699019351898857, -0.10451456885833427, -0.5614070403015581, 0.7580405474439613, -0.6972390430482196, -0.5087537366534423, 0.1182222064704144, -0.4575458310059839, 0.042892796279255574, -0.04031306809524904, -0.2506888485100844, -0.07677549629947045, 0.38872285913368987, -0.06087707852416169, 0.2921712013403943, 0.0006348405797974577, 0.8867829729799741, -0.47965998312855096, 0.5329183150365918, 0.03569116157655883, -0.11725404725545618, -0.41463344394891033, -0.3741102753381653, 0.2989242539273408, -0.57039537726087, -0.16478130929438406, 0.0831379292142227, -0.6633416429158899, -0.03860598715455754, -0.48502501802963716, -0.084837645022115, -0.5132756564716943, -0.3336909698228746, 0.5225990694042224, -0.04412466409602667], [0.046031279272425785, 0.7427897232814, 0.12247554371165392, -0.04227798613826482, -0.2915616928114334, 0.5741364044738164, 0.11049546425287671, -0.727694063989679, -0.3518697213599714, -0.18228023233251378, -0.6433749901953076, -0.5487944528584549, 0.6782981929154603, 0.03506251828058604, -0.3097655034902308, -0.865476173782249, -0.007646584827150971, -0.10713934058098318, 0.2699065088514515, 0.4539642442609095, 0.18397215616864204, -0.01627202462429117, 0.29609566522136066, 0.7952282001868447, -0.1848511580751927, -0.236973764992924, -0.07018363282517173, -0.29869005370295165, -0.520975921795208, -0.5057132199303807, 0.5038514500226686, 0.13424835736188614, -0.0005252448940371579, -0.4922638115245752, 0.4085788082894265, -0.08837195997352476, -0.06336508322029877, 0.46136241713345616, -0.22432657031847114, 0.13897326571082014, -0.17196953173915552, -0.07284271788862673, 0.36091442099764715, 0.7868899604409866, 0.2234668971856375, -0.47493119385564875, 0.14739494526702868, 0.5928155034655608, -0.3293835792225466, 0.43878473519405614, -0.6860319821667752, 0.06553921779062366, -0.08467427281478612, 0.02699513309314905, -0.3901398161353772, 0.8238352605064541, -0.6368356814030768, 0.3930193112310658, -0.18393747310563202, -0.25669468965383435, -0.3481433899186356, -0.05365287025717824, 0.03177792023696824, 0.16890142913553707], [-0.013096523403337779, -0.2482974332565825, 0.458092078722028, 0.122248828560377, 0.354656144406417, -0.39192315903529407, 0.2278650054525616, 0.7098868550339665, 0.4355962719358535, -0.5885266415675995, 0.5550225990100327, 0.7877694836412139, -0.06636072280645211, -0.0347808844983869, -0.01834378532237968, -0.36814450611265326, -0.39021337763196884, -0.5835929009546518, 0.3539172872754348, 0.9454480689569184, 0.6738703272577807, 0.09521751072502294, 0.4749965614205509, -0.19976636529036185, 0.21962187966023217, -0.6115974389062644, -0.712015153067115, 0.2197458201209609, 0.019803920891974025, 0.49090511179686386, 0.1329632187778799, -0.7539869536121852, -0.24273425227448575, 0.28010561851576765, 0.037191996023784535, 0.4978809676971845, -0.7179756122111224, 0.34071920065769046, 0.5550962764410068, -0.09531167448782041, 0.36256485521941706, 0.20378320876786016, 0.4025101439296497, 0.16055440067036753, 0.12479257597646543, 0.05733809069362626, -0.06382125663999061, -0.013244206062192565, -0.16544307628998, -0.30307645061867217, 0.20144034538349254, -0.2596926673621708, -0.32802976265210404, -0.5662260079576482, 0.08872182954955565, -0.34159689581092145, -0.646232668791757, 0.3246732719723896, -0.2511719585382137, 0.32112141420572116, -0.42396017029141375, 0.05168000955669119, 0.24879695383437395, 0.5495788431028382], [0.4565938174131159, -0.8755003685330345, 0.5976441399341144, 0.6085244991667076, 0.2879232972034407, -0.08505799884432863, -0.8060521391704772, -0.15354347938060153, -0.11563682355070226, 0.34070264565347474, 0.5955238507743806, -0.394413732934083, 0.3647893344788734, -0.12514914400355276, 0.5006257718108518, 0.10001933225654747, -0.20722689187770166, -0.23811940750218363, 0.5115304803375915, 0.9204299080795835, 0.3327844023536195, -0.027931312673768693, 0.3008307928271043, 0.908213379607059, 0.237953026772728, -0.03175587686688752, 0.6941157472610304, -0.5401693925166527, -0.5952418512157817, 0.543851684583868, -0.0567613069609163, -0.515585728559869, 0.8672806569638261, -0.12077734024616038, -0.47061916978805823, -0.25257855217722514, 0.2739593425698328, 0.2225771963361226, -0.1698607217921455, -0.5114038901085254, -0.424327216180749, 0.025558700228662024, 0.9424913879365454, 0.27396846451548196, -0.08727623515368399, -0.2391015228200839, -0.0399236874586372, 0.3047182908422297, 0.4113308290189943, -0.6412608576962293, -0.3358258799277114, 0.23421810519392272, 0.1166350848251414, 0.19096427741424543, 0.7231039421542701, 0.23367412454442443, 0.33654050071458685, -0.19024788487511757, -0.0868608440556694, 0.39279235349258934, 0.0021630957849469237, 0.520367560350512, -0.03222875125319358, 0.800802324391126], [0.6674773872148972, -0.7093267876803366, 0.08885836562592286, 0.22999668933056994, -0.40468844310764496, -0.11009782544740332, -0.09334418854919407, 0.4351764363303781, -0.35991518418563084, -0.03844827454665553, -0.22807818593252138, -0.5750295819951571, -0.5739014444585787, 0.002054080349062626, 0.6857722678876285, 0.6474471025074782, 0.31567330719098774, -0.443822617639562, 0.8361775186799489, 0.24771915205962025, 0.2980307877933655, 0.014206174536152916, -0.03234499055816942, 0.22075531552759664, 0.3710536096304454, -0.13857561927253526, -0.2008962790826191, -0.8836352515648971, -0.7529451891380583, -0.0012301831581191802, 0.9388173093525591, 0.7251583996080255, 0.05871170347559129, 0.30509438889689067, 0.2668122089712254, 0.1556772089609446, 0.1338941914318832, 0.17077450980585185, 0.10503593173096581, 0.11673671714013512, 0.0499087425364797, 0.002297912431976634, 0.3733577018225086, -0.7161984772253113, 0.11536765203995003, 0.629397478064668, -0.4499224625757331, -0.45602023354620735, -0.17460412581994153, 0.518392379467277, -0.052556014229322545, 0.4652828066757596, -0.6292599950343288, -0.14352022431714917, -0.1589424182595962, -0.18744972689806294, 0.08452899354086518, -0.13104682407795976, -0.02720632257230793, 0.0005315781328256719, -0.07385358631350791, -0.11097543903645823, -0.034664754135962594, -0.5779271824502915], [0.050412218581764034, -0.04555950829144839, -0.061162635686485944, 0.8081302708661984, 0.08782268713808405, 0.24464748565298378, 0.08743826850716496, 0.12390676165895764, -0.05970803328879948, -0.44305874257407096, -0.30988139034263074, -0.05321668596428013, 0.3591440011108167, 0.8163024852786134, -0.24955576075881236, 0.01553028926059108, -0.016598621046511608, 0.8486002626081206, 0.7637008910145859, 0.2648998902936741, 0.11883049133556556, 0.3543998570619388, 0.927993994699234, -0.10729311268594599, -0.7481840485450042, 0.24424203013203044, -0.06397629211004086, 0.17687978142080352, 0.6997688750744407, 0.8474878260367346, -0.34475372003175864, -0.32915757380149413, 0.1633095571199109, 0.3991915488825686, 0.09543302830317946, 0.753872481310219, 0.5193219295613821, 0.10321806692079638, 0.3163271575986011, 0.18331768944538784, 0.7486823867851862, 0.0888957116558482, 0.2695339261080681, -0.43566996385976586, 0.3502104387992896, -0.19035294079109222, 0.3756243528355724, -0.2342231670874212, 0.42179661070876673, 0.5456242158417703, -0.5758554301493695, 0.021339577218163264, -0.39709382015179384, -0.19292647824365639, -0.7626924186858384, 0.19566897584483778, -0.19626163035158106, 0.6442315485419204, -0.7447352342378273, 0.08863494114468362, -0.30160467497663457, -0.06443707903395868, -0.08793806015247951, -0.06473552480718414], [0.6166320554099328, -0.4018700035467835, 0.6480384568730436, -0.5110511192837978, -0.21338364655037673, 0.3142265224449212, -0.19995668482789988, -0.2576243276785054, 0.33281790271931977, 0.31422397018109716, 0.8592020805625283, 0.07016177158954146, 0.008916064521003658, -0.1085186518935756, -0.4840674109429667, 0.9436219257581092, -0.008475442118921483, -0.6935292336747023, -0.18408695601620162, 0.034312964753496544, -0.31914344294744634, -0.556864699610242, 0.125611203992886, 0.42978989831863645, -0.11827031921746278, -0.10058203631833579, -0.5311806284129523, 0.2706730846887001, 0.3442736617209654, -0.35770491143680494, 0.07693856749705741, 0.23877964493801596, 0.5718294160727273, -0.14885405655048967, -0.2203838348771, 0.11672238081151776, 0.5483883151363604, -0.031695991496995535, 0.7918541591174499, -0.6353915474526775, 0.6055246746117686, -0.46055222459691003, 0.05293359371176809, -0.61063110753829, -0.7717650436879606, 0.10973996643179729, 0.3760274103675297, -0.08735317758808125, -0.02491725589601468, 0.26278746076639403, 0.4407234726070234, -0.10195266204304443, 0.744488218350225, -0.5129075070770136, 0.0747720523598574, 0.13609464569614071, -0.6013644269270451, -0.5102806762842004, 0.17345120875684913, 0.22786870171677825, -0.06091959420079052, -0.845220548626685, -0.4380623111925892, -0.6197801032717625], [0.4777985715033277, 0.4204438199304398, -0.01615742058317715, 0.5611129262027755, 0.9489647414191669, 0.5556041545647495, -0.15010547244118755, 0.28847167100274507, 0.4388308960498666, 0.17837486992664298, 0.042986782970136916, 0.19355124893427988, -0.6426542887544437, -0.43600037182306395, 0.25062547588989914, -0.6805848709123301, -0.5075697699823591, -0.2036190342902604, -0.26952110642317056, 0.9186999945619556, 0.11666571695280104, -0.26594418024410105, -0.49383735013348884, -0.49265756671104377, 0.12718705446179893, -0.33443547081861447, -0.6496988875389038, -0.1928378254503319, 0.35343081511566554, -0.18844839230279886, 0.3383112835958648, -0.5630240412775213, 0.09787816257159832, -0.276171891913328, 0.01828051979996026, -0.14758045592625124, 0.6900961928211967, 0.43231883474994814, -0.5632865562148457, -0.10191882215258952, 0.36112700118043217, -0.7964163141042575, 0.3115046410466108, 0.36935118303501024, -0.14272586631796413, 0.1947234943147454, -0.17802199367701776, -0.09421485765835336, 0.10386071000993158, 0.2478265291196472, -0.6073300895153235, 0.3683382083603244, -0.3915097420574669, -0.6636414296524834, -0.16943639815373074, -0.4192661177235337, 0.37095096604268574, 0.39808426742399783, 0.23062685817096518, 0.22986790496351606, 0.7251399393512176, -0.8514207645655288, -0.12005453599876437, 0.06481920611491009], [-0.5854888799569935, 0.20737476217262896, -0.6293700446568384, 0.4448274911214609, -0.6143067418395486, 0.3560079585171554, 0.19735610545474147, -0.17097835164120787, 0.2217176645318064, 0.024053693140620114, 0.6024214308037289, -0.21823741828025234, 0.09560887689477593, 0.2891972456284949, -0.8463202584064727, -0.29717087578058254, -0.7558190642305943, 0.0899442941980596, 0.8772313432597889, -0.8465532708604051, 0.4109012841895888, -0.048401424291216966, 0.10712433891423528, -0.1529184340801063, -0.5535037708938266, -0.4454542880365072, -0.09655499456806604, -0.5038387754467142, -0.4131455967875217, -0.5373710813563237, -0.21763001983756408, -0.9857206736627491, -0.5374472071093289, -0.025207081968068534, 0.5794898508165468, -0.46301964307130256, 0.18186844680155967, -0.21460934267391574, 0.061910113529638156, 0.11740843992221983, -0.0960693685002173, 0.32633300560544753, 0.8078369893827254, 0.03878478565830512, -0.4348246326506352, 0.33182024500959084, 0.2626425456324236, 0.053210999118013635, -0.8941553787568509, -0.125426920791475, 0.30023889617361255, 0.1859517702095237, -0.10020632661346718, 0.018576600288356004, 0.5629558346050155, -0.03570799510198985, -0.29322808519070653, 0.031932293677858214, -0.06394100358877242, -0.08219653956445527, -0.21908121611203069, -0.28749253668702535, -0.47584450844772475, -0.38773679615847934], [0.05476242098697248, -0.6728791328718845, -0.6576173670859865, 0.19292088560765025, 0.031498949546207355, -0.3577092731730974, 0.07161188217170222, 0.3924690158661804, 0.06804374151489179, -0.46864571979939407, 0.4122480310461921, -0.13952897146413767, 0.1515196967118756, -0.4334888364136916, 0.47465863807453185, 0.48702313149512944, 0.046458225023294386, -0.032410497720229525, -0.6754055787238759, -0.04938227144358953, 0.4297134435698746, 0.4703761445539476, -0.7035593192579773, -0.2777436486498311, -0.20347352948484454, -0.8569569205938407, 0.36940414987715486, 0.7327582929621976, 0.159914969686201, 0.6571897512264441, 0.23218368113851456, 0.05506724096739646, -0.7932241295305784, -0.05461137335857247, 0.43171089301362364, -0.4582098998437114, 0.4665199768903632, -0.3142327308697911, -0.22542058245198496, -0.026697016724390066, 0.7817190180921292, -0.42278007841147236, 0.12793990157872281, 0.438261072800875, -0.1616925852669331, -0.1526725431530429, 0.5114292759207266, 0.2768911199815517, 0.2070346683992017, -0.3040524328647356, 0.17413362851644273, 0.2538741919613331, -0.5229940484317037, 0.26993426013325506, -0.6567302599688493, 0.013722531095750279, -0.8475667540731228, -0.6765730377040229, -0.07556741727703589, 0.3252970117311455, 0.15349229073178672, -0.710709435870633, -0.22447857350493491, 0.10968059433847144], [-0.7548477381550115, -0.5482479807586308, 0.5442494957340829, 0.4085063815664266, 0.13254631663120525, -0.347158404400599, -0.5205412108186444, -0.010720199925205676, -0.7628938240286846, -0.5893068007344504, 0.16310300620137433, 0.39011002278259144, -0.18540434795338656, -0.03578917921515812, -0.3907805162361887, 0.37396842532510244, -0.5207425203760938, 0.18183834073810062, -0.0025982902291198373, -0.75925607894416, 0.6603717469740457, 0.5132387427064402, 0.5657371265091116, -0.09883467713157795, 0.07198803401527454, -0.1800685159611426, 0.04314066172684283, -0.4420777047179144, 0.026797653621121853, -0.510300611289987, 0.4086361603939833, -0.4012974165093599, 0.02528733292285068, 0.3264296289902334, 0.485591749738954, -0.2963410321186545, -0.4262961989496695, -0.12006815219809164, 0.03214202726245019, 0.4535093500353655, 0.4156021588525971, 0.7827897260944462, 0.24847974412233653, -0.1663648133969673, 0.27952692199937657, -0.1424070446557136, -0.7248862671551232, -0.5089422207671351, -0.515943966513283, 0.43783877078192923, -0.6051264914054229, 0.17280029157959476, -0.3099411253552347, -0.18133368816042317, -0.07765866130465127, 0.1552342644747755, -0.17592957502231965, 0.827951458691174, -0.33839431219329213, -0.10771831010098659, -0.9764505894836644, 0.3972966238246437, 0.02360477483130996, -0.06689257515288505], [-0.16384030524593785, -0.333853586913725, 0.4126822135417417, 0.7315078147448446, -0.28423186208103246, -0.2062295351535, 0.060185203001115295, -0.528836657937924, -0.3432372700684446, 0.31258425448062965, 0.521239689669274, 0.451226417139774, -0.24303314367706474, 0.18661001939988286, -0.6056599274327978, 0.0534646158907095, 0.07463904298172197, 0.007235487291035486, -0.5234381057339018, 0.07290712119077014, -0.4432996596519728, 0.22301654628250075, -0.038573606919675596, -0.12597535348530542, -0.08703811480422619, 0.2638080117095597, -0.17169576697377442, -0.24216057415004422, 0.26098232905715557, -0.20680913199597684, 0.4107293696481651, -0.469005522588556, 0.10856781575545837, -0.5086971919806262, 0.08711732934878469, -0.6139093555380782, -0.3098528493282346, -0.8380092535258528, -0.2751384816122363, 0.10793527804376801, 0.23882026483639185, 0.1821902101908422, -0.2391153740514324, 0.3985394093705751, -0.21182962680885586, 0.28847347464894024, -0.08506923066874789, 0.20800399054455698, 0.3036079959936828, 0.30278422073620215, -0.9723508013241408, 0.5039566060010219, 0.14597632584844306, -0.044054701790752354, -0.17462981692284185, -0.1306067888320962, -0.7699272010842511, -0.34237868815973616, -0.4362924229509646, 0.27970167044280314, -0.6085113820377364, 0.4119362423816738, -0.5721466015185434, -0.35335557844524845], [0.9322654387750474, -0.07783774363949936, 0.1420792543207141, -0.21264011495322954, 0.4359804311972372, -0.5878107165581269, -0.8887117461521682, 0.034294137111688855, -0.5838997250667899, 0.06888998556723314, -0.5417755064648037, -0.5495764431041993, -0.3572045796746277, -0.02281935116496067, 0.3399692515700546, 0.3469530896282653, 0.1842722677267845, -0.3749234006090767, 0.4407434737494226, 0.3025331406827317, -0.3404828147201814, 0.3139497436309172, -0.09324205661864737, -0.09938180784085993, -0.08366227218387778, -0.3204516226112775, 0.03663554578832062, -0.14019921379026595, 0.6843831735869245, -0.15554990736027574, 0.14295536971696854, -0.2858177738227571, 0.04214790021745363, 0.4320487017063884, 0.4429425500122892, -0.4781183447558107, 0.31561446799294646, -0.03639484660733497, 0.08518489801296067, 0.20941387696659652, -0.7649592407263269, -0.02559891893407118, 0.09506455601455432, -0.07268121314956721, -0.3336345402716384, 0.15409506909190174, -0.12533561856892533, -0.3107103700488917, 0.5493002718684246, 0.060903601108592165, -0.6866371935871539, -0.10042379842153915, 0.026134100490198042, -0.010833022853465046, 0.796836055539, -0.10498637755169282, -0.8228209599317641, 0.07705494557808312, -0.5747095596193361, 0.611445943366733, -0.014412044797160739, 0.1072642122877504, -0.5379130525650413, 0.6368779849814546], [-0.3500205431059195, -0.19916484979053306, -0.5094119349934654, -0.19301346400286057, 0.8192118902321477, 0.3527769912015043, -0.9618301236925857, -0.576414209321198, -0.8104506884171617, -0.4265020969890123, -0.4082283298680215, -0.3351527018869378, -0.43311341049866803, -0.4272377042509907, 0.4438601895163242, 0.6950940540187428, -0.0645064260209054, -0.13552574970363507, -0.03865269778119318, 1.055449332020519, -0.5352131633599385, -0.00198020118916864, 0.3107395074824519, 0.18774974380984588, 0.21299707193225026, 0.05062964756777388, 0.12050897429622609, -0.030325141390862176, 0.2027940550234289, 0.19278563145516725, 0.813438274826061, -0.5163635912842376, -0.38394343169897427, -0.5422109787243566, -0.26329117395555623, -0.3750719159118794, -0.05028230257503308, 0.14471359245024773, -0.6984833898440356, 0.238699510110156, -0.2702682648432201, 0.0551198499356369, 0.06450223098795083, -0.16281678329423155, -0.6451548630971156, -0.43877631390427335, 0.2679343192664465, 0.1827858950776473, 0.6419612969429211, -0.4613641892329871, -0.0207518254497987, 0.0558067667634049, 0.22032594380004078, 0.5836180730081096, 0.3392872667683261, -0.7199599214918655, 0.13814764246652073, -0.07418510064524136, 0.2588293885161699, -0.09455878660446893, -0.11873774883388, 0.3453231077528515, 0.12028657962456335, 0.06754496474354565], [-0.5351199263836885, 0.43343450940144757, -0.5701478632986673, -0.42397043730087225, -0.32221886882460793, -0.28736094564502346, 0.4492533261847219, 0.5058211545141066, -0.02177171892962837, 0.02731129414466449, -0.1383597935434061, 0.02404339366707997, 0.049189046875710685, 0.14481344101195237, -0.41949701086274704, -0.027815822456771833, -0.2805044427567165, -0.33640266574025623, -0.5509541380352609, 0.769589136852749, -0.07593964038428891, -0.7899562213318578, 0.18781767671052724, 0.06353059931243521, -0.06119301241456726, 0.16450758474741156, -0.35442695979719596, -0.3633117687731521, -0.16420600309533773, -0.4063836043621095, -0.3964808795617598, -0.025495989432461896, -0.038433229601822716, -0.6675352444285122, 0.17815162622041414, 0.08102647505952226, 0.28465827391143805, -0.6961327145524615, 0.17267892092150516, 0.021210120989544, 0.07850807208663813, 0.12452155195339569, -0.03346069140663688, -0.25762787108094054, -0.20951634215313308, 0.07135190209479048, 0.6098736335479371, -0.5432214377947421, 0.15733501751069512, 0.6296133544032987, -0.03742075775013087, 0.7826125695141039, 0.33285476533583813, -0.269563181776046, 0.1479225879768995, -0.21918618185365868, 0.5105538919852285, 0.5781280028745264, 0.06857143355674589, -0.3690637730681591, -0.6733271600000779, 0.2887141779257748, -0.23076847783844778, 0.16345650027904834], [0.03244985562463165, 0.2891109047800654, -0.8287446570039796, -0.4810297771608011, -0.139392143544104, -0.0015255990012235099, -0.49067631514161086, -0.4615305196658951, 0.4959275579181952, 0.3070496135016033, 0.5767259687463568, -0.5685684342567148, 0.17674704277952968, -0.012301140155662527, -0.05023337730466926, 0.025931695243498587, 0.6870895623438885, 0.6213458472023021, -0.3836989899420725, -0.13199518678325628, -0.07445684352234727, 0.2578976170684162, 0.5597751577773018, -0.25765666992911185, -0.3251396217035314, -0.1503639501643328, -0.22203690674422502, -0.06380537362932226, -0.20379538236254469, 0.2199113277547038, 0.6707738114016817, 0.5046790083900116, -0.0028680068287592064, 0.04796638315768742, -0.37579974895980617, 0.31724776975696634, 0.22511556387142553, 0.15667286322251628, 0.2924582878709597, -0.436594913773501, 0.7078176707669063, 0.12113362975616204, -0.320585499714064, 0.7972749124865228, -0.25833271016401893, -0.3189393680977599, 0.22857121807943104, -0.5688338342824254, -0.8913705106266238, 0.014185202196929425, -0.512012628665753, -0.6896101963095711, 0.004988314800640797, 0.8514196986285766, -0.32785283988084535, 0.016852753598749604, -0.7852052354333999, 0.5702121507566168, -0.15413433579417285, 0.2592217848001882, 0.1468732814849124, 0.5016730827754008, 0.1507217937887108, 0.45977580304501475], [-0.18976586616929125, 0.18989890097284057, -0.534265755735933, -0.22482398944348225, 0.179771781976782, 0.184886121520358, 0.747677453127343, 0.2460994896494787, -0.06618630932620295, 0.45211914118710583, -0.17349548469714582, -0.2638349605501128, 0.8916577292127238, 0.4413319197904044, -0.2660255112452483, 0.26606518036469207, 0.19553716298831791, 0.3688265033865583, 0.036956801666090944, 0.11543049614182366, -0.4759024558260182, 0.26654808311207473, 0.3939470610515998, 0.34056286694185606, -0.6458311871155354, -0.10103937043138683, -0.5082711310387682, 0.24786538023626173, 0.2448187678422814, 0.029414209717092077, -0.7566368963012946, 0.17026811641998962, 0.008117065179258254, 0.5480816565754689, -0.44913907541106457, -0.3216236985377232, 0.07411639116658253, 0.49593997111148724, 0.34577133893557166, -0.5941993058333306, -0.22217860315488935, 0.17177506600577996, 0.09487446031101587, 0.1527938815029325, -0.2932854831975825, -0.6560644979485, -0.21700377370499133, 0.029466416070238255, 0.31490575760103745, 0.709437134346345, 0.7009138956941, -0.06770457488349357, -0.41753544152333066, 0.03337093660148571, -0.3050134363290882, -0.16931024956967355, 0.11940573508431729, 0.5226090951395911, 0.026521993961792556, -0.36058300298006807, -0.565307564007633, -0.7907853510445337, 0.5198150590427507, 0.34523181153655], [-0.09394192550884861, 0.1079456504532601, -0.38023264077167285, 0.5650458934548177, 0.44617022560212394, -0.5241840375395699, 0.08387934952244724, -0.7877679100545664, 0.5063565698738338, 0.7963449152343627, -0.42929022860888966, 0.2972649814491496, -0.6583143000392593, 0.34114480541483483, -0.21006415624656816, 0.49097524081292543, 0.03959445775329218, -0.4722584765800041, 0.7006987721685133, 0.4963621843922791, -0.22345560744241388, 0.06768011296892451, 0.07540643920207613, 0.31874513835977103, -0.3331108195465047, 0.2269291985837992, 0.21806722642535303, 0.2716416569984279, -0.18245495953681823, -0.03648041176031258, -0.22781555978461432, 0.046694178668401864, -0.1576086000072443, -0.09167513725753385, 0.2942620235098272, 0.04943202252980394, -0.1787680217552286, 0.22197562584251995, -0.10157751487746336, 0.021204563301139734, -0.05292766830048817, 0.20754099446713625, 0.04171246369465087, -0.27509224960854123, -0.14867766845288155, 0.2520706776759055, 0.8374400192882396, 0.1585846970955137, 0.3077530291356744, -0.42286404283811485, 0.043227061773075226, -0.43413828991062164, -0.3749054571292392, 0.22946875030249864, -0.3221011346994934, -0.5694312831864352, -0.24541811854870743, 0.3557998055997409, -0.6650635053484756, -0.41654928969829674, 0.04725605627892415, -0.16406267036006172, 1.0159844329720455, -0.32464803966979283], [-0.2129108839656301, 0.6904801201870128, -0.6291907588408013, 0.053029154364066966, -0.45285316921593544, -0.160456975072522, -0.3729079783716259, 0.06230759863444868, -0.173278820736271, 0.3778286059394699, -0.17494398043318649, 0.18828932176585972, -0.6674158413620752, -0.22115421236067356, -0.004195645974680473, 0.5399257385724785, 0.0858610151868976, 0.19262927487175574, -0.10350169772221551, -0.282050576685003, 0.5639900197368805, 0.5760265178419172, 0.3320839600708403, 0.17647263899013022, -0.259527173237456, 0.5882745960505781, -0.13033133951542653, 0.08173090872328437, 0.0033692224264743054, 0.5845299777104237, 0.04491716108511101, -0.552679570594527, -0.7185857089256157, -0.3314329445973062, -0.32669818210914303, -0.15271466920768373, 0.12114323486922485, -0.11067193647924589, 0.027460534187209173, 0.03855376233948549, 0.23437702797043575, 0.19276339302060508, -0.18563745254511377, 0.09451684623495438, 0.8835816742095562, 0.36963999995193003, 0.03323195231700671, 0.1691238526761143, -0.0762382386968522, 0.2726443446270056, 0.30585796732001547, 0.02299458745483826, 0.3071390499892658, -0.26765710553051725, -0.2562729103958997, -0.6069603481327607, 0.13784658157062268, -0.003723178831601337, -0.4293718355617955, 0.38984937036238987, -0.6337135412869968, -0.2267802527372671, -0.17058502342558435, 0.6104913837525112]], [[-0.6302357374022384, -0.11402191435960873, -0.0007688847602725923, 0.5323173216967613, 0.1532530868756965, -0.2451315325063893, 0.10002490013500542, 0.22317283310372427, -0.5012518762831036, -0.43912016043057517, 0.49087070339682426, 0.14825467413607735, -0.2684250996253133, 0.6924965166997814, -0.15516866525402384, -0.07559687851631769, -0.6665901455421187, -0.170829122928576, 0.5868970600320803, 0.5211075228886463, -0.23499994532626256, 0.5906129692440114, -0.3397930782643275, -0.2365140902209093, 0.11808813110518679, 0.2698288029164495, -0.7625450379255679, 0.8000182148827287, 0.3417398049619924, -0.36637418838716684, 0.19207233442976845, -0.6968246873488853], [0.609949864619052, -0.49806587965803545, -0.4600525821062017, 0.3186039793854323, 0.475043397856572, 0.07431109293447524, 0.38335841044979585, -0.2368535311289599, 0.1411103161633075, 0.19681658515211142, 0.256003602051857, 0.3839328075017019, -0.13072822692846708, 0.40556671630344443, 0.08115934798558244, -0.365966768025647, 0.10413297843245822, 0.23254885000596204, 0.21593620991452744, 0.4055305711729045, -0.7800070629098532, 0.009603682712898243, 0.5151869299121139, 0.5645204980466964, -0.3970437732356301, 0.5677097559785395, 0.6772531913448876, 0.13648733232025034, -0.7869291474561824, -0.15743911899140128, -0.5502079979087743, 0.24649833549908517], [0.2744411855106066, 0.021700404540093587, -0.6758324314167051, 0.5147850477763465, -0.10666412440633383, -0.5509313523387387, 0.588826866641764, -0.530001644630421, 0.06417525705183746, 0.6508190109779312, 0.2875262797042023, 0.06584291563634115, -0.10333827756856195, 0.1924779643330672, 0.6841632940552422, 0.028418281361319186, 0.5312282819555805, -0.3120518434785191, 0.49011558777284614, 0.048537566112765496, -0.13884907965031223, -0.028914887233907227, -0.1288101367909641, -0.7137266957909209, 0.5308896560161372, -0.1793647340856227, 0.014799215771183927, 0.4712925415319791, 0.5768484024318412, 0.21708712547244102, -0.5874468433868536, 0.45337267193145414], [0.09891963503923515, -0.257089232550636, -0.049186121779778935, 0.42314812483317976, 0.5183999454653753, 0.381083650917152, -0.16514438858385347, 0.00738503355145792, -0.05694887151160377, -0.8807682453112108, -0.4095588307639544, 0.20861241378783768, -0.8027091157228822, 0.3896963636796378, 0.4238250794888021, 0.47446219001400924, 0.07586407001837658, -0.06389179829974934, 0.7829728909331217, 0.13005089480158072, -0.6761746480416512, -0.8344430779729073, -0.5349502347621361, -0.7173358898411706, 0.013129039021838262, 0.06758411696519873, -0.008883254174436361, -0.23536635828557773, -0.6459632334959026, 0.33331079540263375, 0.2497228625644239, 0.4953881175663234], [-0.458716822892863, -0.7145516091349526, -0.05040743744967702, 0.17122429274986262, -0.4412767960973887, -0.02533443282587755, -0.007573097092073544, -0.1806022091253494, 0.4416676530536995, 0.28711072796799386, 0.1595023151216988, -0.12096290406768162, -0.5869592126557747, -0.3727685127291185, -0.44538147399185857, 0.008058893627168273, -0.04148752256649135, -0.18365149532201094, 0.7807394310894373, 0.4267121559156236, 0.6113389567210983, 0.6079651649264619, 0.17999013950238907, 0.6594027744122957, -0.7929910467080854, -0.24686462384982585, 0.028093763239655734, 0.11802411369922894, 0.6035148233410526, 0.663349258139519, 0.08825864545948758, -0.8954155366970421], [-0.02887072824652951, -0.14794252259655116, -0.5349687179627011, -0.32547075091081157, 0.2580938965804752, -0.04418639373448041, -0.3064863943536775, -0.39795548616585463, 0.007375897699330114, -0.6164755332609196, 0.03094008188520847, -0.32865376098490495, -0.42320959532066804, -0.3218602600301699, -0.0978531727696692, 0.39638797379691365, -0.9238318796244004, -0.9275432282722523, 0.117655496951373, 0.23093029898968148, -0.5735080477311841, -0.46195300687731244, 0.31140074258711903, 0.14883185327625092, 0.04335434570433505, -0.6916013685271877, -0.08781378648732141, -0.066540333435186, -0.05854616844557914, -0.6541289739241695, 0.862040889683183, -0.36457088157291395], [-0.5004976881647512, 0.5611450865994816, 0.04541447120362607, 0.21260247955921363, 0.016405056891188097, 0.9002739240938236, 0.3572259992073846, -0.10142131312778124, 0.4294106070871692, 0.2762315021490904, -0.0053673339582496205, -0.3647555118704887, 0.5992399074872643, -0.34198728666523304, 0.09548777880685877, 0.06262366992466017, 0.16334186802153422, 0.27373362093215003, -0.416467343242349, 0.7673756286702188, 0.05294163099451765, 0.2748040780818383, -0.1157731656819081, -0.21819883221681424, -0.3088741023340369, 0.14789965043776498, -0.1365824357360449, -0.36762482448677136, -0.22855882110356884, -0.5880645374752409, -0.4471615287573596, -0.28055919455791023], [-0.8713049063978574, -0.4253089916746856, 0.5911315065025577, 0.16305658593515282, -0.4727108276484142, 0.13585514871716908, 0.349746969506295, 0.2694878490769216, 0.4474160067672832, -0.7889095367506743, 0.16784958177169562, 0.1865083431495974, 0.462491949458095, 0.5027894029436618, 0.26066433106410414, 0.7127605309996021, -0.7182962776122429, 0.09254583788353021, -0.6095715511936183, 0.2637263040403469, -0.4756239011557802, 0.719337931214886, 0.017083073810618243, 0.5899881590904885, -0.21900424542883978, -0.3025423901068438, -0.11977368869720584, -0.3229041288700918, -0.23598498873560936, 0.8485064493823794, -0.6794821723275274, -0.6911675658434713], [-0.310592201811673, 0.7234983118177586, -0.7618291319230936, 0.1696167229184056, 0.1694798429320291, 0.682120292873148, -0.012757257473913736, 0.15802865240196295, -0.6923325702843184, 0.500179687986307, 0.15917560080868032, 0.0019681882354472546, 0.12346283229012067, -0.10740862902979009, -0.5562037304524168, 0.009060429521199675, -0.00684609140628889, 0.04114237567051893, 0.6466841254291189, -0.2965446583887512, 0.5332680768099425, 0.4979167206717112, 0.05876705199926724, 0.4480715365690165, 0.3718425894837783, -0.08455436309518094, 0.681166984400363, 0.11609166268522275, -0.10904558526150954, -0.16147924705772193, -0.12434739627893421, -0.6624941165680351], [-0.07949029643476369, 0.6955442125116785, 0.6696192687203665, 0.07630410096288587, -0.7766787420291763, 0.19344510412195562, -0.7010650154343475, 0.350351732628157, -0.30132931248809514, 0.48283772010849946, -0.6685223137965987, 0.31139632657733485, -0.26495108786005234, -0.5511071363832012, -0.038566264921785276, 0.1324528588802859, -0.18533476158636664, 0.029678451190850552, 0.1942787523516532, 0.3012179468805197, 0.041832379617195214, -0.08714671284175379, -0.005348960478239406, -0.41665325353996774, 0.4626661928142509, -0.20089687075530216, 0.6245751202089879, -0.4807246301566368, -0.5893597749194415, -0.7193705763454491, -0.46298526331669654, 0.08967869241072834], [0.1944184486908937, -0.4272150629201562, 0.18686090567880587, 0.04688591063488523, 0.3487287143407982, -0.4735816981510663, -0.6334222744401257, 0.01868676686352344, -0.27442312855311324, -0.5276924373211132, 0.00034813386316145944, 0.4031333512861285, 0.029149826345144847, 0.22398892654943403, 0.9489835674130871, 0.3319064872972427, 0.7147083733220281, 0.48277945211057405, -0.39763326628872486, 0.7668859006320413, 0.2596557518662328, -0.148440368789877, -0.4297526489755853, 0.022217167658999393, -0.29274541077796545, 0.5449983777893781, -0.6274161843917427, 0.19208078665852724, -0.1231755490682539, 0.08350720082277407, 0.26555534784597723, -0.29788677907238925], [0.36007665380016196, 0.1598553442043087, 0.10519362844773217, -0.014158473581535658, 0.20679788646532093, -0.6240897350179256, 0.06899290843272743, -0.7225650022221615, -0.1843890794347851, -0.1435273420785713, 0.7401102208101044, -0.1289792203507102, -0.750627216395056, 0.3803006112608691, 0.701700652833982, 0.1325242256346253, -0.4568028130248082, -0.15439282308674884, -0.11475221824404935, -0.5575942847976646, -0.24360201011820615, -0.041471512490824924, 0.2430550986085298, -0.3894148865067044, 0.17871129550643228, 0.15819324327771234, -0.7310853644725653, -0.026709188702663034, -0.27296015568400556, -0.3378994061526661, -0.2724254535996895, -0.6587104370524497], [0.5586165660477871, 0.1450166855320979, 0.18781164167834707, -0.40645769252983843, -0.276517885238727, 0.6141662819502444, -0.5169472638527272, 0.15998100628457046, 0.26529170868304774, 0.2918392542304644, -0.008523514770812146, -0.5669270178607072, -0.4339788948780734, -0.06744247677312187, -0.12873813889787322, 0.31736719858457374, -0.11902226058268517, 0.22320026652530187, 0.005651250573335709, -0.0004489120770762023, 0.5482582588128982, -0.5650157596337338, 0.6212793187877464, 0.06954522499775229, -0.14810455819999668, -0.03447783853898523, 0.49070064201701136, -0.12434621603882934, 0.04780223454481958, -0.43081833237423206, -0.7175747562938182, -0.0842306517919515], [-0.01568455842919686, -0.06188380896733639, -0.03958885790111577, -0.34263808316752986, 0.34322577535761367, -0.29629193911965623, 0.0017014358221515424, -0.5644591444784097, -0.645165474898293, -0.24905521318903112, 0.5474674190899287, -0.16223617815030222, 0.12004211532480469, -0.3135516631082834, -0.16590963331991082, 0.5023565364108621, 0.3282749132451068, -0.6709133318436241, -0.09635090572443783, 0.39623841334745447, -0.621588517686342, 0.15978403784328277, -0.23363130673322552, 0.3787967994016437, 0.6003458682811024, 0.33821722851493086, -0.5907027884582535, -0.3980641066438346, -0.11801784829457673, 0.010625566527189156, 0.5227983776832954, 0.16889842268428404], [-0.11659904781047825, 0.4303178245559842, -0.5956930837129256, 0.11889690771787165, -0.2309154763911378, -0.0448962385044529, -0.2455004962806837, 0.2243355689305388, -0.2759602236836224, 0.3366667246678591, 0.16946797108612255, 0.8835892058112531, 0.0028504735935681313, -0.41607041830978975, -0.021364358829244035, 0.4980749106856135, 0.33185443511765433, 0.4104998697952932, -0.09351442982818547, -0.40553020719064603, -0.1398424458693982, -0.4717851686694174, 0.15094955738972404, -0.09451203843680323, 0.06539937468203735, -0.6862905380885507, 0.12635266597769734, 0.3608187469884103, -0.20755633083323982, -0.07700240678730519, -0.06472533955356619, 0.32347906397348064], [0.7011840974306048, 0.1469114746545096, 0.009219082244552923, -0.46947909025536105, -0.18293789255282378, 0.014021419156008276, -0.000812590984863415, -0.4954553905148855, 0.5954415793821491, -0.575040579686988, 0.7087190418189545, 0.18282361322747676, -0.8187834944850235, -0.1346949400622185, 0.19461528049972854, -0.0806928574575938, -0.0008775167987513793, -0.889413624191073, -0.17555756795973004, 0.5040250180251405, 0.07691572506697397, 0.0396226996921385, 0.4381116063304066, -0.2786604421177258, 0.2694795778897756, 0.07583885884416389, -0.3776878106774223, -0.4164585563732477, 0.02438546598906699, -0.14341627021812264, -0.3477943714238041, -0.5393285241472908], [0.5767764654103738, 0.5792594214311688, 0.20551309168682752, -0.6947201746679973, 0.49513061159119276, 0.21112723272122502, 0.42422912767353815, -0.13493051073954332, 0.5517859012690338, 0.48520458663936866, 0.18604614962184007, -0.08648343981428808, 0.11460234850335482, 0.6997306966371935, -0.4226202206711335, -0.06065135968848123, 0.3665030252634738, -0.32660611992285415, -0.15680237011754328, -0.20322376451462532, 0.392241165855727, 0.1250781186234795, -0.1717450196952428, -0.13895688959783847, 0.1387237426535245, 0.30051019171849913, 0.3402641195487053, -0.44643701629505167, -0.11628312094952153, 0.24335698050564106, -0.39233167076730546, 0.011241595426942252], [-0.2786859615739923, -0.27024159183821517, -0.0692004393963302, -0.6546132612695177, 0.19333332093325, 0.04208406608344972, 0.4093128641039605, -0.5004764676801918, -0.6717287236547705, 0.5045864165298112, -0.7231602277652182, 0.043872520440191076, -0.693360437079495, 0.01855581843887255, -0.6604670449515175, -0.13482265558275053, -0.14122695361472404, 0.36720377392052606, 0.09707767651942001, 0.11534299493558953, -0.03143808699345407, 0.5109853440707542, -0.570974250248375, -0.2985177685284345, -0.11294676214064214, -0.04489809826103919, 0.11122012639974244, 0.2694951026690049, -0.4456594178238166, 0.08473783323477069, 0.034224111461749085, -0.006140429640234424], [-0.15477863257489166, -0.19974149988249446, -0.520821578276137, 0.10053105245768557, 0.22942419979689987, 0.35978978501070624, -0.011056401065690502, 0.025845161806909545, 0.1268821675708608, -0.48180483066608526, -0.3288514542662312, 0.46774650853615696, 0.2747967714123698, -0.37984256150495954, 0.3217228974458073, -0.4569507785909628, -0.6331320339153245, 0.3180405316745267, -0.052949600382769635, -0.40681811270570534, 0.06712850333984122, -0.11686087652641786, -0.03054473370791788, -0.13629258367049468, -0.6086719760422181, -0.2603102258228815, -0.16431227523317593, 0.1581306573965131, 0.6290520945754422, 0.01910365658901314, 0.2372853243808098, 0.028795972900055866], [0.6432610929634189, -0.3035280074497081, 0.3321358515280006, -0.7031649687330092, 0.790423396274905, -0.4292430558188921, 0.5455018672701695, 0.44094268255626845, -0.11483760553291872, 0.5305304603919367, 0.25906108405283557, 0.19542012826875177, -0.18684236362516327, 0.4339893548103819, -0.8942873089229473, 0.014522063905222704, -0.09821255749947999, 0.08530850653817978, -0.6963341765826639, -0.5272578955794467, -0.001418985220301261, -0.25408733896119784, 0.22170657110948144, 0.2817705118601703, -0.509633931662253, 0.26270863654395077, -0.21533153069130373, 0.45234406620589995, -0.03196389453277371, 0.3456197545092621, 0.42247558149982345, 0.20810605953798222], [0.9476021753846686, -0.07456060979723045, 0.18998513672139328, -0.6383951890286361, 0.7732827068121811, -0.5074652895546791, -0.7611026080541125, 0.0008110190036220155, -0.22090203593705549, 0.08677456848311565, -0.7184876418282264, 0.4897120378801981, 0.5301593718952712, -0.8280832022327407, 0.10130391972183928, 0.15594547523207525, -0.3363944615830088, -0.23231321585666498, -0.23803504374844797, -0.1368581718208155, -0.33154882983298184, -0.6543017679924191, 0.1693305946551784, -0.5232811186356181, -0.1342865302919299, -0.33723088234810916, 0.04313974008171528, 0.12359894395650362, 0.46455367209508647, 0.6263877235993895, -0.22402642758164837, -0.014485957842173769], [-0.834310290989824, 0.2303391085054709, 0.6614508568701558, 0.23292847782867387, -0.540768468431358, -0.32354278741393117, -0.05308750206150192, -0.027051963004633084, -0.08611494203622094, -0.4604179977785743, -0.3091958344136104, 0.5901538150163399, -0.19648754416093128, -0.814107792147267, 0.3683009513818676, -0.8764793194477449, -0.22366369451198242, 0.15934254199175557, 0.2959821294387843, 0.08329825530314094, 0.08649359231746745, 0.4929588465619057, -0.19847821687218326, -0.43363567346463444, 0.11051319057754871, -0.32934930273955076, 0.412511273417953, 0.23231556945548149, -0.321360993564729, 0.27528156951096483, -0.8263348254007612, 0.2311631068426423], [-0.5509117716351768, 0.3650081075558562, 0.6081456276124879, 0.030308546212287735, 0.044361242610185425, -0.30722408441814886, 0.16422175547263146, -0.40652868510284057, -0.05751891766020678, 0.6341205071128448, 0.1508209472594153, -0.21629846349292137, 0.034079298516372036, 0.026367876548231584, -0.1908015197055999, -0.5174888811528726, 0.07013341220250735, -0.8072787210651258, -0.5126700743413899, 0.05319452618747755, -0.04277807766788966, -0.5395500038334037, 0.4672462415024502, -0.2698856129269611, -0.09433401119200302, 0.7485098115325, -0.6465927082924259, 0.2677570848196119, -0.1899286045077172, -0.9114625721099426, -0.6372391229557751, -0.43191372321569427], [-0.353184164314972, -0.6360942523914201, 0.009248089932546333, -0.2276127251059069, -0.517294297265473, -0.010537440413234789, -0.05530098179549203, 0.02142177044510611, -0.4662959721815276, 0.511765581249546, 0.04779774630525613, -0.1324363827366768, -0.04533606696997572, -0.3609722463725724, -0.37125937838077205, -0.30739901440299744, -0.5860348098805177, -0.024193283591089236, -0.025778594151312173, 0.12632712926548018, 0.17100005508284832, 0.7865427265502111, 0.038567454950754865, -0.27819284086644197, -0.21324030499889823, 0.3636887905568792, -0.14040118557130132, -0.5187525146290952, -0.3714418065947359, -0.2761022185387013, -0.393138955811015, 0.10836510240140529], [-0.6963672980847623, 0.51724408281637, 0.693568233748282, 0.3850037203972766, -0.017065965059382404, -0.7829948211674702, 0.26439525211884585, 0.455424287472224, -0.5175027165513841, -0.5254677602391226, -0.7259652239562302, 0.8147361166637109, -0.3863954334659585, -0.5465477259634748, 0.5997063572026577, 0.9040230199550277, -0.1929915770714925, -0.6357735997669924, -0.03043163693480344, 0.1192410957321115, -0.0565126901773203, -0.11168121300899037, 0.18335914402031642, -0.6234286802019228, -0.26076685252404297, 0.7836806623174849, -0.28184527348332056, -0.029535234231359342, 0.5783579566342699, 0.2984781803205435, 0.48876687008923303, 0.12347548832991329], [0.38071692406024005, -0.052068856587402124, -0.4306799955231745, -0.019948943197540814, -0.6184832784330743, 0.7848068196747394, 0.31378337913363774, -0.44447844445581675, -0.08290719608681807, -0.32391560830089844, 0.09044995781650578, -0.046621752689223195, -0.33123052370374795, 0.41637912420776224, -0.7567015928956845, -0.4019364933208063, 0.4243229974661875, 0.06043919990844404, -0.21681915557140174, 0.24361139590541847, 0.34937468698891283, -0.0609139807756548, -0.2765116578703216, 0.3044780074710399, 0.7142196261121293, -0.7223926945061252, -0.2068785589490434, -0.3790720649014378, -0.0307096271105588, -0.688823935292711, 0.4016745612824768, 0.08823569974801593], [-0.7057266481781083, -0.4005479079433971, -0.7586037418664032, 0.05662065338091271, 0.44399300336773173, -0.4867371512516725, 0.3280344682626444, -0.24588079483701214, 0.557033884753092, 0.07478740899411307, -0.08024006230021496, -0.28671870893854134, -0.44919335770863844, 0.239276835412494, 0.36254134873993604, 0.8508877416445052, 0.17043379005067127, -0.29217609700532987, -0.5551425242958085, 0.4005001677145428, -0.2670695260162873, -0.2518093623599599, 0.11505622489558393, -0.1092115117206004, -0.13837020315199033, 0.464626407705652, -0.6863181627742857, -0.008658529231996726, -0.33950799022172096, 0.6925751657306558, -0.2719698174229199, -0.06012916090802267], [0.6127533000575123, 0.7857368943237248, -0.20194932877125304, -0.258359288641122, 0.12023244500530783, -0.18147975409475958, 0.48585673263856816, -0.0013847581670006354, 0.008974126141661265, 0.3274738426830185, -0.33482505010791785, -0.735162584217566, 0.15909173868880966, 0.12827822293364044, 0.060457885910605746, 0.08073596597168942, -0.7424848944532323, 0.5683133265540827, 0.3274250730585456, -0.2669454629388053, 0.016482540515659727, -0.640247576439858, -0.8245213737691567, 0.800065107079913, -0.5808749743768442, -0.03450624598364371, 0.05051879456485775, -0.10412005425148652, -0.1460397146796391, 0.2926444960818526, 0.6471800621424835, -0.07983469783877128], [0.517969636375039, -0.06045610711278493, 0.16211080687108126, 0.17530067054908605, 0.41955366863970267, -0.14395153394966592, 0.6209022845640457, -0.1503055014988502, 0.08131646990653851, 0.03320435680890499, 0.6804943212872288, 0.605489511139973, -0.04459939322509432, -0.5886049467163785, -0.4034238635925783, -0.18902343897757, 0.3780641834941042, 0.2665130850546551, -0.4501338182553468, -0.09254301627143036, -0.01192773129173652, 0.8309869269152323, 0.826580240831319, -0.19694170493770724, 0.06170177568214308, -0.24238065421991895, -0.20198357582184223, 0.3891059831129381, -0.2965349782641411, 0.07089907947883592, -0.09672983425872383, 0.5476720994288983], [-0.4360391118588726, -0.8159127345313493, 0.38945497711192034, 0.11146924445540562, -0.5638329256620083, -0.7637998600956196, 0.20717383048749116, 0.5242683647839935, 0.031680709068430346, 0.7842009757698608, 0.2718695755743106, -0.16232053827573967, -0.2563539630270494, -0.7058052459018902, -0.27578909372215177, -0.43785659520207765, 0.3569609814680583, 0.494753031778038, -0.003540661440411652, 0.8618107638661218, 0.42823199193553185, 0.10240036638760708, 0.06039599102193749, -0.07624543778712689, 0.17789808959627262, 0.019839590761301595, -0.38715191225097567, -0.7920077412026726, -0.8335958134366629, 0.5678226876293477, 0.6186323298934641, 0.23786274639890415], [0.47607907824108386, -0.20161067800807286, -0.47187799994409874, -0.4117200703118578, -0.5572557220425548, -0.7190548507652643, 0.20990179092403494, 0.21124647374873218, -0.8947975342226899, -0.17414427515713238, 0.301892986703195, -0.31012834724841387, -0.752884136731942, 0.28580660873839114, 0.5417558835396631, 0.4310598545465447, 0.017150934010433327, 0.30464777694720113, 0.09794709154058666, 0.10825339011167312, 0.19466195834054487, 0.12793083998068333, 0.8850885785464875, 0.15702104405581074, -0.5496401279686651, 0.8372651700469034, -0.1486035158524055, -0.3430121142002117, 0.011735466014066609, -0.16407587419101533, 0.6716053952356333, 0.8221129101497627], [-0.410854001972911, 0.08437780024602037, -0.08076801809050638, 0.26665200891186847, 0.06042730215730219, -0.01688623324276617, 0.23680987744940318, -0.08633727999141139, -0.09324430898951219, -0.198209411793006, -0.14354150276142535, 0.30596381806636874, -0.07240759056378684, -0.4301569141839401, 0.24953474478431326, 0.4506259156281909, 0.0948601170486314, 0.21625698910350866, 0.24163445370280034, 0.10430403456747206, -0.19360932520815732, -0.12323781435986902, -0.002593645643238607, 0.351267438067164, 0.04269056574522344, 0.08406996779128606, 0.5685185893190116, 1.0142567396099644, 0.2941450743550992, 0.5962372326922974, 0.7365550753689154, -0.09694197304744212], [-0.5561786588309975, -0.021552661030105558, 0.31651735505909295, -0.8081984179935146, 0.07564541582416806, 0.402633148166204, 0.5375064714202067, -0.06778008513766864, 0.8861537874726984, -0.4499112591073588, 0.08542073706285536, -0.1077438314567225, -0.05763111506657337, 0.40837555304127066, -0.2868845580986211, -0.5091151765484521, 0.2062844479556008, 0.7075867184516497, 0.22825539842261278, 0.10204891156933621, 0.7736058983064749, 0.7795877324995029, 0.29431866896275416, -0.07307905495300082, 0.6296938711005244, -0.3650540775908012, -0.16107727427644702, 0.6519932047836501, 0.14006903232051598, 0.3290586165661067, 0.02114705679232065, 0.1674131268896294], [-0.6191624630692589, -0.6766317768207517, -0.13259139280380358, 0.6617216408434343, -0.16672074674352577, 0.681737917654101, 0.1488527496454305, 0.15838846138381574, -0.7579112938498869, 0.030058053310104027, -0.609417946306362, -0.15257841164762107, 0.23777254459118358, -0.45673773472030177, 0.13362409244161821, 0.46356640865429116, -0.5864232865331973, -0.6825495498333448, -0.04925059730817094, -0.5113341431174129, -0.29930673879866065, -0.27610915879479736, -0.6191553648730886, 0.3118861361546009, 0.45520729022317696, 0.12471666621927191, 0.26099870075396336, 0.574852030816051, 0.4189532868380559, 0.0005918336198720286, 0.6902172107854505, 0.008878410033905437], [-0.7538495642545767, 0.8558731086956607, 0.45156804151956387, 0.2550383325764849, 0.7651668422847724, -0.5456761297632227, 0.4237053137329795, -0.5608309296525467, -0.24895785777268165, 0.3023552513313552, 0.4295323429151888, -0.40725050521413997, 0.3096980324593541, 0.040948833885969815, -0.08138896107139659, -0.09649769993703305, 0.4882188927254476, 0.008740378922230452, -0.10546928275437592, 0.6846563541737363, -0.5636033363465341, 0.2578932560901417, -0.3859501682979084, -0.44621202274698124, 0.8228647104223548, -0.04590505639056286, 0.3163292365003433, 0.4097301225082548, 0.20639582805263013, -0.03991371937391738, -0.07687492092470627, -0.31717913444443796], [-0.5053988374902976, -0.8817487856572154, -0.5331096627928834, -0.8612640032784966, 0.42037219607703313, 0.5381428569039773, -0.1180573448203592, -0.16346116965693347, -0.7441113001062591, -0.3422279744962252, -0.8662278052122194, 0.39006397978560836, 0.39862247202209533, -0.013864777491035873, 0.37871541407452713, 0.2433080619427428, -0.18973548113706418, -0.18573470145036552, -0.44088633233378083, -0.037491717980960626, -0.010558853182737526, -0.7298383312339234, -0.36107178674025653, 0.6958972589145017, 0.12020618075745376, -0.5867480746267622, -0.028176860225703426, -0.7463344534247995, 0.7762956883917727, 0.09217281646319353, -0.7179553346420713, 0.27563408658636446], [0.12558122843373787, 0.00033547128367137496, 0.7230239362059677, -0.6750071098600994, 0.27116044157637287, -0.34542760953113605, -0.8422610829696803, -0.070038760934934, -0.39996987118310234, -0.34785156191378175, 0.45955584655756765, 0.3461901813680718, -0.056315069775258964, -0.6666025094802808, -0.43570149235515443, -0.42583486357776335, 0.265814840953436, 0.5522005652367317, 0.5469029880132682, -0.4185043048682558, -0.007051851708805512, 0.33777159668650525, -0.46319110000869756, 0.03345594763437573, -0.10797812437694265, -0.590169322535505, -0.7387295414295596, -0.047156263973344714, -0.03993858301365216, -0.1860708027456346, 0.2511100950947477, 0.3193499833579788], [-0.23709503545277993, 0.28819799078260017, 0.39839175516733405, -0.19729321427031266, -0.056686434061379354, -0.1276867002307589, 0.9399339352609601, -0.18403790227364614, -0.07383753161485651, -0.041173620964275126, -0.30587824742070446, -0.23663873747041642, 0.4854239645278835, -0.42993443621129335, 0.19759573565356747, 0.5049670670151716, 0.24595952998643356, -0.8548889364332163, -0.5658064160618903, -0.1609122120288623, 0.42673111545262477, 0.026423318021899345, 0.5263344842001655, 0.41819550884736556, -0.3766767810300712, 0.6583672392538281, -0.19835897097686295, 0.009993623312052335, 0.6993600409404817, 0.7367057834791689, -0.018976441696497925, -0.023961285175001804], [-0.17853033086779946, 0.6503455329400128, -0.6123057923829104, -0.6072139695157892, -0.4385053246018261, 0.13983216625570072, 0.014001389578609968, -0.05114352739149594, 0.2723807868960443, 0.4473520107592618, -0.2948897120435092, -0.36852278377987857, -0.33366758539707575, -0.17000717471181398, -0.5665820991116546, 0.026164098076325915, -0.0599619611409683, 0.13509901298420035, -0.21465590883721242, -0.26017115768250587, 0.45986364796390755, 0.3648874474754368, 0.2338074570154717, 0.6621360986305269, 0.009173943096542791, -0.21340586163878217, -0.3752211997198057, -0.6732566535277573, 0.1123276519342562, 0.6203559508270663, -0.4009684630807129, 0.17763662873250474], [0.6674423425244178, 0.19201953455365123, -0.1668628161773209, 0.08446886089897454, -0.7245982130708202, -0.0977434998563198, -0.3303779892672909, -0.0910554381973172, -0.04655135161258972, -0.4268282446326236, 0.13436022636812062, 0.10672633115269925, 0.17823046235648232, -0.6166167123120916, 0.14852609100791236, -0.38969170368077255, -0.4265992308154777, -0.7720182598891693, -0.2688134172565694, -0.033356974633589775, 0.10619233761537006, -0.40517523919653053, -0.07335646572407906, -0.14594212047432165, -0.5725442647767669, 0.7257544237704618, 0.40498236940603394, 0.696275672043797, 0.07461078059624549, 0.1319943443007643, -0.12528917798515937, 0.4810348283790957], [-0.17040498196347675, 0.5605140788314544, -0.5759292968541896, -0.1936588441877164, 0.19889321252366, 0.47146518762302403, -0.18297327355043225, 0.6407738222143503, -0.3457565067813375, -0.16053080815506815, -0.2245522546361125, -0.2150453634471945, -0.6616935473648944, -0.4597963647814364, -0.20361920738901196, 0.2378382350696172, 0.8902616356991278, 0.20905676106995408, -0.09102465111898243, 0.2300540749055059, 0.08756685696153887, 0.32772057066830473, 0.41183968966136064, -0.25083188138883883, 0.09806320651270017, -0.02870123124945201, -0.4880531499103413, -0.21981798339440772, -0.5406305537763119, 0.012172888686715455, 0.006299738133093369, -0.7440447987311829], [0.5810612815579995, -0.31014833050480634, 0.34501799667602007, -0.27102652851242004, 0.22466460012378142, -0.10912412727048504, -0.6657900824689297, -0.2083132012056238, -0.6774201183741586, 0.6401501758449677, 0.10064029878390451, 0.5896597163017695, 0.6736838242001167, -0.31196532522835885, 0.4897087175722359, 0.5779452100907733, 0.05114890935359806, 0.2882113049553344, 0.8002249393724448, -0.15771207888990713, -0.48482532088037145, -0.20290912264173278, 0.25920671209051727, 0.10700300495675152, -0.5746153534945893, -0.04525765048812852, -0.02609517205713041, 0.5579686120725988, 0.1924814654199264, -0.3693030143056784, -0.0663450368784837, -0.42730106857010597], [0.38992794650221496, -0.2472911329132922, -0.42777577300268166, -0.3775992829985586, 0.41695819365598863, 0.23938397100977168, -0.38794279100469786, 0.10068986732834195, -0.4586243443760053, 0.007446555570528424, -0.027415001704559905, -0.1131412334292401, 0.18946692533837572, -0.43811140397165227, 0.061472929938562904, 0.36881405951852153, 0.4469338333462495, -0.5076486455846022, -0.27248842408646545, 0.15689820309964067, -0.0028564718685053503, -0.07586435774235989, -0.03539275494181082, 0.5809785738825811, -0.31657284866610935, -0.07609318771064089, -0.4654212822260809, 0.5636589528671152, 0.09768475798086595, 0.6623081676397807, -0.6797295043563544, -0.8287353026148628], [-0.30748709707817345, 0.0879167052777701, -0.17421791526478714, -0.2970410151637606, -0.27435771895337424, 0.07018669664956378, -0.31118572954125423, 0.5026898509885879, 0.5838882766484748, -0.21327043017012925, -0.07073616884943612, 0.4927764309714344, 0.0062771578243916715, 0.4051873329645388, -0.3885215957949125, -0.42196651332634527, 0.10845623719708841, 0.09109731017386502, -0.153800818699248, 0.10189750306328105, 0.7395190501288129, -0.2814258375646893, 0.20354050780877886, 0.13998116183135112, -0.7508969146956633, 0.09809599357181475, -0.17165717020014726, -0.11745528824990914, 0.04449362561272088, 0.3767373232613268, -0.2419598654886837, 0.03289546376853841], [-0.09640529716128621, -0.10286130956091455, -0.22322338948773035, -0.6603815990226344, 0.5923827661424731, 0.8994415494085869, 0.21353410091239955, -0.15443627875577126, 0.5795371459174358, -0.7168511642489409, 0.48953972785947963, 0.45719328510255264, -0.5727964778115731, -0.13405433135304357, -0.3471689793654573, -0.07931623729950765, -0.1886559288161157, -0.0770821530632868, -0.22228037387397936, 0.10557392851037997, 0.3756597846533195, -0.7582975953027794, -0.5048134304323061, -0.06675908449124401, 0.5115563846544179, 0.20180346980696784, 0.6901607799162199, 0.5717899296463287, 0.6105415297364455, -0.12063322792714258, -0.5003750607256297, 0.3328920235773245], [-0.1591077298239163, -0.21715076663538846, -0.01384227750590794, -0.3079186890961756, -0.5676869234856812, 0.014032953323929176, -0.7111068927933935, 0.4965833316827151, -0.1567646120906766, 0.2784968213906026, 0.07845070159975531, 0.6616761925195762, -0.79017032989156, 0.7253458455897036, -0.6680393211020228, -0.2887781993629055, 0.3278983944623507, -0.37651512830114653, 0.04791402955732704, 0.0707724575899763, 0.7000351784697704, -0.22650467839770416, 0.5869368926697061, 0.18941432770973143, 0.18926800975032854, -0.20266380880653967, -0.3203720318938923, -0.5457537376008854, -0.32004655331628684, -0.36674921550572526, 0.3093892191929454, -0.4048893989718113], [-0.1982326556505759, -0.5381589347715415, 0.16549156214404898, -0.2663656191942769, -0.0013760505949498292, 0.06909014941699743, 0.16698284094900662, 0.2340434965829814, 0.4959361057881625, -0.7101920293859588, 0.0027338555857473468, -0.11572225992621671, -0.06940610705738276, 0.33031100713947403, -0.41913962159354523, 0.25280835130591806, -0.903674240630386, -0.6653929748628937, -0.060513650835202215, 0.06968074605929664, -0.15853542676318833, 0.0021394179263192203, 0.4334963901665545, 0.0911754406595312, 0.18418010369815285, 0.18530794165824627, 0.3561506640587424, 0.0946265579312282, 0.009026185945513188, 0.06749190883916434, -0.06863205871600342, 0.03753105089842379], [0.252758935897619, 0.46215882722246443, 0.513598692528412, -0.3864119840236002, -0.1059907726770053, -0.0972535089818185, -0.7205297107575294, 0.8091457218269996, -0.09584141639457933, 0.29747346820954024, 0.026240679600450956, -0.3099977296555321, 0.35696903261678115, 0.012830562207030716, 0.4919198302139274, 0.5444863448649602, -0.41287708810522405, -0.07346608663259357, -0.17420893982281854, -0.4903102042921841, -0.04816945621268198, 0.1593576104926906, 0.5981584713463457, -0.39822857886187135, -0.30686830627666045, -0.5761192402195724, -0.19088349867185395, 0.06350731140173138, -0.23410694659584408, -0.190878751312334, -0.1686078905683882, -0.2880712224632723], [-0.7111917026961911, 0.4144072811786026, 0.6833949832361922, 0.21763183683570053, -0.0797452592399287, 0.5556527858705568, 0.7291250555412075, 0.7525539254385144, 0.595951822754059, 0.020286852209710507, 0.32664272353634094, 0.06000958983381055, -0.6625857464361491, 0.20674131101078463, 0.7997812568021867, -0.7935890709057543, 0.6550828375520438, 0.24329735896125357, -0.2346912257636688, 0.06471575492089421, 0.5271335941233486, -0.8131293590795919, -0.45558262031153385, -0.4268100564339161, 0.13319687715184803, -0.23984693553731762, 0.32279204301010544, 0.5247071394499974, 0.5937080559060596, 0.12976404190412777, 0.6225703726096415, 0.11410366447461961], [0.47348598916760465, -0.36418487670442456, 0.1404726313145812, -0.31175083259400627, -0.08875997589260187, -0.14671052932020479, 0.11322218588287547, -0.8494374779808159, -0.3908719112396146, 0.4552173192279676, -0.07930170671442682, 0.022695374135104363, 0.49464552141129986, 0.46044912905101987, 0.6404657449232611, -0.35207176846008736, 0.4704985495682861, -0.030469220769212713, -0.17961478782752283, -0.04837315751604032, -0.5676428984557127, 0.8279966729431395, 0.16745253989112874, 0.12330104028334878, 0.051261084636620935, -0.000630519375631855, 0.15796143986827887, -0.30489060357036435, 0.289403481802727, 0.4050645228344082, 0.5203725401436536, 0.003515740741915463], [-0.3730970303228248, -0.23976651545358552, -0.6310654090541954, -0.026570250272276774, -0.2103178436338149, 0.005914133042390635, 0.46080945751924907, -0.10116077899244369, -0.03464847178922614, -0.7249025502427928, -0.44894150727939963, 0.5383578499683127, 0.6863079855558012, 0.4558548337063101, -0.021113540173790524, 