{"gen": 326, "layers": [42, 64, 32, 7], "weights": [[[0.33613967796893324, 0.48692277488825686, 0.09392802490194874, 0.011745097090281209, -0.06992316037937465, -0.19959093933214478, 0.19090504344734538, -0.6580768375569481, 0.21804893096883377, 0.04504093980500917, -0.20843446591579512, 0.05286607872346777, -0.6276511799148874, 0.011988553894062892, 0.21633457958362023, -0.04392220973049213, -0.07629629658522617, -0.3039844745219683, 0.300775555518567, -0.14993597835204714, -0.2085879316332459, 0.4879246438121327, -0.13721312273064473, 0.0393186684234766, 0.3240325946899392, -0.32864287524511115, 0.041396587735235885, 0.1897741982436134, -0.16115572332960051, -0.09611666837171351, -0.12511575761398286, -0.02190162271723392, -0.4833226139527029, -0.09497064557960963, 0.3423486674788948, 0.5023860187748519, -0.054852015166322515, -0.06839969873243484, 0.22986117138115505, -0.3514184502698998, -0.09947847753898392, -0.37393612651657443, 0.4271424812105283, -0.364159836262397, -0.06478198465180614, -0.23389017962584563, 0.041626544669814886, -0.2036583746759112, 0.5478192756079983, 0.17950259590774176, 0.23551267147087365, -0.42430772352876533, -0.008729062175776403, 0.3576737315008376, 0.1330121857464379, 0.3415533124843107, -0.6886333285551868, -0.05731504513713673, -0.41768895954026675, -0.08743899216659334, 0.15474282396317218, 0.5288274165713229, -0.3096046313693066, 0.559431384868722], [0.19070254714423396, -0.7483421810616928, -0.17815366128799306, 0.4060645379713369, 0.5098234481079165, 0.08215979271692003, -0.21492815224175554, -0.17109423341333588, -0.19773955576174385, 0.3279626079199202, -0.48917424626795, 0.2730151853617502, 0.3716947810071915, 0.5743147224552378, 0.3363988261314137, -0.23353126050852924, -0.16521456238554147, 0.1919367036249653, -0.10344759423313324, -0.267099332798298, 0.18055279389045956, -0.454424072483017, -0.22937643180491563, -0.18314221771467798, -0.5103901060487549, 0.062261105202940786, -0.3620921048347547, 0.4260404718875609, -0.2396757723345371, -0.5899713914055273, -0.14895375676888056, 0.1635003627415423, -0.18915168317584113, 0.2426068407703016, -0.07845561614299335, -0.5020218109427205, 0.09342554356670849, 0.0887581734699725, -0.0497527329407591, -0.06786180388726834, -0.15134573045493926, -0.07720632502678033, -0.046905737435659955, 0.27871805651876436, -0.2976845716377302, 0.5961768112729385, 0.3674765434786038, -0.06356000324337285, -0.5627535777471147, 0.0030338780834134327, 0.3672108015637423, -0.20797234940439707, -0.2345850044538303, -0.23181700060253801, 0.6165870021944386, 0.23218236381684992, 0.24413116127349094, -0.4247435451879752, -0.45745334087417977, -0.4087826817914161, 0.5050571174354802, -0.15244203765161146, 0.11675505207258641, -0.4632119104423661], [-0.26836713915316945, 0.24449101365567388, 0.2851081570698712, -0.48582013695865267, 0.10213669933929584, -0.5359225792166692, 0.33511757184802987, 0.680273974656238, -0.30265598969942203, 0.2854356973536789, 0.41779638287360316, -0.14404634581028541, -0.4187211280986093, -0.6537625294868312, 0.1692794487938708, 0.08090948852001062, 0.15008808044262711, -0.40612099037961014, -0.38605907078826585, 0.2603516889116088, 0.1830893662280309, -0.18744576355253262, 0.05382099602229884, 0.6279773402519939, 0.09202015092116436, 0.32641225750528885, 0.7657739197932449, -0.293796393669552, 0.02555927562982155, -0.43568573786631487, 0.0014032667153834333, -0.4040622997214424, -0.5655455812321198, -0.06798484710613034, 0.0870960099732169, -0.6122730420079514, -0.47326759795975337, -0.7423666077477384, -0.2914939976167536, 0.1325430241803527, -0.06088381087264158, 0.3556746142326504, 0.3168112202460533, 0.41108181742080613, -0.34377042884198517, 0.2054322942592564, 0.10930392762112029, -0.4781967963422648, 0.0019055515469087042, 0.5583880537948362, -0.2577727086846563, 0.03881606523738157, -0.11688878185693874, 0.22592787520494323, -0.7470334269275858, 0.2556497204915785, 0.44240687173238635, 0.4359522190792887, -0.09376115635552648, -0.23801466927068027, -0.09481870549198769, -0.3534678670023784, 0.1005353195420563, -0.18637465134037545], [0.32071920402780596, -0.021822950241272954, 0.2252372318332328, -0.18601975951176447, -0.7250261306818071, -0.07170534720432142, 0.15129129865134672, 0.5842313453187524, -0.04095669953351881, 0.40201564096196274, 0.34755833811252346, 0.3776668917207422, 0.4980703929114897, 0.07856352604335742, 0.3829959692501595, -0.29620373504479997, -0.17470207354061296, 0.46628496448524426, -0.3882633631456197, 0.4749015986377375, -0.1584206577819793, 0.5116808641383587, -0.5636847631830085, 0.5696301984279057, -0.3371477690212704, -0.42564632043720474, -0.2525749861715396, -0.4686501676259149, -0.2163875118093107, 0.15038250646537035, -0.2720524792316182, -0.669865783359286, -0.04012052426826665, -0.13131425752955161, -0.29960477340216984, -0.1870496354977684, -0.37179053277343643, 0.25649506794834265, 0.34006840446805625, 0.11019879367660357, -0.25299390742462874, -0.05401009788003369, -0.438731818864387, 0.18285294154482928, -0.22875711242554073, -0.69899634782821, 0.27247756724599903, 0.2625229011093, 0.23328077046709608, -0.7987562423517034, 0.05075521248497028, -0.5123875861039383, 0.2685803461888509, 0.05678187416160471, -0.10018037689729775, -0.5681822077703803, 0.35315915173108037, 0.04945226307379019, 0.524194081277267, 0.08184589964167094, -0.13258152612991286, -0.29928623907841384, -0.07630001747128486, -0.6551972717269587], [0.11520832855445949, -0.08249752313216968, -0.4868827932564416, 0.0660720976472893, 0.24868271920771626, 0.2641062092286456, -0.14636590525530147, -0.3160172552251097, -0.05567212687534005, 0.003284673076503125, -0.4945756370140736, 0.40239990313622426, 0.3328052326281143, -0.3895503035086037, -0.4605161709028935, -0.3734689225294491, -0.010139324867904531, -0.07173092417364459, -0.42756423852858927, 0.4561080892069968, -0.5995222099656894, 0.5182055863526576, -0.051841100255697076, -0.05860173547354022, -0.5168654188987051, -0.5380454155693637, 0.5256557704125682, 0.24349724341876317, 0.45500520183852206, 0.3546839231349077, 0.499331333487683, -0.5483945670941812, 0.08937252148810343, -0.11147668020676829, 0.10621564313578305, -0.1419426687497292, -0.24581648846637086, -0.09975194393024606, 0.10666513568129124, -0.11440193373276578, -0.2540427649744998, 0.3881955085352216, 0.20707869273161159, -0.4753956614840036, 0.26971047129542275, 0.7383626192405371, 0.7020832102735536, -0.058437188674095086, -0.8568041433978144, 0.8902129644123767, -0.6869926089954068, -0.28340271418605256, 0.6308733584847463, 0.4286754704731669, 0.013066911544112547, -0.0079911012409285, -0.2858937566389092, -0.45741481137842444, -0.2873121871878031, -0.33179642554752065, -0.9184537953266781, -0.10072406744183558, 0.31859723926695815, 0.19306345514444834], [-0.5684395640169313, -0.7599781514886339, -0.2865903167754604, -0.24695997237619866, 0.1293892940815904, 0.17415556356145223, -0.5670383359789414, -0.42556471917437944, -0.19081500154273265, -0.18560903713903665, 0.10349537685614255, -0.35464166421053445, -0.22019528280535505, -0.16196162635516353, -0.051792455594950854, -0.29638462204100424, 0.5714728956654141, -0.2264851904754307, -0.29183858530905504, 0.048682552324728484, 0.18554936534494507, 0.1287984326462215, -0.13886280767217712, -0.3419962258850254, 0.23070293145178972, -0.03781086361470261, -0.038074853031030254, -0.11323385567885028, -0.07899468787185979, -0.20669113686308216, 0.39268399593529263, 0.14106255838720508, 0.03196477216227804, 0.28214955249441354, 0.08474735564165808, 0.40321615356026774, -0.34605760971176486, 0.19350193252491824, 0.1438727288430084, 0.593520469946718, -0.1771300555116321, -0.4224922364311049, -0.19427153969941433, 0.49292598367336854, 0.04137740080964508, -0.37479373742562194, -0.25143273712564995, 0.4796813541981515, 0.29988151313661215, -0.5549352689978315, -0.080518408610813, -0.1342811637181529, 0.4138346924103195, -0.2876389855330487, -0.198907446898984, 0.026183938413233382, 0.14765203746398978, -0.2939867079020613, -0.21665999458932061, -0.060089916796682186, 0.2719743309572163, -0.8377294496945549, 0.03005837294647748, 0.4198259262935143], [0.466609331504308, -0.11651742419177812, 0.7033322586728544, -0.11808135843374812, 0.12141015568168273, -0.054384833842147984, 0.7442292547224203, -0.06688304710388204, 0.4373957328251681, 0.12065428837261438, 0.4138923393802277, 0.24745877007921618, 0.13849770085281746, 0.11672504058120875, -0.35101127601193993, -0.23454251399637904, -0.09894047001592551, 0.012703566222102197, 0.43213506250372347, 0.3069872634390486, 0.034418820824506924, 0.21555957760892605, -0.1424710741741124, -0.33532032302568615, -0.0219467891811847, 0.30771708430614786, -0.2537091201933427, -0.7380629623868933, -0.5873094306356452, -0.4193455294504065, -0.2715651738256507, 0.25864577869711525, 0.02704550313130115, 0.3565370322205738, -0.19491773480644642, -0.8513401488746226, -0.3456786025665353, -0.18835455243810117, 0.17625379776841174, 0.14156211741813693, -0.1147144746224617, -0.10233725538560726, -0.5189620451509989, 0.08749057990368168, -0.5792193696586045, 0.2987020413026772, 0.3614034232093447, 0.238517939879325, -0.18753902739601896, -0.2684000900584431, -0.823860678421708, -0.2595280864506365, -0.16456981950334146, -0.2294355255817868, 0.24278268649543416, -0.12899591092674595, 0.1924867386269036, 0.2370343828860505, 0.2296934726037272, 0.6615030489280249, 0.6177105594368899, 0.332504989352878, 0.10050367386899745, -0.2598244345391066], [-0.11557682700090877, -0.10844537283172415, 0.5688186177729616, -0.4569226836153265, 0.45880750693315914, -0.2522237862319107, -0.09680353148456813, -0.5323924411322047, -0.10245219622079836, 0.6402119148769918, 0.5502314623720994, -0.2535411229197059, 0.0638071992313956, 0.71793145109155, 0.019946144695216605, -0.42173693123611306, 0.3980088470543177, -0.10696603414033108, -0.4540250223358948, 0.46894253132671315, -0.04142353055480952, -0.22483392900593835, -0.5284163511178889, -0.2312271025507368, 0.06009323175851003, 0.42033325916918385, -0.6050684425812661, 0.05920718574743582, -0.2535543807744969, -0.2948008929835256, 0.03518724237584872, 0.1281136952273373, 0.5359242436661497, -0.13061914310697587, 0.18672897372217226, 0.3010886410724235, 0.6157237987873688, -0.03942221658840939, -0.17931331682322935, 0.10242488546471724, -0.12794324722250464, 0.3963371751102494, 0.1527745033503591, -0.08539331772174011, -0.270225979712831, -0.2902833171178525, 0.5731645189424743, 0.04838215773362792, -0.27271255622623713, 0.20900836234010647, 0.2237776068093609, -0.12932757415952464, 0.10163079166618907, 0.5338135945496906, -0.2881813924960207, -0.10606157299706184, 0.10100796522763247, 0.07527821078713692, -0.1621208552827899, -0.33464183894197896, -0.2224095769694643, 0.24944279018319918, -0.05755874359712421, 0.0484015515480572], [-0.11500725116392242, -0.03783901038439366, 0.1566033730537565, 0.2230479352404274, -0.2508582740152411, 0.4338551518745961, 0.03338529686472966, -0.7450137621752118, -0.6682728722690494, -0.0047078528108776, -0.45910767431309596, -0.12448436629483181, -0.5955299573026347, 0.04137500255141502, 0.3170419110673208, 0.34390170956839605, -0.3781023214443051, 0.326730509012047, 0.1233990326354491, -0.3040485106359154, -0.003986509524222512, 0.2223365617445489, -0.39426690150103993, 0.5663767275509324, -0.48186778469139807, -0.6670218158074809, 0.5937030846485228, -0.38587943136444536, -0.07383600319276779, -0.054373547888230844, -0.45734431755000665, -0.5069572619195789, -0.1595532409919851, -0.5108197407044729, 0.4945157616974162, 0.13907526853273627, 0.36393651578220615, 0.28362593519215185, 0.011346871788071866, -0.028990638480905384, 0.46258293306907394, -0.12280409424297728, 0.3113238497079307, -0.2116780441285452, 0.24454578276146038, 0.5988860419731423, -0.34194612990132295, -0.18699678767818032, -0.21679619072646067, -0.5732039254798292, 0.3571377296617956, -0.12924207708581414, 0.14569774819838346, 0.8727939161780164, -0.20771293843974759, 0.3352947155533601, 0.15941544015939652, 0.2759040983038052, 0.059136186809260485, 0.04089209018967513, -0.18767519002426947, 0.14038170652494095, 0.39197505875477084, -0.17315123965664486], [-0.6701260946034494, -0.41926154373618246, 0.2528993609319181, 0.3196201149652076, 0.2661010779328026, -0.1773787099550242, 0.643785036022933, 0.1195408637412162, -0.28027475883227876, -0.10615044091725391, -0.11174193654088302, -0.05095131078341145, -0.13696364771586553, 0.3567039381973456, 0.05556780685634361, 0.14255782509144843, -0.02994290874779921, -0.1106154711497764, -0.8092762352366362, 0.2651657357521069, 0.10738334712781936, -0.41144949869621184, -0.08642626258992603, 0.20298681304690747, -0.04365390151668705, -0.3817492131747934, -0.15164506857144522, 0.08922996302525665, 0.3778449707484137, 0.07531564296147356, 0.24986825960419934, -0.11032269986747148, -0.3244391524881378, 0.2697915874175131, -0.36615402360656546, -0.0011569891772591212, 0.1172886459843013, -0.2767523853647143, 0.104183517296124, 0.3908951905329052, -0.5444097696294528, 0.059972673026396424, 0.1421376641841573, -0.6077478763309228, 0.5575422713370787, 0.4681217665416566, -0.6831306429677252, -0.08552787611468737, -0.6104875555356257, 0.2855108449952284, -0.6296909469115755, 0.2742583076010126, -0.36610913965657255, 0.16010611552387957, 0.6440755332646514, 0.05574987181547661, 0.17481520225935424, 0.2317395879667441, 0.48971142719738625, 0.13771427366407485, 0.34211120495224057, -0.18751588812214393, -0.6760620586797899, 0.1383734813084263], [0.3908081469041031, 0.28789823100432876, 0.4134123594702884, -0.09886058916060372, -0.20636404270772882, 0.733028843826604, -0.09130156203933937, -0.08801192349482867, -0.02447749945432888, 0.4574789456810517, 0.11241762100602903, -0.354131191015175, 0.44768706524213064, -0.31928012479551354, 0.31629872463186737, -0.49936572743539176, -0.1258473581997701, -0.31753569403415, 0.3222403956262026, 0.24842246366216386, 0.2928550554705015, -0.42268062786994703, -0.4590587815551649, -0.14916368896155008, -0.20044646066073893, 0.4571647805093286, 0.7208032996310001, -0.025149961584502, -0.10242684805464705, -0.5555571858325333, -0.08931584014727655, -0.07433854865033504, 0.11084457308043397, -0.16864120298152763, -0.13983974899398877, 0.22966168201101875, 0.26136559652138713, -0.30233222655807956, 0.02135707022313449, 0.4973051055899793, 0.37754547040526915, 0.30477594296205507, 0.2642821570095962, -0.20357448204488146, -0.17773795580393273, -0.2362173874445172, -0.43395336672422, 0.09844112381211373, -0.5819327229805329, -0.3552284983857803, 0.4943472469626168, 0.7363640108191186, -0.2110601979830356, -0.35844769861832537, 0.36497831954350435, 0.2635123068241977, 0.3822247532340738, -0.12040369097362905, -0.014411305988130313, 0.7239725534309513, 0.16478586968274211, -0.11197824469453144, -0.012992528238037843, -0.4537588969902274], [0.039526121186464036, 0.18641247510818823, -0.17351672024757409, 0.3864416346950234, -0.22541631562481654, 0.7364680437075795, -0.2355230539456733, 0.6068999613816544, -0.04255771780355305, 0.16014152092679357, 0.15250211713935058, -0.14300934143008626, 0.3510759668164084, -0.04801585867027498, -0.36841950424241476, -0.08697027571806865, -0.20203752452398438, -0.4590047055124477, 0.24416635011249355, -0.3328942872828836, 0.037578022619168705, 0.1993679748426565, 0.1815634781854969, 0.41744382687603043, 0.19036392367183574, 0.38325335511226954, -0.13076091473395207, 0.15380587359144998, 0.5129100167941216, -0.45275709408420617, -0.016069136043580567, -0.3038053314871748, 0.025579707588580747, -0.48978139369545165, -0.03691713528897393, -0.07397263316407282, 0.15598298625851215, -0.5669783423279481, -0.4854680863770605, 0.7976441731628787, -0.09033548380450848, 0.1544863317439051, 0.08170997555947207, 0.3020333659445098, -0.050569092181204894, -0.6254661001380217, -0.055385604262018745, 0.3521032121374053, -0.32250477521148607, -0.10877327908017073, -0.666490625006624, 0.26193052068652634, 0.3198874007785182, 0.27013537170872004, 0.4925287930912267, 0.24642142591624047, 0.34557272735280553, 0.40860569827352844, 0.02903143595232799, 0.6745726609535305, 0.3471608321093014, -0.004558378079382974, 0.3825232257480551, -0.15094442070642328], [-0.4780416178305703, 0.17224921647429245, -0.16578919330264694, -0.2502099777058877, 0.33126101780703154, -0.16923700077103804, 0.11406203732197888, 0.28195873747768074, 0.4002167811887561, -0.060843876221834625, -0.2643836741104679, -0.6271384370086482, 0.317089082000138, 0.1872962841859923, 0.8475701639094819, 0.2521849905624788, -0.18994883041881616, 0.33863687540358284, -0.12252648355255046, 0.38080980790490043, 0.30674655538567985, -0.03979203400435061, -0.6655861637009372, 0.10313280738174269, -0.15972699785163266, 0.14503360779207847, -0.40051706193433917, -0.09887294794011092, -0.7150985929372511, -0.761942464024549, 0.3896110720371371, 0.2197284610493957, -0.06453743881617352, -0.2506135317861472, -0.21472876715152536, 0.2200424251642838, -0.04678755145676902, -0.13580500886235392, -0.24617681241113426, 0.4311879289290698, 0.7076331889856223, -0.28220454089426616, -0.31549718318447, 0.12937595775753846, -0.19057579654714635, 0.042327206305131815, -0.01516634494321345, -0.2748379608520775, 0.06407835142212753, 0.003967033973718517, -0.01946907880266968, -0.331905961257954, -0.47755888651261263, 0.27633278169044284, -0.17931123622441694, 0.4849011116688793, -0.39070870708751454, -0.12468813707369758, -0.2461393241107764, 0.13739051327700522, -0.6839306331216857, 0.3870827359826001, 0.2455539869054785, -0.3823011976521887], [-0.03645578700894711, 0.42467898295307976, 0.5219785483450563, 0.43503881184035353, 0.10451462219193376, 0.30528751114560204, 0.42974830942763426, 0.29610916310691043, -0.11383830808011577, -0.11563566052245758, -0.1747385618083225, 0.30899433485987915, 0.18243345227491184, -0.9117404881345306, -0.49210163363229115, -0.3829848905895487, 0.6905101358658885, 0.002471328724387614, 0.23063784308355909, 0.7362008876657578, -0.15319001488962555, 0.09560523254410919, 0.07926950846977063, -0.11679550526048738, 0.4120551313672925, 0.17611079086930667, -0.2962105732725958, -0.08881030723979741, -0.15292697805999472, 0.12612528067330406, -0.14888413940926107, 0.7234981538850878, 0.29585319896802564, -0.29892519650015364, -0.2839849833293525, 0.7286517325981413, -0.19197959837961326, -0.3175166584089382, 0.19436143027039818, 0.06905556671662882, -0.14042912290844922, 0.04604940915880182, 0.07359682220643216, 0.5185704056252682, 0.03209753643881341, -0.5534536135647996, 0.1489195073335119, -0.4994555955434268, -0.4858293051252054, -0.5213485522801975, 0.3927663677207191, -0.6235024316282254, 0.13218204680787105, 0.05141439062496847, -0.22007015376192607, 0.047972243589588015, 0.7425757808201707, 0.5979163752151854, -0.7137287721742497, 0.37552410585406415, -0.3167567041667788, 0.2918459000501349, 0.4477488969785909, -0.1277600521943512], [-0.38315269945533414, -0.16651249410612232, 0.00478473485203651, -0.2951434934685178, -0.0056212989814369285, -0.2774975446336721, 0.21267600981721155, -0.4399147346515523, 0.4708320923262253, -0.240299225304181, -0.1427805776093866, -0.39218360298168, -0.21013748935126128, 0.38862903273998795, 0.07566632306475835, 0.34635245907922696, 0.03139910803934476, 0.2629665827290047, -0.05621448957540176, 0.47253232110045923, 0.16827159554870763, -0.3064598286238468, -0.016597428646407744, 0.12450723913179146, 0.02248982969582971, 0.5445279486392935, -0.30362321495417, -0.04941524370505471, -0.03368875308599195, 0.581685676734933, -0.1095311341996246, 0.47807445774709856, 0.4924748704481016, 0.6157728364109079, 0.22428124251621245, -0.5689311849711479, 0.08857594357953535, 0.28761762215157805, -0.4432907126560686, -0.014695793788205402, -0.1928703434631222, -0.744489104915545, 0.019425693704726854, -0.09377699347407825, 0.3620474094070114, 0.39161607630898876, -0.22690245342161336, 0.1921847115316777, 0.376084348641457, 0.19078351549043365, 0.32635020023782596, 0.4338909021851919, -0.1425983299798564, 0.05539062234627923, 0.19478470793447503, 0.15608584969151557, 0.2072428689577401, -0.09363791798096097, 0.2658496423351563, 0.5597625167968487, -0.6907958402081805, -0.11340457483447898, 0.23937167610662108, -0.26051192600265594], [-0.2764263689714378, -0.0684866459585149, 0.544527438617023, -0.400888156344569, -0.15919052496616903, 0.18726115135101953, 0.33684849231910535, -0.5539113649886398, 0.3635286304851858, 0.20098012257191145, -0.6625531323196285, 0.11175753101482214, 0.19207530065650003, -0.032047144805033206, 0.41271379061058494, 0.26227457954571853, 0.3393486168764748, -0.1140163856661934, -0.24297738386830747, -0.3140849199861336, -0.09778258444507248, -0.5919316330646349, 0.3433265391590377, -0.41866722795051514, 0.23545425354044008, -0.5466783799239382, -0.5271003784805257, -0.07253011740407828, -0.46903378942026724, 0.04188354461984306, -0.25888364596846125, -0.0722127099974327, 0.39933274083507386, -0.18394891323333362, 0.03527416858019847, -0.2608865666915825, 0.07619162233574271, 0.2591992203388065, -0.023889623178852626, -0.26160562940285487, 0.5910919876270183, 0.6792548927659395, 0.3503331391613377, -0.40477812175050615, 0.24559340321672363, -0.5432412768257868, 0.3205612062293856, 0.3177430494901047, -0.24843406668345014, -0.32268655968519444, 0.5081141310328268, -0.27248027405056574, 0.08552091046346788, 0.06059782548351021, -0.10661366307423553, -0.48373674319184995, -0.3854264535566568, -0.16374845371226546, 0.496798600106877, 0.05641724025303767, 0.3589215482885315, -0.45051620229212347, 0.3836592109910892, -0.02725115694805158], [-0.07818585018970892, -0.3238914548439707, -0.10639269245317326, -0.1838266808502312, 0.4092684548427148, 0.05169178375602171, 0.05935658849195852, -0.18685961963735626, -0.012466317132846627, 0.3259432496287804, -0.09564416673103436, -0.11200074054210277, -0.12468006787228769, -0.3326268157415957, 0.300226034115703, 0.6052693611846207, 0.18175169504302965, 0.05750745886939576, -0.07316052681382035, -0.45314333340243856, -0.5950812229398351, -0.26275093054476933, 0.1450329278247148, 0.5817234148485761, -0.18913385667907617, -0.05950340757532274, 0.20168641888108632, -0.41640283824401136, 0.4364812821117396, 0.5396960779212778, -0.6334518237533779, -0.36683921385046725, -0.35213526382879234, 0.05224084415127797, -0.4315662701121148, -0.5172413890959706, -0.8001163605881294, -0.08497647185038582, -0.07741172584314127, -0.3475788440544559, -0.0013572935746320423, 0.39720312509854927, -0.8158256278981308, 0.4008792180517278, 0.3995671177274826, -0.15770462349141867, -0.11292593264965436, -0.21194690746490696, -0.0226073682996491, 0.3009154206741353, 0.2759561491994038, -0.09019055675029726, 0.40856174199149575, 0.16871894341639693, 0.4624223703212264, -0.08207180774133466, 0.5152074845659327, 0.025303864753415367, -0.012587902245063787, 0.43636800463832726, 0.5390055956020314, 0.2948933606327443, 0.10698456264589098, -0.1090145985384128], [0.7027967119513719, -0.3833253534121089, 0.1395167841341845, -0.2927343393607828, -0.043970846764225704, 0.1090604124919429, 0.33994487974708687, 0.0613144118900566, -0.2973345918620892, -0.5543828266874173, 0.598034001652981, -0.47190270107197163, -0.36514795173788195, 0.2903214124633134, -0.5769712390632324, 0.12508553852061555, -0.5582115043514809, -0.0922922576195874, -0.09925034315005332, -0.13616172622398165, 0.36433467570156347, -0.27750536245913493, 0.6070588953197653, 0.29832265663015467, 0.33997280763135773, 0.17079721176457136, -0.5182264997026224, 0.08940748224568024, -0.24782886596597703, 0.006737516171611779, 0.5203779443574257, -0.16161106685315635, -0.014933047417883316, -0.2834496852955785, 0.18087650798632415, 0.17866392223633645, -0.14544644997603462, -0.02302483636460817, 0.4696871968978451, -0.5209847643118884, 0.009804503880329163, 0.29135646926521963, 0.2086875514582813, 0.32412405238650194, 0.4454936314317617, -0.32447633795933284, -0.17799099961665066, -0.5189361747980449, 0.2198306620150355, -0.02689722737362274, -0.09566259611402628, 0.006439471763714871, -0.4841435375517923, 0.21586806342510195, -0.3100831763112569, 0.5098438750338705, 0.3471959262460483, -0.1973106886328988, -0.11282885753352812, -0.3378254200199321, 0.33028581782566147, 0.5036577113789846, -0.49064866608771096, -0.1411432519651239], [0.48520981907875305, -0.36411650381033744, -0.3378551197779624, -0.432915617057527, 0.7155327856684459, 0.15211926462740355, 0.05571555753083607, -0.3530546468295394, -0.3755693137569484, -0.4256660934896599, -0.3466205487041544, 0.21841865365321544, -0.4809558613967704, 0.22112944595452594, -0.09955357768177231, 0.45658037219868464, 0.25029858166675817, 0.5993547262874366, -0.5844216128456301, 0.4264118451628848, 0.5783435954353311, -0.1423756228815516, 0.3080064323667704, -0.003199309270965761, 0.046296557605647604, 0.01882034645854247, -0.44033272076150165, 0.5287104171719077, -0.23714077637834585, 0.49822331741763914, 0.15545662098290305, 0.1493692366928631, -0.2724320314146775, -0.16811079043530872, -0.2946536456408226, -0.4388280277715171, -0.07605082391252982, 0.07090599887098711, -0.09232193165433167, -0.08054487860515847, 0.0865265945431982, 0.13433142949013666, 0.38481286211676097, 0.43327155817507174, 0.6557165983458733, 0.08456627264689354, 0.506093001011664, -0.2523062978490022, -0.021444261310425497, -0.09084858349285657, -0.6079980825391725, -0.17628011017953024, -0.20085986341357925, 0.0016467791192456144, 0.34525865267396827, 0.1781347103361708, 0.14904977108765693, 0.07603290497801007, -0.1376519856865491, -0.1839931155964925, 0.6374101863439271, 0.39867392348600883, 0.37450674671841, 0.5544402494373863], [-0.4923039102921944, 0.2557416938160008, 0.3606914980512865, -0.0675266759197535, 0.20611293265773517, 0.05422242963428295, 0.37563878939620543, -0.3647939136472204, 0.00850874257023837, -0.6503371778737876, -0.3121502599585242, -0.3133803644566765, 0.6527003514948709, -0.294160684996035, 0.03766340044617503, 0.3573361700642434, 0.42614732192346777, -0.14132123992581483, 0.4434885330718928, 0.5581905996666604, -0.4264384940310649, -0.21711027873943012, -0.2553145859187297, 0.48822525408970774, -0.17477699371052027, -0.13566565287447507, 0.35717597975645365, -0.5229619688454186, 0.6695724969527033, -0.25620670731910455, -0.2758147491790952, 0.5738254110131762, -0.1817231769550209, 0.5576402928344603, -0.11660005949150526, -0.3546674389798735, 0.6948898187388972, -0.007530347921052227, 0.12077367688374607, 0.17783566501259968, 0.21520409996044, -0.6679103269680499, -0.45107757615423366, -0.08845503190670784, 0.22279731853485205, -0.09691939474098643, -0.44007494886953347, -0.3629682638224819, 0.4401284978096935, -0.028224537590139293, 0.24013075490423277, -0.31367770841650877, -0.2667266641885905, 0.42210220706180257, -0.07059985602207858, 0.6190658851249863, -0.1299057965021294, -0.09189068158613645, 0.02759625204539068, -0.11402853071304028, -0.248370153059045, -0.40308790075361406, 0.3258482625280727, -0.12633399499534087], [0.2406229990420747, 0.14338593347328857, -0.06949644486072676, -0.33231435298629275, -0.2701455822826818, -0.7794910228116024, 0.48043534505213326, -0.3215402525726822, -0.43681768051028924, -0.038592500288143344, -0.11671798778046584, -0.1867161879861041, -0.23832573532797088, -0.09853307055814634, -0.4811501979976154, -0.06106572195596005, 0.13874140095847562, 0.7852414003593549, -0.03475184286401478, 0.12039686931771612, -0.6559428176647353, -0.36823333056711716, -0.17062512438936023, -0.19427613604669713, -0.0033506588332907206, -0.05105250151803059, 0.22372415100324805, 0.14210381585671528, 0.02070451266041992, 0.1589438790173156, 0.0565484064723652, 0.5554058768374455, -0.42528159460150683, 0.29683113659155713, 0.782518687769172, -0.5183512244179045, -0.250723684924255, -0.6921214575346895, 0.3629632832775755, -0.516457839485961, 0.26961066058038885, -0.15503981937926392, -0.1953171191995087, -0.12222442498068742, -0.31531099077722735, 0.0025486860075383533, -0.34039132729094934, -0.18352975849158398, 0.061884691453313254, 0.165335240668115, 0.28789021530050884, 0.004339740240440107, 0.08000410347673509, -0.02115212031970337, -0.5694546341704267, 0.27321558431912646, 0.1841320617812397, 0.03964123392665436, -0.0855692864208028, 0.18402866831315168, 0.20612599378285174, 0.4918027970808168, 0.31662300650552117, -0.3419471659138196], [-0.1051769210276006, -0.35071371253189415, -0.09663379359177149, -0.30307922960412936, 0.07991485969300208, -0.2476268684322369, 0.7516669810706827, -0.12357737249458273, -0.18449785048997425, -0.07114250335645647, -0.37975649321614735, -0.41950562990176776, 0.08250721384571233, 0.7298015286534064, -0.030704054013856577, -0.14785200449362074, -0.31296162906492464, -0.004812604872473945, 0.38983016349730204, 0.558666732803965, -0.22587980326180956, -0.6681608045775318, -0.4552871943998258, -0.4747687868577102, -0.05143217975756549, -0.31408418833880847, -0.40502224778162377, 0.3033004891265118, -0.327276385330482, 0.08200989902769071, 0.3358990336612006, -0.47534358764421286, -0.19585132857131715, 0.21076017624132032, 0.14250368418892687, -0.06800743912363585, 0.43588136400027006, -0.2133611245428314, -0.18003471269183194, 0.01630208458083754, -0.7447150192097516, 0.17645004358710914, -0.21045581700567692, -0.509012446370307, 0.44603582670532793, 0.06972043512579032, 0.2619288631159214, -0.3676109790124314, -0.1268222598340172, 0.047465481213844224, 0.04407101809180111, -0.25788806813639487, 0.5594252122214661, -0.3512461909033273, 0.2485341560149277, -0.07973716509479403, -0.2881380952064303, 0.36362845272234967, 0.24294601962820314, 0.3304025051622115, 0.1788840492384299, 0.4221122377930808, -0.4609441739240729, -0.28967656079217086], [-0.4783341726504333, 0.12732123036160622, -0.07755087556711082, 0.12962304851660778, -0.526141417034182, -0.27635545510356624, 0.032448777735020196, 0.10235650210387681, 0.1395576820750076, 0.21267683992446706, 0.16990888424235578, 0.4969011652553318, 0.4093793976290206, -0.20112663314018392, 0.38697840660363736, 0.6352536141523029, 0.7088747999013771, -0.427288666679111, -0.2827107888223269, -0.4883780514400327, 0.39379089325636707, 0.39346531914397015, -0.05496320867811336, 0.05059338157076185, 0.016233644659319202, 0.2702482439604066, -0.20528069804550803, -0.148189054214511, 0.13206075113541488, 0.325223228746656, 0.24456196499303373, -0.027309220399616696, 0.3172562037819827, -0.07179621198791647, -0.019520073246150987, 0.009256240929713277, 0.39727862656933055, -0.32947598012742596, 0.04203478957471743, 0.5183653865268758, 0.08190047936536429, -0.09418648431900628, -0.2541697162378275, 0.08450798999467601, 0.10622659430111298, 0.3242805946519265, -0.5923771043954007, -0.015663859995006205, 0.13791085609529474, 0.23802389388522843, 0.5888086541667572, -0.5831993284812689, 0.49681303304178526, 0.43750531073466653, 0.20318381922136025, -0.06779877309957394, -0.23864703900701212, -0.24855354831697615, -0.12925087512517824, 0.3696809236778772, -0.4159985605872522, -0.41780892596883756, -0.13080702883738846, -0.21487193054169396], [0.009289462809805249, -0.02390439936937261, -0.059555340369333576, -0.39435713805535433, 0.0031039108014878454, 0.06126818375390258, 0.5135517495836581, 0.3399436656013626, 0.16697359591677308, 0.32238322345041104, 0.09479311114401412, 0.35295643683515177, 0.2934437525514502, 0.0799784640741219, 0.1715507737756549, 0.26977199424733495, 0.09925803362660779, -0.24627481348151853, -0.28099978977153584, 0.7090198989626337, 0.15842812517203064, -0.15354475898958936, 0.07671142341550888, 0.012178837731278924, 0.26163056225405124, 0.3804171130616635, 0.3523238927916217, -0.6992053287917668, 0.21095244805640226, -0.46861426692582997, 0.2517360477171915, 0.4251279550421845, -0.6307350446479911, 0.49123797451363727, -0.5900981022827856, -0.22577101369456393, 0.10715968543678311, 0.3231606632609546, -0.5300168050027281, -0.011881739867375174, -0.8877727380955901, 0.273937670963192, -0.07602711050923006, -0.2268664392345346, -0.08780947743247702, -0.31224603888732844, -0.4295523617832368, 0.14758045284494517, -0.39735541924991635, -0.02168505192691833, 0.08090216704804787, 0.6482790617589717, -0.008802728553370692, 0.3413963210316904, -0.24753448430950747, -0.6836766034259272, -0.4561432728682052, 0.32952524052286875, 0.6212476386859085, -0.4531131709128477, 0.055266108824278265, 0.09563824779866889, -0.0881787395998058, 0.3021148611950384], [0.3155666333463888, 0.10357535322316144, 0.4268891961877178, 0.006715846173210069, -0.17405418875666603, -0.2948398439377621, -0.0006520887845450907, 0.3427017824037014, -0.013584064375460059, -0.14853098123667227, -0.3481210822827185, -0.00987626259646096, -0.19682922207827097, -0.36372096505631163, -0.2856321866608804, 0.5073362610432777, -0.6440229893160895, 0.4243819976782718, 0.14433488415776824, 0.588932490082149, 0.17193604342821506, -0.14281236473656236, 0.001987327740845757, 0.1978495883943443, 0.03135289046761697, 0.002588691866044268, -0.03649748457671459, -0.005661676172115632, 0.15496973741591152, -0.20203550055192682, -0.3905301304979752, 0.24649589521578785, 0.20948994562404605, 0.5355992552425151, 0.2672987354114339, -0.44362722994449294, -0.17922864096989194, 0.3925128010424289, -0.33311101377318736, 0.4494274997083674, -0.015253696984532883, -0.5942231619542147, 0.11217598817700472, -0.04902787161309731, -0.10282724853750232, -0.17184821243196932, 0.026250407465261, 0.6206761715293578, 0.459337562564814, 0.030173501455408702, -0.06254668291876124, -0.015811906725823888, 0.41417409809597844, 0.44670583343443904, -0.10223391570017717, -0.17662005701972883, 0.08160105485289183, 0.0791736720053616, 0.49075635605309964, -0.008272351542635281, -0.3635064850984007, 0.013697801682523714, -0.10259548728406889, -0.08775477829148427], [-0.047366525355143546, -0.35516262877633104, 0.3388080846661782, 0.3921021097530811, 0.11771811981106416, -0.16168054859116635, 0.22204102556665067, 0.32738601688935254, 0.0011431943281820511, -0.5120165251192201, 0.5543013912101811, 0.7399788634555555, 0.5675096241261867, -0.6181138052581023, 0.44942235475376224, 0.14220450491748016, 0.09770029090584541, 0.012613919961854209, 0.18359805645753216, -0.30507362114453884, 0.6883973200833613, -0.2727939528363234, -0.23672707940292154, -0.15497709127356762, 0.4280093870635765, -0.16051740097910125, 0.33264208164095427, -0.6201839957745423, 0.1690749125771765, 0.40605317128778756, 0.1992320843399235, -0.18280515292122798, 0.6007976212138586, -0.15085967380073284, -0.10583559140592066, 0.5051394631760963, -0.4180418182753683, 0.18160395416719793, -0.14194797752046623, 0.1514953421175782, 0.038903639205443874, 0.1413354196378725, -0.579915058039428, 0.016599731602211606, -0.0614663739162864, -0.5445776778617168, -0.2500158583027371, 0.11174363175215224, 0.015094776824986278, 0.0003483714405965732, 0.6616826840874853, -0.002271894623185111, 0.3592972101488319, 0.4152004685458778, 0.08413537485026429, 0.010269893395745355, -0.5872454377168101, -0.38194709784675834, 0.31326121336294727, 0.24824793984288085, -0.02987296778729609, 0.599525374494565, 0.21534870101695947, 0.00095762381892147], [-0.2105863493554573, 0.30447471041972246, 0.10508837266813066, 0.6434600721618939, -0.14646472363896182, 0.026546400543055848, -0.44858861720880505, 0.20443709936420987, 0.588276908777388, -0.10636688293943924, -0.1629318313366732, -0.018254590157671002, 0.31177926712392046, 0.32994038497707556, 0.5353575390981684, -0.10122258137542406, -0.63522884871398, 0.12914453717959865, -0.15294916847227166, -0.08036041157170781, 0.155648689338406, -0.815410666327442, 0.3023170984537934, 0.08072789074860465, -0.7172555062966303, -0.3009632758673517, 0.2726386661629443, -0.1573214530667736, 0.4500372060664245, -0.561150013430307, -0.31593373199585706, -0.1373433325249806, 0.25941135690631956, 0.39833974224779994, -0.1802791506382445, 0.3469830231755608, -0.5123554946024832, -0.06126009832734855, 0.12672509315327915, 0.2530210520365493, -0.21374190446103147, -0.1806113184149801, 0.08943492977328499, -0.30981113073284355, -0.36148625944818313, 0.11856188564579784, 0.45371822767152004, -0.5475044043543402, -0.1773184877356902, 0.11045705746509624, -0.39582497533932814, 0.06223766222331603, -0.5522611369855568, 0.220587208315025, -0.29794004717145073, -0.23667709214262822, 0.2710451641017209, -0.6686429339470705, -0.5549221288868811, -0.167706573768636, -0.6653834154252021, -0.03450834019789803, -0.025039940319216164, -0.1535269407428722], [-0.4424308947170579, 0.39610164432089734, 0.3199088656752184, 0.4336161879748335, -0.367407804652888, -0.32588386445520523, 0.4825845144511218, -0.08788139054023905, 0.38515726104847503, 0.44028027945445836, -0.08036688499227043, 0.37167656728936516, 0.17226154312767664, 0.0020330165408173895, 0.10180116795122562, 0.5367027188489586, 0.0036540166610035257, -0.1385733573343875, 0.26459674450367904, -0.2112488395242486, 0.1769739576354283, -0.19317976097919115, -0.13463710200846285, 0.33975606580099926, -0.028416135332438197, 0.07194127745479949, -0.04742610448124815, 0.44139033098955804, -0.15324854591043904, -0.1786362658402032, 0.028448219135134623, 0.016393394056404942, -0.22244835873203034, 0.2484274764979333, 0.5831718212273281, 0.3706495444467227, -0.19254613197527445, -0.2898434914397718, 0.15949107858516984, 0.27249996095396484, 0.4869044257684354, 0.3141831240629327, 0.14428396298264873, 0.6368713486493099, 0.30845745904141697, -0.3944101728152609, 0.7153139325055518, 0.48653942110006004, -0.3768220516402327, -0.1747231514627483, -0.5518196388232909, 0.05663312650705776, -0.23370215886615148, 0.4104677787456686, 0.7378898964224218, 0.18313326714526923, -0.3521279597941709, -0.43220714978442487, -0.20005175157847935, 0.05126946041675173, -0.15485006776057722, -0.36366874660544535, 0.1912385517894618, 0.09299715573669065], [0.264954886166425, -0.0016801488458703662, 0.17143180143933548, -0.0995731780798002, -0.42302734160673394, 0.12497282873619661, -0.46227566033132894, 0.26935294768644175, 0.27410277321996596, 0.5223398241844068, -0.1335723495971339, 0.007921449963512413, 0.16686762203749966, -0.5067131733119477, -0.16077116693082358, -0.46567253344397447, 0.5213586052693858, 0.1307680652496248, -0.19269026619605034, 0.3817117306433785, 0.08906416438410891, -0.4303832452104987, -0.14151019344247032, 0.19133221657043742, -0.4136486075925141, -0.03403479433116413, 0.15103941950168215, 0.16269202083757736, 0.06082832716929448, -0.07438725559780757, -0.19236732440410925, 0.0037348651689928514, -0.47887945994418324, -0.33100519755049707, 0.016273158998497184, 0.222109006923202, -0.1047867268550158, 0.15445988746237585, 0.13786697562866435, -0.06337141337499826, 0.034213423202324206, 0.28330577479908803, -0.18329393729933707, -0.059849557993650326, -0.40916643499424027, -0.4748713119832007, -0.6361602693050064, -0.6451813662731585, 0.17209809787343178, -0.6057502117696968, 0.168798558625112, 0.4771545917198103, 0.3872403875566667, -0.6026289766167855, 0.781693205802386, 0.5850497545319913, 0.06144160488683306, 0.3785105839272097, 0.213402535964228, 0.17080893806057393, -0.4748979964955947, 0.344281878569226, 0.34497801009475243, 0.37741842363172284], [0.2576814212598135, 0.007978869707368996, 0.30932536249515824, -0.4054770183671777, 0.24855195778626774, 0.10745692023231643, -0.5223409112021793, 0.8948361381886561, 0.5924188180024292, 0.4832213966577752, -0.1909154503679864, 0.24696984239203326, 0.2747097573063989, -0.3040050239151047, 0.3610100604343659, 0.1984128861730251, -0.06872586851783999, -0.014351865861956047, 0.08651930397505914, 0.03805194866977071, -0.5170548013407742, 0.22073548309762245, 0.5238061690596033, -0.13580867373750488, 0.6015590288582524, 0.027464812390400536, -0.1977460939253179, -0.21213714197055802, 0.05765420387574559, -0.4070353465114569, 0.21508520297039013, -0.1836216247024368, 0.07171258406621353, -0.029826892347893486, 0.047104674440219374, 0.3078317295054135, 0.2976266197878366, -0.46345016525134985, -0.6480195306787891, -0.14807315242305755, -0.3984280327047911, 0.054237154680483596, 0.18583044757686748, -0.5558483318720745, -0.04463458878366644, -0.38453353629349835, 0.45852564681081776, -0.07780473066907515, -0.2979319418038546, 0.40854872347765653, 0.12088024410395606, -0.035608879992024, 0.6012166151979573, 0.566645075259909, -0.3167071282144305, -0.17957602079778695, -0.7339772222297077, -0.3335021934338417, 0.15240838292976233, 0.08192343866780954, -0.42242953013756984, 0.0352740841330986, -0.03396391023419304, -0.07092267714376596], [0.059301229358503904, 0.22265123420169197, -0.2508273008096382, -0.40117044673729185, 0.7945260185421461, -0.43618108284490964, -0.5002003317838282, 0.08311163026290255, 0.4231196646022466, -0.10007735109620827, -0.11128864125863494, -0.6517851407271247, 0.42509795422692537, -0.3752915868870306, -0.23642386830661152, 0.31387849087853215, -0.11645486047494294, 0.7419910494526435, 0.537315303171704, 0.4225552628614655, 0.15009260348613754, 0.47162049726147426, 0.023411133559040037, 0.7420975702364445, 0.06466417229280108, -0.2937179531976218, 0.18709872248193654, -0.004564424514234722, 0.4952019583201641, -0.12899049537374274, 0.10733618541665693, 0.4963824991999118, 0.0009659558024549542, 0.3743909973711178, 0.37199905695825153, -0.37979147684815984, 0.19051871491515052, -0.7623112232739407, -0.1561773520335687, 0.1822888680313172, -0.22469741899979434, 0.1551554925030667, -0.36694479736470326, 0.22900966058016797, 0.10978632661454735, 0.5142500856356029, -0.22652993521747078, 0.009283456889651182, 0.2095508622917225, -0.0692025826403117, 0.31892038278301915, -0.29098101000529625, -0.3159774854742006, -0.41508764359717654, 0.1363026112786831, 0.7749112412121605, 0.05823689189269807, -0.29073804141433324, 0.37249367414221873, 0.0910172011409622, -0.34040743843812193, 0.2942263519711601, 0.8789186160605613, 0.3552658312249434], [-0.01856425597042316, -0.09712955632035786, -0.24065735588526008, -0.31652170183994777, 0.1298849671092686, -0.1887493435447341, 0.085622578120645, -0.5890356802001423, 0.17349013361127313, 0.13297412593523059, -0.2904617118904811, 0.29543897619712384, -0.17409895857396496, 0.15870432499996673, 0.28723558663888604, 0.23419881714249463, -0.05094976160530612, -0.3418655439253361, 0.21960814937699633, -0.4369412116588815, 0.32635078164780496, 0.1824345062664811, -0.23782434596014362, -0.151468411790436, -0.8064996633529025, 0.39705838561431006, 0.6250014265658161, 0.341569000876559, -0.028457400846131825, 0.3071385190484891, 0.6031857052586931, 0.4908535920141034, 0.3884117235953521, -0.4390744151825462, 0.3750612464771373, -0.4749974042032465, -0.12135905178490075, 0.3643826913672379, 0.16964334283789287, 0.11238876461187022, 0.3543494562689361, -0.16043186572023824, -0.1133749276049443, -0.5849040208461855, 0.35737066914466986, -0.06748846414110304, 0.32458539087634286, 0.6415812458831739, -0.16342357615624645, 0.06696744827124768, 0.09887950256152049, 0.01644718500934264, -0.004765985540716958, -0.1167390733191159, -0.5510935843024024, -0.010641827293377246, 0.25227845580247443, 0.2513326517992837, -0.5242516042517729, 0.4952542826459309, -0.5094402355898069, 0.0002619497421643968, 0.7352663173576586, -0.17919791875145508], [-0.22366168583046464, -0.2814704356717457, 0.05074437390091563, 0.24081105997364632, -0.5268351531401738, -0.6145444850842265, -0.6179736950856732, -0.4400799907224044, -0.20382891014012222, -0.4270373361374545, -0.11674150579948789, -0.2323464895399321, -0.23482448419244625, -0.5981428934685072, 0.2824471538346076, -0.30102695321337597, 0.4624560484658514, -0.7294653822232919, 0.15462341833648802, -0.22918240219629563, 0.4379336362464987, -0.23032654308304326, -0.43192822891534044, -0.2036633965524682, 0.005789859426276828, -0.18660668443531547, -0.070526962656373, -0.42832362768531174, -0.3582634792652296, 0.009165226519796704, -0.2542975546122933, 0.10247935127753965, 0.16132233173741348, -0.27775558301727976, -0.3677389452525947, -0.5207179772091601, 0.2609293725975106, 0.14455433764284048, 0.12858761825624931, 0.0813851513537589, 0.1854717156119098, 0.16208608354660517, 0.12574545410670834, -0.004850643500133478, 0.2791727721501637, 0.7589039853047852, 0.12886206192943614, 0.2676913186578672, 0.5186389651186277, 0.021965548186037492, 0.181284847031924, 0.12074147152818043, -0.30724118834601777, -0.3106552594620068, 0.6691919772443367, 0.30256785051400437, 0.05135869078775468, 0.21346782531306524, -0.5624466967705881, -0.6553783786949829, -0.61759242944268, 0.13904199368388886, -0.2501658907565897, 0.6364942623502525], [-0.41726552721467414, -0.04233572945008782, -0.2562910101897378, -0.5507981588435803, -0.4000402355580767, 0.16181155138877895, -0.1839222144062319, 0.43437815582935446, -0.5291394663131533, 0.026946195420119418, 0.4171738250580771, -0.0017884787248879652, 0.07205381945473183, -0.0007778936470270725, -0.3092587606169262, -0.030578672141891805, 0.006639835347119094, -0.3278890919915113, -0.5739688655798902, -0.045785248348335306, -0.4012254425319346, 0.391292312073785, 0.15971011949582903, 0.04098728483589735, 0.5117537945980326, -0.22333870153278398, 0.5423525543065665, -0.22202979849830692, -0.44036541356703607, -0.23324393356938108, -0.01667326930703722, 0.5610137643811084, -0.5091889614763995, 0.7328874868678061, -0.013848108774783707, 0.18716725923141106, 0.09565275612825191, -0.32221290655333035, 0.1860950127310934, 0.44623287650612353, 0.041622382952538284, -0.16816705443778213, 0.3151851105843108, -0.2828361932399158, 0.2734663505631431, 0.5155524555613077, 0.6302244376181686, 0.09836341876733526, 0.8430589312252468, -0.07770253209267539, 0.3697781371047105, 0.4873556345567714, -0.2726629076213693, 0.20655806398393345, 0.05662142085412017, 0.2044946017365244, -0.2789283573360787, 0.5787068662735269, 0.09935718619926129, 0.19561601440410037, 0.005646765007867288, 0.3999195999739682, 0.04298085968810947, 0.5804605871815016], [-0.03723919225603836, 0.03765790553138615, -0.11994505083128223, 0.1853421722674003, 0.03710695440419298, 0.46268731485535, 0.3191091955174541, -0.10516682321173573, 0.37170765071648404, 0.14842841737588092, -0.12416481131249352, -0.05285557478532299, -0.3310205258151361, 0.0327269110630895, 0.5880547031232685, 0.5909479195074223, 0.039886626517589424, -0.5522926318258605, -0.1967828085518143, -0.5126612136423072, -0.11095462940287396, -0.5386998449453256, 0.1563058728687127, -0.11155446136823814, -0.4029195693507306, 0.47683565757035334, 0.48723880640365114, 0.25111203862587206, -0.23550463043868639, -0.058226842713172466, -0.2657083502507891, 0.5759747176203731, -0.07085690509494097, 0.32776239609443747, 0.1400991856473312, 0.32269718076029563, 0.4261041137733344, -0.19555187271809818, 0.4766990685650122, 0.19418898605825263, -0.14382162200213447, 0.24373298010818145, 0.2566139415477294, 0.15228203941728574, 0.5970908505293284, -0.22305837476858614, -0.10047468604444242, 0.10548371365475491, -0.12234936312613354, 0.7243164749577221, 0.5695601902305938, -0.1097811220983233, -0.06523421771791796, 0.3638086121933221, 0.3666936555380608, 0.539740962856271, 0.40999931426516434, -0.37807576928221837, -0.45297321633815263, 0.4431744680698565, 0.4071703575124831, 0.18923325938489582, -0.021606929449309475, -0.026697759151921324], [0.23412535217772637, -0.07649307300544331, 0.28015241295554166, -0.477669238103161, 0.0849971898403667, -0.6284841043735744, -0.21776504432212257, -0.20547652627210658, 0.03265127600533471, -0.03003365225865645, 0.27043703751846704, -0.3725595755663201, 0.2734998047097281, -0.6693432463817324, 0.3523918637204704, 0.2242719711278895, -0.5141041216481483, 0.11795615550450933, 0.08962135172071845, -0.3306866159017637, -0.7629306998978105, -0.5176233043679951, -0.13261410068473847, 0.3049332303108181, -0.08904657916195184, -0.05787538795694692, 0.26847732178651257, 0.6716769555297619, -0.40575672463253154, 0.7684291882186775, -0.03676143286418146, 0.2898070239009789, -0.4275884485229683, -0.5951556371658611, 0.48612235542552096, 0.5301355172196892, 0.04067145418501755, 0.09301599630010222, -0.0069046238048821595, 0.363026153534455, -0.2175115054356294, 0.012319605365214606, -0.16024264345859499, 0.020213685207375404, 0.43022180740146343, 0.6138087460040713, 0.04406804382667606, 0.322405309281243, -0.26149422273990786, 0.17810166712091272, -0.02319885515456746, -0.3112148378636403, -0.12476388308136646, 0.5692742837445353, 0.11741588145162624, 0.5475487499840692, 0.0021817374643260945, -0.1966125430324415, -0.4094191692572202, 0.4675924333930448, -0.02671558870301055, 0.21790040750172193, -0.38200115381388156, 0.31654724330510237], [0.4745635539809618, 0.3812109258253199, 0.33920606220100213, 0.19768874317246943, -0.4552026753554451, 0.16437914488036803, -0.08991746278585655, -0.13523339975030968, -0.2944202062053466, -0.20767673739617903, 0.03380873994878131, 0.04506176962957581, -0.058019490209585786, 0.3214154977263154, -0.7574984341703892, 0.36480950131591866, 0.7661560927565615, 0.6344869746674465, 0.12366770458541795, -0.28072079332170724, -0.15911179542094303, -0.31653143435908215, -0.263846978773599, 0.2115799575176232, -0.5309335849910349, 0.3922606333368658, 0.5418909248967962, -0.34234924764596875, 0.31562578153729104, -0.34070189357117825, 0.10053616104524143, 0.3771544899200544, 0.6076429199914004, 0.5046683575272621, 0.07798264368657676, 0.007933130919882292, 0.061173500273309464, 0.4336957736070087, 0.2628162386719022, 0.47938438297459807, 0.0685343927362754, 0.08218468755782452, -0.5435657210570073, -0.006619226781609533, -0.07521243818846274, 0.09299621595989024, -0.2731647517106621, -0.23311812356570905, 0.22135878210104554, -0.22523140538854858, 0.03858127522429905, -0.5327588296963598, 0.5060935124624906, -0.29929670044103684, -0.38942383446378653, 0.18258142953820566, 0.32158832538761367, 0.25648838182993405, -0.44011305175788246, 0.5640164288087455, -0.15059851334225305, -0.4067146974782714, 0.14496472349303707, -0.4408479488905065], [-0.5227916529090223, 0.1786562129632896, -0.23258220629602605, 0.02639043070249078, 0.04683853446627212, 0.11741608371676433, 0.4541575013250428, -0.053688483282222144, -0.3078410678279051, -0.4138621464785639, 0.42302058321915487, 0.5010476297913152, -0.1258635942632644, 0.12626186559038932, 0.4874058027979684, -0.10221542394752219, -0.29826900068966083, 0.04140580070354699, -0.33426058053822155, -0.26036124745499384, -0.3103135154654577, -0.1595855677444586, -0.06545817781369195, -0.48311858224992826, -0.6647505382992109, -0.16766952442426358, 0.1927795626522209, 0.0005729305949556673, 0.4857132998291197, 0.19741095641720724, -0.319063307715184, -0.4473973493925072, -0.5293356774097826, -0.24952976731488255, 0.053833483790515696, -0.4431665248932326, 0.12646701061828428, -0.07426773756636829, 0.26376545751757685, -0.5605794251996062, 0.13359221866610616, 0.19430417081546758, 0.26979232617802823, -0.426719340555488, 0.006308690962882557, -0.6832505867143117, -0.31149913273886365, -0.21535866230905232, 0.32977474075176166, -0.4017663704308746, -0.5330318010246206, -0.2913450487177286, 0.5330167182583372, 0.5840537592710205, -0.4148883228428384, -0.30180642278291764, 0.23613801134992624, 0.5429890876497601, -0.03585092111235502, -0.24796450005125792, -0.46606813511584744, -0.186589731115331, 0.7106335315685451, 0.10878601614107264], [0.08808434748313601, -0.20588978793448154, -0.040875235570333734, 0.5822899646500818, -0.05381090014614398, -0.2420090928350014, -0.06247899086897116, 0.1333423824626518, -0.5379076531116502, -0.19648585671466606, -0.06867031672659643, 0.5520251266913137, -0.22496653810951248, -0.2768549124199927, -0.1946634317724973, 0.03552629736387694, 0.10787508688402281, 0.23958095322600342, -0.22717830774565984, 0.21612753934984538, -0.07615514058854084, -0.5309751779632758, 0.40330068206740416, -0.07121907350925466, -0.09437003871326949, -0.7297194348342434, 0.10444399908141433, -0.2282783674351527, -0.3708272432413599, 0.2744104142420814, -0.7073318041412864, 0.3045163169171487, -0.11788048386051761, -0.16281995236003355, 0.444379627812282, -0.3743222613602836, -0.13956929258181175, 0.2727951255315296, -0.02776952078166818, 0.09933430460012804, 0.08636607454039215, -0.3689187524265363, 0.06604401560018663, 0.39267683584941754, 0.17187384045223067, 0.04268304452935906, -0.6162479786559416, 0.27228712790021004, -0.33600513860105896, -0.28373908373999057, -0.06421141019493956, -0.10780235620968276, 0.2552072585907996, 0.20550125994777907, -0.5937025064804956, -0.24598712071565176, 0.17712856132627863, 0.6477284655368805, 0.43284936379593403, -0.30172695819303375, 0.2570143112002631, 0.14098923662802407, -0.30669731976732245, -0.6348257780811323], [-0.1502997198878479, 0.004665744115465553, 0.1548074069467628, 0.1405840531911811, 0.19499790889414814, -0.23887431034214504, -0.04216687177534434, -0.3783750126323654, 0.3498184750252828, 0.4061209807713868, -0.5584978749966845, 0.23939315581202614, 0.3642853918822403, 0.596286856600345, 0.38336646841055766, -0.2136097479332244, -0.08801719318545595, -0.016532567062543663, -0.07954088438366097, -0.4524244635829043, -0.20476254961837848, 0.4862035505678321, -0.40488771617004493, -0.48033633227942074, -0.5693971325316507, -0.39456106958942094, -0.11746468423217546, 0.3757865014759709, -0.42655387321928695, 0.45427795078555344, -0.18160170114866458, 0.06689755257695981, 0.2572846468402828, -0.09646990329677357, 0.21588006483943273, 0.10273944237857918, 0.3234232049564193, 0.09818260369853027, 0.1745498051366572, -0.11435388745818026, 0.18871549981742386, -0.23077139765454185, -0.4154752028805304, 0.07781112962467479, -0.24898404035098765, 0.4614705782011228, -0.27902707819835787, -0.7341434115007336, -0.373212107592052, -0.09738215612928419, 0.007876262169339121, 0.07485457648032093, 0.017335879549980643, 0.6016491119935304, 0.48922926182037585, 0.06916900300124401, 0.3461668259288238, 0.46393728058708716, 0.08045242720055101, -0.1294940448601758, -0.1489850039519799, -0.14956017790080892, -0.3796259759159785, -0.1741338330240014], [0.13304756116990646, 0.022733222686452226, 0.32615884503887904, -0.21981136918401722, 0.3334942383652038, 0.6936487011418151, 0.06137763227910416, 0.4621871943413792, -0.5093295932907673, 0.38034496777334825, 0.17015596350603707, 0.24592362677178606, 0.301229377567779, -0.20104287417365213, -0.556885364609876, -0.21895345724381296, -0.44858227108984566, 0.5363658425761, 0.028625790610009947, 0.10704086943875112, -0.1500641597509023, -0.1803647211359595, -0.24268622698999198, 0.7642756940093727, -0.1900281855953826, 0.3319831192008904, -0.015580065239435947, 0.020642647536724804, -0.29112028029533255, -0.5563399221356062, -0.014386836579269383, 0.18032366943755418, 0.18479806144513347, -0.15036053304614921, -0.18771009320125526, 0.3492627608790087, -0.6178643385968712, -0.046709724631481674, -0.1530105891891678, -0.14744567590193558, -0.36392490895038676, -0.28515753031268787, 0.0328777526498957, 0.12266753430956084, 0.5034307440046555, 0.08708417102747434, 0.042579416210825116, -0.25189339300940217, 0.2297567841679502, -0.23403851446879526, -0.036439223168781315, 0.20553084495770774, -0.12953253544139187, -0.33556831725293795, -0.17808569412366537, 0.12442106036436332, 0.0036433533241050364, 0.4178340023516076, 0.030235577435996974, -0.5723606582195124, -0.0374613083187991, -0.40458582558752276, -0.12678849750726634, -0.19469442386038527], [0.0535803643448339, 0.5880655012374038, -0.030003932077330125, 0.29326987857380277, -0.3496022691619425, -0.4898195911055874, 0.2783943069637644, 0.1436485366039869, -0.542633738780714, 0.0659586857439215, 0.7723889097969607, 0.20351775402731553, 0.5403486751216746, 0.31696779117756446, -0.2311262511339553, -0.11763710571553898, 0.004193322837987318, 0.11156162198194944, 0.2518177213832599, 0.11029590419501067, -0.15029293145471037, 0.13025324768710225, -0.14509378937857786, -0.09119729821357125, -0.16201518332644987, -0.7826630917553854, -0.5434356841634889, -0.04530047347273425, 0.7286383565658386, 0.5383624338922968, 0.09717641269386185, 0.6326763189674147, -0.10169398998026966, 0.040446276402072434, 0.2976135287305883, -0.31714665751368915, 0.1838816588310358, -0.31622596299172684, 0.19610272962852732, 0.41069972028335433, 0.030358796173018385, 0.1462010322076719, 0.11425961483273966, -0.2507361019814989, -0.5664184917407818, -0.14643933799904962, 0.7167516727855041, -0.14857291751759577, 0.29588172304436544, -0.12026644167008618, -0.47843171689132796, -0.11882776992521143, 0.6244624592276546, 0.7553166712240837, 0.04651923336667313, 0.007975034673281756, -0.6840513322000363, 0.17282492829441806, 0.0020965933237744316, 0.3092347139069445, -0.01696878751937196, 0.45070363550938763, -0.6574858159505068, 0.5281697405396387]], [[0.18587824479551113, -0.2659111190384986, -0.33049085563101077, 0.25307709723773875, -0.5005647303384593, -0.4482997603940745, -0.6954982198288046, -0.14296389101659568, 0.04304582082355332, -0.5125571428802599, 0.0309896610498, -0.5735861567361051, -0.11584198917977415, -0.42391512213265625, 0.38757727904091377, 0.22535010107850295, -0.022129385494758527, 0.29002628189883267, -0.6778174763136282, 0.6084780031155816, 0.1356756422789705, 0.141341763112455, 0.16176938068242663, -0.10774494392270559, -0.5299986296272017, 0.19242868080282868, -0.2893032488418992, -0.03212558087141984, -0.29955377025849933, 0.15890302386360844, -0.17285821625897896, 0.2197656724473883], [-0.0579479258900687, 0.3456950274995607, 0.5525225539435856, -0.061469026922752246, 0.5277166462693644, -0.08099507718014128, -0.09816270708368238, 0.232195958009974, -0.36105492249705873, 0.28155246607221157, -0.20378208406838635, -0.17157576608499894, -0.5473393800507007, 0.24702464401842214, 0.35725999606527514, -0.49973830941780784, 0.18477218127799752, 0.10590361001771897, -0.35910178251866653, -0.16961540229177374, -0.04150057153605212, -0.47315445072736123, 0.3002408843408392, -0.44681088869325647, -0.009314014837146473, -0.342609601238709, -0.4994902563892709, 0.3801432963297069, -0.18283920862761122, -0.07867108574045348, -0.07993056846239546, 0.3337845268234965], [-0.14017829123185613, 0.08859543508355991, -0.6190319408504117, -0.4197624181183262, -0.18321542046957986, -0.41474722977491935, 0.8273698950211522, -0.052597604239384754, 0.1544291869734066, -0.20582320443405183, 0.25645869128902976, 0.4528140281835901, 0.3956573690782418, 0.10950026514489003, -0.041649474969656985, 0.005062912411116505, -0.10126871942579563, 0.5615021085704275, 0.6940566832162127, 0.3162089819677708, 0.047233944409161815, -0.1671935669811964, -0.1108269305677756, 0.5052617348274264, -0.21186247780374787, -0.4799183833502354, 0.266759285599684, 0.5314787839807132, 0.00329880326714993, 0.0874367076474083, 0.40626491242941853, -0.6333111963881087], [-0.6686359852538786, 0.579892030622331, -0.18379285368646414, -0.32863026307066606, 0.4745799834272185, 0.891676289043791, -0.5041927000608943, 0.3574480795389025, -0.5485242568419444, 0.0015242587771418514, 0.27554128339457384, 0.4651433779631147, 0.6926114265676752, -0.24697667356494793, -0.36603536601228837, -0.13074977086255057, -0.6302119380043312, 0.23696314961891465, -0.06620867355349913, 0.12932892056326822, 0.1098790417087453, -0.37724974577849346, 0.4410135099726021, 0.26664721167752736, 0.3723697645943842, -0.33762409620305106, -0.49950613595850274, -0.09082458057940057, -0.5950782004874228, -0.42672523629369785, 0.5091873125625737, -0.674596884335309], [-0.37613862267588666, -0.058513640498446214, -0.5201010044407743, -0.5427420569553854, -0.03442422390512165, -0.005135148165266903, 0.7273392209895704, -0.04667212019147851, 0.1793919373030448, -0.039235109667990375, -0.3049652029182894, 0.5468508475773896, 0.09551758537020721, -0.19452970256284738, 0.04303644620180515, -0.2328490935022582, 0.7029360699098655, -0.06168955788473984, 0.09939152751244097, 0.3120526948833173, -0.23477593891816206, 0.1402711388779539, -0.1112484409214792, 0.05668522396038714, -0.14870364140916031, 0.3678958856705637, 0.16051919029559977, 0.15649299799713023, 0.390687046573299, -0.09072010614168317, -0.6372127855431746, 0.7986472084562699], [-0.3372680875436171, 0.1954824949433048, -0.44064057998523176, 0.10892346183204005, -0.2755804971208773, -0.003182176872456366, -0.2088354256674828, -0.013003762427269472, -0.5416593900032753, 0.4437680967079201, -0.0751471060467212, -0.3862364113403939, 0.010114921329489698, 0.1512060365312452, -0.18915774537573268, 0.15777948586842755, -0.3071412688312855, -0.5494487754240364, 0.1796854865693985, 0.041230246638405854, -0.6828275214232566, 0.18345865631032338, -0.1727317872220415, 0.01828548074376557, -0.3356153616920462, -0.07463063545596782, -0.0714344904649883, -0.11460185001183108, -0.40972132507318537, 0.2358777740046556, -0.5815395106594122, 0.08763302304820836], [0.3974316072027126, 0.1917054261119378, -0.5152559070209328, 0.6000883988828458, -0.03217777302910321, 0.3731828064453976, -0.12027773950880039, -0.18589930004675548, -0.10229620838867688, 0.1787701402025851, 0.2443553846092317, 0.09584952958757237, -0.15219711423355317, 0.4072494869723581, 0.08265334653249706, -0.32813416897786785, 0.0479617612426359, 0.32758384595467804, -0.15358072777542478, -0.03812347664164345, -0.3417104883452521, -0.12941535121383058, 0.124239555019623, -0.07043433946578345, -0.3226305492836765, -0.4020224179414099, 0.23918519017480108, 0.21918164686026725, -0.44341459165143804, -0.31375130412600877, 0.00280651781937874, 0.09399722350451797], [0.5812958728560629, 0.1557215815064745, 0.18988594867471964, 0.10110555547696251, 0.08251271094726093, -0.29553985065561483, 0.4214805189980854, -0.04891100024309239, 0.2155526730180934, 0.04451059043087696, 0.175174681319437, 0.08958028095743133, -0.04165901720660728, 0.009007598615605045, 0.18790822295226808, -0.3391514291556749, 0.3304219846266843, -0.23892885486437043, -0.1052547577052021, -0.24713165620710395, -0.35534404798517766, 0.04700223954464522, 0.05279529033682102, 0.2379604912131289, -0.12936001534949895, -0.282443832372044, 0.40583553768281166, -0.49702464227792353, -0.17590106216128532, 0.15379480433043657, 0.3620644219781471, 0.1507573138132358], [-0.4612919282095336, -0.2865351413239803, 0.5297283075567975, -0.4355943625563069, 0.045398393633147044, -0.24858877651716793, 0.04538608656120674, -0.00042692783684664115, 0.5392890490557473, -0.35139455535527536, -0.27217467268723927, 0.3091078899278485, 0.019181796642689986, 0.0502958688622934, 0.1518673673441513, -0.0013976436656956484, -0.5048161324410481, -0.6410747843910142, 0.101875793470377, 0.4516635544749074, -0.030154086152682086, 0.46708173400629227, 0.07958928474506793, -0.15197079418697135, -0.23867220350578916, -0.23964292900465467, 0.3530906947500046, 0.47183785333750544, 0.19078830313293946, 0.3372546809753466, 0.5893173141227792, 0.37631722947102625], [0.02940138030080055, 0.6567976852339614, -0.2123173397677699, -0.166387784493079, 0.009445397852746867, -0.5616038317606799, -0.5913184242288086, 0.4903289441322225, -0.32063174845771236, 0.12473317162856287, -0.34309564763541234, -0.7068890256528935, 0.8073515789330489, -0.5553069745425528, 0.20683585709749633, -0.20642728004827862, -0.14478347301570602, 0.14467316087566273, 0.1482108287116724, -0.23086590497527604, -0.5720614461792269, 0.24836098856074396, -0.17329652695372258, 0.3015623788611413, 0.10029299225799862, 0.12030312753028422, -0.2840103724938194, 0.23727388739900218, 0.09034540885641623, 0.1683431498048426, 0.4338248521470037, -0.026864308443787344], [0.02940320483556369, 0.2440447533506151, -0.22008065837153257, 0.25185315737039216, 0.32473587508449825, -0.09219872459442424, 0.4376194959517113, 0.4593876551869076, -0.46165644005489026, -0.12952038514024997, 0.5427986528519863, -0.23608303379996157, -0.12959172616022402, 0.008584561698821366, -0.27874319464038655, -0.2400210367367229, -0.2803038578526146, -0.014036587528494071, -0.32474024017419656, 0.31008613481210173, 0.13349436742202817, 0.2700712193595203, 0.5116694888021205, 0.05727590711258365, 0.3910170181028582, 0.04304758902875977, 0.5151687440910265, 0.7875498370330687, -0.7575542755473725, 0.36044552432461424, 0.3640802918784626, 0.1849224192500658], [-0.4024148003804845, 0.4150823160520234, -0.3603625790151833, -0.1346335685452031, -0.0436062410208002, 0.32525483321789656, 0.062031406216572244, 0.5729965271095507, 0.4538093328102962, -0.2730766981370897, -0.05869321241343903, -0.6496345108293156, 0.7380632988284024, -0.060504355444445435, 0.1710466032962732, 0.7898633027753855, -0.24810677600653197, -0.6794172383985579, -0.0025456759249214422, 0.10395504533710409, -0.4851205307449409, 0.14947559118397397, -0.07149694667413492, 0.16887615100222203, -0.3275496560644954, 0.17009801065123775, -0.47422536075947674, -0.3142620493751619, -0.6928614323170669, 0.5951030422738706, -0.007708552801834828, 0.35592652960440196], [0.6798776732285675, -0.44114463691404, -0.1494182260038541, 0.13522621197500667, 0.4902594547688941, 0.6433446687420101, 0.24859548074356885, 0.033172753412202216, 0.3039599176213951, 0.38692378305572706, 0.5147404866538435, -0.24886178070954607, -0.18974155811361224, 0.07204532384679772, -0.16767213178093893, -0.5704108562602848, 0.017605539877473597, -0.10579410436270087, -0.6462757635516726, -0.3341353312190416, 0.2634525046147921, 0.10178515819563339, 0.6522712153522161, 0.36641895519873546, 0.2262907543955608, 0.32656645717625943, 0.2671833002575795, 0.02217464372083605, -0.09678353360877326, 0.07534687893931762, 0.03063598422795838, 0.24822477573377388], [0.048909848547664204, -0.06890231099682792, -0.14635446908781374, 0.5500957719428714, 0.47940174601086927, -0.10449494720965477, -0.14036720067114913, -0.1817827680110979, 0.7055121547552328, -0.09486811296554042, 0.1767010302568705, 0.2653600731483084, 0.5510799474651167, -0.25635803897059956, -0.13161335007043767, -0.2149295002068915, 0.20068021541941106, 0.604814541388994, -0.22660938060682786, -0.19966520785394384, -0.16297835566627478, -0.05777512807983076, 0.05020245708403376, -0.14081171002812204, 0.299026247561447, 0.6794658726800149, 0.22084058237085985, 0.3888645371303625, 0.09998173918121894, 0.5311644040567656, 0.06406094586230146, -0.416521807966528], [0.3330838853653287, -0.5063867317442189, 0.04696059682764392, 0.38056640136304687, -0.5423607864351337, -0.030481587860288012, -0.20845730223627276, 0.669850315544828, 0.4256582122864039, -0.16452802819929624, 0.43096020008474456, -0.4463167741626787, 0.4502894490390126, 0.09373167150538841, -0.33638348455615064, 0.31923482084692545, 0.44162315946917097, 0.2847408466936847, 0.3284572163860318, -0.2846260722971815, 0.5361061434567269, -0.37775069512566173, 0.019414961535069414, -0.3682625546968032, 0.31466072135284295, -0.163601202920505, -0.22642840064482675, 0.008858520651560356, 0.05885080749467986, 0.002908802438360114, -0.2821298598864705, -0.5006711431491372], [-0.22279063110912728, 0.11109113460291059, 0.3778791511153153, -0.020021376713609276, -0.3614507242046632, 0.10055811591984373, -0.3005048248030865, 0.5155987341256327, -0.20127322187655683, -0.009483312650067549, -0.3561935516522461, 0.27762649768025127, -0.07065488303062228, 0.46996091769425885, 0.49024262025118304, 0.24621506396660953, 0.15660654305171046, 0.38746067957143565, -0.1921618747327343, -0.3561093576148405, 0.6318839212571069, 0.6125682255677994, -0.4544464953590274, -0.0907191639379265, 0.2530162760682262, -0.4026058189223265, -0.010669935369753636, 0.07178000676469586, 0.2012140803337057, -0.5664649880981473, 0.18911685064271633, -0.23724116086961097], [-0.2810833203577102, -0.10414694292549145, 0.2567899663903009, -0.31967506247426075, -0.7710990585796006, 0.08935937618668022, 0.09485959738390384, -0.17735020592475575, -0.6463307266181495, 0.4875008278305437, -0.10325352371216534, -0.06699459652422472, -0.09395689731159268, -0.13435137517695603, 0.045360470342497364, 0.3979022947454253, 0.3703839236336222, 0.4116644263619812, 0.09772872477840852, -0.3096027965283917, 0.1757597900118396, -0.06411119928521976, 0.031568945954596306, 0.47323248333491424, -0.05713797016201627, 0.05089752095324082, -0.5079442393584908, 0.18841272961154729, 0.1304698966306636, 0.3896847931009766, 0.1384331693596298, 0.04831863777829912], [0.4185678480974838, 0.3187566829484626, 0.1807474065949995, -0.24349142363767604, -0.0890699766715608, -0.04285467162425513, -0.19850748161538714, 0.10636961471750189, -0.14438996940410248, -0.3307710357691076, 0.5082733260388501, -0.3011477388245343, -0.12553482985926692, 0.534011948649, 0.12514361757804893, -0.657499752011156, 0.1661269047122094, -0.25919637162440723, -0.04367723272670714, 0.13070225841663285, -0.1680519705954806, -0.2957117321358003, -0.25315275691584116, -0.4763622117343146, 0.21699716843589503, 0.7976126876216778, -0.048242062242920575, -0.32687912609737724, 0.48374805149846484, 0.013373785906367591, -0.024284969848494622, -0.30665674662344644], [0.19735742163478498, -0.09973859205648472, 0.3903473783983671, -0.5664953996903672, -0.2911131196428547, -0.44410622991578363, 0.2344347259101751, 0.0833193568212783, 0.1107079587442072, -0.35469025006818977, -0.3804923025374522, -0.1965537527426403, -0.25603350059025765, 0.35076410866742463, -0.24954026143879654, -0.15089400434983008, 0.10656443797768986, 0.18010122428566955, -0.2850874965628365, 0.2692665438827088, 0.006350078611320691, -0.04904241900659048, -0.3787440107816303, -0.4546392138594289, -0.01521648298022188, 0.17227234524241475, -0.3987948317207905, 0.039760353895677475, 0.06799993891239381, -0.567591520938269, -0.2017098613058932, 0.1751436194952913], [0.3352798503813478, 0.4633136154296286, 0.20813307271178483, 0.587776148249236, -0.4362740470630283, 0.5265181931612444, -0.2789180240407282, 0.45216850888223337, 0.5728391992735129, 0.2739246416654924, 0.2867701043044796, 0.5111930164297428, -0.20112233500631588, 0.21844601426851257, -0.6359351178259358, -0.5164735080461028, 0.35415290133848354, 0.20896874283536535, -0.38895008411613224, -0.18150388164865722, 0.08195409692568384, 0.4110172421563471, 0.35313013431115814, 0.28491187328740786, 0.324622270693599, -0.35286914756945725, -0.2950536234823262, -0.2705962930947811, -0.5469508576918584, -0.4123061334275252, 0.13440807226959475, -0.17093349311616973], [0.4021183076549485, -0.017499412091437183, -0.296200265409758, 0.05497687529745876, 0.04734682389062539, -0.4417458723539146, 0.5873342914866204, 0.2385584376565829, -0.313869660092571, -0.3862251672144268, 0.7349150781456383, -0.4934325509165717, 0.6725039108203584, 0.2531964364228739, 0.17263403778622632, 0.3959518735130809, 0.13265176955065738, 0.1655167553499194, 0.12851407016734834, 0.01805985225387996, -0.05230949107820683, 0.03557509467920608, 0.1197235614330982, 0.2997068365450289, 0.12232764789898323, -0.1815501997090312, -0.5235505059118183, -0.3688088382360033, 0.2310911144428851, 0.2284111091734684, -0.25904730076197985, -0.022828842750615974], [-0.5121983166283535, 0.1567963821889875, -0.48827104932480825, -0.44120118455800306, -0.4057659138474771, -0.5307001244436166, -0.8018441517488389, 0.28566378894617217, -0.08073375878905642, -0.14412066818709604, 0.0920619885375698, 0.45698974605762255, 0.3295218919540939, 0.23796860988026536, -0.5127830366468502, 0.08785524715600782, 0.04318647402479098, -0.5757166497629111, 0.34090902309998716, 0.1774724259005043, 0.19171070476660693, -0.5401793573415192, -0.1483218067784609, 0.48479532699812805, 0.35377507881067505, 0.5158527615035116, -0.6172837108160205, 0.21444605170879127, 0.03765210547092912, -0.11139034471250549, -0.20550893001858284, -0.3050364237167853], [0.2810086685123555, 0.23607898491953397, 0.10417728128803025, 0.15211480983583478, -0.6264847717807368, -0.44075385027904956, -0.12030290929794268, -0.3719926349525658, 0.45621929783059917, 0.1701664796070996, -0.22741520702365353, -0.31581816526117734, 0.0712698594643128, -0.46515571660715593, 0.40717964112833327, -0.13943951558013426, -0.11182289631566039, 0.7606991290637108, 0.29657622344050416, 0.017126994400365386, 0.3796183826426537, -0.0758960538777135, 0.4146610184618412, -0.43624980173621686, -0.36669340136265893, 0.30443353266268586, 0.5147855570602329, -0.6616493127063652, -0.15061393405330994, 0.1133784088780806, 0.21890006528417258, 0.36233962603649955], [-0.3466582242702156, 0.6517146488274901, 0.6519293597049433, -0.30637884362015, -0.4261488176033221, 0.37528680732451797, -0.03387416712863861, -0.32106218773003237, -0.005561297906640006, 0.0073310598690957685, -0.1401502790147532, 0.19913975123869676, -0.3138571824166564, -0.4103388737106656, -0.11217262279992057, 0.19827624521998113, -0.24040665488935173, -0.1003106999363051, -0.2848276868879675, 0.6653558499300518, 0.14772744529737897, -0.1047253532024434, -0.11381217016716949, -0.3562115953165369, -0.4390100595528754, -0.21644702966969454, 0.3319612220957245, 0.05050769448020445, -0.09672936114133152, -0.07569950770975076, 0.16497210896381037, 0.29753527971791505], [0.11431694811194809, 0.4581293167616408, 0.182535348240175, -0.14807753318743688, 0.022557595975063127, 0.27138967217118204, 0.3371863359446903, -0.02313529987622187, -0.056151558922565736, -0.3939446158438018, 0.379389691000805, 0.0022994138615505533, -0.07131067422987919, 0.011941044610183, -0.015535258886152065, -0.08709840258008134, 0.3073802333393543, 0.4485673837139768, 0.08375184547976366, 0.10633989242133157, 0.2987410953512511, 0.12940847244243142, -0.6361041521214077, 0.5520412439513646, 0.4339750043102797, -0.6605750158807032, 0.15963296954657571, 0.24509687278658154, 0.046150564769227354, 0.5019787541665227, 0.2242145827643413, -0.2623203820731314], [0.44577104806115864, -0.6859094834060949, -0.5553310338001408, -0.015839396814105896, 0.0661936632328608, -0.1235464451345551, 0.39685335495767415, 0.34414651215693887, 0.17069430051900053, -0.1441751088803913, 0.2906731976223786, -0.5511455704009354, 0.043911074426246394, -0.38153231332297066, -0.08078644441280897, 0.24788244143891972, -0.10866275973853068, 0.02399952478417333, -0.0014435324399120972, 0.00496808676942645, 0.04949825435703753, 0.0627969340783898, 0.4473155951293535, -0.09873989377324072, -0.22173922424815384, 0.2826602236158129, -0.33858118085248917, 0.5156039590745536, -0.13429109566172442, -0.43679672753504395, -0.1978992082158964, -0.03261936848937058], [-0.028847476954546147, -0.12257559912043708, 0.05025715239080766, 0.4680271158967153, 0.32267217040874446, -0.09590236212103395, -0.13434705004417144, -0.17036295179177835, -0.2167455469343154, 0.32947390503408214, 0.2000794944569039, -0.39724828392103606, 0.41168702082810316, -0.46641558293498964, 0.21319056814056106, -0.38156598798537156, 0.4666628408409599, 0.0425140859260916, -0.3106113701985846, 0.29617640453066196, -0.32556259824221156, 0.09362961144472942, 0.18156554377190595, 0.5225710856699546, -0.7458735473281493, -0.6065215614936962, 0.11400810895389638, 0.14666239252785482, -0.46227331915857583, -0.43478417447989004, -0.35780895522605555, -0.23208089494664436], [0.3401881805570769, -0.1722858906226653, -0.5132482503227547, 0.16800955908921605, -0.38688917406962364, -0.3834728737310964, -0.23398613949355368, -0.050335798096790174, -0.05092803273506499, -0.10245076131257855, 0.38618119967469877, -0.3809880506786919, 0.1738736939468427, 0.2357132566095308, -0.4880672173992684, -0.5302305019430017, 0.0451667863887148, 0.05222771166210727, -0.27987553378489183, 0.013324130638033338, 0.20976571016236464, 0.0009368128526428265, 0.07802039053321697, 0.29615256729337947, -0.15701749600224932, 0.15254244139730871, 0.5422170253551609, 0.5225450524334647, 0.5742501839143523, -0.6889208573633288, -0.5512522719822186, 0.21850138212081344], [-0.49926464959423433, -0.025517822488925937, 0.20833171210932588, 0.14874298775766154, 0.45779220604793563, -0.8055891275984197, -0.2575728760184218, 0.1728023658583879, 0.26645380465351254, -0.44714635198892333, 0.7175764381865054, -0.16136463159141745, -0.17836399023419502, -0.2697544556442545, 0.3121898128107935, -0.10839824325592229, 0.7280805434085792, 0.6102545824721872, 0.07927799325320395, 0.12433085797848045, 0.6880267630860061, 0.18599058536717836, 0.09875843156908237, -0.05360505509038779, 0.28020161784013276, -0.39373801892180876, 0.44718576673984767, 0.8288267540118446, 0.03427410140160114, -0.06807143363992008, -0.6280406065125569, -0.31808475348725784], [-0.12118967937010511, -0.07000937048427955, -0.32618563568625947, -0.19123599798984592, 0.010245494701648372, 0.6786036469351937, 0.252435240158598, -0.04597286752388041, 0.5152043521127533, 0.5994662996369249, 0.6539019033514502, -0.5347042091192842, 0.575664049531656, 0.7104689528311111, -0.37247945281214223, 0.1945958682911735, -0.26546106275949855, -0.07572431117462253, 0.5695841001496882, 0.5657653042173646, -0.10013652067789607, 0.6573949534491417, -0.11599624591958534, 0.04174643209242768, 0.13656157162110266, -0.14366409634507898, 0.28484158844033314, 0.18349664163736754, -0.494638758478716, -0.3037530991804091, -0.2270366710032909, 0.13996965356001717], [-0.5088735305888598, -0.1657820366138924, 0.025797400958051747, -0.20908525333459646, -0.38244279062523, 0.4578924841568044, -0.3916595212405223, -0.23631968874025913, 0.10442217793431927, 0.2666679884076725, 0.2889276935641035, -0.8489054566833522, 0.1620279358588663, 0.12633974486445007, -0.1482294050631437, 0.006145328233830738, 0.030181204722561715, 0.13404737713256087, 0.25186587959755313, 0.34376872579667284, -0.3523553151090899, 0.24495451571916146, 0.5273423881190455, -0.7048698954490664, -0.5901144713436196, 0.4348249114932117, 0.33888369882597885, 0.10260989403079485, 0.003870495885332892, 0.37412517943522083, 0.019091604647822058, -0.597836655193113], [0.3300140962140532, -0.1317307388660045, 0.5741861008662561, 0.07670579728979099, -0.45605060646942563, 0.002676467947417299, -0.032807618131287575, -0.11176327661866287, 0.3376993290653276, -0.16769967192285992, -0.025494615478089733, 0.2716331638380596, 0.3958968949584497, -0.3122410510760864, -0.04001541582842416, -0.06356105088418482, -0.7730323826148252, -0.06201441578865241, -0.21492886612217202, -0.05841276605867887, -0.45111523393316044, -0.13046388080568697, -0.46659202187077914, 0.44010480038934874, -0.260195889911737, 0.1824759333508615, -0.05851415843483787, 0.7726328565130562, 0.3058607661677872, -0.046090592313255296, 0.11500487712816695, -0.07008177932952905], [0.5163318593146212, -0.5296518613391233, 0.5898431385798966, 0.15674262082123497, -0.2244264609002483, 0.3740516249803775, -0.008044911364560536, 0.3389481341200249, 0.07494573114252295, -0.3456734104954766, 0.26677533188963054, 0.31015717293665196, -0.1578589349646601, -0.007655479210091659, -0.34709777649214235, -0.2320099425769291, 0.0737749748900398, -0.3513240782475345, 0.3109627174699955, -0.15712265291303978, -0.054508352119907566, 0.22512012977254695, -0.16255975660893335, 0.15708739859068238, 0.18276610175284888, 0.18636630701710682, -0.3715095238752534, 0.3698276088728269, 0.39876314264226514, 0.3730584589485705, 0.4342322551868655, -0.024114350393043493], [-0.2820696520160211, -0.41349564546650597, -0.38871021579757753, -0.22458837108226415, -0.12886172727127237, -0.5660095057645311, -0.16056585786285182, 0.23452164340006731, -0.34940341795690943, -0.40378151486557895, -0.1762356538830479, 0.7224739275150227, 0.7517860251575864, -0.33924057165726273, -0.4730576833342385, -0.17782537337760435, 0.047170494863921886, 0.14410382808014766, 0.2376448044606154, -0.3421388598855779, -0.6650936905979569, -0.1917830290361108, -0.20588060235791739, 0.3371933304160007, -0.5351439751773082, -0.44273829171460255, 0.14447932716375336, -0.025101550847863002, -0.27232218099357336, 0.24617502527016072, -0.4467187035274177, 0.26185530529023826], [0.03456419031256466, 0.4469298401965035, -0.18739005865319705, 0.09988358640476049, 0.5537607802792723, 0.457668083317093, -0.080137586109531, 0.6439165904175074, 0.22333069306360206, 0.11394167698571966, 0.5108114777817105, 0.34363243965780454, 0.4086244048884795, -0.22814196203279014, -0.12067201538052127, -0.10680972018500157, -0.633725305046362, 0.0362198891808142, -0.3722366285066262, -0.5720741420578846, 0.3017969088234027, -0.3746023995460705, -0.17980128987766386, 0.08676366338266635, 0.1288309151820517, -0.16899161044264394, -0.7135039703760068, -0.13846384360353067, -0.5689893377953178, -0.05258556058974506, -0.3592364972885233, 0.485459120392801], [-0.06864980663774034, 0.12155688974061983, 0.5053761530583158, 0.09741338179046219, -0.38046080411666966, 0.9617145701509708, 0.09329918380920665, -0.1341577129821909, -0.012775877131630593, 0.24460882433297518, 0.33932041852978523, -0.21749096327822873, -0.009108980193073518, -0.03728796007249216, 0.6470983331886138, -0.5930055051914573, -0.47964406471808996, 0.054736859709327734, 0.05310655660483515, -0.04954394245765578, -0.5366968655109583, 0.44299008150856184, 0.0786177833256238, 0.922055627816827, 0.09610296478766206, 0.17660898474312325, -0.07051628558687212, 0.42404376800959537, 0.5734199236902329, -0.21910507534410062, -0.22927672948182592, 0.336848524397736], [0.3186016084477022, 0.18371630041460593, -0.14971702147518326, 0.13851020149423152, -0.09286939067181976, 0.2788153522540747, -0.5570992395431176, 0.06701340683100968, 0.19638850241993577, 0.7040614068514679, 0.09410485725662707, -0.3695276288546798, 0.5667518166914154, -0.16038923979195924, 0.13136331544092184, 0.31562153330302145, 0.36893919415259424, -0.09222860078958717, -0.03714871911334672, -0.11434845043474316, 0.4514448895670006, 0.5431927993434872, -0.4697520756218544, 0.0839178459811891, 0.3136471003148195, -0.6717135435069528, 0.06509303008890421, 0.18338023299013922, 0.3342479666656699, 0.6352181526829943, -0.07205324021231518, -0.34164748867836336], [-0.3519664987480704, 0.02736951321573275, 0.49182651538716826, -0.6297134327908145, 0.3558438772574666, 0.34734560933360903, 0.016529102694256254, -0.40948688651820464, 0.6692409167822092, -0.3468373082264844, 0.04426419100315279, -0.4168654463690141, 0.031160780312107533, -0.6787788583511705, -0.31130806694220803, 0.6066434467150161, 0.1752381198775103, -0.3761884614214202, -0.049212055439172966, -0.16719956476684478, -0.7899593900449307, -0.6392018230704184, 0.3175584785427769, 0.41907977958116394, -0.30534592324887855, 0.619157941518428, 0.5177959940772421, -0.5643224032290224, 0.030710903774712105, 0.04083885203139204, 0.330911901670069, -0.2521130830356887], [-0.3342515764212991, 0.0406890921658509, 0.21082982437240352, 0.2433118993613246, -0.555404939857824, 0.4502651332765352, 0.48487837408841444, -0.10440163350608184, -0.31277073643747777, -0.4861183254815984, -0.20038828368205333, 0.8812537126695913, 0.09067877874251418, -0.2807757569660019, 0.6968360681169534, -0.3929368100850409, 0.26786985081680736, 0.4640872189895319, 0.33913222995192904, -0.08628313530633791, -0.22838793998537454, -0.11101289830477004, -0.8420920149398412, -0.02935343817679914, -0.39518231724587133, -0.23486227957696584, -0.46345680589729643, -0.2778298773082784, 0.6033164481222593, 0.27388754247744096, -0.2942935549308945, 0.06748715843852462], [0.7326330175349857, 0.01697562100385755, 0.4639455603120142, 0.20384718143873923, 0.4904054212592744, -0.21046179974839807, 0.50174197885764, 0.11122601911025476, -0.6128035653831926, 0.22305552988011007, -0.11172484479903749, 0.16873437540084157, -0.3069444069909816, 0.3876227863669375, -0.3429695183379265, -0.26567064446131317, 0.2959659508780158, -0.10548554051781797, 0.3948659202347167, 0.20140093790274916, -0.20046610228369513, 0.42574913835029626, -0.32081114930752697, 0.6113887960670954, 0.5276248361762906, -0.05547426717157791, 0.4382478868270787, 0.6196933260573276, -0.34346638283403946, 0.20548720288472846, -0.16298557333804065, 0.040178521280197915], [0.05646492115278623, 0.526567579348253, -0.3841101635650608, -0.20080948680572994, -0.45176111545593856, -0.138975669619195, 0.48576063584822876, -0.19501446111818188, 0.009567004237567234, 0.2882873841970982, -0.3726927577300042, -0.16809757509172354, 0.4325525724753456, -0.30744605951217946, 0.36597278636663355, 0.10091741240227389, 0.5732168795499838, 0.008960823064706913, -0.3421492980972568, 0.1997909901002627, -0.15417211800891684, -0.1590686411642755, -0.3349076625604662, -0.03477179846103107, 0.29578925184394456, 0.4611258772711176, -0.3340000321492381, -0.4149419901140067, -0.23414906992055187, -0.4768542630554865, -0.2902299666225893, 0.09943650612809743], [0.07126016129341861, 0.09254004967937868, -0.6753390109064125, -0.09466185574623731, -0.16867644718323982, 0.12948044373549222, -0.2633634601562431, -0.4803366047860729, -0.48989426767291344, 0.6312719035298254, 0.029066746746181933, 0.4409329096981477, -0.429424992860615, 0.48101722955280946, 0.27056842545027254, 0.39337910339413973, 0.045234561317970365, -0.5020436443716243, -0.24992642902287548, -0.5497389353263181, 0.4001166219703801, -0.3534601992761941, -0.06781758648053793, -0.225534089254845, 0.5413648045176953, -0.37886070410014006, 0.7256789814711209, -0.174852244903618, 0.07781838303947836, -0.18709211037018375, 0.27764802495983176, -0.2989661957016453], [-0.2601560083044474, 0.7360390702416694, 0.38631978901307384, -0.5806569765209912, -0.23345719763999373, -0.3926418425821392, 0.13782427061348546, 0.04295974427597338, -0.2873698956029071, 0.01875681063095469, 0.5294318867114743, -0.08268020926162112, -0.06600917908696158, -0.21982870407470514, -0.086315070611936, -0.47246193711913165, -0.5052162919393329, -0.5841420373377904, -0.06767429214381748, 0.4023233748722202, -0.26924169707235285, -0.19858566057981197, -0.12550804150917041, -0.22989294087876538, -0.37663993733467604, 0.27811442594136015, 0.12423234946536202, 0.5196664316160432, -0.38291338896406846, 0.5729649974521291, -0.32718183454620375, 0.10516279348792956], [0.4094575746953531, -0.31926566859253547, -0.3571057962284708, -0.7899665171727667, -0.18654847417855025, 0.19975906916510716, -0.2105485663481276, 0.17439897018004896, 0.37589025093293404, -0.05783590747483994, 0.03157346889650062, 0.22572329942262223, -0.023074085624264273, -0.15367783002008262, -0.45360513553930837, 0.5214355593301518, -0.4153849277300389, -0.17520413437977325, 0.20008527546117735, 0.19763149546108202, 0.06508126469204967, -0.31434283139469993, 0.21501591234351458, 0.6801983286347932, -0.16854426467206074, -0.5026158336850929, -0.2311306833756694, -0.5488885187212122, 0.1713999375985765, -0.2074388334115876, 0.18069348516471906, -0.40615055684964807], [0.07448408115327071, -0.2485572264650599, 0.45686250764040565, -0.06117554234320949, 0.14891846697314928, 0.5344039960273587, 0.837486927504839, 0.03785488178188738, -0.8886138800783814, -0.3446178274922336, 0.11532509287417944, -0.036893217230294775, -0.37215670774028486, -0.5388981467426275, 0.12460139415651025, 0.3481604344448555, -0.5036016082014676, -0.09064129341922694, 0.25275558563332046, -0.2859404395673697, -0.09531376928161296, -0.252465202190301, -0.7198936330112041, 0.38254921618362314, 0.3592917381798364, -0.027409477598121457, 0.45602864377498487, -0.1633442134710345, -0.5884672075758441, -0.6051176226042894, 0.3502324385228821, 0.0006058357281676363], [-0.02991954889404219, 0.1955500978453566, 0.4381578856546623, 0.1827521016133725, -0.36070035702559056, -0.0507499191753915, -0.18046291539805215, 0.14046632298842546, 0.29366160799536845, 0.3373802026914043, 0.2764523309735569, -0.045397451626036395, 0.27574723082859043, 0.2823700385697362, 0.16855957836058238, -0.2717356599534746, 0.055099236723014366, 0.2366287882972104, 0.10483161159303667, -0.5122467209941146, 0.06152581908703003, -0.6288930327974656, -0.0708548974790541, 0.29081781710394705, -0.6781762544534156, 0.262166771114826, -0.11171169387254065, 0.5748243272354137, -0.6185952974232392, 0.37592679783987876, -0.09849773642000403, 0.6782082098664861], [-0.2543522731823795, -0.42753470299516605, -0.3728319689393138, -0.40311357838026907, 0.002693383432279567, 0.5329488102818186, 0.3915718543049962, 0.30304984730587353, 0.6622064036847336, -0.2727507928435464, 0.1800365148273351, -0.27274711421878955, -0.35025270674689607, -0.06868631412123316, -0.6312303149912353, 0.06347720017252195, -0.09591934721034023, 0.5803079557238062, -0.153415729216721, 0.3127099976104525, -0.5577031262217366, -0.31099676061094206, 0.04796433929313981, -0.554384074263629, -0.6886496251201963, 0.6292348789865587, 0.2129967029364388, -0.350276737783651, -0.18979675006811167, -0.2945921827151222, -0.3209760914157306, -0.21613036697869892], [0.11327519838519012, -0.3974388786315707, 0.612678140168332, 0.28769588538111146, -0.09689377622662915, -0.2857820857341302, -0.21758390315096668, 0.3615640970666195, -0.25633623662568794, -0.45838787080994925, -0.07121694464377445, 0.47900730737369523, 0.5486031572281607, 0.1175060701690337, -0.3630572143927079, 0.34326474091070425, -0.5936992602647122, 0.049017972055681217, -0.15962858032903177, 0.11003292096690917, -0.39048091177925853, 0.09731413320226565, 0.36543334991629217, -0.6266346561244241, -0.12671126145869205, -0.02431643604851752, 0.13913574108506516, 0.2504142855241831, 0.5462710348323209, 0.39756256897605935, 0.3996462902465837, 0.22329185427042791], [-0.1911756983303011, -0.06138408554991762, -0.3641708753676748, -0.3044169898048088, 0.5762189453253701, 0.4283668343534056, -0.7930038218756239, 0.04914281739027079, -0.35873312686802594, -0.0265289999317512, 0.06698039768747067, -0.17872238650117078, -0.69773800099785, -0.770266016303364, -0.24106011800045346, -0.2875275414478017, -0.04824052663949169, 0.4837000619421862, -0.5066951317146279, -0.3918187440763693, -0.21595388531562149, -0.30946057542837635, 0.09525601670497835, -0.15406281312555112, 0.05437438566484265, -0.05648431644436336, 0.3747680784691493, 0.44750917507160826, -0.1721323189436589, -0.09393809424274735, -0.0922557989949388, 0.32676361912087754], [-0.31812601983551747, 0.03319988672157598, 0.1969249368378556, -0.23981031387551566, -0.20299027506152795, 0.600579198045283, 0.02564274531588795, 0.5606289127494292, -0.21111034294739964, -0.5636562290459727, -0.36956846308243374, -0.08555276475107579, -0.13286461044320458, -0.17769090438687618, -0.4187242547721786, -0.6184377325362305, 0.16806705719125842, 0.2216597239118516, -0.27256068533498456, 0.91533499204089, 0.3503940104288471, -0.1452543160838395, 0.45811833686049125, -0.6528364930086306, -0.26783736776015216, 0.15576652278028336, 0.06496924000343285, 0.14670463964868935, 0.2981927394547105, -0.7271858430680285, -0.15082480545468696, -0.045573925950783134], [-0.31470964010666325, 0.181334893612786, 0.10222204838442867, -0.079510641079753, 0.46133004341473205, -0.1564380187217681, -0.7193565174240915, 0.4461882652783884, 0.2120405395950337, -0.36628457329270625, -0.040526788378365236, -0.06462143175383178, -0.157108394310584, 0.1702608756236413, 0.13156006999849884, -0.3344048944131778, 0.26526754532718283, -0.468571585610616, -0.10232907453316062, -0.47762560146407995, -0.3266745499791276, -0.31517126894552894, 0.49693243406196774, 0.3114376636389047, -0.22340443285128192, 0.017030751170818537, 0.25717810909684147, 0.46668534568261766, -0.30211789203111106, -0.83708711890369, 0.786035827038948, -0.011259640393705389], [0.29273248418728615, 0.14986822294795862, -0.49187652590069697, -0.5205495893433397, -0.47548918343409957, -0.6827621717340695, 0.011322701774444555, 0.2983397936540834, 0.4965110712904647, -0.15749517868396296, 0.36030552890846007, 0.03568434283590713, 0.30698602640529943, 0.357316814613002, 0.6380991244764949, 0.29149888198106705, 0.5419894129069041, -0.4251663907983473, 0.4340290349401833, -0.4872998719465643, 0.25599413380536773, 0.03205020395193553, 0.03465084128228908, 0.043998788580215276, -0.02695202982687033, 0.12780823096968041, -0.4283972491334551, 0.5550739317487144, 0.8220838886577357, 0.20498020894802926, 0.41511740192321833, -0.17023777369605186], [0.1824475141818008, -0.3552326728203138, -0.5360993041263993, -0.4474084538185563, -0.20458209948794606, -0.2988362337900086, 0.46998537232345156, 0.5717129618195933, 0.051251616238287334, -0.19744319643314334, -0.2982525301955179, -0.11520791897944249, -0.017403681236782265, 0.30779355166669514, -0.33595568253070063, -0.15324987257300993, -0.3035458270233881, 0.1250611346025638, -0.28269694976760473, 0.29641392508304176, 0.5258316431469802, -0.20564483887996457, -0.06978946972387512, -0.4801663262284869, -0.17498314095992212, -0.20622178763187055, -0.23656310100056124, 0.2093802370965449, 0.0797294298526528, -0.5183559872400492, 0.030042795209612616, 0.6372132315558691], [0.49691354913903685, -0.30284640291888987, -0.010454809162811995, 0.32878881077919403, 0.2056828422990073, 0.6298923250618214, 0.6279074178319406, 0.12953591242691534, 0.22109217138674625, -0.30974040742579256, 0.09205023395563137, -0.733946675485345, -0.2604280999594183, -0.20659456471191215, 0.5407735719148116, -0.582628320440364, 0.10591343284818568, -0.6439794057644872, -0.07685175717997078, 0.2763713849824214, 0.5171084111577275, -0.0007651342002752692, -0.5319998144957305, 0.09142615583964242, -0.3199336412294672, 0.36891768648283785, -0.40265145737126623, -0.4592271229190118, 0.24539677398960885, 0.33642511635148636, 0.2307630421527732, 0.6534849036811972], [0.08449333272230641, -0.3151009862526488, -0.028274233445255648, -0.5723511713492975, 0.09094194128557323, -0.12602287728882355, 0.03247950813880607, 0.24270047007650955, 0.03220067106023655, 0.6538681497716845, 0.5143422159451921, -0.45334134566529677, 0.03069251717728358, 0.11875599185523153, -0.12477608420618017, -0.06267097712035818, -0.3401710638739355, 0.3548899141514853, -0.30161038257971134, -0.47721190084967235, 0.5560432910576065, -0.17823558008906076, -0.17099202280280945, 0.6910389556927576, -0.18868884136179062, 0.23903224712701426, -0.15389800993334904, -0.2849619493071198, -0.16420170222904318, 0.43542063975581036, -0.2574797545910005, -0.5001579832451759], [0.01462173726387539, 0.18573323397185085, 0.03343902779016111, 0.1967401557833851, 0.06246626153789164, -0.344554899177584, 0.5167346147762153, -0.47572572475238833, -0.5868553454113636, -0.08369000141150151, -0.2916758287366986, 0.7055619775610165, -0.4473654370420143, -0.5553163042989586, 0.34762069635240284, 0.31115288128232793, 0.3791766428154054, 0.49993181086523175, 0.17003914839365894, -0.2032889142336321, 0.29339850935572154, 0.05480816057251287, -0.043012938867454775, 0.34856892614238477, -0.06169939697112606, 0.5423461612806567, -0.18817040443331326, -0.5063175994307874, -0.49931874197416265, 0.3598456736260939, -0.18726954552258232, -0.19586561078847006], [0.3640418749297805, 0.16461903425342017, 0.4628558318093831, 0.39186874206187605, -0.4848779161882356, -0.4945148402882975, 0.24960523423775033, -0.2987214176110502, 0.16082349879297322, 0.42616588875752826, -0.4724426193656825, 0.04690879269493453, -0.26069422631050054, 0.43763502068775645, 0.5098662618851582, 0.2264079471181112, 0.16010580830296228, -0.09801523848633661, 0.3024995131424182, -0.21677632242619518, 0.1727770553288897, 0.27798663372996857, 0.09331664544087692, 0.0401494272645668, -0.3289360445707151, 0.19780209692474882, 0.02552455644164975, -0.004368327694036056, -0.04114839402763065, 0.7600669828778277, 0.1472930735302708, -0.5134094274037229], [-0.0971241968171252, -0.018357023321629057, -0.1400151593567075, 0.30018707899836683, -0.28602075915489805, -0.3142674860452278, 0.04677211191015107, 0.28474269459541063, -0.02449936825786593, -0.03830450555420298, -0.4117740596455142, 0.07308059531349897, 0.18882839589650757, -0.5097800728077306, -0.23380837075261213, -0.09113120283685319, 0.1028975099118799, 0.6854409361962631, 0.0858035864105833, -0.08375186562010611, -0.5349922452307722, 0.1227628431158164, -0.10157001592658632, 0.25920287582261564, 0.002405812757270198, 0.3720616858759328, 0.16198464256310385, 0.351015471122316, -0.13349098087631722, -0.02190351061090534, 0.25699853124868316, 0.32164013159739946], [-0.26757305153409994, 0.013357188518863028, -0.6421944467985456, 0.00804773545831619, -0.27407308960366106, 0.3885940095699838, 0.17834939736016142, -0.1156039545351637, 0.00991737980970514, 0.10944277048769546, -0.162740470358406, -0.1558171378410596, -0.5571262074316191, 0.11236638917538505, -0.17760769284568856, 0.57639868255156, -0.6423964169910448, -0.5116698474280024, -0.5834200549829159, 0.5123025458120336, -0.030767545648202055, -0.7667374789946886, -0.5981559475776395, 0.18963006713770542, 0.3169136606973517, 0.3786684344604483, 0.23569583491083534, -0.3483120843625019, 0.09560422006090036, 0.570242245153761, 0.11023272169552592, -0.22208172060727507], [0.26252499900908033, 0.4792193227228936, 0.07930361696573135, 0.21978923037540793, 0.09229566036787307, 0.25810396478884357, 0.08048057925546517, 0.11712693176572198, 0.400080197588932, 0.18182917083695452, -0.3470400400595839, -0.009800387001616409, 0.4636122027377069, -0.02126081792142301, -0.5701753225115201, 0.08676036486900723, 0.28207829244052357, 0.3186540630005371, 0.37081224171774396, -0.2408829186372835, 0.025115794851277046, 0.302261305612448, 0.41104715931428, 0.29207125269007134, -0.2546412693292429, 0.43585391548065117, 0.21453034127148757, 0.05651900824573031, -0.43658633478475717, 0.294563274782995, -0.232135950344193, 0.0508671701606937], [-0.21574486136662602, -0.5937639276762967, -0.32657797421308454, -0.3887924641469246, -0.333012256426815, -0.1267408337151864, 0.04499828389513896, -0.28917108650102064, 0.5485286292535864, -0.11098964701739432, 0.36337190127290164, 0.06529098655575744, 0.026942931413622584, -0.2378940265576823, 0.19414931917969946, -0.12504250225917943, -0.14558385719173392, -0.1889935833266275, -0.35826874136396725, -0.28442583481993183, -0.10880936141699821, -0.4188540806020575, 0.14712394376110002, -0.18707956505327786, 0.07699509724965886, 0.4752496408672754, -0.030540455539901076, 0.16750719670599812, 0.14980453491355356, -0.39759434590724907, 0.30127468885338293, 0.05667213125976006], [-0.11485524535271996, 0.021344027771329308, -0.11844883613413232, -0.196322124993383, -0.23020364312679042, -0.5366930356524137, -0.5414467555017165, -0.48723921305569945, -0.2664376937795977, -0.21766376109703572, -0.07223807290804085, -0.3620122742407911, 0.1568047619471557, 0.35247900413169053, 0.07278141941098898, -0.3369116058657927, -0.25901437228784113, -0.12678875932427394, -0.3644436276922026, 0.34122113010665833, 0.3151232148087947, 0.10313194082452092, 0.21951649563964232, 0.6719681243648992, 0.22938870422298152, -0.22038190266229862, -0.025432446730726144, 0.15269877538307153, -0.02747535830608909, 0.2657929415992319, -0.15580535738505036, 0.34300143709161945], [0.35021815661238487, 0.1872464122400412, -0.391874111595681, -0.27078025474465894, 0.5191783226530082, 0.31508001266556684, -0.2423256541434721, -0.012502472791344088, 0.2503624300119081, 0.20567897390597759, 0.17693575643696702, 0.3741594952393355, -0.2276551464038258, 0.5190827502721715, 0.30559407772570324, -0.010013142333956448, -0.1398028998864705, -0.6229046928308558, 0.2206837434140123, -0.2216599346848625, 0.3336833961493285, 0.17809402065346566, -0.13131467415770565, -0.6886406963239856, 0.016895107753433086, -0.30248045354690395, -0.21176315488771114, -0.24598886444744672, -0.10868210767016298, 0.7267350700172712, -0.23255185281824153, 0.4023616503188398], [0.1732073384235648, -0.6428638967219463, 0.15029323603947373, -0.5510528780192043, -0.18514603418374384, 0.15866395458532837, 0.01816758380924924, 0.2792389991818556, 0.2855436324583206, -0.29363121984576457, 0.26896225829337095, -0.2744449997420558, -0.10424135675299703, -0.2273797233686708, -0.4284704526179229, -0.44581864839773383, 0.016381946028894256, -0.2660136369196182, -0.5237187403703414, 0.4779627746259749, -0.18206880375178627, 0.29275150978901116, -0.12267503351505502, -0.30924875155702414, 0.0069009022893971594, 0.3421403232441447, -0.531685538328366, 