{"layers": [84, 128, 64, 7], "weights": [[[-0.08212059072185719, 0.6403570398791999, -0.4690163935993893, 0.5112846289963217, 0.1304261898725344, 0.7393521981484837, -0.2860970656131224, 0.04420541359638827, 0.08954296448682637, -0.3973689476656653, -0.6642729308257163, 0.7087646177988003, 0.04830379915750307, 0.18106777343858413, 0.4653751134464673, -0.6597186263192628, -0.2692451564607262, 0.19542237906433962, -0.12083100378096523, -0.44207888363071607, 0.14801552362085654, 0.21985585026270138, 0.36578803587191006, 0.6436856773868429, -0.11319588134903864, 0.3056000675632262, -0.4881446624030404, 0.3085953408282842, -0.6312293176940547, -0.12130977843540196, -0.43174698915985044, 0.08913438596951448, -0.26590137729986874, 0.12565374217741684, 0.8731164834408742, 0.6899762811676146, -0.4370558667507436, 0.020520049896781554, -0.0039713174173420795, -0.05657707409521302, -0.1094073735587281, -0.2488460412920445, -0.11587460409129217, 0.39087302584932115, -0.8519916031599203, -0.24931812054768404, 0.318744287245375, 0.503846503000845, -0.5053482853429744, -0.36782492101042513, 0.5302946830424312, -0.6174283459774353, 0.27382833800007506, 0.038733987831060517, -0.33035924342786743, 0.16198341084879964, -0.2800100585325118, -0.21995595840704163, -1.948949214344542, -0.2592173000326389, -0.2354025182694268, 0.5090717330221273, -0.2084587105132652, 0.08600978961425891, -0.09272238399700494, 0.1333688683155987, -0.4346699658719499, -0.10359036110826104, 0.08482557409832238, 0.05188964060873964, -0.6095884341403148, -0.8262289872778357, -0.1478904329417971, 0.029619375670095423, -0.3139514584026051, 0.00463228669721845, -0.3338583920496598, 0.003959447962433088, 0.1231619289558623, 0.1724698610093965, 0.08105500650884888, 0.18156353899913244, -0.2325937794482198, -0.26386960972789597], [0.1357700134257892, 0.14903000056739868, 0.19225381928818117, -0.013216788274095235, 0.29414076852461485, 0.3207158198969327, 0.12306336034064766, 0.2417405849417778, 0.4380242848168733, 0.2938312263516366, 0.15956870973831336, -0.17594175137621618, -0.21005126373184002, -0.09412051537152877, -0.3049949055008131, -0.2363517740676396, -0.03327938516431534, -0.48109083823315657, -0.31167787383450896, -1.4742131210497056, -1.974160638204396, -2.363457372907674, -0.5791959601971385, -0.5833150470963168, 0.044046877011850005, 0.09713076556861237, -0.10527831780417685, -0.21244617352422454, 0.24113399385714374, 0.04652115542099788, -0.30756732825252936, -0.32351999015425265, 1.3957749027811197, 1.351470891524741, 1.2999265147408587, 1.1786207798080763, 0.03965157678244005, 0.06010240552787482, -0.1981604799993202, -0.22647635175001032, 0.28706295744639737, -0.09025863062142572, -0.04143698909884813, -0.09141476722871492, 0.5313814562892027, 0.20210258714815654, 1.259264127760692, 1.0103861115302866, 0.1734498852002925, -0.20294083126045365, 0.36245133022360526, 0.05295251053599572, 0.1255558698142102, -0.28038607774343244, 0.18624549828392126, -0.018787795276693095, -0.00874061636871764, -0.25942027234768805, 0.10654638684455386, 0.023228655206740063, 0.4192709363912226, -0.17738207386067925, -0.18280898690668593, -0.23102921562736944, 0.17345379058966462, -0.10602817544639989, -0.054221936316160346, -0.40025459197074753, 0.1479317034297534, 0.1342484188012548, -0.07880755335193618, -0.2737355037415312, 0.050918221828608765, -0.07578249224080921, -0.02663299271395074, -0.11192353967657735, 0.31325182103817556, 0.09071481518789708, -0.027073663642528625, -0.08940520346421083, 0.1586944246419609, -0.10752758695119076, -0.130095252285409, -0.21811907381789844], [0.5997613189649714, -0.2807967896981276, 0.33140391035909494, -0.12224277152140672, 0.25498591184560176, -0.04439516649180649, 0.1780403351177613, -0.36391844229447035, 0.21791047039685352, -0.2298151339756787, -0.019921879467170625, -0.45253814657730734, 0.3563604278334253, -0.5277282553198854, 0.21169388617493284, -0.18518474061407106, 0.2803271019706547, -0.5450968064696443, -0.009261615852032378, -0.3339483862126037, -0.08965426230072084, -0.35338901708648635, 0.30584181826041956, -0.24604229764159993, 0.8303971911034075, 0.013274684098951887, -0.03701481228053821, -0.35246636459952485, 0.2289362858888941, -0.17360697809840517, -0.02580389565257322, -0.5424747192644017, 0.4766214083321925, -2.3536034936695165, -0.09602031938338751, -0.638824362707898, 0.17129873016963862, -0.24898115391458506, 0.32442373657081863, -0.04282014276165836, 0.28311890985699883, -0.5726837093370115, -0.024819283601713964, -0.6374592019807132, -1.7169077113276416, 0.8699616437630326, 0.44880600074427096, -0.052857573688239956, 0.3811800595602854, -0.24444333814640368, -0.03223366884695645, -0.3818013813717367, 0.21338625742065392, -0.044739198957865926, 0.12946529845712995, -0.4582140482913358, -1.8668361927424302, 1.0532169820098936, 0.7421692664782632, 0.0448615420549567, 0.3362131095595653, -0.26394606389645087, 0.07440781365945669, -0.4894773530415453, 0.19965136171364617, 0.04694943391599879, -0.06767967784443636, -0.26903457072171605, -1.4369377556351033, 1.1098240964924757, 0.11579277198190295, -0.14007472497416282, 0.15537835511800185, 0.16289279661638217, 0.11017898307888709, -0.5039566115545604, 0.037547710414987126, -0.4176744231466433, 0.16742143833175038, -0.340461691577997, 0.24891122846662941, -2.8427543068074446, 0.2450553683598292, -0.17373414465544856], [0.6555846528562604, -0.708807705881729, 0.4884862964219924, -0.6900611343548724, 0.5759353006446712, -0.3826724658604847, 0.4325279185685225, -0.5598645762457886, 0.5201425477134277, -0.4746129019580679, 0.31808571467500907, 0.2989189949404973, 0.5439253056713166, -0.8123323073740127, 0.5300864991804161, -0.04294463181624984, 0.7197243884062973, -0.5388629252866893, 0.36373249173671046, -0.6223423913065114, 0.8042729782354751, -0.27087327388790555, -0.5970333433125314, 0.7529801683479957, 0.9617184280200036, -0.5722246684005681, 0.34012982687225485, -0.4348018312930914, 0.5414391991482471, -0.47503910040222735, 0.5164300630702411, -0.6286337541562902, 0.14672756438075232, -1.0034652979293113, -2.4179274919444538, 1.3225621369284688, 1.0585779737579217, -0.5880932407092709, 0.5773417011668065, -0.8241511833810249, 0.5142742219842511, -0.7948683614380696, 0.3583764838732297, -0.8124882854825748, 0.32133599208112085, -1.0985974916141923, -1.886498316153, 1.3635430715545886, 0.464486353751697, -0.3148448351692168, 0.4848076600728597, -0.2951595640893031, 0.4113509578036368, -0.8071802174651608, 0.27167548330574903, -0.8054132971808015, 0.4626250595856094, -0.6102145684848398, 0.04903701818643816, 1.476021330509624, 0.555123165759918, -0.8871254382472358, 0.5269150133733272, -0.29085078377942164, 0.5991414605245792, -0.4919761765940442, 0.39652031963713624, -0.7426392495182973, 0.335781855120503, -0.8141383600496928, 0.3451734648798327, -0.842244863269828, 0.6436739486656348, -0.24886894681517893, 0.550610252507694, -0.7541393069613848, 0.26593074271162637, -0.833220426352111, 0.6468256994147923, -0.37551951343312095, 0.268995772723379, -0.7666657649302503, 0.328312768539174, -0.7715793229040994], [-0.24217065823966205, 0.338268160323066, -0.17129742980850887, 0.2607506648609608, -0.2741698942136334, 0.5876268852820127, -0.4426877966672034, 0.3096338994291263, -0.47213632560017577, 0.31391587600905846, -0.6837596033404261, 0.5992366072351363, 0.014105258418954518, 0.394053867389949, -0.38079990184363, 0.5727677523820693, -0.2697321157384322, 0.08002192762028455, -0.37403392616773606, 0.395419684700708, -0.3524600262470091, 0.5651275899067405, -0.9816737044919079, 0.025564250806203052, -0.09099053559386763, 0.6944410804051495, -0.5930856228234382, 0.5675463212636719, -0.04877846007603783, 0.7115357382063768, -0.8169466475062499, 0.38638047341218185, -0.6102250338644305, 0.009136092408756132, -0.9255579731231721, 0.2878497302429644, -0.6599761977172797, -2.2095953107567445, 1.912848287286253, -2.464945096073537, 1.692672128197844, -2.945812392282102, 2.311238590553375, -2.2258443589161017, -0.2862964163534245, -2.7237031145915855, -0.5686697905308333, -0.5880359674925102, -0.31492374547861474, 0.738687112453858, -0.5169307738012978, 0.4101540911268413, -0.36467541998674796, 0.3564088009602667, -0.7644027395964892, 0.4027582989916472, -0.2730524437560025, 0.3501390043831346, -1.030705686272208, 0.11373963052411634, -0.5134375676910601, 0.3762644331733396, -0.2801636374083503, 0.4000895286856147, -0.4127687531956116, 0.24914536414783642, -0.4016734734799934, 0.42251528475412975, -0.34653158956375235, 0.3431774930460785, -0.6350981731141578, 0.43503370247447193, -0.27279357041070584, 0.15081883474739333, -0.4020409863940073, 0.25420514017557355, -0.3390278830839866, 0.3421470870478116, -0.34630429754947534, 0.33384487850595973, -0.39798741638911217, 0.33918942949187597, -0.8308854223592275, 0.4730102233138909], [0.1708181754159406, -0.1224806732245714, 0.07207111702622418, -0.05274111854838563, 0.2567148694960033, -0.2632588397432633, -0.024251714947565978, -0.29990798398170865, 0.2872094257861075, -0.0997482755039198, 0.005039587583041159, -0.38528440851377066, 0.45576419867596507, 0.07945493151502375, 0.06178792940172145, -0.13729383764087463, 0.35267351117039386, -0.10174910701013429, 0.2458640143758124, -0.5082481948928741, -0.11158953863064293, -0.5288747267783838, -0.29385322400172764, 0.38784874243527323, 0.3549110943170359, -0.4711612121386726, 0.5202935096604904, -0.22755324560966766, 0.17166514488725335, 0.06286185522879134, -0.021561805448450735, -0.26330539518250556, -0.42315263321877705, 0.6824042349984019, -0.6739114594678494, -1.0847051585987322, 0.5408248500841719, -0.09820564840656984, 0.18596687508933138, -0.190032264697914, -0.3701561309898401, -1.080984310902543, 1.0765355940884629, 2.297161351674643, -0.3142356228644594, -1.0582109787040697, -0.5778648427591688, -1.1024476075074683, 0.026849421964189206, -0.31402031095080657, 0.3825700700945661, -0.04632145270584008, -0.3422119783030794, 0.3392859278774042, 1.8513618153295597, 0.9408521784721775, -0.5126203107362649, -0.6970038251185069, 0.36320219583041624, -0.013906256064810843, 0.10945132398706235, -0.016571032232898124, 0.0881713000739985, 0.10589031979204658, 0.5047081922916196, -0.20298902978399572, -0.10186959240451131, -0.30853951731671664, 0.725675568216595, -0.3340823047584412, 0.03324829292092386, -0.0057967132103848365, 0.22970022816978067, -0.20413622468835518, 0.2009853902019551, -0.22991580578511805, 0.08383907927050431, -0.4743861883188959, 0.01684431453833945, -0.21355963296424094, 0.1786259573183269, -0.08525534114031062, 0.16845318588470762, -0.38259249820926816], [0.13039468776867852, -0.16889624866260766, 0.12007613651175697, -0.12351872042817415, 0.28018072447147024, -0.029986615598048768, -0.015098974053066126, -0.22382369750906358, 0.1558677718311178, -0.15197422970600535, 0.2175306776742509, -0.12377004260901654, 0.053744892443272775, 0.13099868009083443, 0.2610293660831812, 0.11165513686580482, -0.06580362711780938, -0.27208602924375125, -0.03343976120189892, -0.09176668235517818, -0.12474740581709368, -0.20075361937089134, 0.42422222644154733, -0.4529996331634359, 0.2947006347681872, -0.29890137489128243, 0.03463119466745006, 0.062022775290849666, 0.09602311951897553, -0.36304426098017223, -0.22798428390495976, -0.4560023785273615, 0.34117109070890833, 0.0023500766379564247, 0.8848367897014697, -1.3363424452909844, -0.36146330429838164, -0.30168307273706746, -0.013782709202118406, -0.3694956368750244, 0.13913172444680968, 0.06401971404349638, 0.3301312395958904, -0.0115883147739004, -0.18127095520484368, -0.7742539066024335, -1.5913691524950768, 0.441280225665648, 0.3850434786934776, -0.3154279629019763, -0.3802450560304321, 0.4741460396300509, 0.08506773035544317, 0.16820483474209472, -0.8158314438417292, -1.0077005393559828, -0.2012178822620059, -0.1593041133011644, 0.18642903788270498, -1.3777990872650063, -0.27490135841432045, 0.5464532976448684, -0.09212731513689826, 0.02912493653323394, 0.08667177308350028, -0.4525683219605602, 0.32076829893547965, 0.05262045722741119, -0.24387482176327857, -0.6824292893570042, 0.7010476490971642, -0.8893581132064245, 0.008957973290738469, 0.11981609014126, -0.054225266194227725, -0.5258413574954072, 0.06815567305700694, -0.27618656897071653, 0.4180808588082907, 0.0452685911432266, -0.1936254405855027, -0.2698583489924585, 0.4421544187822489, -1.128161549381985], [0.24185199358225903, -0.016910712527613034, 0.1912138750156048, -0.06361096345328414, 0.31444283124025596, -0.6586734454427402, -0.014073538523394245, -0.2875608658227059, -0.06556474842955769, 0.16356519116391136, 0.08354337939049944, -0.02655027232304852, -0.4485160464125828, -0.13994949884317295, -0.1697003203884764, 0.06180710656874166, 0.11543674521682572, -0.11450859988628694, 0.28337846923523236, 0.14977455292807934, -0.18124090739808976, -0.33922765912466785, -0.6254356919060138, 0.9111574292232819, 0.013725101244995147, -0.08473848745597759, -0.6986251570936649, -0.21786079659638308, -1.0027844316480063, 0.1899156167255666, -0.35725221641088584, -0.12143714326093082, -0.3627901842395664, 0.0410459946492476, -0.8982218210204937, 0.4074451229952381, -0.0186341515657586, -0.038869445411961606, 0.27115697461345484, -0.005845605881220948, 0.23344439061854694, 0.27040407861388943, -0.44645507058733946, 0.07512389648264946, -0.5727836054276633, -0.7252980544354721, 0.7386214196707321, -1.9803911558366964, 0.4071972600162114, -0.3969078219700311, 0.22407927285844473, -0.36908479122039245, -0.842071506509405, 0.6502316537090774, -0.027958349968551562, -0.4538148301637292, -0.17016472333401464, -0.555964037129625, -0.8736679046077387, -0.24668378809628377, 0.388125221132808, -0.14287825156681333, -0.20644585355175593, -0.19351153964759396, 0.07649588808816525, -0.25217761532490557, 0.14472956545175622, -0.020130609695900786, -0.30320756176425445, -0.3415837311204116, -0.6482906870584194, 0.10862926680058725, 0.060474052617136176, -0.36954520221941917, 0.4736500767604079, -0.5352222307828653, -0.17547753098083402, -0.41156737325923226, 0.2511219076276151, -0.3088849217728655, -0.030201050326604285, -0.23625755529385026, 0.103590960627982, 0.0621207379266661], [-0.8731233842531794, 0.6158622923125493, -0.7067288314655712, 0.816860863898401, -0.9204730034659463, 0.7453999814294382, -0.674947884520124, 0.8517855272377672, -0.7173406050248214, 0.8380885390166312, -0.6113466889172884, 0.5326636208385737, -0.7906878874253063, 0.5951183632556095, -0.7247456380194348, 0.5488478652846073, -0.7641612676111089, 0.8393033487128032, -0.2700215273362819, 1.0141848665030322, -0.6412433212116221, 0.9717228777402762, -0.5652304693022114, 0.4986882650470236, -0.7767712612476004, 0.8026216520407969, -0.7398698930079414, 0.6584087570550102, -0.7683103273201731, 0.7063804713153458, -0.5860798372062241, 0.8639893353857363, -0.8317425838851475, 1.075042640045287, 0.1394331269269749, 0.8968431411066761, -1.009604816006091, -0.6094093696072632, 0.44217030470039353, -0.9682659188264031, 0.3757649711961169, -1.3302322839558869, 1.7117145071430313, 0.25172615787889097, -0.6332059541024962, 0.5654360802330202, -2.635245883291209, -1.6541054261031651, -0.6214647249869851, 0.6631329868173566, -0.7915383689650685, 0.7217269537169149, -0.6954204689017109, 0.5870469983691762, -1.0703920825514508, 0.6679896287166645, -0.5008285041104547, 1.288751841519947, 0.4503945383578416, 1.256666986699457, -0.6101550433510634, 0.4137539459137738, -0.9253138291614739, 0.7277622429779075, -0.46040738400993075, 0.9685184543932994, -0.3505023084181746, 0.7612125180421151, -1.1116980778172314, 1.0131335428452204, -0.17813442574912602, 0.5442926346082425, -0.7964024474692724, 0.8759469986156617, -1.043751673144331, 0.3084067872547147, -0.5357604405672065, 0.7395293812052522, -0.4414534588479037, 0.8290737023198712, -0.6714666353213898, 0.6934339134744824, -0.4267233934749227, 0.8016428222490299], [-0.09177693386823121, 0.43676518865409886, 0.46861285396733043, -0.43007730578771386, -0.2992587875455267, -0.04628541492210123, 0.25312089452275927, -0.2007179241689664, -0.058632052963361596, -0.4016894640317446, 0.09736355715642434, -0.34890209940084516, 0.06070756660696619, -0.6838328700285553, 0.039023533933976576, -0.15596696199860915, -0.5588701404388274, 0.2213678194792218, -0.10662909139180576, 0.07931657628292053, -0.05764669343770585, -0.2748783252541994, -0.8388578839024249, -0.9744843331955403, -0.07000666332008487, -0.37382767593491384, 0.03290900267421192, -0.5423559926014364, 0.6251368127108984, -0.48503790890617754, 0.10310753370204238, -0.5146812607512287, -0.5973960852678993, -1.024766523712284, -0.48102697624331536, 0.14274060395485905, 0.9165212245993158, 0.7083635155384883, 0.06861072064414105, 0.1125118124983767, 0.18651523567948103, 0.4994103102418421, 0.042383966943254886, -0.8214111024793822, -0.3789827217494837, -0.583931306465178, -0.03649507697604506, 1.0428257846926117, -0.4159240673115993, -0.06474966689397087, 0.5422557784918692, -0.5436825942607761, -0.23933232696047033, -0.5821107355078204, 0.12679254240530397, 0.019830379064614247, -0.3853902833998178, 0.17817552709222836, 0.9721592274937548, 0.5419558611493197, 0.2890890074283461, -0.3300827742738523, 0.2610838380190444, -0.15756945466935232, 0.1673493716432137, -0.2027995589600669, 0.02845798056628529, 0.3795794255751176, -0.2013859973742879, -1.131812573230552, 0.47310356604450626, -0.24619786688518547, 0.003901586437242624, -0.16963636670077106, 0.020252476244388445, -0.24488551835940672, -1.1282472323903865, -0.05891019005329541, 0.3288706352042836, 0.4229563603944209, 0.3567785086934276, -0.2293531839916102, 0.40429877109492895, 0.17524814878362388], [-0.39057583895792697, 0.22695096264037704, -0.31396943246348036, 0.3824668296834869, 1.5544685830923557, -1.585580858331876, 1.4131937548831095, 1.9643531824922746, -0.3156256547938022, 0.4466300495209518, -0.8792601924561634, -0.4894987509413496, -0.4573831013019194, 0.394979907076385, -0.3635530103296449, 0.24760668411408548, -0.35951380975083463, 0.42955302854615895, 1.2229437534591852, -1.7917501912148937, 0.8957831115177137, 1.560764580402644, -1.0901950111931784, -0.31922517408423245, -0.429605423320408, 0.23229537613897772, -0.23725150567943765, 0.3974917538649185, -0.5267590344607876, 0.22321774722757837, -0.6881541946580428, 0.16190262275665068, 1.193332967390676, -1.413263852890926, -0.2357732624554666, 0.38562863171205486, -0.24528247567122238, 0.31107739924674893, -0.40950666006310227, 0.38295903103211043, -0.5563822447227154, 0.05877044526950149, -0.6365735721039615, 0.054672076885741, -0.9391888956106689, -0.18228821088202632, 1.2034545853884246, -1.5153421071805993, -0.10352756501844404, 0.3933555727691027, -0.08461895066913161, 0.31935382815225155, -0.6842267854503761, 0.07720236555604183, -0.3535902488471383, 0.13124070466510626, -0.5078662367706126, 0.13100701891698247, -0.6789117982894138, -0.15775854730471026, -0.4876057091703655, 0.2898858911972025, -0.44041751981379745, 0.419488430563608, -0.19808808245890253, 0.3082103124178688, -0.5217287804528807, 0.1172297066159902, -0.10118597823353372, 0.39950194684616824, -0.720248349469881, -0.15136805309980914, -0.10079209986984598, 0.20907642963069673, -0.2777210732647766, 0.03417913796421228, -0.2364858945697067, 0.0747195708862075, -0.15319631080072174, 0.2846941447070783, -0.26744632923290274, 0.2397687065522816, -0.4943294562355766, -0.05750079330789242], [0.33144641706105943, -0.02021953940109678, 0.22174432881862366, -0.4825734549043071, 0.06332666107011528, -0.10709129067970341, 0.05125625347475603, 0.06255766481455328, -0.44509082292157853, -0.47691087218790407, -0.16564417263798745, -0.1983930236774123, -0.2259400454577104, 0.3085633079006082, 0.1540164057913216, -0.004802782168053487, 0.013597787666150645, -0.009579294616207015, -0.19872024294620486, -0.262405977101603, -0.4125015452099262, -0.37015641069099775, -0.34893588578199514, -0.6406848773978454, -0.1104128901590821, -0.3343117005854486, 0.35650065708398054, 0.29904284645914986, -0.3092671832780631, -0.30675254963838217, -0.14601460837225805, 0.09898812696507775, -0.19505022457632895, -0.6626479401211671, 0.47080528754896556, 0.31917651870921615, -0.27320916743384, -0.3954140941670813, -0.1501143549360929, 0.022342789530834604, 0.021656951457139743, -0.5925208799057884, 0.2408633109652404, -0.5826758931428563, -0.5182762424882128, -0.4113616840621119, -0.6746881120184315, -0.5852159331462238, -0.21213870308632843, 0.0253827972869793, -0.1444680889373595, 0.6462500580655522, -0.2256765156304052, 0.3253830684016422, -0.310519939006142, 0.001000172489922911, 1.0961176315011727, 0.7842439143311933, 1.493871848491714, 1.4057651874126527, -0.6645446158073103, -0.10537232547025878, -0.06565538427545406, -0.4723556356497779, -0.010214293884363462, -0.2762673429834716, 0.48544144971936504, -0.09078356897736013, 0.21923934954321772, -0.5847421908703274, 0.1381765308120129, 0.19985756103962843, 0.3222524353649912, 0.2272357996351099, 0.1356955206952652, 0.0671772143897025, -0.16276712523966846, -0.13751177314687715, 0.22114542922327338, 0.1403151722439771, -0.016333295232393335, -0.29449662596105874, -0.2693258613723599, -0.3720015811695224], [0.23299728543049045, 0.0431857362412505, 0.11987536648052959, -0.2779201874000291, 0.20721942269518565, -0.1763352443339544, 0.303742098863364, -0.18222368972333616, 0.226107405724424, -0.5040675646777266, 0.3537326222748779, -0.08894326704927426, 0.2904177837107871, 0.027603706757798645, 0.4358703142177273, -0.13369526938891735, 0.1478850062847501, -0.2905722883248969, 0.06064346336809019, -0.18366858834958302, 0.3664180955340267, -0.3741142074858186, 0.20161624843114268, 0.1990745541999578, 0.308937149514442, -0.1579566767852358, 0.07303882877993868, -0.36870793076774677, 0.364260466474427, -0.22449149339099914, 0.4486785707677883, -0.1959118543084505, 0.19126420127182278, -0.8821094157333373, 0.7157033585632926, 0.6653760327346276, -1.9717536256153454, -0.11790319172757315, -1.2151811849877059, 2.403401270478318, -2.532063157839424, 0.7906460859420863, -1.686616288333561, 1.9761246970016724, -0.2494319569812191, -0.6856384373202754, -1.7741235138564178, -2.35420993097488, 0.2181774123343547, -0.1265029652980701, 0.48755673063768185, -0.1750222503794236, 0.3793653838322015, -0.12681024198734833, 0.1284838932061631, -0.2604163132722519, 0.37131299754667346, -0.6685019001240554, 0.30991086930999096, 0.40323604664407187, 0.18471340206047326, -0.2113628766557246, 0.09158571443988206, -0.24555823458700926, 0.3633926370326892, -0.21522394916997184, 0.15789173336653714, -0.030291644222298773, 0.06402631470539633, -0.6523468251410469, 0.18331986192227157, 0.11185017324364013, -0.01737032457622173, 0.2469573975883993, 0.11122679009259558, -0.15458626267100029, -0.10606581690718957, -0.36538658023068, 0.21279561750621437, -0.23370257749330178, 0.5388005459738624, -0.17412314921589386, -0.14062394334822761, -0.3997985047199577], [0.09797189384948694, -0.009626775290517278, -0.13820619044546945, -0.22560224598299694, 0.4011997044766018, -0.07338111922244074, -0.2071065632784359, -0.08348399298671683, -0.11347223547031075, -0.3027940376375759, -0.08638509320710479, -0.1747698095509591, 0.6556714834015046, 0.12466406820570439, -0.05839355800645311, 0.11569974873242395, 0.07071102998812799, -0.12458618020507646, 0.030774937350175453, 0.17623147181274232, -0.013572124232229978, 0.4990895443089942, 0.10735183819157323, 0.09342409582920748, 0.3476551458773205, -0.09480910435387951, -0.023475475972882957, -0.19747394192144138, 0.10463794667559245, 0.09897171647895378, 0.1858588515468998, -0.16884134130528772, -0.053592930113339106, 0.5399200259442233, 0.6656256706670081, 0.019769145382648193, 0.06048762204748263, 0.2410283870184969, 0.028203792915543847, -0.2089859929493952, 0.04595843916991998, -0.07052071426355803, -0.2650830069223141, -0.05947906046723057, 0.16233495563015843, 0.9900545502219683, 1.124554272270843, 0.9578629596087458, -0.6154439244226079, -0.005712628489927674, -0.49971153335477236, -0.03082804651166657, 0.0749177548312712, 0.08318949723314364, -1.0498220460728207, 0.5127796669409592, -2.129723030022436, -2.465829221084141, -1.3623541194648034, -1.4531737903731308, 0.15291901070297953, 0.30225081689815186, -0.036392913674783985, 0.060603628860763016, 0.3766587560975376, 0.035287340662551035, 0.19623697971145762, 0.016573110934141155, 0.4123129761625648, 0.6674553879102504, 0.6405847189839865, 0.707967160489047, 0.15756078103591015, -0.21546928162021972, 0.16703962883351567, -0.467601960170377, 0.1544496925015631, -0.04736264043737209, 0.1742979468963666, -0.000191711072143601, 0.0318718454348558, -0.11192747633424305, 0.29353573284831314, 0.11412613719533424], [-0.14534022555943862, -0.24895738441940812, 0.14768014280896116, 0.5698479535310762, -0.22358304128312534, 0.08806215933549176, -0.41070204475744654, -0.40972771770070415, 0.07979654688612706, 0.0726060178024144, -1.2318261337870897, -0.37292506147332405, 0.05386478813803548, 0.5411080191846677, 0.15702886536996621, 0.04554496367052091, -0.6781980932060457, 0.4860631663004225, -0.7695310407744188, -0.14101881350639398, -1.499517303938873, -0.6349667861109476, -0.051503337976386954, -0.5608298844939456, -0.14406617460554486, 0.03408906614128361, 0.3144900843148362, -0.30925313885987593, -0.4817465994496207, -1.13824530273852, -0.2718984214436272, -1.7393795890893644, 1.2272479754220638, 0.4346712480582695, 0.3263287359240132, 0.5019545079628921, -0.2246650807308937, -0.15382787961084785, -0.06435539756861135, -0.3162741167542213, -0.06524519088010021, 0.2612642582641263, -0.17064815717548368, -0.2126611477866231, 0.07454096873672669, -0.7259568007354891, -1.4616089732371038, -1.2767907975117614, 0.3961137064184797, -0.056159804598950085, 0.31966928183191545, 0.1810225385292657, -0.31051600001642055, 0.1971246453932902, 0.18872394646773025, 0.2706433450393178, -1.2580806728670877, -1.0089200079589349, -0.030386421640656393, 0.6345679807295214, -0.16437996267487057, -0.15175330107643134, 0.27217100804683064, 0.22620666736973216, 0.05125404540627671, 0.4119233563774951, -0.6910451248019146, -0.19838722761491331, -0.9986322865245987, 0.3039462032478284, -0.11707967815827254, -0.1336126578768224, -0.02721440986987347, -0.13121248594523408, -0.05055916720696976, 0.5421178090120462, 0.3201720248358151, 0.050229861394996515, -0.2389069803653731, -0.35316571242820716, -0.8057042496901948, -0.4129406655135721, -0.1356843389940771, 0.7145985364746007], [-0.5501620546562521, 0.7642409280656379, -0.6480226177082722, 0.6220072439136787, -0.8601889227802558, 0.6078683010637261, -0.6674914529831345, 0.6010182547626254, -0.5882832154824834, 0.016744389635098895, -0.16850789291880827, 1.132658958985808, -0.4928541296444595, 0.8878095987912917, -0.8677440607914093, 0.6578862653203168, -0.7054664841269044, 0.7349457474548079, -0.9874387981650233, 0.46781964975696516, 0.7569325281534616, -1.9868934566714505, 1.318140315086624, 2.6380652871050834, -0.6775746008656279, 0.6439944535222957, -0.6373088862840802, 0.7933112684502476, -0.749849937822187, 0.686467808763989, -1.0852051226977129, 0.5046428429416994, 0.6685705515893419, -2.4213215985053504, 0.04846102806638895, 1.2697842389744667, -0.6583266463696981, 0.7506512345591083, -0.6657874318056861, 0.7784425297277642, -0.9883009918646007, 0.4932981622243082, -1.1927402743803615, 0.28561734839175423, 0.63696763626105, -1.839186773644176, -0.5310375651323079, 0.6522360340971165, -0.5755744216292547, 0.7805117686389373, -0.5384230498095368, 0.6621048167177225, -0.8386503417129678, 0.6099098786820439, -0.8249320005329509, 0.4013377710510684, -0.6271681786667158, 0.290655584862316, -0.6050323641700326, 0.6584118021975138, -0.5200350565415307, 0.5458156928745308, -0.6342708438889663, 0.5753692960894271, -0.7859663292825751, 0.6227393298904478, -0.7155665742829019, 0.467899546944541, -1.028977325318727, 0.5129613278455966, -0.8626082164729565, 0.32095080603891596, -0.4530434474405225, 0.8306432421090022, -0.783516721803821, 0.5407059015661845, -0.5406331782595676, 0.5502032837769549, -0.7425165185890333, 0.5384299470941079, -0.7567206141579356, 0.5641761233041296, -0.8431129863614049, 0.4418901240440548], [0.2297741171041165, -0.38713044005785663, 0.03756572585613173, 0.4376838633623722, -0.2818023963902645, 0.2981035095400113, -0.31527003512196894, -0.10919412793397291, -0.17316383558275306, -0.2533728279602186, 0.11612488044421945, 0.23679455890611745, -0.48140947707868736, -0.7470556030574707, -0.5360440339301452, -0.17816242198450163, -0.4082192286186391, 0.25602136643018664, 0.31100224885787414, 0.4491736694589924, -0.2317027234236921, 0.4950732711090096, 0.4238454176674482, 0.08849072407178818, -0.20744495703922616, 0.2204376027492694, 0.06676012876308395, 0.2861182597196439, -0.11921038361866208, -0.20973936373185925, -0.5479333751115675, 0.5174751113700942, 0.4508199464551089, 0.12637272173824093, 0.9070068336137366, 0.38257488074015494, 0.3164380174477287, 0.18989220236636106, -0.22717332848034755, 0.37387174063801754, -0.5494310630869251, 0.1400473576644589, -0.14063824757676924, -0.23984158642505216, -0.24472646214785398, 0.0412612716428816, 0.32589593372029096, -0.5478494624027156, -0.15684835638074762, 0.04761252519344413, 0.4456046087829253, 0.4837373095015001, -0.08261652301492382, 0.10675255159393582, 0.04866865544343147, -0.22530771341080616, 0.0968642360361475, -0.6040248236298738, -0.10784233416620491, 0.3099434682871586, -0.044816760908550794, 0.5807834648548933, -0.508434368031008, 0.5729620628262972, -0.5173871508523814, 0.893999895184838, 0.4528578140878091, -0.8576052818319687, -0.2200539549540197, -0.39435913192251015, -0.7005271313831084, -0.15672446155731662, -0.5836249630182463, -0.10026262203051033, -0.4206218533361409, -0.3568163926767793, -0.7740611683620701, -0.39973307034544425, -0.2605441903559347, 0.3180139295781841, 0.1529147438134026, 0.1434362123136227, -0.39543262295719733, -0.6866286181070653], [-0.017825753503170696, 0.24566494643223322, 0.23187457801071018, -0.05977398980775855, -0.12435059898690026, 0.47544296361028626, -0.3484439354724682, -0.15955685596173927, -0.27802055147815585, -0.11794719893211503, 0.014585999676770689, 0.014051238221435199, 0.06106687493717947, 0.2307858882695794, -0.1385357374380336, -0.27574771818316374, 0.24642732224604758, -0.6566726134928185, -0.4271895066344346, 0.3908983036674893, 0.10245854284053459, -0.4187469969371677, 0.2063477725774755, 0.7388112594492544, -0.16702430721333772, 0.10012054324869797, -0.39850503310280166, -0.14547259493629675, -0.3331832227695403, 0.24218168956806088, -0.19609075406517723, -0.06376367034491644, -0.27667078075546403, -1.0189697183648323, -0.21440521908315294, 0.21995185459978916, -0.09148320390963785, -0.1337925824192958, -0.35792662789876495, -0.30921746799374933, -0.4067694460060048, 0.1562280517336588, -0.3548204636287645, -1.482486082761432, -0.8859357207130303, 0.8538115661862077, 0.8443689180690733, 0.7830786051818902, 0.27334363414249563, 0.39955252574171185, 0.06213797559847512, -0.39625715424948343, -0.03582744629194401, 0.1194352143633929, -0.10306141377201436, -0.015022424913361683, -0.19049516261959804, -0.9952585980031988, -0.25617354473430254, -0.2206185498537074, -0.20419083637782395, -0.3153235919391542, -0.5427749204439126, -0.20088287178057834, 0.45736236224759114, -0.2152640379956083, -0.2035758284710526, 0.2413972024081753, 0.28562184844583877, -0.33619666340908, 0.44067845780200654, 0.5944158787465611, 0.1605314033075554, 0.11357290233108056, 0.11619240421092855, 0.3561256918830036, -0.38042935737453515, -0.22372376975134187, -0.11019497466607647, 0.207363996597101, 0.3840781918191261, 0.21403932605133594, 0.18155358257511817, 0.09508229017387876], [0.5944435070405446, -0.46244443281020997, 0.7837816305117739, -0.4121734750609164, 0.24542328755764617, -0.6299224300932919, 0.6047460032674336, -0.3320266936607443, 0.2879161166753711, -0.4737714103398535, 0.5855691707145595, -0.143972838488526, 0.7050585581427928, -0.04746199952293699, 0.27791725422452984, -0.43942673213373273, 0.3495810162562863, -0.669101976346863, 0.33335355487814317, -0.30267043943997046, 0.3277289860343494, -0.7454281099142173, 0.7764067552003745, -0.18751127201281453, 0.393400216768885, -0.24745385355784535, 0.11448059299971822, -0.6729985261608809, 0.546858126264334, -0.43851605807305316, 0.34180422679642297, -0.2954683826555077, 0.633447703544023, -0.5350998655604945, 0.34836026866595043, -0.2717231941349231, 0.48291835350557016, -0.3103696766928553, 0.3333554258403771, -0.7932352305415256, 0.17144185591725147, -0.326253162356702, 0.6965476728174124, -0.29210813470935715, 0.10924024660196589, -0.7848524412922979, 1.4225875263798207, 1.450742304256453, 0.5949333949912722, -0.43600665445828085, 0.2960175662335152, -0.5047763252554608, 0.47799284651013857, -0.47821855492147197, 0.18652701428824747, -0.6569573482849699, 1.1396514152103379, 0.149267952943531, -1.3706380314179598, -1.6320525752822987, 0.26692106017590117, -0.0577086157637069, 0.35032477367503134, -0.3200807006880241, 0.5470531125169323, -0.13622074329500308, 0.5925108290017308, 0.25823495717892325, 0.5619265091683422, -0.24614443032550337, 0.09429133631808563, -0.5523200981011817, 0.27541473704803365, -0.7395073738631337, 0.5397009354201454, -0.5254867085801908, -0.0155521348159832, -1.4164323106710937, 1.1144450610407526, 0.03402459192198969, 0.9021914022120514, -0.2063635520963976, 0.784772703725555, 0.17596165601179792], [-0.24512710867161802, 0.44051622962309, 0.22171821175027187, 0.458166289036636, -0.2894059447298318, 0.1219619501972689, -0.15368980620199427, 0.16437518207130367, -0.6276482058042077, -0.20386001902158996, -0.32583545886711096, 0.08876038237947874, 0.29537834685908687, 0.44147942103359683, 0.20013725464901955, -0.011042969475350533, -0.1768806998693042, 0.15654284974981691, -0.3206149426703882, -0.23656628873597751, -0.3235035838712627, -0.07852855365816035, -0.5385119934040954, 0.16084050565450597, -0.23359462504200634, 0.5929826442841923, -0.5595612961209673, 0.190854543674389, -0.06896992594635089, 0.11295869210806767, -0.2490318278492145, 0.28820432491598186, -0.4887591188191529, -0.17243100351273583, -1.7536721791003616, -0.2411839311834839, 0.0685147396251192, 0.25610445770846035, -0.6351154243086028, -0.02903918202446934, -0.09120455672419572, 0.3093847769444918, -0.2566204794490965, 0.16264652060274487, -0.24291031837382154, -0.16840751498443324, 0.07390659981872162, -1.9482742764879837, -0.5000669079305861, 0.28666334246968295, -0.04057859662611183, 0.6703010323005676, -0.5361079275082766, 0.07560978319207085, -0.6041085594393343, 0.2979695860195062, -0.9293362387275446, -0.5454436113636428, 0.2871304796103275, -2.0521340233145002, -0.19641753026885247, 0.5220305882343395, -0.21568302750865667, 0.2530969845928386, -0.3486078749379467, 0.05046678366265951, -0.19234061623312412, 0.18876796866533735, -0.016546111171739066, 0.04903908747391837, -0.06286391420191376, -2.4154606003526964, -0.22438258827867008, 0.45561567771108263, -0.12585283580002166, 0.28622938573581475, -0.18330713002853619, -0.24455671180883803, 0.14589206543158115, 0.26554195632460814, -0.27211708357664294, 0.09985177467252294, 0.5705167778701884, -1.885891947394403], [-0.10973557349934979, 0.2522999109601479, 0.25611817349986715, -0.2206296825949904, 0.5005070999744702, 0.10153809841445093, -0.30694466880616494, 0.04759688996708821, 0.0851541151929616, -0.09946038650459839, -0.5219521256856536, -0.48011635584435497, 0.35274455728627613, 0.42486920531759553, 0.01062447815507613, 0.6002262934154765, 0.21295406500505518, 0.5179452888962922, -0.6147914358183769, -0.41300457321063905, 0.23559980598729446, -0.6789765186419848, -0.7692697948905207, -0.23572479182373574, -0.09496146045355655, -0.306887951778908, -0.1945992253315566, -0.1602840672861321, -0.1831759283046759, -0.8059143518455963, -0.5841001168297987, -0.12846883228611136, -0.22531512904873074, -1.3349273680982419, -0.17743192766992344, -0.9562834490509399, 0.06616728186318871, 0.433888041625536, 0.05234190398449383, 0.33552505563722756, -0.675451956659297, -0.0070955956097544905, -0.8806740100683055, -0.7510261010270115, -1.0239091109713163, -0.15312395663747183, 0.24891616608552666, 0.20865828493483216, 0.520612077576756, 0.28402002669265886, -0.08419187815592254, -0.595407051240168, 0.06563611051513268, -0.13396041068442735, -0.6051186290882649, 0.11908765132299269, 0.24275438863440216, -0.421691689554777, 0.09913330355838348, -0.23265373599202369, 0.05280189013264211, -0.0020085700730366036, -0.17019720669299704, 0.7691732730131454, 0.298870172898041, -0.10788103130481988, -0.1703434881766952, -0.012156092673943842, 0.6752845012008878, -1.1997206550852908, 0.4369597051852972, -0.37894480517214585, 0.02114605647282825, 0.1419676132939934, 0.14740408367712912, 0.10899614430654542, 0.371731629064517, 0.13637524118989894, -0.2495837580529994, -0.2510400282802481, -0.17079653988343546, -0.1956808125895254, -1.493849071894061, 0.10088937789090192], [0.3694645512058192, -0.5692330260355816, 0.443395040724292, -0.45647448256399276, 0.4609379428857509, -0.46481906519169, 0.412662373671464, -0.39156263144511255, 0.3148088151649946, -0.5025369589935522, 0.41912494184706234, -0.6016426970553104, 0.48090662199597695, -0.41299635257483186, 0.5158943840164758, -0.5904491583976859, 0.6194693339793824, -0.5854473813814095, 0.30264628746146416, -0.5583694889940037, 0.22802113109881503, -0.5969710344339494, 0.34320783389269577, -0.541418403092539, 0.6751162383874745, -0.45046255060918533, 0.35128736903429847, -0.5299020081974533, 0.4898944922476177, -0.5579325990681862, 0.4032814843457232, -0.5932141935699966, 0.3995089516832463, -0.6513404524512413, 0.4831867374351347, -0.5640338206648249, 0.583791056486421, -0.15094340517461094, 0.533802317354721, -0.6896619720257573, 0.43057219882687076, -0.7316049378722899, 0.36449132266665735, -0.815326624903036, -0.16382142797042717, -1.2680573436432092, -0.587436782473193, 1.263070671329895, 0.38982959270274076, -0.5003477095702524, 0.5566117153842428, -0.46105048514229224, 0.4276714836868503, -0.46109058684194215, 0.27588321465578897, -0.7329335619304825, -1.0145531843361066, 0.5186534567005313, 1.0778130128213124, 0.15327747917707304, 0.4614000245048701, -0.3834042813845938, 0.6167041307833308, -0.3624749264450132, 0.4060055313833514, -0.5491643021503381, -1.0477553133213373, 0.6947006264846409, 1.8247453932513278, 0.8512656722981897, -0.9743251480871268, -1.8797549276771444, 0.3932194316237293, -0.3425157891566114, 0.5715972863102257, -0.5181145669608782, -0.953162517029869, 0.9089396001921631, 1.8334926052290523, 0.8846698877767531, 0.523221052699266, -0.40628812294382693, -0.33672662898531175, -1.3494088866911835], [-0.09344995656768612, -0.2730555431289652, 0.024728203969194215, -0.15888168161257726, 0.7957854464819664, -0.0668326147887038, 0.3552809878560232, -0.6586112621033291, 0.3159792365486366, -0.044753979987633495, 0.010589163234694858, -0.9175854960591613, -0.11942641798601002, -0.31769127629784893, 0.03403296312576524, 0.11209087253933232, 0.11819804278948125, -0.3574225323986431, 0.6363119269514658, -0.7508300862110479, 0.8831166120815824, 0.39971281961087635, 0.23227726635734502, -0.11782475959820396, 0.011867691484056607, -0.02920608109859923, 0.17429814999919893, 0.2667251005836294, 0.4523842283413923, -0.23536693449753449, 0.965533317555746, -0.03800181141468302, 0.34603703062666463, 0.12029485980434557, 0.6514722468263051, 0.09386723927391671, 0.3371604363087449, -0.7713498438115494, -0.24285012059547226, -0.06463904265526955, 0.3389626591480629, -0.42090497551420236, 0.4075510338861111, -0.5379123287179413, -0.19136613217349682, -0.7072961854935639, -0.2266545593985914, -0.42144864016929373, 0.7803563516653822, -0.43021894343659867, 0.026647762790210777, -0.3508887751978537, -0.171184585113387, -0.18257442091695886, -0.3353770320656244, -0.40474320907524924, -0.03643444773622108, -0.5143117605472535, 0.7816037009480588, 0.3558774026335884, -0.46285979734722416, -0.7383251060508701, -0.058141755151698046, 0.6969693714076362, -0.5627957052430566, 0.6044951992108795, -1.0784278959369202, 0.06535577310997916, -0.3621397446667597, -0.3953703062492182, -0.7300439282693882, -1.3110747907979752, 0.3676235983643523, -0.42529837618541244, 0.35821369976254336, 0.16838712185957735, -0.05503335429936279, -0.3850599120138591, 0.21512734389514276, -0.2981801669826749, -0.32172939571883563, -0.5670868172716876, -0.07210239981920469, -0.2081173470803722], [-0.5617087812888175, 0.3020201586312443, -0.14838439998848968, 0.4583790432568005, -0.620210640817926, 0.7273300267493635, -0.6676266334786705, 0.32011738484682045, -0.5326182553508141, 0.44383254441987796, -0.004896811127861802, 0.5679938381479955, -0.29292416947572575, 0.4585012179439969, -0.2759450022910845, -0.03486426615816289, -0.6337020437647389, 0.36770975073348006, -0.45877087869360217, 0.41128909912533995, -0.3877250319508148, 0.7328214194893297, 0.7477216734082245, -0.6832224957210757, -0.62463993665481, 0.5492032655422692, -0.33991551751869836, 0.028942567724245055, -0.7877651499860862, 0.32325363708557175, -0.3828205618537161, 0.6455308962263402, -0.7058940134808002, 0.2076646359304488, 1.4403938037501134, -0.9171735405061711, -0.33843517293059905, 0.42118574535498404, -0.3914864399523863, 0.07875035947936238, -0.3151365085338596, 0.5247708845919655, -0.6642697580337706, 0.31090890236058444, -0.7165827175435653, 0.49385393018734347, 1.260092675348894, -0.7375641743864414, -0.7423769714306706, 0.24453232899292407, -0.4259509612712867, 0.6669995484062925, -0.5667995769565458, 0.6282602202286377, -0.5766401696799619, 0.46350876731815, -0.5256858684456862, 0.3256863412593771, 1.2070427316031798, 0.2955542380576347, -0.5550726174929397, 0.3676026442461284, -0.17977440890142626, 0.5904842173405599, -0.61280795764185, 0.3462227340470375, -0.5532883394356765, 0.6571116977878216, -0.5907799658167053, 0.38831830434909864, -0.29184052253141324, 0.3062558110112741, -0.796436638845345, 0.05677864723778128, -0.2605254464895326, 0.5470188491040181, -0.4648629030694294, 0.36146959629622977, -0.6769479278312157, 0.4793499460684056, -0.3565786367755499, 0.40766232712844047, -0.27949556517967805, 0.45343011134544386], [-0.3540901775566331, -0.6990457839441856, 0.07654785297141983, -0.881797625298502, 0.15643144775147247, -1.4026695823068906, 1.0279229266741963, 0.2818298962445738, 0.458670863668068, -0.4884439207323823, -0.14985430405211528, -0.7301203683888154, -0.21497821614185855, -0.20358506270609608, -0.0006498119338069411, 0.4652273812395035, -0.34928339173850237, -0.564841239206478, -0.6683420075027837, 0.018600873349779414, 0.06574458561523676, 0.031909198920459104, 0.6693603824069347, 0.9509387041471968, 0.3295370537334047, 0.18153132466133676, -0.4689213555299589, 0.0482697710573147, 0.4024149883198058, -0.29567886127095994, 0.4138004580404988, -0.07653789740372383, -0.6489572190893516, -0.2771655111251017, 0.6016532327689138, 0.9349776513859073, 0.5736079490378151, -0.04924891274482435, 0.04735819325293299, 0.6116609721279401, 0.20005945015818571, 0.23296011074513392, -0.1701021126198514, -0.42984901720350416, 0.6440843347047454, 0.10101053984520933, -1.1397820169207893, -0.47309498748736883, 0.5018420122183673, -0.2703846689839364, 0.3049192605212392, 0.13841963227591558, 0.37551004156127443, 0.6670148454106714, -0.18128185016297996, -0.4267046560535642, -0.051156650757697784, -0.15563471794624076, -0.8899279431138142, -1.218920727860024, 0.45720294363373526, 0.2560661656713737, -0.24380734670249196, -0.0973013348675897, 0.31066393648825796, 0.17852213300296865, -0.2752599534031841, 0.016382626895595397, -0.5348295012598703, -0.32219727281889327, -0.30559543604510125, -0.09930026157747707, 0.1453546988871623, -0.41269237244611606, -0.0037398541947897333, 0.021513887507886756, -0.026820894502814694, -0.04033835953080147, 0.02865301526097277, -0.24048245639196622, -0.22772967484054527, -0.4065002140013217, -0.10978068247702301, 0.04649402288826218], [0.07693884055602426, 0.4737135351398364, 0.10571281329672799, -0.03707741991234951, -0.09758285780297479, -0.2180753503812483, 0.04623030447920092, -0.0471963454662643, -0.10036098427083644, -0.18240167148112288, 0.23562014784305674, 1.0447547054270991, -0.239582030379251, -0.21128358680112222, -0.25173045196283966, -0.19918276021429968, 0.0029943256516342673, -0.36178814385427344, 0.2312186055629505, 0.2405810393477263, -0.5911321778877299, -0.7231699266033916, 1.011990528743365, -1.3274119601667826, 0.03293237594762548, 0.5175466252855038, -0.2915078616781551, 0.010006723549542268, 0.3272696534747342, -0.1250274385107426, -0.08202437926494373, -0.1751485264672851, -0.05702809713895627, -0.5359546413670208, -1.697439222730487, 0.2511661230407031, 0.029340989841129258, -0.3505829273579397, -0.16713018225029627, -0.1466057654929281, -0.19799326938500938, -0.23366567552481005, 0.32742882576611043, -0.07023336310701596, -0.3107160139185187, -0.3714579607060941, -1.6360723060517677, 0.36151104967324554, 0.19031594243524597, -0.08065761901052147, 0.44709932584378204, 0.207845382901894, 0.10495384661631038, -0.5670690334936929, 0.3737115834854524, -0.33917035723780825, -0.18311864548262793, -0.18404152907965748, -1.3564860803539973, 0.4898343888550172, 0.33414142418980364, -0.34078457498568654, -0.2895821122022828, -0.04341597502650626, 0.142480021155561, -0.28002456093072253, 0.04992226260206834, -0.5188217630800932, -0.3524583076881578, -0.3900965695322758, 0.16218083549534165, -2.4749836751077696, -0.17099051058789133, 0.08594199954381135, 0.30084975728881364, 0.1656693952429608, -0.2757403583469543, -0.3343579504749563, 0.05911375734760129, 0.04924686919003025, 0.02624101382186582, -0.13460656432204549, -0.23941935283593993, 0.29916751953782816], [0.008305005248975858, -0.2992039134812126, -0.408944738809495, -0.2009421289862103, 0.2765391102010791, -0.13346931581235366, -1.4236047482817102, 0.40718635064620257, -0.14590234740192692, 0.05716304048429668, -0.9953100019310616, -1.9121978169109144, 0.18950793364165425, 0.4402044252714128, -0.2529560674935223, -0.0436005689751064, -0.23454441789126024, 0.3606681450148981, -0.33382666488272345, 0.13771099894517946, 0.09524497028796597, -0.06706841184610617, 0.6875545730287365, -1.359004818034781, -0.16653304170827082, 0.15889257019810246, -0.3387118350887988, 0.1496655633401627, -0.15400148123992982, 0.24253199023335595, -0.10950764212716743, 0.05978179958938579, -0.32789353708468, -0.2746936458609441, 1.6886836637380873, -0.5980408696838561, -0.40484690026880604, 0.06643848463152915, -0.2516154753150746, 0.29818635941339117, 0.06851500232456485, -0.034697615740997605, -0.2284593810863709, 0.19133125684598473, -0.30845880667366327, -0.16156851791539364, 0.7256761424062081, -1.7584792911093923, -0.28753089989940966, -0.17543680031475037, 0.06934944957241616, 0.20500563910773303, 0.021995435038846437, 0.28538277800987194, -0.36286962969699244, 0.045051051184980165, -0.360110145616932, -0.03151192765166579, 0.4479254782419374, 0.7495493901410588, -0.02706587961348716, -0.013254254854563734, -0.2530643579926955, -0.1007304239493334, -0.010805462608066979, 0.2904297204783037, -0.4625239396580264, -0.22259989268583333, -0.49170523664397947, 0.008927379298264093, 0.23021729584930614, 0.4874927564523915, -0.3078311964514386, 0.2456056111133187, 0.20657126617046376, 0.6021504929857583, -0.026766819940320735, 0.3670919654645488, -0.34979385065524643, 0.17003512287964867, -0.40207604287961574, 0.011555450745874022, -1.0305984996500732, -0.3000046229087364], [0.03113814846162652, 0.16587286414985292, -0.24462417372354447, -0.026457114470125137, -0.15694872955097725, 0.23021279259968497, -0.14264279732738352, -0.17075108091500513, -0.01756578840143507, 0.16003736885843678, -0.32059887096671036, -0.12836207602190003, 0.10565745405516362, -0.09885845710740017, 0.05998166319774059, -0.06438539816160152, 0.06983043842088389, -0.028321279272633053, -0.07853708780748786, -0.2571735110103516, -0.09642799726162828, -0.18390315173110472, -0.19804214627108374, -0.2919064000594305, -0.3720899197240078, -0.05684926037574496, -0.1426804400322275, 0.05612386942385055, 0.02190095906512674, 0.30767720551958017, -0.31170320750781755, -0.2091364960142476, -0.6241654571713091, -0.3030922691110993, 0.43566957869457373, 0.3002753230590087, -0.29087052253189205, -0.31650761802010696, -0.18753637793971686, -0.20171093012326471, -0.02132490972485986, -0.07954191751456069, 0.29504259063054417, 0.2364400946754992, 0.2512587981084367, 0.18389553507834167, -0.4421867784383564, -0.37926585022873205, 0.941866429501094, 0.8116303696248228, 0.829532976585658, 0.8757778179092097, 1.2412428450284523, 1.7343963304228929, 1.1162803245479362, 0.40308283767260095, -0.10618462098887543, -0.09724335060158718, 0.5993835759413644, 0.7534668241258239, 0.062175159455672695, -0.23282067918502217, 0.06944725182935141, 0.11742263718713605, 0.25274338510890443, 0.05339329646738639, 0.42895197721325046, 0.5033266421113693, 0.537496787022698, 0.4195459163675147, -0.4389437169612848, -0.3049829103668521, 0.12969376654388437, -0.037988303036101484, -0.08642936368774597, -0.0661155411627838, -0.05276342196568609, 0.08270080500645255, -0.2595702920474133, -0.08072846855481411, 0.2150989057584202, 0.17992530277230426, -0.08410020380590517, 0.035594135011126155], [-0.27694251452739654, 0.04963301530645568, -0.05168688292469845, 0.34069307474136956, -0.04125013962046732, 0.27626226122095926, -0.003749986332794307, 0.2270195061543249, -0.2382743170247672, 0.14458318916242335, -0.2570981967502753, -0.19103564817600824, -0.24847165668939308, 0.2630662126093243, -0.021468851064446168, 0.5294577653146595, 0.24088559204659646, 0.47289013738132923, 0.13451222694134218, 0.26459525420291635, 0.11694223834639945, 0.4983758738745486, 0.3554585241389313, 0.8273390699706957, -0.5671406387654895, -0.3709082840938444, -0.7924719837417327, -0.35441470278651055, -0.6271804373416168, -0.9297160642019818, -2.0210807370471775, -1.239429027856749, -1.0056997180317362, -0.7243571427590512, -1.2992606347222815, -1.250886498395762, -0.19244970224936822, -0.07431577284184152, -0.18274052924914816, 0.25729556004780363, 0.1399413264618444, 0.23465405169253428, 0.2645808357649352, 0.3880937386717331, 0.24508962344287352, 0.47354167153258353, 1.4292500843653357, 1.7224114490068019, -0.06800012028427604, 0.36787645113503187, -0.2040068031786639, 0.09927895003112576, -0.6631594764390362, -0.16767672867846342, 0.08435928786686217, 0.27773278549719405, -0.18453167899101394, 0.4532427504272596, 0.5340150312223115, 0.7863303123391545, -0.3255441381158393, 0.05778562762957209, -0.10458029954805738, 0.4326544649760757, -0.2566367865582762, 0.07260617363820038, -0.007028992181141034, 0.22542142611455684, -0.0659562466587371, 0.16600583278577405, 0.04531158710565439, 0.5255905257464523, -0.19109710991932521, 0.21056157721120608, -0.3708377041480802, 0.0969138663695565, -0.3162706060801048, -0.14825748334694056, -0.005081352728202693, 0.42173649632299787, 0.1784366784593937, 0.2871841027904275, -0.5306985350617814, -0.31857267596441907], [-0.4500885806010132, 0.06127023545853679, -0.4561006564829902, 0.2070840822848201, -0.13684445848032478, 0.2794532102483093, -0.48114515577981537, 0.13257324770105114, -0.012768860385076056, 0.3960775848578248, -0.3054562276988194, 0.16661914358738716, -0.19427695764114508, 0.2625717966055355, -0.4027298640064003, 0.14931738285380014, -0.3438473855000873, 0.057980454297453514, -0.2859965211750575, 0.3797372667445056, -0.22031205818532917, 0.32651934113669207, -0.35101869411303815, 0.06695207580523108, 0.12153447221386657, 0.5279103708148901, -0.11881803646462154, 0.26489018265976194, -0.3550018629805611, 0.32344897793119204, -0.19789265444516924, 0.18035947626882454, -0.23304614209603866, 0.1684335298867929, -2.0386395257744794, 0.08827676800076008, -0.17160198225793652, 0.6078265964151481, -0.12090851627501492, 0.505475180475872, -0.20110545033305224, 0.13312951942991827, -0.6337426560836242, 0.15578615769797122, -0.5597140891826764, 0.2469445693758115, 1.3820439032732188, -2.0467338159357884, -0.34013503663060735, 0.14715875629821873, -0.12379012561098866, 0.04579377828280546, -0.22970495387674786, 0.29218664934890476, -0.13612521887870777, 0.03949085118122082, -0.24866340845811924, 0.2604361892092357, 1.798381959870538, -1.6568938758895269, -0.11981355343881966, 0.18854760686034788, -0.05229370385402831, 0.16151395701185922, -0.20726749139396464, 0.14227318660028956, -0.27804818957953564, 0.2125922721143588, -0.5449556595633849, 0.17410148936137804, 1.7739983743865928, -1.583982402165704, -0.4184508756697256, 0.39389725085771626, -0.4087955283467079, 0.20923972499212662, 0.00879077400687931, 0.5767625502097349, -0.7023246788205697, -0.021647758028609177, -0.5104989451625408, 0.15657764089321974, 0.9380628646405429, -2.431309257223246], [0.17046486026354304, 0.026560237775393677, 0.19212553535552623, -0.010373841525418693, -0.32523855154645703, 0.27297177410395895, 0.5447854448298193, -0.291058218525008, -0.21785653644913175, 0.1402411623483513, -0.2596196336499705, 0.12013250629826934, -0.03105226835243749, 0.07110591653365338, -0.3705696624493397, 0.1675429043820186, -0.3390321053497286, 0.16949512849458478, 1.077804613172537, -0.5583049656971052, -0.3969754011552143, 0.024276987412337026, -0.5327417559577775, 0.11480265050963377, -0.02342307800830299, 0.41833484803190657, -0.2922832936305103, 0.1396920642964477, -0.4887187658254303, 0.5778266043093625, 0.5195102204113146, -1.7132216415971742, 1.1627361447216038, 1.8703037159246558, -0.9237318152066536, -0.8616823308360205, 0.14337340321010925, -0.08925360047696826, -0.24677095101647986, 0.36950332997833285, -0.7242018872605577, -0.13882869369056336, 0.8771644540449699, -1.6270169996209691, 1.0631059972553525, 1.3271698453738818, -0.9971517570393951, -0.8434637060362057, 0.29187382409269214, 0.2824943263203879, 0.31065985175010075, -0.11100179361547301, -0.5428096782296558, 0.6265920708949005, 0.8835067380126018, -0.05540933890493972, -0.6227667670070507, -0.0184331697513022, -0.36318831508666277, -0.0722281216606426, -0.20675115326488455, 0.20220298467370074, -0.18067629415623498, 0.2438715706652056, -0.09495533546251436, 0.0004040345082447599, 0.42485423136408473, -0.09867752705954938, -0.49583739113478276, -0.18597289329268468, -0.023617071257481293, 0.4840406661449141, -0.5850415914887607, -0.12221620890042066, -0.20403141926931698, 0.09959373614554218, 0.11321308667001144, -0.04853301289074623, -0.3403087472910851, 0.016950236148307228, -0.05760961232651396, 0.06155839895769786, 0.0003908418477858256, 0.11166864321364652], [-0.19360995538366413, 0.05816062443826558, 0.2181772882817842, 0.1840234419606508, -0.2995447408069127, 0.37981987848332505, -0.3439012497584108, -0.19062322145702465, -0.3369132230621032, -0.2569301832999305, -0.06825610135182422, 0.1472508803645249, 0.030710559317527912, 0.06811637144818442, 0.03601918459960302, -0.19090205964143267, 0.2149100228680367, -0.028413270279932366, -0.8080884406108966, -0.7359108232424622, -0.36957057078462474, -0.5194123616484546, 0.5538505434466173, 0.1883353261593803, -0.19730546723421402, 0.04262985577262164, -0.37502779849458234, 0.053104162275391324, 0.5002894842763951, 0.17450654099887522, -0.6411906049722486, -0.02623493803415265, 0.015363111153439232, 0.12324435551847573, 0.48946190972400105, -0.29039163086151853, 0.03675749852094488, 0.6443102683058677, -0.010861105908131908, 0.2288138733169699, -0.6337155377791861, -0.12648370186786512, 0.11714478085603958, -0.8665948873087518, -0.9968140683710566, 0.1998485630591952, 0.8221280213257551, 0.8441012648831654, -0.12663558485681456, -0.34772943974050113, -0.13181775349089453, -0.550476569285859, 0.23456012125816622, 0.0818745572231502, 0.08747129279043035, -0.4921874328828435, -0.0001910142093820078, -1.313418524566964, -0.32004606710631217, -0.383251308504727, -0.10853458273477375, 0.5200103084524957, 0.04048333706229755, 0.13336334339374378, 0.10088679904283447, 0.8865552706000285, -0.20600893348609087, -0.024571977711047476, -1.005302029257514, 0.1217407883665251, -0.453268369512414, -0.026680867783031643, -0.05261862370434339, 0.14617769149281543, -0.3373490536716884, -0.30660843062443227, 0.08236439764033361, 0.3485391158991443, -0.0033932249111106078, 0.5462400840061631, -1.0200395195894543, -0.06424095267999859, -0.37505888532945886, 0.14895786389763616], [0.3547761658723206, -0.546503312314542, 0.31516863639443027, -0.5706233404478009, 0.579538215272225, -0.36104862658908415, 0.18017131047798993, -0.2122799825858887, 0.35030570009626, -0.2784779537289541, 0.4317853255628758, -0.4704768578815541, 0.19190816647253134, -0.8627493378141342, 0.4361980031434625, -0.1912812961296009, 0.7141070075984713, -0.3100772560009156, 0.15735616888539444, -0.08252091212540767, 0.5150539532270577, -0.45008328836919126, 0.24525349739960867, -0.9534736287284075, 0.7613802361373091, -0.35692642205319147, 0.6510817166441207, -0.599475897259514, 0.232037069557976, 0.10429034752955231, 0.34868190000552757, 0.008030634128095729, 0.2773459696058613, -1.136900265410745, 0.19078559351396407, -0.5750052035362339, 0.3159776012761276, -0.3617510149319679, 0.36204441210613814, -0.2628268379431733, 0.7810290030423419, -0.5120987372931918, -0.03552209218868949, 0.4707936057285595, 0.6751402127936216, -0.3584082182929693, 0.5693943417213848, -0.2500119395611164, 0.5988012860872074, -0.24267628608108838, 0.4481607352545619, -0.7370658598541602, 1.152494605090737, -0.6208724279085387, 1.1668296680656047, 0.7480670827625067, -1.725499450060133, -2.2038445694481856, 1.0541203913422637, -0.016783270150098204, 0.3963315426325258, -0.6485055338266759, 0.868321788479073, -0.34201074275671217, 0.3531849530954333, -0.3714313535731236, 0.10667088182943854, -0.5013605363969792, 0.8303182206990807, -0.03203114293557035, 0.38571528023122054, -0.2824664925915068, 0.7486988798964657, -0.3452128932493783, 0.3719565562848436, -0.5846028215131934, 0.6813837445627895, -0.298095259390798, 0.24838452472501507, -0.6031261933401385, 0.5116930917766872, -0.7247042551842615, 0.39342537782220693, -0.46208059694512277], [0.060086689420493056, -0.16576903152038835, 0.48263569375880566, -0.5090462202723686, 0.34209869683584765, -0.37717605823768907, 0.23675202574520993, -0.33642746660607054, 0.2189059322673698, 0.4850282060361104, -0.07125100759555862, -0.6861793834055185, 0.8367479687218836, -0.015546223833304798, 0.17929587645689163, -0.1754478270751373, 0.33488591351627534, -0.5867137785999442, 0.2936806698173529, -0.29314272614500914, -2.354569836399582, 0.8365520437520574, 1.940750607010117, 1.264946977001038, 0.22961445320936516, -0.011876818341856584, 0.2996278141789787, -0.2388745021191538, 0.3038677051446645, -0.38443961926078213, 0.3843417947704711, -0.5550467512940667, -2.216998866784158, 0.7295574247108324, 1.7060591209385219, 1.0518499865833635, 0.26121621982975013, -0.19513189368893674, 0.2569367235564638, -0.3345142581775078, 0.43813909451641603, -0.5822204419902604, 0.3405650049500322, -0.7164398245537797, -2.202637301197077, 0.7895468681223115, 0.6260029557690049, -0.06219597119063714, 0.41829389900272695, -0.19324495451217755, 0.08069111541869306, -0.41638849871839656, 0.20962285974895112, -0.3325682477019739, 0.14765175656548768, -0.4001034290747001, -0.26318542260372757, 0.6849331992047605, -0.05228102152603673, -0.7120270188616693, 0.3525971102508916, -0.37875460501972225, 0.28585706152937984, -0.247075190363955, 0.4395461642803826, -0.34899747085962946, -0.05196525331801057, -0.4982532327970393, 0.44288482151186664, -0.7177068600230871, -0.11551364813407822, -0.6379953091757886, 0.12185958314617892, -0.48012514838926434, 0.34438617022299184, -0.26958260388396554, 0.18659081085089133, -0.12108188383827073, 0.06027438558377263, -0.48715273036303647, 0.3444389179773006, -0.22956650774732992, 0.25932725581600935, -0.242002985336849], [-0.20003212452884975, 0.2067139255340249, -0.2362540094478246, 0.18804905733612132, -0.17589556071194878, 0.32999822116050537, -0.4761684201054454, 0.0415522037820184, -0.24450449378715372, 0.15413315547739945, -0.4048316757506247, -0.06205100293890825, -0.260383141336115, 0.5037888065263659, -0.08283626996967793, 0.44257198628733435, 1.199256407138078, -1.531301529546565, 1.4981000503941109, 1.9884547001720778, -1.1099680889319627, -0.7317766265911859, -0.8462773506970137, -0.6118956184189289, -0.09078320914280864, 0.2670166698611543, -0.11149883102258115, 0.13500895357258427, -0.07134038771942522, 0.3655899959910156, 0.7580466632418755, -1.6611328996570072, 1.1022376728158956, 1.5959508018725217, -1.6601248966882434, -1.2728833989161357, -0.1149520039988372, 0.2185954336081493, -0.2311429213132347, 0.2377267008621259, -0.504715429640942, -0.05298742920689727, -0.8134144817116199, -0.09883971453237153, 1.0625198306412376, -1.4160850127936717, -0.4177675585803579, -0.09947462985073063, 0.03216767656390916, 0.21656770274593112, -0.19259729090980462, 0.12945241086662718, -0.11420146343661342, 0.22870716582198922, -0.41870129248554583, -0.09853697921205302, -0.45777833494218806, 0.055130599010203736, 0.903356371723393, -1.7904136132086117, -0.24456162033530224, 0.13161477544148112, -0.19643979125392916, 0.3372271904474178, -0.24268777940630265, 0.09812285070912603, -0.2676099414947278, 0.2072490048998781, -0.2928476662117699, -0.02596367060551672, -0.02604959235716978, 0.09112929371884156, -0.08864836143972123, 0.3626653295903529, -0.19601904381434884, 0.1667542709519741, -0.3020308458507088, 0.2305680830375752, -0.22725475460081712, -0.04232297957412691, -0.22878567520854792, 0.165130179514509, -0.03178640680355677, 0.4946905183058575], [0.12575427807872513, 0.20494558908297394, 0.3897227582496401, 0.3536767765405328, 0.4694013789715262, -0.3263461353166771, -0.1850786926330976, -0.10118344063999211, 0.10559454833515612, -0.1522043011353807, -0.4525761535846557, -1.3670948019755147, -0.04815082078560454, -0.07527409161270955, 0.09266311766036965, 0.2306665305229475, -0.34904269366007795, -0.46376398786668355, 0.6159653076828353, -1.228058505560429, -0.698987519228697, -0.6544971162472895, 0.17576292825682846, -0.3035621151059819, 0.22983066868625002, 0.1112989863339627, 0.08242768093200487, 0.06535965342046447, 0.19101186846905746, -0.51318557521364, 0.4106955249164634, -0.38727801362166475, -1.2110465946233044, -0.7305340082286667, 0.0323917062815606, -0.876803984527742, 0.01491492654805846, -0.30445573060282055, 0.051119426635753626, -0.47217017031480923, -0.41373000685218553, -0.23898598670858745, -0.6699513610520713, -0.5263876642532997, -0.26255952722077536, -2.4984848200660914, -1.1959370882265188, 1.224796290152352, -0.21052655257292915, 0.07590569283803522, -0.14720782500579307, -0.1415513740130591, 0.026202599867191777, -0.2978101677138857, 0.3406387425822728, -0.8829610195849423, -0.8204785256339202, -0.7382453132569776, -0.07622806959028179, -0.6883874273952983, -0.13709976534006335, -0.46805019530949893, 0.29962243453145737, 0.05186993797500008, -0.40029360320861984, -0.5614105768027151, 1.14705925741138, -0.9928777456759893, -0.8529764650808408, -0.35264036285341177, 0.4968227475276407, -0.10997449260567702, 0.15395617613604076, -0.15246767421369853, 0.01730114227974183, -0.057105477528573305, 0.08774119914282132, -0.4948358011106383, -0.7094140741329944, -0.6068400729071272, 0.31910363576555806, -0.6004620820911267, -0.1766700724239488, -0.795096318031819], [0.6072387571769039, -0.36368960391631394, 0.5354686094242175, -0.6000561178831545, 0.39535737390112735, -0.47735824958558637, 0.5252011000455183, -0.42038808298101665, 0.3629083463959778, -0.6830856155442866, 0.5640164513426176, -0.48903541061976014, 0.23813142146537625, -0.5079944130671842, 0.7207067688294229, -0.44484234367957737, 0.5652445820798924, -0.5023426249448385, 0.39485680909097504, -0.43926690217157355, 0.3254821526131489, -0.6534758450304358, 0.33661664874324976, -0.489897627203627, 0.755608362038737, -0.42726882729039384, 0.2584163137489977, -0.8095146624900511, 0.5377991150985217, -0.527217908696736, 0.44088774358381405, -0.7337950630279203, 0.3225066805473756, -0.6976804450281244, 0.7360135355893915, -0.37178760997408455, 0.39171507144693174, -0.4414365286317389, 0.7088965534652928, -0.43165410567994034, 0.37943670982116, -0.768700837843678, 0.5001628762612861, -0.8001701903629066, 0.22404859266811605, -0.8834915387229841, 0.26024380853037804, -1.2428003822480813, 0.4047521254376179, -0.5095532271194241, 0.5622115734879806, -0.35528413132793996, 0.42191515079121117, -0.7023796459293873, 0.5885566074609375, -0.9762452418673887, 0.3104193428489346, -0.7297638226038857, 0.21830396995369675, -1.1847840943393204, -1.104146251591145, -0.9529146045403246, -1.4743911732947121, 0.8052122734578802, -3.1956403546989987, 1.086719262286135, -1.7099879196480205, 2.1718834474857034, -2.7568841818815017, 0.7149839120187346, -2.378678163273901, -1.4032911704938738, 0.22928963995554666, -0.4723006091674246, 0.6105704067046833, -0.6110565307489663, 0.6622680287238033, -0.5888452101267125, 0.40756493638774166, -0.7228734374191979, 0.4716995201307213, -0.4404615688171291, 0.23420704546030652, -0.9315136426032797], [0.6342593209610908, -0.4650666944856562, 0.534916391072044, -0.6782471842727111, 0.7391981476402454, -0.6456822152486226, 0.6920197777656508, -0.5266735787080825, 0.735924783124503, -0.49139038102872856, 0.5377591089031637, -0.7212754671689626, 0.5413100747620824, -0.7901177545656133, 0.6014906184191843, -0.5785421889127202, 0.49058673808499953, -0.7909713645596206, 0.6330580249742598, -0.7273562538595659, 0.7180923334316992, -0.579737514480932, 0.5867193358014233, -0.9129590679946393, 0.6271454834688438, -0.6810744314053658, 0.6128792838902414, -0.7874676824613901, 0.6215101504853203, -0.7684438751928133, 0.6605674596222972, -0.7184909949140666, 0.7661758346013923, -0.6581960515078351, 0.6204061969127506, -0.6970102929616749, 0.6406447150016602, -0.7533357996914655, 0.7902649344622408, -0.7553125016697984, 0.7736960767991126, -0.938472998881465, 0.6655143016087078, -1.1369806222742107, 0.5308351226230932, -1.218747663619687, 0.8120989527415664, -0.5275854840093682, -2.375703849875937, -0.8107445020583253, -2.011129897912606, 2.2951933328290903, -4.271394428258395, 1.2524468778655213, -3.0602258254051913, 2.3424965224821475, -2.066398296046309, 0.139519639006679, -1.064417782940393, -0.8174931334862419, 0.6623428822124788, -0.5419500641968246, 0.7969463993393986, -0.6751859226011442, 0.7707006306986287, -0.8616919172184335, 0.7556177611111777, -0.9879524867034332, 0.8062147411582857, -0.8783677637107045, 0.618170956416688, -0.6279805194018295, 0.7109625574386068, -0.8741667168419675, 0.6763826957856287, -0.7175565145070615, 0.7712855314288904, -0.6306197213858427, 0.6635179573563508, -0.9280700376638368, 0.7393718751995889, -0.6626274535066389, 0.5709858192873813, -0.9160749226005408], [-0.019266453033041923, 0.3651227920241469, 0.0649827378245926, 0.043134343903977496, 0.2972413689379566, 0.17785391452116098, 0.06221916189162494, -0.2498370426987636, -0.23645882552268901, -0.36960394739893637, 0.10676870609283277, -0.19944065884635634, 0.280823087920452, 0.029387374921412267, -0.2663066877041168, -0.2775839104997947, -0.06688794610542925, 0.1386166850505054, -0.2769404664991741, -0.9877953064253231, 0.06899828189849058, 0.43145018906808447, 0.00955850549352953, -0.2399801821247187, 0.15969275891352744, -0.22575882006869016, 0.040270720655961545, 0.009963051448439123, 0.31431057573533255, -0.05192091692178422, 0.014341547070468197, -0.033157707323408295, -0.5069651185051296, 0.04025689746253746, 0.14565124713174699, 0.03761147479286253, 0.5623437150517926, -0.2044780533528373, -0.034997805571645474, 0.0005448610984873314, -0.18977031626356322, -0.7197945798103266, -1.5058069014522488, -0.3233749591662474, 1.44313754268652, -1.5339055867191425, 0.5911927252599676, 0.6722882644201942, 0.19085115681121548, 0.711171538560439, -0.520492378137093, 0.13290077811970374, 0.3113222285593365, -0.32454312440261474, 0.11288937046798751, -0.15886939809493544, -0.49092767336869875, 0.5066237848783643, -0.050339777925420603, -0.3043965038487071, -0.06150482095671852, 0.02229768247282905, -0.2621198070009685, -0.8929072984899041, -0.6381466414934333, 0.05473675261083492, 0.45400617026019324, -0.0994280245543506, -0.5060663362008134, -0.12447688607850853, 0.5818964510978528, 0.06757338269567463, -0.0428420961676568, -0.20539327501863155, 0.3630541288120303, -0.38091880607288375, -0.32657934590688276, -0.541769733533774, 0.14463052116379224, -0.06553851475199547, -0.09927049722329616, -0.1649309338331513, 0.21734815216540646, 0.18170669667803233], [-0.3423940762081908, 0.46141070103487075, -0.3649452067705424, 0.15461270775347724, -0.22379152248990836, 0.564661469413633, -0.5026820403580569, 0.7556615790490246, -0.34991549827246693, 0.3303192774459535, -0.43264033044304234, 0.236949594067452, -0.3094197376559451, 0.3035529167621687, -0.6702295537294688, 0.4653013301950761, -0.15558018623105227, 0.21530260076573585, -0.5566094787523395, 0.6476134214286482, -0.4634975915022982, 0.07632125066762427, -0.6110151377905425, 0.41137916552483667, -0.40237188956155245, 0.11194137666244296, -0.4911255386612292, 0.32076571750531496, -0.7857747201948784, 0.343869045690725, -0.20052033643679504, 0.8496451823918469, -0.2711656365124284, 0.31943059548747443, -0.8805572638257542, -0.2883721571038535, 0.2524867264395797, 0.5499931655665266, -0.14990058031935674, 0.18459689266693172, 0.0356748420449535, 0.03979704466448365, -2.5844384022222373, 0.7755696140513544, 1.8254393716642845, 2.1171738374569435, -0.5794163583807473, 0.3420859819043361, -0.6237400997484362, 0.4727750567916494, -0.23125338025578873, 0.6230883786738468, -0.8066351597070821, 0.38179278544229334, -0.7199946095190053, 0.43089124510569393, -0.06152067808456927, 1.0040227629640621, -0.6479742449410433, 0.15325363351672505, -0.30876527732340775, 0.33732407947644094, -0.4076519244809675, 0.4885670354628466, -0.14397567089844526, 0.47747221537037804, -0.49185193961203416, 0.6604049018116349, -0.5030257134908364, 0.21586615659548944, -0.2426717062180348, 0.6733397762140667, -0.5231389714019283, 0.285743708687898, -0.41970369927779233, 0.37914545919494536, -0.6071683174065119, 0.2712626447879389, -0.4460083471452949, 0.4675901828060832, -0.3648022047230447, 0.3843176669090175, -0.5258690694370342, 0.3602492490662669], [-0.3923184173637285, 0.13880737411431368, 0.17969812846800803, -0.4041277480196084, -0.13754677777997817, 0.21327216038501182, -0.09766426950985012, 0.2134903441719217, -0.41579448760722554, -0.1574055301789172, -0.20403711578780803, 0.0071802341859009055, -0.36939473138153567, 0.15180271231182946, -0.2441486956598781, 0.06105376459628197, -0.17814798726061717, 0.05919437886592245, -0.1749789654359333, 0.10947426832488949, -0.439702184045398, -0.17807492024911029, -0.14563446422075363, 0.28640663090131274, -0.484293446500809, 0.26048322706915067, -0.4135065324065258, -0.6789702367704648, -0.42156724473478696, 0.2919732546597923, -0.14395646034517734, 0.06617076270263467, -0.23650617797709061, -0.05200281075806336, -0.6264974673239697, -0.19281334827280033, 0.07298472816462519, 0.2201713273680081, -0.01324170153680575, -0.0398691162371898, -0.40231027007080294, 0.5429603480153593, 0.34381126989710037, 0.43051849294877315, 0.05628890001045281, 0.08112289126684137, 0.6584853572436566, 0.40892799535444274, 0.10703124416961914, 0.38215661472178425, 0.0858144907674007, 0.39782650307084977, -0.06729291921039955, 0.3064312568294644, -0.834664540084602, 0.1758042043400076, 0.03792442336679913, 0.013457075389785881, 0.15225780828864152, -0.0598986113130171, -0.36527007946820494, -0.3943298001838662, 0.02850383784936709, 0.1475836324751501, 0.06244710966506806, -0.3036978921376859, -0.20951217675541964, 0.16767467422751153, -0.3354437459147457, 1.0029596223131307, -0.1903879879208553, -0.40215117218513086, -0.7376284458584592, -0.09013408483515875, -0.418016859196805, 1.3234014552308282, -1.0374863701556432, 0.018766066106308647, -0.29911040321505344, -0.1874579784790616, 0.2394706824502026, -0.2279117991574006, 0.7620744903290276, -1.670102019654213], [-0.04084745282399426, 0.048470977403778814, 0.22040330829577645, 0.2819545387490484, -0.10231142538828095, 0.11513834331073095, -0.2842563374002627, -0.06279598862615676, -0.25188276710579716, 0.20068633645868253, -0.09281892932238256, 0.10686857880557335, -0.17306771619817118, 0.16050292125330004, 0.17217558835418217, 0.26667521618931056, -0.32615629256923556, 0.07990108177594285, -0.30560683185141674, 0.1366023235051881, -0.2134142815927911, -0.027669122152297054, -0.15715386253624283, 0.023289272631006528, -0.4585933814017388, 0.09539527884994504, 0.03705175061535368, -0.0682128198318976, -0.30609220332423315, -0.007836695854036822, -0.5273538498683914, 0.2487271869950629, -0.2087935098693013, -0.28528250867391447, -0.15875255794663273, 0.06433981397438862, 0.06204484167408784, -0.041609241410564435, -0.010912409197365434, 0.1244006102689917, 1.0959594628091578, -1.336692633950106, 1.655084164657077, 1.9340349123751828, -0.10604052272789387, 0.16734133798345924, -1.058388997560113, -0.8991374185824409, -0.1741611665095192, 0.11436641199993193, 0.05057476974100277, 0.3055196426314527, -0.44424951376586014, 0.10944854356047448, 1.2040551982355001, -1.2745072825257706, 0.2155088362274919, 0.586406251369835, -0.731136113891028, -0.3414348647417758, -0.20762483492410239, 0.2718082214234227, -0.381990831231724, 0.4158708508374018, -0.4025218051207781, 0.305924972369667, -0.4169114603093746, 0.04605519163506073, 1.7106871274622577, -0.6288870118832837, -0.6771667041577012, -0.35399459998439947, -0.06677117952499946, 0.17807786058581973, -0.060004563014995654, 0.07703971081738141, -0.2211132735221874, 0.010696278124009953, -0.07799731065889406, 0.11453196754855637, -0.05635453784034937, 0.10120404707281372, 0.9352929934365453, -0.7225009388467961], [-0.028360863613611804, 0.1983721876655334, 0.29702928069925083, 0.10982443715337577, -0.12493649469083366, 0.09287427641389107, 0.13395054195374584, 0.17599154380718693, -0.09937576191716363, 0.09694943632147465, 0.09664572638486299, 0.2085811264166287, 0.10095563642038273, -0.026251881171699736, -0.14128066719896865, 0.04917320360496951, 0.014803606749372696, -0.24937493610188347, 0.24889728355198762, 0.24155418410355733, 0.2866743203084787, 0.3464782450807461, -0.17002044511954675, 0.033926903730236636, -0.42229892805822317, -0.28509360841120573, -0.9159251786858803, -0.26210027365356103, -0.5884721515046225, 0.3359381730780318, -0.2642927533331877, 0.2897118454273744, -0.06613603471009107, 0.016879044190323253, 1.8435439599466084, 2.507593311168472, -0.5848690842142377, -0.6614160535707122, -0.23662454786004494, -0.12258418457937943, -0.23934260748131253, -0.3974721401386975, -0.20087091367018808, -0.22003111093259456, -0.14944472801815636, -0.06256402384191477, 1.208868092108436, 1.6012920433561615, 0.07821831402734386, 0.3202703050813471, -0.16311934417825968, 0.2514532800721209, 0.00817255574243231, -0.12285206463271953, -0.13252293797636835, -0.016613574049344444, 0.11314025815381634, -0.06551751089625457, -0.10124254312722733, 0.22256016023197747, 0.19760372852664662, 0.3104706812766904, -0.3137063938340005, 0.07286360128109878, 0.04559304886226955, 0.42054525467461423, -0.5376380317233623, -0.36308078831826673, -0.30248800546340565, 0.08173941455087465, 0.42632738753141336, 0.5533039691438565, 0.20581086661194672, 0.3466404338036316, -0.2900628337418194, -0.06141773446627349, -0.022421833316322526, 0.11395930783628806, -0.09120080837245302, 0.03362496964363985, -0.06233211071214999, 0.2031258491689387, -0.4175849491409781, -0.08928244199385112], [-0.1402325473616242, 0.2632396339944341, -0.5109246411937124, 0.5576410061288752, -0.6539461860922993, 0.42449281208897555, -0.4668619498183134, 0.5170808365997343, -0.6460848003558809, 0.5502920903457419, -0.24784982821556645, 0.7247271241135645, -0.11559115745548672, -0.49797533217268863, -0.09325841872707519, -1.3236429015812448, 0.9466420968035922, -2.4850762440653194, 1.618796348697687, -1.7560745109364047, 0.7357907445519645, -2.5194281314133318, 0.13829438837214858, -1.8653286387722203, -0.25151706481521524, 0.5586365280968036, -0.45517137108893035, 0.4474459187035547, -0.6755964971134036, 0.45781828242356076, -0.7053334046352134, 0.26951949481151766, -0.40946581627476425, 0.7040351423312492, -1.223319208292437, -0.11372359789948783, -0.13723944340964106, 0.35620778751883486, -0.35053325184859857, 0.6113740844127138, -0.6107247539303385, 0.4581458489670771, -0.5867001897880088, 0.34993702945646443, -0.6319582886973212, 0.395190603975498, -0.8418261373047943, 0.22217777779435124, -0.5140296225747976, 0.6662265084562556, -0.6229430461988815, 0.3964585383817303, -0.3672956668069846, 0.5694334705035328, -0.6971407373582328, 0.18282946416337667, -0.39043852262018036, 0.4719619598505205, -0.9888681819731018, 0.20478888848902857, -0.6250454179263564, 0.6759921364412729, -0.32169309716858047, 0.5904436225332981, -0.3679030003891832, 0.6512451082010497, -0.8820902972557394, 0.33807688193705454, -0.4586400741863522, 0.5826440630682213, -0.6266389275110591, 0.35527699817395364, -0.46338926377210643, 0.49817756516987566, -0.4696439681958017, 0.6149813771376949, -0.4529760999868842, 0.3724678892399469, -0.4816357529936706, 0.380082548189219, -0.4110856942242478, 0.424964684874976, -0.4299194514528814, 0.525651436778543], [0.358220614630783, -0.5620032185403943, 0.3647689979372503, -0.17692978952233968, 0.20399672620182455, -0.36049214926755074, 0.32271089513281714, -0.38416666805617244, -1.7794500653684888, 0.6351094846087749, 1.4635208504634933, 0.6425668498401655, 0.24951474541591753, -0.36131019589450114, 0.12473813585396194, -0.26354725978165866, 0.36558709529198086, -0.29431681282898053, -0.007741835998812801, -0.47151291231198683, -1.5763812801609545, 0.5068103839841205, 1.0452443439674342, 0.3380853702462059, 0.44855003827266676, -0.36359030073366083, 0.3487106381676671, -0.4062448603078062, 0.2933694890384319, -0.3658986405241945, -0.09324395394554659, -0.8118655452683328, -1.2741479814224153, 0.48969606061234205, 0.9972541075648838, 0.2688421777560409, 0.33613291109894217, -0.2918410232727091, 0.354177746714983, -0.46980217448781375, 0.22337708767975442, -0.5462999989651829, 0.0688798736371815, -0.6970035235928131, -1.4763343106298223, 0.1863131381757716, 0.4746135180711108, -0.13493215820350565, 0.25581194692798936, -0.28290700759488185, 0.28224927266375793, -0.4812649625597274, 0.3672619235485814, -0.47085594799400526, 0.2774974909544082, -0.3877532858923164, 0.545054700405583, -2.1141981755301766, -0.37131310267704126, -0.9198056988315126, 0.37729907354259395, 0.08201526776169361, 0.10120083514505933, -0.38717193421444523, 0.3912030723438827, -0.1829258403573553, 0.16636881574806148, -0.3087985517561293, 0.14029762992491054, -0.3677037127138969, 0.2278561774266742, -0.4467859200160083, 0.49565655627110167, -0.11435676973552598, 0.3180072093826845, -0.47022546672641063, 0.36261226519585665, -0.18499753117713358, 0.12686173110326393, -0.3910289202830577, 0.1950868757241302, -0.46363485278071065, 0.20040355178951758, -0.4182922168632743], [0.5923654444777222, -0.4037729190720654, 0.2558309983779505, -0.5505427447290252, 0.6277456420652066, -0.2363636893257415, 0.24733603857161646, -0.5000478025189162, 0.5435534544976307, -0.4034327763852732, 0.5624110367164453, -0.16411653577733096, 0.22640009033559322, -0.199111639915068, -0.1117026724854075, -0.6059707770240595, 0.7000304905806839, 0.004006474470702019, 0.38918271552396194, -0.6109022710274311, 0.2724729028747063, -0.6911925251913357, 0.6175343485538809, 0.1924964282111655, 0.04192157726254282, -0.7519784915941302, 0.6542402996791964, -0.38714918991188746, 0.291589896673544, -1.0050022389288669, 0.3364630533098473, -0.8086405070437225, 0.7394019466354207, -0.36622775625979564, 2.572584766032387, 1.6127941944850055, 0.020849831556722775, -0.2576211420625473, 0.1374658516958227, -0.5844085264574388, 0.3458335874164994, -0.08425886858209944, 0.8118899842059923, -0.3291212250719567, 0.2788954293994438, -0.9989654570765727, -0.3722639984251088, -0.3843942720758709, 0.5323902685503906, -0.012101100558356911, 0.10311037762862903, -0.4668784511525506, 0.32225714682937256, -0.6372352758200645, 0.3042121218519085, -0.23072680729054504, 0.3687093187276355, -0.6982929004976971, 0.4420524617118088, 0.19392564545808602, 0.34899165846725966, -0.23132506714376422, 0.6357769698284159, 0.29115887014589803, 0.7492660655524608, -0.3129338174512337, 0.1684292771674481, -0.6064297157187106, 0.4845328361536103, -0.28463158740367506, 0.2055501810692978, -0.4147593758292428, 0.365779189393352, -0.18153233030815305, 0.4657160403361208, -0.0005314158510669078, 0.46444402794579187, -0.3487225770104437, 0.15648769636455576, -0.6559715268583851, 0.038666586955383074, -0.696566690478484, 0.15924726751791748, -0.9001476688601755], [0.04984878500316484, -0.028691118810861692, -0.024237129392193055, -0.28974369677489903, 0.1946922315926666, -0.07787458621640388, 0.20988819735153277, -0.21275809936724752, 0.00835285047940662, -0.2900552122877582, 0.3079011662385554, -0.08597447084934819, 0.4794985766614618, -0.01720906923901029, 0.2710505817271338, -0.15316379470435104, 0.41171126392467855, 0.01992221129235721, 0.3995096747961175, 0.08571682892229665, 0.5702657952748328, 0.6223556224073014, -0.007782340147508632, -0.3488266336794802, 0.24200642979252163, 0.434713749994594, 0.27206153514028963, -0.02592973907531739, 0.40293373819163625, -0.030426963001165534, 0.1421622464766808, -0.0651824182381533, -1.1156647687533636, -1.1699357115113465, 1.5435295787358094, 1.3999165528874602, 0.677353868560865, 0.3968378835823458, 0.14307182957712264, -0.21804286603806888, 0.1012264468692963, 0.10243460083107321, -0.2654552169182083, 0.007370236170600094, 1.8287991501941976, 1.905857650285882, -0.08851301541691178, -0.331507981106218, -0.23236913889799227, -0.30701761882898565, -0.015614927470882329, -0.1893714581425035, 0.09838933810776551, -0.26801654488119697, -0.004841152013037533, -0.07101674737455932, 1.3183531565208424, 1.2694293244140007, -1.3907094535689914, -1.5203712064165102, 0.1276881617266206, -0.023430835142134423, 0.09732205052349933, -0.11648138227881463, 0.03161772582114715, 0.13642580790179434, 0.17826411484678437, -0.10533273622368508, 0.01693170379549025, -0.12616603660540013, -0.005606181362790798, -0.15652330216812985, 0.18617636099786847, -0.06639993648206204, 0.19524832645471496, 0.06737240860070783, 0.15600293049067762, -0.1481568431992524, 0.09167783500000126, -0.05252752778962171, 0.26218003001555706, -0.045625717715325975, 0.14227689222707068, -0.21977083765977032], [0.07194279707521772, 0.09977213903221072, 0.06092593063087997, -0.332641811971446, 0.2931317945868566, -0.41428743573682786, -0.10888509717649089, -0.30585499141606703, 0.014798670460778164, -0.3603473263692296, 0.18924810889123178, -0.26900797275801674, 0.10553519721724029, -0.10825103203056768, -0.06545463274787239, 0.046384403504404245, 0.06617503053183918, -0.5732572010181274, 0.10657252022940228, -0.2802154596011277, 0.13413694801656606, -0.35995131541491227, 0.31372756889496894, -0.004748870423003443, -0.18074780630267645, -0.3621109749042524, 0.25362603533336314, -0.4588949573423587, -1.2308323943266466, -0.6101670308885786, 0.5630409317464704, -0.42743849722063615, 0.9096665281909927, -0.13565335730798259, -0.08505593663878203, 0.0009037588128750319, 0.2671413433265463, 0.006523360393031107, -0.10970437204656582, -0.3284304487258345, 0.16779386508837887, -0.8257631268309479, -1.4688451702035967, -0.5202089522454809, 1.2490553486652258, 0.778329457557496, 0.002043255288507473, -0.11180888648961837, 0.0029750532237844914, 0.120835592503241, 0.0024570827925711994, -0.0550982124479392, 0.5780817198270222, -0.5026137329687475, 0.7059124802448214, -0.04601192743712537, 0.5402600915534971, 1.5005089943979206, -1.41655515429156, -1.9719464820797783, 0.03927750860358561, 0.31861009244423366, 0.273003067510748, -0.3675590766741087, 0.2065280283742598, -0.196525964997689, 0.558864006944495, -0.19521956804696527, 0.12058336199819387, -0.5038441296249867, -0.21095928913223055, 0.4536656080402898, 0.34212932733635687, -0.4363976386885132, 0.12088151618620009, -0.5574292377220197, 0.1287115298359385, -0.06267310016156573, 0.6142021738768291, -0.15041238334206106, 0.5704527023175459, -0.049829489112882416, -0.20337031045141718, -0.3021637548152839], [-0.30411406721249584, 0.3998736043179304, -0.03984274718911532, 0.20798916262525596, -0.45623674616210735, 0.33181896156812857, -0.3186321250355731, 0.26057820718217867, -0.5300464280976351, 0.375228234304799, -0.19775476741724002, 0.4625823535044345, -0.5879722070807097, 0.41815378782958984, -0.47614046928035947, 0.470682349096584, -0.7216547263581363, 0.10151312616820138, -0.36967603474488847, 0.49150831635782954, -0.45074520998346745, 0.32337088847147855, -0.589431263571126, 0.17887077431740067, -0.49813711583227915, 0.5352803866144876, -0.2818153719085745, 0.6756227108951917, -0.4901216233869932, 0.2171185427789216, -0.2968633955959811, 0.5984422679684233, -0.2564959023739814, -0.14285392663907548, -0.18264800011515536, 0.11051742823781112, -0.24801794284432935, 0.37195751256169524, -0.19691385541615378, 0.3279311454437371, -0.20751037464402053, 0.34175638036803335, 0.15872158299010747, 0.5049270854866964, 0.29571379405509296, 0.24257252096694754, -0.45889866396599477, 0.21056725638372076, -0.20338937437986082, 0.7321675819297235, 0.06482251054704405, 0.7593521432115798, 0.4880474329046419, 0.84333658390259, 0.14215790538395234, 0.41959161746282325, 1.017944394375541, 1.296427557837924, -1.8155408066206002, -1.1463626807628582, -0.5634167721381398, -0.11772481926443511, -0.9574588308540327, -0.19547763314029187, -1.1905930610716897, -0.3228325617700712, -0.9956402383347857, 0.11654924461882804, -0.6948567678992352, -0.07835535417067066, 0.46047941889824284, 1.1645983386547683, -0.24172874500113925, 0.3635232076695112, -0.16738136527430064, 0.36006887417715405, 0.15648548044401084, 0.5136813950309572, -0.3664462605038464, 0.38258023772795063, -0.18086537308747866, 0.36173249787803263, 0.19226942514459205, 0.782274104208758], [-0.7290191255191542, 1.0802911369514698, -0.6283184043194525, 0.39185651487172, -0.6907204893713359, 0.7125489695755194, -0.8304718408993091, 0.6316487223979895, -0.85124171800953, 0.4773212977109755, -0.8077600557594853, 0.6530753883472601, -0.866267941972743, -1.9634621848979743, 1.7138953659903768, -1.212765712902375, 1.0253112918365845, -3.266824817018205, 1.1807996761935344, -2.3344763611520616, -0.7344068021985978, -1.3505734976620172, -1.7722913040373294, -1.0008756454108942, -0.41576422687494885, 0.9037247613840071, -0.5510709236584826, 0.5129366319175858, -0.6252423618939432, 0.7419426316890004, -0.7510215782276151, 0.6741307133854231, -0.753478716744868, 0.6232034415944502, -0.14244977265392744, 0.8285985220999845, -0.9678365353640299, 0.6977332048055692, -0.8041454173932875, 0.7046600064502987, -1.1343261338643738, 0.2205154575809812, -0.6174906637905234, 0.8624874142150999, -0.9522379045782338, 0.7206422264230155, -0.7666357314579695, 0.1933751134473459, -0.5822104587784616, 0.7429445677747768, -0.5809980994698768, 0.8393138288513767, -0.7819926481727137, 0.8417727891417978, -0.8623367069064094, 0.6355805174609571, -0.7398312983699027, 0.6117061764928792, -0.3317916791420203, 1.0438355631209262, -0.5638211865565703, 0.39430564500986875, -0.6397477097155319, 0.5966419829783316, -0.5192758237688108, 0.7242069043544184, -0.561320480374567, 0.7187249311069694, -0.8143775275739208, 0.7292239641129618, -0.6985358720631363, 0.7430323612669364, -0.827348579049059, 0.7638929675463363, -0.5940275447652412, 0.7628802944581614, -0.7362981668845485, 0.7062481709693196, -0.6003632361347454, 0.6670562646113865, -0.7783038521086962, 0.7214411732744269, -1.0307886520794174, 0.49358899607715884], [-0.42709444645544925, -0.09438378358460507, -0.321226376007305, -0.07376062606991947, -0.638932908941578, -0.3106321899748508, -0.07499084989365394, 0.178205358023579, 0.45528890049414616, -0.17032874647561072, 0.4514382484259158, 0.004061543343999135, 0.2101721842206405, -0.5171921701434374, 0.22249439866236448, 0.22299033852040206, 0.7281049263358412, -0.6054445160876034, 0.7142852162159932, -0.1157660987221254, 1.205367262255427, 0.6891835763592707, -0.38214220375015184, -0.7868437107926677, 0.11358818991689192, -0.23351782459816806, 0.33052198240506286, 0.004593476348449309, 0.5856914419193664, 0.2802115714964809, 0.18272253957411874, 0.29795643979479197, 0.6138574978642383, -0.16779054730027101, -0.27943462711707434, -0.4586157619741436, -0.46055614826350894, -0.7288001693056692, 0.15805049676579172, -0.08475039666534416, 0.41634276679800464, -0.25974802158558224, 0.3316248506668439, -0.30231411951827275, 0.3548445480155714, -0.29030208367931637, 0.7879211519822151, 0.5366236921597168, -0.19001370275008028, -0.2907335310595797, 0.023458501879036083, -0.4153821024410148, -0.20977951133426373, -0.31633224768086743, 0.04113399339115819, -0.3588628309848134, 0.2579271148396563, -0.8772818894469099, -0.7960971922550812, -0.406424257087927, 0.11622900191809041, -0.2764382335380657, 0.6417564468631262, -0.38622440092993954, 0.01891330595201176, -0.4998639187457696, 0.007312403522745473, -0.5182045917616886, -0.1319934888223009, -0.5709230012014567, 0.5166975744425152, 0.261426096275031, 0.13014720683842138, 0.32756781415345554, 0.4476049111809383, -0.06117080121479746, 0.10145594022066223, 0.4131186150343875, 0.06872058839922794, -0.10952431059277724, -0.1641139796697055, -0.5541606138353616, -0.27802677366747985, -0.7541838507032487], [-0.2015482156351045, 0.10759102812180783, -0.17913766591040578, -0.18758717737563485, 0.13263238030930313, 0.3193282072938578, -0.13945532999861826, -0.46312188912406077, 0.1897657936416525, -0.013620347347513603, -0.1276309806041813, 0.38550646764163893, 0.2241066624613178, 0.3202066050379777, -0.17069326111415914, -0.3603870575180878, -0.04525178723686615, -0.1805247891809614, -0.24526264877220713, -0.12707308203607234, -0.5192505612331834, 0.44625657769179417, 0.2155007476790293, -0.05729373091405271, 0.34571122908767493, -0.022126787806124343, -0.3572035326332013, 0.39818328247022117, -0.2095533474404375, 0.25868749675292463, -0.540515527319355, 0.24655190977257013, -0.05111048353087986, -0.6437612471343863, -0.3606281727585413, -0.2451190069654465, 0.13261336613921748, -0.0016904746350875563, 0.37441006498181384, -0.3505349867491699, -1.1598342792785346, 0.9708063569734908, 0.9777212233547647, -0.580341486159672, 0.3860956110595635, -0.4503307810935141, -0.18086370314616643, 0.24085079579376945, -0.22039161610132427, -0.17392848728165894, -0.3117257374095475, 0.5512333658396652, -0.6658654746356557, -0.04661823715490936, -0.06247206897532649, 0.29662319542664983, 0.44580339333464564, -0.0073804391995067895, -0.376285020645657, -0.4270966848114974, 0.007157586098468758, 0.26704471567564797, -0.1615549516300985, 0.22203610862238243, 0.08758528889963332, 0.11071677202750248, 0.37647112142786915, -0.37841924567850427, -0.27693354858187985, 0.551403171476991, 0.09172349036494683, -0.1858655395355782, -0.2313940099422425, -0.15812323601574085, -0.1511404105152307, -0.05941934200914993, -0.2794447790918265, 0.42814998285048766, 0.2303751878919382, -0.35797428259425085, 0.3993591445371576, -0.05332749326149138, -0.3737499840243477, 0.38460352047638746], [0.0775910635242031, 0.23803793249151733, -0.19671726802941913, -0.26166940969855906, -0.05102748611019886, -0.20613838752887392, 0.20366171765749452, 0.22452995944675475, -0.15171016063732531, -0.04494901391879427, 1.0717440733303136, -2.5484052626164284, 0.21786845803024604, 0.22050841228777845, -0.11379525107672393, 0.37469740471549207, -0.08219460790663721, -0.08975063808325989, 0.017216453901494014, -0.0044344036677546736, -0.48076709425622327, -0.16907401691873247, 0.9943512679375881, -1.8382443284211412, 0.3287247682486651, 0.21560574245895128, -0.15038791306441027, 0.339764817355626, -0.1895368321688507, -0.2744050847206585, -0.13550943845539165, -0.13029996126761928, 0.019680490725203434, 0.20106848833558758, 0.3859536155745424, -2.1096467425702548, -0.06240395159131425, 0.2148911021161749, 0.11100512850819766, 0.2951505003401324, -0.41056771106865864, 0.01833113092931191, -0.46336918362205104, 0.06194070903824937, -0.5120022310271336, -0.3232476134426784, 1.248445626457602, -1.1723047727712699, -0.20262165396461607, -0.044831575767562235, -0.16051615015336299, 0.11361852440186859, -0.07628823932316486, 0.16212343546104335, -0.1882377328025033, 0.0008575369649409536, -0.5148209205133772, -0.23934851377725366, -2.1464381772784065, -0.0016561532369986714, -0.3631888399838754, 0.8716803351287011, -0.3817263250506268, 0.03635299297038919, 0.01721671940327564, 0.10573515450841069, -0.34554969706883704, -0.2632872568413304, -0.11137898594834804, 0.03704558246134295, -0.6079920205566886, -0.32496389570654316, 0.3459483369266968, 0.24565231912921845, -0.02192089044299704, 0.22906545485010632, -0.2098201584756867, -0.05180199491999325, 0.06163456601170497, -0.05548173261264427, -0.21589922654311217, -0.06582828694162138, -0.12374274070924676, -0.004384409778086656], [0.4158816069658192, -0.33072474369275107, 0.41859108284723373, -0.6446655793118374, 0.706702889169181, -0.2675299750213233, 0.4598592000359945, -0.41763667173587465, 0.3674479573838946, -0.6006400825793439, 0.3412172067948566, -0.6885088399944249, 0.4709104016640853, -0.575482967979152, 0.32384430581490153, -0.39176583365080025, 0.743201164970831, -0.5025841270623111, 0.3419954491249843, -0.6608081533006475, 0.2970616676646117, -0.5450209688081924, 0.39553222536823257, -0.6848950113007022, 0.8395724620090984, -0.009994197213894133, 0.46798695206404406, -0.6025955602342506, 0.5274773273350881, -0.5013688355468389, 0.17388028052573648, -0.507759431101954, 0.5228332013719114, -0.5285857729503578, 0.22581011953505725, -0.8520707872855967, -0.9346695637856404, -0.49123624666299603, -1.832465664754375, 0.27706781394846053, -3.458545342735666, 1.460341586292971, -1.7802472059705383, 2.807210686473391, -3.8727982701813595, 0.2239993189088177, -2.5463905968659946, -0.5956676971123747, 0.4106810637178851, -0.3877744512272772, 0.3322759118303084, -0.6076158736022548, 0.49680721071648465, -0.5175036002660431, 0.34111698393458634, -0.7837114064152217, 0.5501537303896488, -0.277006297005495, -0.06287497471376696, -1.0672039529987172, 0.4283802382660069, -0.5652051652655594, 0.6059054241115381, -0.49727344706133525, 0.5305217086234685, -0.46719360958376555, 0.3870342078914936, -0.5824623637325341, 0.5105937498838962, -0.5536064252000994, 0.37511696505341774, -0.5946645778018089, 0.7780428930782421, -0.5484224320078918, 0.5014475128386763, -0.513729810729585, 0.39814639477276115, -0.5409031296839655, 0.4363683302565078, -0.4948324492213443, 0.3501792233100214, -0.5718780158045373, 0.5998068016537126, -0.3444040275234144], [-0.04470183566420573, -0.008743598675897296, 0.3985750504935743, -0.029865951317344177, 0.1501953835195056, 0.09999398597740966, 0.05544818618680064, -0.14867465451040854, -0.07984165420566464, -0.23276469348474238, 0.041202200779467874, -0.31429481994422326, 0.2360429368509424, -0.3826525663170297, 0.5392669406353005, -0.14342230501188272, 0.14283547147303094, -0.5560533914237128, -0.07658606516554643, -0.22602416923361424, -0.02016681635440488, -0.6457687302884229, -0.05491271644907854, -0.5640519844963163, 0.5043582795882755, 0.3744425230077454, -0.11261344346500828, -0.6281878736460228, 0.21522372818824048, -0.15618704032789493, 0.18575976784156278, -0.23455809823857668, -0.28324040640419135, -0.5660168098072865, -0.17195529025192866, -0.5891753456787271, 0.16969513733656746, 0.0369733616308152, 0.16823011428276055, 0.010407662263020949, 0.32610255315480013, -0.41724484818150465, -0.29066512107249837, -0.9544582627438429, -2.384711084586642, 1.0397952587942907, 0.9893373009801831, 0.8042886974664543, -0.0033634380930902957, -0.2910100912322849, -0.08732196538473037, -0.10339535391184129, 0.1682635056612444, -0.16969225282393025, 0.04484307156355229, -0.7616967833047757, -1.8065191739050293, 1.2785917881975573, 0.9276436101118545, 0.6129154975539177, 0.10248530705800231, 0.05525631920368215, 0.03746815219369165, -0.1829893134171127, 0.20800944802938998, 0.10482555633946893, -0.17172210064271645, -0.5289587546071215, -1.7779871414813118, 1.2680407678802765, 0.03512548263694719, -0.07850348057961072, 0.17482610634051046, 0.06262637291274574, -0.05430867500963999, -0.1586474653470375, -0.05483613710669543, -0.11280072497328257, 0.19122107769425065, -0.29101632283286255, -0.49168323297304867, -0.05958045979109112, 0.49554941525366897, 0.030622570443929686], [0.6972010172459293, -0.7847828754724313, 0.8112183581397843, -0.7247619735963693, 0.9459753619905004, -0.7306393521083592, 0.8032534176839886, -0.7739383303469094, 0.7114766026556051, -0.7238688008179419, 0.5757854831276471, -0.9767798396801541, 0.6484568187440944, -0.5695093058034898, 0.6049263410377462, -0.6260437014272826, 0.7808024977019369, -0.8377341356854384, 0.6566691415851098, -0.7951216841529366, 0.8754640319975986, -0.7443195608595768, 0.5734003109742278, -0.9474529296828901, 0.8079403675187439, -0.7568343622267788, 0.7151437228351744, -0.773134522050291, 0.7145339125112566, -0.5770355055748095, 0.792171883391268, -0.8682626628771288, 0.4075096687354944, -1.1312570400626905, 1.2362492105707041, -0.20753124146160523, 0.9643471779553068, -0.8395502902280043, 0.5591807667172439, -0.8363982872010604, 0.899596573372755, -0.8592719621781981, 0.728748712340315, -0.826304071366709, 0.4467828001731872, -1.1215300207035879, 0.5560243496165845, -0.9600199855969831, 0.7283203232035116, -0.9540579469982122, 0.8208384647184198, -0.7435082948301088, 0.7188126879432247, -0.6179076758853571, 0.6494408011587474, -0.9872602477420397, 0.48372247085149284, -1.0707501047395658, 0.6072458774788879, -1.006531729053967, 0.9012639796987331, -0.8265335215174223, 0.7069786331697523, -0.7854206817803564, 0.7634823611488138, -0.915472046050829, 0.5937341016644214, -1.0382354228493775, 0.7812631932169958, -0.865318603702227, 0.6527699996727961, -0.9106590084462516, -2.0296009764442413, -1.176118413435, -1.7476509221439909, 2.000466408210844, -4.1330373218949585, 1.1686000727405392, -3.634672959982094, 1.267614207663454, -1.8840650933194802, 0.30930621118430474, -1.2357900392202616, -1.0255985310983267], [-0.6565487293594028, 0.8042666634598676, -0.997916374157622, 0.771524753669737, -0.693519257014313, 0.9014168848015346, -0.9240689231656434, 0.6190926592075829, -0.7144367736929931, 0.7884890661094474, -0.8689171504579284, 0.44376881754497005, -0.6516714516217135, 0.7642652124597429, -1.0178448730694776, 0.6700254897644385, -0.7710893934953017, 0.8075172225818398, -0.9086701189020792, 0.5686063178245208, -0.7778418650096697, 0.681374408586794, -0.6437243888184396, 0.5998268520180572, -0.8358655313316674, 0.6334016872035994, -0.6637912776348622, 0.7625179043662226, -0.7248627005056174, 0.7616878252133051, -0.7449896875574293, 0.6646819628637967, -0.8598791703351617, 0.520159722974472, -0.6449004436347258, 0.7545184079713216, -0.849415498833527, 0.39208161240096606, -0.934221399383481, 0.7519186221202228, -0.8143379961578786, 0.6324692552297233, -0.8458079669781247, 0.8013708337431859, -0.8487856926744201, 0.6626243949098658, -1.114885065752557, 0.2959850693128513, -0.6553054427546218, 0.7374758743037747, -0.5906187104587708, 0.6224820057827768, -0.896882198732621, 0.8176969803115235, -1.0437916603718356, 0.542855350711636, -1.037867322245818, 0.5586046723461979, -0.7990518928341471, 0.47299730192833134, -0.3576245546118962, 