{"layers": [84, 128, 64, 7], "weights": [[[0.14082705750940086, 0.32868554545244527, -0.1521701366966028, 0.31192100978184006, -0.14548962983439484, 0.6970162402864581, -0.3381859961019063, -0.0841026599960493, -0.03432801635366889, -0.17496068684609745, -0.8495840964132986, 0.5546710986100758, -0.12203515983463539, 0.07725125870807026, -0.06502142511103445, -0.24045286846280622, 0.15971032344913788, 0.3142630219097116, -0.142005352541395, -0.2246560157242822, 0.07316338948584106, 0.16694752145382113, -0.07347430776353737, 0.2973811330187647, 0.09163613139968711, 0.10229141426149227, -0.37114145252124486, -0.10621556109406756, -0.22573683737955455, -0.1535368546326166, -0.22348318530543773, -0.017357148714701964, -0.2946844483770657, -0.005771251379163924, 0.6423585072563862, 0.10530659084280794, -0.19445995311048592, 0.06733560374868847, -0.11969937507932636, -0.14474332768550865, -0.0273183691772972, -0.14906025036255305, -0.17933919651161895, 0.1579144537019192, -0.11666211680773303, 0.055287597904343073, 0.2707362740015919, 0.20722826704222852, -0.0466476446272616, -0.1001668808224477, 0.08582100103986426, -0.17972668431257965, -0.027422829517853308, 0.03468469341539736, -0.25407248198925464, -0.21437316464544187, 0.015931315023531394, -0.007320093862557062, -1.2929589017083782, 0.2583264478868027, -0.47207508482762606, 0.24208212465512433, -0.06178389907788782, 0.2360294658381012, 0.05969583412644283, 0.07290514831535384, -0.14894818378099473, 0.21987647922004905, 0.06163296520183874, -0.2971825396394058, -0.18655942567030814, -0.44760351647206886, 0.007544646809452119, -0.19894350561550347, -0.2289125937115343, -0.0029733725932740273, 0.021207421700191364, 0.05731817487227688, -0.11409855519486171, 0.15720459549234195, -0.026036031560696435, 0.218772131974476, -0.02431223713710588, -0.5435953882084886], [0.19377347381044, -0.14782213780257733, 0.10556152151526678, -0.10981858164644084, 0.1185032089477512, 0.016827573461313406, 0.04800862236025611, 0.10415641540105484, 0.08320693202095432, -0.0922402951658542, 0.2835495570626369, 0.11621098301229649, -0.11842665712738604, -0.10676901558018362, -0.27419658969175736, -0.22847919363914065, -0.1823904572033359, -0.5394960285101411, -0.30178394489679494, -0.6306600934572362, -0.7822285027381396, -1.3726379960446895, -0.38631237958738607, -0.6717332678953403, 0.24922287508112867, 0.3891854069266347, -0.03935641649871501, 0.04836143866404644, 0.46940190402635734, 0.02268171946804808, -0.041759943635933765, -0.6606897007825834, 0.555892605653752, 1.2905320058420753, 0.8587044390418513, 0.7250705511811675, 0.041284743875343886, -0.25744029774447225, 0.024131455917032706, -0.36328544638721566, -0.09483875753413432, -0.023082588885584898, 0.1523585890284584, -0.04319444554461662, 0.18674377356538752, 0.4223387093119651, 0.39394031998069245, 0.43684045673877564, 0.22020507463074024, -0.048622428494557626, -0.09890729660451394, -0.17062541335326903, -0.10538613100525852, -0.09807382805809588, 0.16808805734962476, 0.010228269851943425, 0.1145172311769909, -0.2134309054067493, 0.1566962021058925, 0.11567518171270469, 0.05711100798933116, -0.27102171233490713, -0.0009085072785030814, 0.0750421581266951, 0.0006754337043579099, -0.1278804992836197, 0.1522992256519693, -0.13584995765921587, -0.11062912529231692, -0.19755880620727664, 0.06927042822468925, 0.014324145670903633, 0.07369137700954095, -0.13075613363400695, 0.00851339601823196, -0.19994468211472244, 0.1873470135225338, 0.0427385426862071, -0.1016285860186198, -0.14442955390393705, 0.06660939167779031, -0.04266197993430394, -0.015425940087085702, -0.15143586901108658], [0.2350984653830274, -0.2478577530852432, 0.011015977083914469, 0.04883473261474983, 0.04297107000013047, -0.3551854700073961, 0.06381289454368903, -0.08979453246220481, 0.11941443695385451, -0.4660322684070787, -0.22477053866780952, -0.43222991764473473, 0.0853527300264981, 0.16310829135393745, 0.1334519080739106, -0.12265262513680113, 0.26742521434546707, -0.23932796236132992, 0.25276269225602294, -0.3391053742975529, -0.04210182594174775, -0.4920793710656925, -0.039459996770040556, -0.19460822900965224, 0.13831253620641187, 0.1385822461037532, -0.047716968214742014, -0.03478834032061156, 0.04366234548328675, -0.08142655078871514, -0.20102552158194567, -0.39079169437706135, 0.2394111260844247, -1.3235287868155914, 0.12482372246145954, -0.08592667748431407, 0.013586065884691221, -0.20742844876062944, 0.10504174268729216, -0.1686473206616456, 0.2884059511178141, -0.08908619089532639, 0.052280731029414385, -0.2460014264272398, -0.9645281022154296, 0.4907132854550403, -0.13382584824574068, -0.400941833950383, 0.08103394016755247, -0.17869188261112995, 0.17297100137340082, -0.17475956784385657, -0.012743699649814469, 0.0063960325527638, 0.21718984594340573, -0.4584944881522666, -0.6227687409572772, 0.9046862077470708, 0.13631087386609547, -0.1773347037032443, 0.20351511299495956, 0.025383319144174413, -0.025879182755936262, -0.3499915893212791, 0.2046733034055136, -0.07524219173556865, 0.014503532768630735, -0.21688199749473033, -0.412989803908567, 0.8935573220984641, 0.05490221167866135, -0.24543508333573366, -0.08273699847908897, -0.09774037071189572, 0.26313280187526, -0.2716953566682485, 0.03554016210201112, -0.2594788725205705, -0.43039874588111465, -0.38590759931210444, -0.11261972796001231, -1.4297317453288636, 0.25780491053540094, -0.3272343221848719], [0.4505229618450182, -0.16981396420947917, 0.3000303119743406, -0.2029628160835555, 0.3234189525450977, -0.23098409345275508, 0.12676928410070554, -0.2577505687423253, 0.18145249032047833, -0.15328241066415055, -0.4865179492510402, 0.4145367121088526, 0.07684412793430632, -0.559187944118238, 0.022319749814592067, -0.09947239508298014, 0.14847004986189774, -0.12974886509654193, 0.16523087062975017, -0.5148446329541788, 0.45950238300170465, -0.2041327896057634, -0.879127991074531, 0.6283003154278566, 0.3166897742873042, -0.21461179368363298, -0.024851751946933814, -0.11945331370962367, 0.004611950492721429, -0.1926462363357126, 0.027515845341668167, -0.12771013114131033, 0.1691795758758809, -0.5165837746784155, -1.3888616557391718, 1.3566283957546457, 0.3907796731214081, -0.3053597332463692, 0.3970676053428272, -0.43924440498710304, 0.35929253568457503, -0.28265176345300297, 0.1951203421765003, -0.47943635039155796, 0.23727885374605576, -0.7535504456252073, -1.1427950032553622, 1.1445325440672494, 0.019079814680782615, -0.2615909707409985, 0.13948111343520436, 0.08999708576737075, 0.2795061792307209, -0.4691109681948002, 0.24928829883902678, -0.4365318359941005, 0.11231953558542933, -0.3774321991994829, -0.28815341556462504, 0.7443409376755142, 0.22400364709301734, -0.4187993012218961, 0.22849478290049408, -0.15804614185387394, 0.41175518880628603, -0.2832068408092436, -0.024058727037948098, -0.4381893403891581, 0.1741887686391738, -0.2221482373059611, 0.09389628442711348, -0.27663041607199296, 0.23689193975422154, 0.006489307750043618, 0.14997694131990313, -0.5637802140244346, 0.5406673308339276, -0.3008535490131608, 0.1302486164042554, -0.31246550503254306, 0.08804463508299813, -0.42467065124186487, 0.07584975806516853, -0.38824478574376853], [-0.21899458183939163, 0.22221873113158103, 0.08478997706809041, 0.15934988782208703, 0.06786688630036564, 0.014438683672500265, -0.19651179613347985, 0.028400055988597205, -0.2754582609700448, 0.038774443026658285, -0.23691615786914755, 0.26753582965770384, -0.25386025334631823, 0.16345831619815177, 0.062042597973024374, -0.062143481708142656, -0.024429010808552937, 0.1264567704982127, -0.1957312745473322, 0.1963735908018254, -0.15565852363034802, 0.1717083264820418, -0.44527736990776046, 0.30421903370566544, -0.22008722364675135, 0.3077651542477146, -0.39356454589578177, 0.07211877034112135, -0.2829733812855542, 0.4426194106387429, -0.5439759706863933, 0.3404652065967061, -0.269630367213156, 0.01754960007860306, -0.3442865981247525, 0.17985984408151898, -0.5183012502558094, -0.829345441219741, 0.9164678803315748, -0.9750108530751307, 0.9133699513257776, -1.5187836318959822, 1.2964215507701509, -0.6606055493961673, -0.0316695812758533, -1.1670359666239787, -0.21854572121900592, -0.11821058818403447, -0.045757264168616155, 0.060212445980973896, 0.01901916537486694, 0.20552217129742262, 0.022761814646873112, 0.17244456379594353, -0.4631727929668168, 0.17711125101887518, 0.17274193200659638, 0.34381311711894247, -0.5646461203341794, -0.022741588397740445, -0.3881453275386762, 0.17856810712195337, -0.2234820663988304, -0.03759792450195499, -0.47244178138993176, 0.02291036952260206, -0.25784159153600333, 0.2767176832453482, -0.24897630003511514, 0.23862367229648337, -0.3215878635393342, 0.5714728894207013, -0.10950304506871508, 0.10673945628374941, -0.020147179579919978, 0.040185529171299514, -0.18268608945916598, 0.02635855953085022, -0.2589859015851707, 0.17821185953217908, -0.16527654407166556, -0.013855942314465316, -0.3865111715091324, 0.3763098981360271], [-0.022094240963016175, -0.15213489095366736, -0.06784975481239754, -0.09508796602335189, 0.026264238494615805, -0.39785821355449136, -0.12288027798525228, -0.07836295567893967, -0.028855291190234188, -0.06381806601347058, -0.0647025200583017, -0.2565717246257535, 0.39113015120948946, -0.0549768371300098, 0.23848177822640246, -0.22381313355843446, -0.054221617155919985, 0.16660755986209427, 0.06000479141793789, -0.47732506361828164, -0.01032735088784244, -0.19454834979600336, -0.07002874099198096, -0.016608860401560507, 0.1338819361738052, -0.41458828130417563, 0.34355896539044434, -0.007135531553483862, 0.21964882716253126, 0.07747559815071876, -0.24757682515271515, 0.3252999745795364, -0.6006375447920745, 0.010126922829222094, -0.2126791213449141, -0.3724506815263112, 0.0734897209254426, -0.13917996160292456, -0.2483907713082615, -0.013807456404843255, 0.2996418343672573, -0.2815774298155448, -0.16151093105128708, 0.8053347415467524, 0.017895097493750296, -0.9739035970783418, -0.15959902111347452, -0.525803425053207, -0.19173916302940597, -0.27759607242009926, -0.13370565369803922, 0.19743997949197226, -0.22837077520006, 0.44615930979207463, -0.026752316315878048, -0.05838073231918112, 0.5144287094045834, -0.1563552756172517, 0.3142503459642092, 0.3816743946936344, -0.10957266201594569, 0.04028413144846309, 0.07133776573252397, -0.121857097438032, -0.028360321444202957, -0.25169506386181806, -0.36228926822474766, -0.05988126376914583, 0.5340564012992, -0.3619964559693455, 0.2614983151958902, 0.189571622493683, 0.08170568156801848, 0.11395594000139701, 0.1272956906893071, -0.09762281395617965, 0.34699274328359964, -0.28897140984997716, -0.21703192667893215, -0.29541277632305846, 0.19401566785288393, -0.2191295262417352, 0.5843007239904181, 0.15441897504095037], [-0.25795522204495575, 0.11058426221320719, -0.050217324633334254, 0.07949475267547118, 0.05165858596492305, 0.07626808629421945, -0.08829256526568571, -0.06609337186830228, 0.0616312364503604, 0.10357341701506761, 0.2604103775655053, -0.15395511908790444, -0.060313423171661884, 0.03426246177272415, 0.023990338683692825, -0.03720947512464496, -0.14685981736456447, -0.004387142703221091, -0.18670195978375617, -0.0008484564204249346, -0.05855538162096734, 0.03357123110383305, 0.39455737077767494, -0.5180400473435796, -0.21273024500803875, -0.056240461177472896, -0.03902648042747106, -0.061888999518609086, -0.007402142448943454, 0.11087318146805106, -0.34821766525293424, -0.05818307613383163, -0.06260705302965143, -0.07511181086613632, 0.745963081140667, -0.7632227585990962, 0.09529699046635162, -0.10201475247487951, 0.011195429044264706, 0.06983879197184867, -0.34932015249848586, 0.0515951815736752, -0.25927175088130194, -0.30469255534767975, -0.24283681877217705, 0.013517189096093098, -1.2094776096252582, 0.3172784570158933, 0.016290023724460628, -0.3166405169212999, -0.12935805174569612, 0.09056178706985807, 0.07827460784408799, 0.34436284545624907, -0.6300802141279815, -0.347518739626464, -0.19532475674404604, 0.14016245749132858, 0.5417616709474188, -0.7203369466856383, 0.10189434237604367, 0.3732934228342959, -0.08699247882316609, 0.09303329141055156, 0.23538621727971676, -0.16066841501808268, -0.2807625795341268, 0.030596314088148325, -0.11810974502098646, -0.32537145040378956, 0.47867604015618376, -0.7636502606152441, -0.01510827141195348, 0.23391586640652307, -0.005655267583631039, 0.13600521310617314, 0.054040151261018826, 0.14377886492747555, -0.2233170582634387, -0.16319653265434467, -0.07540096756694163, -0.2525624810443236, 0.45699805903318935, -0.6659075474817937], [0.08310033530659063, 0.02683115799177792, 0.2185292333544379, -0.20117238591667666, 0.18615389920076103, -0.23615749100733321, 0.0618035929833635, -0.07498701159717645, 0.07327633428935591, -0.16582306388749166, -0.05544662972496579, 0.16771460353892936, 0.0458604318716345, -0.21398259270806616, -0.09757070288239916, -0.1273767181845728, -0.3914469240234453, -0.3016698170471934, -0.056056140842474206, -0.19990877078588648, 0.11318599313227928, -0.12205381468163592, -0.4410943551748815, 0.5101537216604489, -0.02465905783017053, 0.06646082736699224, -0.31665756122510436, -0.04436426113105458, -0.397344540660575, 0.3114858194459182, -0.3084807626080393, -0.33720769712800025, -0.0945230412726072, -0.40329949452682035, -0.6185112616491557, 0.31476750613163296, 0.023836299088640545, -0.3137075491674462, -0.17429755535316974, 0.05938648115834072, -0.46569108961874184, -0.038619878194229, -0.0179688935298444, -0.25906825510644577, -0.19359539007676682, -0.2876341606622505, 0.7939101113280265, -0.7483193489000781, 0.47861564273247015, -0.12577407559720766, 0.1286478659000562, -0.2600416424139085, 0.07996305420010519, 0.04119075099810914, 0.01708647011135091, -0.29109069004513144, 0.147598154828426, -0.29466832442994056, -0.3903604012436047, 0.2884775413912641, 0.354438384119249, -0.15785142973210534, 0.19833595285783118, 0.007446481595858932, 0.012448040999793877, 0.13927951982139086, 0.13051582241441062, -0.14663154891245814, -0.20248986383208883, -0.22661704244409775, -0.2783060464354351, 0.0032947581773006464, -0.007426114195884459, -0.16287319095649502, 0.28676597921381264, -0.241256978376934, 0.09650144567395182, -0.3196829835902934, 0.31074815745117707, -0.1337482395484913, -0.17361470168383258, -0.2485317774049677, -0.10050537641151207, -0.04872517772612469], [-0.501612387524344, 0.3289488167896946, -0.45318111952324003, 0.4554908069624513, -0.3151599164343172, 0.5615014586451201, -0.6216654714714864, 0.4410261393541022, -0.44225324503316527, 0.6154641295517781, -0.31807918793891343, 0.4634908163956479, -0.3843113069996718, 0.3646076372986963, -0.5410822242599403, 0.3365317589340088, -0.3281833388075284, 0.4352779948356954, -0.4035304122118595, 0.443214416110989, -0.42492505472438535, 0.5235283316691642, -0.09991357041702591, 0.30791177521759566, -0.40036214769971257, 0.7170281743194679, -0.40773046396108276, 0.6474032490005364, -0.5512016967321601, 0.47755535586230574, -0.6864971723162435, 0.47641893660503126, -0.2345270916465555, 0.5874550626748071, 0.30764869000359796, 0.4866677228153563, -0.5036749831521017, -0.3529022699276048, 0.5855170024206258, -0.20801046791784727, 0.4857060321763173, -0.9166675551947274, 0.6269842669057635, -0.11275196854791622, -0.05154023361178729, -0.39385306989445484, -0.7898108373819582, -0.727319652042501, -0.4037638070240697, 0.44502821161572714, -0.572593279692214, 0.5462338194426476, -0.6994328825741484, 0.39109260454514494, -0.48889485562714113, 0.5397796195855877, -0.4150964086186526, 0.6537261716432362, 0.2413217327195048, 0.8951536286599402, -0.2798653106478215, 0.46287806681680194, -0.33708599022544955, 0.4068568993012402, -0.18985533517581915, 0.6053389707406968, -0.3786887157486967, 0.567363206684143, -0.5293783766267662, 0.6379044021345432, -0.3735685627173263, 0.04245459824848402, -0.3932929958132556, 0.42937293253068975, -0.6093746916867351, 0.482130693819125, -0.32718294084579963, 0.5759877293046886, -0.5173471543749172, 0.4387405334201216, -0.5197758769757939, 0.5350334900300634, -0.14731256627654601, 0.4740260201144713], [-0.0764387264442808, -0.24865762923067156, -0.08445176399144093, -0.14234442807646222, -0.20788128453986032, -0.07287235981417654, 0.04983969960834634, -0.17447960073196467, 0.1536035420168469, -0.12799891777629085, -0.08477428407695274, 0.0050084433949761685, 0.1291744080015718, -0.05697388749345221, 0.2746328733934268, -0.27517643588888724, -0.06503778021177041, 0.2163919181302224, 0.05938336499716821, -0.03234239780609905, -0.28727234186434464, -0.4311812369400753, -0.5402656965404984, -0.3622067263449682, -0.0063808536366697305, -0.22666059345464445, 0.1735307771068381, -0.13960612238559686, 0.20392968058745717, -0.4539475858251494, 0.07765880452644372, -0.1640971551521393, 0.08407361419910912, -0.16448028946616947, -0.37561303839757637, -0.1439375495642007, 0.4083320515908171, 0.7543427261531823, -0.10773391832339227, 0.60122953559443, 0.6401867946783786, 0.13377464749361748, 0.16478611030602144, -0.43935192795485645, 0.14596782415347628, 0.1173567779918203, 0.21829897038058801, 1.235712707459164, -0.18810744951646072, -0.18033303608737375, 0.047891980493134846, -0.17923790486041502, -0.1935739206837004, -0.3957221764073711, 0.26246116567285893, -0.28132680707894986, -0.07540812898601074, 0.10982832401796411, 0.2810264175880676, -0.0346815285976781, 0.07706953418485758, -0.0024946425665749194, 0.13258395601898226, -0.14897082737091685, 0.03154206819972726, -0.14057834272857966, 0.01940619873059172, 0.11887282291370067, -0.199705019927325, -0.4582771169426523, 0.11481927102485381, -0.565438350370748, -0.058768877937430894, -0.044184940549390816, -0.2788900428742941, 0.11848213432864835, -0.3272546391946376, 0.11219474129805931, 0.34622691500889846, 0.1451900244620477, 0.06820341101438902, -0.10024154751628767, 0.41476669456205156, 0.2601247827125275], [0.2729008544653086, -0.2194725099619248, 0.22154215404852573, 0.09660803005151324, 0.5847647027746631, -0.44041558732443825, 0.08211490417617928, -0.02213901259121436, -0.12623852195706353, -0.12103492219067216, -0.3051234530170582, 0.3342441943012769, -0.20870308379617503, -0.045543963601597064, 0.05997822585084186, -0.102997938058886, -0.37896072289031024, 0.12492877952408905, 0.35056117045659757, -0.35383508736662705, -0.028047931940651614, 0.48873795022088923, 0.15811622710416642, 0.1518737879982845, -0.21122906321456772, 0.06231872140820301, -0.18920573211987568, 0.6494319457405674, -0.4760016587461081, 0.1938925432360412, -0.5328598402448484, 0.45010330555500155, 0.5659461953849377, -0.18762488235705577, -0.01438783562664604, 0.548822223765918, 0.29633100782077004, -0.03460191643137867, 0.2600398076517509, -0.22442644644624177, -0.25615440546071006, 0.28947512900068056, 0.007822677026915262, -0.280871976482478, -0.2886989522967171, 0.1812183928640482, 0.7380339798758132, -0.19242187261352614, 0.24395618893219023, 0.2790866652846424, -0.09867435134691029, 0.21023648936282688, 0.1233806726675683, -0.059221274462845426, 0.01734469806138078, -0.336508165401865, -0.18895757620710982, -0.1589737881197759, -0.9920547219496129, -0.20638469640973064, 0.09485161436481296, -0.042655941404743956, -0.15006525036797025, -0.1717427071238805, -0.08737163787988177, -0.01661063175615713, -0.039200958826361806, -0.14051022186169076, -0.1664378579749365, -0.11288993744248843, -0.04099515851631154, -0.1644953467435723, -0.16077006970300037, 0.03412186640895371, 0.06360888017422218, -0.16101018499043993, -0.17174817931610836, 0.15792189690388883, 0.20359634799569812, -0.025296429436308644, 0.045030301767310855, -0.051210603615437375, -0.014856636399306932, -0.029401995413370234], [0.29841084744935653, -0.09763761431761417, 0.2406894746614743, -0.25225416994706296, -0.05370865672380487, 0.07080174644237812, 0.02456643677868265, -0.20587050427494089, 0.07338523781095903, -0.18395208062534263, 0.1939587708900738, 0.10910421964258156, 0.07522061825903534, 0.14287809147930172, -0.05515704352591556, -0.0028726373753163435, 0.22326622839953458, -0.21299651741157777, -0.32875269516887706, 0.013558541633489372, -0.23246507110821474, -0.26557743577424264, 0.07769473219828053, -0.1371102586465486, 0.2192868216248723, -0.16235175008421468, 0.20336760725645198, 0.09523555681650094, -0.3102701313316836, -0.1962070218804074, -0.23126260230747644, 0.02948550838213666, 0.4038063300949143, -0.31145181272689443, 0.5155355246103497, 0.5126244524717122, 0.011069872359895707, -0.14600365557468173, -0.2659707568213798, -0.008755015887734101, 0.0747414314083314, -0.011453231464347664, 0.3589248917734748, -0.3222733130854292, -0.3853849873347794, -0.4667780006482246, -0.36476346889237793, -0.1412879063045849, 0.015880288955326782, -0.19933390189979605, -0.0695725307130894, 0.43106625147900834, -0.7106249703319665, -0.1074947968072379, -0.1791953224388918, 0.12841207925906212, 0.5311410574472275, 0.51394641358469, 0.8615990621873789, 0.7356949551944361, 0.0397655720872916, -0.20803008479963622, 0.3423486016862442, -0.22637541453678192, -0.17576193790048641, 0.003333992472163291, 0.10949283892155899, -0.42129251258646305, -0.21431601327053373, -0.49514772817850994, -0.10680251229053785, -0.06539923222955657, 0.1451402593844033, 0.1202080393928907, -0.016808965288293565, -0.07190194975453071, -0.058510915747422426, 0.1342360248488437, 0.05800062723131684, -0.2453674726485216, 0.34711315486170524, -0.06897576952483513, -0.026656698302095452, -0.026835358238027015], [0.02098135100546955, -0.02992800374855002, -0.011360201387208975, 0.011852913782834753, -0.1368869029513265, -0.17243888449082756, 0.0476758239301694, -0.12811158745335444, 0.0694353577646038, -0.090119540365447, 0.000884210874578195, -0.290956148430742, 0.21491836390071423, -0.02839993550906689, 0.08232356347157783, -0.2739350949236166, -0.05881494919037397, 0.10024420147441193, 0.058579958005680666, -0.14020528705563307, 0.13479323027806958, -0.20777788053110266, 0.2578427891737311, 0.25490660683728844, 0.24389967915021765, 0.0231726073302052, -0.04460810609804498, -0.4182975071337358, 0.20518261786538497, 0.019318930254069066, 0.1565304199394003, 0.12501198920537226, -0.1458750072873048, -0.325342822535891, 0.25364542314792643, 0.5172958279028975, -0.6053089793951286, 0.13120922892714967, -0.6899774785135212, 0.9375031097954672, -1.291407780356293, 0.7261756696852083, -0.8514164491297551, 1.285127765938744, 0.025375779956999075, -0.19290029224776806, -0.6732096595213625, -0.3740132547142531, 0.2010615390220698, -0.003202464049730102, 0.1828398369604336, -0.26919062943007643, 0.2379699028254896, -0.28033553102458775, -0.07993053093255517, -0.22102529010274105, -0.07323969108880389, -0.5021302080649747, 0.18412615028302243, 0.506957169995106, 0.09423398207610868, -0.1444531069371839, 0.22508219286791437, 0.03160735158879613, -0.0011894007066420905, -0.2524040740539541, 0.08287053019340322, -0.11487757087278087, 0.2962469048330657, -0.23601601551376822, 0.22484943919406336, 0.1880838476430304, -0.020490980038122435, 0.07539284619493443, 0.02815729243929914, -0.2534442678795645, -0.04789815176551133, 0.1550313857489976, -0.022982513594304105, -0.18193016540301024, 0.1900477910208035, -0.0879898415177205, -0.34566624169208016, -0.06813121619423597], [-0.04616778955453452, -0.03398117097447582, 0.047837796190025456, 0.010424093469221678, 0.013642432110005386, 0.06117547006191169, -0.03432545279493562, -0.16029755843345342, 0.12873178548569478, -0.05993890847510477, -0.007219494005269328, -0.019127569410913398, -0.07776571190869185, 0.21161850484179903, 0.0913500548174554, 0.16550860529327918, 0.09418699614052932, 0.00937477026151632, 0.08692757471151769, 0.21441660139638508, 0.19275158888270302, 0.30928496249646215, 0.17974096890849733, -0.11809978173127818, -0.01760288417267902, 0.059342695099510546, 0.040088800050756594, -0.0729572117428981, 0.07506651188576417, 0.1907466505222632, 0.20934698043237593, 0.004620914307424159, 0.19531890743029792, 0.33131028868806084, 0.24294991573927976, -0.3991908254650439, 0.18334820185403738, 0.7317441464109746, -0.4584954628837825, 0.09534424418621122, 0.39768315683712974, -0.01815095253903631, 0.1386507342008396, -0.13794258339253732, -0.07346230132920797, 0.5803185145393546, 0.788486245204922, -0.24044687742657064, -0.3051047848218502, 0.03401239811214487, -0.5526837500696695, 0.410767260200435, -0.8385989722154724, 0.46643274171911847, -0.775497897222715, 0.9549583112124111, -1.0576543085201684, -0.9410949925785289, -0.5507670976078479, -0.8144160013584519, -0.07789792985483726, 0.04618081132423324, -0.20446392649237272, -0.22185880451845824, -0.02516767653912127, 0.1184648808253961, -0.07109256248760568, -0.16072760572682543, 0.02984548081639898, 0.30711358715207887, 0.4634567350413206, 0.2913033111531575, -0.10067250422523859, -0.016593713949447232, 0.022000210257371762, 0.09654583869598443, 0.13943427883440443, -0.050932386802237065, 0.10819435621496544, -0.014750659805008028, -0.22327337410015125, 0.06167805204197638, 0.2870825571810124, 0.04294907070626426], [-0.13947159478964632, -0.21615580444591947, 0.06712812452237417, 0.3339389274293849, -0.413183793661037, -0.03203069564753385, -0.13615581823850062, -0.023283786023682158, 0.007942725430852848, 0.04269597555653627, -0.8719178176396949, -0.1937600712700831, -0.07095590786628213, 0.3101520694708384, 0.02081917875508632, 0.007872324748154682, -0.24286965511600117, -0.1370654332956284, -0.3077739784108389, -0.16228325930141482, -0.7046414911280648, 0.1792331268266154, -0.10183928449934511, -0.22261328466848623, -0.11311202975213175, -0.007920874481905265, 0.10675451715175235, -0.1000839873665383, -0.2232984612855986, -0.42362950366776264, -0.018028742505426985, -0.6901784862408953, 0.5378402804535266, 0.28253865555271257, 0.21899185381647962, 0.1918204292991768, -0.18525148040272515, -0.10807059840328768, 0.16742239222586885, -0.15386349594491747, -0.06381678848843483, 0.10078862594186135, -0.15967103051107134, 0.4031349814738437, 0.23745853635367928, -0.10258624519403813, -0.9214900090863006, -0.5371897208213648, 0.23131783298796696, -0.01696872027827998, 0.18454261665936375, -0.11676673039001355, -0.18714244099084787, 0.11279796620862745, 0.1035058417559393, 0.13797757192572818, -0.24537053666193906, -0.3462590526144539, -0.013532171917327607, 0.801713286135128, -0.215164519847143, 0.04174487485582375, 0.24156419262444986, 0.1538059435379788, -0.0902059811789813, 0.05051568268315014, -0.5225292548807747, -0.24924755573678137, -0.39003848199847513, 0.24722343837689284, -0.08705530248403075, -0.15697402487214007, 0.03918116732516468, -0.0974054838846927, -0.024325693058301928, 0.15882368276881828, -0.031848923517970605, 0.13232001157690348, -0.16435035848042798, 0.021430348461190258, -0.38134053564253834, -0.21140398970902982, 0.08911654713372734, 0.292747156298714], [0.03142223853245096, 0.1940094370104665, -0.1835004104895102, 0.27330538549418, -0.7061418915146165, 0.19818238360050464, -0.4277029597141514, 0.15064178281678725, 0.11628679618092597, -0.17077439853656015, 0.020400335152816643, 0.63192108164815, -0.1865058677359488, 0.22054421920775638, -0.22935604068813198, 0.38068208248225355, -0.493117662937963, 0.4678704038911023, -0.632884355400214, 0.13937409791940095, 0.4577122885411042, -1.254241433922137, 0.18177975346843248, 0.6641914576852854, -0.1027614038399213, 0.07452219455533732, -0.1969959874434289, 0.3104573989911592, -0.28327314896446715, 0.3173290270993424, -0.8456065618732442, 0.22122637951425952, 0.3225956544666079, -1.3649546152372465, 0.0549875890690518, 0.39516841455878204, -0.40612923737813295, 0.17852756806268363, -0.5362689613887793, 0.20879066255437864, -0.4132919231069236, 0.3643551812328588, -0.8242145005434817, -0.019944320907768816, 0.584185458758772, -1.2141504832518981, -0.13497203264567806, 0.07390255692672178, -0.0753997376460056, 0.4426960497852466, -0.3433058063448169, -0.09810883023751946, -0.48649007614297385, 0.4527059252742944, -0.4097740069527784, 0.09483857246093258, -0.11376218204784018, 0.18327786496358062, -0.31728333405191034, 0.24310439645618073, -0.08470142827418677, 0.17364160380224997, -0.27313037731626244, 0.1252138653880107, -0.24024350142155368, 0.1953277533123918, -0.32463136120015, 0.1174433258022012, -0.666986902365048, 0.225677258877887, -0.20699584601575208, 0.14387480366523736, -0.1681579488127623, 0.24810719045011165, -0.3084586445906094, 0.2593672646134769, -0.18883574830436534, 0.22122887231368027, -0.3271654543875308, 0.26551540297913806, -0.4176417565835108, 0.32496099927064076, -0.17582535891975934, 0.2680693989438819], [0.050979648931072256, -0.08024372684507602, -0.04935039742716723, 0.021560254217181253, -0.14764324070894422, 0.03544151082078772, -0.14239422349489866, 0.10108534312994193, 0.02325563384672721, 0.05029415112038669, 0.2699892334441521, 0.0006307656426288855, -0.11043828670263378, -0.23771816316744473, -0.0688442693087416, -0.262284990441822, -0.11376609376461917, 0.23747338214292069, 0.08344096858585008, 0.023328500419763993, -0.11845865719249334, 0.030187442670682484, 0.14445021553590848, -0.1166838498620056, -0.23497540262787056, 0.3662710898643473, -0.1847615187011559, 0.12553601498520045, -0.198152849642763, -0.1076391986968868, -0.05240515399601104, -0.02332950783477849, 0.06477209880946566, -0.08102416674286939, 0.5528974877962919, 0.010813510417446692, -0.28394194974009207, 0.11662944628323176, -0.09047591382214451, 0.1024534367019828, -0.36235667561708607, -0.14027145968725452, -0.24354144043045314, 0.3203878744234705, -0.0015919515762738764, 0.23698662823722086, 0.0667883529093501, -0.7349611589840556, 0.18200319866618989, 0.16525889093105411, 0.03835539075145149, 0.12781907099683687, -0.14055614581311024, 0.09249730790821942, -0.1264997803825668, 0.0194251237025609, 0.04239315658081247, -0.309242181210721, -0.16290837803786584, 0.48351603383779757, 0.059928058393580584, 0.42685158292710285, -0.2880660122262718, 0.6599891190866598, -0.3621680886506372, 0.8445200760562916, 0.24335375531931855, -0.60258551364312, -0.09800466225930259, -0.014865650565986646, -0.599338716803627, 0.3067327889029836, -0.14722138531229764, -0.021269742418964767, 0.019770578823340487, -0.318050736038012, -0.15343530630491933, -0.08915512274085381, 0.2750659296751919, 0.29794476790017305, 0.14486007983893, -0.1330792740928642, -0.3642239493603304, -0.2463139924268132], [-0.19339018962947024, 0.3019426530308247, 0.20096692113176126, -0.004071532437917217, -0.2550060412782099, 0.28850087505607286, -0.20979281562135477, -0.31557630149628013, -0.09448218904307408, -0.09825670208640803, -0.010253518599818589, -0.15953245603185645, 0.05230893062579045, 0.019003501936827413, 0.17033138983153023, -0.06659382966702256, 0.39708461686096186, -0.09550687827651919, -0.5294047489863556, 0.15059045844583374, -0.11902368593217147, -0.24147272858073407, 0.28171207137269905, 0.3756870698784798, -0.07595471090129781, 0.23656235296094466, 0.08174632833808064, -0.02908534042576842, -0.2850640497037208, 0.3027274690350122, -0.22284027051686997, -0.09178865071974063, -0.26261924182801666, -0.7113531788461473, -0.6157625874252731, -0.15079419995807014, -0.10978313266637914, -0.1323484377114688, -0.3433256860526422, -0.11923497698342445, -0.07092517109822645, -0.06634480929039044, -0.08102273043207149, -0.30174575474569326, -0.4802402925626845, 0.39137708072048416, 0.5652463587036486, 0.6071856164159629, 0.19417155354450136, 0.22765336330961106, 0.4017382640252733, -0.25035481357214473, 0.19881934697197462, 0.3291447758083272, 0.17134179800341362, 0.0374237596341561, -0.22490086516741042, 0.07104401349472787, -0.39146056746433255, -0.3286524122985463, 0.29244673366662, 0.12864605080549532, -0.0439913385794786, 0.029565420471077696, -0.07132853703833139, -0.034610731962760224, -0.1758137989024567, 0.16998573603159203, 0.32991275735478093, 0.07913805211203265, 0.2925683383968088, 0.643195248038255, -0.02789218424230879, 0.07329672231631221, -0.03175167853662012, -0.02867605217848786, -0.25099308014891303, -0.036126315997785895, -0.1086991534199799, 0.15255967338883678, 0.15752775810428155, 0.03338907829067544, 0.13283266718155307, 0.16992509743505083], [0.11079926335858274, -0.06232808764038107, 0.19174991715936116, -0.061769086892216205, 0.15573380895005384, -0.13795180835716433, 0.029181827511928386, -0.12358977661860154, 0.11612547962665724, -0.2015843652156287, 0.1683051037581461, -0.08834546785815324, 0.5903658802964619, -0.020520098387527837, 0.1797962573949938, -0.3323859925952729, 0.16939280810679744, -0.15806813773921666, 0.28449776693263107, -0.07537677788862789, 0.11695684089728775, -0.37837786917102617, 0.19118206890944528, -0.13297613830511873, 0.27743575017745653, -0.1740895141171206, 0.05597703293611961, -0.13307868038709478, 0.046789776740009746, -0.20605288012290734, 0.14829021337740303, -0.21487408900305996, 0.1765214277462234, -0.2528130727622171, 0.21665416916042432, 0.0204074933531815, 0.17510291616958543, -0.049201246604497255, 0.09967674644941107, -0.09535350589452296, -0.005502305168776225, -0.06869076389280741, 0.01608824984866333, -0.09814834391105869, 0.40527068108495007, -0.22920712823895878, 0.32712778834013023, 1.0204400094252783, 0.3448566487736217, -0.1416186403666118, 0.07884611149700582, -0.32327264435822906, 0.2425277175523844, -0.30480599756090204, 0.010262935428848409, -0.09646707748959527, 0.5934733532273927, -0.07183651969496146, -0.7746983685780507, -0.2780163688314675, 0.178251088388673, -0.10051367021732137, 0.16437764501527513, -0.08156324867243608, 0.018938706821360195, -0.21049475852832952, 0.17171402299687108, 0.11142863885135854, 0.5129436670608184, 0.061217574819101374, -0.10391685491037238, 0.04198153280004211, -0.08818375730161444, -0.6727565999191241, 0.532665110485275, -0.7528274538029573, 0.18820892979348522, -1.1132903417262339, 0.9045307676557032, -0.133420964778089, 0.11953701291724775, -0.5479211884902636, 0.25047590842712775, 0.6592670154152533], [0.0007557137265274762, 0.08116919467065858, 0.0601851272854081, 0.2533852498952883, -0.1090861914999482, 0.14439860416094735, -0.19845532110893763, -0.11109982680638077, -0.3338810091081757, -0.06154179127769892, -0.018084059094060485, 0.30568268360927436, 0.30051129655169473, -0.007363652067456197, -0.12701000766796894, 0.14574092054145454, 0.07194923095992284, 0.0170482077022688, -0.06732543089925516, 0.11413412399551502, -0.2794563713407252, -0.13605816567794166, -0.4154050005165159, -0.06721602283722312, -0.12477004435744625, -0.003554413264456952, -0.05522798265734354, 0.2514056768592159, -0.06246337515036162, 0.3023411081417312, -0.09773249664652427, 0.29023435416324594, -0.15098984847394287, -0.26328316895271275, -0.8522273425911897, 0.16467643440773164, 0.16416901477656504, 0.19408245511452182, -0.18034555246855669, -0.14087632563007751, 0.03550303882394255, 0.265933801995675, -0.09859377906623788, 0.29886816696119195, -0.1354571237198082, -0.027809947485231926, 0.16458548625579777, -1.282617644174165, -0.157998103029416, 0.08751817666308048, -0.04158179856302329, 0.39055775723287367, -0.19523650607927598, 0.16699053529629154, -0.10656449847055172, -0.1462894246717345, -0.2865683257850326, -0.28655864738137293, 0.24037839379010642, -1.0672330562975736, -0.11285612356799773, 0.327332669197329, -0.3090898480045128, 0.37585815239531745, -0.24006177832724898, 0.09931649212969298, -0.4048131890375024, -0.0991079819730473, -0.1689161645454776, 0.015635654121830628, 0.0920538180783838, -1.1982863968028798, -0.2103385009622336, 0.1358272333124927, -0.10064190055078572, 0.28844216748401286, -0.05753386709075178, 0.0832937364256084, -0.05280909286978186, -0.003614245374956434, -0.2276743987675338, 0.1407150455649935, 0.5357463365653338, -1.1941033875669396], [-0.026877052369448578, 0.23020685206783753, -0.2927784421515686, -0.145822250758792, 0.27123448678468, -0.36832233466920056, -0.31897800770351864, -0.21900673988650757, 0.06286351228273099, 0.10940734354325371, -0.04400659020459964, -0.19594056211867636, 0.1489783972391228, 0.320439266382683, -0.011563720348979177, 0.13834132285021752, -0.06190739559161451, 0.26881869646247375, -0.022604481766245067, 0.23343635040458938, -0.0853421630026651, -0.0890108993738664, -0.5942410368894728, -0.07273817806308881, -0.0748234511813781, -0.21558359393038196, 0.011524176728286678, -0.35903596625884104, -0.16718973833529974, -0.5682653255158618, 0.03374011977554342, -0.4046819731113396, -0.06691396760702775, -0.5401658003415283, -0.19260799335105822, -0.41348615758519663, -0.22350231147544922, 0.12506121272362392, -0.3338997311324149, 0.2991100908691808, -0.6347434435083071, -0.08343516498979246, -0.4259742305417848, -0.18689309476750043, -0.4048172764323374, 0.10677847538559068, 0.3988043682556693, 0.689727947426498, 0.14507958770122775, 0.21976409025212143, -0.2984938607785468, -0.14564944247610243, -0.08077636088180654, 0.073649322626727, -0.12970179013710284, -0.1802789068553125, -0.0714787624000667, -0.5598316465932612, -0.35412645484339655, 0.17051200378788275, -0.12260555535516872, -0.18846147358446644, -0.2189651298813819, -0.007419464686003997, -0.09235054291502307, -0.1438584062864016, -0.023697620510665155, -0.10808334244135621, 0.013935235276031068, -0.2739216058238543, -0.25530606877731865, 0.1882679765478306, 0.06335118020553286, 0.26762805749837637, 0.018763715096445553, -0.2619306524308112, 0.05068455939393154, 0.24294057068558647, -0.10283531329830504, -0.13280205693252076, 0.12697473933555312, -0.15033681634717533, -0.6968507588476258, 0.03288775110607244], [0.2172600170802583, -0.1494191870161092, 0.25050456312598024, -0.33328296256930273, 0.4900024737549441, -0.28189099621130487, 0.3158922278819668, -0.18579282763424795, 0.32088467474803545, -0.11278268097863658, 0.7058555053002783, -0.14543581269310327, 0.23481285384292405, -0.19100382519820985, 0.17950292600938958, -0.24858772879062266, 0.23844983050516114, -0.10152972007478238, 0.13379405156788762, -0.2488893888199266, 0.44775283693433465, -0.10477807061335184, 0.3310134348589456, -0.38170159454874697, 0.21840242695507037, -0.296477174597293, 0.1436280194464459, -0.3808450693406546, 0.14847402393660838, -0.04897177012935847, 0.3654624626737494, -0.6147290034728127, -0.39890606215976643, -0.7821146496202331, 0.7297965257306108, 0.339683443625751, 0.08188195720186123, -0.2727743148695251, 0.16771584255190788, -0.3550175820882444, -0.07377123459655512, -0.32075166909895414, 0.30144223413491733, -0.2488168721223308, -0.16014180617192195, -0.4169851563185142, 0.5822515603254198, 0.7286059159981464, 0.259401730083355, -0.28399910811829115, -0.08431083091159046, -0.2580015433304965, 0.22992455351422886, -0.24720791413060372, 0.41900203859048485, 0.01200949661278841, -0.20186527630576337, 0.2170802579167499, 0.46051723704692243, 0.5137269924634333, -0.03340670708700231, -0.2953507572630777, 0.3123831272014471, -0.07031139509195979, 0.15988686257128823, -0.3044337300117195, 0.08140126403341048, 0.3760364482047172, 0.004336441462328177, -0.06539963711167511, -0.47159997811113136, -0.30639354155156434, 0.3185788121852504, -0.3898947227950722, 0.18630486929021942, -0.43939332879481013, -0.06380951114891206, 0.059612749798276146, 0.2777424124764267, -0.24219734358448156, 0.2658794596945221, -0.2768815379125375, 0.11709298468964628, -0.0818628173251802], [0.12731509685467388, -0.11005450249186245, 0.12420319657075689, 0.04031431440586074, 0.17479618970929747, -0.1879140617690042, 0.13484907746401317, -0.45650826089985874, 0.1808603130487564, -0.5397039952631384, 0.37194195581848954, -0.04946148688426369, 0.08490604378973074, -0.30210476955503635, 0.0891336827666749, -0.1277912338613361, 0.12698413582429072, -0.3230477406598292, 0.4290670450441451, -0.4977884781258346, 0.09916379227840796, 0.12604543302687568, 0.39260042833906966, 0.19303622906801501, 0.20321424174319158, 0.15385252989630163, -0.02923582337635151, 0.3700063094063755, 0.5820385450366954, -0.11457682560894235, 0.5087889510062699, -0.05838247152922387, 0.4217101414106371, 0.09489714309860374, 0.4450439141588474, 0.022140469394115844, -0.07910657732330045, -0.5698138487568545, -0.002479554153611668, -0.2320267184644981, 0.11905431302045777, -0.3452336333820001, 0.48893446652643285, -0.3835619552837181, 0.03932349206162783, -0.5845923133743722, -0.508313244926836, -0.581072823220677, 0.2614998730646146, -0.20375081778094717, -0.10601227629726374, -0.2711524204306747, 0.043367022292803224, 0.18951386319599023, -0.014926565061472306, -0.39860911813787064, 0.059862694459499155, -0.5215721086223866, 0.46860185258803017, 0.136146892191039, -0.30906107404424066, -0.29278371128587144, -0.24101342110910934, 0.36447916867620367, -0.4872969748209449, 0.29279801793337384, -0.40859200457266615, 0.5114305987712813, -0.6033850595290821, -0.139656895940452, -0.5171957959893166, -0.7335250661691798, 0.1826074718387447, -0.20246478385934444, 0.16272917014159322, -0.026373021870170092, 0.06725459540972437, -0.5555144674479898, -0.1388180702457345, -0.21182639463672068, 0.05832213827530491, -0.2591938858679068, -0.01787348942082748, -0.3822266590443009], [-0.2021397037020074, 0.19321735396278344, -0.14073624522776584, -2.352268717906732e-05, -0.22550866015327628, -0.06206861531801761, -0.27613755151990493, 0.33914379764588726, -0.16817686539017496, 0.38449820761921877, 0.2594141728959771, 0.16220065124972452, 0.19888323403879515, 0.15685850247883854, -0.171601097932554, 0.0781197075274752, -0.3157685799429593, 0.14006640645468535, -0.27728398468050497, -0.06324822342672207, -0.31809887408274184, 0.3100774369451911, 0.25565116957233197, -0.4403694682925888, -0.2702849488293205, 0.20389157519108783, -0.30881111836859637, 0.2622783913575416, -0.6525304228820292, 0.3736659214655008, -0.20246918134223252, 0.30688439481846297, 0.16267021746228816, 0.11629479905796468, 0.597184405106976, 0.08774482308593452, -0.17015948403868394, 0.060511011587716185, -0.1795693108009319, 0.13528897042633237, -0.1694208346494913, 0.3848870590174288, -0.36150285641957924, 0.343077646964882, -0.11756686690199011, -0.22078213247569248, 0.8111804871213906, -0.407502902885658, -0.23406628646416777, 0.30117835098489926, 0.11395191540235426, 0.2866924333369382, -0.13914194200029806, 0.314668883670665, -0.2894474391228446, -0.039860754596884186, -0.21591691681892816, -0.11804024590267627, 0.5195123695574348, -0.347214210444896, -0.21586019616239605, 0.15051119224953732, -0.21163501869353177, 0.03641762564084077, -0.614424930588161, 0.10449510264440788, -0.4789708612195142, 0.3383489977554803, -0.632860885843877, 0.5678224397311409, -0.3576607149339217, -0.07968824020661282, -0.2819711136100631, 0.27415460431426664, -0.011364065157277857, 0.06854601172787274, -0.19355282930797277, 0.0467195901931027, -0.2611376786038086, -0.10032037279160284, 0.10560989189206857, 0.11711361730775792, 0.10564706554343727, -0.0773114032348738], [-0.32747162212425557, -0.3422323585138103, 0.3284967312703287, -0.5499784619447732, 0.13222627117529187, -0.9246299797698518, 0.8962128904316654, -0.13705505804591706, 0.3979086888649281, -0.7612841642172351, -0.07182464605182014, -0.36270244912147187, -0.13136825624710266, -0.2838798273800251, -0.19889939223426162, 0.32701543781795994, -0.5418258455976596, 0.16144787649531137, -0.4490380171843031, 0.5926908537720187, -0.17774573514432548, -0.14351226946248238, -0.03937113116970996, 0.39645153503496067, 0.03380884258387196, -0.09595481202368311, 0.06907609794730674, -0.04421251675034015, 0.1157665149928299, -0.12668635100638204, -0.05176443809210778, -0.1899466273555256, -0.2864895470256358, -0.16541043503833439, 0.03249187558400331, 0.7048247519567162, 0.08305104434077079, 0.14058388414394835, 0.04351572643614402, 0.008967361728027399, 0.1131233788217296, -0.07635545423043578, -0.11446174183419662, -0.21139153834718732, 0.38546835197419305, 0.1388636947929813, -0.29858866969431663, 0.4865801322168329, 0.10442858102338108, 0.16643590623212787, -0.06900176405652443, 0.18759146215038333, 0.06953575010769432, 0.05034469221975598, -0.2879064430098708, 0.04871162276984808, -0.12454156393595579, 0.1348795791783065, -0.6146635527371624, -0.6087228042964008, -0.017596674703328572, -0.005922793748626801, -0.0758623077958561, -0.15304530769489896, -0.047044080427749636, 0.16236837484274738, -0.053418434323307014, -0.1717441150672087, -0.18047243989071768, -0.13734068287986545, -0.1326202242851088, -0.1441955481735679, -0.20532993684477877, -0.07915452897571501, -0.026360288995323423, 0.31498190005066623, 0.18180943604124755, -0.039472156443701084, -0.226062000231462, -0.12127259102503475, 0.017574661180698965, 0.03760562770454361, -0.10559820433816755, -0.14174514000683205], [-0.13514625125731025, 0.3056246344450726, 0.0398286979585715, 0.10127936853761135, -0.14693772487085946, 0.0447506791806223, -0.17238442199645412, -0.14119775656603878, 0.03249219924144054, -0.05078181806082362, -0.0026157229920940827, 0.24625062550874854, -0.13761636149674517, 0.00234073652042317, 0.007886289417179273, 0.028992433314789578, -0.19041121868706046, -0.044002525258195715, -0.04852349668266397, -0.3023766038336612, 0.01715357179979131, -0.1873462671532993, 0.8522487227074627, -0.699966832545242, 0.02124853428018688, 0.2180028551387714, -0.27803643434319525, 0.1495727398998794, 0.1376371544270008, 0.1943784488063384, -0.37553984795981143, -0.23168883500290413, 0.023865051362090016, 0.16784248478735841, -1.0771175811542428, 0.20705460028463452, -0.13948266797398792, -0.10802207619021338, -0.20346722504362316, -0.04629036916214797, 0.07652045847638418, 0.013915662243996336, -0.16343741876570564, 0.26504559782363313, -0.14920681118021764, -0.3087910743813493, -0.7812390792728694, 0.4979631180821945, -0.0390492968060129, 0.0877386536600462, 0.20047465191492925, 0.02315178421374924, 0.16644792559161023, -0.20921518970163322, 0.517548433564282, -0.07084415897881369, -0.0421947490053415, -0.2357312867243589, -0.517508126646919, 0.02622210000130142, 0.23204381732736967, 0.10187918110755384, 0.13604229211881552, 0.03591403994092746, -0.061457327430739, 0.41911840395031763, 0.056130637417173376, -0.14440774867038816, -0.11625388714408279, -0.13951450620706296, 0.012331517501978806, -1.0463041594383948, -0.20309731962423658, 0.03228736718457721, 0.06996610204673137, 0.080372462154843, 0.07656154024193419, -0.04574487375597052, 0.12891735181932298, -0.16586151559524204, 0.03992638779643158, 0.014464383971344813, -0.39115811992931854, 0.22168452789114462], [0.13876186828212642, -0.1409021908577017, -0.2695206099447139, -0.030342992020760025, 0.04874785030008374, 0.11970737527777867, -0.5764077608521029, -0.025125700539695647, -0.2844181824520942, -0.5078351017544763, -0.6856008363808601, -0.9284036758334453, 0.034517898026243825, 0.10050841365725502, -0.26454811153007474, 0.10125651718139261, -0.15673148831689276, 0.28856935821044183, -0.12023834207007406, 0.00910754706037072, 0.17594577833794064, -0.259688175762881, 0.2871790150328465, -0.7761412971996259, -0.002850874971521878, 0.13719126255227296, -0.0989365288405569, -0.021372202205125063, -0.23262905328247926, -0.02805807524305306, 0.0274928823080258, 0.22004384262328544, -0.14747780906253344, -0.23587603433759577, 0.7087372288191784, -0.40797395681231363, -0.057515857168058244, 0.16100325445957206, -0.1432467394242401, 0.11822360838283903, -0.11551560647631942, 0.25036753113778404, -0.00955109236736426, 0.11719902009789354, -0.040952498186740266, -0.052019978480237004, 0.5630403526080258, -0.8505654382738081, -0.1287232746811988, -0.07817599733811194, 0.21839982435636307, 0.14110223467213656, -0.1381115880661545, 0.12149913674742578, -0.13165738440649655, 0.07011200090725198, -0.3809483605713553, -0.13789614126373326, -0.07984791375979286, 0.37864223842314376, -0.13535106508768438, -0.012006986900787817, -0.18140351744948421, -0.13160094286065246, -0.054873787228531486, 0.3658511441361122, -0.18943113524174937, 0.03351557675855973, -0.006471405852962539, -0.12982534138159205, 0.10261078428092994, 0.32054108977910445, 0.0027633965904575735, 0.12714141870140896, -0.04681179134511675, 0.19516252696117814, -0.01351763599729184, 0.012101188622074592, -0.0969124759026903, -0.1477140570930863, -0.19249562857879432, -0.12667432613229887, -0.3679073043415904, -0.2260007896280337], [0.018154194412575667, -0.028793832369593566, -0.013429515660665477, 0.02788736147652168, -0.18904418946409632, -0.009428659965664495, -0.24170694861100675, -0.0631922201952196, -0.1259976863850312, 0.08197115292351181, -0.46633067980457515, -0.20333421748715572, 0.3390412771045653, 0.37723751860441107, 0.20248542320567042, 0.09674294313838082, -0.11055702020318607, 0.14149840623643825, -0.24049617396641387, -0.20834939053344587, -0.39002972225136323, 0.04757702295552308, 0.4055544478733399, 0.4271734738139279, -0.002900553876983914, -0.16458402585774481, -0.1945590790744249, 0.02964700707727049, 0.320299498204199, 0.18259574793411742, -0.5777936222394866, -0.046433071616649065, -0.141794282107695, -0.09395679624308918, 0.6666100844034556, 0.037056073323329566, -0.0513470265058617, -0.08892937222917709, 0.12317579551324094, -0.28881559736935736, -0.009912377556663769, 0.12253947586393184, 0.018071399764161993, -0.4479315341927944, 0.38604380961430107, 0.07624832471871804, -0.19122963047435626, -0.26066248548276644, 0.5686748408403159, 0.28934382646303847, 0.28342653097690435, 0.05900575564507082, 0.21561324726061604, 0.839050648607282, 0.33363257694618836, 0.35528605829654275, 0.08426843351775605, -0.361134865957295, 0.4567348829903194, 0.5162862795207139, -0.07318856504797909, 0.0621348400658489, 0.0018232199206128208, 0.12355027237418861, 0.12946793075031926, 0.28051538761525063, 0.3553835980945975, 0.3567667476240956, 0.13325151881727035, 0.0748835784699914, -0.20897962055145117, -0.4473201144835487, -0.08267649871501137, -0.38606223638994674, -0.06406547709293779, -0.11157123534681157, -0.029166744507979087, -0.28423806935101276, 0.24074901228128884, 0.2662197130794706, 0.02060061929737581, 0.08318611500644037, 0.39797239331183587, 0.07819082414663842], [-0.2057905532010139, 0.03138908260560321, 0.066394434036977, 0.021487611228934455, -0.13504437190290583, 0.055462699901132756, 0.19946005290845104, 0.20484576311979732, -0.10913069805169479, 0.16560900975761117, -0.21927889055372163, -0.11636754454017453, -0.004277058471522199, 0.2703858811200941, -0.06983599469353431, 0.2839888296448093, 0.09282771761053746, 0.37330439822509665, 0.19167588804167307, 0.3127024180416196, 0.22872615079880323, 0.3818376146002112, 0.14842899442709886, 0.2520804413941617, -0.45611851299927286, -0.18944738863287264, -0.4004035817406667, -0.42900693230571607, -0.5507000552997822, -0.435907963893968, -1.1567125192438372, -0.6671438461879353, -0.5150920121309362, -0.47416635685786973, -1.2892892991483285, -1.0154434260432654, 0.07404154099953988, 0.48032938742430814, -0.07531266404352265, 0.3089229044449135, 0.16420901886496714, 0.10012533619751995, 0.19378988629591826, 0.2609241985064711, 0.03164290169157219, 0.14710303338839564, 0.9248036665390055, 0.9701871084420847, 0.061854402899670105, 0.23682438283447557, -0.1145088822869937, 0.058941038968439434, -0.13924714873284755, 0.13566710563189613, 0.021569905648023996, 0.04325001270462726, -0.005508849462868161, 0.2571895807512541, 0.5306802660561545, 0.48658188568949323, -0.05880830594495331, 0.021502165330286697, -0.04874103212990661, -0.06144406763291936, -0.2935558645265027, -0.21068290119056088, -0.15234551869861104, -0.08628224045140553, 0.145278970324391, 0.3521917620498248, 0.06764132644019452, 0.141835596326331, 0.12063142196559766, 0.13888929477455522, -0.19271378430260477, 0.07834467918359485, -0.13588489620867922, -0.026926770179156262, -0.1577115603250689, 0.2173776831634348, 0.08436525853226977, 0.04601147661266779, -0.2798768957505273, -0.2551428797500513], [-0.1364626197521, 0.02781676807074222, -0.2089243508073509, 0.21806691133609082, 0.14888403667696884, 0.14390314364003517, -0.2174418494907509, -0.031649659567378745, -0.07712511623595886, 0.12412217307603332, -0.6088015451121458, 0.31044047144010184, -0.11599934844169826, 0.03221200357658158, 0.018225766288587516, 0.22647378369868432, -0.41845624780617424, 0.16760519181306144, -0.21804484879106303, 0.10778447114699556, 0.02315202118028663, 0.42386724768488065, -0.41533814142154607, 0.3439205438451573, 0.19183863051026562, 0.3176375838374289, 0.3140036291527102, -0.061624381079942836, 0.024802776413115752, -0.27594045218766805, -0.1555003478157092, 0.27360608247120527, -0.2074524512313826, 0.023500951364657897, -0.7014667824213279, -0.05532016133305224, -0.30105005806399987, -0.038519352585160566, 0.1717538996642604, 0.014722158436116866, -0.17510281546645223, -0.15810119611155055, -0.07061352905452672, -0.2210030974294819, 0.043861718825467425, 0.16026608610679527, 0.06548425490199485, -1.0859065264729149, -0.005033197365046025, -0.0633239990093165, -0.024761513164211577, -0.005832862991862363, -0.30730498235709386, 0.04894183105503305, -0.013986712442612998, 0.32279818125986703, -0.44872179106194054, 0.2577340627183508, 0.47151082904214703, -0.5844129688819931, -0.12334935830571467, 0.11894158105518718, -0.24610768449146647, 0.07388911573333314, -0.12852474515211543, -0.1047462530373938, -0.15859711423061143, 0.27086813816502264, -0.26133371164081437, -0.04123657150802815, 1.09952738583094, -0.4594922595927072, 0.06446837758618067, 0.1336704451902107, -0.04906107038131001, 0.057899858654109175, -0.22452325933225006, 0.14623139415386846, -0.2930072637398921, 0.07643503293393589, -0.4099210126135184, -0.05393444410127749, 0.0017130041320855315, -1.1669867282521211], [0.10014918953186068, 0.03139924500173494, 0.10228530723382183, 0.08300927601568765, 0.12990503734926243, 0.024444871173874883, 0.19829369493118157, -0.20389845701671794, -0.1572399912853846, 0.0007145750680708983, 0.023656469438858137, 0.06010200677630293, 0.29217273332943816, 0.08800911000963146, -0.04803270773969396, 0.11326161505033813, -0.019413359934194917, 0.01609126406193394, 0.22745299573493524, -0.24372546230183284, -0.012560553786266679, 0.3764488944143478, -0.03651928840558081, 0.1378962907576213, 0.3085695986496062, 0.2930047783758122, -0.21197956433327914, 0.23863800449564654, 0.06584197851938446, 0.40528472757195405, 0.6513020750930323, -0.38011633860149474, -0.5842059535988213, 0.38995378889049975, -0.16817193605579334, -0.47022221201188186, -0.5069398081463007, -0.5773251544852099, -0.3023602387775705, 0.05476669164115515, -0.28292175820302395, -0.5933917605137368, 0.36309742976097764, 0.30048379002374925, 0.5083748873354405, 0.28265446284508655, -0.6180560463392422, -0.8487057670953131, 0.009316705053487024, -0.1246366239521969, -0.047437855755592805, 0.11378064694567434, -0.5542568749092583, 0.16355079192663527, 0.4809791847034435, -0.30952526068709907, -0.05555185697026097, 0.4725776789158437, 0.3912193474815943, 0.24232855058924874, 0.052113346669020025, -0.06876185626978346, -0.2056147667174239, 0.08434326390743757, 0.34516391665302176, 0.03614446091848419, 0.14917975119929405, -0.136318562777996, 0.24376603958470208, 0.04224668331141041, 0.09627174366325322, 0.12209991489002445, -0.10388948323778628, -0.12226617632862011, -0.0009004681344127716, -0.1723232296126244, 0.2758241025303876, 0.1373837307606566, -0.046306433525100645, -0.26281015414149694, 0.0025799650141990903, -0.034633887151090906, 0.11234714474720889, 0.08616118866291889], [-0.06726017598788295, 0.2696640542141453, 0.20395004163526356, -0.08239254864176664, -0.054188111639302684, 0.2212578582518675, -0.37705503702251875, -0.19201112646290774, -0.047675268214572554, -0.11666660236511005, -0.06272039282126934, 0.34042176681209235, 0.14290311072789327, 0.05373719890324837, -0.128315785789577, 0.013160879188484884, 0.22749984193422057, -0.3017732717262168, -0.2274454764721149, -0.013782126830411186, -0.287287495575163, -0.4592418766273387, 0.6419199284122588, 0.3579018405942583, -0.16940797274843125, -0.2562353734284878, -0.26655886609900953, -0.038806871249439254, -0.022674094478238364, 0.19822943417132075, -0.38357948731936914, -0.27885284617887324, 0.2289172132523898, -0.00339945056146468, 0.3791658706542595, -0.24019970498144527, -0.08212237640673549, 0.1610873573963641, -0.12417207988844216, 0.15254079346899235, -0.5093289202201355, -0.036161874400800646, -0.10257821927207948, 0.031854623921690084, -0.21078742801576317, 0.0022939984054626238, 0.06365451135780444, 0.5657923365425436, 0.17318022512321202, -0.11971228853848864, -0.4304474438536306, -0.10564777452720758, -0.14493429416065318, -0.2812146910718128, 0.4782566818804842, -0.4547993174247, 0.08329079260997997, -0.9907111250787327, -0.10137813124692092, -0.579481662304349, -0.05736234151653511, 0.3527015100525703, 0.08317785736262287, 0.20653872936442305, -0.07070733163843587, 0.15918608134350196, -0.29153526943835395, -0.10116511320467032, -0.4771190305270744, 0.1443369834982818, -0.2990879457564755, 0.06253524903297314, 0.22697417062568337, 0.11280902527458314, -0.2848738113390553, -0.0840797357388535, 0.00047702356714811653, 0.17560706262658793, -0.18122228987324907, 0.2795122555654514, -0.3519113276388104, 0.2372918302626345, -0.5444611337201901, 0.003578330675748384], [0.12528342982429658, -0.1040531022536795, 0.007577084287489468, -0.306643130065238, 0.3466334319531774, 0.0631015575532406, 0.10454919655244174, 0.0661315269733727, 0.2222274804903829, 0.019916428373386558, 0.453707735698907, -0.08226812846298276, -0.0009407681836413725, -0.19593651600816323, 0.15591304152462104, 0.05151339268429534, 0.20306407807873972, -0.12138786411902562, -0.20345278123272895, 0.1727721656275461, 0.44792611242196306, -0.296610598944363, 0.17457318156330903, -0.5945839976421251, 0.26928357716070384, -0.28107215969131044, 0.6496824626906467, -0.3050431996247412, 0.071773742268506, 0.22941539120688645, 0.09895192726095153, -0.0485432777842363, 0.15892943217576633, -1.0211384788768574, 0.11743326226390795, -0.21069917085606127, -0.2535024278288927, -0.4285476028412053, -0.015364054338501621, -0.12108480961731637, 0.15302023063913997, -0.4340894695613117, 0.016700226646118182, 0.6183747805489227, 0.30466033618035426, -0.6124815416528129, 0.3817360100807442, -0.31317422589129984, 0.19307113661158562, -0.3651366774824587, 0.4294464211378429, -0.1425168559665918, 1.0655332682259415, -0.232692312911757, 0.15172692919087133, -0.022413162679772714, -0.4360003445631797, -0.8905441805660989, 0.7265213428681858, 0.0028746982150523515, 0.20670736738237008, -0.12274566153510162, 0.3685408251678358, -0.09266553016779508, 0.3177361823110171, 0.05150389182882819, 0.13748588617734706, -0.17820265741354788, 0.2401303734054399, -0.2667686560302797, 0.04733193896092138, -0.1433613024712273, 0.2146091892482038, 0.13472677660405846, 0.3826799944493553, -0.15739436267831758, 0.6176662075499884, -0.23377890570006754, 0.1852517110287116, -0.4464363246273697, 0.23987911170883972, -0.390771381559927, 0.24492184729397315, -0.39443772042291936], [-0.10467189968177593, -0.08291793831319753, 0.10953150501985817, -0.21715962336917946, 0.4208980742594324, -0.1945084225404333, 0.11110712008304426, -0.2602718323496593, -0.022410862753497268, 0.3221929637236023, 0.15796253805682103, -0.1099680538000731, 0.19705291264620795, -0.2334241825532926, 0.07192108430351103, -0.2206878689119543, 0.3111943015124233, -0.11730293574341358, 0.314308808445877, -0.058382612192584386, -1.1318346898795186, 0.4019479053780407, 0.3598331133938494, -0.14544887315939706, 0.09534075485944007, 0.20178534701024395, -0.07957752377511432, -0.04550979736891649, 0.17457392105689312, -0.03365493069931701, 0.07605427756282915, -0.3038694045135843, -1.6246947845296076, 0.4185535497775023, 1.022126249467165, 0.7202376173831219, 0.09640461779655812, -0.01125343511929676, 0.24416178181699924, -0.2690837195667102, -0.05693355596027279, -0.22775122349656646, 0.18218113452436369, -0.281457213592153, -1.2646498290343444, 0.4475460812729552, 0.6298144167735364, 0.03670508907112859, 0.2132591254773668, 0.03672978690593434, 0.06355451514646587, 0.10515113796210919, 0.07509231150126056, -0.29495459368735616, 0.15002873106485654, 0.046061836244637666, -0.5133859616319812, 0.017364198587111787, 0.18627388216794674, -0.23973166442340083, 0.05536801247361383, -0.043352655722638606, 0.20004784797442032, -0.09717212445665648, 0.08219463724181446, -0.268286803335397, 0.07975855166582088, -0.17753722017136842, -0.22243162771781136, -0.12637546442345107, -0.17497423515538224, -0.45119595491886855, 0.25700892271556103, -0.061700163550261006, 0.33055522659561004, -0.1467096998752671, 0.19644915451493336, -0.20513495941676016, -0.2378803362533618, -0.3457657069159, 0.2746961745136009, -0.030888846194845332, 0.009657591338658025, -0.24481558522696503], [-0.14866582955340632, -0.1876104435933096, -0.2501707027155534, 0.05389913868333721, 0.05936813408205051, -0.11074639799376915, 0.17726666106206393, 0.17138621446028135, -0.1690310450590086, -0.08130790783902805, 0.2333442893341292, 0.12592369316351043, 0.04754734637704677, 0.018303380843200615, 0.2594057755028559, -0.07207411903846432, 0.2965127536698033, -0.1988140027959395, 0.5268104727989281, 0.1869406013984967, -0.19739974886317774, -0.17536288647054543, -0.13933058525158112, 0.17266222429018666, -0.018695660815267044, -0.07932537387907045, 0.2338579352800759, -0.2653189601542315, -0.33383922646987063, -0.29430234655754334, -0.2339344644963694, -0.17940580459153466, 0.002403030825801928, 0.5461270097171449, -0.3737286643598184, -0.25957711021019403, 0.3078890309506048, 0.19276989106098216, -0.027561778353310574, 0.03763125808725362, -0.09857847003296678, 0.21498541719354475, 0.20019529248305365, 0.07572027660065042, 0.09835090970981127, -0.08961915560055239, -0.062396881034187494, 0.0062456770367163555, 0.31914752188555173, 0.2568246364226854, 0.02437620491017958, -0.043699548497032704, 0.4597145629255942, -0.0128414532435414, -0.484838851663478, -0.32797999775989384, -0.5908007910454057, 0.2561066550681266, 0.6738007002811577, 0.11010021395422286, -0.2433584126434619, 0.21484879836229337, -0.22611071520548345, 0.1470868235503061, -0.11796966834069016, -0.31442050182725445, -0.32545535056101366, -0.2561645379051135, -0.3466064889587264, -0.5024350267348794, -0.3630923942408466, -0.7950028879643636, 0.31909949934829507, -0.09105188058716371, 0.15059018324658888, 0.00656689144415498, -0.1401379040989611, 0.25503052707563273, 0.08520102312637517, 0.008005107901210996, -0.06582212114821845, -0.2089091832966933, 0.2944189545720264, 0.4438745536862102], [0.11228773078396209, 0.19094204400317136, 0.2122368142810438, -0.0486115005788301, 0.11342861859818355, -0.27615604325520937, -0.17634129460756695, -0.12858345885889394, -0.05836867610952922, -0.2585663839942283, -0.1417650139721941, -0.5908096428069478, -0.10895145277379856, -0.04593519720935552, -0.1386851493836046, -0.17059191006171998, -0.08567757402344407, 0.0809172356585355, 0.1378591316676528, -0.19989688009997994, -0.3240210524617015, -0.4491142672611172, 0.3186439935666492, -0.18153927318514942, 0.14364433958902809, 0.10527413481115447, -0.07188678322085897, -0.20711451031306982, 0.17779349693752297, -0.13621933387977225, 0.10170748610071446, -0.20939648999349533, -0.5331193167198184, -0.26003428451315025, 0.09250291944409621, -0.4847029846110443, 0.0700917764996933, -0.2717919199185592, -0.00010208629048256545, -0.28114920677438554, -0.1225503392984645, -0.34526292359244143, -0.23786859958214324, -0.515789317887146, -0.07590184495325301, -1.5368979011101822, -0.7083181884106348, 0.6654385537609238, -0.1405591746201207, -0.1040109801127897, -0.09041338544851225, -0.00975160000741949, -0.27134505320233093, -0.009275724741841346, 0.32587292749530106, -0.28642600434431476, -0.7805860224770743, 0.09541823941482629, -0.17734653391860036, -0.49869805264508, -0.13005328268304692, -0.4121152346445752, 0.007360950729298533, -0.014846827509008726, 0.01608706217543675, -0.08336087018921642, 0.3929533447612585, -0.3316874950531057, -0.8232597987007629, -0.039545409919531836, 0.18065366179973869, -0.13015476538217374, 0.11990811883432378, -0.10879199515861869, -0.16499025191681974, -0.11145395277177046, 0.2060350117815819, -0.49829229116064616, -0.05263776616091635, -0.2530650040298088, 0.04789780671018978, -0.28858241577156085, 0.15806771774535724, -0.41665481443714997], [0.1852400697285891, 0.01851288102238278, 0.037218449418147496, -0.286383632731674, 0.13280842494668668, -0.10836312291903406, 0.2790556588964866, -0.10423551797306076, 0.17245895054238058, -0.15197686993626525, 0.08038327606848919, -0.2735747735551039, -0.06803290140279368, -0.05803910295848248, 0.018824607268315724, -0.2471265662879767, 0.21454344953579768, 0.015248631236360975, 0.0018967066761832196, 0.016563453764143317, 0.08319356641830766, -0.2268360075739249, 0.19777874941156307, -0.13172539524265503, 0.3529590501725638, -0.1258830239359106, 0.08757494836246386, -0.4375730558851716, 0.12865184051959083, -0.2527314238144095, 0.08228239965260217, -0.28514763477200106, 0.17707832595672238, -0.22790057536234196, 0.3099557776271891, -0.4379801063269571, -0.10949664827563957, -0.07723413216010581, 0.11945888554320064, -0.21452152724327433, 0.00012405039566714532, -0.3295789149439884, -0.06533905178179665, -0.48846381326693616, 0.267319993150958, -0.526843868435892, 0.4212596620475488, -0.4336579629277997, 0.08033227986652901, 0.0437290303233224, 0.1781646629774072, -0.20908488962974212, 0.2658961627464443, -0.38595406382420666, 0.4324749437279874, -0.41422141031100784, 0.23010197655365977, -0.3961479665279127, -0.01848998918613481, -0.8357546306371416, -0.2502475835379134, -0.29323670630261633, -0.6766008533971191, 0.7758711847065309, -1.1074967841678711, 0.9709296470760731, -0.7589791927512745, 1.374295857376888, -0.6086543056112145, 0.5754749573315822, -0.6398873965618772, -0.6004706247031508, 0.0768927121701639, -0.28701520929945834, 0.3011632086810929, -0.22004764708090815, 0.13022340626275725, -0.38222594020558276, -0.019751585170828305, -0.3540492943703268, 0.09521708810021043, -0.40515401876764057, 0.0779353937093772, -0.4772620266181569], [0.22049135277277113, -0.1892745736961276, 0.2523222428670487, -0.32234633217563585, 0.305438928027427, -0.2610648591415845, 0.30917529136616095, -0.2740944107096076, 0.3684243362890115, -0.2673016110372591, 0.24356025019189248, -0.4104367750584074, 0.27308738713055924, -0.4520472602447025, 0.3527789640278873, -0.21102608013167332, 0.30943481330606853, -0.4274671218597683, 0.40435359824529554, -0.3867717547904401, 0.220125328637853, -0.3307003732215905, 0.43738598519660343, -0.3170225347107964, 0.3395471236719763, -0.2229747778466309, 0.22589640250407844, -0.3236640458703957, 0.24225324924342828, -0.5571443813418772, 0.44035050626444106, -0.5103351467685153, 0.4036048659097621, -0.43735613020986186, 0.09954440685922925, -0.5445843361824146, 0.2685604865732443, -0.3064945682739098, 0.5507817189678093, -0.32649790100369597, 0.22527086793726914, -0.4534475256330933, 0.2911817660445826, -0.601020186259483, 0.23473019499433337, -0.41130893353789333, 0.03704633340832795, -0.4894045327037609, -0.8498199014014713, -0.3139291372175242, -0.9954435458450728, 1.1004565610549866, -1.778342236758983, 0.9766759711849624, -1.3723551980514443, 1.5506617076024647, -1.014499348128093, 0.2796419490954059, -0.5795950145890495, -0.07522839840640959, 0.1799901713211338, -0.12641163459731, 0.29776629025596635, -0.21770314660710682, 0.07687882862096761, -0.4438202878453077, 0.3249391711592579, -0.4784105032386102, 0.4335626279050833, -0.5484157777226322, 0.07984323690844806, -0.3963919909465711, 0.2887748506947946, -0.47423139143385123, 0.34071891206432153, -0.3359270018485159, 0.17991648816981748, -0.29965722293244595, 0.3807516205842179, -0.3709428539789617, 0.46435675668992726, -0.368027435369523, 0.2074968156287665, -0.4667119836011935], [0.14861957044585528, 0.13588542243036383, 0.02756582413119662, 0.02992424559311043, -0.0040721061858672416, -0.29498624796490824, -0.004712230899285535, -0.18280632811866832, -0.4412253282030192, 0.06371710755572377, 0.2371580323305857, -0.08217517787589321, -0.05914603111491838, 0.002097594679457072, 0.29099096631448335, 0.02271993448432164, -0.17839360345278757, 0.19591643396501127, 0.056170817760567385, -0.5644837221328523, -0.22684657674443712, 0.3293915463875964, -0.02284133325637496, -0.3430123894416935, -0.04807055317609649, -0.14546545480688727, 0.2669656907800209, 0.13673816858963894, -0.282262918680504, -0.16236735898542143, -0.18119324760858568, 0.07114082243450694, -0.9423630014035886, -0.04645369673824761, 0.09417257264084336, -0.11376461757926329, 0.347091199782758, -0.16485544351179035, -0.03583476757725499, 0.1219214816716552, 0.08097260016472939, -0.2994770358303382, -0.4183106026142558, -0.028640387269884597, 0.8344334945986784, -1.3587046585676223, 0.568424055547629, 0.552883180607303, 0.4208439344662641, 0.36917896038638076, 0.018937905824152577, -0.232911133967753, 0.29442092601907477, -0.22560944292492405, 0.35633733956181846, -0.1340311550204456, -0.8347421835437175, 0.5755462236531815, -0.23696166651592018, -0.13176356047143686, -0.057880763501868916, 0.17126554191578383, 0.09246082747920681, -0.3545840028890811, -0.10518783402151592, -0.2235667534177214, 0.11272040734212269, -0.030940638745849843, -0.3491180662980335, 0.03998372064621058, 0.44195233088822444, -0.02149496910872243, 0.056331481946546046, -0.16403959716063954, 0.06980825168816865, 0.015851680407625572, -0.2621327875772166, -0.14724764229799683, 0.11619889713114541, -0.25167783857346515, -0.060492882521884, 0.1616859825773589, 0.12722531387662075, -0.15361937558913089], [-0.024839986074592688, 0.033903434166382064, -0.19957886962750931, 0.1971855064403984, 0.0020180345819238747, 0.09530783029057321, -0.4026052913755616, 0.2462319264626051, -0.1384058857924294, 0.26200588471192643, -0.35528080320349775, 0.05508919403205531, -0.31518761755290725, 0.13368858775746215, -0.21081032282579232, 0.20802308015373777, -0.09858447636744173, 0.06592716551586879, -0.23608937045117448, 0.23658226931096873, -0.24707954226126772, 0.17201612656386428, -0.43825442098246264, 0.254857215662081, -0.3772966795611971, 0.025742562849852383, -0.3902514491524299, 0.13839113757620117, -0.3868680357189416, 0.16447180083348203, -0.6921090948134299, 0.04673340379270244, -0.03365439258097416, 0.6689066266171113, -0.292840468667319, 0.20925645592188857, 0.3190151372509718, 0.4438639424995535, 0.43881741179359834, -0.2704522651644849, 0.26478857395694866, 0.1648944015482293, -1.6826244224950087, 1.4995549935678925, 1.1033648371585996, 0.359048302219797, -0.25564893338044953, -0.06410604868381657, -0.38652508193771407, 0.014303480239191861, -0.2285138697381527, 0.14228832485547288, -0.36378681738195234, 0.07617884372470585, -0.33122388675573017, 0.2997153301191707, -0.1413410184684646, 0.3482121721138487, -0.3836277245608189, 0.07851437030591106, -0.3127353087764829, 0.21856481410195172, -0.23286808423179964, 0.2450365875941642, -0.017588299541464167, 0.012706097367080452, -0.053500927426073014, 0.4397462058724894, -0.2639223923095981, 0.1526042450448304, -0.11896067299921925, 0.3258410116248844, -0.1813525141210349, 0.14591323439661977, -0.029929612570931036, 0.20287140334765894, -0.2067406192884345, 0.014560670183155636, -0.22474452229831487, 0.10509260276611425, -0.20043214016480349, 0.24984570546494714, -0.3342233211692465, 0.26223303435734224], [-0.15978669286242878, 0.24756652571690385, 0.09057797032494842, -0.2565071682567108, 0.01867730013878888, 0.25376134181879395, 0.0513766886503509, 0.13630135505136154, -0.14145081961068212, -0.12215409686528501, -0.05711665813498012, 0.014652441061187628, -0.0424426030025942, 0.15282178988423278, -0.018561519755918333, 0.22085377070052037, 0.0812177333877979, 0.03481965139183261, -0.26874139185923457, 0.028369241621138724, -0.29515707272471176, -0.04553513668711471, -0.5009021398272895, 0.4672903741738244, -0.24435570832341533, 0.19481016245819627, -0.508479255690881, 0.02119171300672041, -0.44521060380328537, -0.14608414114898105, 0.04186292479556325, -0.07811410293200187, -0.19332885349695994, 0.05402722752394712, -0.8277123181470003, 0.37818893502719625, -0.05611695547005261, -0.14083843902763168, 0.02739147816615494, 0.13564877913041962, -0.24709604806228652, 0.479083097064115, -0.2991535998781932, 0.19210044967777226, -0.24805145552450655, 0.13828507487238043, 0.2121065868942256, 0.2765362821275039, 0.12363341597533437, 0.26077084353991703, -0.14822364001534455, 0.10384143712311837, 0.04466102525468697, 0.1454858353793925, -0.144564352781652, 0.1890555320117936, 0.04682070137876816, -0.15137505452709538, 0.23224300311060977, -0.4409780980051704, -0.31011983580635555, -0.1570640601683662, -0.05415120303073205, 0.0464782620558589, -0.02408718668890969, 0.16790507479483557, -0.038057825220232565, 0.1716025908222193, -0.19950421113806777, 0.2818822488559874, 0.48416108564613713, -0.3895048162185897, -0.4199538291192609, -0.04948833562979827, -0.20506315420740517, 0.3069796183426528, -0.6185237894656278, -0.19149367468483458, 0.18216734068732446, 0.11358310901310519, -0.01512604850626212, -0.09969056752709393, 0.3423230846139552, -1.116154388050787], [-0.001261674024613885, 0.09621272888182107, -0.23304619984326447, 0.23020199584385242, -0.3168492067211862, 0.3885664629307985, -0.08928803462760528, -0.043955507120575096, -0.3862994476176974, -0.008076496446833666, 0.6860926882551933, 0.3139405751125625, 0.02260784330797135, 0.009822886397070572, 0.27638958215511733, -0.0026534486087183813, 0.0915550588704156, 0.0538832953407994, -0.12058878821015567, -0.17896392756964727, -0.6632939686663978, 0.5032543957933509, 0.44669928175662216, 0.1810880241453817, -0.010250865306949342, -0.1686598444598904, 0.16189484095275788, -0.16213300732600847, -0.08280762483033248, 0.013763702409411892, -0.21861379073691778, 0.05810571254990735, -0.3686557260855621, -0.5224975658552186, 0.055018506310719424, 0.13520152604475563, -0.3390902016285204, 0.08114321403882672, 0.08008096174079012, -0.0018085006582901299, 0.22951214364586264, -0.4267369938835858, -0.08597124931663516, -0.19186135831392873, -0.3650570937088269, 0.041454224737963744, -0.8390554713283084, -0.6498788959631558, 0.04230175933412927, -0.0345607616177764, -0.06743874890365512, 0.04519576200741614, 0.04830584523884876, -0.08211788780566522, -0.053688768832082456, -0.14409663926026778, 0.4495546849499748, 0.3099250413221645, 0.0868599251215427, 0.05497677639770539, 0.08916873877510374, 0.10861722928811149, -0.20392976447775538, -0.06588353940816508, -0.0891687062563089, 0.23318427064308128, 0.19194584244084062, -0.14584661612372427, 0.5149081627978133, -0.2769639759085251, 0.012126855926673348, 0.01779062475030716, -0.3250228683324517, 0.11222350071888809, 0.17371727920490584, 0.02218737648314543, -0.27994274170506267, -0.23860969683424993, 0.11780316863024143, 0.12016514029025505, 0.02840173591411686, -0.09125500844355229, 0.5033324126842514, -0.04591562282548818], [-0.1117113447442054, 0.0409812999021403, 0.0620057881778089, 0.03142891154241207, -0.00604759248829758, 0.18048990205674043, 0.1710194341076504, 0.06664480562233802, -0.0014797699804372012, -0.019122896529999538, 0.30217189998132704, 0.05483682328677046, 0.24851236651825984, -0.02257860106303468, 0.007935335423417856, -0.1618278786768291, 0.25371229808468515, -0.3101618506972478, 0.2535025297042057, 0.05715909800546832, 0.2639096864849765, -0.08526728160422088, -0.09519257877827071, -0.09251882352527659, -0.19877563293593187, 0.24866829638261584, -0.21740449153323088, 0.004027124816776583, -0.333020206761633, 0.20819302040190135, -0.2779490535255015, 0.02563116772594999, 0.06807920826511739, 0.4118798531794906, 1.1085032011849603, 1.3016109816009556, -0.22414801248781363, -0.32261500067028476, -0.4018293123922961, -0.21225502842296684, 0.09998055841447623, -0.4254724892468588, 0.05707791534842935, 0.13276911818609624, 0.3717549411432498, -0.06109628548179569, 0.8434162424991077, 0.5339226030715153, -0.15212612962035504, 0.17787290742177317, -0.12453036300917453, -0.01508917935731483, -0.3144805818592289, 0.18401728950637627, 0.28377841168159695, 0.18610955514623906, -0.2730189092498062, -0.012402174444678008, -0.2529146071443967, -0.16260007887227157, 0.3434633879235423, 0.24370099982353627, 0.10492966222754535, -0.28392401203785905, 0.29830602765906167, 0.2286524153942225, -0.2471757049394519, -0.38863916524363024, 0.14893652201786822, 0.12192480317845736, 0.0362979431410333, 0.15174645925686273, 0.20343267301012616, 0.1402727938405459, -0.2250370381009539, -0.12307417957523867, 0.14570265314167644, -0.16291241439444196, -0.22082092933462305, -0.2721205677406862, -0.04198422794138876, -0.08963127898708428, -0.2608099300013811, -0.36136620676922004], [-0.06000013365651834, 0.4571860902309534, 0.022437134347780444, 0.06665692910788705, -0.18300203704776785, 0.25599593330945464, -0.24177699906952727, -0.12281509877906054, -0.15560156153004115, -0.06154520124923896, -0.018832402239167254, 0.22054430127757207, -0.18347101549867126, -0.22368435172516524, 0.42033683229583274, -0.8481530065674695, 0.3955483784287741, -1.163769183047563, 0.7255913894336458, -0.5757052250966682, 0.006923164330241591, -1.3160362274018915, -0.2382285006069313, -0.49150718797793674, -0.14499213229235125, 0.2549112715270732, -0.19848579518894902, 0.1800736572805403, -0.1960946815416571, 0.40764941989623343, -0.06871878574869966, -0.030412593242116655, 0.12064091901170002, 0.3731826581159338, -0.608890813883718, 0.12908504956210165, 0.029175565076444157, 0.4588520553847939, -0.6355803356821395, 0.222968414481329, -0.35015130963192864, 0.16875432137011911, -0.2564108565443612, 0.182629482350882, -0.8489594364687545, 0.2660018053811814, -0.506132233853294, 0.24331123049845918, 0.08107432184606773, -0.003944690891046405, -0.22391500011688217, 0.20254342916669454, -0.32124675178829243, 0.03951712548786667, -0.4674293344888366, 0.008252592218497399, -0.07142787112449198, 0.8274375469002131, 0.004902625153890145, 0.46462720585392236, -0.45461852470606795, 0.4457189672614028, -0.22184649096374362, 0.4063304242438578, 0.03512465457093852, 0.5129566003872039, -0.38940751286563363, 0.13091798169340202, -0.12571360995068076, 0.375500323159371, -0.2482932297575039, 0.14681085601047586, -0.15587934133451034, 0.06582732009947698, -0.23076900467243122, 0.14759012238689603, -0.28976816582057807, 0.23968941765460083, -0.21872029985035357, 0.1368377160020118, -0.11189182837684611, 0.16639651295323687, -0.015430155085888991, 0.503723653015068], [-0.19248752784227463, -0.32723434865387185, -0.27220215022426986, -0.15915241610499947, -0.495921555787211, 0.2114977347139202, -0.3627228271668083, 0.16951105867627042, -0.5195423622358014, 0.16989867697830333, 0.5024306095303559, 0.10070683133665027, 0.008269333711515081, -0.13752088098005877, 0.08817862249579518, 0.10664040998175643, -0.05623541471780489, -0.10513214074912057, -0.004396947105526005, 0.11180433320415177, -0.2210594548753432, 0.11625748384543161, 0.8493891484675136, -0.4208470748292467, 0.0845610181057114, -0.2039825458299028, 0.0013784629878506878, -0.189529611699033, 0.21400541018006178, -0.4951853674522601, 0.33296410555896133, -0.36482746847387465, -0.41459171418112634, 0.1252628235508378, 0.6923052812086576, -0.382117491672443, 0.15525755683990428, 0.14049808488269458, 0.2273388086347688, -0.17963738686607525, 0.23227387943134453, -0.26666514927526147, 0.20948942395453993, -0.39341601994819714, 0.03120309463126061, -0.06407520822678778, 0.6230784991868127, -0.28965345587213714, 0.19591095533027783, -0.14701957103151697, 0.30736072828530014, -0.1956207554795729, 0.27678738895173066, -0.218658700149428, 0.24903278560524172, -0.09859614167854629, 0.31238296234517415, -0.4659137655629802, 0.17322960571469384, -0.5560089453677645, 0.11595275478513543, 0.007119502420118803, -0.11461561735295071, -0.26440731231383974, 0.16464137150475866, -0.4119139861895899, 0.06880929535174324, -0.19689553870117021, 0.12734466028015673, -0.3584194411551114, -0.08752293745094165, -0.6052003035410031, 0.09830681275198777, -0.19653059295420316, 0.2929314430267725, -0.0830331498208904, 0.20202088077831065, -0.12555061032403897, 0.04018254971189408, -0.2845184070401646, 0.2081118998835874, -0.11396025980372877, 0.007434817491110399, -0.14122770115425337], [0.2269731367658403, -0.18660076299856984, 0.13119598845692118, -0.2783173701958093, 0.4769755909806647, -0.2197037993078702, 0.22522198738716684, -0.23121775654515328, 0.161108325001301, -0.09760906792497061, 0.21186552269658754, 0.18793784772790556, 0.34049550852876015, 0.09753556747520845, 0.17040881343325562, -0.3178022180803628, 0.33814396495194315, 0.05846274714197924, 0.0895997275303669, -0.1379166516049627, 0.20357014011122848, -0.13194300655799374, 0.2060473810774267, 0.3144227827605486, -0.41853385652006075, -0.14379858772321272, -0.2946889927358711, -0.23470238112724753, -0.12765888552805002, -0.8194966756926723, 0.02282693835975985, -0.5989116179131013, 0.49077465988526126, -0.1257023030262355, 1.4328340732748495, 1.0272605438960043, 0.010886243251348961, -0.10196580470735737, 0.21199093804696392, -0.20306900871959568, 0.056827669866680294, -0.06324150368341985, 0.5756216900343736, -0.20842283277564982, 0.3767938323650894, -0.3762512234966762, -0.6986964141048462, -0.27768262081353173, 0.2750920640357365, 0.25039569530502936, 0.02205588551571893, 0.026390753458141774, 0.11589308121158137, -0.1332521175891809, 0.09369493766906686, -0.20847011968410326, 0.45929044705571326, -0.08058029743421438, 0.060118338037864025, 0.12944689367336454, 0.14992902926653323, -0.37540625355919266, -0.04724921920301492, -0.1908264220851106, 0.4019467014834265, -0.36833980940575917, 0.22310927928082697, -0.2851634476227811, 0.2840540954532661, 0.017010372011832187, 0.19821997532784028, 0.016582821768259592, 0.08591404779314901, -0.05901653242203046, 0.4440255671881861, -0.003689817155759065, 0.2914539799917453, -0.04265728850698204, -0.05769504791623154, -0.3666886310899834, 0.16499220507445617, -0.09671716608882133, 0.07719243086005621, -0.5537493556399538], [-0.11337128335719068, -0.20647930005812756, -0.007168317758262853, 0.10876592492972344, -0.0021266186460436125, -0.20148793321233152, 0.042347912172236796, 0.04045229566111179, -0.16036761010488598, -0.3262108557491988, 0.4425583946436376, 0.18753739460771066, 0.48920781141929304, -0.11121211490184374, 0.6351161039767719, -0.04209440771457857, 0.2218749235395051, 0.30489258138749376, 0.13138515551404892, -0.22368672412462182, 0.7016070121654691, 0.20785273784579214, -0.5690348689857685, -0.35191966290533344, 0.05870493853358194, 0.17081898742385684, 0.14062357918911716, -0.06481627276576296, 0.181456351832014, 0.08810357201314765, 0.09473948638124291, -0.09819562147368832, -0.49399535087454854, -0.5519832794180828, 0.3119480362407, 0.366125841184247, 0.39903195743186615, 0.2804278604474552, 0.14931489746180332, 0.027395597912907396, 0.028387553880866702, -0.14347859763433313, -0.15170174509276116, 0.08596261095549684, 0.8154326362491346, 1.1377011330081517, 0.3206917555226564, 0.08562112416759328, -0.04307780382275633, -0.08194825862102187, -0.054603970746426304, -0.07589437395330666, 0.10452146225931809, 0.09944948909323577, 0.40585411750747696, 0.46180783629544253, 0.3634413738739617, 0.47559799699502203, -0.8194463987078008, -0.7622979937679145, -0.20457277070103635, -0.24370147417788515, 0.0813980056197009, -0.2889591056763517, -0.09483020227982036, 0.04436856554971092, 0.2974120517124311, -0.19155519490869582, 0.1108037437053669, -0.12467731261552639, 0.20657263741550616, 0.22648616091447699, 0.2883245939509206, 0.08950290248418744, -0.006180521321394368, -0.16771583168346388, 0.34614656443703656, 0.013489970031677567, 0.01863717727315519, -0.2030334510662057, -0.023126987013698044, 0.03542128404797186, -0.05686962871028711, -0.2422765972144131], [0.17610239042880382, 0.07557650975669931, 0.22757495803624048, -0.17810136474067217, 0.21931900440654228, -0.2946802013755988, 0.1331543107733543, -0.29876733172675674, 0.028754862826925055, -0.22405078828267797, 0.12224250952810913, 0.00039028235130553885, 0.12421321367650101, 0.01294170623114892, 0.06352640566060651, 0.0044013171932263334, 0.2900038545560218, -0.39712665501637306, 0.11618853287876756, -0.2680730303287046, 0.1911512927453906, -0.20263096769014657, 0.07681565556669477, -0.2673406791521766, -0.09449654522204672, -0.1807661892125569, 0.163944797303166, -0.2884654577915039, -0.006261845276649247, -0.12623641941753747, 0.20319510660021675, -0.2932501608011208, 0.7780732798164569, -0.1880289176889352, -0.019993329687322252, -0.1776409055382755, -0.023973888117615832, -0.18635698843590037, 0.3211880878989059, -0.1562153965874992, 0.2432289431177817, 0.14574510042576397, -0.2743390857652567, -0.10504829599580157, 0.5664728699127903, -0.047311548192862506, -0.19167566983236203, 0.06495194610135231, 0.15828796362717104, 0.17326983843532046, 0.06310050269133588, 0.2777328535609114, 0.8157173287853332, -0.4262320694697883, 0.4923052811125652, 0.2041524738265594, -0.28464708247312676, 0.8475131472247657, -0.5183632621359962, -1.2768611638174803, -0.066896908304047, -0.08473010040743877, -0.12056653985056022, -0.3099531508668301, 0.1776502480017487, -0.1977929032216574, -0.12736119552683298, 0.353972126178203, 0.26152460001693806, -0.28849031066285724, 0.12723403737420605, 0.398797089253377, 0.2335198113156795, -0.07211003088530872, 0.024098803959325694, -0.2464321292687138, -0.3587755363066893, -0.2693674773989041, 0.4800045189620462, 0.15182917600245627, 0.10046136467625076, -0.26307758097121087, 0.25209818367809744, 0.20782622810716875], [-0.4112807622279194, 0.010920345842290595, -0.19002654759516335, 0.4862221034721203, -0.4734980393837565, 0.33742480643663786, -0.1776141117200171, 0.22977530682077077, -0.3139568274710995, 0.16331726650837122, 0.0820951254340938, 0.3349390605384539, -0.15865875849022765, 0.31697404952530206, -0.3684379136967332, 0.18879945040365118, -0.8017342820996636, 0.12884839084212404, -0.2788630186572643, -0.15303739963745375, -0.43397156401410286, 0.30864878034352705, -0.2810302402794914, 0.060862772674014874, -0.1031347229923592, 0.18197752721401134, -0.06200829865231972, -0.025951554623501186, -0.021952552839080042, 0.359277480361862, 0.03838029341072295, 0.1820689979558654, 0.10777262152632339, -0.07800661131431613, -0.0754693579615467, 0.09763243523141821, -0.3422257168494143, 0.05820770542746153, -0.2286274591435467, 0.22389536131382345, 0.1129260070299755, 0.01931349699020593, 0.006216360412555477, 0.29305603890591847, -0.015957375590682363, 0.37692271285504714, -0.018206799395831953, 0.3202153300778507, 0.03037357524292216, 0.5386711266573482, -0.21851291965032743, 0.36486780005141745, 0.11612593979408256, 0.6476192140670158, 0.0015291165303807693, 0.30121627817772345, 0.15458503454176445, 0.31311302916809486, -0.9423011796423815, -0.39578804030762993, -0.24200043831349727, -0.0005308910986742946, -0.014980622085056124, 0.13847394895788875, -0.49331977158262824, -0.11061879715268974, -0.19584653562893395, 0.15816855596926396, -0.6145144229520701, 0.5925112423972716, -0.07542915984640228, 0.6706501528546888, -0.14368105701600437, 0.23098323288693062, -0.01895411663823653, 0.11314722243258753, -0.06186254205911567, 0.5700786280084905, -0.2334472766903707, 0.19987299872036227, -0.03732343059627612, 0.020297180965657618, 0.07783672186146391, 0.6089070202641361], [-0.3969382404219622, 0.3981571664942997, -0.43355870099015625, 0.4830593759844077, -0.33030928057091963, 0.36589321011308373, -0.4966415101230985, 0.38239894234669153, -0.5722064768987855, 0.41533269310127874, -0.507226638057003, 0.16768639423523185, -0.5423935677645569, -0.7028558301171685, 0.9913689914363091, -0.7008329609594421, 0.44338888548617666, -1.690804010202924, 0.9761412883966454, -1.2967839878241176, -0.11932431520982173, -0.4348687580827624, -0.31388881410151903, -0.572241377908554, -0.3631482442259689, 0.44391569015277454, -0.49584544218046533, 0.27837644484497276, -0.5070317841621269, 0.29295958270127104, -0.5730104395563745, 0.5503703605389619, -0.6899144052821892, 0.13383203779221242, 0.5015418009531512, 0.49865994149443854, -0.4888856288678714, 0.48817195192080304, -0.38500132636633483, 0.6299271584119602, -0.6793897646915407, 0.3962619177188213, -0.5306850493199591, 0.5415605789770469, -0.3865239864046276, 0.48561561904668865, -0.3596705618347758, -0.21670954243502408, -0.41600643036015234, 0.762832608589279, -0.5066301526970454, 0.19417533430198777, -0.46981373514893504, 0.5062435554982582, -0.42816987563341, 0.48155064497169364, -0.5422253280135072, 0.3012300668870177, -0.04961265746923413, 0.5288724542820215, -0.23700842735594052, 0.10332716492302225, -0.3775385370960976, 0.16051129504314177, -0.24243023999857133, 0.5568426781502545, -0.23460084771727163, 0.42691005232817364, -0.4275131105146784, 0.1862633452612466, -0.46870068135163573, 0.29475111484660443, -0.33706556381237673, 0.6889678498075624, -0.3045578032122911, 0.41285888431929246, -0.194360771842545, 0.4413000693984752, -0.43014159109991174, 0.430711520091774, -0.4705117218278602, 0.32683077231847374, -0.5377837351556447, 0.2085506410606518], [0.050512398992773634, -0.18130393943219553, -0.16461721405752844, 0.09443101483885126, -0.18576460673202255, -0.2801963843541674, 0.15526978321270754, 0.2922435748068542, 0.19121793813073162, 0.14669611458152704, 0.22430562258423883, 0.49910136818550094, 0.2968175379543161, -0.31007555174719603, 0.043458959727259126, -0.30102015607192933, 0.2056034368669235, -0.4379696674862728, 0.6181504036193154, -0.17641603671565917, 0.9702369787009117, 0.3879241215511119, 0.07626950215636692, -0.36994096661607667, 0.21345488194283355, -0.3512640766077387, 0.3087333177994962, -0.15430389866481686, 0.5193991172267826, -0.058488887331037784, 0.15467395338873607, 0.14922604455440525, 0.40997534360083815, 0.06152844825478558, -0.4232408895643619, -0.19656891505151824, -0.23371811291120836, -0.640037591275736, 0.32295342744993855, -0.011002123271537758, 0.17583071071609105, -0.24359210763343525, 0.2774363455572032, -0.058920277109349405, -0.2541134374714519, -0.5553689258365188, 0.47137656085575447, 0.2755050078935416, -0.12035872217103191, 0.27701703339884587, -0.1251361441582179, 0.04433998594300953, -0.0724296342922861, 0.14126204590553604, -0.11259352329055017, 0.09404659173211315, 0.01216751731691177, -0.4278664645664738, -0.5647739578308829, -0.233328564886596, 0.28643790161907645, 0.06646106551290301, -0.005213044598496746, 0.09526903656886108, -0.0005193804580753352, -0.17793051627673376, -0.441073691482792, -0.15846214101830633, -0.04037006486100539, -0.029029851996229348, 0.20049626714201546, 0.14533603556483285, 0.22812941690792898, -0.2915967359743264, 0.004242108777930252, -0.15427196071358323, 0.010846123582364078, 0.04505462235550354, -0.1234984534217472, -0.12808635014822342, 0.028381202713634056, 0.05469190182273807, -0.07819889018677421, -0.1696055224368768], [0.011274555443582062, 0.33448596413818804, 0.26897660446551425, -0.11436206168318858, 0.36149278311055505, 0.009097671660988963, -0.20561164446621302, -0.1825126200538192, -0.07097362373361941, -0.23546398821805412, -0.05811705232049554, -0.14637893384491324, -0.15780726914784712, -0.11033961783771995, -0.0077369578146696885, -0.35047685206135737, 0.09495532833127843, -0.2664820253268086, 0.23398362908156653, -0.2839922292838369, -0.5727848452022346, 0.23744549548086125, 0.2930847355587097, -0.06310941087241272, -0.23356442197211671, -0.24219567958591826, -0.33169938327187803, 0.234778969167836, -0.07417299153556292, 0.06350343056934973, -0.08081869403625386, 0.13663806227721453, 0.33843530941410443, -0.33768113839407093, 0.08483788439384982, -0.3219134288395419, -0.19372273019636474, 0.1549175465251926, 0.014278147692899073, -0.0136982397334989, -0.32945974741942785, 0.7263225050524204, 0.21589231125474867, -0.30196862185546175, 0.6666981500556484, 0.09870689100397514, -0.2175842338058926, 0.7800085834206288, -0.26683170949955987, 0.288042134474375, -0.27217428404704325, 0.13355282478362748, 0.016471309625173777, 0.1703409255332916, -0.1153224803004115, 0.2227162440709096, 0.403060053647842, -0.23495829876799035, 0.08096284630331489, -0.2516995820987765, 0.12816123556547995, 0.020352502985676375, -0.10100587354914227, -0.07934465133280882, 0.14472680338340269, 0.08601680117460928, 0.3397304519801437, -0.030515642430631155, -0.7013313390269275, 0.12213342628429466, 0.0180946103763115, -0.31931398713511516, -0.05397571617763588, 0.15393446146944806, -0.03823649701614096, -0.030893797810058448, -0.03245323569245854, 0.051712836105024314, 0.07030122119009811, 0.15452537883603676, 0.07356903052215706, -0.018053738058617434, -0.23231577079551144, -0.24536672425329978], [0.1437137195963855, 0.10513982375536622, -0.19094238668991265, -0.03913905056912762, -0.011556765657786511, -0.06410201078271428, 0.2056442067338416, 0.1604643929464863, -0.0893619846830976, -0.11984896502106322, 0.5506071394943631, -0.5651878274563498, -0.07964510514881143, 0.16026545530440328, 0.03105267765124294, 0.32302420131545906, -0.046017836780771204, 0.2566218796466138, 0.028626883672345834, 0.03615725056127857, -0.2795910731436408, -0.030979711674486286, 0.13293156902629286, -0.4370018445495001, 0.08919420719139749, 0.1800137398202476, -0.0191760599565616, 0.22939102990385482, 0.036421898077172395, 0.09325296356408672, 0.14105385960761438, -0.1481499125095408, 0.22098744349502533, 0.13492298958950952, -0.1647507887708658, -0.5161159487719689, -0.13954133328600712, -0.257293037949863, 0.19591829842939848, -0.2800588881452109, -0.34472123304704566, -0.4959769023587941, 0.0887824466794396, 0.1394491629508782, -0.4306142042499338, -0.3189618725459361, 0.6248458844952962, -0.5526221925548543, -0.09059383016891452, 0.27362944496164016, -0.09941399327973159, 0.28640967075987217, -0.249339529355193, 0.17528109335012496, 0.12004255172426542, -0.05493958350263339, 0.15958523998755472, -0.5212260421067653, -0.8811155567460778, 0.444351667085877, -0.1615589901960887, 0.2596495215580705, -0.13953521423616963, -0.09539803744399297, 0.30444722875718444, 0.04220065086329455, -0.23276077493195912, -0.21921587191823838, -0.07438933111877985, -0.46809180682869306, -0.27306966607218475, 0.01748795764805863, 0.18987236889971562, 0.39301499135457774, 0.16931498569035933, 0.006615888090677734, 0.04984248627209638, 0.07929320217104302, -0.14455696458268305, -0.18427977426216077, -0.020885022543069384, 0.1489220174649168, 0.12799252313262102, 0.07161481947559743], [0.3966431430128461, -0.31750705724978073, 0.37964196319390286, -0.2610775070743859, 0.5529426304610465, -0.34574949031522534, 0.10416127577857674, -0.36397530159536845, 0.2788890182424054, -0.4134502464486861, 0.1431422541967629, -0.5391350098502812, 0.1659952072570689, -0.2968767982345317, 0.13413784139405974, -0.24311335793296907, 0.23236190949821764, -0.4216605139272379, 0.16205104819045918, -0.23596240221538242, 0.31492790419398115, -0.4696221009026781, -0.08942913366341639, -0.5715297855703712, 0.14925636288469957, -0.10596823059963571, 0.2520698588755049, -0.16390008190227875, 0.23115163583858855, -0.3803765433196816, 0.25148067287724857, -0.38675954370607574, 0.436586818352653, -0.4406803978932895, -0.13562222239989907, -0.8740464982339061, -0.7252900861617847, -0.2882133667165631, -0.42601434821318807, 0.2533294499892185, -1.9097365389631529, 0.6342944476020307, -0.756081886432744, 1.744917724776004, -1.1192225699074225, 0.7796615840042819, -1.1316476612681508, -0.08861586780003322, 0.16034969888676623, -0.07807060246498114, 0.21491111690677894, 0.01138258566617957, 0.22129395809258137, -0.10278246227982342, 0.22311429371095678, -0.3735765866791068, 0.36692649061962956, -0.4042877930259835, -0.4526788925798136, -1.1795135692926513, 0.38992650131012035, -0.06385238629405975, 0.22106718903174188, -0.18454204359207177, 0.3066517037921126, -0.3511452136105254, 0.20413569642100812, -0.35257986274602954, 0.22191496531267868, -0.43145370878409317, 0.19855555199724476, -0.4236237391511012, 0.341274350599824, -0.07135311418569527, 0.362709183530939, -0.23080085712748624, 0.1397356718160177, -0.27963885129174554, 0.1884956162335462, -0.4074775425469394, 0.2636295598178776, -0.14802394045737538, 0.32321286782114766, -0.3208066532792184], [0.1380409593051309, 0.2532982339364916, 0.17572868458541827, -0.08580499245558047, -0.13767367372068756, 0.033806264354522816, -0.09003781218379503, -0.2595402644267282, 0.09255205320933371, 0.04794767852005908, -0.5529132532600428, -0.4216089810920715, -0.27009783783272456, -0.15079434143929357, -0.06992775515492833, 0.07640074629764794, -0.0396180464305172, -0.1332743796541854, -0.09449320466856882, -0.19549018864133352, -0.07607919284290861, -0.28281255292472574, -0.16606224398199748, -0.14458624150040086, 0.4115980156929459, 0.22783789824998427, 0.4140991970818236, -0.28820122284436805, 0.18382626857386328, 0.9409685995620153, -0.002458681857206658, -0.1600249284105067, -0.46375993832533846, -0.4956666168224413, 0.08857911503746244, 0.22307800695516522, -0.19494978036889074, 0.13184272272292513, 0.04167122715354845, 0.16092100644468044, 0.20642113189531522, -0.14292335816469512, 0.03836576964189261, 0.19591963443707597, -0.4117500702705052, 0.3667080530154782, 0.2345896532423852, -0.20728480160968804, 0.032846277259660835, -0.05817694326989996, 0.11394626782639157, 0.09852967202977915, -0.04058231510237543, -0.04019043944005217, 0.26060153979133066, -0.7159603216926091, -0.6367066388490005, 0.32531815982972995, 0.43861304027254105, 0.28048050576872446, 0.015702908941060592, 0.04144895402460176, -0.070765740622146, -0.1348402053579928, -0.24010465731893224, -0.24195523148628625, 0.21109159435018413, 0.16978459460626763, -0.6396760454943561, 0.523411448812049, 0.21731308229746407, 0.13192404570958635, -0.13543078413489337, 0.0990290116450623, -0.1635967515214198, -0.17064045827477595, 0.09821713542644538, -0.05700256986554377, -0.20229691807088176, -0.20664624989741576, -0.6415292339918275, 0.2743423978442658, 0.18900318668729932, -0.514333114171457], [0.45368590597428, -0.2562413770568237, 0.5483409173222289, -0.4883656601010957, 0.4716513884002231, -0.48935097750302775, 0.3912609185677787, -0.543118047146356, 0.39748820561352494, -0.4997378011542118, 0.4424285976952828, -0.6057281574023616, 0.398356228233961, -0.36080971794733313, 0.48750347063110144, -0.5578916442311052, 0.44366840460673274, -0.5214132794695331, 0.5407806390814319, -0.5246581225907403, 0.4085905324030865, -0.5606228468549757, 0.537123725764338, -0.4925441904442769, 0.5312437394578409, -0.4913022900252693, 0.5622754718626302, -0.4732289092923779, 0.5665691737798909, -0.5244633691869108, 0.5077361754804904, -0.4856556828250919, 0.6003168846643286, -0.5616460968833971, 0.9454706418666695, -0.2304079757945863, 0.5689826988727854, -0.20709051910513515, 0.3716109527674149, -0.6004929452825355, 0.5133133591710745, -0.3170654343417852, 0.4582035533791669, -0.586826838654354, 0.3035755109496674, -0.7255695227813865, 0.3308939236376296, -0.36542966668616556, 0.4237610536054534, -0.4505716770340508, 0.4628668318431755, -0.3018835737272026, 0.5276961182146096, -0.5341224337653906, 0.45510257598703274, -0.6423640199894799, 0.27562364280395246, -0.7832601956790132, 0.5413230183366068, -0.17965979501147325, 0.41379429733564127, -0.42481392382929545, 0.2832506692377432, -0.5911516867303367, 0.42795566916592875, -0.6113468740925403, 0.28562503597378863, -0.6158568219321843, 0.3217019588012292, -0.5539498034887441, 0.3031461342254381, -0.2853497365915934, -0.9630731767585521, -0.47211681687487383, -0.9681411263825488, 1.152817310060906, -2.058824917023369, 0.7090737225437627, -1.702989496214876, 0.7617436731582439, -0.9987147437900921, 0.01209327656327063, -0.7826862412744992, -0.8438794208592209], [-0.3102501749467983, 0.38380092257151366, -0.5799563772417553, 0.478973637422528, -0.4588507815451997, 