{"layers": [84, 128, 64, 7], "weights": [[[-0.09984091635522135, 0.6195633049182228, -0.48471384443879023, 0.5396225547176338, 0.19244402733038737, 0.7348123578283416, -0.30717439161744486, 0.02253495357849616, 0.09134473584878162, -0.3990151302406575, -0.5743328678741207, 0.7135407670914177, 0.05578000833283494, 0.15419878418841634, 0.5049468215245133, -0.6774905285829098, -0.27591441553131957, 0.19731921559395785, -0.036086617377245014, -0.474171669821739, 0.12165629143217793, 0.16109341072770633, 0.3658006822456699, 0.6341303209370879, -0.1305083240411658, 0.27846224150799437, -0.505405330665877, 0.30468578115095934, -0.5730704920312424, -0.08710666039940976, -0.4521082575453233, 0.09105927377461304, -0.37004431604361826, 0.11021317425621355, 0.8902855850321219, 0.6669591213332736, -0.4819894783107238, 0.04769094262653043, -0.05508840914977175, 0.06563102338699844, -0.13093920203671236, -0.29039324208606304, -0.17685529055141422, 0.3510111449792031, -0.8167513126054321, -0.27928073921485114, 0.2740615225540328, 0.4796499857055591, -0.5547435390635327, -0.3984172760762448, 0.5439972382244843, -0.6688256152464792, 0.20107966759990345, 0.030033576832778873, -0.4074598083097886, 0.2829070614858803, -0.3152405092081732, -0.3158516965036179, -1.9254630899957434, -0.26334988356142613, -0.20172661703551723, 0.5476458637786304, -0.17001432892120893, 0.05937323942221339, -0.1825067110823203, 0.1309313351512172, -0.4819845576290458, -0.10730880343046392, 0.07925647470761817, 0.13114130533332355, -0.5796668725862667, -0.860638337611293, -0.09989014706988839, 0.06599626494907541, -0.27231947005075596, 0.011562481269309442, -0.3247990613691635, 0.027399300090601493, 0.07250079210671216, 0.12116554137505799, 0.09621637300810817, 0.18520488292414486, -0.17604288144704658, -0.24854186387367427], [0.1755673439572208, 0.11388612460460633, 0.09966329736771527, -0.0581455382092525, 0.3465207973399154, 0.3548353976949094, 0.17169165231470881, 0.18458520230030068, 0.45457612076107184, 0.289554650950246, 0.13372384773989424, -0.22827219694894518, -0.25933077192329584, -0.10495345804980663, -0.2991928099964046, -0.2449397234100293, -0.055106068686151415, -0.45389731297389396, -0.3741422650007018, -1.5096951131854026, -1.9605141955992178, -2.364329457916151, -0.5698272308309211, -0.6498846309232504, 0.0016910418801789394, 0.10474427674562038, -0.06569868978022267, -0.23250315146334558, 0.23988287320989224, 0.006880654334179844, -0.2736851039670507, -0.31379132331935766, 1.3795968965044585, 1.3371855415167266, 1.3261458309435343, 1.14221046903636, 0.08122212031089861, 0.02889562853265794, -0.21869316639250908, -0.22158025320090632, 0.28971111113595405, -0.06677293794514869, -0.017548340247665, -0.15122475231803542, 0.4833227543599299, 0.1540869647785844, 1.2703659606074456, 1.0675131523669599, 0.18809550147286136, -0.14946840667778363, 0.3645654853269036, 0.06880934861200054, 0.08521272450776442, -0.21581164231803845, 0.14561014159362412, -0.0636898123780113, 0.07499031068608487, -0.29574734465123265, 0.10133881247194393, 0.004921351860384628, 0.42730516675675956, -0.13807757185579514, -0.10571270821714308, -0.1737811870884826, 0.1843381961468213, -0.18186440027342135, -0.06782079084630896, -0.3819317208993622, 0.1733201464025245, 0.09855689494204732, -0.06955052040025686, -0.2578409966564567, 0.009396317243680374, -0.06752757760609406, -0.08704862431446674, -0.16550420893011106, 0.2891426577861669, 0.025637070566331178, 0.00942950735728338, -0.1057877020764802, 0.08035795279597703, -0.08905919976764004, -0.11049608100454629, -0.1911503827398224], [0.5649939436372963, -0.2476022439950957, 0.24305177439648237, -0.12725528366173183, 0.30045471447545474, -0.0978692356311049, 0.16173761238343565, -0.33722006807629196, 0.18410548939352323, -0.24253933507196995, 0.07643072184292052, -0.3997160172722088, 0.3223417642052479, -0.538525554241595, 0.21244442608084976, -0.22665991477148828, 0.31012924801187697, -0.5919225245670283, -0.015175644130150785, -0.29592863024127203, -0.0228004096235547, -0.3331598593375211, 0.23519593465045463, -0.28302732102906947, 0.8813755835441787, 0.054110755590970006, 0.020269408014125138, -0.3707656827897068, 0.19072623470039152, -0.2131642653406008, -0.08995957258347662, -0.5352584655851567, 0.5234230983052903, -2.3942110559280247, -0.20283067341657302, -0.6516221003522101, 0.19489052748984634, -0.31532122356365494, 0.2789377882712052, -0.0012715883557264751, 0.23345400453739298, -0.5950347167459114, -0.027538268125322625, -0.624565926531326, -1.7387477828688178, 0.8883996785354363, 0.48137668232856395, 0.025539024889728812, 0.4315696221835501, -0.24757359185764552, 0.0022710849555515967, -0.3508707353672322, 0.21949755466395307, -0.09426631121795134, 0.09708794334774501, -0.46027260391052777, -1.9284260079682811, 1.0208851957186498, 0.6870031754250399, 0.007848422500404012, 0.385045760115142, -0.26620609387014954, 0.14340917316630147, -0.46736415740097775, 0.18008908864050346, 0.0745172919637072, -0.03574792472558593, -0.2743393962819443, -1.4762524910924721, 1.0154479223205193, 0.15744779174726262, -0.14884870657911983, 0.13672748228337872, 0.2275482200917814, 0.13007997433422636, -0.5006865085214507, 0.054826749477624795, -0.38079425710105164, 0.14904804676157224, -0.3220184087579398, 0.22640484648629175, -2.829668585951965, 0.22130404001561044, -0.1718206459757102], [0.6660377843362391, -0.7122359998641766, 0.48025890392303006, -0.6653594897359489, 0.6143756972174725, -0.3869894080328918, 0.42818134728756746, -0.5243468858608551, 0.4395485927387483, -0.4653287722559531, 0.24720881775236692, 0.33535055431100536, 0.508566303634835, -0.8739307277690729, 0.5140118350852574, -0.020221957823316105, 0.6971267006407355, -0.49152942866023913, 0.33101764171280035, -0.5778671643760576, 0.7677203809622731, -0.2752136255155827, -0.5849921875884145, 0.6805346445208128, 0.9997694274771145, -0.5448654232167315, 0.3573094390321501, -0.4741306657765446, 0.5440082024965821, -0.5266371109762503, 0.54907177770291, -0.668779462058428, 0.19379921960886445, -1.0238860971229344, -2.398968097050409, 1.3052814195197358, 0.9985922936880292, -0.6027735797228396, 0.6192119877503225, -0.8557624946827913, 0.5038569406075941, -0.8629171269305939, 0.41264737620630787, -0.8241442735210144, 0.35836059578115403, -1.096741696310146, -1.826956861338886, 1.3679769897090923, 0.44289636808918004, -0.3053967351044699, 0.5556858339573597, -0.29153286265226025, 0.39726209741005053, -0.7881589326554007, 0.25166723892793086, -0.8605865415504299, 0.44610642643824294, -0.5635664207413075, 0.14950007742098545, 1.5313382677641687, 0.5310214265619964, -0.9179789420045158, 0.55313659021454, -0.22384343037654775, 0.6117706514939568, -0.5272622071282265, 0.3925889055344714, -0.7159439484751475, 0.3654448001385188, -0.771680835350201, 0.3403792674090052, -0.8832088721908771, 0.6275195827260684, -0.21677496632955615, 0.5487954101270348, -0.7224675432480918, 0.2683632843755404, -0.8572157066335697, 0.6801922575641944, -0.31513837570855474, 0.24560528698264356, -0.8005343395095936, 0.3770007197094534, -0.7721631491179007], [-0.23844000306397847, 0.3213831158188159, -0.21521739279690663, 0.22853345895047777, -0.2385207213882495, 0.5574525508145848, -0.5038070297630243, 0.28642113430735683, -0.42768642875939133, 0.3601601515300215, -0.7177451616037674, 0.5322157870345481, 0.03727713322773091, 0.4130200607433253, -0.39444374793745707, 0.5518667597538588, -0.3094693109676305, 0.10369717906095038, -0.4389342060584972, 0.3699094661591779, -0.2921989893903773, 0.5063197359163228, -1.0104050304923413, 0.08943800774496709, -0.11043549903747518, 0.6939943197381897, -0.6386825921002639, 0.574616578113376, -0.09104501032345078, 0.727257598133937, -0.8397858272033228, 0.374456070766137, -0.6764959555472574, -0.006394075812121767, -0.9557598824008324, 0.2915318480168399, -0.6536374820643642, -2.315358009226509, 1.9334231333556475, -2.444549869792471, 1.7162041960747836, -2.920162396176701, 2.3248895534597587, -2.36700109388868, -0.2984551681501488, -2.7570678070579473, -0.5084077561436788, -0.6270407083408107, -0.3182643913717333, 0.781740909755484, -0.5666530687049974, 0.48929146887954134, -0.3983244104368616, 0.35571681103439057, -0.7571722736742671, 0.41110112142717975, -0.31162363546916894, 0.35162638051053596, -1.0564816983721073, 0.1426174470683493, -0.5532968124119146, 0.38734988464583575, -0.3169004494285579, 0.3656490726753215, -0.4123213710529762, 0.2496758508056751, -0.40838347871574693, 0.43601446379873793, -0.3004738984790854, 0.40698887478968715, -0.6891301821829233, 0.4236186016477126, -0.3045378910645476, 0.18014839696167073, -0.3939174916171289, 0.28136497653178366, -0.28742511032563745, 0.3997126134965001, -0.313251515246518, 0.2995711742918993, -0.394667081285792, 0.37443285873376403, -0.8002692868524859, 0.3899337362962541], [0.16315154942019588, -0.10286264621070214, 0.09849639991947963, -0.09603408548100513, 0.22786487910709347, -0.21094325557185856, -0.05141443385640536, -0.23892460207341493, 0.2550905600741257, -0.10265000796694618, 0.05572045235470432, -0.4283567553025165, 0.42032090844198283, 0.06059429457829366, 0.018722524053707622, -0.18337216618406085, 0.3493251619048557, -0.15517559698137015, 0.20376195016086263, -0.5691342894371291, -0.13361482131317426, -0.5930694561727027, -0.2602688575475137, 0.41924959086205676, 0.40108452536527345, -0.5025344338860694, 0.4871607226488061, -0.23796217929901, 0.2654709347451816, 0.0704102942795359, -0.021800704949980872, -0.3660119972612105, -0.43431922324943645, 0.7840881459398252, -0.7337905091166299, -1.1730439025733193, 0.5065000023509821, -0.06997421051942172, 0.21645264706828632, -0.1844440675927963, -0.30914569785915264, -0.9799874743197325, 0.9270099316145932, 2.2338140558343653, -0.3193339919123342, -1.0414275407777658, -0.5778916006495239, -1.1719598701284624, 0.032215034727016645, -0.2372744028430372, 0.44791871088262314, -0.012449134630394263, -0.4010485818289905, 0.38824767158811424, 1.9819144403288897, 1.0687198972435465, -0.6459539829346747, -0.8442576659663257, 0.26941566227439373, -0.09871237939260386, 0.14941795209384331, -0.00587225741400075, 0.09456526481371584, 0.1769539112529585, 0.45606827225142593, -0.12369663075263938, -0.137917287524131, -0.37486601002611536, 0.6694296155691387, -0.3306950898950497, 0.08482731637180771, -0.0626286453272971, 0.24332488532359006, -0.1522017830664635, 0.18312576229037944, -0.25167567803146246, 0.10312530551740862, -0.41989955894451253, 0.018036675566234894, -0.3290535108099157, 0.25415865551747935, -0.05388468970341094, 0.11261168907419056, -0.4499937205476086], [0.18011133581698194, -0.2040762911608692, 0.10479611053287248, -0.11134087866449663, 0.23196413139014033, -0.03638341754856615, -0.058307802630047444, -0.2002331780937444, 0.14240717874443648, -0.15433583596034722, 0.19231648873924012, -0.14136954833384868, 0.04125345261115481, 0.10290684028963834, 0.28318272661782157, 0.0338531213538899, -0.03804848531130358, -0.28474600628309393, -0.03960507753649669, -0.08971328345046396, -0.0849540005831949, -0.2591192869962669, 0.3536871862601439, -0.5015960132733448, 0.3075972290599065, -0.33818507772710454, 0.022923115527695933, 0.06950938453794052, 0.08413951069094751, -0.39520815837683365, -0.14511863153401267, -0.41209925751504256, 0.38559438384791095, 0.008121555373838697, 0.8548401254308716, -1.3552956752390541, -0.37233723050504586, -0.2230003612022494, 0.02377669717708107, -0.39432575094660793, 0.22107531282959164, 0.07205263256638035, 0.2970463506693571, -0.007893015420147115, -0.13105574028586742, -0.8139096098928684, -1.59849303788545, 0.4355351227249957, 0.4120851556842331, -0.30905254745511834, -0.3436483765217109, 0.5270212668770682, 0.08547667513730921, 0.10056130548725585, -0.7913104535454243, -0.9736782612702624, -0.21800959913407927, -0.12637191873253617, 0.17582884824378012, -1.3619309076774377, -0.3280091648538653, 0.5432854457659153, -0.1228303486845058, 0.002312116989369802, 0.11692481065777419, -0.43038244215302573, 0.3512367553496004, 0.10842819974667285, -0.29228700925129286, -0.7105522231497429, 0.7565627647581993, -0.8511427687334825, 0.038224667796086895, 0.1357838526233026, -0.049124186579423766, -0.5361430380603088, 0.04464062202105267, -0.31433225602247433, 0.45114064401808673, 0.017547107149680444, -0.16734307985642957, -0.27647153572930233, 0.510634830542112, -1.173217781034552], [0.1905055945908089, -0.03189755298973474, 0.16340900931480956, -0.07991842879571016, 0.2850013332322419, -0.7516952487021585, -0.01473025565158012, -0.22627067363385148, -0.10188385295183693, 0.19295202659235192, 0.0798494290094601, -0.007746754610813721, -0.4821168682542156, -0.1422755099502556, -0.24010449663369135, 0.0036231516855561694, 0.11186136966782068, -0.15990901350703712, 0.25597288930304835, 0.15469293491128538, -0.20055585596189845, -0.383037310668505, -0.5921612922189182, 0.833782044944062, 0.0028655237944174724, -0.11203543988834469, -0.6786170811368455, -0.19870760228043555, -0.9604930409699441, 0.21398067587312664, -0.3562570807312695, -0.09649447113624413, -0.40098561685551093, -0.04858321041025835, -0.863875331850946, 0.36420039871744625, 0.012296814729806704, -0.047147302519326646, 0.27748252058610323, 0.00038072536654098815, 0.22213267210912785, 0.24964377378585395, -0.5053485385373524, 0.05576798201488662, -0.623890943649486, -0.72974000227554, 0.7186159901296081, -1.9987487938788853, 0.3960307310799274, -0.4068301430499878, 0.20797743159527088, -0.3362597713000928, -0.8780111192240907, 0.6549473099090571, -0.050691978689707325, -0.4386558852209591, -0.1442195616590242, -0.5219322255494445, -0.8769105115485838, -0.17430411859506392, 0.3587287328751063, -0.16657448945214975, -0.26433989298717925, -0.17717893184044647, 0.03733207093547559, -0.21883585666768177, 0.14603370216796413, -0.012909709804908442, -0.3192777835229564, -0.3553423424056124, -0.65968578374673, 0.11323181603372255, 0.06369745155515158, -0.3633017712109293, 0.5063450024824916, -0.5345418643690459, -0.307693184975212, -0.4493607032456548, 0.24418839664767944, -0.31204007542763673, -0.10930062734126644, -0.17955207426815847, 0.17602510232987886, 0.03286217766018831], [-0.8820789283223447, 0.6530423978995178, -0.6531290618220106, 0.8159210641278483, -0.8628220766318468, 0.7858628443890144, -0.6156201498094305, 0.8685665492054989, -0.7352225101389597, 0.8403479480552526, -0.5903232122288532, 0.6022137551120443, -0.7781309077921841, 0.5464523342477499, -0.684868040805282, 0.5404676841415831, -0.7496594008467077, 0.8877567506284652, -0.20985923421774283, 0.9751812285524397, -0.66356770100988, 1.0139540778866405, -0.6019513123038385, 0.5426980295804162, -0.767351013162562, 0.7778766277797589, -0.7405201592613287, 0.670789094070096, -0.7218023580406436, 0.7008407326449384, -0.6775507239290957, 0.8230226912640838, -0.7801538809907563, 1.091717718735389, 0.06435991600103898, 0.9317870705024303, -1.053573104233919, -0.6662799190905055, 0.3638144037063175, -1.0618969155664832, 0.311068019578956, -1.2649591901847108, 1.7292239787435575, 0.25372152362351297, -0.6390562679962245, 0.5243167399569634, -2.61002083210656, -1.705865673326332, -0.6295383680751476, 0.5948995180866241, -0.8774559419199326, 0.7142916220276667, -0.6639479512332044, 0.6611700098947165, -1.1120077347336577, 0.6410438619451903, -0.36867691155318066, 1.3291179488464058, 0.4242978045853594, 1.2695960592591315, -0.5469260348004011, 0.36592032648216555, -0.8821393684653246, 0.7988075958275904, -0.4621733834555767, 0.9629634651321956, -0.37314667056997386, 0.7623128295704503, -1.1414143353985735, 1.0257382123065468, -0.15115526141197103, 0.5491594515318374, -0.8183667609397264, 0.8512902112995354, -1.055485315922357, 0.3581737346821807, -0.5443991565716323, 0.729292323564904, -0.5142826292883739, 0.9079197745782559, -0.6644288399796683, 0.6545371058898106, -0.41217199558437484, 0.8014332672578733], [-0.13213205404270387, 0.5200166828388827, 0.4614952326311379, -0.48538322543893, -0.29590591875527517, -0.05938697312377004, 0.2758658103185344, -0.1816835020488313, -0.0231199914614142, -0.4454874199196121, 0.11546821548953964, -0.3631994587983068, 0.08488474428386124, -0.728310407127074, -0.013587318375439302, -0.1835446424914523, -0.5795491207405465, 0.15168037874910956, -0.0783673963097667, 0.07409102593118264, -0.08259397193815528, -0.24453271259474443, -0.7883293132866174, -0.9833492584772909, -0.05878514768846773, -0.37237218913069364, 0.08821123827867001, -0.585448994215801, 0.6518773497611302, -0.44846182025759124, 0.04173526728064316, -0.5643424963564236, -0.6328014104625554, -1.0171646495854718, -0.4318340459303808, 0.20538689303147725, 0.9259240281721165, 0.6724814496525064, 0.08351109360719614, 0.10280337046481378, 0.06841692456655186, 0.4353003233480179, 0.041066247180168894, -0.8214626279775191, -0.4555050109401055, -0.6045787901912879, 0.02944387933979585, 1.0866195278742303, -0.42310400743010446, -0.07760022508207574, 0.5311004350815332, -0.49351679407327403, -0.2921808992986025, -0.5646539736665239, 0.12743019818342205, 0.002583867743123072, -0.4150820224158429, 0.13379451650133245, 0.9784193895668902, 0.5190595294497147, 0.24451078922904357, -0.370434280155076, 0.32332642887264845, -0.1322013084510384, 0.1935573655692911, -0.15595645254304913, 0.10255944355364659, 0.40551217256404426, -0.17181829525461612, -1.1575218101892597, 0.4525815980598152, -0.26608974169511423, 0.008513315856597831, -0.20521600725448005, 0.062377053154868654, -0.26771631367785464, -1.1223903630155303, -0.1061101523065366, 0.2755366100921364, 0.34642837505148094, 0.4177397719006717, -0.2166427571490326, 0.3195726193651832, 0.10171038301576153], [-0.4301270732953105, 0.2353127212842126, -0.33342395305485223, 0.4239989165866849, 1.4943200077491294, -1.6005463640382762, 1.4821953514018884, 2.039945572387915, -0.304274058321222, 0.44962250718469304, -0.9048940511029974, -0.48922908837800194, -0.48539970626802764, 0.3251397749489426, -0.4234640300905463, 0.19470866193149375, -0.3404044163674053, 0.39403018530493045, 1.1537336381854, -1.790184018730903, 0.8595357663610682, 1.551798520345731, -1.0928300162093167, -0.3614808333251161, -0.44645897790126543, 0.2580762370602073, -0.28175493937118545, 0.4377682193680596, -0.5732032903968788, 0.23117330715531978, -0.7366839487243618, 0.19255417753069173, 1.160363846317661, -1.4361289722059718, -0.25650972905453984, 0.38945253695933896, -0.3379913859920139, 0.3862568327288949, -0.44352671049083336, 0.4820450650158677, -0.5397750773209875, 0.06184076403751337, -0.6431359817914145, 0.1117936051525455, -0.9469217570722963, -0.16323424261244124, 1.2319501152979968, -1.5482408317192315, -0.12240821028454722, 0.44868663044380025, -0.11190437278295388, 0.2846218172401149, -0.7212182078793792, 0.05684959343583266, -0.3341346186721612, 0.18473104900697498, -0.5015199884868092, 0.24736032966704, -0.7159393039451031, -0.07823775053439425, -0.5033335077772694, 0.3294771446871645, -0.4187599153209813, 0.4072786008946679, -0.18613789481839443, 0.2914436533266577, -0.494335407774083, 0.1494432843178873, -0.1368377806336461, 0.47922540246557616, -0.7096911705343585, -0.159311180463697, -0.12359194623198974, 0.2610348496023767, -0.28302931925604197, 0.10510895279270477, -0.25866227726209245, 0.08900605559443231, -0.16724058206578687, 0.28289599176472807, -0.2692121398566711, 0.27149966085950267, -0.544008907101173, -0.02255033666640437], [0.3809091480806552, -0.04497973793248824, 0.21878806188364888, -0.4628264254895145, 0.03259861662915517, -0.08348078844065923, 0.04002316426321036, 0.09554323552821811, -0.41604985979796305, -0.48382463549207516, -0.14562795397285885, -0.16742318851659704, -0.2557112459204153, 0.4161676145303829, 0.11797536672522284, -0.009142827950923547, 0.001901807270583181, 0.0037636500065476594, -0.17938514809383727, -0.2793204753704467, -0.4128866148155981, -0.3193240899659316, -0.38993641922775324, -0.630048320596153, -0.1664963013277944, -0.30366752357384397, 0.3374440117764821, 0.32616807535927633, -0.2920352141160518, -0.30691181066332957, -0.10572855997889531, 0.0733507193073094, -0.2638301832393106, -0.6748932409207155, 0.40088089329417603, 0.24967037608506706, -0.24987161191425103, -0.4525877238265897, -0.15233540293202752, 0.005509699767548596, 0.033036072045779324, -0.6310269412211305, 0.24130517702649323, -0.5814992146762844, -0.4582774111590285, -0.45112711153727036, -0.7637764944368358, -0.6071795682644917, -0.3056634886795676, 0.1483034805539059, -0.11889667946942026, 0.6440797295212275, -0.16027467574343487, 0.25851621826217913, -0.36273514758539377, -0.0221446667378913, 1.0191123384680372, 0.8188348054849763, 1.4716317491499453, 1.473965186536306, -0.6666541494863475, -0.08774348146270172, -0.04490811089540487, -0.5073940518261966, -0.020872182735697267, -0.23460631191548198, 0.4755757924891529, -0.08384130798561697, 0.25330031807564757, -0.5683523368246385, 0.10118785785868199, 0.11979397157716858, 0.2853100171766211, 0.19196465233253932, 0.18707595600305157, 0.11198262074769813, -0.16702263180035282, -0.13134084196468795, 0.25518661604147735, 0.11835527584810027, 0.06802928025261695, -0.22450401378755666, -0.22300439219423623, -0.34981542819110295], [0.24409953806580684, -0.022101421726597816, 0.09524510409066728, -0.2722854182759701, 0.23290411203469324, -0.22125037400286407, 0.25362244235238635, -0.16074614101930426, 0.24002965345605715, -0.4954183933684161, 0.2716624052596874, -0.053016006011254724, 0.30613996899987356, 0.017343127606589476, 0.44634808924972474, -0.15417153580365045, 0.21345453139170953, -0.33692780666672645, 0.09667715059270135, -0.16504856325731393, 0.37871950904508933, -0.3412617611924792, 0.18977220349367682, 0.1148914173854654, 0.3028613792285172, -0.1537425319951814, 0.12408951223391179, -0.33754859604270077, 0.4024651124048347, -0.20004239974379395, 0.45488808335017505, -0.2150642013493573, 0.21290205000137596, -0.8896742649805157, 0.7596246051895754, 0.6607729498266908, -2.0393478501590905, -0.1273232923462774, -1.1581234395489632, 2.4209934396037855, -2.595375804497725, 0.7703404232919098, -1.7373906077492323, 2.022489183293296, -0.21918578776513326, -0.7623181074267611, -1.7719858587099706, -2.3403394922979555, 0.1931356971078378, -0.07120081557526826, 0.459284561746721, -0.13550830241301648, 0.35859035743829176, -0.1540461903828379, 0.13288213909100577, -0.3175238360889266, 0.3096269296804989, -0.5532220993799544, 0.3523528633981249, 0.3534731457965295, 0.20757947911862462, -0.24463297187486904, 0.10931639928428398, -0.17706444163163385, 0.40557368095115925, -0.28004802310263033, 0.08356199214901874, -0.0183303660536797, 0.12864513441180778, -0.6057694504878203, 0.21947966312914177, 0.09636641514030882, 0.1362874542546322, 0.2249380295666023, 0.15844877341313335, -0.10502928312457617, -0.12941400682413334, -0.37400103962774006, 0.2893624533326026, -0.25821391775751756, 0.4810158422650662, -0.13405341932702466, -0.11444289043222114, -0.37317491470966896], [0.1574588392930783, -0.07134804718040286, -0.13251935246800364, -0.23168625457157224, 0.4205926077971518, -0.08847209577898146, -0.2466999497974211, -0.09789140489820913, -0.1082279626698135, -0.2777746790114452, -0.05162017282040473, -0.17468236886149535, 0.6434063284462529, 0.1861396744927375, -0.019719924243010667, 0.1420520271293459, 0.021915421967373477, -0.1074026075741405, 0.03577747562302757, 0.15242070833795535, -0.06299933021030348, 0.482855806768816, 0.12000220920203573, 0.07116488057560734, 0.3608928419942181, -0.12233026969085212, -0.0006066223322763008, -0.27079533066632405, 0.08676889298132502, 0.12861577210067165, 0.25873667178830895, -0.12478212781638598, -0.10301939813611598, 0.5589786850492108, 0.6268490128310643, 0.05105587050449692, 0.08539586506119874, 0.24954586285725203, 0.04212793450692296, -0.19132985212178913, -0.0006929555318468249, -0.0650370670099576, -0.2694936763262364, -0.10784484237364887, 0.16323094884676048, 0.876162451897378, 1.0946883916559955, 0.8765363521671516, -0.6444031034856771, -0.015781498363334073, -0.49542632504247386, -0.08672005625828835, 0.09213521862411836, 0.0735529957251514, -1.0429514678168135, 0.49541567971424055, -2.106809626546573, -2.5006301908538666, -1.3384865121915737, -1.510588606207096, 0.14065884612405047, 0.32067463241816235, -0.058614744037246605, 0.06835102186663508, 0.3921428119542816, -0.05750456874734072, 0.21032536583848102, 0.04355264781316128, 0.39856234107850946, 0.6386094631928434, 0.5751413974978592, 0.6778260237368522, 0.1751206246271616, -0.19720368857057285, 0.18803039422121198, -0.4821477586503073, 0.1643677896614851, -0.05900728134965477, 0.27158293837374514, 0.021110037811365997, -0.007073910227542478, -0.12306078621940478, 0.25741029178783686, 0.19917844001947255], [-0.18007963482922212, -0.24985715941111206, 0.12294451477157772, 0.55401323375167, -0.2474013988395783, 0.05735125188098986, -0.34488364408904365, -0.4270583875235807, 0.10007974155745025, 0.06813791830440297, -1.1812106576667685, -0.4029526550206746, 0.053488056575655744, 0.587199984467795, 0.1712985255200568, 0.032852941866300986, -0.7240046227438893, 0.5110454736222827, -0.7453773789936825, -0.15949957314313742, -1.5401701720077023, -0.7006301949553582, -0.0033344777647582795, -0.5856560225479925, -0.14520410524669544, 0.03903936389118229, 0.3262246438804901, -0.30981712561562774, -0.549044711359361, -1.1593108481489849, -0.22560004608551842, -1.818348879130952, 1.2380104454457277, 0.48500239162663844, 0.35357979323395416, 0.5199560581636993, -0.21516342173168726, -0.10598121699541628, -0.06744641657455162, -0.2848788608837482, -0.08100244147136973, 0.2457201039444357, -0.22385987337207175, -0.2003459180667156, 0.1348862270480535, -0.8036133924144899, -1.450373134073176, -1.3160887925537332, 0.39643182833176727, -0.05209046290489401, 0.3717317550545045, 0.1370937127921373, -0.31927131774249246, 0.22691573875608967, 0.17178378867608982, 0.24017075528001502, -1.2535476213564782, -1.0357036442640892, -0.08304150833826762, 0.562503046401702, -0.12736837783726362, -0.16291128373998628, 0.29139224952886583, 0.23927375147691268, 0.07003169365689649, 0.4220143825447705, -0.6667955462241603, -0.2119894681272565, -0.979574318221568, 0.2844619465496258, -0.12217922932197868, -0.12251379590445091, -0.03511663391108445, -0.1283421079179515, -0.04920068023021967, 0.521037744033785, 0.31392683899086304, 0.10231665497207025, -0.18355114923759525, -0.37324951299227227, -0.8104978266898364, -0.4051195748755706, -0.11664444376640105, 0.6795649191107446], [-0.609006535259371, 0.7062549862090632, -0.6664134674611588, 0.6149627446996617, -0.8968021232848475, 0.5676388193934584, -0.6258012315974409, 0.5914801744376118, -0.6247486033224526, 0.08305939708525603, -0.2170704622113143, 1.0857290282662773, -0.4997614578586175, 0.8962869649323363, -0.8643301976229745, 0.6579739238949127, -0.7272388540210304, 0.6986527358357112, -0.9705222211248796, 0.39611808818370203, 0.8048069288753344, -1.9914442375745722, 1.3302666597860326, 2.665210162055396, -0.6446847030216882, 0.6778196879327579, -0.6420547859165948, 0.8079989486091674, -0.7430687947934844, 0.6785510934059908, -1.0347942509621972, 0.552149513026202, 0.6501602174618396, -2.4249715672902905, 0.04728820502517578, 1.2416359522115772, -0.7206596000969694, 0.7371535716449247, -0.7172438047541914, 0.8030812079881054, -0.9697979579231202, 0.42967809534977397, -1.198269381532457, 0.3590192484155052, 0.6426834757083035, -1.8881563721149042, -0.521802836129078, 0.6513490509736354, -0.59777941806391, 0.7744385919467937, -0.549186248135095, 0.6670343613011815, -0.802642236547832, 0.6334073121502388, -0.8602626551223717, 0.37400773479996685, -0.6720944680832084, 0.3071467533626838, -0.6352468485426586, 0.6391326780985774, -0.5298465155158255, 0.5177118315026622, -0.6721451233167433, 0.5392239983392707, -0.7902150757104817, 0.625351647749534, -0.777280903258243, 0.520178314091907, -1.0515013652667151, 0.4732557431207922, -0.8591707031516181, 0.3290750500599375, -0.46514633231481706, 0.8710534901238295, -0.7972435896668947, 0.5246023838422729, -0.5971864809444756, 0.6514306651376899, -0.7352456222373583, 0.624236065097535, -0.7688378634604355, 0.5809538481068817, -0.801098809638471, 0.4712574552946994], [0.2327878468408109, -0.4151501199634237, -0.02750594983552597, 0.38977439053525265, -0.2735020549066357, 0.27332099652883196, -0.2446043871965885, -0.03968224919165225, -0.15404995255496082, -0.261984045777412, 0.042897064213967113, 0.22539652503628438, -0.5574192371527703, -0.7817778596423525, -0.5828791451842532, -0.12329197224536352, -0.3299193272315133, 0.22766167496170045, 0.3911218420355312, 0.42535530226710583, -0.3341514478241885, 0.5347137595512432, 0.4566068505947642, 0.1531591191190208, -0.14642578530651915, 0.22973446959546934, 0.16392748800880236, 0.26577545953306647, -0.1493972315734681, -0.2236400172569508, -0.5677972058487064, 0.37317652016818553, 0.46483257840627934, 0.105930273060109, 0.8689625148599107, 0.3907156170754395, 0.3594269489200527, 0.16265714874297538, -0.261984290619818, 0.38210717268190003, -0.5819609852461572, 0.16777513304548927, -0.15860210577756997, -0.3097550340937924, -0.24283243349076414, 0.05401273814866015, 0.33486881594234524, -0.6104973619278568, -0.23161604405942757, 0.060064835372102915, 0.4161700206333131, 0.49642260337035193, -0.14115193429181958, 0.09769298252451415, 0.03365135713477397, -0.22147102815385683, 0.05426151925754834, -0.6020763886193454, -0.09347423621112924, 0.30724445150370316, -0.08811632037352068, 0.5922865961327436, -0.46069589389302457, 0.49709849069351025, -0.531536837123603, 0.8523134232867476, 0.3951857128393848, -0.8239392044819353, -0.24487927937115986, -0.3897143554980754, -0.6475746868828899, -0.08558723735719558, -0.5380447155914235, -0.12922371106383135, -0.44195122580084084, -0.355799324598613, -0.7940888390005791, -0.4124456587633661, -0.34117780003095954, 0.22259719632738428, 0.1979192836347422, 0.20640267025575212, -0.42375970791858647, -0.7260461136583005], [-0.08760155597675423, 0.19089463456827072, 0.20142844193968343, -0.10162901166160654, -0.11251587159859863, 0.4753584464474446, -0.3760120929102632, -0.13072536452011393, -0.2499428126527018, -0.12449537862232905, 0.059644453330254185, -0.037713887235131936, 0.02777645569328898, 0.1618654754484449, -0.1374310649874302, -0.30537774207895685, 0.2827530053984975, -0.6933713976142216, -0.4076887891575256, 0.42452236423865064, 0.0772681309132551, -0.41213942577482515, 0.2655105754221903, 0.6556753571666031, -0.14500607535354135, 0.12029540032689322, -0.3556372048208053, -0.18563672281716712, -0.3269809281376214, 0.23734648107147105, -0.16378836069859293, -0.08321396432003343, -0.28009069991456265, -0.9083174400653139, -0.15500758950136861, 0.22027778259462816, -0.04828788698519759, -0.12030551846685653, -0.3767728826729944, -0.3881895353333507, -0.418511453090638, 0.1597683150983851, -0.3339827860141943, -1.5065876399318354, -0.8987608478831782, 0.8116732490394967, 0.8497734514731928, 0.7946719121371403, 0.3278207120850321, 0.3792121669949703, 0.05010201664151882, -0.41015140464467187, -0.0339755126382742, 0.09187959466348293, -0.10331331831853814, 0.029671993293851822, -0.18312720005963917, -0.9750640470078832, -0.2747907892215965, -0.2245649028673977, -0.257802248458325, -0.3273830025318633, -0.5373057236909671, -0.21811900741982618, 0.4903262327959341, -0.2642356697614316, -0.17017543966837023, 0.2437078003826694, 0.2792413690388068, -0.33353723928411894, 0.4148698410273176, 0.5999097010487767, 0.19886837917994163, 0.13857119192884992, 0.13628895109318687, 0.38523598260069, -0.37728603636189545, -0.24836330725879568, -0.17287544505021443, 0.16079571171888832, 0.44328250629171556, 0.2150370128193752, 0.19231182981471537, 0.06489209494667478], [0.5736717692565683, -0.45413573657909934, 0.7868602576159536, -0.43732610290920226, 0.23037622488693277, -0.6846816552005226, 0.5857693229373394, -0.3705705308407183, 0.3103172575066134, -0.497548176412769, 0.6364039907913817, -0.13135861111930422, 0.7175252758093743, -0.018181573432311193, 0.338150121591771, -0.43530836104380866, 0.2801399740473036, -0.669708623638168, 0.37245827253020414, -0.4090667201331423, 0.33766128117294886, -0.7488377782959028, 0.7258919713236678, -0.1325504077246337, 0.43783734171952016, -0.21746289006573866, 0.14447227560503953, -0.6865299092296376, 0.4862197596579511, -0.46318186005913053, 0.35847670255012903, -0.3443165937020154, 0.6317362894651531, -0.5757179332548108, 0.3815226980296525, -0.23814623363022078, 0.4407928653842898, -0.38197186320713283, 0.36436076076367246, -0.8092401585062899, 0.2154162300712172, -0.37028313021653697, 0.662287324590262, -0.33490954500798986, 0.08854041010023012, -0.8870911826943104, 1.409020528218639, 1.4881094788573206, 0.6083311338589562, -0.3827267620910446, 0.32385403097463106, -0.5250685686056397, 0.45196372770024834, -0.4741433469881818, 0.22865863563377112, -0.7094587664699203, 1.093619878245541, 0.07293696039073962, -1.4144370936992199, -1.6733451864577666, 0.2410865628352676, -0.10166589353641266, 0.33271056800864673, -0.29919459314893065, 0.5580855758652764, -0.19014294085084832, 0.6026865535750678, 0.1788235061440205, 0.5147417017134914, -0.21944649394612442, 0.083194112100842, -0.5085731162661614, 0.2982762646586207, -0.6300159270419714, 0.5341116057115359, -0.49031223228574283, 0.04755569796660612, -1.3373614099733775, 1.0064029669010996, -0.07262266220501086, 0.9354520147540315, -0.25307579111220013, 0.848118505261238, 0.1769805131667243], [-0.2505868356885068, 0.41750348149178695, 0.23410360980644634, 0.4715928653474933, -0.28878592028188854, 0.18799397409940694, -0.16091383320782515, 0.25076163849215977, -0.6540966452620188, -0.1411032360677336, -0.337107708713993, 0.12116718239254086, 0.2587531757261633, 0.42239337148547873, 0.14609534352524217, -0.033962806569181395, -0.22487936363215336, 0.18790371759523555, -0.29372425237890715, -0.26666979384386014, -0.3575017402663634, -0.047756563888258295, -0.5648348937158055, 0.17272967470887898, -0.23437427950202494, 0.6116156164627345, -0.5863697127928973, 0.17124398279674863, 0.012771657795967409, 0.13177608022307696, -0.26087038115778577, 0.27342956472735885, -0.4480454684691414, -0.11094495747087309, -1.715862993520297, -0.3069010583670223, 0.051879079931789716, 0.23362612964235763, -0.6475883534595748, 0.0018996409598490143, -0.022550441335439802, 0.3336230214196225, -0.23512584664759473, 0.17228851754130106, -0.18889378504532167, -0.19018517576045926, 0.08035005830725417, -1.9436590237581843, -0.5167400959972049, 0.2766191230506609, -0.09464369684090808, 0.616115879103941, -0.5470735872538732, 0.051243546152158995, -0.6312488053721789, 0.2906862132923859, -0.9447658100416255, -0.5831038127937495, 0.27336276559017664, -2.077114291543537, -0.16939714430627253, 0.47240638025066123, -0.23807508429174426, 0.2647380606056857, -0.40978080721086446, 0.037681080842882034, -0.18647942359499917, 0.20783640982666451, -0.07932883157799735, 0.01322178036429031, -0.14982982719616214, -2.439566329093699, -0.2004961971719593, 0.40414067104043483, -0.09583814067635789, 0.29138894407644944, -0.17992005986922305, -0.22783056078142738, 0.14799609429812594, 0.2986753742841695, -0.2659409312990062, 0.03695276429365103, 0.46842183736955173, -1.8935548706654313], [-0.1430310214054888, 0.2839970102804373, 0.26482925203134416, -0.22401997255046877, 0.5062392887248485, 0.1109035386175464, -0.29014397614101195, 0.05848688793128966, 0.12418334244249819, -0.10723896604982673, -0.5492981099199761, -0.4822548347708627, 0.42217569489485385, 0.3546567017606589, 0.0002252871755959188, 0.6471091127392636, 0.20091056294217313, 0.5541329508039998, -0.6266153048431188, -0.4313343213649632, 0.27234192457302836, -0.7167213992890409, -0.7544792936080161, -0.25727421422375285, -0.07489762040927059, -0.31329616509180047, -0.2322071021074227, -0.12600618684493498, -0.17378013751606683, -0.8224139520343793, -0.6096305140893736, -0.1624374189604759, -0.25575936107561836, -1.3367331722075781, -0.20017659937877194, -0.9384699830435802, 0.07406304583113851, 0.40929094422509615, 0.03846246887438131, 0.3233946065357832, -0.6833399611425499, -0.022544238197865087, -0.907525600390845, -0.710220627053886, -1.0354909229570415, -0.24226856041363873, 0.20097019651908268, 0.1312207039716809, 0.581167174894859, 0.2390552148801408, -0.16503885237812033, -0.6391538768046479, 0.09022461132352375, -0.1537824527778999, -0.6294459284818027, 0.09863333762751884, 0.279738113253352, -0.4395657616470666, 0.057424469039256666, -0.24153130200882436, 0.038808725402883534, 0.006050983425675234, -0.182859835815905, 0.7596069954924156, 0.32137191514492663, -0.18329660753440877, -0.19921724745491176, -0.004226876777123284, 0.6799092738058561, -1.1478322531848957, 0.3415220502112842, -0.3120971658107933, -0.02774650299945078, 0.19648083725338783, 0.19884574409129707, 0.13491513456159748, 0.3998113199249252, 0.1498967642361121, -0.29057701095486405, -0.21591812645901481, -0.1738064133505763, -0.2816947648490137, -1.556614234395987, 0.07077778347803505], [0.3825934820933025, -0.6099532758999838, 0.4068124949341845, -0.4612972006197269, 0.4361088773084771, -0.4603243422491152, 0.39005774524166303, -0.3624747873717003, 0.3594335856059908, -0.5195738751020098, 0.39851487085414816, -0.5779246075732982, 0.44334352206328126, -0.4562041386174259, 0.5298740288742654, -0.5902950425279115, 0.600959282314437, -0.584995676129749, 0.36519946966957995, -0.5428803142171313, 0.26789543380577274, -0.5973094269739194, 0.37083786962811877, -0.5451992237430079, 0.6346683062897583, -0.42498151756938357, 0.36706254224602625, -0.5539887912749148, 0.4879989227178436, -0.5273052841602512, 0.34945063358174927, -0.6509726503038297, 0.45246270552675427, -0.5661090892943986, 0.3515139646530402, -0.6381612937457897, 0.6220727578531419, -0.14454058153910673, 0.4948518082702134, -0.6736066096269173, 0.4462824004125471, -0.6894867617402742, 0.3835144823791602, -0.8470417541814934, -0.13990457317321078, -1.2640878027209563, -0.6835892695007364, 1.2571621043838832, 0.40261833486708193, -0.5218737787619219, 0.5936664738212828, -0.40681375406470727, 0.48059104244249334, -0.45418393444753613, 0.203029664536168, -0.798496345267778, -1.0617311277664339, 0.579799462160218, 1.0828850144854205, 0.10090983816805218, 0.44600232179764887, -0.35824979979270016, 0.7042823703513893, -0.35043591267509283, 0.3895668770978372, -0.5869192451536437, -1.074170661015953, 0.7237022150564653, 1.920405869886206, 0.9049788392882818, -0.961405284902463, -1.8414632025012543, 0.3965642605926877, -0.3281609366394336, 0.5573613807602518, -0.49173014261007325, -1.010738260836565, 0.8731439493502833, 1.983628930678783, 1.018152467349431, 0.4518969912914254, -0.3555630033628538, -0.47219763189568975, -1.3910048637352497], [-0.13813042537550688, -0.26641594518925676, 0.12134505449471975, -0.14995648972201597, 0.8140641214702389, 0.019798339944093947, 0.32027767788939326, -0.6129780931156491, 0.3938833899625815, -0.08164658895879624, -0.050807127458420566, -0.9873903971142011, -0.17277315631181886, -0.30686674892073196, 0.045626082964125486, 0.14238390996634298, 0.1445711010516202, -0.374793738473137, 0.6435444683386866, -0.6863605455747674, 0.9290921640840617, 0.39787662856544537, 0.22731681164185957, -0.06827564607640121, 0.002703971198876832, -0.03503087985925345, 0.17133322788529612, 0.2762782005788267, 0.4295198065023096, -0.21473508221739712, 0.8790406031836625, -0.07501168114422906, 0.39800059978930213, 0.13136185198078248, 0.6715868083715962, 0.10541256557553912, 0.37390875496646186, -0.798193509625264, -0.2857495411389112, -0.07412885022951528, 0.33581495946055423, -0.41775749518391186, 0.4228478852070732, -0.4995335468578336, -0.20388716240837645, -0.7421240031252818, -0.21366438492138518, -0.44692304343668776, 0.8209407859264134, -0.4260615961068881, 0.045808340029369475, -0.3003016754064954, -0.19459112901061054, -0.1480131118352836, -0.3755032758535134, -0.3820330610963641, -0.051422614740106606, -0.4094224396245363, 0.7929307124309206, 0.25045295801196105, -0.42446604406251115, -0.7716560417177386, -0.014671917573328877, 0.6147566299087575, -0.5944473979389773, 0.514570580476613, -1.198669814722684, 0.021723964965189958, -0.3432443452064132, -0.36095835238401075, -0.6917294009599332, -1.3134806304850273, 0.3559584171976841, -0.4306663018877013, 0.3834432955865652, 0.13162397406140014, -0.005884627595761207, -0.42701139949167666, 0.21751835131794187, -0.32384441882479026, -0.23752683960017423, -0.48625276641268855, -0.06493548287718556, -0.25733037820707366], [-0.5561957628398964, 0.3307498346048663, -0.1803687865499276, 0.43944267265862386, -0.5406478668820164, 0.7218604502155224, -0.6116232342112222, 0.34354341820535245, -0.5306479260000239, 0.4384208487572047, -0.08187247050294794, 0.5684859582614465, -0.34420933871764064, 0.43015037637823017, -0.29567399432892205, -0.0007116405029813019, -0.6593004541252189, 0.34411148383074114, -0.5147790374744954, 0.3754982168064984, -0.3261535862385709, 0.7326382573550562, 0.6764571828352649, -0.6698278268274539, -0.5876350071699866, 0.5548540343182413, -0.3222171917484175, 0.06084717406074432, -0.7743172521964525, 0.30570419981927094, -0.3807221542788579, 0.7137684573235779, -0.6998395729009599, 0.2503726127965938, 1.5005655884254465, -0.9146650425055569, -0.33168731087404774, 0.3995202959830533, -0.39649646152167684, 0.014991520915459211, -0.27277937058522045, 0.5196002660498532, -0.6615715324332277, 0.3086135186538188, -0.7031154565325084, 0.4835619297147761, 1.265525209818694, -0.8657705927251378, -0.7406713297758184, 0.22169950319344323, -0.4138496593690175, 0.6457393501359322, -0.5689224551346779, 0.5701759823958666, -0.6098515964887228, 0.4325302043528645, -0.5093511177198379, 0.3965404860289727, 1.2419409814089655, 0.3196799148855058, -0.55107683787335, 0.455599054750551, -0.2302658916722141, 0.6351217286384997, -0.5885475830909805, 0.3008569878108866, -0.5397194572249765, 0.7327105528982051, -0.5892616854709827, 0.34205990539096515, -0.3629192506289335, 0.3072213445309667, -0.8402888725772404, 0.15254141073847122, -0.24246699510767158, 0.5166716423080461, -0.43880872339745075, 0.34656593171883543, -0.6068674484826027, 0.4746100711946091, -0.3582544682943459, 0.3760992023433893, -0.26417924525551695, 0.48273973315638424], [-0.3547923653541047, -0.6621836276784184, 0.039895594527178904, -0.9030245487983171, 0.15874085845868138, -1.3707922881503756, 0.9578559011182305, 0.21715358700340448, 0.40557500330426105, -0.4832755173095554, -0.09495809249947847, -0.6622973605638292, -0.21199499383956844, -0.2422005067028184, -0.016683894465356085, 0.4196192266480684, -0.2784806782920847, -0.5931028890118807, -0.6409834708034654, -0.005418998017462794, 0.05593565672689923, -0.02039934190292358, 0.6813569112654427, 1.0401207825051872, 0.3066904287173286, 0.27391572595787006, -0.5279227064157864, 0.026144225599482068, 0.41838480235847236, -0.257971207388346, 0.45420869628842014, -0.09607035119372019, -0.6189060619785675, -0.25338518527837156, 0.6507087191287267, 0.8824710582262646, 0.5734323602302354, -0.06482986290411984, 0.06196888043753634, 0.5987965157496847, 0.19804393185336716, 0.27488117731236444, -0.17593100732565595, -0.40598673074003194, 0.6301367300454029, 0.09481819937925673, -1.1523347043885015, -0.5284441971380173, 0.4559380036923962, -0.3289447607557833, 0.34965600541977715, 0.10531204690502718, 0.38342539173258633, 0.7075690513760569, -0.2091231443898715, -0.46026015941152554, 0.0006763770340958286, -0.15288296917436445, -0.8985700748664396, -1.1610157864546338, 0.46922047697642977, 0.2768445269880967, -0.2305394148361849, -0.14233582980405174, 0.35657330813952515, 0.1576766414303154, -0.3109771719344834, -0.067160690440945, -0.5081114844645559, -0.4031472423437303, -0.30980176951777816, -0.17389673183839832, 0.1647099622125828, -0.39197340490146304, 0.1264506269821745, 0.07885977669047474, -0.04079336984865811, -0.0681806777211955, 0.050047480375110656, -0.33009078126743785, -0.24324853885522307, -0.3683986459082259, -0.08283011445697108, -0.007551568009892659], [0.13060296967282792, 0.44841749373776074, 0.07231133064282176, -0.08932835798483915, -0.08479160613907587, -0.20679912450579432, 0.06876094248691826, -0.060283327530464476, -0.06595792499109691, -0.24145004307533696, 0.21316924766151893, 1.0083919858127204, -0.2396950151462592, -0.23435818260018026, -0.26554618314316686, -0.20512309997057163, 0.023726014864956377, -0.3855934434446405, 0.28078650986619513, 0.3073178431927749, -0.6456382147247776, -0.7481167807781774, 1.0565430754792886, -1.3178539583142377, 0.0696271153670852, 0.4919404879228741, -0.34138211819230635, -0.04931634265460547, 0.3201778092993075, -0.1493101764205993, -0.05296740546541193, -0.15702893274561933, -0.042906406481312734, -0.4985942925904887, -1.7635110089775932, 0.23000865099706158, 0.03205592079385438, -0.3976173887391102, -0.13291780049199906, -0.11524303099580666, -0.16333943851334407, -0.29295551606910725, 0.34588210687251375, -0.06423617420155996, -0.34415163378976044, -0.4158610180608876, -1.7318793089918514, 0.272040012067592, 0.2309141939088523, -0.04213041741245137, 0.48268674763274244, 0.17736598341806112, -0.02840075336073675, -0.5918049407642346, 0.27701579830205353, -0.3486614425272707, -0.16494028095744112, -0.21642785179213164, -1.367000669663458, 0.4645718846775399, 0.33909470215606613, -0.2941729531652006, -0.2626721575758422, -0.06521307402568813, 0.06731337516067334, -0.2694296777782322, 0.10674083395232513, -0.40940366676746265, -0.35878818809720453, -0.3847321208575881, 0.14009475082546288, -2.4685226589745533, -0.15290024179943515, 0.05333545418215762, 0.3055437998880512, 0.1887277887632508, -0.2796033751165521, -0.37077775384060463, 0.11287900375792083, -0.007963246591849504, 0.009946418346320497, -0.0645350382753274, -0.24124088206284622, 0.32213112182312276], [-0.00044873757080071084, -0.3254286333747256, -0.43550167054023126, -0.2798547352842198, 0.3342829398818232, -0.13513598119479178, -1.4202901500220517, 0.45276852622224073, -0.13513575290086943, 0.02378899921288449, -0.9465148213756185, -1.9264199185346833, 0.19946458003218945, 0.4616693794829782, -0.24396779397981566, -0.08292949383428605, -0.2295969362100822, 0.36775801379991985, -0.3661896332474529, 0.1693497742448386, 0.05782595983072316, -0.033158527217802665, 0.7103174470090468, -1.3590468079387212, -0.1675772845460147, 0.2168874848329573, -0.34946249730270756, 0.13505771949922463, -0.1568574648921258, 0.31352914646561886, -0.05336105638501251, 0.0695818110687315, -0.26182407961422244, -0.2881221669984676, 1.7240471458392106, -0.5817131638432487, -0.4370740334500673, -0.025396411732122676, -0.32304009037839004, 0.2886586047421033, 0.022318492258424888, -0.07367907506902875, -0.25920063497754586, 0.18441455127349698, -0.2857311932723124, -0.17318619876499244, 0.6461322920394066, -1.8167039172507418, -0.31196860669834786, -0.16649320177683322, 0.06923879429378635, 0.22551382368516262, 0.0958686274364072, 0.28313598097295656, -0.4274295424879383, 0.015399854240484545, -0.30516166212776946, -0.011791994587586528, 0.47618520670522513, 0.7262472829076092, 0.0001903557424180861, 0.02529875126263695, -0.24638181333210132, -0.03394494770494256, -0.0027523405533438515, 0.2796068179096627, -0.4294934242266202, -0.22106907689511715, -0.4716891634000222, 0.0855571600158934, 0.22606791568224266, 0.5278275441501682, -0.32896373270149487, 0.2549673650602757, 0.2504844593365276, 0.6777849361989776, -0.052503685314724456, 0.3232591812428657, -0.3523778517870106, 0.1375917288585147, -0.3819462577629033, 0.0427250263511852, -1.0291961159371734, -0.33591855348456257], [-0.020231863302645803, 0.19145307849071297, -0.20838736301999908, -0.07787744003716379, -0.10108366568186794, 0.12500921672111054, -0.098367395552754, -0.14615691325193203, 0.05800419519804214, 0.1311415869370854, -0.28237922594192405, -0.17113710636501098, 0.07883202184429924, -0.141027092165959, 0.06647076908097097, -0.04573692396202924, 0.005555462253470447, -0.07319537535203784, -0.06534912779963518, -0.2692540344016497, -0.15094758570355998, -0.16995830905735304, -0.263668354975468, -0.27252457192767426, -0.3924093672751063, -0.02699131091507036, -0.10371510799721821, -0.00985656251865344, 0.04777520655127831, 0.31811998174979733, -0.2894659930525215, -0.2458403928071678, -0.6106597274754367, -0.3337734972282681, 0.43288374602444507, 0.2693896409472107, -0.32206409289792703, -0.2580191880159998, -0.24179696305753223, -0.15588650314953048, -0.020167131877619468, -0.004210975557916477, 0.4049474248715387, 0.16314280029072753, 0.19288567225080147, 0.11039089728493902, -0.4224270106244298, -0.32788916239147387, 0.9725148858471117, 0.8454684189426721, 0.8423563677129882, 0.8734662957438434, 1.320098505837477, 1.7405895868846324, 1.114399490245801, 0.39184032164311805, -0.14966719136514986, -0.03292581959693281, 0.6065828236786469, 0.7270426355007297, 0.050081862975506874, -0.2410150492260935, 0.0637377893559268, 0.12944956307649177, 0.1732083225890701, -0.035375138680663096, 0.31504885823010936, 0.4264017117724428, 0.5264734026077925, 0.3486902558056279, -0.46113884067187527, -0.2566916148037822, 0.15664909879227681, 0.005040884371343353, -0.09657918168398127, -0.07821879725140427, 0.00564073599344582, 0.07837063689102357, -0.30979473535453605, -0.07016323348471137, 0.20971469410518884, 0.24953395488074834, -0.09469938876990007, -0.03500530037018788], [-0.26497623139753484, 0.09548776452162343, -0.0783411275461367, 0.3246386620564446, -0.07479934574245949, 0.2563048813710799, 0.019293486989367146, 0.3145556350944482, -0.21726818073389026, 0.13347443243480897, -0.2723823388311407, -0.1625794663039037, -0.2699272403344995, 0.23150280269198883, -0.03714957884225948, 0.4915070562632321, 0.22653642691802617, 0.4677206837681788, 0.1581413909113876, 0.27299825762989116, 0.08278959115787429, 0.5132535799867719, 0.43661311781082557, 0.8265281060204034, -0.5794954564181769, -0.37727865543659667, -0.8141435387087428, -0.3387066919146523, -0.6461471187002666, -0.9413260676375224, -2.05049363009739, -1.2185064228662281, -0.9346851088315763, -0.7011465683651368, -1.291345154068206, -1.2451142424835373, -0.2470281410450555, -0.11069485342922532, -0.17615920740958685, 0.2831093102052129, 0.05925533262096876, 0.2210195799270128, 0.22866015835021292, 0.42067729049288316, 0.2793535801982543, 0.4228372582050212, 1.4596900734111715, 1.7612021694318425, -0.09996494839337094, 0.2955011033813502, -0.2581965314404864, 0.11080081700275017, -0.6407858285003295, -0.16154244943078938, 0.0860522328857379, 0.3002095682122845, -0.20127079464727798, 0.4473335636124424, 0.5476657310869388, 0.7289976615171239, -0.320891306409645, 0.06622016954277797, -0.14234712399925553, 0.3256620803268143, -0.2704798258002186, 0.054687397809182074, 0.011909984319075955, 0.22497166842333363, -0.04795265250147005, 0.22948164803575047, 0.04788268576469671, 0.49152833238506577, -0.23099825993393272, 0.16246278141995882, -0.3587587589539617, 0.08295725367971854, -0.32072002499490143, -0.12794782121219891, -0.07263215919720876, 0.3838008992553979, 0.1171790488571017, 0.2455479834310404, -0.5569528122753523, -0.28298187295598703], [-0.45930211316360475, 0.014904822643883053, -0.5129440490152066, 0.19403801604133014, -0.0740306948839795, 0.26874033827353316, -0.42653437115608706, 0.17362932164738362, -0.012659188649811023, 0.42683967228833347, -0.32648669140148173, 0.1825353180500201, -0.1956920629234278, 0.2993120787971721, -0.3665173784005402, 0.13237530729482927, -0.38259995816843606, 0.020826919386839397, -0.3006438504515104, 0.3469474616672031, -0.19727901129626266, 0.32674617138976986, -0.24116860907940824, 0.0863478504326162, 0.08546526962804472, 0.571153376345679, -0.0792025734539093, 0.23910281455416013, -0.3460737922358074, 0.3471466331497138, -0.22815166805334927, 0.24417382741059207, -0.25440706656440565, 0.15061135560294503, -2.0809006747939085, 0.1487358793896879, -0.15171964919203507, 0.6421892184407151, -0.1641185453423265, 0.4870498022783698, -0.2635921814089925, 0.12723965659757502, -0.59271265266738, 0.1847402216567629, -0.5678608916565183, 0.21298721521868583, 1.4189312048030334, -2.079602516537483, -0.33473928647844164, 0.1608667176227827, -0.18367455434697816, 0.05510854682805747, -0.18605825730932815, 0.2825356444696107, -0.08425626942742594, 0.01721042281109266, -0.22549603692249467, 0.2913623084793407, 1.855523225706012, -1.6092888663055502, -0.14212668701583925, 0.22167064940965336, -0.08915400385752509, 0.19374103248230873, -0.247055589056561, 0.13164888785132497, -0.2625991025898491, 0.20390078651375546, -0.5400853805776499, 0.18861435208664634, 1.7842335421218807, -1.6141431600637541, -0.46280000483930517, 0.41047768409888574, -0.43698167423156453, 0.22116597327829324, 0.01118904938448865, 0.5221824075216458, -0.6860602856640683, -0.008579340696809047, -0.48188221673493375, 0.11590580825400972, 0.9875989579291162, -2.438119132325563], [0.16442381226276084, -0.00950020591087646, 0.19027197980351837, -0.03114932486171636, -0.409481259421721, 0.21104254367072847, 0.5042795195795535, -0.3445379663715565, -0.20748980203682274, 0.18732346390481489, -0.21170213342805688, 0.13086904976673316, 0.06891042992083461, 0.049640971276580716, -0.42200894897070546, 0.10309408118423358, -0.3569101699237457, 0.1532861572541491, 1.0769930448602967, -0.5527461118067065, -0.3790238679157683, -0.041468035749283656, -0.47645306125232256, 0.038903672477721175, -0.03995079175838323, 0.3875645652324364, -0.26725066849029533, 0.08255664065978265, -0.49528860316065004, 0.5790685963178872, 0.5550883444756465, -1.714388941818513, 1.2446674379529596, 1.8793935317324013, -1.0048015928803828, -0.9841280500155073, 0.16881890155027046, -0.05533013001099408, -0.25293346387537124, 0.3609268749680353, -0.5911949276622847, -0.1366125568871521, 0.8677588447223271, -1.5871893551508542, 1.0429205592464035, 1.3311602052483738, -0.9297351514359554, -0.8916410740849747, 0.2854269257358189, 0.24688203719052956, 0.27945146996825027, -0.18704836514725354, -0.5427456765263852, 0.6407695807434676, 0.8548965067391395, -0.06559787457507635, -0.6095558212437551, 0.0014593104158021324, -0.41752789344829916, -0.12968175724424555, -0.2679432741137516, 0.23620915382196053, -0.188163925286032, 0.2759987424312173, -0.15746213565815884, -0.011744388774045461, 0.3750899987433705, -0.030791315582106252, -0.5289679892448806, -0.16246502146530037, 0.01479793191720309, 0.4350499627250439, -0.5656121604344481, -0.22969503156324672, -0.23704678712933117, 0.10502981739891382, 0.06860972993835947, -0.055781121710495755, -0.40456725929558907, 0.11177941878267383, -0.06915082179285448, 0.031549951818749145, 0.004091545251990673, 0.17687892632370994], [-0.22940150072969712, 0.048084505947737034, 0.302199395678229, 0.1388985941744308, -0.3470600732714721, 0.4185155790892995, -0.3517257852369665, -0.25146894739834874, -0.3873817959709858, -0.28331375443255047, -0.12739044523366314, 0.12001425596537625, 0.05480498666990078, 0.05149109451720128, 0.0364608312020333, -0.19475676901419897, 0.13523965644563607, 0.032161392643314544, -0.779080066264865, -0.7620430050629085, -0.3375036085404139, -0.47559855642912896, 0.5289399295319203, 0.13956077199491757, -0.1412952231912219, 0.11134742093615796, -0.4023556452929851, 0.10119595172400114, 0.4324257653341508, 0.17639636247082774, -0.610354057856497, -0.07096880263520045, 0.015795432544556037, 0.08344827513984907, 0.4805933633913001, -0.2791658237810801, 0.09498585395900022, 0.6344500212314516, 0.03798415796264473, 0.28090214212705694, -0.6649554978673051, -0.13572360158250593, 0.0967659704741325, -0.8311034233240367, -0.9866022424802366, 0.20599351886197156, 0.8402520092181649, 0.9098459420412417, -0.07438877596870798, -0.34115012104389314, -0.09158992063855141, -0.5534134107519979, 0.22723899424052826, 0.1076409640288678, 0.04800784114139082, -0.5637000119565603, 0.030390902153813168, -1.2972119887894278, -0.3172057597264657, -0.3431023193080126, -0.12674665424151338, 0.5184778926911349, -0.008908501310672504, 0.10373196099173508, 0.14720681182992354, 0.926826447627764, -0.12461440557067296, -0.10657993597808879, -1.0318056505702766, 0.07423071486364052, -0.4699569745367556, -0.09452670374693507, -0.10608466345662926, 0.14308878690386867, -0.34437575878712906, -0.358672661738047, 0.05453537309235853, 0.33830683367310405, 0.0012033497555976637, 0.4632965453395192, -1.0539612221892667, -0.03838677353214712, -0.3189049254948274, 0.12006498713017501], [0.3628017745994729, -0.5819157849964163, 0.3440645545921798, -0.5441272042885676, 0.6245503569379771, -0.33148862101471793, 0.21947825681439398, -0.1860051145310785, 0.3548562292982635, -0.194514436831543, 0.45788262249649614, -0.49576159076048754, 0.1867063719618858, -0.8330134418564243, 0.3910536520755177, -0.24718249626653524, 0.7416538938177991, -0.31532884085257545, 0.0982173246206996, -0.05579188072324141, 0.5143160446210274, -0.4689201398661922, 0.27291754794808887, -0.9497656544632449, 0.7801321983181748, -0.3032027820524552, 0.6470920424995268, -0.6365012468182787, 0.23579425016745395, 0.13570055529117767, 0.31385016362326684, 0.022382103431988737, 0.29936176857214775, -1.1335214527899933, 0.1712037756170843, -0.5043204443865195, 0.3475567796144397, -0.35347861328263114, 0.38503240652071474, -0.26639967346789895, 0.8040639187198637, -0.4545889861297968, -0.0732992265117733, 0.3755842631826628, 0.6766005377746811, -0.30592231167321765, 0.6461121506580791, -0.31065487278487214, 0.5572391121985558, -0.19239478145217956, 0.3841986964295041, -0.7056256545812319, 1.0421831094537304, -0.6390558154831794, 1.1542210759462468, 0.9045003251316459, -1.726617567124704, -2.2497182708890318, 0.9782106533583613, 0.0116177730636281, 0.4325948988294641, -0.6508387817706415, 0.8477481599376833, -0.2488605219841078, 0.31000449652202283, -0.31566479263061487, 0.1169999025018258, -0.5387640309631886, 0.8407018879858095, -0.05626123255119121, 0.3962049315338129, -0.24548454204062428, 0.7798209732724377, -0.37754288308392164, 0.4268362697517037, -0.5722211116806265, 0.6632081722004506, -0.3931283847615264, 0.2864074700402678, -0.6105835147436174, 0.5300415665203837, -0.7039673815888685, 0.3476075227600668, -0.4241903128234153], [0.05779029385564536, -0.1810988781558031, 0.45095274154716325, -0.5559774812059445, 0.3460714466080201, -0.33516594563431495, 0.16165692089736686, -0.3122442122969671, 0.25805105884760027, 0.49243210058164655, -0.09499098665201497, -0.7017093922943723, 0.7946067820958235, -0.010471365527190213, 0.20214189633864502, -0.13147086882354075, 0.3122033504733846, -0.49299125352413425, 0.3302033896455783, -0.30363700344100364, -2.355385759578503, 0.7973236359576763, 1.9925579073796458, 1.3772101473539269, 0.22194912880227208, -0.08484317906483502, 0.26654015773181794, -0.19695579682458195, 0.29216059232614794, -0.3799751467424192, 0.36367145554537267, -0.4870702460378123, -2.184654176622744, 0.7353870665083534, 1.7246960165185927, 1.094003201975387, 0.3114075711509623, -0.23772790860114024, 0.24809040608849717, -0.30127338426987693, 0.3868193761654439, -0.5599843883913429, 0.35220050647034085, -0.6268677816715997, -2.18767727564666, 0.8251876526505486, 0.673808025024444, -0.03343690320320564, 0.4140405241562779, -0.17110370910526668, 0.07738135086816783, -0.3816044960923181, 0.14623556687263453, -0.37014992745680286, 0.08353203018176382, -0.41540122189201184, -0.2670050659914686, 0.7244117374006214, -0.06359988300118513, -0.7048435756832802, 0.3456850492747904, -0.3504274666956494, 0.2532615148904856, -0.31627250598580975, 0.4389342129944919, -0.34938846886244096, -0.01774530627113586, -0.511806276818053, 0.3975867363672269, -0.7296071734208781, -0.09793831166440618, -0.6411893112681548, 0.09744846324114775, -0.4888601476043887, 0.3473273680825492, -0.21629149811897247, 0.23535967342547068, -0.07904313124219643, 0.036636465199726506, -0.4493170795766412, 0.31483624981846076, -0.24767783250738934, 0.2351402035059474, -0.16343009668236405], [-0.23616547655293854, 0.16071820650273003, -0.29487487720282224, 0.18278357525151473, -0.19592100893500666, 0.31359288040119043, -0.4570729099876616, -7.179598535772877e-05, -0.28420509497331686, 0.16711228575198228, -0.4327466970140191, -0.056603374022970984, -0.2793142492922509, 0.45464300918039174, -0.12256122406942176, 0.4380661299239354, 1.2181210663270752, -1.5038384185197577, 1.5583198601140702, 2.034795322176978, -1.1636342690929669, -0.7422916937757277, -0.9161410068485712, -0.6503228113929105, -0.08107263011283704, 0.2537943509634219, -0.12502192765707937, 0.12424490172949774, -0.0971759519410318, 0.44576597861803186, 0.7454219593591658, -1.614849748568807, 1.2355757213472875, 1.6427409616450719, -1.6855759698558574, -1.3250714621980177, -0.12735980216744014, 0.23716391547185847, -0.28955338614274545, 0.20861730151497637, -0.5342957059040087, -0.01767627882154235, -0.7635362013727448, -0.08658399746390472, 1.1278516047915872, -1.474467553992687, -0.45259317099862395, -0.15077733702383517, -0.031466234771117, 0.2719741274897414, -0.14826997233030922, 0.15977915400275813, -0.14649694819890496, 0.22317866631219957, -0.4468884433853923, -0.04447979244880324, -0.46570255492367985, 0.0285369566007319, 0.9554846417997743, -1.805834154369907, -0.24336657360626554, 0.10185900263685839, -0.21748882877209832, 0.3123257361111518, -0.23765983193961904, 0.1160201658595099, -0.26416741980465186, 0.1681547876955117, -0.3501103454675222, -0.01698448119005939, -0.06361560125434579, 0.17798306594655783, -0.12557302133403336, 0.3996984946798137, -0.22123720143667272, 0.16121271752057223, -0.3005735383839088, 0.2542783772361219, -0.24710739209460078, -0.004614895197695621, -0.20353815432344538, 0.2092834694229383, -0.08769778027822199, 0.37417803089235935], [0.1127211805221666, 0.1889920266210154, 0.41111951875558767, 0.39926041520994704, 0.41609173439517055, -0.27679283269990035, -0.18700534758750492, -0.13945529630424244, 0.11661681077498341, -0.23151848935188465, -0.42074802934795275, -1.378145831541886, -0.03825784652633075, -0.0768050423122613, 0.07954980822891737, 0.2921483877011831, -0.3258884860495728, -0.4122488694233004, 0.6124498204887172, -1.244882774800025, -0.6369765701991086, -0.6362242033228518, 0.19756671265510575, -0.3626113183633245, 0.23171399455902386, 0.09521001527844562, 0.09735642785269252, 0.09349628546953286, 0.167992581606621, -0.5326456055648956, 0.40297849755667103, -0.350308268269378, -1.247306872601868, -0.7566298100354675, 0.020513272520375, -0.8911240234294093, 0.00858530126864764, -0.3131840633421165, 0.06176206173323224, -0.5128050300237956, -0.4637230163476117, -0.185601922915194, -0.5827241522960094, -0.560942776469832, -0.25189541823412115, -2.5355644250007154, -1.2137462610282774, 1.2506155790399955, -0.2094072113476617, 0.08547027803807228, -0.14024688554845988, -0.1542626635453119, 0.043203984468577435, -0.28408762205386534, 0.3911303829551479, -0.8884356562159473, -0.8495892172913349, -0.6807265930947941, -0.03120899209361611, -0.6953367921880392, -0.13709130306978806, -0.4703773480755525, 0.27221090398510944, 0.022609753996229914, -0.44714360919463064, -0.6292141315822973, 1.052860517300099, -0.9925856987957105, -0.8432347018410619, -0.4023593851679764, 0.47939089623249737, -0.12572755986716683, 0.1448909802366954, -0.1472968305504095, 0.01956549246878799, -0.08599472490600026, 0.0951777310615269, -0.5127240597341707, -0.7150164698782656, -0.6661472394768051, 0.29026280976244395, -0.6300702382765744, -0.16145583749228318, -0.8029352263896423], [0.6133950713487446, -0.3662079151805017, 0.5771181925066963, -0.6033950544810972, 0.3886070067785435, -0.49354972798294783, 0.5205528909833931, -0.449679966548202, 0.3094426094341754, -0.7010018198978245, 0.5392722098536886, -0.551300692480312, 0.18029046626560305, -0.5776128038354784, 0.6725119820976797, -0.48089456955367693, 0.5409082152679415, -0.5430668095005984, 0.4401762985265027, -0.4262706515677849, 0.34087008535843416, -0.7254830150263499, 0.39526185463193464, -0.5565905601640108, 0.7694386005140799, -0.42718319366553575, 0.27493589359355486, -0.787507756226131, 0.5406143047374641, -0.5184242581205765, 0.4512389601596405, -0.7456299453340096, 0.270422573930546, -0.6714537767011299, 0.7404015687076766, -0.4306226500296765, 0.40704254904493065, -0.5087705965857161, 0.6908836911550285, -0.38885011886372234, 0.3778245144066841, -0.8087458634208129, 0.5263137229576224, -0.8219048749246742, 0.253129621893371, -0.9216259218417753, 0.2172494786170697, -1.2253086870027041, 0.44379818652159825, -0.5006012861010732, 0.6022830207616053, -0.33049985052925684, 0.4433632525195182, -0.7358542605034898, 0.5640880504141229, -0.9413012827212107, 0.36746198593609253, -0.6617407030379069, 0.2928646601255113, -1.2115222604720328, -1.1099231495475221, -0.9930036334347554, -1.498719134264622, 0.7497270164540485, -3.2486710428049097, 1.1307434444367057, -1.7829429243804436, 2.115552419401273, -2.797808343990862, 0.7245890320654574, -2.3932318149721064, -1.3679692334074263, 0.2541262824273479, -0.497705220010255, 0.6844732442167101, -0.6306505197503149, 0.6365561959576701, -0.5672323087577109, 0.4409936841925791, -0.7124027814985111, 0.5536121796782503, -0.4505361330942395, 0.27342729624412776, -0.8987220426948201], [0.6363462972073299, -0.5037768657952922, 0.5480413997626602, -0.6938889247998924, 0.6850583291796332, -0.6675453422918897, 0.6961110578529237, -0.5311106304192565, 0.7533057612895824, -0.578528740799293, 0.5803089405920819, -0.7794338293070672, 0.5822161087312742, -0.838345874108815, 0.6262234875603419, -0.5797034747522077, 0.5763291339542959, -0.7845778654826857, 0.6596224917536803, -0.724922186799369, 0.7577011775681131, -0.6045440328977036, 0.5787861131520786, -0.8931499491528484, 0.6722767958378183, -0.676354571682912, 0.6063890966931572, -0.7896123811032268, 0.5887201700053076, -0.7604483181474391, 0.7052539987477752, -0.7672793831493798, 0.7644788324274479, -0.6750098205903821, 0.607028112280039, -0.7611932498104899, 0.6508313969555617, -0.7540288608086799, 0.8186666341206562, -0.7708099906824541, 0.7383959374448463, -0.8804623608444387, 0.6663150764344823, -1.0656620687798024, 0.5026745416808456, -1.2304952932360516, 0.8640116865148274, -0.5421866966465094, -2.4260397084035126, -0.8110699129332383, -2.010826261911767, 2.2827273663875682, -4.302580319743961, 1.2653445758727975, -3.0291645235904685, 2.2819824322656355, -2.0629622717265863, 0.0991005957970801, -1.0724738314714217, -0.8536099318982866, 0.7089822910870207, -0.5748530432211375, 0.8426191167198341, -0.6763730773917818, 0.7461737709410744, -0.8452741420244781, 0.7263228338734551, -1.0139215970479645, 0.8553328155707611, -0.8935528827277853, 0.6987236590949404, -0.6556843821403224, 0.7093270312355549, -0.8696939143022122, 0.7246375585840372, -0.7046673227104526, 0.7931524599689581, -0.625148425943608, 0.6948574215260517, -0.907356546087762, 0.8825805472354024, -0.6681851071953361, 0.5813764626255998, -0.9153130954958715], [-0.01977137326913467, 0.38665992578947156, 0.12488564409998498, 0.037012982739336585, 0.3378112362962147, 0.22033809257122958, 0.0936505287306307, -0.22553980994438583, -0.22589979556982479, -0.3481313146913921, 0.09902046618033307, -0.23797223154105376, 0.25381319983355727, 0.0651532068928357, -0.32772440181736595, -0.3268427585745088, -0.08732324604250649, 0.12377198278388418, -0.23626074455905122, -1.0501784435623116, 0.0543312489204766, 0.431346420690067, -0.05124270014578553, -0.2773948624362398, 0.19597264830902034, -0.20958271657378236, -0.03815828395419367, -0.051901342823472335, 0.322415012618845, 0.03296204712611413, 0.07534485005460298, -0.033733474321586986, -0.5308950715708859, 0.12104225220453606, 0.12521554577297017, 0.09826665892587251, 0.5339220563874832, -0.1553661806387359, -0.025285945843657308, 0.08409275870529033, -0.12345684583146384, -0.5906405016823015, -1.4561105630434492, -0.27589084640265527, 1.4161771763135516, -1.5162616922056842, 0.5543066156823253, 0.719213468195552, 0.20830944442216529, 0.7044084572200938, -0.5611030455810383, 0.18960227981234853, 0.2994050663763469, -0.3744678029857103, 0.15044134131725442, -0.14487011434365746, -0.4823163691260817, 0.4519014015098337, -0.0650290267496354, -0.2798208109123376, -0.07627052660762011, -0.026169250456534524, -0.3334584887493115, -0.9367193469321503, -0.6538912717936511, 0.09074666128868335, 0.41954334303404645, -0.1209932650222873, -0.44623285547657976, -0.16913907066395423, 0.5513613623553675, 0.012470087700954147, -0.05526144352005436, -0.215297545912492, 0.3782505088509098, -0.3768692687759885, -0.3448268589262155, -0.5547919683860976, 0.2115225401202964, -0.10364340775030029, -0.06890453270645021, -0.09304347402481067, 0.17893878538181562, 0.20027756557016538], [-0.3299952863258952, 0.4844484215975854, -0.3432043600045768, 0.19010007774454132, -0.20847116928905982, 0.5780985691204955, -0.5034985223622483, 0.7102075910190195, -0.45626887870156907, 0.3409274311487177, -0.395016618933942, 0.24709039804282112, -0.3027751884510219, 0.4105357203162256, -0.6615623378202653, 0.48799188196103815, -0.1997015026870022, 0.20445272246833343, -0.570717535648216, 0.6744425076022074, -0.4528371469821996, 0.10470461112875785, -0.6480195262224424, 0.42360509581107936, -0.40330077648238366, 0.12473102054924715, -0.4457241284858785, 0.2776148028322509, -0.7965327061606376, 0.38136228393551325, -0.2720233267367938, 0.7722235275521949, -0.3265108340464373, 0.3998761679355797, -0.891381271045882, -0.21440918972213002, 0.23351493928676137, 0.6060718116851184, -0.17369889888461432, 0.25718380260247703, -0.01190407283752514, 0.07163135873818297, -2.5727429196333835, 0.576515546198345, 1.9029490991705174, 2.221281470040648, -0.5143775814513172, 0.28728285522991703, -0.6353707591818681, 0.43179685610473284, -0.22153926480375802, 0.6132432107537632, -0.7755692454407118, 0.4013799036445352, -0.7663000287206837, 0.4422104494968772, -0.08464454773359194, 0.9678345959797716, -0.6376934651060543, 0.11919295510838737, -0.34519554818983583, 0.33389494456843094, -0.376992070775687, 0.5007182900390601, -0.16487563094791158, 0.45958770858352277, -0.5139564775232618, 0.6639080369289645, -0.47489004839108956, 0.1773322072498191, -0.2846832886949947, 0.7663657486133556, -0.5135861558003388, 0.24483221256589502, -0.34877897662972107, 0.4082051676952806, -0.6063786105410719, 0.2664152162101348, -0.42711923821025094, 0.5186672100554048, -0.3548677867233775, 0.43862721137550603, -0.4808755377418577, 0.31668553295242113], [-0.3688879359781505, 0.052077904431840225, 0.19555575033022235, -0.4085934336393597, -0.14358550643340653, 0.21753164760823482, -0.13360594632198028, 0.22008105338323353, -0.37183086437561313, -0.14546928214075092, -0.18757364940013913, 0.022664391317609354, -0.36535512126383235, 0.12305421145054585, -0.3006459562693086, 0.06071532583289285, -0.19784080055645298, 0.13636581707640574, -0.20076573987647225, 0.1683680280265891, -0.4538573124477108, -0.20774894937378063, -0.15485996784886055, 0.21795010657963473, -0.5219770223407624, 0.26838536339514546, -0.42508649423912254, -0.7627955615952987, -0.2762399001893042, 0.3000803100144728, -0.1709126851805463, 0.0083167663688617, -0.21374061605729272, -0.009193937466540751, -0.5497905916111488, -0.19414619528996913, 0.048854907642758724, 0.2801148064116264, -0.011160410464965048, -0.08335445595724678, -0.4158428800132505, 0.5685005937398899, 0.41266301100235214, 0.4000303740492549, 0.035161319226881045, 0.1149845240841962, 0.5976662098417684, 0.41477735546540795, 0.07344007118434168, 0.4169556874694596, 0.08077963917768893, 0.3377808036257479, -0.05489828113490012, 0.2167491090144101, -0.9001962668753679, 0.184398885845617, 0.07405580526702951, 0.04379811892235499, 0.1622493890142829, -0.08582218032807562, -0.3711396864271713, -0.3693684021328479, 0.036402044651375996, 0.17605007876822026, 0.06724309661833641, -0.29355509503862925, -0.1436949615495229, 0.20397508258827446, -0.24827780183525167, 0.9668157521798171, -0.1842550648068195, -0.39584337585959667, -0.8354211069686722, -0.05372669571350461, -0.288010964333894, 1.4039165226529158, -0.9517908459469083, 0.06734751691607482, -0.23304426983727408, -0.140004217227518, 0.23962466073114083, -0.1444303043094124, 0.7496053239043811, -1.7701197300565075], [-0.07144084254724227, 0.11180162489473872, 0.14889158488551968, 0.2929319179355133, -0.14781587281891995, 0.13209479971840168, -0.28246562374895295, -0.053206442722358166, -0.23025744940715814, 0.16194607013715823, -0.09532329606300162, 0.15551263469986146, -0.22267883534338512, 0.20490415648708207, 0.09177548084381582, 0.2770982622510946, -0.2974968837189379, 0.03393943481178996, -0.2883380821858249, 0.057552303115115576, -0.21648200925623454, -0.0013911014476898928, -0.18812998372263887, -0.04588844500427055, -0.40845137498290046, 0.1333241365520159, 0.06111149993208779, -0.02912346939231356, -0.2669996480277717, 0.03817557860230829, -0.5558786355695646, 0.3027733136741695, -0.2748234413501328, -0.18051042671197493, -0.2725172141062343, -0.013169291767563792, 0.058496904865978555, 0.05979556512316496, 0.03982273955624536, 0.13035804468878573, 1.0613852058084707, -1.3587995138055906, 1.7018873312634695, 2.0699958313970956, -0.14549051119564074, 0.11389323219521759, -1.1359554052710477, -0.840460898993201, -0.105564109416419, 0.0774038861964487, 0.10010843910589202, 0.2586102195386304, -0.44015007140625345, 0.10889638893850632, 1.2358090136734148, -1.2651224109210477, 0.22448490314573297, 0.594581945303106, -0.7486115529611198, -0.36515245967621224, -0.1896455791581715, 0.27358639334535695, -0.3461134518852778, 0.3613943132698775, -0.3883165787149395, 0.2972297259751334, -0.431356224299266, 0.0029807932356723144, 1.8909324675376429, -0.6017696540632634, -0.6382326083987343, -0.37302890630759955, -0.06366833235114396, 0.23132508460290008, -0.12291036662644722, 0.039664915525266485, -0.22606008566189606, 0.07773729371944517, -0.08669358942374575, 0.1755737382818019, -0.09977043703845893, 0.08665889854017868, 1.0585591326719739, -0.6357985545094056], [-0.060294930303747704, 0.17763238332662346, 0.26071481436491645, 0.12923245265524239, -0.10908746999624051, 0.011155829009999268, 0.056416520471943614, 0.1482818858980814, -0.08647645537231903, 0.031033693320276147, 0.11813353113220887, 0.21191539047526553, 0.08084079095399785, 0.050229528430402196, -0.11138597793637854, 0.08028619628430766, -0.05045079315420754, -0.2278521598483227, 0.23923721467217046, 0.19350986898405592, 0.2840464348726481, 0.3253386185473047, -0.22797033270320466, 0.04249343211693406, -0.48729140073131677, -0.40850298504385735, -0.9142106278011732, -0.23428358701713728, -0.5200280649437959, 0.3667672348850237, -0.19025724153079981, 0.34567343117697924, -0.026227591340702565, 0.0250678879940848, 1.912573805283466, 2.4712147300393053, -0.6123215304553055, -0.6799579753642927, -0.24197623535931984, -0.11027408103786991, -0.2586176525387609, -0.3067936476456773, -0.18521226946115385, -0.3507073493164936, -0.15742771173970313, -0.05519493653992991, 1.1844048760961574, 1.6193303535435706, 0.06972433562001086, 0.3325302906371447, -0.18685422687137568, 0.327581777909867, 0.00930114567080464, -0.1333277527920019, -0.0921455972790807, 0.009594821467152853, 0.06198205282497225, -0.008143487116580552, -0.1284033483318168, 0.22414638692965896, 0.19310694391142652, 0.3016446185563525, -0.29127639841874586, 0.1243299309065417, 0.07673360679110777, 0.3303892109566894, -0.5586332161044556, -0.3514977889830198, -0.3794234121525699, 0.1373838657102264, 0.4097673656150362, 0.5803507957294566, 0.1723219116239894, 0.24862083474836008, -0.2899820253444872, -0.055225816782875414, -0.06918308474198157, 0.10199636356764234, -0.06957919468607342, 0.12058528247559387, -0.0006180892889948022, 0.1431405951791525, -0.3326995808223802, -0.030442658956949437], [-0.1433318808223383, 0.21550642737819048, -0.5162009967851512, 0.5663202182104098, -0.6345063750015854, 0.44087886815467525, -0.4643423420504402, 0.5682271542021641, -0.6389793515098919, 0.5226140088608962, -0.28726840545927523, 0.6755878564058052, -0.12155457569967927, -0.4997266230229989, -0.10752171881560253, -1.3460823732777754, 0.9683091054455064, -2.4984833153393504, 1.5697543996120322, -1.770481368860797, 0.7618222268947327, -2.5157007060505183, 0.16672884378141992, -1.8552349164981365, -0.27356101920306025, 0.5518530175353653, -0.44840032706720223, 0.5555445819748461, -0.7048236194966745, 0.3852606062327463, -0.7086290717394709, 0.25949264895777674, -0.4525615517653388, 0.7019435107899806, -1.2131727716459897, -0.11649724724647849, -0.12671440566631317, 0.3624306187719266, -0.3922366024142941, 0.6525076859299628, -0.6107714886569341, 0.4683774699594274, -0.6441817522211218, 0.3250437072336636, -0.6280018341046224, 0.4284868543725122, -0.824299701887625, 0.16490446934857775, -0.5839062724102914, 0.6844357539051378, -0.6217281789154417, 0.3709118327808012, -0.3940783587366074, 0.6162836362841672, -0.7044363253906131, 0.150030683413945, -0.3532216762107472, 0.47675047606166276, -0.9642204221571062, 0.15916909553697225, -0.6647628315769819, 0.6668402766516551, -0.36944302563262615, 0.5908274395854902, -0.4022924981460129, 0.6187488100974918, -0.8737998590375724, 0.3667422466035089, -0.35005832491009625, 0.5678418367419148, -0.6423119159222739, 0.3390157900542228, -0.43806788045745954, 0.4928036256301689, -0.509002944617323, 0.625790337772772, -0.49268848415871797, 0.40262010139992416, -0.4599635497384199, 0.3866166138109866, -0.43184066886493894, 0.41859315860152013, -0.44863213036852784, 0.5121778104158604], [0.36914577532149423, -0.5819207850386208, 0.3339591539586118, -0.1748590362228825, 0.15587293795738874, -0.33791064452803876, 0.26287735972584847, -0.43057660321697333, -1.7976005866744869, 0.6492035250132006, 1.46371997030805, 0.7441614170076025, 0.24681305954839072, -0.3847206153971209, 0.14836181952859132, -0.2954993178191736, 0.38763508224614956, -0.2684118582531921, -0.06064330223812937, -0.4472953049392294, -1.5983153403289876, 0.43120633054047647, 1.1137096766263281, 0.4258797121173906, 0.4959300079184575, -0.37711566026744947, 0.3010718898853043, -0.4082436684980099, 0.35282680561072166, -0.3524743100864521, -0.0748390575310433, -0.7802444188356176, -1.2797705076518293, 0.48384677551210564, 1.014778950246334, 0.30556191722796167, 0.3988456505654209, -0.2486558198641782, 0.3326369430677048, -0.5023365694603228, 0.19661547219960346, -0.5538232282713782, 0.09464695529871253, -0.6584909424788173, -1.538494255761971, 0.16058813836701533, 0.4851219664595714, -0.12785547612007486, 0.2123793626135543, -0.25896701149141205, 0.2784493422022276, -0.43877185802541274, 0.418776623897121, -0.46704159374207516, 0.2741218983769938, -0.36739443761187407, 0.44182214358177146, -2.174639790317374, -0.2957905604220146, -0.9966731097714328, 0.3860156658672017, 0.049271027582049785, 0.05479519891394758, -0.3846316381291964, 0.4402565406491276, -0.23255616781558183, 0.16579168258129912, -0.35366284952041693, 0.1330063076491799, -0.3579053125662211, 0.19517069279294785, -0.40231152058158864, 0.5314853335142457, -0.10804254841231493, 0.35845862244390664, -0.522071937266978, 0.3479989824723891, -0.17592270851553812, 0.1413650461156914, -0.4030888584631365, 0.17532010441949353, -0.45729588351212713, 0.23305206619866375, -0.45460036793253045], [0.5467121961984053, -0.5121517987446019, 0.3105477964571215, -0.5500226291375712, 0.6115190668905187, -0.2013949032205468, 0.31964482464793, -0.4414599151990134, 0.5722327805651198, -0.4028538570360531, 0.5515833728494772, -0.1859991986919763, 0.22758701510213272, -0.21334756157915225, -0.07116233941023387, -0.6313639608534737, 0.7668349729786752, 0.012737343569277672, 0.33080770038694896, -0.6385688596455269, 0.2514299667033977, -0.6898560663370846, 0.6280197561135902, 0.14523851816208033, 0.12668333740139967, -0.7855671560962627, 0.6873665291573046, -0.4093137574725996, 0.3093004487962438, -0.9349468884437138, 0.31011166845683386, -0.7588464010961377, 0.7400159176763716, -0.4018836695808365, 2.512546441957054, 1.6643518933626988, 0.025662232303901883, -0.20929095456187763, 0.10329307748181528, -0.5684721252458026, 0.3702000155663297, -0.13161543564542283, 0.8475654295257353, -0.32315089019719057, 0.2516455321493829, -1.083052190715135, -0.3394773753329781, -0.37131554552337287, 0.47845904735703343, -0.09554777175533982, 0.1587468319693068, -0.47931750037128573, 0.3971508164141314, -0.6022392984466781, 0.32713886279647, -0.3221266898339856, 0.3345987747412189, -0.667506155088266, 0.47976179194652324, 0.1718217371316533, 0.37762618154034483, -0.2417808572115482, 0.6426136073215332, 0.33522036340592953, 0.6947947935754413, -0.31792108251497647, 0.18596601359627726, -0.6567426217692451, 0.4665325630637277, -0.309685813518007, 0.12613570762882154, -0.45500409540210784, 0.33900673108555385, -0.197965515006253, 0.47172603085664205, 0.036456479000378066, 0.45815189008711055, -0.3686806563554012, 0.17621848675906435, -0.5722255280246363, 0.0718206974265301, -0.6617584680571446, 0.17412561609770508, -0.8718774067036207], [0.11157373375880564, -0.04870177409734552, 0.024715975887401542, -0.3410781845226387, 0.2545387568582243, -0.07156148172296434, 0.22157388377191406, -0.19121407156810946, 0.06010478713723729, -0.26357848387045313, 0.34017235106819, -0.1525894102097557, 0.47452382462997145, -0.02437471001259722, 0.2802979343332409, -0.14422173999613302, 0.40873529594716834, 0.03188661240528506, 0.34735028280757924, 0.16882566894780307, 0.5539722320057854, 0.6252660866089106, -0.0377938218171063, -0.29264043073453516, 0.24250860811044342, 0.47056244818756476, 0.25551068752303174, -0.06332865116040262, 0.3912310300164834, -0.04663419633186922, 0.1095647247184646, 0.039994128825151416, -1.1078748252431763, -1.1560602978316001, 1.5226440496995324, 1.3845234158317157, 0.6742519524441283, 0.39409019696242936, 0.17163893276669154, -0.18839577992549658, 0.10013176283873924, 0.08004836924241267, -0.19189846731736085, 0.03083475523945139, 1.7901182365316555, 1.8915999776821684, -0.09528191650467077, -0.3711047951937439, -0.1735004998110275, -0.33563833960219647, -0.03397599869423648, -0.13262205174069025, 0.12114896781360592, -0.19891569310462656, -0.01102639224725101, -0.04651424493864469, 1.362589999363613, 1.231277304634891, -1.3846831283020253, -1.4760140368980894, 0.10500342774060337, -0.007449820068475631, 0.07955707023317202, -0.06779618551973514, 0.003107639950716057, 0.14677925646597453, 0.16869054393616176, -0.062424461225880204, 0.06766836332016425, -0.12276020413542421, 0.018536400527114062, -0.1742019155172605, 0.1354174558681693, -0.09127192632983099, 0.2530745656852326, 0.01859949219731053, 0.12540007851850493, -0.16472200769342848, 0.17522123110494928, -0.08110926419280066, 0.23286296919325486, -0.04492236012591636, 0.11702694677103107, -0.16148759945880573], [0.05457428950909376, 0.06364284288181346, 0.07264220678745605, -0.33128942377458465, 0.2914490055549208, -0.3548496041326542, -0.11188393626147716, -0.2681918931410135, 0.02322402899665879, -0.3367331333813144, 0.21283259512211103, -0.23580426922891118, 0.09282585538098047, -0.13886709573943992, -0.1147600040243676, 0.11862097447922523, 0.10391063010829282, -0.6117151901125341, 0.038003907260015776, -0.19869880454866512, 0.20063924398893127, -0.4128066564950714, 0.2976898500756758, -0.012393271962160174, -0.13665996999987629, -0.41474802486618373, 0.22807958106121917, -0.5127913532713009, -1.244662688447796, -0.6182486217409752, 0.4890014870703181, -0.4394366107843818, 0.8223033688250938, -0.1870332697637915, -0.04423863599425907, 0.03339552690984788, 0.1738676659971186, 0.044919859680008126, -0.16499454384565979, -0.3684295150210301, 0.2185333656824422, -0.8606783424549798, -1.4627999605826987, -0.581737419007333, 1.289444735922317, 0.739273495514147, -0.07882165485173381, -0.09539643575996848, 0.019464502545556334, 0.15541177501056738, -0.011494182229254935, -0.05088924443973783, 0.48528206151494424, -0.5691963446532845, 0.7062865032169273, 0.07097086426580036, 0.550923548605109, 1.4962253562974426, -1.4602512226559994, -1.9233773111994839, 0.022010929721689595, 0.3125750824129425, 0.28400736855124775, -0.3603222193035273, 0.2868710535662232, -0.19459065043883292, 0.5749818972097585, -0.15185586517801528, 0.0835286277483156, -0.5337458356413013, -0.24148036684958804, 0.46204711754291256, 0.272758893610863, -0.4601971635412942, 0.16192770730949443, -0.5891285677957758, 0.07428654842062063, -0.059208594612252335, 0.5897246344507435, -0.17713724525924912, 0.5709286000990599, -0.061612061903948814, -0.22111711603718487, -0.31540650913614793], [-0.3031287069266566, 0.35465379548832915, -0.07215548222139737, 0.23836183215041679, -0.46851678456295776, 0.32196266430777165, -0.3293853759363372, 0.28168572789181545, -0.4976732005415705, 0.35518955449405887, -0.1751484978869979, 0.4656686783950662, -0.5888948994598959, 0.42339483252221427, -0.5373141299273028, 0.4655639188656949, -0.7234953971973368, 0.18965588995007618, -0.372974017887148, 0.40054527513804955, -0.44466438526397506, 0.33894520839758796, -0.5140857674840338, 0.18338080987020383, -0.4714521157012198, 0.4925610368694172, -0.30642759753456844, 0.6369070609629802, -0.49816500626372134, 0.17025675071283597, -0.30260164365062137, 0.5545042611536931, -0.22948719794868758, -0.09079282531997955, -0.18403542658483119, 0.14291157630439494, -0.2326712383812645, 0.35329409181540145, -0.18401340535409247, 0.35805687506378914, -0.2232283849106254, 0.2892041151791592, 0.19247241472608914, 0.5101276930217218, 0.2061647100424926, 0.2007881689311003, -0.4931595274686139, 0.13825352741597127, -0.2653353020282126, 0.7127766044740232, 0.08961798165398707, 0.8015572516760902, 0.48474104259338385, 0.7858359553821667, 0.14167445027679318, 0.4349836912510681, 1.0752212085922523, 1.3595968225945616, -1.854250270565929, -1.2332728186189483, -0.582791486530706, -0.10434212621735227, -0.9789106552354104, -0.17411451827584198, -1.1231345092541534, -0.3034377754355108, -0.9886446350689027, 0.0789332390455509, -0.6831872246918145, -0.08994205422490655, 0.4926527138507772, 1.164306161933536, -0.24912914253819254, 0.3963232634403938, -0.1362494206169242, 0.37038331591531304, 0.1652708333068818, 0.5081591637798645, -0.25133507494675994, 0.38469132058070454, -0.2335316054921321, 0.44186260111473225, 0.18698987889115115, 0.6992998801718397], [-0.7367050604670471, 1.0905308729179883, -0.6311420878217122, 0.41722470915535503, -0.6770118128566125, 0.7990904582843842, -0.8133861328473452, 0.6382292098636554, -0.8526983421872714, 0.5056880327412899, -0.7834472543562652, 0.7133555388091802, -0.8846635499031764, -2.03484534021964, 1.6756863836122826, -1.253940930078355, 0.97906286110748, -3.254945225002561, 1.1589512018778207, -2.3509031808714047, -0.7776981562461279, -1.3897919925994224, -1.8699000711888667, -0.9607632585532827, -0.4145471333757004, 0.8419934255487219, -0.611039337900449, 0.48369742001157257, -0.6482029811099792, 0.7709707260906364, -0.6461491353801442, 0.6713528890361106, -0.676984775859612, 0.6141128645013589, -0.1902670894597296, 0.8351569507468818, -0.9519722706904645, 0.6874614787659884, -0.9002962717627853, 0.7532662195272782, -1.2015636084703984, 0.20392787452709887, -0.5156641844550814, 0.8484595456207459, -0.927729486021873, 0.7027383421770867, -0.8462597985226954, 0.18796135080083531, -0.5994183469519077, 0.7404845624874344, -0.5682097081117001, 0.8533520320023115, -0.7718374867591923, 0.8291561658512993, -0.8951384143010641, 0.6527134353667919, -0.763736139329406, 0.700870068536209, -0.2945266482990084, 0.978437640907258, -0.5719633725206876, 0.365815066820868, -0.6660252900409269, 0.5785803026487553, -0.4885418448382119, 0.7049333395797617, -0.6114715928259796, 0.7487264129577006, -0.7600040583218829, 0.6687560970161237, -0.6429781371299252, 0.766821345074987, -0.8101431847916192, 0.7810066709337943, -0.5483923336857832, 0.781208579197536, -0.7019829865629601, 0.6831831936822034, -0.6733417315174377, 0.6800271138546553, -0.7758445224250805, 0.7497944302045291, -1.0158053454698743, 0.5059425122145991], [-0.4656044398621648, -0.07617537666670407, -0.31140441879971786, -0.07368220570938866, -0.6678150131911144, -0.22019717465062624, -0.04346053588969718, 0.16973639297114906, 0.47262638449482447, -0.14048199324976404, 0.41543592385369293, 0.10188425389416297, 0.1830528218943509, -0.49251550352775103, 0.2443398524513326, 0.3344702582195777, 0.7752432834246296, -0.5412251076764905, 0.6662186231141171, -0.2129444797910509, 1.2422167203681627, 0.6518228488679645, -0.39293965758721605, -0.8426989011618324, 0.13357905020269045, -0.24398265352447496, 0.2925320314353259, 0.00014245207416761478, 0.5786376403302863, 0.3004400086138578, 0.14699390076077634, 0.2111439919594404, 0.6162391295495373, -0.1621618400204472, -0.24991487794900605, -0.4292007488670817, -0.5176951491541881, -0.6993143060786913, 0.1505851710895176, -0.1084850748638631, 0.3840095194160496, -0.21481397405955827, 0.31623717178367006, -0.23335459446776766, 0.3767673792254675, -0.32663984606832647, 0.6786787405254024, 0.41896158948284173, -0.2482602713374433, -0.34829815516143675, 0.04068531586521453, -0.399381928609781, -0.1777509319741341, -0.34612671126628825, 0.02006522418553348, -0.38630059779210785, 0.20980706154294357, -0.8210545959805082, -0.7532224082621216, -0.4987721263134128, 0.09980365745657484, -0.2721156110383177, 0.6482280585046545, -0.38151382974745984, 0.00190851621292606, -0.4760983396444806, 0.03369243328168612, -0.4216112818505643, -0.12184934537582658, -0.5914345603031853, 0.5282560308211447, 0.24679131203275798, 0.12468330039243634, 0.3248686797664717, 0.4406173575518505, -0.05210489078819743, 0.07753377419836217, 0.4173553526718215, 0.12743267736544617, -0.17095990214064877, -0.20351408516399266, -0.5240631122316265, -0.2790873098937048, -0.7458509367151833], [-0.22714698221486915, 0.10687929828684746, -0.20151808998202544, -0.24912008337355415, 0.1323756425018735, 0.32143683352299013, -0.054987420091420894, -0.5059417362723492, 0.1202417856230407, 0.010823720676454443, -0.1363422398882089, 0.4302828920400742, 0.21967095365320424, 0.37761015007304227, -0.21344498036078063, -0.42336980367569826, -0.03912239802440735, -0.15209582279817635, -0.21250356759665365, -0.17522562493397062, -0.4534573418395732, 0.46452382851049295, 0.1888914656780026, -0.028983655257185048, 0.339317455888619, -0.017017715785976422, -0.426042061623607, 0.3301140107607272, -0.13748821751690168, 0.2532633399057568, -0.5555580561544611, 0.27157627545100776, -0.07985829246516736, -0.6341407003890328, -0.3740356963692015, -0.2344383036199586, 0.15767672918274242, 0.07266081790831502, 0.36482761795684954, -0.24608290692919796, -1.2008675304830263, 0.8866858060221628, 0.9933834693253726, -0.5111346929694442, 0.3539714439278047, -0.4808319360322227, -0.10616846283463956, 0.2412273919414275, -0.2518830167436584, -0.1393377142760424, -0.22255759346968462, 0.5134464196562232, -0.6242260832044039, -0.04782691285289365, -0.059037080836141814, 0.3507880023160091, 0.4001962489240239, -0.017582407349548947, -0.4012214612166922, -0.4561622309908207, 0.017828388485611937, 0.21815387471929762, -0.19648559894972606, 0.1891334613089107, 0.03467048313581062, 0.13819452111654798, 0.36945877285900025, -0.3350455941621826, -0.22376799356268398, 0.6421314819602025, 0.014404027268299577, -0.14915045121344248, -0.18344487152908243, -0.15180045608387313, -0.22146110604553398, -0.10625494319917075, -0.21171945450368582, 0.41754094818437015, 0.18094270069763418, -0.37920200425108985, 0.3861632217248386, -0.09155295386461929, -0.3412311822532452, 0.44841928492562816], [0.08168454914354885, 0.14863864132293744, -0.22625195947519364, -0.2419953142200729, -0.03570905253177619, -0.2327576275362058, 0.21216510048102963, 0.18343875704914533, -0.18030564505864785, -0.07283835662560034, 1.0267308543933675, -2.6097220529677916, 0.199574797148991, 0.22110732828145868, -0.07263663109708092, 0.38580753977285454, -0.09432932954573019, -0.11752177462233337, -0.0013186180953552857, -0.007647806376621778, -0.40991230914702004, -0.1449983114043245, 0.9935484470768962, -1.9012275192638932, 0.3021164404493019, 0.2044244509804775, -0.11193930719965157, 0.3762412555726824, -0.1903097818777734, -0.2923841230323907, -0.12535248591328182, -0.13957292958905934, 0.019424618500728928, 0.21150795817526397, 0.4000453444881422, -2.0836533510788704, -0.06989892070437285, 0.20600423118734293, 0.10388372829622557, 0.33571902767555584, -0.4411934398024002, 0.03778485900262271, -0.5064218284286872, 0.03051701679148694, -0.5039236455165073, -0.3262805076130526, 1.2360262220746616, -1.1005837064136959, -0.16954121746960693, -0.013810943687001974, -0.10520465921037975, 0.08318288361211534, -0.08686211743447017, 0.16528962212713114, -0.14151771712811978, 0.00022607913438969646, -0.5286870358833284, -0.291093911358752, -2.127161157890351, -0.04707759806934953, -0.3695899427143205, 0.8736081500097275, -0.43529824824512914, 0.010302613870457151, -0.039406639821174996, 0.12165674188781499, -0.3573495291034154, -0.2612902117937832, -0.059964196199822815, 0.08213964744754927, -0.608396955239619, -0.2967240113751159, 0.3944842268729098, 0.2719714477630427, 0.010440912241996824, 0.27432161672818023, -0.19357443429185459, -0.08373039134088063, 0.07263470591051516, -0.04991076170048214, -0.2661495169718689, -0.05687562942779783, -0.1248860221826871, -0.0489758186746427], [0.41156343265869294, -0.3868289553431135, 0.4701891757089387, -0.6401944638311386, 0.7248987188514083, -0.23874983423664967, 0.4896175524449138, -0.4409961457230601, 0.3983238090534561, -0.6658982723911846, 0.3627084408764903, -0.6580490718398992, 0.4543324871493323, -0.5474602013757613, 0.3132678554027546, -0.45007580033071115, 0.7262598923877703, -0.4815745162972763, 0.3749918814227966, -0.6418142152531465, 0.26637452401945577, -0.5721114117086575, 0.38684113537378695, -0.6343767949672839, 0.8327974584593716, 0.04906141624186564, 0.4484822796177494, -0.6288598501291776, 0.48157797592189283, -0.5115877536391376, 0.22899190612244402, -0.5348426408174899, 0.49690751766335045, -0.4736801730838332, 0.20983802953554598, -0.8824655449909267, -0.9503487008572954, -0.5043427237027955, -1.9338479915001732, 0.29230437272875626, -3.4882151055000263, 1.481858911324213, -1.8377318681246577, 2.75969280095102, -3.955850748646155, 0.2149164547770402, -2.5342288067626972, -0.633270434268887, 0.4659835507174141, -0.37157208918488194, 0.3891872707909523, -0.6445558087544679, 0.5380843268247896, -0.5338995977294617, 0.35944961597746167, -0.8520017565912197, 0.5488391009541258, -0.3031120472114822, 0.004803286954162177, -0.9868941253963505, 0.39322026817097483, -0.5087739648283097, 0.6258266472005748, -0.495723841532596, 0.49976768795128873, -0.4674892103024368, 0.4452820597079302, -0.4854948769032634, 0.4968930309319865, -0.48048932362476693, 0.44190265974884513, -0.5471638548612624, 0.7106767014677343, -0.5318186505163829, 0.5301776290075383, -0.5759925290021884, 0.41284620528801064, -0.5631025148912713, 0.4596149669610882, -0.46719617915217115, 0.345775449613518, -0.5623994827068067, 0.6482505061368005, -0.3149721856971208], [-0.03963983008109587, -0.06534820668360694, 0.3770892350650518, -0.017013632306078677, 0.14316708456635094, 0.058095037096432954, 0.002743293168837434, -0.20825635364802506, -0.07319347340644464, -0.32549606062856284, 0.00841755238518118, -0.21739251069908214, 0.23567107636839932, -0.41533534037795167, 0.4952714956800547, -0.13503112403748177, 0.0981112343079538, -0.5322236161199307, -0.06694225535943474, -0.2674143118016736, 0.013824687086510554, -0.661668629465561, -0.02650512087360155, -0.5484448637374331, 0.5636939907382853, 0.37980734566472374, -0.09899424448760064, -0.6403446468362477, 0.20190877790749395, -0.12658845057712348, 0.14778021307249778, -0.26155096845712344, -0.2851042894560347, -0.6083757869028842, -0.2343990168903829, -0.5459066735888517, 0.17722855386111247, 0.03483419006710291, 0.12500223426112847, -0.07904568620290632, 0.3190836460812372, -0.3722098321338799, -0.25694362265539245, -0.940335094270065, -2.430967709307591, 1.024181604226371, 1.1123775610945439, 0.8401699066815996, 0.003538721880795383, -0.2743559844324169, -0.047936968648751584, -0.14137897919496675, 0.14985204535160565, -0.10600970626742982, 0.04520143183434678, -0.8184255403075255, -1.8864652744021608, 1.2725319308431406, 0.9420656609088887, 0.6457587786659638, 0.11291320774911454, 0.044443565498076376, 0.042109954061154545, -0.158639080553218, 0.18785033823091044, 0.07267842263069593, -0.13966123419161888, -0.4934454665532928, -1.7029269379946728, 1.316229278931668, 0.15527889208294113, -0.04961280414930271, 0.22170549079813515, 0.09197750917357084, -0.05850251243611659, -0.2453321398502436, -0.05296455087536054, -0.06228463071058093, 0.1915442669736682, -0.2857929974837675, -0.4764780094002732, -0.06020428332547643, 0.5102171260547581, 0.04475469678492556], [0.6284571059272479, -0.7636633792679328, 0.786973339022372, -0.7758897409206298, 0.8938348202791161, -0.7734645607850524, 0.7140760553317885, -0.7431259995638597, 0.7522415981435543, -0.7250504743027535, 0.4949544311605487, -0.9830041796614418, 0.6487104245094588, -0.5737660259770122, 0.6511736012237095, -0.6302372399933374, 0.7326797117648284, -0.8667889270634233, 0.6584076930692997, -0.741175500727707, 0.8350134894667952, -0.6810591724720252, 0.5953774556351239, -0.8795868845826758, 0.8322355476470744, -0.749263279909654, 0.6759076067324615, -0.7825783882823921, 0.6928689509853034, -0.6315776398311754, 0.7467292504848385, -0.8720420827946249, 0.5079537930399487, -1.1190564400739933, 1.3204686876850318, -0.16324708618800074, 0.9155818112286895, -0.8868765940117713, 0.5746827224135778, -0.846254359234073, 0.8797043346179524, -0.7520654398751262, 0.7534540701254663, -0.8241205708191068, 0.4673222097405912, -1.1115307402780965, 0.6127009354167867, -0.9649978733349078, 0.7756733457397754, -0.9424173424898104, 0.8415442503077055, -0.7069750203992894, 0.7406771650856439, -0.6145905261632364, 0.6176586807252398, -0.9423181244829476, 0.5069225325956784, -1.0083018731584268, 0.5770370886373751, -0.9925224286981776, 0.8695200441316487, -0.8068302242391313, 0.6895271448676694, -0.7701634576931933, 0.8167228185186456, -0.969898391409645, 0.5612947684777402, -1.0821780156334446, 0.76368815456108, -0.8345464051479972, 0.6016419407638701, -0.8756861623476562, -2.062209607808094, -1.1902476608346662, -1.7480716187089287, 1.9980451353092887, -4.19174678259659, 1.2049383972197272, -3.7326931297500665, 1.179608395504458, -1.937526804926212, 0.2835962528519596, -1.2164466729418366, -1.0280034017266075], [-0.6946762317622396, 0.8102400539731021, -1.0366401511127261, 0.77010559443439, -0.6160834669015511, 0.8406285745429464, -0.8419273965162508, 0.6113232097221278, -0.737857556888101, 0.8334373984623636, -0.8708733135569718, 0.4415269317231957, -0.66603532016151, 0.7625704736460089, -1.0693565558615492, 0.5982007563216455, -0.8072016843037613, 0.8335715987943333, -0.877889000786245, 0.5241747753065792, -0.7095065028555356, 0.682192831274742, -0.6508761958857548, 0.5182665489535518, -0.8257179343286508, 0.6168201153683935, -0.6545203673815262, 0.7929680209552863, -0.6997751803748964, 0.7822138519205787, -0.705259515906264, 0.6947106273674949, -0.8751024295837763, 0.5486987610454004, -0.6747682473692949, 0.7660458963354271, -0.829026919294874, 0.3173140787289802, -0.94919030513669, 0.7903831663858538, -0.8063732827551205, 0.563621310273414, -0.8531396317439816, 0.7872623878980525, -0.8030894092176195, 0.6367057326395572, -1.1753344589413386, 0.33058278420085535, -0.6883629892600193, 0.7185306443842432, -0.57714835741879, 0.5666378536697215, -0.9149955389140642, 0.8075834676922209, -1.0577287641881123, 0.5395060333480924, -1.0070675044006987, 0.5266915761280194, -0.8105499317394346, 0.45365020560938285, -0.3214364228283529, 