{"layers": [84, 128, 64, 7], "weights": [[[-0.0901708408058786, 0.6306883375721838, -0.47931536949433995, 0.5733997699101577, 0.22502726834214015, 0.7095436454904807, -0.3342691768038929, 0.02899968542583561, 0.1313207276342971, -0.3854591850725964, -0.5125544152534918, 0.699411262264546, 0.06243319334801788, 0.10964695747181848, 0.5224656481905164, -0.6948951876283616, -0.24935387720783153, 0.16772557036900548, -0.005515142690694052, -0.4786337069418766, 0.10097099183586003, 0.12724342712010078, 0.3856000794497902, 0.625817994115862, -0.09602040541741297, 0.27149438762097, -0.5342842152319245, 0.3036563766520506, -0.5306716426928696, -0.06402987609290345, -0.4447622615963456, 0.05737804242212622, -0.4218443944133867, 0.12402925016330894, 0.8916672732553604, 0.647990085578536, -0.4923651379288621, 0.056254029027157024, -0.07884896195988804, 0.12386906052496163, -0.16605964100305756, -0.30013032139990475, -0.2513695486268973, 0.33692592401403787, -0.7999379019638422, -0.23195891076837133, 0.28286133503631244, 0.4551423679027341, -0.5957852573142329, -0.4488770583035017, 0.5031444347734132, -0.6659644812302632, 0.18485476471361323, 0.03640627430218962, -0.4321721231526272, 0.3106255527187108, -0.34878400055502495, -0.36574385643148366, -1.8702324863502844, -0.24659045759363432, -0.20333510538512503, 0.6186952440131686, -0.15070960322904853, 0.046524904885811895, -0.18228381897073545, 0.14289396197313342, -0.5090537047549836, -0.07952067802498992, 0.026302422261765743, 0.153417458101272, -0.5624103111019811, -0.8713710307969015, -0.07766441099729479, 0.09863100828808367, -0.2896417924831477, 0.03655637381061289, -0.3257672111849683, 0.04005478130423206, 0.06169146083707676, 0.08984766165350279, 0.10846700200349892, 0.2669821235761898, -0.15999370198048868, -0.24375703205576496], [0.21031041835386619, 0.15604490039672445, 0.07536214713243608, -0.1382587474268626, 0.37081810350112354, 0.39288817709547313, 0.19247276866713867, 0.1820500583695781, 0.45754360358287105, 0.2913661258497377, 0.07936615060468126, -0.2606969154142535, -0.30394733620962816, -0.13860828262446925, -0.28397489815999705, -0.29030259943554737, -0.03555179421323928, -0.4087581784387222, -0.38708551290267335, -1.4910974551229106, -1.9354617897835524, -2.3542108453568162, -0.6209275955402896, -0.7127207904080841, 0.00979399599900778, 0.08226913148121738, -0.077843047882352, -0.21650846828928658, 0.2176831092814353, -0.005472151408711502, -0.26009188372222797, -0.2896097526851571, 1.40602362161135, 1.3524164217077412, 1.3357323991219354, 1.1429108949451494, 0.12385900624678622, -0.00829154661757936, -0.24970682715951492, -0.2553434700131274, 0.2540386953524231, -0.08899811779900127, 0.02580495165335178, -0.15720736344729822, 0.46584589060151893, 0.12483979249871374, 1.3158869091371534, 1.0643133995968315, 0.14008362112641956, -0.1163974040139877, 0.35549246153240666, 0.10092011928557111, 0.11056953191346013, -0.20011568778857014, 0.12762852701274338, -0.06963512478821543, 0.060600783255856695, -0.26475083555718243, 0.13779100798004612, 0.007216044810652164, 0.3422116319025539, -0.08085443193240034, -0.0622143986936307, -0.17752793735897934, 0.13034022158906014, -0.21334169304387052, -0.051857963070685166, -0.3388728246445934, 0.18170269558054314, 0.09482181041261553, -0.05931854857257831, -0.24117017529618417, 0.041686000143937744, -0.04006769629706287, -0.1299443927629627, -0.21194593306384202, 0.27810637611799205, 0.023047729391615455, 0.03876733925897287, -0.10629250413649562, 0.06487801359091745, -0.13580001536998232, -0.07919210610082728, -0.19267203943478148], [0.5970424971186129, -0.23861009626902915, 0.18939593509251398, -0.1580809950571792, 0.2754008526718359, -0.1024267379655743, 0.1852087789837413, -0.33144821286205445, 0.15838867776503165, -0.2357213948646234, 0.1026330185420313, -0.34035903972349923, 0.3121377404744499, -0.5282461117988434, 0.21646866930342565, -0.19941640935530827, 0.33006064568133686, -0.5793708508577281, -0.02871438330618452, -0.30042500701842545, 0.004046774644686008, -0.3235412563325256, 0.2106610675627793, -0.32098756499274805, 0.9024401187607388, 0.14442612933580204, 0.058064541724596304, -0.3701807816214102, 0.1614599943158691, -0.22969941601169908, -0.09478914060104421, -0.5387573673097409, 0.5227967146822119, -2.4182400085146143, -0.2055353183178012, -0.6509453121210531, 0.21897126419823398, -0.37960550130741316, 0.27987108077223466, -0.006996761059709751, 0.2212815147224323, -0.5692419179946946, -0.029126259846122195, -0.6353977341628085, -1.721207068492663, 0.8848947205530747, 0.5106781749534418, 0.023482412503061795, 0.42795869197184816, -0.24800897008226808, 0.007044401653561658, -0.3305837481287318, 0.20519725322981708, -0.07114485539943667, 0.08794520301132362, -0.43937186137559986, -1.949183553431877, 0.98458690784773, 0.6637608386158635, 0.03141796807686553, 0.44922045766633517, -0.27383001298475723, 0.1286710635259724, -0.45006382143850326, 0.21570858742256113, 0.05299043913410191, -0.007004661478871466, -0.22462220266152613, -1.4764232732797333, 1.0369532300731843, 0.1788532147791755, -0.10513592970553198, 0.15740746622807308, 0.2704085899356279, 0.16078036029448003, -0.5361226878711223, 0.072877697340304, -0.3267614020225708, 0.19046615783838627, -0.337685808219888, 0.23842754634155794, -2.8141792982106635, 0.22598751658160868, -0.22118511294755963], [0.6581867808879714, -0.7050605878671438, 0.4634425530747549, -0.6444374882664551, 0.6118031305154594, -0.4107422111275413, 0.46883672534159954, -0.5264685766560072, 0.4874945901925663, -0.4604244855712967, 0.26666724879121334, 0.32294301775900014, 0.46418725958684315, -0.9324452094765205, 0.5203724792562112, -0.03452203572051549, 0.6907435501022703, -0.4207724657554532, 0.33530004580635114, -0.5747618691421443, 0.7976352061652421, -0.2792989522104364, -0.6045935450866017, 0.6802079856770448, 1.040818275856994, -0.5297597208072216, 0.3171543157883439, -0.45948858147607463, 0.5087571588781616, -0.5284938598002639, 0.5386110165807314, -0.676442533897839, 0.24098299001447637, -1.024579288242416, -2.374963461577824, 1.2870279646528417, 0.9554396229661115, -0.6329086105054677, 0.6286184696875698, -0.8153070495247484, 0.48110075074950515, -0.8581836404651508, 0.44396721343213563, -0.8186670852406102, 0.34281525767109805, -1.0960539204075364, -1.8093401808232465, 1.37867489620177, 0.43090015470115095, -0.29367244581317675, 0.6155300021180908, -0.28255103564279016, 0.3583486840244453, -0.7911242818136184, 0.24368488744617142, -0.8733804547645664, 0.4555893875725336, -0.5633697093824782, 0.1682207154835158, 1.5251742037736746, 0.5215442085096103, -0.9246770816596573, 0.6030841014892067, -0.19717211844266574, 0.5889072165528213, -0.5541023233946819, 0.41660003685578206, -0.7237231439043627, 0.39645516971709654, -0.778713350592157, 0.35308832054159234, -0.8877459101279137, 0.6200572179847262, -0.2008676638015172, 0.5652631242603867, -0.7028683997006995, 0.2547770489595986, -0.8708986950617849, 0.6792921475064079, -0.3232081654147658, 0.23827627044620578, -0.7819815144921864, 0.39260185949058707, -0.7647758031660614], [-0.23889806262595928, 0.34427413097942966, -0.266419484060726, 0.22793833111755432, -0.213748295852354, 0.6041475116210375, -0.5112761799783672, 0.26652436101883475, -0.4284866368007263, 0.3915964271422256, -0.7553178261962418, 0.5365748698553446, 0.036510940799657464, 0.42026016987030085, -0.4212611842951888, 0.5300625929088438, -0.31930307075502284, 0.1357360784016948, -0.4530373723130826, 0.35850671495296715, -0.273809540458003, 0.5075396595658257, -0.9692164762343478, 0.05756793973810873, -0.12699029263352551, 0.6491379103125376, -0.6377693158549094, 0.5762492886647889, -0.08597027348512387, 0.7284351088935805, -0.8655946508862005, 0.40203955876258746, -0.697647726835258, -0.0029961639717960547, -0.9621063360189553, 0.26939776559409334, -0.6699187908848273, -2.3812845193107903, 1.9560223682409608, -2.435086437546149, 1.7069105106409184, -2.905844270983629, 2.2784820114520996, -2.485502703904542, -0.3405250703166873, -2.8125629326352235, -0.4574838058395997, -0.6294233298475582, -0.29704017682095285, 0.8250562873576875, -0.5421608995601229, 0.5105867171121016, -0.4151250353068269, 0.33146854832414735, -0.7490018077807143, 0.4450609501044537, -0.36905373105365075, 0.3412043845433026, -1.035160370218952, 0.14185232786354923, -0.6020119220002385, 0.39606455163302223, -0.3904304595357618, 0.3586559209354785, -0.35152785912281687, 0.2667081472414007, -0.4474664945085556, 0.4289001349844072, -0.3484054253257547, 0.43044241538879313, -0.7082716442521484, 0.4087247032613259, -0.3329592625556296, 0.16210369423690804, -0.39430647416137377, 0.2802481178668452, -0.2513088253569564, 0.46432475665988077, -0.3210872991032196, 0.3099857719653443, -0.390971150599373, 0.3832708034435938, -0.8076141876805977, 0.39759775625524857], [0.1508421394217404, -0.08088267885037374, 0.14398183948399348, -0.18351921687812747, 0.25847423285861004, -0.20418626587177652, 0.004578081725103914, -0.20831119971923473, 0.2701181766922815, -0.1017692832964956, 0.08379842138113619, -0.42387249765180635, 0.4309551944822002, 0.06478856623484622, 0.03763218828786389, -0.18277246551407506, 0.3361299831888637, -0.1527307297562888, 0.20259595048543205, -0.5576836304136944, -0.1428649236512811, -0.6117467813497488, -0.22835401697198532, 0.4687813802462768, 0.4389561401097415, -0.5075038145901503, 0.445983427112361, -0.24560836765827038, 0.2775143714269575, 0.07294050988722443, -0.007577244683520915, -0.4375150627158239, -0.458706900570583, 0.8558574284623154, -0.7361543792253736, -1.2005236165179778, 0.48382091438501695, -0.07118851014523435, 0.257125554188073, -0.19413793606681104, -0.23135005496810257, -0.9013172089334259, 0.8057424071515333, 2.1754839750684956, -0.263381873982942, -1.0223617812055825, -0.5880388516746822, -1.1717585982137235, 0.01544089267842216, -0.23300082824593404, 0.4832061687734204, -0.018286614347264647, -0.4758963276293411, 0.433477503604073, 2.0833442216181446, 1.167598021645845, -0.6828807593529738, -0.907402876945132, 0.20052237309699109, -0.19132280630042808, 0.17839216729212287, 0.03784162585239783, 0.06606870826582463, 0.21534797270005474, 0.4298660637267765, -0.12997894224323694, -0.14872160910311652, -0.44247887488801596, 0.6510519704000756, -0.3197844881084458, 0.15415254999688024, -0.05871398955526383, 0.20126625632965278, -0.09313831500661564, 0.15342891538081502, -0.2680390515146854, 0.1442055341277353, -0.40669825113103925, 0.04684664905509281, -0.3628297759112261, 0.2506253032921738, -0.04510630376296422, 0.05224271492000141, -0.49502267133134725], [0.2025701489968785, -0.24925568675496565, 0.16514696295962447, -0.12716293571246198, 0.22334600095063056, -0.02122553768219332, -0.059377709449483805, -0.18795989991671286, 0.12255947021807162, -0.1909633486713527, 0.19331160295547833, -0.15445317932132072, 0.03040588165647841, 0.1100598391923294, 0.3130120232821931, 0.008261868831305171, -0.06475811375974978, -0.30478833915299597, -0.03204006023656124, -0.053519525230813124, -0.06900174691782388, -0.27803894838667925, 0.35420246523328336, -0.5037701627499335, 0.31623130983749803, -0.36639416895039134, 0.049530318492822065, 0.040735595241718936, 0.08078799247092036, -0.4171753443938513, -0.15121817229907672, -0.4017798546068021, 0.3600262408270076, -0.00984549271600554, 0.8513697898990074, -1.3194049031252661, -0.3781810255430007, -0.15758527907034206, 0.03786985602706616, -0.410431980165432, 0.2523204970845816, 0.05124931543289531, 0.28532215320126636, -0.019613970797397108, -0.15070467982659966, -0.8139773764601257, -1.6196034071216963, 0.3855731289046758, 0.4188038340484757, -0.2975247963835066, -0.3474839901255845, 0.5537613782638912, 0.010785442840864919, 0.05760418139937865, -0.7676550542083234, -0.9736517905378461, -0.1579008277728688, -0.08678345792541792, 0.16325653081450286, -1.377402057578696, -0.3262060720144279, 0.4917685861670315, -0.1570569347889578, -0.020119537276031014, 0.08578436374166896, -0.4175197568810684, 0.39973453051632246, 0.10482045938543853, -0.31023473111370486, -0.7335956609226973, 0.7823643910442626, -0.822862047878203, 0.05356024854609875, 0.15466824262748868, -0.04590318043052366, -0.5310106586942637, 0.040616814723009355, -0.2895197557935281, 0.43901466467066674, 0.01572366478173243, -0.16493548147512477, -0.29730804179071263, 0.5681006009230537, -1.1742158229815325], [0.14583968626089755, -0.024246460842626376, 0.15465608038797166, -0.042461524627246304, 0.33928386615741346, -0.7551166401432331, -0.026274903975436047, -0.20012048703077295, -0.10830987942032318, 0.20796870655651928, 0.06495507269161027, -0.021428647071965467, -0.48970115331747055, -0.140506933555554, -0.2882766200162601, -0.03391819430289053, 0.1198823479552534, -0.1498899817362339, 0.26352296731078156, 0.17415346435335988, -0.26738802805396283, -0.37955381290523926, -0.5853328451661186, 0.8382303412483161, -0.015987707105137975, -0.1283370443521469, -0.6615506432339259, -0.21003387714605956, -0.9151279943209581, 0.19027762407524093, -0.42237439695299656, -0.04709466173291102, -0.37341130359614677, -0.052849045214025864, -0.85357429478571, 0.362509286006739, 0.03159464875349928, -0.07587381971188911, 0.28036161656768, 0.03173210817556682, 0.20211920162325753, 0.2148600714913489, -0.5010196771058516, 0.08969016220721965, -0.6586243267659012, -0.771576312983642, 0.7196271237867818, -1.986036937074892, 0.40368836597187063, -0.41259267623954765, 0.2096049942420763, -0.33841984562043204, -0.8864888006202427, 0.6302480385056117, -0.05652552222344732, -0.41048164132831694, -0.1914479739345095, -0.5422647703932434, -0.8403053990072313, -0.1614579125485311, 0.3354883546193815, -0.17105933621520023, -0.28699877635588494, -0.17680038486143923, -0.016638271282905796, -0.18560209674946188, 0.13541206325374505, -0.008715072656780355, -0.3440209553056218, -0.3446291349289509, -0.6517814853569722, 0.12481637393899835, 0.08549632174965986, -0.33610701709642177, 0.5299955452677348, -0.5049239021537194, -0.35543382848619665, -0.41993051039657886, 0.1846975459386368, -0.2721507751106538, -0.09553404950532889, -0.12588167439394082, 0.18335876202192614, 0.04611560647395786], [-0.9013835648841886, 0.6465386764208269, -0.6111856966175344, 0.8261385151302013, -0.8414973381317871, 0.814590106233821, -0.5881623950587883, 0.8730690658754949, -0.7649623616316014, 0.8192865459156292, -0.5991991930897211, 0.655265992029609, -0.8048539199872161, 0.5898688326870122, -0.6787322540626457, 0.548110510699267, -0.7514426141172682, 0.930002153176528, -0.24018716389590722, 0.9723841917880711, -0.6265308914566897, 1.0208819761746684, -0.63441094061601, 0.5334040243577386, -0.753502687699342, 0.7420690338653171, -0.7446437026460672, 0.6665905670201749, -0.6915952545150025, 0.7166790348050458, -0.683721037817369, 0.793073748607862, -0.7611805163031081, 1.105244399047011, 0.05821153570078074, 0.9374959871590862, -1.101236743631434, -0.6953821535748786, 0.3165231462160352, -1.1302571825829053, 0.3073651341994735, -1.275256115359424, 1.784733604850911, 0.24950758974912432, -0.6359052922594463, 0.5430400672247903, -2.6716052510033106, -1.684881599223277, -0.6147480474341989, 0.5243218156962577, -0.9313499489230517, 0.699563311863681, -0.6543465417368242, 0.6613363357861793, -1.1010144698733872, 0.6178107509847426, -0.3216242193095766, 1.3309230040510827, 0.4357086836383848, 1.2376433976237773, -0.5233796379783862, 0.30475483969195805, -0.8782911640373677, 0.8324771920213772, -0.473673771851601, 0.9862591578228113, -0.3772369967098025, 0.7243914631105961, -1.1440169355330505, 1.017425294036329, -0.16896279583870685, 0.5333943889296183, -0.84959331297723, 0.838421319639672, -1.0166941702413534, 0.4021579390183729, -0.5246884104547921, 0.7163666544750349, -0.4829827302597262, 0.8696186361334011, -0.6574282931838218, 0.6308032659365072, -0.4239500889106692, 0.8443666894731306], [-0.1811626255650177, 0.573906010120633, 0.45138921807889487, -0.5238650632704058, -0.32330620644126173, -0.04081719609067646, 0.2849167036786977, -0.1757812730049451, -0.028030155016860174, -0.44877451321314565, 0.1363772651333276, -0.36128247105581535, 0.10999869521813899, -0.7545324673245011, -0.03557444042193882, -0.21696582857643923, -0.6100457493401674, 0.13813400117432298, -0.06920765943084634, 0.05724698574590309, -0.05752920602439598, -0.23324614759382797, -0.786925499619543, -0.9917769244898166, 0.005209548928761789, -0.3720572682398939, 0.17405460135568523, -0.631939529019141, 0.7054315076803913, -0.43659663397302745, 0.024046482596393578, -0.610101136197274, -0.6499440404314414, -0.998130625378979, -0.40237213782408127, 0.24239815797817907, 0.9368085091485113, 0.6506887880608991, 0.09547295664708182, 0.11506232654248859, 0.022931666543880125, 0.4027100532205017, 0.06685911033572879, -0.7995656299521158, -0.47936778319342105, -0.6258848348936604, 0.06949657942305412, 1.0901733526153665, -0.43944070498225934, -0.07292332196519737, 0.5322802215339845, -0.4752580731868367, -0.3158975145061226, -0.5393725178267506, 0.11465222538249885, 0.0037183954768542212, -0.39307783890770553, 0.12725572133106947, 0.9702239327369548, 0.5067987311495181, 0.24785465233250126, -0.4131354984675868, 0.3370395060688809, -0.16639337657339653, 0.19567701681683022, -0.13456606826107848, 0.12215518437736983, 0.3952157936970365, -0.14562909649446384, -1.1549544769014888, 0.4367075238388204, -0.3031338777946507, 0.011446843725831764, -0.23449845259301075, 0.12404822011464718, -0.2903579278943232, -1.0787750195979204, -0.1431405992194165, 0.287201604143683, 0.2985652522592079, 0.40653462930657963, -0.1695105731690147, 0.3085649775753325, 0.0903545144271606], [-0.440320173529328, 0.21919473054630417, -0.33864073733747585, 0.4258309888003218, 1.41478858939788, -1.6347983269272073, 1.5283148945946035, 2.133563162025403, -0.296596287982379, 0.485643235187471, -0.9153277161019286, -0.4639028867661374, -0.5400937564494743, 0.2662425236382355, -0.4331881273576394, 0.21989541420617156, -0.33923724996633486, 0.4259112154303956, 1.1105273594114822, -1.7878046932294713, 0.8245445202564814, 1.5712397194580596, -1.1057054523897023, -0.36019094770831567, -0.436863942122032, 0.26781392433190404, -0.33239503570792206, 0.46890956320672306, -0.551002050881258, 0.23803985201565103, -0.7297267580668053, 0.206036371754262, 1.1376116727807453, -1.4651916029135674, -0.26475224304251527, 0.44009418979286363, -0.42090592742117566, 0.4395352767900802, -0.47313948226238045, 0.5058339945513924, -0.5589448224515253, 0.08690171400339569, -0.6639254488789833, 0.13959108837650788, -0.9637657630001705, -0.18533754485155587, 1.2328325232637312, -1.5810558649610467, -0.11076133955680922, 0.4255575578690961, -0.1321263738890586, 0.28852220876540013, -0.6977942999907937, 0.09589537292962666, -0.33168130888789743, 0.18673310756941386, -0.49419441815285925, 0.255744175365171, -0.7124194626272589, -0.06511445685166733, -0.483263037073382, 0.326325055038049, -0.42387161629746195, 0.39554171742948746, -0.23105964176915736, 0.2966460117593769, -0.5067949799428382, 0.18403339107577874, -0.16395512451362357, 0.49507004484101624, -0.6979040699087942, -0.14050736076722734, -0.145972365998816, 0.2704705965346947, -0.26716072887367465, 0.15040829259588825, -0.310068802466955, 0.1295134694703126, -0.1948707081645964, 0.3085168739471878, -0.30022047610668395, 0.2805471223015687, -0.5612197802420174, -0.0093432330948046], [0.4105063791730484, -0.06336271085720142, 0.2309630341941822, -0.4709550911958575, 0.020847080805426056, -0.09731905551338577, 0.027971197666819707, 0.12299832930610861, -0.435127462267283, -0.43136102855197456, -0.12390071903993506, -0.14600812934659432, -0.28034448764845543, 0.4836800815450591, 0.08238987178355686, -0.03131195414105303, 0.03191702540424861, 0.0058359774217656675, -0.1429557117128371, -0.2884039513960152, -0.3774118775348015, -0.3418117894397223, -0.4095604284218092, -0.6458823343194843, -0.16874493615501973, -0.3073141529195736, 0.35672667719541934, 0.3754566393337239, -0.2829123090252675, -0.2588401765221513, -0.12865834756021413, 0.0869734793630823, -0.2805459838163857, -0.6406883821413055, 0.37398685553095073, 0.23971271423878487, -0.2573393881751251, -0.4835790713348911, -0.14365211170234504, -0.0409292307978941, 0.06287624486762314, -0.683391693972688, 0.2260112876141582, -0.5594941438389268, -0.4139296636666364, -0.44775106749199345, -0.7957186814334045, -0.6317471585795377, -0.35357943166802175, 0.18157040027741017, -0.07716502307722654, 0.6335729659995583, -0.12675988133125646, 0.26170113831844644, -0.37721059041008626, -0.005874557205265837, 1.0346885815733482, 0.8412401688578, 1.493979098058198, 1.461442771268038, -0.6511822256481572, -0.08005066699836881, -0.07332811769620423, -0.5340786262369368, 0.05859432707960107, -0.2300336016014558, 0.4983885201667639, -0.0988280128468479, 0.2247637652871846, -0.5638613938474636, 0.08204839878605895, 0.11029780630592637, 0.2692733349864333, 0.15681362456645323, 0.19651022814105687, 0.15198424643500594, -0.18306829719623424, -0.15994444736525146, 0.24761006916697417, 0.08618619517044242, 0.05636825643843449, -0.19776296899096596, -0.19605340395698304, -0.35878256615542004], [0.2590945386897925, -0.08354848633777305, 0.04539774208081613, -0.2597790078387841, 0.21311705411306459, -0.19547092673082267, 0.2636280839649876, -0.19890605008530665, 0.23608341869916527, -0.48919285439513766, 0.27485216262036893, -0.08503638397022982, 0.3284658130085966, -0.007141295537226771, 0.5062788877289534, -0.14791431081371315, 0.20114718156473133, -0.36193276598239066, 0.09256672291733826, -0.20797386711940305, 0.43312172897617873, -0.3165719235618907, 0.2072640098765149, 0.12040655508595582, 0.30314143588845444, -0.1832111934184319, 0.14625886181297706, -0.3082763912700494, 0.408045168209304, -0.16660267212564434, 0.41889268093538085, -0.23131043167163004, 0.14067746916095508, -0.87393725957184, 0.7651487107921354, 0.6610540705070117, -2.0932324225444816, -0.16014080542821768, -1.0774139958029523, 2.3936289030807476, -2.7003978226194203, 0.7321399896187563, -1.7556297910945333, 2.0529368018318177, -0.19104489816069017, -0.7897310646364608, -1.7928302467410469, -2.307755850257172, 0.17165842556396665, -0.09646284744138134, 0.45674800154773604, -0.13512771546901334, 0.33131729108830354, -0.18053531615109822, 0.1249671344185698, -0.3154365536014267, 0.33081635870199577, -0.5612372255335571, 0.37859799908017755, 0.33729256138465713, 0.2532826886838899, -0.23474514661616944, 0.11161606481063684, -0.1512663287296173, 0.41405255647809985, -0.28235081532227696, 0.11556071392239545, -0.0484966678213173, 0.12562280745505128, -0.5779804348320449, 0.22588746057055512, 0.1244343002230834, 0.1999850184402364, 0.1775395187564167, 0.19532069893337065, -0.08845941771080089, -0.151799389054368, -0.37979903865683473, 0.2629543941181537, -0.25735212957045484, 0.45670560345132016, -0.17221724383487264, -0.07607568917201832, -0.35711637281572023], [0.1887465773319645, -0.1291832719196328, -0.1100384012447374, -0.22818048528069554, 0.4066022301715116, -0.06631607581672797, -0.19125122040132897, -0.0851449045176409, -0.08341503676908973, -0.2760949322393552, -0.02413704846135519, -0.12895264745567755, 0.6117854499431922, 0.21300753212944878, 0.0035344492982905457, 0.135912591321879, 0.007895624040200423, -0.10448334208962995, -0.02029085132455588, 0.13111462802104465, -0.043326709004843006, 0.4749654137269077, 0.13540345623443042, 0.06833225172207379, 0.37626562413358233, -0.15295048748642265, 0.0033093523903329016, -0.2746516070716469, 0.0706498338028007, 0.08529016273468225, 0.245807576333113, -0.12298507280507229, -0.10309209157836755, 0.5252380942613186, 0.6203771079921914, 0.045219589667300095, 0.07730391676076778, 0.24834685020904887, 0.0348012830164193, -0.18393380367637138, 0.031910176460050545, -0.053788502684816906, -0.2524622474434179, -0.12061106223873816, 0.17213947637734434, 0.9091785714839032, 1.0742006067248429, 0.852345590720265, -0.6439506527789413, -0.007066160849611333, -0.4712917958278209, -0.11471871634826165, 0.08696784960895677, 0.10179923142242119, -1.0704223500186298, 0.5367550034169233, -2.133369250076294, -2.488775194206248, -1.3688216329607814, -1.4757294963197722, 0.14514003237603199, 0.27582489051353, -0.07216663882406045, 0.046959750183089774, 0.3479814747891712, -0.07366274219447426, 0.25312844302595316, 0.06648583469750749, 0.46324628246886007, 0.6077290919175178, 0.5802994667781893, 0.6417463412420692, 0.21645459258052843, -0.16292426041725178, 0.20024514808678442, -0.48749789905088914, 0.15752175676345154, -0.07702821356992468, 0.2950074903795817, 0.017450552825306106, -0.033070415390422526, -0.14648300781199608, 0.2773725245742011, 0.1835042407165126], [-0.20681497709173235, -0.26632808938785135, 0.08999440074240768, 0.5521333924855357, -0.24653396841038352, 0.01912960375203805, -0.32423852869717845, -0.43640677238080927, 0.08118323147851596, 0.019143679702320053, -1.1074709707117156, -0.4206024951521381, 0.04985278590368296, 0.6290813106910395, 0.1772453720418635, 0.011823329831936574, -0.7670273662737287, 0.5059748862815517, -0.7133268404363547, -0.18789045011913078, -1.5263338138169393, -0.726467956160712, 0.03157794060384064, -0.5952866450290112, -0.14525666708503082, 0.04440525900463584, 0.3286439648003999, -0.3020264202748641, -0.5740306561747923, -1.1761258892648292, -0.24233054072179758, -1.874684226549357, 1.2502118435263458, 0.547553262077726, 0.38021317270811134, 0.5190101798505877, -0.20379820002928112, -0.0812044191380197, -0.08264743857160681, -0.27838205553116246, -0.10574513729096581, 0.24304031333016876, -0.2616097701894968, -0.2121574569124086, 0.14346519716271636, -0.8606604150108862, -1.4431008628208037, -1.3422802453599503, 0.381273916013371, -0.05200274216866898, 0.4036714774006419, 0.0842258459210373, -0.3224911769903032, 0.20732265553778026, 0.1686008709562491, 0.18333699890840582, -1.2812151571349861, -1.067501053468819, -0.10551490213795559, 0.5114647739409575, -0.10395844897872934, -0.17306489194383518, 0.29784136892712154, 0.26085041690134536, 0.07131293990189864, 0.417732095276752, -0.6333660780033316, -0.1645124772656095, -0.9794862870301693, 0.2687077095950413, -0.1432157703390883, -0.14743054900920138, -0.036223265034349646, -0.11244709824929464, -0.046271132659840876, 0.5228029219533269, 0.3241943907570355, 0.09145316496813581, -0.1343051012221799, -0.3654962987115438, -0.8314321070989809, -0.4120424202881601, -0.09614839612996644, 0.6922826241462596], [-0.6099946421218305, 0.6796817514289469, -0.6815604974297227, 0.6181461616446512, -0.8795425471529347, 0.569828701147536, -0.6358401501016644, 0.5816060209747128, -0.639065869815844, 0.08298663069228758, -0.2424994789889952, 1.0597557970223936, -0.5230991730646829, 0.9160098369053427, -0.8570519467231967, 0.6774460154998024, -0.6992639172656628, 0.6915387692887529, -0.9348837302934785, 0.4231119746930371, 0.7984065594091317, -1.9848439988283482, 1.3773335417054637, 2.7083499086937093, -0.6634198917951991, 0.695032643503537, -0.6552524035174426, 0.7578735001916623, -0.73573703252483, 0.6350249015547186, -1.0077324525639035, 0.5709034705017626, 0.6537221328634015, -2.4315433691675588, 0.008607726807760577, 1.2063228300719129, -0.7141513253567379, 0.7164515910770491, -0.7223358444779091, 0.8020915202972212, -0.9902130957821426, 0.4287895589912024, -1.181895286057434, 0.3922991948320868, 0.6820582564987991, -1.8977292554538772, -0.5685820773953784, 0.6424032273007946, -0.5897627671944395, 0.7953234077967443, -0.5646602611660889, 0.6787966607082336, -0.7767999623597001, 0.652181648604304, -0.8811148997514608, 0.37718622801274043, -0.7011867804192509, 0.33359585782175505, -0.5995045123477937, 0.6389109455827107, -0.5482900586916802, 0.5190709832043305, -0.6643417314776694, 0.5453963124293427, -0.7903874082300643, 0.6270152839186562, -0.8012085295809507, 0.5311883409536926, -1.059844204210177, 0.46824105898893037, -0.8280718783123925, 0.3591594397206289, -0.4878353284658567, 0.8722589895390851, -0.7850228428532446, 0.5137713510986215, -0.6079411523168764, 0.6590580245567523, -0.6837213349377576, 0.5923004076953888, -0.7526102818018665, 0.5953473332152225, -0.8092025320485307, 0.4522456583421429], [0.19170293095472923, -0.4311013723074631, -0.06987551073870318, 0.33147417272878543, -0.30060856158140903, 0.2300991213386029, -0.2278392411368494, 0.004152376278584046, -0.13344551366443905, -0.26874561338457353, -0.024328524099675026, 0.29646296863380217, -0.606909923476429, -0.7981095174218619, -0.6142931934122514, -0.05491721947953789, -0.24860234382710886, 0.18163039324824584, 0.4223637479441469, 0.4033576889917979, -0.36771396635327414, 0.5563681084105118, 0.476628566226628, 0.24020843032822464, -0.08203417786589527, 0.17630470773802806, 0.21133276483155808, 0.28258133373566197, -0.14991899558269242, -0.22804951717346608, -0.6060449580867602, 0.37130684646228007, 0.4924566609651972, 0.10613562485030917, 0.892591814354598, 0.4130512133383384, 0.36173463632938574, 0.17880946574493056, -0.28973839778769844, 0.38415743795102164, -0.6076360689069696, 0.1862792488008592, -0.13569015601325973, -0.33895637354727975, -0.22780250820246478, 0.04308881415242492, 0.2897356001842768, -0.5939290808096682, -0.26853570707984786, 0.05604766381401402, 0.4174095747905945, 0.4981502255229623, -0.23452617353595528, 0.11218535169630658, 0.06517119823096543, -0.21064261807730902, 0.013680552428934742, -0.5946063838845863, -0.1005112993677434, 0.271488560535425, -0.12462570418889958, 0.5797539554296767, -0.41495107349569155, 0.4573176621149542, -0.5157528983541718, 0.8261265938574051, 0.3758283100930048, -0.7878223702512234, -0.2558561556087691, -0.3799714496199676, -0.6151793503522316, -0.06596922315305775, -0.5235336697947125, -0.13431517147481556, -0.4278595503913463, -0.36366865988754227, -0.8069976318410571, -0.4168339469657317, -0.4013395242495141, 0.19630798269843697, 0.2403296128259177, 0.228029692442834, -0.4186085320829629, -0.721390564361827], [-0.15378480570545666, 0.1629608282170193, 0.14467546998676103, -0.11509374444348532, -0.10673276840402976, 0.4725000510792378, -0.3377477257423438, -0.12024706664219331, -0.24131763678864782, -0.1636010973623172, 0.07034104588827919, -0.011066710798282146, 0.020205627686374357, 0.09783290049608023, -0.15671887140431962, -0.2929380468629472, 0.3325409748218045, -0.7357732388106291, -0.4288718662755926, 0.3917398332675922, 0.07805614527637862, -0.41841808838094824, 0.23476375005926012, 0.6022923390428435, -0.148617072145445, 0.14022565601007203, -0.35896012013525763, -0.18483935023880008, -0.31693999296393405, 0.21307315322163836, -0.10908202848860014, -0.051190695587661296, -0.20404066206784996, -0.8775758087604354, -0.16290614062202238, 0.18717785089142258, 0.004338632252770196, -0.07727025454669333, -0.35191312831073246, -0.4182113049377221, -0.3955196179862561, 0.16100769106800472, -0.27294884639298006, -1.4950183561596848, -0.9090393729611247, 0.8050862030266086, 0.8233875489562466, 0.7842130085103579, 0.37831158463814074, 0.3883451527767401, 0.07042611729837059, -0.40502526647390247, -0.016023041647278677, 0.08390586792722456, -0.11523480110855223, 0.063200770314264, -0.15824484749781023, -0.9344126814067852, -0.27487488559301754, -0.24983496298165894, -0.2677257121497932, -0.30191080464327025, -0.5425060513107994, -0.22666423847611697, 0.48575356546731563, -0.28794940344330777, -0.15559059751020426, 0.2829427296761536, 0.2761146191397318, -0.3402591739640206, 0.4504632399418679, 0.5878884478233454, 0.24061276304657864, 0.13701871272605573, 0.16213808060157606, 0.4206078184625534, -0.3713102683664039, -0.2631734699060604, -0.1954145453495722, 0.14421470027366382, 0.44151675481456665, 0.2392929134897493, 0.19460688179766783, 0.0889623115529093], [0.5988653522570857, -0.4556867641990012, 0.7668577050013423, -0.4307844632209135, 0.25517642187773415, -0.6790249512430846, 0.5814866419326006, -0.3904958108939308, 0.29782967404770305, -0.5042088395008589, 0.6639522825739477, -0.16248173229763566, 0.7382548728101697, -0.016455144478904286, 0.35198729238171717, -0.4007582158492702, 0.24771045673229794, -0.6929934218913786, 0.39348782187513803, -0.3740653885028386, 0.3476944771802224, -0.7460273050775408, 0.7461537549350393, -0.1119526178087258, 0.4701386050996928, -0.21509763879471866, 0.165232364094299, -0.7105492492655879, 0.47215903245679774, -0.47977228687254975, 0.400318559556839, -0.30249442489727646, 0.6775477954839436, -0.5494739381916705, 0.3973413308037789, -0.2473455044642242, 0.43817460642551265, -0.4288335145024387, 0.3810950943923124, -0.836035316650848, 0.20196603184289064, -0.3937559097966622, 0.6800235347750307, -0.29394786142511814, 0.12037851971153538, -0.889747796337874, 1.4317890187358908, 1.4516316649565928, 0.6009627902221079, -0.36890877744488076, 0.35370272938351655, -0.5122480247227623, 0.44108160966693927, -0.4915996991780222, 0.26728601726345547, -0.7264035958036227, 1.068671594703213, 0.06635185381756943, -1.4530714180405853, -1.6659007479329122, 0.21800012596278123, -0.1310812712224092, 0.32030343459247007, -0.3178584522133772, 0.5992421606081741, -0.16977703380289685, 0.5973467791977467, 0.1542649353702764, 0.5400161224686383, -0.2358805331184997, 0.10086797349400893, -0.5286225195546461, 0.3047906759033425, -0.5624478402722455, 0.5326979447353576, -0.5106375725071345, 0.058596107753390934, -1.3153662004190974, 0.9734155538416609, -0.11334923673364118, 0.923514511979853, -0.22864125926313683, 0.8527010162208184, 0.1672032660106297], [-0.27367126528684427, 0.4123741623835298, 0.1882385869816177, 0.45595326997984553, -0.2918422226955624, 0.1949494024010599, -0.14373065307646946, 0.29757283981437394, -0.6912359033808316, -0.13475888064455113, -0.3630192115279813, 0.14313807351609154, 0.2131658190026029, 0.3977305662458742, 0.11261814203668694, -0.08073277275092268, -0.20294447486385836, 0.26595494171098516, -0.28665072293052996, -0.2575787122565927, -0.3679665451636019, -0.02424654037399027, -0.5297779225800475, 0.1694725811726993, -0.26878628533053783, 0.6033298963697152, -0.6183032661179279, 0.1745179618533207, 0.0514828168299899, 0.13758784107403105, -0.28237749152769037, 0.24177004247980247, -0.4285270128568665, -0.07992217274205385, -1.762333821439793, -0.2922326938277855, 0.026863570432700268, 0.2183853252781574, -0.6676504350266435, 0.03693451271815884, 0.022683380842400215, 0.3512456665730282, -0.25830984996912987, 0.14678785517379014, -0.21564028640208063, -0.188162468322781, 0.07015772943116876, -1.9144479569570654, -0.5099679640927736, 0.2815128916775991, -0.11883461485689345, 0.5786100365092084, -0.5188274356839122, 0.04011861597920134, -0.6523148063201195, 0.28153558124685435, -0.9888863061347489, -0.5535871835309694, 0.2624720973942693, -2.0553932731053695, -0.13038478170341364, 0.4307363517452436, -0.20537564637355937, 0.25264276061522783, -0.4260047546457458, 0.042967399040632806, -0.16183701179490098, 0.21710885398463747, -0.050286410979392474, 0.0437469030285925, -0.14168901575559184, -2.441771570166534, -0.17467640989364916, 0.35082435210213087, -0.10047123288898914, 0.2810102242313896, -0.2261048980687529, -0.1898298930472037, 0.19401701037845528, 0.3279543764156791, -0.26964669190321605, 0.033245754388353844, 0.4090214224897762, -1.9455153081809502], [-0.1686897786743173, 0.3328678409200886, 0.2796531073577218, -0.23641725282044113, 0.5213583828031646, 0.11599511080642833, -0.30297349065637347, 0.03463417264545871, 0.07676748738616959, -0.10308385092051396, -0.5119087556464934, -0.5016642663578723, 0.46772614914799754, 0.31963815369828424, -0.020489304636557956, 0.6507862721968523, 0.1463604193792821, 0.5545940284897282, -0.6325974090673566, -0.47457144040868937, 0.24441097730945632, -0.7146432270323306, -0.7387114963619557, -0.26612951571716964, -0.07055683719954087, -0.3104004134688847, -0.26435930288474396, -0.08865268218681614, -0.1762353349546599, -0.8158741268668375, -0.645732001363045, -0.14376812396625216, -0.25633228569323274, -1.304679211087247, -0.15695546281382478, -0.9290131390009341, 0.0660687866764942, 0.40628140524971795, 0.03564922278683747, 0.30892873979470153, -0.6882752837811161, -0.038722848694387975, -0.8928936867300319, -0.6722062253327736, -1.0778218843264304, -0.2645435602481382, 0.14777523384229105, 0.09324425672984067, 0.6295126629138323, 0.22322863583009972, -0.22562169436749419, -0.6657911058954689, 0.07426080748257503, -0.13987554748027758, -0.640873112073762, 0.057978734890481935, 0.33951227511974696, -0.43570507997515223, 0.010680044142104026, -0.2500708434729914, 0.03580511578436134, 0.0017308983171974816, -0.18083100171785738, 0.748320998397908, 0.3510278026330066, -0.2120466509111382, -0.2412002602615712, 0.017980188883143896, 0.6835682422223202, -1.1182304465894766, 0.3444648061889692, -0.3246123047946154, -0.03912913687068094, 0.1987137627147658, 0.2493729310466417, 0.13700663347364425, 0.45070176707357096, 0.18092955917007084, -0.25299209112674875, -0.186393182484127, -0.1382700289395563, -0.33284437674178213, -1.5971251114491027, 0.07511574269283776], [0.3744921515699475, -0.5868335405761149, 0.4180743097266466, -0.4493747748249888, 0.4176458145699798, -0.4531516753186942, 0.3977496203928634, -0.329898620715676, 0.3587763551248669, -0.5245388435525717, 0.40493327756038483, -0.5542444056248245, 0.4731430103463683, -0.509308073394418, 0.529056196931474, -0.5851026341002448, 0.5886310361511574, -0.6038881516694768, 0.3598074588589815, -0.5221902508461072, 0.24255763788288554, -0.5968455175322914, 0.3761196040838524, -0.5123814602948703, 0.6286817075601769, -0.45067144467554476, 0.3739286223931988, -0.5445643799013955, 0.5175204551518288, -0.4861959084631933, 0.3033484963345836, -0.6657383975618745, 0.4904592938106035, -0.502400178220085, 0.3416587940516296, -0.6167178633747372, 0.6238705324526848, -0.13853532840389826, 0.49328061769799464, -0.6806633088363732, 0.4668767861159289, -0.6756611928522647, 0.3770718803658508, -0.8298890038620569, -0.1655530269687959, -1.27057345791485, -0.7523386491347268, 1.2674891436861355, 0.39825065471056587, -0.5297977521267436, 0.5796886209813279, -0.36246053677181256, 0.4871576998734135, -0.4276315399118858, 0.1650370006373779, -0.8075420515178516, -1.0622245663378496, 0.6136822754998232, 1.0599228009553827, 0.09751158246552609, 0.4812532737898105, -0.38033981814293844, 0.7462193697694445, -0.31392448366462317, 0.3868924284372595, -0.5888402459683701, -1.0599300091673203, 0.7239231637485427, 1.9456262214917743, 0.9460179637795696, -0.9375642176412056, -1.824402787478106, 0.398337456585096, -0.3172791777907164, 0.5442549828094536, -0.4671724567472214, -1.0271810832356931, 0.9134920653217209, 2.0625363004193353, 1.1168285727472471, 0.4591400431387583, -0.3785706112609509, -0.5849834583329963, -1.478793039892265], [-0.19024192647876342, -0.2937915532407869, 0.11484249349390242, -0.1389595517083389, 0.8227088233943979, 0.02844477284059576, 0.31387226039946176, -0.6098628214081266, 0.41386001868047395, -0.066943888233943, -0.08173599227810804, -1.0005536479399382, -0.1779819069674074, -0.2936276622577258, 0.04600167742024036, 0.12735081565535591, 0.14596381910087491, -0.39522714676995885, 0.6403389855474596, -0.69761187172, 0.9097282698193832, 0.36509566406624033, 0.28603972808877504, -0.10429902269623094, -0.011476893155093145, -0.0744420483195, 0.16442625731460359, 0.23778041162132432, 0.38826905208268303, -0.1853599043061588, 0.8358670046595599, -0.07404282031407562, 0.4456478628050323, 0.125930824290887, 0.6324350691957525, 0.12272512289641757, 0.3975700756838272, -0.7892019802857512, -0.310447943192864, -0.09333804409757344, 0.32179534260375664, -0.4223422568763058, 0.4267916289224274, -0.5150556478872987, -0.21831357290373213, -0.7315240092995904, -0.2411707454407881, -0.4595967785726632, 0.807749614454426, -0.4209390246123471, 0.023693273437625652, -0.3065636581912726, -0.2425276666600244, -0.13070426486157072, -0.40554915629568083, -0.3939946929322374, -0.05635874890830542, -0.3854488117106151, 0.7448918223458288, 0.2182573848540048, -0.37039928487139345, -0.8149704474307875, 0.021185077937758093, 0.6391954610500374, -0.5583181604552538, 0.47282757550865395, -1.3017543910361071, -0.02080818063366968, -0.33735527359628786, -0.3273560128115831, -0.7035583132333573, -1.2924421287486207, 0.3435904011475546, -0.42575583086539887, 0.3829349418797611, 0.09816111330523676, 0.026091963179817674, -0.4300597690763953, 0.22841696961296956, -0.32851885844236256, -0.19713554797303356, -0.495972945991335, -0.07090238551897471, -0.2976459204754705], [-0.5576136163196209, 0.3270251431499463, -0.18426486620173993, 0.4349758243690075, -0.5296138466281904, 0.7489377834966393, -0.6158251314779237, 0.3632011311738938, -0.5358521832196815, 0.44645630944379, -0.06936959282176655, 0.5661718919071298, -0.3880323749169475, 0.42191610214800507, -0.2790216257412304, -0.0018983239427764337, -0.6486415487370072, 0.34702635612393967, -0.5434656251766432, 0.3690707360024425, -0.3228938247381972, 0.7484876353673587, 0.6732549998343688, -0.6905991774033904, -0.5157551455783044, 0.5416430186496217, -0.3354583462806669, 0.10397213175401576, -0.7725489108404704, 0.27189047835512553, -0.35663890482338884, 0.6731185381178632, -0.7089961667356715, 0.23217733903060267, 1.535316943496148, -0.9598203085272898, -0.34051997406146706, 0.3981387306034173, -0.4074805865752871, -0.007503523693551313, -0.24607366465757913, 0.5274919403035484, -0.663082216715486, 0.2657119616355317, -0.732152632540072, 0.4492747774751224, 1.2896699618416, -0.9073166351564085, -0.7495565482753523, 0.23401165938029833, -0.42274100661487096, 0.6284552192538064, -0.5407567727091327, 0.5550509802578688, -0.663042830411924, 0.4268607786569948, -0.5128767691526676, 0.38597783552647047, 1.2765712620545333, 0.3212277454820001, -0.552006634923355, 0.4731321792086594, -0.26417340927503796, 0.6175601357720485, -0.5908234471356913, 0.2911962154919111, -0.5040838014036174, 0.7416531795128404, -0.617069226017401, 0.34045213142535213, -0.3382464480887272, 0.32133663775536886, -0.8582268158749919, 0.21708031481130047, -0.20362348062025878, 0.45290903929492804, -0.43801869617785877, 0.34115094163431264, -0.597488642894809, 0.46420788000088564, -0.34917786883109136, 0.37135363132002225, -0.269249390852785, 0.4752014431783473], [-0.3400697321139977, -0.6074576648220433, -0.02751080809071601, -0.8934368911953547, 0.1855413298883444, -1.3934382964239458, 0.9968503275926188, 0.1553197432682027, 0.4001731883665901, -0.4054202592592726, -0.07153613892293922, -0.6532304862214309, -0.2049996245445415, -0.2854559628991312, -0.0384332832496561, 0.4246742587617718, -0.22430092132409776, -0.6060892469246425, -0.5819050468576471, -0.060060959467139755, 0.05748280707072353, -0.08374402208299862, 0.7044954442068525, 1.0629418564033162, 0.3207821865749555, 0.28104126762873716, -0.5803859952247131, -0.01484940130471105, 0.4067181639277564, -0.28792978247631856, 0.4536623014881585, -0.09464361154228515, -0.5979790284635824, -0.22591988916625688, 0.6452368728698092, 0.8804707332378563, 0.5516567142307134, -0.10461800285274046, 0.06200694964716481, 0.57188515581405, 0.19713371407452102, 0.2953706413193469, -0.14406322342995603, -0.4001655772033136, 0.6078410497738198, 0.11091190194244949, -1.149059680610017, -0.5595186085910524, 0.40251690419656433, -0.34766273217016924, 0.3760581152747572, 0.07054382385589263, 0.428928377647423, 0.7616935127728103, -0.19812940837964518, -0.4836520299232432, 0.012136826201552087, -0.20435727251414915, -0.9079501687971056, -1.136653557226315, 0.5185052265155342, 0.26454342769390715, -0.21341716878329167, -0.13440557906434278, 0.41637593008768964, 0.14570686616384865, -0.3014983556272496, -0.08873063531979399, -0.4443324853743053, -0.383893923556117, -0.319399527025059, -0.21591288726836871, 0.17568082182587497, -0.3544851096861232, 0.21129732879903224, 0.11139915389707108, -0.024229387034621207, -0.0756742551281417, 0.10966197276116312, -0.3267542584522801, -0.2174865940877107, -0.3632171557192487, -0.040228056192700354, -0.01678402262142734], [0.17384634165967766, 0.4098555665669649, 0.04727768113878381, -0.12073991422979226, -0.042707274381026665, -0.15741183257040425, 0.07064435559050983, -0.07621430413203045, -0.06019905355087228, -0.25334677952733964, 0.2051935610216264, 0.9909030595201123, -0.2504998808144911, -0.26685919478053627, -0.27843064156511954, -0.22494387667402135, 0.013020484825687587, -0.37591205359707164, 0.29016430817320327, 0.36162699354589245, -0.6479174248685606, -0.7535484391110671, 1.0705016549735897, -1.2747554786110846, 0.10020720276208904, 0.5265858693500111, -0.3713536364821698, -0.0864541296061127, 0.33915190016205593, -0.16332462241708556, -0.02984403935219888, -0.145729709177517, -0.03386419579583017, -0.4742437301512634, -1.8259634375482017, 0.2083712305725264, 0.0256881375422155, -0.4241128966331181, -0.09783976158054837, -0.08154593310379099, -0.1369781290269058, -0.34329973340376474, 0.4201140188150095, -0.10069902998550952, -0.28960518226501863, -0.41650765498903397, -1.7793637598229, 0.2725414545423911, 0.29217874998569154, -0.01472992241489635, 0.5235486927215697, 0.15539893875107177, -0.09036654812317048, -0.5707734554032817, 0.27743882111619, -0.30878140875190063, -0.1533246139546757, -0.20800173938582264, -1.3478161134370756, 0.4749648340374123, 0.33815138093763, -0.2784259986168092, -0.2766315243096431, -0.08442141448651984, 0.028482289885340697, -0.29394264626817035, 0.10461101147279545, -0.37803882578302195, -0.34020147513222876, -0.3525195428787755, 0.1466717682459652, -2.472884364459055, -0.13641451485175285, 0.05822868580494505, 0.2959758615218666, 0.2187406410773248, -0.2600281806363732, -0.385417810389612, 0.1267498151661311, -0.0285051863212236, 0.04092661253230714, -0.06012324879103517, -0.2251903404803385, 0.351153489737286], [-0.015559285802006119, -0.338709323732412, -0.44246133488003286, -0.3276450505183266, 0.4030089883879855, -0.14706506978429468, -1.4115263766541035, 0.44280234116754, -0.12792647275188246, 0.006885776885497814, -0.9297627727892541, -1.9284800202774386, 0.1901745327451786, 0.5071572654057299, -0.2480677359304764, -0.12318080315716674, -0.262931123840818, 0.3853462551721196, -0.37920030682210293, 0.18015233854909946, 0.10175526708744964, -0.026229360898849786, 0.7077202367696711, -1.3792888917940316, -0.18227467040359902, 0.23276330044653662, -0.3681588808862666, 0.14727901307313349, -0.15335226503758648, 0.294866954362171, -0.07081494434918938, 0.08248738077109476, -0.27525373348443327, -0.30310224543787423, 1.7384459358047397, -0.5832358249862415, -0.43982822662779647, -0.04989329234685087, -0.3317351608028015, 0.31362533385724295, 0.020134617514436206, -0.10218656140355589, -0.2448087147964342, 0.19495177283354928, -0.2973095404684297, -0.12679373295317614, 0.5821949799339952, -1.8669350253123431, -0.3475770963363388, -0.16726335819606092, 0.024624161553236466, 0.2315616820849937, 0.0558564415551564, 0.2810911204935055, -0.4654508604623713, -0.0223508866391714, -0.2818007355087928, -0.019574031618554876, 0.4949805707169815, 0.7224957339157044, 0.0603432161133106, 0.06611656235581015, -0.22122603658513473, 0.0075795585067944945, 0.015102603278095907, 0.2846465808007063, -0.4204189237894531, -0.25236462481764727, -0.4665599794303746, 0.09511047608276836, 0.21818353690835127, 0.4822080554231569, -0.33641778314912774, 0.2484833445613774, 0.2846979205714727, 0.7261001975061072, -0.08589958616330831, 0.2860275750769124, -0.338654855312681, 0.12217200555450321, -0.38442393492399757, 0.04328802439393804, -1.0129732674996754, -0.35259841623320826], [-0.06574319895035585, 0.24162377226593823, -0.16434860542743587, -0.06436472457354628, -0.11956503008381796, 0.12660005217681405, -0.07775230879000426, -0.13466933500922032, 0.05165320433947659, 0.16247539179297754, -0.2771666728617001, -0.14815093389680326, 0.05636571805051613, -0.1661219621142716, 0.08012136425212488, 0.00923365504645736, 0.021759308784568294, -0.08495462581468659, -0.0438545187168439, -0.2689126606390622, -0.1335684986865772, -0.1423217138323089, -0.2408675645304674, -0.26754771422955614, -0.3727062349887898, 0.03370076317387718, -0.12427424092755807, -0.03604008323881035, 0.06789532823456497, 0.2967414845712474, -0.30221020321348724, -0.2570368337409543, -0.5863412457685941, -0.26297470168989046, 0.41685644105096537, 0.21293982519015295, -0.3362235481381644, -0.24151515460559964, -0.22421475903273214, -0.21245232275205417, -0.006680578155995073, 0.030163400533129995, 0.3903276113202548, 0.17171127008217987, 0.1929129406563303, 0.08451817262917903, -0.3965460427313937, -0.3291242294316326, 1.0041086360218996, 0.8334273138457213, 0.8740174888148061, 0.8831197649101171, 1.4030139709706142, 1.71872853957313, 1.0894050730015343, 0.3472880797924602, -0.0959431656125037, -0.037491151677053386, 0.5737020578016996, 0.7529384629371003, 0.0505979643431325, -0.2467926839198791, 0.12253468710338315, 0.11410720848930095, 0.14041141468191048, -0.07077084687085326, 0.2910480457934332, 0.36708415003407663, 0.4838700340590197, 0.37262192420807755, -0.40504430006921627, -0.22923410645657466, 0.16793015543824413, 0.07064464278806389, -0.12640348028954468, -0.09390356448584321, -0.007727775001234083, 0.1584498031557657, -0.29816880789644007, -0.08328836687673867, 0.1878882438369696, 0.22990497874634833, -0.07822751898198871, -0.03581957649227012], [-0.26955296477490326, 0.14200082050515356, -0.06717543358499677, 0.313893087404484, -0.08293711800756706, 0.2817653035381119, -0.006851943090576286, 0.3123591100598435, -0.20168372654686414, 0.11223085405147874, -0.26095210823900156, -0.11774932814891177, -0.24711366180993452, 0.20480908723000604, -0.0680275908975477, 0.421044918011745, 0.23584081931770598, 0.4860352626321213, 0.15728935792503565, 0.2775525180895759, 0.07958024715482043, 0.5022735451999667, 0.4327531201135914, 0.7793663405230492, -0.5902733467078918, -0.386072998575318, -0.8239755600444095, -0.33868025866607887, -0.6395173700560812, -0.947264144630749, -2.0623263271124457, -1.2117019420191022, -0.9062456634025354, -0.6479976456036179, -1.3188816345953682, -1.2809120954012734, -0.27741465881833227, -0.11980594256322115, -0.1707712092502986, 0.2719042172780604, 0.019062919824594547, 0.24301350775462438, 0.25636645596195407, 0.45345038851762126, 0.2263711779885031, 0.443650547878401, 1.4951192259604575, 1.7641004938509492, -0.12285861549191536, 0.2423666905903562, -0.31431699689693116, 0.09761221458951055, -0.606897660633494, -0.14905628044820682, 0.06338653418699916, 0.2820139409884882, -0.1621869111846837, 0.4579092837282427, 0.5456922351838234, 0.7206751554819711, -0.31162817424072636, 0.07512295370806278, -0.10876854540230725, 0.2940056399245373, -0.2716240933127073, 0.05337340036955457, -0.012927367100271198, 0.240943339525687, -0.011655152557169623, 0.2276507305522421, 0.03430338347481146, 0.4607295706436124, -0.25331795086160613, 0.16116302309240138, -0.32705763331209353, 0.02608137494099301, -0.3265461029488949, -0.15720282588526688, -0.09768076287377095, 0.3558742355565937, 0.09136151126206522, 0.2460241118849029, -0.4928326770854079, -0.25680754730313493], [-0.4557712811848194, 0.02753913100123384, -0.5556768412810312, 0.21566209991235447, -0.025102981935148854, 0.2785187501612314, -0.4141363629652305, 0.17872937525980534, -0.031590119859793195, 0.39458098546915304, -0.32249109492692296, 0.1718953867415561, -0.21240422184128227, 0.2905151347982327, -0.3288415003987172, 0.13619084397604858, -0.3751559974233125, 0.04759740632854982, -0.3266490253285339, 0.32401128132252655, -0.1617852160856219, 0.3078052330984842, -0.27331594189836195, 0.08451604895791276, 0.04126682437424001, 0.5775777804250267, -0.04985226331350962, 0.23351176318829747, -0.3657284188530039, 0.3695435288489717, -0.2545674701967826, 0.250098917452236, -0.28699417620437967, 0.12785634624214529, -2.102102008091999, 0.1557573021327915, -0.14670956249128433, 0.6279367560429138, -0.1866949447370026, 0.47139008873884775, -0.2568501343642938, 0.10749735345166433, -0.6103188714570147, 0.18905492302157137, -0.5549982569121606, 0.18517381320243864, 1.41062783846939, -2.0705224417699957, -0.3237678412875995, 0.1765698519271401, -0.1984303189975777, 0.050063291313989525, -0.21323585229977335, 0.28783795448817, -0.12709299341066105, 0.028420382308858915, -0.25820581844215934, 0.30253017480447886, 1.8428088945659218, -1.57604438415413, -0.16669153210495666, 0.237671922811168, -0.09049698320668707, 0.2203509940179885, -0.24086560351018585, 0.07955295547064126, -0.27546192070470943, 0.21715483213301298, -0.5389605691295442, 0.19060715267373599, 1.770421025567932, -1.6478792901768957, -0.5021057213595214, 0.4213465546326019, -0.44650438724848146, 0.2313560691634804, 0.02799142735071916, 0.5044858832841838, -0.7209942346457953, -0.03309330348791396, -0.48226900185406146, 0.11459334351146212, 1.016981938509081, -2.4310586138462913], [0.1359061719762788, -0.00790627012469901, 0.19168975698471033, -0.02098905387139601, -0.42925254397785856, 0.20715686359542182, 0.4789034945509953, -0.31757475706706906, -0.20248932591521981, 0.2197670944458357, -0.18634211641752063, 0.12208485683490611, 0.13078742986194497, 0.0538379700576039, -0.46851490824994246, 0.09399972242313928, -0.32933119201567185, 0.139577550400411, 1.0901095436597508, -0.5153930336282042, -0.3780429806451629, -0.038990415472545, -0.43160243983813845, 0.026374219901379198, -0.04896720002516897, 0.36823118853213804, -0.26813540372277894, 0.049800367281833506, -0.49060173915990785, 0.5771808335811596, 0.5455249194956603, -1.6918035725002858, 1.3051401968839742, 1.9414543832874904, -1.1115500557682818, -1.063641045728304, 0.19436545086738133, -0.054830500583086805, -0.22993501117998497, 0.2905898841831898, -0.5380428305956724, -0.12819709266876758, 0.823990981919533, -1.5469417763953737, 1.0627983210106597, 1.326205676227586, -0.8839493085135351, -0.8793613727014402, 0.26608703497572145, 0.20910462714831207, 0.24484570148528698, -0.17036971220824637, -0.5591827906757783, 0.6243568626624454, 0.8263037476378609, -0.06740437393000741, -0.5632260978504637, 0.018513299314428022, -0.38379036744357936, -0.14647397810369067, -0.2572531834867948, 0.19409961654181693, -0.18869083000023104, 0.3105269242076031, -0.2126649067896174, -0.025173951522732704, 0.43021923217872965, 0.0067119698912093675, -0.5262879507771561, -0.1825924598062156, 0.03024377360845673, 0.46339690276260803, -0.5653091086572153, -0.2772258005095784, -0.1998864685404653, 0.10910030508902813, 0.07415390571414326, -0.06170256591906903, -0.3876552689398673, 0.12239536038901928, -0.11827808716008553, -0.004458339899751364, 0.04817085935632278, 0.2083784009962037], [-0.25295605896356405, 0.028165065529818022, 0.36685206210726745, 0.11832624531723938, -0.3608311003700141, 0.4539012190838599, -0.393623302350889, -0.2599266932023045, -0.3913004804507399, -0.28457334354907127, -0.10244781779283724, 0.10764005657592393, 0.05732123299001101, 0.0634113841836688, 0.08589300649288555, -0.1652999832800947, 0.10633231508659369, 0.09644792965785726, -0.7719344741453016, -0.7403065433884672, -0.2749279610609515, -0.5330184565903936, 0.5267391509786974, 0.10807114064834195, -0.13072110949826662, 0.176342413768137, -0.41056927341400595, 0.11565336702092943, 0.4027634082816353, 0.16767167795550336, -0.593346191634554, -0.07338028837295092, 0.01859850284538437, 0.037891642363761184, 0.5017619102706119, -0.312001885145491, 0.12087366028145846, 0.6147607548930702, 0.05027980800911583, 0.27589667000640117, -0.6921589270186346, -0.1798795133830189, 0.041020886714912816, -0.8071580740499581, -0.928406704697995, 0.1977971836928836, 0.8647064067038086, 0.9019534221272645, -0.026013801459738806, -0.348960139661392, -0.04223915577218982, -0.5688748409572199, 0.22346744781960917, 0.1647237342050405, 0.05269648441297967, -0.5377941649839912, -0.008561254224749229, -1.272321301820788, -0.26121381920301023, -0.3009793784769197, -0.1411633711094999, 0.5149002457880444, -0.04468481744378439, 0.06552779352448451, 0.1496950290394782, 0.9634316300564949, -0.09295092548240204, -0.1955309520163518, -0.9662767171488222, 0.07727060577469186, -0.4524567511196488, -0.09577928486054951, -0.14960800380121106, 0.14323385366419064, -0.3374989947399842, -0.4101608013598879, 0.03394951941604816, 0.32681936825244756, -0.01852150250844376, 0.4766066671969102, -1.0691395732167785, -0.03175840458437191, -0.2767608644825512, 0.15238859378647987], [0.34382304080399007, -0.5569402883569641, 0.35892668234564323, -0.5187332881481918, 0.6263470690998715, -0.3003252509251866, 0.20374690574167992, -0.20630933795926693, 0.38692398182371157, -0.21105013007587994, 0.48552486984267224, -0.4900079654629561, 0.20627488279957001, -0.7824492883475176, 0.32226431228922603, -0.27088792747047363, 0.7313926264133359, -0.2951142371514544, 0.08122617243377844, -0.03446870903191921, 0.4676398976483844, -0.4563890972992118, 0.28709973289325075, -0.914244560938157, 0.792501003888686, -0.24575663022444053, 0.5822102387089361, -0.6521495197183611, 0.2571523704288805, 0.15768730749628773, 0.30202297343998336, 0.04653780897153221, 0.29150451480753997, -1.1682880985141855, 0.15232521538640062, -0.5448760005893752, 0.40820155149987264, -0.35430965060629477, 0.40106595037587484, -0.2581013322118651, 0.828663996678378, -0.433653679563023, -0.08473978202542447, 0.38617196813628, 0.6587325788707753, -0.34902648045648965, 0.66163957183946, -0.2587865751079699, 0.5296880097111804, -0.20762272039734092, 0.3837266317055551, -0.6559410073559087, 0.9894865565743112, -0.6899863873338178, 1.1658607493190887, 0.91387428122114, -1.712885964192133, -2.2331630110442937, 0.9610922952279547, 0.007952928174369548, 0.4705192304622739, -0.6520343561597324, 0.8312900934355991, -0.22812294392441837, 0.26318345129732484, -0.35484335441371484, 0.0878665478526554, -0.535160260301441, 0.8131355507302768, -0.04876724949028566, 0.4179232789934264, -0.2386981396446045, 0.7724958748637929, -0.39420576065800894, 0.4623095182191457, -0.5758685366403868, 0.5926564810840633, -0.40206437108881626, 0.2795696398976748, -0.6137092039920651, 0.5196360845794535, -0.6595702245233469, 0.3424532126154832, -0.44957376819089456], [0.05326446501360308, -0.13511528023090372, 0.4132982671221541, -0.5263494217292854, 0.328393733881271, -0.3403616965900613, 0.15227329388722846, -0.2782442199443094, 0.2854172050659975, 0.4682317213767784, -0.12398727095970605, -0.7439219836536638, 0.7407701783762234, -0.019957974613570763, 0.245472003243962, -0.08108955114684535, 0.2738058931342079, -0.47306551394048746, 0.341235686313789, -0.25572723966432814, -2.360648306412058, 0.7511869638069764, 2.0385333783318274, 1.470529795244459, 0.2025193757454307, -0.1048208849757196, 0.2662607626008495, -0.1776593964358531, 0.28908661328224405, -0.32922628409698657, 0.34330165579712263, -0.4678579857511263, -2.1398673628629385, 0.7572769079946401, 1.7267795648235877, 1.1297563654496074, 0.3227444180233899, -0.21572650593963857, 0.24793449929065337, -0.29135392347485134, 0.35640488856649166, -0.5444323236313547, 0.3460481856259637, -0.5705258945624102, -2.174442428671654, 0.7969595443186536, 0.6723512926091961, -0.025501730662959347, 0.4145200196319706, -0.14637445437870694, 0.07557409606156812, -0.3919813684068019, 0.15195053553613658, -0.33912079498939635, 0.0754663560978513, -0.41013322990833523, -0.2762520591319083, 0.7226505078742232, -0.07403394323006027, -0.6600450147517647, 0.3659250853149633, -0.33666445463929, 0.235210969588836, -0.31977200048779997, 0.44007650841738544, -0.3025932017705246, -0.022403234001739318, -0.46884221800042464, 0.4298659206886002, -0.7683208824329869, -0.11351950663245162, -0.6384187463441574, 0.07772039799629922, -0.4756252804013395, 0.34938933313041903, -0.15373518050938428, 0.22870560363968803, -0.07189342098707645, 0.06982962427681759, -0.4369726615376184, 0.3364597712472798, -0.2770831470385212, 0.2685321275922104, -0.1453856800094447], [-0.2599254096359207, 0.17288706522827574, -0.3004962910914344, 0.19669766725138543, -0.19334543752747407, 0.33746972549104526, -0.46512648558228936, 0.02090207103358909, -0.25405990754129465, 0.19661597681964513, -0.4252298717692209, -0.0795129964845147, -0.2979336648498958, 0.41712527125286086, -0.1274067536688232, 0.4447953107024259, 1.2469511028535598, -1.507347787043714, 1.5494254924109419, 2.045708425981512, -1.216280242419783, -0.8044143264253357, -0.9523512234712714, -0.6682611949335998, -0.0829765921834042, 0.2790726346928707, -0.1545400345094838, 0.14713291792297503, -0.1057711351034635, 0.45139775083518974, 0.7764228848481347, -1.5472501021651202, 1.2941809252926397, 1.6942090331438815, -1.7103203143824635, -1.340280358601388, -0.13034204913867461, 0.2538977663437544, -0.33449331745600613, 0.18386832300474826, -0.5621945669894809, -0.008577506561011526, -0.7597543961768203, -0.07209879495944395, 1.1371202209275622, -1.497726901098299, -0.4610487712770118, -0.1800365414100593, -0.0932021677039236, 0.27110899891462337, -0.17253529869416512, 0.1566219849997036, -0.15947976637067246, 0.20088853878149257, -0.4222461755584148, -0.031116957344313266, -0.45339194171243435, 0.027495430830891496, 0.957532705356027, -1.8399161488900762, -0.22512008160938454, 0.14375925058383793, -0.2582566731123727, 0.326755368677524, -0.251491108450672, 0.14873667230152282, -0.2959133005060139, 0.16313971306070976, -0.35056879745402747, 0.0002197940851586519, -0.06817305628122015, 0.2539022506885146, -0.13943540043206606, 0.4449556318677038, -0.20734508348139735, 0.14904258244172217, -0.31066477587067803, 0.23749871629963662, -0.22777438850721274, 0.015099640752354088, -0.21902350915489704, 0.23967732502824107, -0.128592691089964, 0.370959983749529], [0.12124087685417233, 0.1787414003671911, 0.42886497400993334, 0.45783321278536815, 0.3914187971172166, -0.26373683817967625, -0.1890135363519685, -0.1204487855858811, 0.10492513146409715, -0.2539568300352669, -0.40300269033815506, -1.3566334633500976, -0.027001808918060265, -0.07038452571820052, 0.08647520842980197, 0.3242130997607952, -0.3098491903452645, -0.37193569230406154, 0.5804548931135427, -1.255939901522299, -0.619991621046001, -0.5985303376291702, 0.15206069905006098, -0.36479411137433554, 0.23712888795983228, 0.07099518600940909, 0.11469424971356038, 0.12361502171412836, 0.18270934193724866, -0.5415121672097125, 0.38738550349793704, -0.329893578609712, -1.2495367989923862, -0.751003066278673, -0.015520559639897607, -0.9205116968403494, 0.003358623000882487, -0.32604688224616724, 0.07162852238489263, -0.5466110699694672, -0.49661478870441733, -0.1641370117038669, -0.5529172989040221, -0.6058094799006482, -0.29389704492524077, -2.54155881305089, -1.2109751966006983, 1.269202619658662, -0.21171248520621205, 0.1011631212310764, -0.13871427258081825, -0.1632177061020321, 0.04824710737195517, -0.26917291753895994, 0.39973450475937733, -0.8928395769351651, -0.8959676433961626, -0.6996778495403895, -0.023100593360448646, -0.7053602566212374, -0.13786798128221373, -0.46625859741205583, 0.26315753690336724, 0.02377519706995054, -0.46955587649032116, -0.6639153722244081, 1.0391047558438438, -0.9777590836252232, -0.8373073343737095, -0.38346663851686086, 0.4881595537558438, -0.1555154803814978, 0.13824205246756235, -0.14078711169025943, 0.017266238095534802, -0.09881943120951255, 0.11576920824815866, -0.5408954957706567, -0.7309705524840238, -0.6572878639348987, 0.33378902891496, -0.6511220390528454, -0.15163028076152224, -0.8143928888500168], [0.6320260471184123, -0.3706856943393368, 0.6004995936063557, -0.6290109538125899, 0.38013128443692706, -0.5131808657916657, 0.5434000131889287, -0.45800750506207444, 0.3373015664988175, -0.7165794505455627, 0.5291050073695313, -0.5591778363410429, 0.20051309788342844, -0.6024474631360692, 0.6997691644322691, -0.5061386157431245, 0.5516597614809788, -0.5390864647512115, 0.44708991507179924, -0.44646559215617754, 0.34518783595912095, -0.7138479733710512, 0.43143863610663785, -0.5673287372232093, 0.7670186751817188, -0.42520201247411776, 0.29144453795047975, -0.75240365322145, 0.5647163795877724, -0.5191254026088862, 0.4813106668542784, -0.7398752023145833, 0.27724901843483735, -0.6876162170301469, 0.7295711209286196, -0.41429395591574736, 0.3656383131293309, -0.5242061745963581, 0.7513075029112345, -0.3514422655888905, 0.36709378222079636, -0.8351429999526857, 0.5119457443375276, -0.8647754981331781, 0.2253150485939818, -0.909113882260518, 0.2922772390079185, -1.1964875663679353, 0.46653678907550644, -0.4877754953393299, 0.6463772236650058, -0.2918772057540403, 0.4490258682043387, -0.7628372747842164, 0.5650375434729096, -0.9674623441295002, 0.3542010479888657, -0.7077638732488472, 0.28247482761911286, -1.1919462162514094, -1.113386687519384, -1.022360089988513, -1.5169681098317318, 0.7386606263498395, -3.2914189176239548, 1.1774253128621426, -1.837399833754438, 2.0597322677923304, -2.7971852684754848, 0.6996957320735308, -2.377945425121944, -1.3948194266495295, 0.2646565639688218, -0.5275439770917377, 0.661746105341468, -0.6060728777197938, 0.6551319666089246, -0.569282069600001, 0.4845472712494792, -0.7566288274987315, 0.5585012911123629, -0.4487615375148505, 0.30006716317925214, -0.9137028877751661], [0.6301382670855827, -0.5075583573211238, 0.5669397861152056, -0.6996309241309661, 0.6989290849931261, -0.6477150786976699, 0.7068296157712838, -0.5284023377449315, 0.7358909166588864, -0.5792195030026744, 0.6158473767241394, -0.7975032043484419, 0.617009833305697, -0.8556726688191616, 0.6488935274330362, -0.5952957808096584, 0.5863259764510672, -0.7730110565462375, 0.665090821976705, -0.7043221862740902, 0.7698232007976816, -0.608740560262593, 0.6170874929388573, -0.91873255560248, 0.6855277727887239, -0.6709156597864675, 0.6324391683579297, -0.8083874226366323, 0.602070400508088, -0.778900187152664, 0.7022489533751067, -0.7723540430598993, 0.7969535583271825, -0.6580494763501425, 0.6458187712286165, -0.785763078567437, 0.6426499538978492, -0.8025486155412731, 0.8035479922963377, -0.801007948295401, 0.7715213594571488, -0.876167124265805, 0.6629785313140913, -1.048130425991654, 0.4889893458636179, -1.2675667643029247, 0.8928752565952124, -0.5499892043257371, -2.456716924268908, -0.8116777486573374, -2.0096854529693164, 2.3097533707687203, -4.306519371461371, 1.2175370577668174, -2.9946407582449206, 2.2627602454128146, -2.033388104780522, 0.07447136733249715, -1.0587516747879844, -0.8688546419124271, 0.758868020864423, -0.5560332008483038, 0.8328342640188775, -0.6790565663376945, 0.7376358281374158, -0.8460340750235721, 0.7258791284301765, -0.9824258881090272, 0.8698639627337269, -0.9112241817160329, 0.6806784050725305, -0.655746431719293, 0.710246498750138, -0.8460365393998817, 0.7230818465349526, -0.7141362016021503, 0.8321135647816092, -0.628779426487676, 0.6783634489898395, -0.8998903124234067, 0.8744061579782336, -0.6687060745640614, 0.5788681613050198, -0.9009271935535906], [-0.029875301378470265, 0.35937648926273663, 0.14335837731599502, 0.05510532427442465, 0.36569891373606717, 0.20390332108626455, 0.09749107876059337, -0.19079153503670138, -0.24823383467055243, -0.34695089753468245, 0.09095719182524967, -0.2280490939393153, 0.24977406029645086, 0.05740338955898215, -0.3504667421524576, -0.3987074238617062, -0.10907692158587844, 0.1284030047356358, -0.225178272322247, -1.0481966885689804, 0.02549956488810929, 0.4348866574708536, -0.07298830832816464, -0.2898677325010731, 0.17902357527915747, -0.20806541400317788, -0.07854221602713257, -0.06022744186628444, 0.3785427154499877, 0.06613227817589894, 0.09115707906267409, -0.033351119552904915, -0.5107753457293768, 0.12194671978637377, 0.11801845960338794, 0.08829288989209487, 0.5067301089954482, -0.1475409517185996, -0.0800279961631372, 0.0993418427188119, -0.1330155149008918, -0.5576271855138537, -1.4247380176795743, -0.25931364683653524, 1.4160577844726572, -1.5166692419037955, 0.5601761349399249, 0.7225322752774073, 0.20221608020886633, 0.712467243116606, -0.5720225475024855, 0.23669725814671874, 0.26514388425360763, -0.40354052852206074, 0.16114941637136748, -0.13918312876920572, -0.46283596224033186, 0.43419900831748076, -0.0758114861313514, -0.2725687954734645, -0.06800700225515553, -0.03057643452612713, -0.3885996361400533, -0.9565122013765425, -0.6701049064725209, 0.12311093216479194, 0.4191634691481031, -0.06488300371371797, -0.4832000442694363, -0.11902113828076713, 0.5065622916239149, -0.0189070938932268, -0.0543966218518253, -0.23386778091909888, 0.38893024311986646, -0.3434973072372042, -0.29721580512568363, -0.5387600798225844, 0.20302609600937468, -0.14279003519368533, -0.06904843460130583, -0.09332721060462483, 0.17157421583464538, 0.19168850915008284], [-0.3220068387038983, 0.5119717254173253, -0.326618446815092, 0.1895098733093787, -0.1828421143106383, 0.5924624486623034, -0.5513496498747729, 0.7358386561971605, -0.4348769040204246, 0.31346995637953695, -0.3524101707257267, 0.30633567572823656, -0.32426166354938496, 0.46161971998227214, -0.6246196472093418, 0.48650196351414504, -0.21368777047294987, 0.20211279503241503, -0.536364050705675, 0.7065099910772916, -0.46311751924807554, 0.12927847887201968, -0.6807294219711172, 0.43595276414431766, -0.4036956796591231, 0.19333228399650396, -0.4414364257942134, 0.30847178426457994, -0.7307296511453164, 0.40554162993754617, -0.3111986788770452, 0.7147356364441634, -0.3219562470784988, 0.41107568952213347, -0.8627761330179218, -0.18128138137580327, 0.1893840682634746, 0.6361767191916022, -0.20655865807091114, 0.32690896811989684, -0.023774243765554152, 0.0825895156056407, -2.5826713350640262, 0.5060139915903729, 1.908958055434532, 2.296463942844967, -0.5603955075830607, 0.29883411604082866, -0.6204625556120508, 0.4446368847965701, -0.27647133742195384, 0.6173531808931628, -0.7384430240198175, 0.42647612024045517, -0.7704937015157349, 0.484190978985862, -0.10118019877975203, 0.9618128972619852, -0.6305186527038448, 0.09933889320081778, -0.36698142161044395, 0.2960215418888167, -0.359540837024042, 0.5478658281433373, -0.17083538159555964, 0.48810689406247537, -0.5077796577864011, 0.6510709375798416, -0.4705844980223901, 0.2021087754573562, -0.2647531454758264, 0.717330044754114, -0.5422187133544886, 0.21146544392301664, -0.33733251893084854, 0.4345202350134753, -0.5911583663443974, 0.2662867722281813, -0.419557343063955, 0.49293826485618514, -0.39867146789643637, 0.390657506140276, -0.4744830121411975, 0.35501224651425234], [-0.36258076117048965, 0.012451231364903994, 0.16515723644974323, -0.4048631832023909, -0.12862093140563638, 0.22663909780159888, -0.13649288046843105, 0.20533276754556332, -0.3903425560771831, -0.1592226553013029, -0.2025534541245443, -0.0068500491314144275, -0.35154968552722804, 0.10609018801115844, -0.3095833895332125, 0.061491177808057906, -0.16141623001012023, 0.20919054626073963, -0.20621469489370836, 0.15141202726422406, -0.42336257100737196, -0.2138168963698101, -0.15748413990159216, 0.19504020726748308, -0.5811275534469911, 0.2662769258409905, -0.43779104906536087, -0.8353520334874273, -0.19511885318618127, 0.33258158070248095, -0.21119428345900723, -0.011811255417313178, -0.1830500272502965, 0.02004396935967502, -0.548456352393199, -0.179927404393306, 0.01684800613509433, 0.2716485721130075, 0.033238596650909884, -0.12353616851679257, -0.4415629590794191, 0.592771171185617, 0.46278979416112825, 0.4185805035621121, 0.05459531292819675, 0.10112321373318928, 0.5610498744806477, 0.40225826965492184, 0.05455720250897676, 0.380939156892595, 0.08095595543360054, 0.32778058836222845, -0.05911318117295454, 0.1806463432765358, -0.8811837482034786, 0.20688836088650153, 0.10402478580102884, 0.10799333236760127, 0.15582319870249509, -0.07495766762908464, -0.3967193919318755, -0.34507864956806183, 0.053044014910480816, 0.18814548186501476, 0.01273383784104117, -0.2903898645377829, -0.07874726079132087, 0.1999855337589783, -0.23522873583497575, 0.9757038191735616, -0.16174326182194596, -0.3363461439473879, -0.889617745595547, -0.09149477183529169, -0.15362231779592203, 1.3641314382179066, -0.89652075031492, 0.039903063546171, -0.21743149048993043, -0.14426210836568307, 0.21861161906422122, -0.10269939770560838, 0.7027592057818854, -1.8259043123348977], [-0.10894074780075438, 0.16955977871168437, 0.12566592585198982, 0.31401744900636824, -0.16267965763040337, 0.12114065546782758, -0.26714009448586834, -0.043583185930103824, -0.2527718475131028, 0.16610823916768896, -0.08938149457757273, 0.1831732874208124, -0.27124282980002534, 0.2817196301061618, 0.035952624524119244, 0.2378188145079135, -0.2948100604662646, 0.009686315977116645, -0.28218886612800187, 0.010520689630751869, -0.21176264061797176, -0.01052105392892875, -0.2431531344507762, -0.051250032696372155, -0.3919113853041425, 0.1610356395672164, 0.08194719426825849, -0.02456370044817744, -0.25674554033674213, 0.06900931727329712, -0.5618085005858204, 0.28963950556701284, -0.2987280505588347, -0.16913580685012672, -0.32122402391647203, -0.0327505037338581, 0.0034446511306142763, 0.04233316611145524, 0.05808221695400015, 0.12387372599676753, 1.0649567217717324, -1.3811543173972947, 1.7580435484123451, 2.0969642366245425, -0.17150062695441895, 0.07569731924880337, -1.1028594643368956, -0.8316588613683702, -0.10674064594425123, 0.044465694336146847, 0.08054310107178661, 0.26650211903212506, -0.4129220956401962, 0.17080756511418016, 1.252774045749367, -1.2458504380560511, 0.22577960392592455, 0.6060805101746448, -0.7180661772631091, -0.4056623951206449, -0.15967205794246034, 0.2191628682486056, -0.2984877253421196, 0.3581188456440673, -0.38963410013309235, 0.29152467831907175, -0.4571863120956125, -0.0031662705467038724, 1.9112255907690192, -0.6011410686131865, -0.6234438431627749, -0.3397385012429812, -0.039520991688045536, 0.26807917536761033, -0.18046094723060993, 0.04157354297354628, -0.23111247174077612, 0.09658561194915415, -0.08134588153436784, 0.17932565518469698, -0.13474280593946264, 0.03290301425628068, 1.0763444248738758, -0.5557676611866111], [-0.027943752369393383, 0.1430148520587494, 0.2586268768576762, 0.11898370079264295, -0.11400629941338575, 0.008597781759610547, 0.0472549952810477, 0.1246168875389665, -0.12433892775709758, 0.024835394228530965, 0.10694989265897487, 0.2672056266669932, 0.08453572223409554, 0.1047340061310569, -0.09414682764618394, 0.07366473626842546, -0.05262206732188129, -0.22045541352521003, 0.22817967991602842, 0.18486037352208218, 0.24889190531544472, 0.27964431737906464, -0.26749298570228, 0.02131210139470585, -0.5289217032949044, -0.45885860579691856, -0.8915535710947741, -0.24854803330022537, -0.4988106292896388, 0.36513774859777115, -0.17841658582476777, 0.35308967010792525, -0.03388881369681609, 0.04501134875916651, 1.876280374415902, 2.4573490895338526, -0.6363878383140004, -0.6889849662414101, -0.2433087321882976, -0.12066054266215685, -0.24933981724868753, -0.27986061753706454, -0.2324594081586429, -0.3368391298542651, -0.16092862687200374, -0.02542236140200405, 1.2130844148516196, 1.654588009382511, 0.06609707444697616, 0.3019704080113038, -0.16903519438371553, 0.30924528647494764, -0.000704812809171928, -0.11785928970300202, -0.08961465804431756, 0.0572272709960685, 0.07131320278866426, -0.028153600245354234, -0.10412506250055621, 0.2504188337969392, 0.16649555450297365, 0.26683998186103186, -0.2799465373432635, 0.17554491416421855, 0.06566880211708409, 0.3084096988935817, -0.5407381724312459, -0.35930761296809344, -0.3962790144646181, 0.13928302839859902, 0.43012866571419417, 0.63412198339847, 0.18845388215713266, 0.271640419915513, -0.30565019666235105, -0.05027380240975854, -0.08714069570782376, 0.12114980810759277, -0.05133457894015292, 0.14263008420694723, 0.0022150731840254994, 0.13379342148529128, -0.3080808802391313, 0.0037791809625350096], [-0.13119288455310263, 0.2088685467993077, -0.5367529095528084, 0.5724286491131988, -0.6174638025346403, 0.44286410443224095, -0.43891217168979785, 0.5574524544906454, -0.6302429013969435, 0.5103528254722287, -0.31549762930140784, 0.6677908460607331, -0.15646287078473314, -0.4999808783547317, -0.1128278629822401, -1.3489737247460671, 0.9956113849267101, -2.510152892149637, 1.547153422150312, -1.7536266796590079, 0.7867074202275148, -2.488480618541425, 0.2201099978159082, -1.8531748365817626, -0.3369228043856492, 0.5659075976066974, -0.35071148655676215, 0.5577265451610101, -0.7149118526092596, 0.38194960776004316, -0.7054105365767869, 0.2822797523836543, -0.457175036115607, 0.719237382225555, -1.2203011651443112, -0.12917387344764794, -0.12805892133708943, 0.35395599288163065, -0.3740396853411977, 0.6708093966585764, -0.5979165626367171, 0.4686481112277959, -0.6995052790149459, 0.29745557766493835, -0.6303495101551131, 0.41594854564252165, -0.8243833031801121, 0.1611270498251663, -0.5891915489155426, 0.6627530042954023, -0.6024613003101779, 0.37105691406807007, -0.39153172001041403, 0.6563568092038934, -0.7271051517210767, 0.10668450218018502, -0.3606663764789514, 0.5155529096158133, -0.9758863179467598, 0.1877320412096673, -0.6871330938173473, 0.6847411493523138, -0.3761805433045732, 0.5985596928791144, -0.4148066380386362, 0.5987552851340543, -0.8686507827791842, 0.3773713392325244, -0.3348338409917905, 0.5801726409804278, -0.6718672180557742, 0.3159295202478969, -0.42695790942788153, 0.4849004353296566, -0.5354876538206497, 0.6210224103761867, -0.48667801059507165, 0.4089263430838173, -0.43007980767654125, 0.3956130088246844, -0.45067792170978943, 0.43366735573841014, -0.43767858584423147, 0.4906813073718979], [0.3712329802632581, -0.5830626122236264, 0.34134092086692125, -0.1609812138549221, 0.19753754101005022, -0.32137193395979224, 0.2515374720827025, -0.4243757068912468, -1.7994230797001414, 0.6521254783291713, 1.4844185989002154, 0.7458558008842712, 0.2574851593079007, -0.3916147995966072, 0.14503970822893567, -0.27215784858952624, 0.39522020073029573, -0.26712355711428354, -0.04419721261888824, -0.4605703005208917, -1.5872122736066865, 0.45256850975112284, 1.1242705932050003, 0.4584634087945047, 0.5224571345498079, -0.3918204537356804, 0.27554794483832834, -0.42842902056739496, 0.3650021929986037, -0.3533471449885882, -0.054069228934143676, -0.7464148239656071, -1.2737405503506072, 0.4724297334975512, 1.0042674639241274, 0.2934275410634645, 0.41532244468355345, -0.2433170775457862, 0.3061398763971411, -0.510712319714529, 0.2182532893884529, -0.5663480209362798, 0.08464251199629431, -0.6465946991889789, -1.6039278482083978, 0.13257281289287273, 0.5343335120805178, -0.10454390783649942, 0.17354069017754592, -0.26080114413287064, 0.24291098706483877, -0.43590619847157336, 0.40826584037441294, -0.4416822527909877, 0.2862577893485781, -0.36985913857786296, 0.40653496532347, -2.1857449291381754, -0.2966509616836243, -0.9563839805682393, 0.40661588017691913, 0.0392967909232741, 0.0715866484625175, -0.3713394494620955, 0.4472239005091406, -0.2849324743937384, 0.15536399741034343, -0.3298222985967604, 0.1293533950264265, -0.3221343140529107, 0.2398594953781773, -0.3869687833926264, 0.5582283984869426, -0.11480545669093965, 0.3776725724157604, -0.5634547964164639, 0.3407741957904964, -0.16255133540167302, 0.15775261382356354, -0.39986048035043975, 0.21381610890351968, -0.45874405938653307, 0.24092506882861733, -0.3543038005964046], [0.5152754633726743, -0.564130815690794, 0.336864870547285, -0.5355719885167312, 0.5845208743737519, -0.2141981654313142, 0.33153985297034894, -0.440513134657386, 0.5880923432471711, -0.4246723217259529, 0.5138104768390024, -0.22198423038941575, 0.19378520622756742, -0.21372431447682583, -0.0782861029232522, -0.6573680798313518, 0.7697602712043988, 0.04299903240987785, 0.32038993848303043, -0.6302850905927722, 0.2742359158193539, -0.7006410230195629, 0.6316432599911317, 0.12717949515214574, 0.16350398210648098, -0.8422984977424179, 0.6947758339936884, -0.41455640339318406, 0.3688206238022053, -0.8723917807900791, 0.37187741350306425, -0.7733774120368337, 0.7018429847012551, -0.37976361875234727, 2.5017208828565134, 1.6180625144640974, 0.06710703576209165, -0.18037091859288684, 0.13815797105674615, -0.582558779013197, 0.3703902561764178, -0.1598646054582141, 0.8448009642964732, -0.30590411245118065, 0.29731444877780416, -1.0816401107996316, -0.2778486487137042, -0.3488837042460543, 0.4388243203774708, -0.08324362360349151, 0.19614956907027137, -0.4568464204209248, 0.4198397542079157, -0.5571923426143363, 0.28618196982722005, -0.3424143677334286, 0.3836188021022124, -0.6486748715798654, 0.4969804396196347, 0.20383167895844612, 0.38324539296256177, -0.27234685445167006, 0.677155014489951, 0.3433989759764599, 0.6739634711204684, -0.29296058178588696, 0.23408830828691876, -0.6127312144698395, 0.4629848648791865, -0.3129755248885695, 0.15695513229267652, -0.4604739982595682, 0.3324124103751094, -0.20161244982086346, 0.4857760886558209, 0.03801129676717927, 0.4335312486358078, -0.3936447123380871, 0.21455444756210096, -0.5770814651746158, 0.13393651796391898, -0.6388318246723707, 0.17977675419497507, -0.8656325639365618], [0.11734107131850817, -0.04691429326219743, -0.01121927714229187, -0.34640304357477847, 0.2554856400300242, -0.022627954888848778, 0.22661302981813247, -0.20411412886382274, 0.08776405030254893, -0.20745154578309638, 0.2820245639858869, -0.15129008636415023, 0.4897928645279112, -0.015471334659281842, 0.2808861870656475, -0.12277004148131226, 0.40974041938463907, 0.011416876046204774, 0.34903235312464587, 0.1374460866896271, 0.5454901189685925, 0.5988178430762622, -0.056114480279796854, -0.2768336328183667, 0.26593597249177225, 0.48060325799011244, 0.24478387502101728, -0.09130858935002902, 0.3703638935272282, -0.03302276675075083, 0.10709046725351949, 0.08650362640287904, -1.1242599062265677, -1.1150879438155221, 1.5021180279643047, 1.4038679937408522, 0.6665130276795679, 0.40467907116487756, 0.14481096635241666, -0.15847542243876248, 0.06762542075001193, 0.08256744666706856, -0.11499740243011536, 0.07813396695330926, 1.7899036684423977, 1.828091029396996, -0.08375561783463517, -0.3856873628850266, -0.181662433515921, -0.2756834502505125, -0.03240073779653737, -0.0893698022447869, 0.15742419858394585, -0.20186927074609926, -0.00011180041547057703, -0.11060477733969507, 1.3843560166483937, 1.2582486674581652, -1.3410015983043309, -1.4439237836367371, 0.08267054889512335, -0.02025819724910816, 0.09401802904327902, -0.04502541969283102, 0.023181038703436126, 0.17774117984307986, 0.20741568813287023, -0.06073609368033084, 0.06467671194625378, -0.16615859832913588, 0.021250032201372483, -0.12785846818549923, 0.2083065784512524, -0.09656763878914798, 0.22728969604291183, -0.042624367056924364, 0.11263524412092679, -0.16355859198478287, 0.1934974158758142, -0.05192762964820949, 0.2214522671232845, -0.12889054105660372, 0.1299034473846221, -0.11073486610083529], [0.0790551483443222, 0.06404411523625109, 0.04686501440935093, -0.3206413207920511, 0.27851134829228336, -0.3133184724635674, -0.14568896784207797, -0.21068973630702392, -0.005842110227630019, -0.3454027866494624, 0.19547098946895264, -0.19487480802447488, 0.06475083009603723, -0.13974305167355303, -0.14355378749306114, 0.14116920007413417, 0.16815991345129863, -0.6279474642945597, 0.01879767444217604, -0.14422684635451186, 0.18573390794962288, -0.3862485149236123, 0.2884808958125229, -0.04035590429647771, -0.09979115611665977, -0.4187576021039568, 0.1850610353111028, -0.5780488148922587, -1.2557994551311373, -0.5982409695489446, 0.44812247499239277, -0.47536074401201417, 0.8254621876704866, -0.2031202551215403, -0.00643629658574104, 0.04762538862418516, 0.0758534933582418, 0.057661408738965796, -0.1702202327422326, -0.4123289450542124, 0.2342318941573834, -0.8637503453277107, -1.4538277861898092, -0.5850293844777433, 1.2748754572516585, 0.754022424883098, -0.11548005285931298, -0.06904754039989043, 0.05514608827181998, 0.19062582629987787, -0.051181793967681764, 0.04887001572113005, 0.5060468976731576, -0.5626713009400894, 0.7234716376797138, 0.12985860100750418, 0.5252181003482537, 1.464154413484583, -1.444584303487653, -1.9002310621268197, 0.03236157190033055, 0.2905137724034081, 0.29225024160423924, -0.36358753862782883, 0.30966317169771745, -0.17778431265071196, 0.6568233444860887, -0.1315076270343459, 0.049403449366332154, -0.5327705490371463, -0.24511686913405797, 0.42277723808665923, 0.23012560608534, -0.44892250737878936, 0.18621623185869032, -0.6044999171201457, 0.06644614323952457, -0.07676534905552863, 0.618256100000288, -0.19900288822630144, 0.5889026272586936, -0.06089221226444784, -0.20285132357064994, -0.3317299350651188], [-0.31080322611648675, 0.3312817887965305, -0.05449922119411653, 0.21707388205892095, -0.43979627009068745, 0.37104460909625825, -0.3149221885412421, 0.25765082081735824, -0.4855674772490791, 0.3487502702931362, -0.16586167014464848, 0.46681046787043295, -0.5202070823528647, 0.4692387161755444, -0.5398843008140088, 0.4562384306254208, -0.6408647985481561, 0.21633423576417132, -0.3692858517024352, 0.41554366949113086, -0.437178405095254, 0.34756304648101666, -0.5050824773334077, 0.19965907058616308, -0.40198036690753447, 0.44896016316591486, -0.3112465520361042, 0.6409867179283159, -0.46585560398813447, 0.15834689791166776, -0.3178781783990542, 0.5243710860477636, -0.20061898899396638, -0.0881909128503733, -0.1866630908274822, 0.11150649890423402, -0.1856221017741865, 0.35063380264867117, -0.17994984296138572, 0.37247700439116815, -0.27874869411465325, 0.3068901660878612, 0.21756875808788328, 0.536876437743776, 0.19945666426681508, 0.2216903483901527, -0.5082166431190074, 0.13806026940501778, -0.299357840988058, 0.6948960677234001, 0.06098371045909681, 0.8418977594980656, 0.4425233085969618, 0.7473177039914317, 0.08351161990568248, 0.4077436189382647, 1.1046367348613673, 1.4174726434748828, -1.8395616949664864, -1.2728744961354173, -0.5756377390590067, -0.10550884782003188, -0.9842622743093251, -0.18451566619190943, -1.1073114300427829, -0.2806956938474785, -1.003210260299715, 0.035204990429267495, -0.640373151284205, -0.0784485871905655, 0.5202066489917866, 1.1603038493586115, -0.2676292818202346, 0.4131151531607776, -0.15321586775196122, 0.3265243883294748, 0.13738638082384913, 0.5195568796405647, -0.20265142750410076, 0.41438069029430963, -0.23116619658702997, 0.4153946553111096, 0.1557966328792317, 0.7399286424346233], [-0.7583596063887541, 1.0621323106867435, -0.644890081806987, 0.4024190937537191, -0.6990986669870823, 0.8214622670573254, -0.8130885658593344, 0.6563401629551645, -0.8416257205421884, 0.5229231953115686, -0.7947575408013882, 0.7000454834685894, -0.8891805567569708, -2.0624473773746534, 1.6094814750961322, -1.2729734333720644, 0.9456613394075943, -3.2483818993734928, 1.159042210523244, -2.3750731024539395, -0.8102493405206149, -1.393734800664406, -1.8684242190614833, -0.9564872028669672, -0.4445995251139342, 0.8124720777771344, -0.638986852812392, 0.5016803271211911, -0.6586970527393209, 0.8002098141334734, -0.6303772264646293, 0.6878047313700871, -0.6246515933408302, 0.6034775143364163, -0.21656360178976067, 0.8293185753351996, -0.9536796470308693, 0.6781078553183084, -0.9592347541074656, 0.7396979232924241, -1.2583107990270188, 0.20705711139571858, -0.4673772105428108, 0.8688341680177488, -0.9101184288709449, 0.7053795216018158, -0.8513826559962372, 0.16811927842521396, -0.6251162955166225, 0.7608980742672946, -0.56319469244311, 0.8948518912119109, -0.7509495625284974, 0.8226518861119012, -0.9104393877406175, 0.6446843162382042, -0.7749504595083279, 0.7012239677056973, -0.33493430465246504, 1.0061096442470279, -0.5665806678491067, 0.3425757585184692, -0.6261777928374619, 0.5726472887003115, -0.46244377672956954, 0.7174337892502242, -0.6465138274792996, 0.735685269015147, -0.7986273347603227, 0.6885387090656231, -0.668345414157595, 0.7263998322881325, -0.7898498597779735, 0.7759011326100812, -0.515724943996363, 0.7741396283606089, -0.7061675991703266, 0.7068769210107763, -0.7308621705900848, 0.6803103125235339, -0.7642925108534626, 0.7679716719800448, -1.026525414355928, 0.5163675467592317], [-0.47812265439467466, -0.07676722802193275, -0.32568188553501576, -0.03429201557084408, -0.6797579198738278, -0.1630799731267495, -0.07256617683816607, 0.165547510202604, 0.4844633549935614, -0.13329036264918384, 0.43342039922978076, 0.13400294784758063, 0.16370085899428616, -0.4531589090482466, 0.2792191388545337, 0.3762033721398414, 0.8075988798578538, -0.48786076553833563, 0.6582124038161736, -0.20245055225347638, 1.232060014317459, 0.6170970748417718, -0.41257700314918555, -0.8307286334149289, 0.17704479505897225, -0.2386159821405934, 0.2284983848400393, 0.05183709361351413, 0.6198314232557233, 0.3634078238732743, 0.11119034607947922, 0.17447402309537477, 0.6234309377758323, -0.15575618878036387, -0.206408290002584, -0.4037315959284249, -0.5330870338672887, -0.6846851539782635, 0.11325553868984346, -0.15887266346138895, 0.38834694325486974, -0.19032078323999557, 0.335887351407191, -0.16172352785521896, 0.4127495638635897, -0.32897603607719783, 0.6242471365741147, 0.386574279794063, -0.30558874452056706, -0.3900631139040405, 0.059185333520962606, -0.39316141641150004, -0.13155858079142116, -0.3841201746200279, 0.023976615657475338, -0.4267272958140833, 0.20883154256657854, -0.794408707523389, -0.7230769158148292, -0.5059564956073659, 0.11222462835028807, -0.3030939113179305, 0.6376103986037798, -0.41501472342366125, -0.019883022155994752, -0.49295702342645814, 0.06802759375445228, -0.39349904176113626, -0.12807383652116533, -0.6261203177441337, 0.5490119505723785, 0.2834834201829635, 0.16818158070243452, 0.3389420015365184, 0.410354988614508, -0.023721397335738314, 0.12004773424553762, 0.4231840233486489, 0.15133025075188705, -0.1508168277711184, -0.1995639470046256, -0.5041200528559421, -0.24239731783605936, -0.7474895314757994], [-0.2529757769251839, 0.10615627681254287, -0.21835772465175882, -0.2522896467437706, 0.13623699917826512, 0.3550153642566957, -0.06065395229561319, -0.5045272694423416, 0.11043957146056708, 0.006700361483398977, -0.19137518040679452, 0.45183134549318016, 0.2277677671209839, 0.39465145761564074, -0.2339789343352446, -0.4292130114427111, -0.018749007154135085, -0.16455510357100736, -0.22877545212705763, -0.16960057743150359, -0.4135394126869144, 0.46497502450663797, 0.1342197939841771, -0.02406618674329546, 0.37285767300640793, -0.0353248557480162, -0.45623906448769536, 0.25743829085002984, -0.06432057746976184, 0.28425692233307565, -0.5171282778980666, 0.2808287962641394, -0.11123696060278773, -0.6337142951179771, -0.3835201883275845, -0.23462598968071754, 0.15209202014400622, 0.11047300947366029, 0.3143611089067731, -0.21339419460096698, -1.3035094732627786, 0.8377402217454538, 1.0068763921644421, -0.4632785131528972, 0.31063412225864695, -0.49855522801745755, -0.0700160721711111, 0.29922575694464676, -0.26380588429577767, -0.08333969375741418, -0.19291220331801412, 0.493811121973168, -0.5533798353893588, -0.0676883249395258, -0.08332270638575409, 0.4006624976948127, 0.3790484681166337, -0.0496000167500064, -0.4211569873204026, -0.5009034954372475, -0.007893352385052113, 0.14114372249515672, -0.22536671923582344, 0.18244983966559428, 0.03336386403496438, 0.138402827021692, 0.32410433646423453, -0.3188043610084633, -0.23451773651839442, 0.719764927933899, -0.005142013130882211, -0.12934212512326007, -0.13896769064585332, -0.10159789807200897, -0.20663553559742467, -0.15287037160558806, -0.17056575318161254, 0.4855210995881964, 0.14403296140582295, -0.3875781081823066, 0.3304781552252712, -0.13612252916262474, -0.2811090011250584, 0.4574893613855677], [0.07214856166532314, 0.0964190035873664, -0.18696663581404765, -0.2296572543967549, 0.001727931116505921, -0.2543909094677298, 0.21677573963990984, 0.1547243797493646, -0.1910206471957754, -0.06474836219011529, 1.0320023180282643, -2.6093872553856086, 0.15436994709509438, 0.19971141444611112, -0.04003261824161422, 0.41610245448845146, -0.09711526640317082, -0.09750930111006798, 0.003821709121827912, -0.033357341299344215, -0.3921235181604561, -0.1529089918280948, 0.9987626611771814, -1.9280832371215733, 0.25210274360112805, 0.2114568607643835, -0.07923153123721095, 0.39708157085047874, -0.20755592796980288, -0.29562327131573607, -0.1369966921260802, -0.12053996749526795, 0.027600300148892296, 0.19519993392440083, 0.4163292021941918, -2.080403297929003, -0.1016615010590917, 0.2028081442251262, 0.08945424915214634, 0.36630786957406997, -0.40488082517639956, 0.05744316826717062, -0.48696569438697734, 0.01749721311793064, -0.5104225131570701, -0.3479858182629242, 1.2366906818921906, -1.0739412892423637, -0.14565908357994134, 0.038080858592539714, -0.07038990690552245, 0.0724216397758231, -0.10915114577701147, 0.14702225183232712, -0.14234706294514968, 0.015228941445842782, -0.5219528476001785, -0.2748218642915764, -2.109443873940767, -0.007212972790238101, -0.3717942771906273, 0.873334480662353, -0.41882386745123096, -0.006767680990929989, -0.08666759533037285, 0.0976516996085423, -0.33781133604908126, -0.28193670943066623, 0.0035298333378797854, 0.11783646731799326, -0.6111733186881674, -0.32048604434754857, 0.4258567808497517, 0.2771235555772954, 0.00768904061801068, 0.3016933308056608, -0.20220564267998878, -0.07207687050449055, 0.051667128074366034, -0.05503179680730686, -0.29169792699286373, -0.07478720692812661, -0.10488283685737797, -0.023582304156094892], [0.4074967472567293, -0.44739835595207217, 0.5094475851670675, -0.6418400376240668, 0.6873647979292727, -0.2623827607623755, 0.48812059227967736, -0.4415391716602663, 0.399157376553117, -0.6563505348365758, 0.3494996886158966, -0.656344314801847, 0.45505116334571516, -0.5102763714852023, 0.2796983501682873, -0.47053721719966163, 0.7025783127509819, -0.4555692485556982, 0.36402250220770416, -0.6409687937289432, 0.2743829326854552, -0.5763074065151844, 0.38451469877371325, -0.6077048184747271, 0.8458715038911033, 0.05532292585379208, 0.39438481490655, -0.6236553519066882, 0.4714951135588213, -0.5442326518154519, 0.2284482623835869, -0.5367027012117781, 0.5431367300974886, -0.4724415819333258, 0.2223296071576908, -0.8572442157297315, -0.9579296501464367, -0.5156467836721061, -2.017254159680625, 0.28597838220245636, -3.4748404538075546, 1.4983291762884798, -1.867891534827313, 2.7533757717869705, -3.9976510558610556, 0.203772721391622, -2.4608319895671924, -0.6441186446215568, 0.4883271521695707, -0.40355846288931635, 0.39361165143973625, -0.673585252129922, 0.5687042374839568, -0.5461113602380011, 0.34683987541322164, -0.8657663300265525, 0.523138571895369, -0.33919740994321906, 0.07378147673204029, -0.9218518570517978, 0.3685850814128167, -0.5304136869442099, 0.6196106962838375, -0.5373017137581139, 0.4923559782555454, -0.47472039236947067, 0.49236440269315224, -0.4816443970500228, 0.48880969312713496, -0.5106222529708572, 0.44517434068720807, -0.5246907873641296, 0.6593623674718653, -0.5207620276543763, 0.533031146433553, -0.5859711706236281, 0.4318618120322142, -0.5718609620336109, 0.5169182174784136, -0.44280470042457637, 0.36795251697322484, -0.5559872350194512, 0.6598993545360231, -0.32237786010741165], [-0.020217842900143255, -0.05982249346965192, 0.3721362037078159, -0.057946546203191736, 0.16410897896275345, 0.023311643038543595, 0.02820418973934146, -0.20811256658530616, -0.06643772109048066, -0.3130078087188522, 0.021747233295627652, -0.232496863900017, 0.23573730774984433, -0.3918612924725134, 0.49831061114485115, -0.15026374577598844, 0.12904205527543472, -0.5403555567669809, -0.0806689841350433, -0.2770759485042473, -0.0032456881741605914, -0.6505390227896869, -0.042919270782426466, -0.5693339063159166, 0.5999591435755741, 0.3739392013734545, -0.08707369176031377, -0.6317592423729422, 0.24792747487876812, -0.13137507917216118, 0.08898087908823872, -0.2646515376198522, -0.22398619818700913, -0.6094784722178621, -0.25252885768254685, -0.5894917527954492, 0.18424046909788355, -0.010931717808704234, 0.05105983932006162, -0.12912424764693442, 0.343615148097632, -0.3589863666862313, -0.2781198644873313, -0.8582788002079059, -2.4570610759638125, 1.0091565384955874, 1.1599243791011151, 0.8355623876018428, 0.010473770886442486, -0.22271415080055293, -0.03690266155435267, -0.17183762866270338, 0.15285927492175885, -0.11070595121791858, -0.020071104429972314, -0.8318514768873493, -1.9022991186756344, 1.2775967930566188, 0.938561877530752, 0.6178058415784349, 0.12334941797264341, 0.024226486620215502, 0.07752222646246029, -0.11450615589257346, 0.22280597674003122, 0.04456831583298385, -0.14573778373952664, -0.476327282818092, -1.6872869656706022, 1.3112747035677454, 0.13651724600227777, -0.04017743114303131, 0.17464753831704732, 0.18637335869371333, -0.026604118189109988, -0.24798687569257505, -0.03916455783334646, -0.045068772036689686, 0.18226172452052566, -0.28039822898595873, -0.4730471032244731, -0.05423552324062155, 0.48992332044044096, 0.049189051477184956], [0.6165766538416745, -0.747882618153688, 0.7434356150944454, -0.7691088984868905, 0.8718605061882103, -0.7614339226486692, 0.708595058066441, -0.7474669763859616, 0.7452916138390542, -0.7372616862586131, 0.5118022011867964, -0.963139609793228, 0.6565449306689282, -0.6028052099954295, 0.6471635128307858, -0.6103807988971189, 0.7364077850579116, -0.8777389280432627, 0.6695408372634154, -0.7223406287352959, 0.8621653629819974, -0.6715822193832732, 0.6061383497845129, -0.8479545562867754, 0.8451553121022896, -0.7573597247001732, 0.6539514786626459, -0.7829298629510312, 0.6787770871674902, -0.6068765147168622, 0.7590307471844466, -0.8618219601597653, 0.5395342065998616, -1.1331175549142132, 1.3085172656474484, -0.15733058439468464, 0.8943205498139126, -0.9225165134720384, 0.5684107927436771, -0.8105939095903957, 0.8654228181891171, -0.7792977241694324, 0.7604832733289306, -0.8250142035521255, 0.46260426562526774, -1.0996225657478655, 0.5948594570633734, -1.0016546358671983, 0.7815803962810647, -0.9359264268956887, 0.8340250582040755, -0.6977980261151052, 0.7452031335065872, -0.6262589896670101, 0.5795766142058665, -0.9613936994564916, 0.5251626983712215, -0.9201174979481174, 0.5376242747338967, -1.027340323200137, 0.8530275586992144, -0.8019836801147453, 0.7162668630816047, -0.7677553114779587, 0.8079171391724452, -0.9840806504672222, 0.5518666233996256, -1.0626879637126736, 0.7690632236774674, -0.8243317964738166, 0.5637036735519833, -0.8654276686266495, -2.088245736821387, -1.202453321644156, -1.7399598542980645, 1.9991541083231, -4.22862003958223, 1.229755660762879, -3.794815360098462, 1.1361082585310873, -1.9965147133521601, 0.22204440659176883, -1.261773921868973, -1.0227637347296785], [-0.6970684212927702, 0.818618674695815, -1.0222033042337613, 0.739380234970685, -0.6196135327228695, 0.8225054322174608, -0.872947377760827, 0.5790249608194548, -0.7412269215750537, 0.8032991799563142, -0.8785335222055844, 0.43899909453897573, -0.657472264890066, 0.7623333064090763, -1.0904333766664975, 0.5773193918467832, -0.7826455695019474, 0.8581758326523777, -0.8821177968247585, 0.5406435116152254, -0.7187731521053595, 0.6898708333746308, -0.6747326168252386, 0.5101057748189205, -0.8314518763054292, 0.5966613299707666, -0.6493034765048293, 0.8425602656501332, -0.7354210541870877, 0.7586433947235355, -0.7133165914757408, 0.7091014666048507, -0.8704438482269973, 0.5108264127107447, -0.6709960243124782, 0.787674298873963, -0.7762826959557796, 0.2872572059066656, -0.9220225459479982, 0.7804938844913311, -0.8050351944284344, 0.5555994143026228, -0.8138012293100599, 0.7631531995456522, -0.8140984788317961, 0.6349153005925281, -1.136452105338723, 0.31881955458562805, -0.7180964903992197, 0.72289144896249, -0.5897453098870684, 0.5568232817128057, -0.8822526094561511, 0.7883590976092953, -1.063068093372285, 0.5410648545084074, -0.9716511102533693, 0.5549518132901372, -0.817091600658879, 0.43019278212738415, -0.3062034965964698, 0.7242209029142544, -0.6540638665134622, 0.7185523992475628, -0.7737889058967603, 0.6912789975109324, -1.071513710250994, 0.4117729268580843, 