{"layers": [84, 128, 64, 7], "weights": [[[-0.16930853481156044, 0.575141213627659, -0.4737663938801807, 0.5642797058736551, 0.20458514503183026, 0.6896279694512117, -0.37210994619648907, 0.09985880068454964, 0.15938862123687028, -0.30861774413636517, -0.4175705246666284, 0.719737879737043, 0.12049868411723914, 0.043931748493866454, 0.4920065887175619, -0.7145169052382356, -0.28710434106697263, 0.10936657065899409, -0.034976593687688476, -0.4297149913509383, 0.0459407351906897, 0.07135386503929565, 0.3956498487056182, 0.619311710375632, 0.008761360434153957, 0.3262024252356043, -0.5358075455486082, 0.3110339801557303, -0.49892319116186634, -0.0742686546212452, -0.43215282689194945, 0.016875725982161416, -0.5143590618907665, 0.09427688491532751, 0.8915837129952615, 0.6339519928376885, -0.48767434696635303, 0.095266704110935, -0.09344981811155345, 0.13636037021730701, -0.2866956180734422, -0.33957089591586176, -0.3548839503814948, 0.31444253942779476, -0.6597004696243124, -0.15799705244830034, 0.23754844168690362, 0.38953439848858773, -0.6505939442382453, -0.5974779719611708, 0.4788957170707173, -0.5945393085613676, 0.1277524558486073, 0.06274415796002383, -0.47494527893864374, 0.3430254115258009, -0.33515398531464385, -0.41013551095789996, -1.8317700866255557, -0.22319767042197508, -0.18545098605728413, 0.6755601001336359, -0.16612382204724788, -0.027191046906372064, -0.262752430357772, 0.24194331885058012, -0.5153662367345654, 0.029566068376306577, -0.010212917132138387, 0.13519503375784062, -0.49641966541057403, -0.7944760984121636, -0.08721179917953177, 0.2262735552703064, -0.20771798703982094, -0.021711470886645545, -0.3796992327795082, -0.03209475129495697, 0.06646068554753527, 0.16342788309132064, 0.13208413715971665, 0.31062190702636383, -0.1742529592894445, -0.24468696566122744], [0.2986179394470251, 0.1203209570089153, 0.06075324181156361, -0.16618480188730586, 0.4731585618849535, 0.39464734563747594, 0.20193284340166073, 0.19855719421313117, 0.48474476302028435, 0.34642306016397356, 0.03671439723251817, -0.2894348353558745, -0.35043436049470983, -0.2363620355277606, -0.2866124327457428, -0.3256066662795925, -0.04031831758336733, -0.3172587696625655, -0.4062069791689323, -1.4740577760992328, -1.9157680515786102, -2.3320905549558377, -0.686968540727256, -0.8259642776818612, 0.05942893040402437, 0.054518899295377295, -0.03243171114127422, -0.2476159917033837, 0.14023847683919535, -0.047343983703990414, -0.21980043310105965, -0.2149582572356157, 1.3826069519140036, 1.3579147972458714, 1.3212880002493008, 1.1195114800936474, 0.15317336718732522, -0.0022524287824114008, -0.2422714067968271, -0.25287828445008736, 0.24112835631064528, -0.08719338090210674, 0.0914626837984495, -0.0729785091829923, 0.40457807901237436, 0.05077446345062891, 1.3507229799070593, 1.0714354864562001, 0.05920680155432141, -0.18134335657668932, 0.27851897239115037, 0.07625095299807257, 0.14010637810608703, -0.1990214312197797, 0.08093352262564923, -0.06981377338421252, 0.013473018199762888, -0.22492272349102188, 0.18500091902256954, -0.0005315277866658024, 0.30219318455453853, -0.1454220002286012, 0.0914478664184493, -0.1420512342295222, 0.08835006437689119, -0.24313212380943772, 0.027839720292089257, -0.26171105430256314, 0.1720538480515499, 0.06442091446824755, -0.04342846842640842, -0.2231029692945763, 0.06480216729708538, 0.024675956565508635, -0.15854702333657125, -0.24814284600897482, 0.2990172556348979, 0.023115175502482044, 0.09760146293006956, -0.0832006824809193, 0.09791769303003213, -0.17581421717191612, -0.08533203105957793, -0.21260374138832552], [0.5847808066249063, -0.16541028872269323, 0.10471422458551699, -0.20887625542240057, 0.24485175886723726, -0.1207274218053437, 0.16906046733345875, -0.3029755303926081, 0.1380481928642354, -0.2719225586174587, 0.14429231125811742, -0.2888229087446966, 0.2648301966075489, -0.5302738892412886, 0.201927363584392, -0.2205596291067659, 0.36110596399842865, -0.5492755285413389, 0.0019848643059005985, -0.31835039437333634, 0.03265765333978083, -0.3513767758458445, 0.16361412262347136, -0.37426158114672686, 0.9012045599222586, 0.31815022897919876, -0.00726148753004523, -0.365832698828362, 0.10511426941912841, -0.29508018633200683, -0.09918149925670562, -0.5441334287774835, 0.5399461176042253, -2.4492853527523164, -0.2011473343226012, -0.6172136076105548, 0.27122607845013263, -0.4247692409955764, 0.2518527527821137, -0.13991913414195023, 0.20958284839272753, -0.5654524625130612, -0.00706507834598795, -0.6275204737779309, -1.6408673001694134, 0.8798384943360432, 0.5240211254559349, 0.038341749783165, 0.38584057017964773, -0.19082202014890293, -0.007059226362313174, -0.290978394077188, 0.2033202311824678, -0.11730008701927885, 0.07591210533320733, -0.41678812535634363, -2.0026215712051503, 0.9377516182450715, 0.6513277380029604, 0.02319709186044233, 0.4621583931761069, -0.2524973949995064, 0.11503862806098838, -0.3559642710711571, 0.23109958062094818, -0.046623741969343706, 0.008663597243752014, -0.18516332770819133, -1.5163151576813927, 1.0296152386121795, 0.19084839143712876, -0.10410373022877896, 0.24488160740299836, 0.33641427442377897, 0.18359641393196993, -0.5560879200936599, 0.06441863636377981, -0.27151957989030273, 0.1974573789588892, -0.2817842086196223, 0.24948614754271817, -2.8061582157701284, 0.17556198780350896, -0.2319143080262417], [0.733888935395792, -0.7595178232644954, 0.4476528645275997, -0.66654864494411, 0.6217908329325481, -0.41874340814674765, 0.47981134576338674, -0.5459414829658767, 0.5337968264590874, -0.4813231730008803, 0.2715808066431508, 0.24787704208414854, 0.38903111019753006, -1.0400063185063229, 0.5177720971659192, -0.04931505631234248, 0.7046784367691585, -0.43521179815988514, 0.33925431108241494, -0.6661291205611597, 0.8091639354456582, -0.2629048498978719, -0.5772732627567277, 0.6423724014732707, 1.1056495926574421, -0.5038605474171447, 0.3145556331400009, -0.477464000960656, 0.5075087134888125, -0.572126169595713, 0.5252795597300713, -0.6726191875004607, 0.29354719049596123, -0.9891017760108943, -2.35323433774532, 1.3128318224729412, 0.8091571227942325, -0.7019395313765352, 0.6635958259597009, -0.7415793331890259, 0.4683119755699476, -0.8365204374619574, 0.4112563387718681, -0.7712289572800847, 0.36247082746214876, -1.0466632589373532, -1.730035902983874, 1.309136494351345, 0.3447523861758754, -0.2595980645706222, 0.5517498326795238, -0.333670755633979, 0.3131862652247024, -0.7410788051813597, 0.26937150065767135, -0.8479715033123535, 0.4661304277522496, -0.5669000538717976, 0.19413022986778472, 1.4888868521757677, 0.48313150189163406, -0.9150735699502106, 0.5790651440798997, -0.2003752820823953, 0.517160090526288, -0.6115551092218696, 0.4898069769205313, -0.7456997827008698, 0.4620696944178494, -0.7768187034325903, 0.2856168097161718, -0.9350595981811287, 0.6354131054333794, -0.1955319881945278, 0.6273772824180973, -0.6557546263978108, 0.2994009751048589, -0.8869164066657048, 0.7226521561046357, -0.30254938876457466, 0.22962034490573419, -0.7918678176664774, 0.38767331821656104, -0.774528591466937], [-0.2935996821717618, 0.3067342650273853, -0.35217820826328855, 0.27040986029481745, -0.21635975417572464, 0.6355209330867877, -0.6076530480736262, 0.285140914928986, -0.3400145209228507, 0.4404367421366339, -0.7382938741797054, 0.47416786799633276, 0.06628198284577977, 0.42992736737124077, -0.44947343207094853, 0.45039592099559733, -0.32889664738452695, 0.1998002761649591, -0.4783031678781528, 0.43010990945620514, -0.3327894480427076, 0.47162237039982263, -0.9059951250651989, 0.14344457074898284, -0.19261206866071567, 0.5323331971514657, -0.6419664991848286, 0.5404146548519752, -0.08260491095719719, 0.6852882614330347, -0.8105875463153444, 0.3847838573229114, -0.7860280100192318, -0.0005604061558065795, -0.9721277229967998, 0.24904582932002742, -0.7009547767776089, -2.4642103940987723, 1.9228521697038135, -2.384829366838216, 1.7266171557303653, -3.009042529061581, 2.141691418596091, -2.732268256017348, -0.3875359089375188, -2.943173576731532, -0.45529915963138823, -0.6345242678531645, -0.29914910297635955, 0.8296863214048117, -0.4508133699693635, 0.5270641262800481, -0.47415875707112254, 0.4279301397727584, -0.7472221753968281, 0.4117113058100422, -0.4164876337414774, 0.3525909552958319, -1.0195998984964483, 0.22096775895818402, -0.6187628041904392, 0.4283369692624562, -0.451634254379287, 0.3895206571311063, -0.29734238967000887, 0.3256499324343988, -0.4407182091190164, 0.5187391828933511, -0.379746918436489, 0.4398658193796348, -0.7035612380898802, 0.4058036940791457, -0.31449924770040866, 0.24079942839749405, -0.4237902600697544, 0.3088013891637436, -0.21866113952853589, 0.5060490278487947, -0.3690751217104264, 0.3072770503127882, -0.41820468489873214, 0.40781428236631956, -0.7531587980459782, 0.43337454226449607], [0.1797162244182149, -0.09905990896512983, 0.18415081097522532, -0.22700602328356428, 0.29249329623339987, -0.16919352078089975, 0.08322972850799913, -0.2464740105074319, 0.2262050739568217, -0.1582785783410824, 0.1204142402358692, -0.4548756922828504, 0.43880997059929755, 0.0006159176658910116, 0.1092568878644558, -0.20002311314272864, 0.25762011266503193, -0.22933631725964354, 0.17830781437084264, -0.5349887379850136, -0.0015229474122867648, -0.5857154716237908, -0.23356534746049884, 0.5586125550351788, 0.42938535024780516, -0.5504825680361942, 0.3079918453994657, -0.26925714727798905, 0.26953876797593945, 0.09220646908760324, 0.016028739352384955, -0.507248218070983, -0.5439973303905974, 0.9440260720986137, -0.6938288980752035, -1.2148597456916468, 0.5129509214260604, -0.10925586788785607, 0.32260253156574165, -0.23524570236019268, -0.12747936317688618, -0.8102320377770958, 0.44493808987298084, 1.9266501849653543, -0.12245949349183878, -0.89189044376738, -0.5340756033500852, -1.2097617313683253, 0.011221880814185337, -0.22018202976068804, 0.5552455912837015, -0.06111276806722748, -0.8028765712127294, 0.4863096919541856, 2.2406952013523993, 1.381225438160536, -0.7273717231388664, -1.0596818114084658, 0.1315323408926872, -0.3744660619606781, 0.30458137773898114, 0.0330005445113433, 0.010959111249898432, 0.17416463043988548, 0.3704644907164547, -0.10802653797026968, -0.03753968079742082, -0.5638168221507889, 0.5876018786687479, -0.3184528498225035, 0.18492826132099147, -0.12766423186217596, 0.13446273680074725, -0.15282712555228947, 0.15391917630307625, -0.21194325961200883, 0.1485120428118053, -0.34574264512134917, 0.10298094782360553, -0.34312824439513284, 0.2605415103070653, -0.11252078022273224, 0.08542120073613689, -0.5214885248219635], [0.37485035218898877, -0.32080610620579847, 0.18590828111216154, -0.13696148492168084, 0.23066324599872653, -0.0546943129808412, -0.038067224619341596, -0.10658216321944393, 0.17709299526245997, -0.19438205881819487, 0.1410865328422617, -0.19943400557767382, 0.07355521061711948, 0.09337028629746502, 0.42250979437478936, 0.02264583311973449, -0.05897976323205014, -0.29587635631517245, 0.018291539110767065, -0.02817595606787594, -0.09353742836813367, -0.34907776950890274, 0.44326870094845827, -0.48853390928360746, 0.18398606664308423, -0.4670316248242453, 0.08624557428232635, 0.03479181409389964, 0.053435281282316026, -0.4433996007136062, -0.10853644249398764, -0.3679680148157918, 0.38432752228324507, -0.05468545061532847, 0.845710752316685, -1.364547488782298, -0.33616515770054145, -0.12481433252512904, 0.04001726268589992, -0.40444107767545034, 0.23443457477795923, 0.1208510359143811, 0.18769601839440567, -0.01797646825524532, -0.1265375774591478, -0.7729296233752306, -1.6743813266491767, 0.2895300760393391, 0.4245699801047693, -0.2835608469259302, -0.25747387837515223, 0.5436309133491978, -0.04742598290927901, 0.011148947526224046, -0.7820060520781105, -0.9096541410304865, -0.0201930159103575, -0.03780337557828238, 0.14440382471683536, -1.3021538123442629, -0.25565580647278374, 0.39460306385589045, -0.157418060520612, -0.07691052486009738, 0.0951457253719808, -0.4729816678112882, 0.4089168368253987, 0.10393082160578561, -0.2706129278395262, -0.769565887781445, 0.8197508295081994, -0.7588983966255778, 0.08682078112475386, 0.1072564532110461, -0.07937663566001353, -0.4460447446760778, 0.0986295029796981, -0.27567168245733364, 0.4154919229343394, 0.0334771280851091, -0.055750537389818354, -0.29724293821487224, 0.5176254376265832, -1.2227434211992532], [0.09503419691910843, 0.005155513608109193, 0.17542429400266454, -0.02427470897163071, 0.255668433678511, -0.6803377964322913, -0.08822450885130088, -0.20220888156912784, -0.15849734975149127, 0.2634444347478553, 0.057002111382694155, 0.001202355748696671, -0.4525904718954033, -0.14367712907001168, -0.3071544681460022, -0.11704802421740872, 0.14299738490374359, -0.17394412333335718, 0.2740865603757261, 0.23148891504176505, -0.29844663110838443, -0.37540791848994753, -0.6158300023322736, 0.8368020744199999, -0.049321805200780035, -0.1301563007819933, -0.6284475866138665, -0.2337024645614975, -0.7796917177446527, 0.21178370195614166, -0.5437889863101519, -0.09401860526679895, -0.31787284568311036, -0.05563754589380174, -0.8372201144085117, 0.4413053251760477, 0.023367569800116245, -0.08767841927406639, 0.31205780818326223, 0.1082211509833678, 0.09179011333213175, 0.1399156927504654, -0.5012972272090817, 0.030569817328085537, -0.7288012257716715, -0.7776177605154772, 0.7885785713067887, -1.9688189775543263, 0.42216265001839104, -0.4155403989562966, 0.21823228881885617, -0.28243762886751483, -0.8817726005702998, 0.5329722533471293, -0.13580530086982695, -0.309628384137001, -0.2244607983296022, -0.5987355892556272, -0.8227628829624661, -0.10505801073636113, 0.2784341825476028, -0.18316043211758967, -0.3000512819265428, -0.14315065335901922, -0.009025944700739886, -0.21059415885487337, 0.14643765541991152, 0.016250702217610553, -0.3556454083966742, -0.3315977034784017, -0.6417203801914672, 0.12485064914416891, 0.09696118039731744, -0.3011572983157138, 0.48585560490796953, -0.4261482374432304, -0.4135940181788421, -0.37852526363067823, 0.12925502823871862, -0.13191528890812768, -0.15824656203186604, -0.07200180074717552, 0.18413904780206378, 0.08664718634090031], [-0.8819861943499926, 0.6245678691039626, -0.5005483083390613, 0.889602186423259, -0.8143515109074214, 0.7892053144914456, -0.5825907392010231, 0.9071198821302127, -0.8435009127185961, 0.7535776866977913, -0.5503680151884556, 0.727864812212047, -0.8248271480787567, 0.6497092220086856, -0.5692333190072076, 0.5418415052871458, -0.724977229097244, 0.9095317611104178, -0.2848663993148242, 0.8501566952304666, -0.590097208348062, 1.0409311468630105, -0.6774118525431837, 0.5240117732542707, -0.622522337551975, 0.7856983278240809, -0.738932387698655, 0.6227344328949062, -0.7042228210869468, 0.7251459464969529, -0.6927040556876412, 0.8580184559932948, -0.7315265769720163, 1.0847248618994625, 0.0015243874477992656, 0.9239491676403406, -1.130227287867115, -0.6769278551179552, 0.250368382062557, -1.1818970654914844, 0.26376605996467506, -1.3276662237806471, 1.857159260154845, 0.26995727699592775, -0.7444211341294225, 0.49425238543061983, -2.779016053852109, -1.7104528110977393, -0.7466744204919077, 0.42817091623460496, -0.975385241257988, 0.6599558331898988, -0.582909080275767, 0.731735008973564, -1.0273114819434732, 0.6027880663556333, -0.2685912382333107, 1.3610175583421713, 0.3942329060359886, 1.1742520776148524, -0.5469692955739373, 0.27285308060299795, -0.7964097907246295, 0.8922219412197553, -0.4912027371278127, 0.9501062781205374, -0.4045744380863785, 0.7615856696886782, -1.0888597778168516, 1.0278845593806412, -0.18856908272487416, 0.5395344693124837, -0.8401206562420784, 0.8097262776879744, -1.0040818814996335, 0.399112989314356, -0.5583717072212949, 0.7234455541120993, -0.5527260973610559, 0.8417674358901789, -0.6791856218866833, 0.6562877364415434, -0.3564789865079695, 0.9263170632337746], [-0.18935690155398557, 0.5725332365752407, 0.41330574634850387, -0.5182965748989061, -0.352691310154351, -0.0009361435610538876, 0.34516834437571065, -0.11729474893458758, -0.023345340416917926, -0.5166473341383566, 0.19336105267959003, -0.2900451683517629, 0.15184629364362015, -0.7891161764323227, -0.048528024805587676, -0.2743009008378344, -0.5941579287647399, 0.10242691984105273, -0.028356956934640777, -0.038609116727613774, -0.03410545724782499, -0.21358592650116962, -0.7134652354473087, -0.9459552392506219, 0.07763024229610606, -0.3455181778897631, 0.3405750053718999, -0.7096800825040501, 0.7517272792745634, -0.4244013929098058, -0.047654517726057735, -0.6933335866159763, -0.648743881149334, -0.9862535672844457, -0.2663621636207959, 0.260918616732331, 0.9298274186410389, 0.5726770061516898, 0.21282213156109966, 0.0824474644319394, -0.06587032480825636, 0.30030292970568345, 0.05677993923909103, -0.7215905341421411, -0.49317846381455344, -0.6784032392797158, 0.11013076472515314, 1.1322609209622319, -0.4883246839878987, -0.11235619858908451, 0.45351965990264087, -0.4629270465524347, -0.3396780002448921, -0.5288345225064608, 0.068847803366203, -0.059369343659776086, -0.3887728391387358, 0.12545814964697619, 0.9756029351974185, 0.5057214500444536, 0.30479408020459975, -0.4861269757766514, 0.3311401856520593, -0.20425174321010958, 0.08985967728231663, -0.12387541194792251, 0.16012173199436464, 0.45195934373278696, -0.10414131956174297, -1.1748130642131174, 0.3762106355236919, -0.3434339101909246, 0.003321302027143678, -0.2772745901426977, 0.19735767866766532, -0.2834573320190292, -1.016481841011625, -0.19473517500203466, 0.3209982623087646, 0.22715327148393014, 0.4620432199512013, -0.11877783421487376, 0.23458131466454138, 0.08377433817084223], [-0.45500829436074924, 0.25813786232414043, -0.30594890824186244, 0.468271540083448, 1.2695395029247234, -1.673608904040656, 1.5593868394368848, 2.238395045644658, -0.33524000710687163, 0.4800535512326437, -1.0149389142655643, -0.4337057659004188, -0.5419694057083676, 0.2100370982320911, -0.48535532644294976, 0.23396413798984825, -0.36000832841310043, 0.48058072320560796, 1.0212112978042533, -1.7813139347636566, 0.7820219833896176, 1.5838323031869725, -1.1608036224862472, -0.37127458786532935, -0.4172620023155135, 0.29274336342441604, -0.3981385174603164, 0.47792060033589373, -0.5458038783549997, 0.2911518248530722, -0.8064803931423739, 0.17388737879132293, 1.0738694978484762, -1.4842974767076087, -0.22972034950758982, 0.5160860299420267, -0.5355097078673771, 0.4581624630557101, -0.5088275508343668, 0.5199887297098152, -0.5896351626508847, 0.19600101375638782, -0.6587735815760413, 0.21365143184307014, -1.0293582529003475, -0.18912691993786215, 1.247434163582727, -1.638284212173373, -0.1644705250815346, 0.38125684943612814, -0.2123869038976896, 0.32995441117349505, -0.6849155072203729, 0.144686201092269, -0.4102154970063964, 0.25264686547253784, -0.4983724589332929, 0.30210958839503577, -0.5938931059148099, 0.07708701844001818, -0.4422590338485913, 0.32341829885152995, -0.40589556248590347, 0.3253521448213645, -0.2777175060350387, 0.34747639633908595, -0.4969325965502319, 0.2510244030826876, -0.2204317216713581, 0.5136626178805331, -0.6635291060693416, -0.030732512045813492, -0.17146912514417828, 0.3107929025872784, -0.21744439812404465, 0.20609864971364453, -0.3260042843400128, 0.2084451742763383, -0.27881842868277873, 0.3007281045095078, -0.3261727311528621, 0.3047768875530243, -0.568631039130212, 0.09737702560132291], [0.35700405781251, -0.06889480753456406, 0.2566026053404656, -0.46802174242076605, -0.028782189778886552, -0.11914410087031058, 0.05692841702603621, 0.12081193895917233, -0.41250561511657124, -0.40744466694628106, -0.15078624381536027, -0.19596370102285895, -0.23770794063769332, 0.4962663631817144, -0.006502695658048972, -0.10328069498625289, 0.156294048471331, 0.04366262222900766, -0.14540956493532015, -0.29771198368394325, -0.330462187700767, -0.33574528539239407, -0.4451503318350782, -0.656048831023713, -0.07982876822714356, -0.22109729163423913, 0.3632698149315048, 0.37009065922727136, -0.2580611504398831, -0.24729326257386694, -0.15920393062378232, 0.05174036085408899, -0.3013485806729329, -0.5618846742462228, 0.3172278442714642, 0.20385773167864815, -0.2235607591043973, -0.5450478732575816, -0.09128021818461855, -0.03884302042816645, 0.04500827053899122, -0.638460965463322, 0.1807810600788526, -0.5007249911513856, -0.3893840666181996, -0.47509900179492964, -0.8293189717879811, -0.6573467102076321, -0.3978434260098711, 0.1972542088389122, -0.0778007790595307, 0.6398083903917321, -0.1052868620940317, 0.21151352159918022, -0.4906975140118927, -0.08815146931294386, 1.0635817243056809, 0.9145016796850295, 1.5096080629512054, 1.4105252827156647, -0.5881887355661708, -0.11742002778684203, -0.0797858281065104, -0.5669917810375703, 0.13144042838841272, -0.16925706812196656, 0.4895639956303412, -0.031165162164554148, 0.16467372250630108, -0.5917067427833959, 0.07441193238100058, 0.09997055808880376, 0.2655268623518886, 0.21278853559539215, 0.2667266249499669, 0.20118323395357146, -0.2553907808665301, -0.2185598865017433, 0.24650231777149975, 0.08436436459052779, 0.06181344020367227, -0.2052199745594546, -0.12971110514612996, -0.30499816033451327], [0.23326365169526492, -0.20033035451799014, 0.12810340881463664, -0.2663102479685527, 0.24004373519308034, -0.18704837268581065, 0.2613861250752961, -0.19268411440291197, 0.21065092802386715, -0.4792156473055612, 0.3060669408429243, -0.10046523418489378, 0.4127706770892028, -0.024146886972148774, 0.4585510486748798, -0.19021911243279116, 0.21691525494361608, -0.36550804410742305, 0.10481070850435527, -0.25136170837890937, 0.4058007321504016, -0.32612296371520355, 0.2407602454578783, 0.1044308012527626, 0.3149998717622808, -0.1820950463612548, 0.2127453980175038, -0.2125322712674602, 0.3597075243413125, -0.2600739977632513, 0.41040752123485563, -0.17962589965330694, 0.1340557706820962, -0.8095680456506253, 0.7387685294779875, 0.5861206812045939, -2.2126822595810642, -0.19925883583116666, -1.014222487273696, 2.38742599458397, -2.9756431956898286, 0.5071125503966545, -1.7436428170890288, 2.0997050418066823, -0.09318935462114995, -0.8376867485520993, -1.712713959283999, -2.315132627861986, 0.1375890994469566, -0.04443790031800554, 0.3767351660649329, -0.1433948484895462, 0.3523452649099722, -0.15467482084614537, 0.11386471697609396, -0.41747007193528873, 0.3142119645845111, -0.49774712653871683, 0.38889835256941646, 0.2800931060043802, 0.22835184426107752, -0.18937524443459908, 0.13048336797698937, -0.17396305244078142, 0.40956352782533434, -0.3310941551046343, 0.19758587098295152, -0.06726393152791027, 0.15977662171520066, -0.5730924359584341, 0.2661973179123173, 0.09267080106196068, 0.27001195411657425, 0.05253515802998679, 0.23275732084150874, -0.0699628196547519, -0.0863296938165419, -0.3242613341884027, 0.2768698125676332, -0.2400177031605854, 0.40320197094556487, -0.2382289596944012, 0.04424143508516424, -0.29516391262476616], [0.221457124733971, -0.2436878279561577, -0.027299738375156344, -0.3684323156420058, 0.40850497146991144, -0.0415235508630286, -0.1500365491313257, -0.08388642056996942, -0.09278098436166213, -0.26908692206712104, 0.012299726614900187, -0.14323050176383806, 0.5387447470063692, 0.2602338697715414, 0.12094165466465352, 0.08822125425868095, -0.07425597123573084, -0.08246162881983947, -0.0010378353016221638, 0.07105210215946609, 0.0024381448752175653, 0.41491365213810977, 0.19997378264144278, 0.11352708306651454, 0.3686716402011383, -0.1359830789695494, 0.07079444169379259, -0.2969493204904611, 0.02167051514232833, 0.07239939437572832, 0.3068299781685536, -0.00579183006507154, -0.08028105132590478, 0.5546613439459822, 0.5561031971426188, 0.019929440246091484, 0.1981013063680493, 0.1381690848045627, 0.02239160566429623, -0.18124542651914824, 0.08428377220191868, -0.013931017986906491, -0.3301191440942292, -0.14641719976188114, 0.20784616626828276, 0.8733986217329321, 1.0626412461181818, 0.7935868855769574, -0.6216993278224336, -0.05938482582514754, -0.41122336662155556, -0.15700173255504093, 0.01364828475042683, 0.19506215324117493, -1.1325634351037173, 0.4596994542250522, -2.198316445556012, -2.537038051741672, -1.3473844908792683, -1.4658825408755976, 0.21420588353876632, 0.16432336097103314, -0.012838859086742316, -0.016251948039889823, 0.2999899498940314, -0.1382695519530126, 0.25368220709463746, 0.14096451841268565, 0.4347211431432787, 0.5655991482994005, 0.5136607500444014, 0.5545259991908921, 0.25941005011869533, -0.16858205279976024, 0.1548773065955544, -0.3933219022701158, 0.11962435160881364, -0.03816308710458303, 0.2830872376672741, 0.0060703855199617605, -0.087629551989674, -0.223125156067741, 0.2617461029025145, 0.12144845921340981], [-0.20790856933992508, -0.3046451059787659, 0.08477935389128333, 0.5294189442174867, -0.27184361350218694, -0.005077806462164062, -0.30549442626846574, -0.42378358398032406, 0.09555640878905855, -0.040179844262651726, -1.0311290114168943, -0.44484975820084904, 0.03957050589521118, 0.7118124239996738, 0.14154356224660525, 0.017236077188504867, -0.8254087498587096, 0.5677935909120315, -0.6435136301868795, -0.21140667814137903, -1.5492668113202668, -0.7831636338666249, 0.01392259044967166, -0.6011892493159275, -0.14885030209691535, 0.05255497453654233, 0.3001054755899829, -0.2688027879115206, -0.6821166285718543, -1.2029980047488535, -0.2641734209470236, -1.9393445421148572, 1.2567952666421993, 0.5575981006908425, 0.3842161220205351, 0.5568493145986396, -0.19469518983926623, -0.02762644744145201, -0.0943996043942916, -0.2830921972213115, -0.15034499375385801, 0.26107427098746455, -0.317677960641304, -0.2210005092820136, 0.27527425244548537, -0.9920702547032229, -1.4258366026508915, -1.3560132947251364, 0.3739134956524455, -0.060163474566493666, 0.4621720684958438, -0.02829986158941184, -0.3029076521503596, 0.09735796255431459, 0.2178400410476401, 0.07513562744482681, -1.276316362464438, -1.071624869513152, -0.14225116451574668, 0.41381724981226764, -0.06177923650463143, -0.2231099674769694, 0.2655664035526958, 0.3615975866950263, 0.12736817821076318, 0.3698764555313651, -0.489245402729134, -0.1215306182180471, -0.9920317096959163, 0.17530872110074028, -0.15808440109016889, -0.1914056426563483, -0.02570608121777055, -0.07808654566074787, 0.005725188683140601, 0.4979490757776434, 0.35639744369853527, 0.0675665043087078, -0.04061843889221573, -0.3013788999399013, -0.77409475836182, -0.38871332957887367, -0.004210656964754593, 0.6594292056589154], [-0.6238948179963792, 0.5864391043669037, -0.6536834104584417, 0.6844433566136913, -0.811792328000309, 0.6235752780515544, -0.6991079232137585, 0.5712276057404995, -0.6272362479439546, 0.13733672800328248, -0.2730887067950566, 0.9940204845221283, -0.5335487725890545, 0.9380059259427351, -0.8546728823962298, 0.6740521951617833, -0.7074045594642973, 0.6700996247373991, -0.8959640196015406, 0.4497439850104146, 0.7829736874374909, -1.9990777715219032, 1.469104554887317, 2.7574113584153928, -0.6192083673779754, 0.6711447038625973, -0.6964493835513829, 0.7620259847174823, -0.7286435269141449, 0.6595093080704477, -0.977791448993673, 0.548667810903604, 0.6908426723640795, -2.4389312553374456, -0.02530873440154355, 1.1831467159920082, -0.6719982872833663, 0.7282124562822356, -0.7477608976014607, 0.7730904832790529, -1.0413737799201848, 0.40892882979984563, -1.1660190622650082, 0.42544646817591936, 0.6717305592220997, -1.9218839768671632, -0.577824806468263, 0.6236818450105559, -0.6177885595565776, 0.764911785740437, -0.5832599989329298, 0.626304590297936, -0.721964331910519, 0.6758063646685439, -0.8819826919997441, 0.33551858103440524, -0.7058273644486232, 0.3134637027711993, -0.610470781111105, 0.6414315631688488, -0.5245835804462753, 0.5667764430064531, -0.653162446369652, 0.549976770199405, -0.7684677149913116, 0.6687400914588396, -0.7722530915996372, 0.5032582048178, -1.0135206831508954, 0.47440589536564004, -0.8281571663459709, 0.35695249949990115, -0.48481349905847265, 0.8812628732811775, -0.7693814912535057, 0.5140844024933243, -0.5562055657499331, 0.656055928450911, -0.7431817778602897, 0.5674571190961246, -0.7360933340596478, 0.6032600128356573, -0.8118248660015803, 0.4998648526775836], [0.1604345620798871, -0.4347142255067053, -0.048254990681447306, 0.21007245374415237, -0.48423926134148176, 0.19396691363778212, -0.3042877985263454, 0.0588239235820203, -0.19792758706537483, -0.20249076129402477, -0.1343391203943081, 0.4125981496799521, -0.6172041363694378, -0.803994067655877, -0.5939430491287314, -0.020962460647613295, -0.06173008851893251, 0.09549170785364698, 0.484198679306139, 0.368125889667266, -0.45180327183428864, 0.6150190508136899, 0.5455262327034178, 0.40994400129845737, -0.003521125802326469, 0.10858004452472822, 0.2885319505288855, 0.38993105433418884, -0.18270855729168342, -0.18328655905996302, -0.6790300464287385, 0.3909556420761065, 0.5019142303210214, 0.10724477623383123, 0.9107657444034793, 0.48035865650531734, 0.2899336068427766, 0.19641547887572244, -0.2461034197536652, 0.4217161872485258, -0.711851331515701, 0.23088724639541253, -0.0957764015137777, -0.3453788957145116, -0.15093572296706464, 1.5562531035428248e-05, 0.17027922050832744, -0.6980915219299572, -0.427579653809361, 0.07533813047682392, 0.33784884732541054, 0.5001126552130478, -0.3010295457171942, 0.1744954054119921, 0.1241917079088924, -0.09560161911236688, -0.07805078393105433, -0.5616369589609621, 0.010347309998016108, 0.2600699685610377, -0.12273750877172326, 0.35241338050386506, -0.28209679148605793, 0.26920644747444167, -0.4555855034051393, 0.6529315822565507, 0.2384632157393877, -0.5818984597771003, -0.11691113241611752, -0.33438595424927164, -0.6025956155496586, -0.07178075030692305, -0.4587386183374619, -0.05912549263559361, -0.3823908324018891, -0.30608721414019385, -0.6402359756727481, -0.4147450102889157, -0.5250718171647469, 0.255874118692802, 0.2652664697487321, 0.25600373350696315, -0.4575841747528227, -0.7994410685127191], [-0.21754384682169436, 0.07328510655674829, 0.11403472914761588, -0.1305527355481608, -0.041474694173681916, 0.4320130413314801, -0.28704977212509863, -0.09705928467614214, -0.20538904700764565, -0.24634730336269128, 0.11043849535941822, 0.029489862459743887, 0.03973037917859095, -0.04594164121767092, -0.21706685228978903, -0.34900743156831443, 0.3817634350120093, -0.7669579604623175, -0.4621537197716062, 0.3477732896265984, 0.0452666776160664, -0.3985644964011716, 0.30604708601047687, 0.5544565989083488, -0.14298319653734703, 0.12244114966443931, -0.30150440701374676, -0.17380902471530585, -0.285853189911543, 0.20061274005391927, -0.10206049204883055, -0.035964670727877776, -0.12020940603262956, -0.7866916886665365, -0.10641085338240931, 0.21172360098000953, 0.06947673889245229, -0.029272140134640433, -0.353611089871576, -0.47041652847508125, -0.39919328098155893, 0.049566784662027775, -0.1693752786984554, -1.4866617861751812, -0.8877954278762235, 0.7858800281038005, 0.8595247942381107, 0.7717022302691453, 0.34851798556819436, 0.34287893072954445, 0.037114376922866676, -0.40809182152700085, -0.06769499994786948, -0.055347826938038705, -0.1578583420198244, 0.1551685478672438, -0.16801840873540666, -0.8794843759805306, -0.2371470441891429, -0.3009905538857349, -0.29015497997263584, -0.2014684047279391, -0.5572313735128462, -0.18001562982528235, 0.4544139993622685, -0.40843096715848354, -0.17046086435871124, 0.3222663142214141, 0.20420865197228477, -0.3875708495007652, 0.463953263510389, 0.5806507507836093, 0.23247666621205404, 0.09193947202709314, 0.198510945330134, 0.40170151184400404, -0.26037541795786784, -0.22320103991277584, -0.22431460555082094, 0.02417517985684997, 0.4510529452262723, 0.1842654821301361, 0.20599763394864865, 0.12936569834298095], [0.5536105657783456, -0.5068495303038842, 0.6469985270071558, -0.4355712109734993, 0.31752043086617837, -0.6564638467608391, 0.5727156834735759, -0.4067714507820966, 0.30658105532282415, -0.5410814990253858, 0.6959542950721473, -0.14714224982130455, 0.7990138420099905, -0.09960628828082317, 0.383469291770294, -0.387189884971141, 0.2725991653721964, -0.7761516930625795, 0.4211700132030421, -0.3472528626118376, 0.3377914093766977, -0.7978370337809838, 0.7890222723723211, -0.08660552624761758, 0.5093175500365619, -0.20126432457403878, 0.20126047953893014, -0.6876418359153675, 0.43058502146515654, -0.539698942395001, 0.45548705526598754, -0.3129087599822258, 0.605381729133062, -0.5927813563105514, 0.4327991516238323, -0.2889297967494218, 0.4602286641698315, -0.5187318050362053, 0.34385754653905426, -0.746816105917758, 0.21307958069993646, -0.3351236800961493, 0.6991512011839889, -0.27165559160872665, 0.12785977642270535, -0.9331015556788053, 1.48830218847054, 1.442890897017402, 0.5934428583396921, -0.35701184540137815, 0.43929690454202863, -0.48746569708632276, 0.4989055564023339, -0.47560754617372647, 0.2707462132270387, -0.7091430306740003, 1.0086634556233958, -0.03992061938582531, -1.4132806948567334, -1.6528711441864725, 0.30495926428457026, -0.1983162047888896, 0.33642258638474326, -0.25230207558957835, 0.583450125792803, -0.17874550778269635, 0.565655450376654, 0.1265630849631745, 0.5138052778006991, -0.21915450681837592, 0.18192428268522537, -0.5292063139009009, 0.34642440187118617, -0.5008907442637699, 0.5803020090334751, -0.4795557057227684, 0.051965094581740215, -1.204279476352953, 0.9308440657739157, -0.11485015161112126, 0.9428858426483623, -0.20870369090883922, 0.9145177348569367, 0.12289386862584248], [-0.28930462474448976, 0.38900560956522173, 0.20903953158200056, 0.36294569771602, -0.22950561200809355, 0.22468625486926605, -0.12768921499860555, 0.35827646200192603, -0.7461789262387755, -0.11986250656598163, -0.31383457247570606, 0.12391575368369925, 0.09213054424515768, 0.45442660772191656, -0.004373471980727719, -0.019370608607952634, -0.18638120103812614, 0.37184378566290976, -0.2989569522883671, -0.20888650796133332, -0.5037459098397951, -0.06032495543761082, -0.5591241737322974, 0.13161228034521866, -0.31883207683238673, 0.6332162184660813, -0.6316538662295794, 0.17709471104862134, 0.10828032898423239, 0.11292696749173278, -0.2829516071372496, 0.20835943725457792, -0.37749759051865023, -0.05765957501817883, -1.80995435251555, -0.3462421414137676, -0.05737985954833001, 0.22383384022213076, -0.6672509716677606, 0.13910087637919918, 0.053644855394025394, 0.3731765684402878, -0.30735638125671244, 0.07032934180826031, -0.2535284033958233, -0.17455853323643875, 0.0759686456236103, -1.802935481620279, -0.5229245913345003, 0.33088791178154237, -0.15315919973538222, 0.5726525060485228, -0.43042575630313984, 0.039985527723163584, -0.6469594926557234, 0.33169726951333783, -0.9514485571758448, -0.508345557147981, 0.22298756969423394, -2.080866834274587, -0.1014795506438694, 0.38860778005673974, -0.16152347111856136, 0.26797368986198583, -0.48550002869453796, 0.09282019994182544, -0.13407834855337203, 0.23092275007019658, -0.04737179920167053, 0.026658612075932765, -0.14799595067286664, -2.3760099349876866, -0.1462907657622884, 0.31296951725947786, -0.03723277076332053, 0.19827020949174023, -0.23587349175170888, -0.1583913783030329, 0.17258864826012735, 0.3108807878334455, -0.27485577903074276, 0.03539603818893125, 0.3386584689738707, -1.9771801342860003], [-0.2318107560384106, 0.4050688624013343, 0.24984493932352775, -0.25618806631775043, 0.4902732975172285, 0.10497502350289019, -0.3352798787653502, -0.055352907596398014, 0.05841684146006267, -0.06994409786164824, -0.47532668757915336, -0.45712102266178145, 0.5208801552717869, 0.30866152938288793, -0.059476529510196524, 0.6279126897176288, 0.05141538584682593, 0.5116942699663143, -0.6647416872194035, -0.42500306904160706, 0.2258463541864794, -0.7075686072207297, -0.7125740128608077, -0.2892841232253979, -0.05773189372398253, -0.3172433628265534, -0.31819227594171806, 0.03326444174529287, -0.19081952529667395, -0.7908111880206566, -0.730541398645026, -0.1123864198831783, -0.24194904296987924, -1.2927962009694116, -0.1382388203513338, -0.8902650523752244, 0.0756748593729192, 0.35595487833820805, 0.023069632674498217, 0.34237671139347275, -0.6216161597780813, -0.10535339473849425, -0.8059517419628475, -0.5476744234704815, -1.1016645720255867, -0.2783783155626329, 0.07693768734566521, -0.0012070529290569977, 0.7068997112510745, 0.18461115434116038, -0.32984773339098383, -0.735556715568494, 0.05013070842082564, -0.1302293649840269, -0.7112393856428598, 0.019091657765415736, 0.4469046302721136, -0.4318686268551608, -0.032001903319066376, -0.3048501437985345, -0.01784772432778412, -0.02407872067658328, -0.2191029036714227, 0.7693319573455815, 0.3598877694634785, -0.1901949932847645, -0.1957728730173534, -0.04067598500083042, 0.6267821451800114, -1.176670008786482, 0.39470657756071703, -0.28415587118577906, -0.07552831616575399, 0.14316531903010926, 0.3272182941324229, 0.14527318240361592, 0.5564383282912858, 0.24508337231365782, -0.11951338289920255, -0.2292027277494546, -0.12825205412495314, -0.33610835996844385, -1.6579410698977148, 0.05778108809892441], [0.3500150192775376, -0.5016917214916464, 0.4693631854236491, -0.42298203812657714, 0.3790903056816668, -0.45573000849607076, 0.3783328284633925, -0.3667972551823994, 0.3588257041324786, -0.4824354767373514, 0.3362934730445026, -0.5870352979749245, 0.511149396557356, -0.48334985562342514, 0.4254308074757987, -0.6235231452175031, 0.5434366947740791, -0.5871233962030998, 0.37334964244149244, -0.4907897583283532, 0.2368598000128806, -0.6105641505593166, 0.4109992712489783, -0.45146232826021176, 0.5830082932860031, -0.5217127573859959, 0.4146623314127593, -0.5278253241376842, 0.5027617455386969, -0.4532746884132399, 0.2735758582936599, -0.6794512424184058, 0.5428229075233469, -0.4747265266089843, 0.284199104985445, -0.5797309676392483, 0.5736867552361433, -0.13676944986382764, 0.4367746426401013, -0.6318826883049534, 0.49935382285099245, -0.7019502882327335, 0.3987951747055801, -0.7665850386937972, -0.20395959579384457, -1.2881412875941192, -0.9345806130169578, 1.295104671953726, 0.41389969386023395, -0.557031497836392, 0.5802735192853474, -0.3863270977539335, 0.504305268422445, -0.4170058579829065, 0.1716968360515233, -0.8321760606900825, -1.0323595682861044, 0.7459021076073414, 1.0461830209814138, 0.09693171442909324, 0.4120933111838999, -0.4441514223440085, 0.7670588730896268, -0.2746158888853599, 0.45990848965078596, -0.5032860091785467, -0.9995185212063011, 0.7596310683427597, 2.0234779899704334, 1.0298185447165376, -0.8906662753910183, -1.7556887193096586, 0.41138948579494167, -0.27251624893643334, 0.49391606785789216, -0.502644595712492, -1.1215704275363148, 0.99502282682031, 2.1213871477859914, 1.2060255490317329, 0.43561945369179067, -0.36223140213920213, -0.7172494292962376, -1.5789234475729763], [-0.26348805748181603, -0.34362013975172395, 0.1905050153907778, -0.17789068675892877, 0.788062551026984, 0.055586414553547285, 0.3791691843459025, -0.5541213486541086, 0.3817731299135617, -0.07703488960380785, -0.08633487960398378, -1.0024379455035235, -0.11572246646253713, -0.26167127587451383, 0.07006802043772371, 0.1403031920663693, 0.17979896052649097, -0.47235973172201257, 0.6569502377778582, -0.6115433994410209, 0.8914592236955624, 0.3027837345347441, 0.2944485838773086, -0.08743051449430098, -0.04809335977869701, -0.09972005914777723, 0.10918996768731465, 0.1638926139207178, 0.32046177220227173, -0.13426500625579693, 0.7266708387910751, -0.14838350231316894, 0.5175457536622627, 0.14830589949210846, 0.6511036414693183, 0.1357033526302428, 0.47048492381757795, -0.7742872650495989, -0.36186709384318677, -0.20501882786141273, 0.3833849964530387, -0.37539629786715745, 0.38149276457951387, -0.4371928583833881, -0.2547968201393825, -0.7093583080468002, -0.27034904210948635, -0.4879012135620865, 0.8536989107688256, -0.35308240649726086, -0.01123022828420475, -0.2924590896544509, -0.29845354154099324, -0.08695887627783411, -0.43045062831719744, -0.3824874671158212, -0.06407724908085041, -0.4026605437425948, 0.7442679489787738, 0.1879725466728498, -0.3356066777153736, -0.8638986184200131, 0.11928584634576297, 0.6354298866474839, -0.4606620324947004, 0.43103053739612524, -1.4072270960930513, -0.07678687425215207, -0.24802794847108578, -0.23551839760867155, -0.7463812906779859, -1.2689412042130612, 0.3747598064754227, -0.407653479222785, 0.4057197671930748, 0.12225960217972258, 0.00906520703495627, -0.4319544794715855, 0.20352019056917628, -0.3453141350669458, -0.14823531898385708, -0.4380090488154438, -0.09635334313561073, -0.34584756684184187], [-0.5650780475548095, 0.34603265728257054, -0.19358573970650428, 0.42566576741102263, -0.4984730973011432, 0.7345226635202908, -0.6048604048609746, 0.34161260862365, -0.470312582586573, 0.4592169505565453, -0.07388095685648696, 0.5494094344715198, -0.47009895930272494, 0.35570795446326864, -0.28012097470742786, 0.04769537728029522, -0.6359819826987192, 0.37429809960175275, -0.528312224180066, 0.3936082801769638, -0.2747115425682945, 0.7397828046830931, 0.6757398207911204, -0.7609991803702847, -0.3635170728853575, 0.5845118688966258, -0.373450670977449, 0.14130498924730162, -0.7290166984430849, 0.2095693727319429, -0.3774100172447675, 0.6079167515308734, -0.6358709608654325, 0.26652766365483493, 1.6066812309273284, -0.9971044839183615, -0.3445448447934066, 0.43216655626829426, -0.37701864783368405, 0.022146342707977135, -0.29718018141482555, 0.5573221118978529, -0.681284161724897, 0.24568740249486962, -0.7308276137853045, 0.35182968396865744, 1.3822296363784219, -0.9817952626751648, -0.7395555291414152, 0.17314241140066572, -0.45030326104538015, 0.6063736421340218, -0.4792085989240759, 0.4896946402978123, -0.6726991005348018, 0.38627951668526334, -0.508971809703032, 0.38197084804456627, 1.257794603962334, 0.31194032551297723, -0.4911433589426385, 0.46368083696491463, -0.3297844722110502, 0.5720237661432244, -0.5216409807065835, 0.2874278178734409, -0.46693438473977644, 0.7210340392287823, -0.6443460988877275, 0.33427976864773895, -0.3391520864245558, 0.3374816933595819, -0.7450932765003708, 0.28104533842973095, -0.1913578357080822, 0.4287638650771965, -0.47275839273718634, 0.2779261305487043, -0.5456138860367403, 0.5200526713877919, -0.37050442839179376, 0.3796023732450668, -0.2464071533433993, 0.49031806607832656], [-0.2511827845801493, -0.4367332654495859, -0.2011316835049202, -0.8565183825614368, 0.27195189116976054, -1.1922724493899304, 0.9915870975691622, 0.04934868894085723, 0.4203554899978461, -0.39049791084222435, -0.03005385068667175, -0.6908756893423629, -0.1721284047204613, -0.3624451938991318, -0.08382721135541095, 0.45916870011737393, -0.18401072710905078, -0.6479189761749313, -0.5554890513430157, -0.1924921016645657, 0.03869428716753915, -0.18582741730255356, 0.8130406156832342, 1.1061064119483035, 0.3132104437615946, 0.28655181003904856, -0.6296678363173285, -0.1244779773158721, 0.40072333261367515, -0.30512359927221466, 0.5196857821124097, -0.16576526934669186, -0.5565640785076793, -0.25422398751202585, 0.6488516522036115, 0.8338167737557409, 0.4432889038541054, -0.16948031786328618, 0.11343667802910395, 0.4618496030634087, 0.20228912661069293, 0.19899826121605077, -0.06328090806851652, -0.43167725658975714, 0.5692872126822983, 0.1583906962244458, -1.1237819230573936, -0.661460475347405, 0.33753338339964195, -0.32162801663666507, 0.3697257889722964, 0.06774504147791821, 0.3914434563258998, 0.7613139473495542, -0.19719642414343647, -0.46680223641201596, 0.03275993940839509, -0.1848546927317742, -0.8976395208923327, -1.1342374834410414, 0.5765277692150672, 0.14011456502194647, -0.20040842670797399, -0.1371660015963767, 0.4940994562335473, 0.117123090533798, -0.3517454442012275, -0.1714948632625487, -0.3712334574946415, -0.4397558766386423, -0.2928084275855827, -0.31184509276590044, 0.17816437309945393, -0.2578176549316594, 0.29105193102989974, 0.1054795416866482, 0.06844158032566264, 0.02628967548516621, 0.20692560474891858, -0.29632568499061135, -0.19309483245972797, -0.388082890234036, -0.04093236273915842, -0.046469982360615524], [0.29530540955981033, 0.3116037109739343, 0.01647091825254823, -0.11216766382546858, 0.05119496605484766, -0.09838673400766787, -0.007068002937883615, -0.15046023213574566, -0.06351894417839814, -0.233651373345116, 0.17263920703738372, 0.9447597078216863, -0.2353957663698826, -0.36500396617784775, -0.3620463142206363, -0.18954917563086882, 0.10518834528106064, -0.27214839105237854, 0.2724269665843541, 0.3614946925143379, -0.6477452118397469, -0.8036229075493474, 1.0415425732240158, -1.2274278357951613, 0.1278646734710019, 0.5399335684299441, -0.3896658545786753, -0.2364557665595686, 0.3037360910312491, -0.17941493466441993, 0.023262952435139223, -0.20456892344575053, 0.05739532220772746, -0.33513797339194923, -1.926950145396006, 0.1757396051762892, 0.004816590155120582, -0.4426387991157069, -0.00024819149726241233, -0.027680221855243447, -0.15087975262092673, -0.42964650898642054, 0.49078784952166477, -0.10533447483450034, -0.26347976717003957, -0.46335308463764935, -1.8056326196771704, 0.2856048499475834, 0.353649950754351, 0.025268863154493722, 0.5647433638394523, 0.14530551026242766, -0.14369892261366224, -0.5492700513573741, 0.24273971600077174, -0.31567057812190746, -0.2103919781607325, -0.28012466809408787, -1.3533460665599868, 0.47624456141938065, 0.2783956618693472, -0.29594639768855574, -0.2184053118436214, -0.10547030945516991, -0.03781681422198519, -0.39045687678330887, 0.16223328163344922, -0.4076691437923931, -0.28539085897500327, -0.3611569448255661, 0.12237329386964475, -2.4394044253569964, -0.125291621411733, 0.11425262342058376, 0.299998452908299, 0.29206156824395857, -0.19203313535373714, -0.3593156358191666, 0.1085341729957377, 0.039926422144876364, 0.014709143099581379, -0.023433764798644494, -0.22558592910203248, 0.3424388499758138], [-0.05241217950249584, -0.35685991612229595, -0.4957727993584014, -0.3773095233908638, 0.43587288697631116, -0.15783118822758566, -1.4171952895117368, 0.453340154435576, -0.12007726333877333, -0.1277781931561009, -0.9448280304334625, -1.9131404112829578, 0.22423952534370406, 0.5484882738024952, -0.20432434722715645, -0.10619032710920796, -0.25525947770894236, 0.332962230137194, -0.35893001226564913, 0.040775503667228444, 0.10119850695799695, -0.08563952405251152, 0.6606604795602856, -1.2899186693121982, -0.1998275728451496, 0.25619580473642434, -0.35470711665147997, 0.21483363338199213, -0.10811784342048335, 0.29130512564519373, -0.08017623322237212, -0.043645346613351406, -0.30295195634048666, -0.2672557760467643, 1.7174051142581825, -0.5553212998470741, -0.4276797673610378, -0.09963157037268595, -0.2952919125440392, 0.36245228352005876, 0.03188111705506854, -0.20724260057557367, -0.23622637507909378, 0.18612502512045268, -0.2136003699259327, -0.03723079244150847, 0.4975250022444782, -2.0827825555478756, -0.42773280286109283, -0.1783572664382168, -0.09843542328009378, 0.3308077567406132, -0.010916204959705678, 0.26724249543887574, -0.402488112894358, -0.09234362362580073, -0.3111492422406089, -0.04102935673465529, 0.5148851471761213, 0.7634060597845875, 0.18801219182532214, 0.12657460925413336, -0.18063911858881054, 0.05223164737760931, 0.1393221672230512, 0.31031112813697587, -0.4762103926618884, -0.2930151910539093, -0.48153106390057066, 0.10741803396946957, 0.23165144954308356, 0.4617421634565176, -0.3250056275817677, 0.2351452183806622, 0.32797816641083116, 0.8144634992636642, -0.15953592673396508, 0.23223654949237893, -0.23715788957845166, 0.0697934069544088, -0.364384478569774, 0.03133840572178454, -0.9236233473467566, -0.3147462619232946], [-0.0661812260210029, 0.2875213087054973, -0.02491585122195387, -0.05246281196501783, -0.11051963116908492, 0.01481679048492359, 0.0024571114725476855, -0.11942050021061826, 0.10264255415496064, 0.14235167677547125, -0.25225477917876415, -0.15186580816219392, 0.015650432855511157, -0.22437114674965525, 0.043590662389815064, 0.02872971109766769, 0.09839052768847299, -0.02001545375934242, -0.11722897397101686, -0.22758096156553093, -0.10407749623780906, -0.16294566281637596, -0.29131137714521016, -0.26036766166777525, -0.264363068550456, 0.05589787226173511, -0.1703417943023033, -0.09239549530789483, 0.07722289778281521, 0.2531979309403284, -0.25686770275074544, -0.2534177601253543, -0.5100664664880372, -0.16797060218682627, 0.30518393070828853, 0.20748727462460936, -0.3877994501285205, -0.24036388461770555, -0.22365226081285813, -0.16863290690891933, -0.008717426796337014, 0.0643823088348896, 0.42277314464976057, 0.28046226092959836, 0.13339759329652373, 0.04145325527907977, -0.4227225339375981, -0.33090003396861084, 1.0213903764590904, 0.9069527939270339, 0.9941829867660442, 0.8979333602284737, 1.5116206327751038, 1.6385635646627474, 1.0028414776142163, 0.26932401839799336, -0.11741914344068283, -0.01762006825558662, 0.6363699914501301, 0.7531904036016522, -0.050845847224263045, -0.2191154758351008, 0.22688946236892174, 0.16613389539481632, 0.07054017886556958, -0.10838674661960841, 0.2134562819101922, 0.2877410307933411, 0.48391616886919125, 0.31316515072066364, -0.34596251772926645, -0.22067766935717348, 0.1753129082456815, 0.17792960688381537, -0.13310898407681584, -0.05089162014280633, -0.028453346297445878, 0.15404613352332935, -0.34292474391278466, -0.13034033483555643, 0.18435801744023234, 0.21287914094238175, -0.11328119787239133, -0.06232144789299252], [-0.2502173438456524, 0.15673061111349357, -0.050598439944359995, 0.30847004682874435, -0.10508677841691885, 0.28449601006449987, -0.020780424524715475, 0.2817937727817187, -0.18320266304738198, 0.12844814864589663, -0.26230285176432716, -0.16491643503722878, -0.21719436385896232, 0.1494678752021614, -0.05652927157989483, 0.35135149979556485, 0.26609295337398037, 0.502263164849167, 0.1963128293017385, 0.3208248667123626, 0.06104221701423976, 0.48590637692434524, 0.43147034839080517, 0.7525393243135368, -0.5967748373840701, -0.40114411973984737, -0.8490660513049771, -0.3894470240506099, -0.5866407954185925, -0.9646890195485973, -1.942548500162775, -1.197780821602699, -0.842281936374333, -0.5129008352128147, -1.43382022128648, -1.352110843998785, -0.24613575835441312, -0.11149466128235462, -0.1878227212144809, 0.21398403526709076, -0.0511620470123844, 0.22666865650358017, 0.2512519103257851, 0.4041841888760673, 0.26376625828772493, 0.45362778044802665, 1.4870677000404244, 1.762248420788564, -0.2859215944768613, 0.27929806524902184, -0.2596765029109589, 0.1484680248074704, -0.4668771473841338, -0.1845900744560069, 0.04047389021766668, 0.2920027139153121, -0.10841919516445497, 0.4272159660158609, 0.5178924004539714, 0.6749099571941662, -0.3918811289649278, 0.05040490326019971, -0.1666864867385724, 0.1641748058242511, -0.17572494609831432, 0.1007833055785175, 0.007128659938106759, 0.2901294066897494, -0.060978544133774515, 0.1894527093361879, -0.030796097245410665, 0.3422134531445519, -0.30068242049609856, 0.13646601038445652, -0.3247101330004876, 0.0421107279081152, -0.27539453772413885, -0.07460048102653626, -0.1388914978745286, 0.29383132414151186, 0.05731834759907841, 0.21621463573866273, -0.4273203160854315, -0.15591122078369615], [-0.4968942887539508, 0.0741657739854685, -0.529366724113786, 0.16156363743331212, -0.05292957719031235, 0.23143871323597281, -0.3897923525696206, 0.16783820653098105, 0.0021993925178597374, 0.3577546141631136, -0.37265242860679976, 0.11810798192026595, -0.25406942050289455, 0.26178047889107725, -0.3369647215950978, 0.1796613548026987, -0.23645450016411154, 0.042559974966347176, -0.31002221758948173, 0.29747443045146005, -0.15464794282299946, 0.2829818500801793, -0.2207124290335296, 0.13581788077697599, -0.06363175001899908, 0.5503468086303829, -0.08677763114888996, 0.26715843252176613, -0.3879258523276858, 0.3790919595638822, -0.3165141230605527, 0.19283599268891377, -0.3021218620992753, 0.1449816291274261, -2.1334402648341055, 0.18915843920501293, -0.15428259607555947, 0.5535980596158455, -0.12999801294386107, 0.4556797177767115, -0.29584193700241707, 0.1336418294285672, -0.6033536635465282, 0.19478361799776514, -0.4981297138476707, 0.18370153481826149, 1.3951133593410103, -2.133539771601583, -0.33191254674237824, 0.20485891785672702, -0.2628085817963201, 0.19615241467455705, -0.17547595871913488, 0.2782090841899889, -0.21473067154933237, 0.018760731931509192, -0.2532725958549992, 0.2946650877034073, 1.8690060262594768, -1.5051764413897297, -0.26692897462062526, 0.30353323455562997, -0.19353628990831107, 0.270061520537154, -0.18921109796805402, 0.04605048920144653, -0.2583630528600027, 0.2324708560655351, -0.6151126409182386, 0.2535219761468674, 1.7694373048599739, -1.756873703777453, -0.5318417618553738, 0.39246099046807403, -0.4519156147083404, 0.15627262505619166, 0.06685354414520031, 0.4773997690341926, -0.6565724985033915, -0.10546892527871286, -0.45593295002218254, 0.08170098976405377, 1.082985160440635, -2.383311550366154], [0.10488263939462657, 0.02672684209942466, 0.19825341761815002, -0.06403297364204433, -0.34752886918998965, 0.1654151191628368, 0.46205975997423177, -0.34787622744869007, -0.14513049769311165, 0.21978599442730826, -0.1310634037177244, 0.06619410154242443, 0.16938987760005575, 0.026552348345057146, -0.45766291534716447, 0.04713319778085788, -0.24644119991231175, 0.12906761997768715, 1.1179664854067675, -0.40731542960769695, -0.37090469706867196, -0.043116651133163694, -0.438492395267691, -0.032350042983393924, -0.06841005825069804, 0.3342128362572674, -0.27022462781237566, 0.03186028039180086, -0.44738475930089716, 0.46079220426793205, 0.6630336282000133, -1.7758614919151048, 1.3238687302857948, 1.9645325414317412, -1.3507944154333855, -1.3154455507539082, 0.239416234755822, -0.019275119002252705, -0.2202737723227307, 0.2066025375863026, -0.46491152924839735, -0.03190754625761408, 0.7529783884866019, -1.4895208546703451, 1.0391306577864352, 1.3299822437196482, -0.8101409962613687, -0.8249081045006902, 0.12647432749660079, 0.22666182987498737, 0.15178651927868939, -0.17115481906380103, -0.4494487763789526, 0.5936318813708538, 0.6764547820979224, -0.14184795698861172, -0.5730112925706438, -0.011095555734375505, -0.40902761817436556, -0.19202320787939192, -0.31331090851880006, 0.11680573896552361, -0.13117341787445758, 0.3971075948626932, -0.29713416703059614, -0.032466753992640845, 0.3246458269756684, 0.020509425401201133, -0.5459751490302449, -0.18529761392740973, 0.09073821567639967, 0.44304956011418606, -0.4229994456625011, -0.24262085793645347, -0.13438204516091537, 0.21325272974732018, 0.021259459769204403, -0.03154064977656957, -0.4317528730142761, 0.13579068746982295, -0.10623557522371573, 0.006860805661472858, 0.1310684544856925, 0.27838549783865923], [-0.3293849852201798, 0.014436776453178658, 0.4454623623324638, 0.1217256358715366, -0.26979719698628885, 0.39938691001586957, -0.4325257671380317, -0.29569653581174454, -0.481732221101142, -0.3136341643010655, -0.1394991339750017, 0.0819777928058231, 0.05145007146862994, 0.07137177948364788, 0.15842997779976173, -0.13123384828459692, 0.04335455621721297, 0.14850529101813412, -0.7779209310396685, -0.675061778242389, -0.20522621542586056, -0.5482242900193778, 0.5055865871596797, 0.07308821731673626, -0.11862137522575497, 0.29130555022633026, -0.4985401376307055, 0.13297749023936917, 0.37367662390041334, 0.1590248217259442, -0.5528674204127656, -0.15021201900540063, -0.04950878398274588, -0.04755967930950617, 0.459913456311672, -0.25720769271822264, 0.20677346042174913, 0.5127606088152492, 0.025447356626569547, 0.3351645268433669, -0.6778889184564059, -0.28519545576059285, -0.02962946476871444, -0.7848129400241595, -0.8649785220214273, 0.24559554420276006, 0.7676034049540568, 0.9024066896306664, 0.11184195427134735, -0.36781453013087917, 0.09214711338582238, -0.602286101961153, 0.17872587247085922, 0.23148960472124328, -0.028166425059421515, -0.42773553906595324, -0.0014352845960171417, -1.2721252550285511, -0.16688611874325404, -0.27330367895942026, -0.21624604240372827, 0.44050729751083634, -0.08185968181582402, -0.00016115510900004053, 0.1555286279725115, 0.9724000293964401, 0.008943636830829669, -0.27849870995049997, -0.9846620717802731, 0.043305898713740805, -0.39507847376980726, -0.11184232813021508, -0.19041309127102496, 0.11876105036265945, -0.3901385329896284, -0.5277087955448032, -0.05539747837461828, 0.28774411409046935, -0.023009765713571138, 0.46950303547354394, -1.1082901285993734, -0.08871183683961381, -0.1996972422719212, 0.20653384956049592], [0.29641947772110167, -0.5819086692659193, 0.34466719790534406, -0.5806549581346114, 0.6533706605482235, -0.22260849272917452, 0.18925726747978744, -0.21063081098915634, 0.4078216778783653, -0.15491846400552223, 0.4534101034881151, -0.5104819510586143, 0.31599787835954996, -0.6630088882849559, 0.23447242182132558, -0.2709998739365735, 0.678895028206426, -0.35176624388985367, 0.03839671173777562, -0.029232134073004255, 0.5521369216077368, -0.45957140318280454, 0.37370528773563894, -0.8748069826717235, 0.7904884378919006, -0.23632896178348928, 0.5327584676003407, -0.5902218388571182, 0.26281458988682993, 0.2094952846759898, 0.22371184560013374, 0.0869143138289289, 0.2886154034125286, -1.149982517288179, 0.16505784233474122, -0.5246755643284452, 0.49804841907648717, -0.25589267216046574, 0.3603393321920381, -0.23483627017571604, 0.7674381649303251, -0.41156567204970906, -0.12240875774710479, 0.38048709418862287, 0.6675269522561603, -0.3301430242950922, 0.758831404326743, -0.1766978169389337, 0.48286957295690575, -0.2747198364490476, 0.4336631885188282, -0.5456398457023581, 0.9437149289682786, -0.7845955962821993, 1.0893456026982054, 0.9690496737900337, -1.6482570161159358, -2.267147633761073, 0.8755424018713216, -0.09042285312042467, 0.5184772461471788, -0.5526493619652963, 0.7846020052258121, -0.1730484559006266, 0.32299079868535124, -0.3261991710173263, 0.020137078200070505, -0.5399990807257068, 0.7408687601752315, -0.0008602733835957144, 0.47217974866696155, -0.21247013523954827, 0.6930850405584627, -0.41927065859747065, 0.4817073528541823, -0.46220299300213386, 0.5522845377566289, -0.38834947052093344, 0.19745075885085608, -0.6184870671704792, 0.5514221388446209, -0.6342718886084167, 0.332967619202498, -0.4180374936967893], [0.050462746353722686, -0.15794649015728623, 0.32108307851230494, -0.48381744405351473, 0.27591674474954947, -0.3436281028625623, 0.21137450709754127, -0.25668606796065724, 0.26484854058303386, 0.4306774726389191, -0.17000411693429407, -0.7563599297945652, 0.6131512036247582, -0.02532628528951927, 0.24694113415447663, -0.09556053873707901, 0.2534582383639584, -0.4147735822620151, 0.33636330614941296, -0.2733502517549734, -2.363146661706664, 0.721254415017496, 2.1700464986962373, 1.5814748489309804, 0.19967125704688035, -0.1330367512440155, 0.24304298914514907, -0.1712406482971087, 0.27308311453044976, -0.29362892682994796, 0.3054965015147192, -0.48070274626469417, -2.0647603258579847, 0.8279481166850218, 1.6871619663360267, 1.1179989301276794, 0.40442225037448937, -0.2101632679178389, 0.26750557613578546, -0.19534750837775336, 0.31104790449179937, -0.5739661147766192, 0.3055205626394486, -0.5211144360965863, -2.1567030278316492, 0.7937419767210004, 0.7491364952549942, 0.07298707917096793, 0.4094823273096743, -0.09747750211332998, 0.03556070665911432, -0.3918213610796637, 0.19757708363145743, -0.3229958654153148, 0.049323667789815874, -0.37816872384415157, -0.34320386343331627, 0.704191453434795, -0.003518746729171062, -0.5955712477837645, 0.3358462386625656, -0.2788890123130369, 0.17126606683194776, -0.30534724399042984, 0.3969684741340801, -0.25580023832182214, -0.004673319001151216, -0.4263428662785611, 0.45812752195313805, -0.8244005560215444, -0.11057867466583005, -0.626399001495252, -0.008768577124545585, -0.42625100730910803, 0.3703208189802395, -0.04149586953013725, 0.17678362658784036, -0.1268193863890569, 0.08730163428066233, -0.40202047194493096, 0.2779774432057882, -0.27826109268376786, 0.22945845528675754, -0.16045282194134733], [-0.3280153863622941, 0.2000902771161806, -0.3472376567556748, 0.2092293078815505, -0.21954665055711045, 0.28952915111968125, -0.47444027975552916, 0.033685151431627314, -0.22611510212804228, 0.24846083926377815, -0.48734491533134194, -0.07766870978413377, -0.2636158901584965, 0.43030860961868944, -0.19492206858980832, 0.4291573923166583, 1.2966396565450915, -1.475780827457545, 1.667349131075084, 2.1408053113484833, -1.2162424957423057, -0.7869548313796995, -1.0031110012416884, -0.7108650661399152, -0.07237211446607109, 0.2771392686873004, -0.17366378857842837, 0.19931998394294603, -0.16974012313705153, 0.3856953253891764, 0.8346864333015177, -1.4905006389752982, 1.4182762223260779, 1.8691030867179603, -1.7279607009087918, -1.3312452792024703, -0.13255041489688596, 0.25990343808429833, -0.3829932282502602, 0.1843256228496789, -0.5840203038175185, -0.007062406679220585, -0.7522060891530433, -0.01543626528254146, 1.1418820924686035, -1.498547712935816, -0.5237793192873471, -0.19774358841003004, -0.2007792964032957, 0.25351723137123333, -0.19096466383687655, 0.13964986530836465, -0.22764279530602813, 0.20445232384971843, -0.37962243469647594, 0.026209709410904714, -0.5176017184510705, 0.013554716542863311, 0.9258621854752919, -1.7666260819169823, -0.20672894595158484, 0.10965491229830575, -0.2922021108113018, 0.290981922473853, -0.2715808381754197, 0.14217990187983098, -0.363044528028716, 0.11723591283484823, -0.33979631659719917, 0.084478235958587, -0.07639460564834405, 0.246904546144748, -0.21038537913984728, 0.38072896562885405, -0.168346093226178, 0.15951463131758453, -0.29854780031124883, 0.24016015628901863, -0.2670469914977562, 0.04210172478524089, -0.14982156387226198, 0.27333924392146974, -0.27479860572977655, 0.23291932337299356], [0.118435376620236, 0.16788317366131428, 0.3817690640074578, 0.4933591085381102, 0.34532099068110367, -0.36593567434891944, -0.16279411789707124, -0.11464316100185584, 0.10210662809817048, -0.32886908926459074, -0.3834408045584081, -1.3073162609920923, 0.008262569584678282, -0.033907961768816504, 0.11639724300059892, 0.41168515012028045, -0.28238062069356873, -0.23468522212260792, 0.4804434471133978, -1.2237711955048467, -0.6265126662771102, -0.5754818876716383, 0.1394681021200704, -0.35800489573666955, 0.2321260811198091, 0.040747669230263656, 0.13665865556138787, 0.03485627025818962, 0.09372904517286704, -0.5877636041899257, 0.32148060271162676, -0.4609483083497385, -1.2782042571985592, -0.7515198748231336, -0.04433018111202443, -0.9011289605132328, -0.0017454122553874382, -0.33299263049853683, 0.09625432181998847, -0.595802192751633, -0.4706503979119945, -0.13328438300447246, -0.5801842159623157, -0.6843103782244312, -0.3018991397984784, -2.583314517529128, -1.2387786907708889, 1.3171524982776932, -0.2085961985454911, 0.12993909841859597, -0.15983245123512121, -0.1979037170469032, 0.027876138518229638, -0.2966946215923638, 0.33864545099675414, -0.8798647765315097, -0.9455778543178129, -0.6087778769848364, -0.03222973817145602, -0.727215554732712, -0.14387241081151808, -0.46915484714780686, 0.17441676992514826, 0.0755151991454508, -0.5909386443609863, -0.739126365310585, 0.9092038065685575, -1.017641960947937, -0.8120278588563222, -0.3091815949186073, 0.4072090505703939, -0.20151895847133974, 0.12864916135014343, -0.12531918104997647, 0.012474925652347745, -0.11028889632576316, 0.11390055710266148, -0.5990864061067774, -0.712976886358661, -0.7111655313096771, 0.28102543441197264, -0.6159613564543797, -0.15584535656508405, -0.77479657903967], [0.624420947744212, -0.43857915524957175, 0.623983154107633, -0.6038351067192023, 0.40399903822031685, -0.5413035806254171, 0.5597742501138308, -0.4831276302486339, 0.31871619103672155, -0.7028853699507066, 0.5320407831113295, -0.5684889899812979, 0.17321778555269868, -0.6151505525793961, 0.7281922580260431, -0.4702765643310422, 0.5639981303464705, -0.5860353772859214, 0.4394588452863, -0.4621714421815926, 0.37549703817476177, -0.6958328728047786, 0.459900268796332, -0.5824885257197353, 0.704556882223757, -0.4795756966071854, 0.3472888104173706, -0.7635496162351232, 0.5760327798750553, -0.5191871710706973, 0.46651952104843125, -0.73618630958775, 0.2737782710001446, -0.7046693149736414, 0.7251635036029244, -0.4109880477335994, 0.4142924932940924, -0.6149507516446355, 0.8504962319935052, -0.31772187124585316, 0.3606318937786136, -0.8425146103575012, 0.5086629316537378, -0.8143706500993486, 0.26329199297493394, -0.8570688336360184, 0.2810780700607812, -1.178402503453188, 0.5168440069058201, -0.5337679883400032, 0.7329589011411727, -0.27529240266786686, 0.40203933452838564, -0.8320473566409761, 0.5589188999674236, -0.9160888661625504, 0.353647598581267, -0.7697311955212724, 0.3113620125706202, -1.1856639142538048, -1.1244774796662573, -1.076459580590559, -1.5228562186273795, 0.6456005315668638, -3.371716268183035, 1.1600072930226837, -2.0033668291775544, 2.0055216096362067, -2.793522304942656, 0.5909562865095588, -2.2915061324858486, -1.3711853312172952, 0.3523240399636263, -0.7109547664078418, 0.5933181978241934, -0.6575374505854499, 0.6731295333418558, -0.6100795316049897, 0.5512343957665758, -0.7369154121410374, 0.5433520032291012, -0.466818329184963, 0.3070349623417848, -0.9238288966594346], [0.6194498169013088, -0.5479244896291525, 0.5927570478575662, -0.6878021553057456, 0.7624912125221961, -0.6392553273361036, 0.7349332478219115, -0.6021177799236339, 0.7644983757857403, -0.6346088901027421, 0.6393044182202083, -0.7687573039545728, 0.6545553076374682, -0.8414943012498542, 0.6855146583917084, -0.6338138641949896, 0.6268705910279947, -0.7934518746035291, 0.6877091030818085, -0.7561904470825122, 0.782855037652699, -0.654528979923482, 0.6061733315194087, -0.8910640134002523, 0.6867877584947703, -0.6962575603763562, 0.677779399068269, -0.8330869136240409, 0.659545927353783, -0.7777458343356212, 0.701138985945312, -0.8222666832060423, 0.7779031371731041, -0.6803020665699389, 0.6396404330197902, -0.8050166839337255, 0.672592855161999, -0.8713051175923959, 0.8109071014380883, -0.8618920606727203, 0.8305020961878895, -0.9081715490776087, 0.6982937290680198, -1.116258327500409, 0.4893136745600572, -1.2745640121842166, 0.9101029304476571, -0.5704993611729497, -2.4955474543611955, -0.8115337145973368, -2.0041662266098452, 2.3063689295342136, -4.3180552025690675, 1.1015711615739872, -2.969885634483104, 2.227687795768171, -1.9999361136841463, 0.012269453947262516, -1.046447730223696, -0.9235274204257251, 0.7831650485216934, -0.579865640414694, 0.7883470775215219, -0.6763466331256135, 0.748811560097597, -0.8197672375959951, 0.706985288373259, -0.9518096179389026, 0.8322197045087634, -0.8871458700148649, 0.7072841688563138, -0.7488535128271357, 0.6782590096656763, -0.8282319572496042, 0.7306773975037739, -0.7248452877745255, 0.8134139217100604, -0.6485342869864563, 0.6998808825562156, -0.8928291286505414, 0.9023118909045011, -0.6498894405010714, 0.6329263986898016, -0.9026958452779142], [-0.08561178893806923, 0.3307885597595687, 0.13969379686517097, 0.17860354054668326, 0.32510159043828296, 0.21250088103611275, 0.110997719467164, -0.18516942051299465, -0.21841417767334623, -0.3656804273928788, 0.05539887245910497, -0.14742138781584338, 0.26335004993573613, 0.07060565562898458, -0.3297827698701339, -0.49438952643833584, -0.18524557291808183, 0.13178883371559744, -0.22210677863896278, -1.0111326208897384, -0.12288571181819058, 0.3521263281880743, -0.13297314578621935, -0.26249460095485333, 0.25700816945745747, -0.1205063905415708, -0.20293839538128292, -0.03943439472787007, 0.4119640209040307, 0.08186535734384481, 0.09593663510696372, -0.09253843474100304, -0.45780220167495234, 0.11818772531305205, 0.09559390419070615, 0.13321678086107017, 0.43589356658782064, -0.14600103445017087, -0.13163550297597865, 0.09213323178230333, -0.12613312356751513, -0.4300658719741874, -1.3560343020800485, -0.20341177952763795, 1.4198986100815938, -1.5075056373695201, 0.5550440335803061, 0.7577861315660207, 0.1947478698945431, 0.6770422931292596, -0.4849911013772459, 0.13204674441698439, 0.24407157306555258, -0.4735373808141217, 0.24693163714203653, -0.08152224805561578, -0.4157948497322224, 0.3863952473725625, -0.09310074383133211, -0.2621086661403601, -0.08519604681419632, -0.0297427778869397, -0.3978924961234446, -1.0019251140173706, -0.7400535760184773, 0.2214215636109541, 0.34634825331666014, -0.05623140885379249, -0.5273721335796323, -0.004173424455224099, 0.4336233577537161, -0.049146812640569956, -0.013302881714186119, -0.2843568994377312, 0.42118766923041556, -0.2364597698069745, -0.30386204275680173, -0.4911855041086951, 0.09400217878752601, -0.2721777020002398, -0.07493176000210008, -0.005096663274706939, 0.06999084863458205, 0.17434475985305486], [-0.3315344897116855, 0.4603358325267272, -0.3020657997778995, 0.18353430092167097, -0.19043369620202022, 0.5871802173217893, -0.5936530744179, 0.6640943590863814, -0.48072867375853945, 0.3224383862479418, -0.32485313297170887, 0.3896405260940004, -0.3733703677975825, 0.44283228191547436, -0.5638051357506801, 0.5323385610234398, -0.2337048416257741, 0.1270188893569907, -0.5040473549450047, 0.7805643864236519, -0.3834619593589124, 0.20101117492267753, -0.6951977764415783, 0.39005434405117356, -0.46628104285584976, 0.24809775422172167, -0.44939036724018105, 0.35220078876856037, -0.7406099787091844, 0.38135938799751934, -0.3995237473238866, 0.6533164649772635, -0.30272945595257145, 0.5119328004845738, -0.8307891860536746, -0.11653930078709646, 0.13039409662223608, 0.5729456163541766, -0.2221032377106241, 0.4708856807840499, 0.017216639815370197, 0.11894400593666347, -2.5599255888629178, 0.33067827201683103, 1.9448242709432895, 2.32601022425752, -0.6034760679394153, 0.27611549974414473, -0.6602335342315084, 0.45962024641334265, -0.3415412314476771, 0.5908268985060617, -0.6590775822109983, 0.45421918729672756, -0.8576309910383346, 0.40755617105393827, -0.13288936102383042, 0.9257992684518573, -0.640290259041362, 0.06706620256409977, -0.4404243304328389, 0.2597109163008484, -0.3209892117728547, 0.579444085328698, -0.2230176959679767, 0.485885303083425, -0.4565655979345699, 0.7442433189434509, -0.4765983101230545, 0.18942039907615263, -0.24785822296492133, 0.744513098249008, -0.5613536917850667, 0.13781811610325131, -0.28590859953374864, 0.5311337063084081, -0.5929114265457219, 0.2572411103610491, -0.4473803023498884, 0.547809964035662, -0.4365752724098398, 0.3609909913381745, -0.44124272558674, 0.3861734443150303], [-0.26678151139919826, -0.06366204303016158, 0.08899554847581961, -0.2979514687573105, 0.016201679564701522, 0.23644523334007383, -0.1173876133850778, 0.1790527325972235, -0.3231234421486635, -0.13324492287365364, -0.1996680730631703, -0.04803380312418142, -0.26253344151648794, 0.07933033679565753, -0.3536420425707145, 0.001643469565244154, -0.09063212191302286, 0.34244436377576126, -0.20847696230113824, 0.07220092276225588, -0.3728694880187725, -0.2064588320584295, -0.11992769766182912, 0.1395051221703081, -0.6598618114557742, 0.22706685170726867, -0.47424701154796317, -1.0034434098207532, -0.04769623392109081, 0.33352520591510065, -0.24056374019473098, -0.09516927063790155, -0.11535230089534831, 0.04306226576937334, -0.5331831855882021, -0.18987022655059826, -0.07635230874970718, 0.23094520538185334, 0.03271351555473561, -0.12602479969659958, -0.5303070373395933, 0.583096028893914, 0.5652930785268919, 0.4169059713054171, 0.08648256743909775, 0.004625242466446903, 0.45759250317453654, 0.35323568844870074, 0.04200846476864158, 0.18054032342277437, 0.0925969572457129, 0.3029599842802702, -0.09815110103199194, 0.09977744169959556, -1.0209261292694398, 0.28696982598272985, 0.142093671594437, 0.1741151179092191, 0.17010290541546044, -0.021322621803068605, -0.41073732756203163, -0.24479162211850264, 0.13483819603338495, 0.2606430700525948, -0.05148020935529531, -0.17535711387769848, -0.01007820574089092, 0.19139576949520362, -0.26901032486743875, 0.8753185811943482, -0.0701036570892399, -0.18982507036895707, -0.950432633303572, -0.16856947802946987, 0.004586377993129092, 1.3137987761074972, -0.7638945349961791, 0.042877374461730136, -0.19929701544794912, -0.06688795786962914, 0.10466281792622051, -0.07840338817832102, 0.624866563218006, -1.9590843312306452], [-0.21575682248573777, 0.18568702559476383, 0.10259937389844227, 0.34496047813029534, -0.15468456649933435, 0.11755395893573516, -0.2157943978420192, 0.03112177804292967, -0.21385067196955382, 0.1401510541702956, -0.18257175656580352, 0.0765190896460932, -0.4093248178209519, 0.32803932795889024, -0.04229561348371876, 0.1773672158431251, -0.29288455912927847, 0.026197466356719705, -0.26267395769668966, 0.022372511129893295, -0.12782591144546238, 0.010168705138170425, -0.28962468884692455, -0.05930906286662155, -0.42594365228644987, 0.16398334975212386, 0.16359974687486037, 0.005791403777265144, -0.2787522137851541, 0.12800729239002667, -0.5206040607521301, 0.21026366818063189, -0.28511948809722487, -0.06649644987423228, -0.43378778783974103, -0.18289840048303146, 0.0036317988647009886, 0.07536883815039959, 0.04982107009826903, 0.1542133728739856, 1.0714981898143277, -1.3652926117404485, 1.7886163614631736, 2.227759052885808, -0.210341057112229, -0.005532542078046512, -0.9674702616510343, -0.6896220905809181, -0.12691185639431815, 0.032907494855457846, 0.07640526741567549, 0.28586691758461996, -0.36843462869072185, 0.20318502977601535, 1.336470090444273, -1.2752749010710132, 0.23313248418467952, 0.6072374721225641, -0.816526407618338, -0.43375453633040945, -0.18728888261919963, 0.169178849683766, -0.269561209973323, 0.3241480317173068, -0.39916282807793413, 0.2750649020594347, -0.4251950308215335, 0.04857220493368834, 1.915190834047661, -0.57428682138062, -0.5149443496532763, -0.1923793489259667, -0.023760402396914224, 0.3163747906487492, -0.17844878537828132, 0.08507437573772679, -0.23294517803443762, 0.15057498177483405, -0.1560358595459756, 0.14914897809885916, -0.17363671979116624, 0.07640194531613491, 1.1444329759315897, -0.3565170559790629], [0.06701662708226297, 0.08074330245033236, 0.23129537494497948, 0.12670210767237666, -0.10900868019829217, 0.011073958445812479, 0.020544034746189366, 0.050740483055086355, -0.0770070761726213, 0.034689335259734, 0.1257359895224028, 0.22809580849291441, 0.07910690366202332, 0.24731137490659563, -0.017796740487707872, 0.03893245763806403, -0.06994100448837781, -0.2180536156252513, 0.17259202586976108, 0.12835394176608655, 0.1588645977037468, 0.21045667280396482, -0.32757970579302675, -0.001133457274892886, -0.5754470146854873, -0.4546792970265303, -0.8223695649542145, -0.18105748167571747, -0.5347695859845129, 0.3866285776629893, -0.20107061584252361, 0.33535786207970214, -0.055832459778480635, 0.032429593689942526, 1.8625541800938354, 2.431441543535409, -0.6150975461955172, -0.5853398979457168, -0.29948888030800125, -0.11929990199104243, -0.21872862028061776, -0.17340664021029106, -0.29735696206765116, -0.36320037942418065, -0.13403724165218006, 0.001170849034276758, 1.3091868749040654, 1.7317297946573056, 0.08455626009611043, 0.3666635325562472, -0.13320410278714703, 0.27610471049145496, -0.04620692028255557, -0.12389730725132739, -0.07300172235624008, 0.1047496661290167, 0.0625630545056525, 0.027931992932552743, -0.13797751381390724, 0.22646658830138153, 0.09229518606428505, 0.2564741280461462, -0.20063754850527407, 0.165087326651316, 0.05767091804519237, 0.25380898411297054, -0.4713156639829676, -0.2805155270977461, -0.3779437410554147, 0.1654827965091364, 0.4008356750910322, 0.6160779975292618, 0.09794011476977502, 0.1975242235965529, -0.2781463078648535, 0.0218358239964206, -0.10477932667566704, 0.0939248075259832, -0.07212678820960368, 0.15852297636870605, -0.0012252242387800743, 0.17556561525847275, -0.2616569897596976, 0.03013013065870652], [-0.14539347791858034, 0.19449550557443207, -0.5331882280806239, 0.5571728453344785, -0.5452097701295516, 0.4168059407034474, -0.46586269357043264, 0.5634510462228642, -0.6881276750892851, 0.5387820024556289, -0.27954867912467624, 0.6680033892906203, -0.19408071100708305, -0.4998922776004493, -0.11545535094477902, -1.3526731631378974, 1.0238698374811284, -2.500562472289044, 1.579193101340446, -1.7642131098564724, 0.7523236043281485, -2.4688643335312106, 0.22702369309483594, -1.821912112582807, -0.4078162881282627, 0.5705805592887578, -0.3012258738964819, 0.5905614845459523, -0.7052847504940074, 0.32441283424000367, -0.6625844211371248, 0.26882841512240857, -0.434055758413459, 0.685388626787793, -1.1974908625975185, -0.14283634402244982, -0.21318798310878778, 0.31569171219785963, -0.39805384949568867, 0.6804330187610523, -0.608077516159125, 0.5260238169680896, -0.7934942065925681, 0.32043547938742656, -0.6295144249937284, 0.3919280562156283, -0.8421913709096975, 0.16948092380314808, -0.546368844385576, 0.5747903936232378, -0.5589953365919498, 0.3838556157175294, -0.3964963569418494, 0.6857431303531717, -0.7280284728259222, 0.09782596735494116, -0.36130481755283766, 0.5134334769880468, -0.9527136737144131, 0.22199563526803606, -0.6997685925703402, 0.6745164982512285, -0.342611879903189, 0.6265846772420236, -0.5460899836703034, 0.5301920832000597, -0.8859742598272083, 0.39215593606281385, -0.3003499615567837, 0.6095532012784877, -0.6789498152276335, 0.31357680634892, -0.38345020157630005, 0.4715388407257367, -0.5655607289178969, 0.5530495241772125, -0.49072435658087377, 0.41852386286696397, -0.399331650077062, 0.46979996977342536, -0.4636069476582026, 0.4340728674018279, -0.4558084360770474, 0.5082947093218749], [0.3391605611099574, -0.5338258716966635, 0.38895246109691933, -0.21118521075506252, 0.21062375998678626, -0.368016676822538, 0.20581946944692683, -0.46716413308339516, -1.8089888056262033, 0.666096466998872, 1.5290464214528285, 0.8096000126379103, 0.24877390825135348, -0.41004021612010594, 0.1890852263439821, -0.25307832856836127, 0.3915560341409645, -0.2689687449228317, -0.010171616800195517, -0.48969135489134713, -1.5950317734494546, 0.46169724001960927, 1.104775153017179, 0.4344882503653791, 0.5120857968575285, -0.3926426463651914, 0.28420350317123744, -0.4701761575432933, 0.3389581981993093, -0.32093770075608513, 0.034994969937806514, -0.7286978668617078, -1.3353926056873084, 0.4947711957299546, 0.945481236412806, 0.2936599229501359, 0.4080041935547839, -0.17523406866682276, 0.2890848132104706, -0.4836995433116244, 0.23386149769903813, -0.5524808785221403, 0.09312872444830507, -0.6514702830561749, -1.6725607389825923, 0.1449632881102697, 0.5362157334790086, -0.06897427881221162, 0.2126257843630833, -0.21636667023122466, 0.3124168985292447, -0.36388690607662894, 0.32942557369687564, -0.5140885036351088, 0.2634720687313581, -0.36534779356230995, 0.32900653902324545, -2.176442407348922, -0.2212581158603232, -0.8385186140999592, 0.3521834163875136, 0.03301827318699389, 0.15830615598358047, -0.3788529926784684, 0.4405733639166688, -0.32567532999044657, 0.19739121746043467, -0.3364528536444237, 0.062187995857481526, -0.3601686889198589, 0.27605570613247715, -0.3288849014149963, 0.5676978329416495, -0.0532306028436241, 0.3445931383018274, -0.5439387643481799, 0.3106482099580114, -0.23013315961906486, 0.15318426961452228, -0.37579644070165713, 0.15270259971458275, -0.4534819795701199, 0.262509953209146, -0.3478676280760985], [0.44875829559460945, -0.6669376895098392, 0.34658399170479454, -0.47648186420188093, 0.5590660190104944, -0.26310200409876966, 0.34485196427994663, -0.4358652214645327, 0.56746422620108, -0.3720928360637549, 0.44835865061009617, -0.3029757236697395, 0.20657949392622862, -0.23674264454308017, -0.004019696282564745, -0.583585823249767, 0.7072337021929133, -0.0643855363678493, 0.23002946982292774, -0.6366764353134629, 0.37002862170195694, -0.6008770223325627, 0.63995756876466, 0.10361856369510337, 0.17950384470605366, -0.8533450514032005, 0.7000002207200247, -0.44824747751568456, 0.38285632359456095, -0.848178492998401, 0.44568632260338764, -0.7283983490575059, 0.7643279240509038, -0.3424092308925112, 2.459363786930969, 1.5979852742305027, 0.1782699671079805, -0.17589519199875084, 0.1887083896750257, -0.5700346008803323, 0.26553156788200094, -0.26349008181967876, 0.857739112047977, -0.303147566233569, 0.27729055810359504, -1.0557232231192026, -0.27346613165754385, -0.42668933968156386, 0.3849203884577283, -0.17459638177790918, 0.20517149974602827, -0.4343959082947388, 0.4205878341463749, -0.6000071610103649, 0.3078089595734535, -0.3846034328674247, 0.38208947986301517, -0.6093026902912198, 0.5101664438901106, 0.14516676395015013, 0.40943647250965903, -0.25239920173397795, 0.7532420289559751, 0.3364692645035794, 0.5639125098957509, -0.3466718422317641, 0.3013568908844581, -0.6188474680916204, 0.4783892687571506, -0.4054909276720655, 0.10928109100959686, -0.4730727075504682, 0.332864069102818, -0.19888396939470473, 0.4971462028268849, -0.025350216135106088, 0.3568306674476408, -0.45757064901887967, 0.24992313001714217, -0.5289737920418343, 0.11893591975418019, -0.6708926575089862, 0.17574179448165536, -0.8390923527299488], [0.1748488939608492, -0.017816427039548173, -0.068827667424991, -0.36635007837601014, 0.2494405968444565, 0.019432692515644102, 0.17240203916823868, -0.15597429341423538, 0.11893722600149707, -0.1952136839948846, 0.23826521518564037, -0.1647733379976002, 0.44773277763927166, 0.032275440230133574, 0.21622680364251332, -0.1575081185304473, 0.33064239976152326, -0.01656049407655721, 0.3039731186500416, 0.08752250752402403, 0.5318703678200899, 0.540500704910115, -0.07920209991816327, -0.3315168521109374, 0.3341997143155452, 0.49564595950617507, 0.20888099727168816, -0.08650540635619987, 0.3225016787119166, 0.025521709801176427, 0.07617752424617355, 0.22741061284063796, -1.171712112339007, -1.1491804262091252, 1.4814629531728825, 1.3510551467549088, 0.6229679323233043, 0.425905514262848, 0.1465472145443881, -0.08599525440024837, 0.09898051624931908, 0.10675373209251815, -0.04905651795752203, 0.11959481636633502, 1.68812908943004, 1.801293631707329, -0.0882700744586622, -0.3444663285590381, -0.19719427196622777, -0.22418576855047728, -0.04096933115838778, -0.043722200911334524, 0.2173241949429377, -0.20742237830008214, -0.037134498381004556, -0.1821900717853598, 1.3810970426948985, 1.2413118455593826, -1.2958848626141701, -1.4554558724810998, 0.17755078262662627, -0.04648222171014442, 0.05078790261680105, -0.028100218754565386, 0.06141950580635099, 0.1478327860948295, 0.23818894038387106, -0.05074437792482906, 0.1411169060797433, -0.17705672945165085, 0.05593823898678561, -0.17898563279547822, 0.26558471912001597, -0.037108110920588036, 0.1620615649159094, -0.09473906901946014, 0.1961765877225291, -0.11665238210104265, 0.21385063836208337, -0.08821568877035099, 0.19639454162739572, -0.11614700484413375, 0.1282054852806386, -0.16505142862523037], [0.0759956029107018, 0.06825778925526473, -0.044853613069502474, -0.3881247445900947, 0.2739697809999275, -0.2824701858404339, -0.25108433848181, -0.16515714185719393, -0.0810831584866968, -0.3767899705941267, 0.1818162188236339, -0.12312954690282714, 0.08987156239042389, -0.20940898078955808, -0.13275838867394352, 0.20829238443678075, 0.23555216145901026, -0.611035405810985, -0.16047369291400404, -0.14240932765234873, 0.16291867056733053, -0.335815708768843, 0.23994200065111337, -0.07423752018079967, -0.07057931532399692, -0.38067680682964367, 0.0587150713077221, -0.5938828723952009, -1.2213654971997698, -0.5571645009754174, 0.4223312165909361, -0.5181189049985091, 0.7915169325489038, -0.24067302913485922, -0.02038743105756293, 0.02367976563000435, -0.046484769460149906, 0.15928298281095468, -0.2624230861531818, -0.4429783171234223, 0.23728523613762684, -0.8429236270060689, -1.4578723091281722, -0.4918041892154606, 1.265474906736418, 0.703388753921985, -0.11278163822281952, -0.02659268946672391, 0.0625871425643556, 0.22075656169431365, -0.02962116006451592, 0.04585732433271804, 0.4299216946093368, -0.5611721727027199, 0.8538537436080045, 0.09443167906309466, 0.49822649130651675, 1.3598022597257953, -1.459423254647856, -1.8391403587442536, 0.07198556269172651, 0.26556795845113296, 0.1953541669099464, -0.3069826716147127, 0.3092693489152394, -0.1796729508023663, 0.758795805459047, -0.0691379106585158, 0.05596107951088846, -0.510492420861464, -0.16770422842461113, 0.3951280498922485, 0.23368912299626346, -0.3577147935329356, 0.2579984578028, -0.556922925074173, 0.024284852500434558, -0.1382208608907092, 0.7088977870231953, -0.3140201219871494, 0.6239634986888977, -0.09982282971276311, -0.277479829772582, -0.3734617442904627], [-0.3850446336269577, 0.23072388007123842, -0.04318614441454678, 0.19421933701279037, -0.38551702417419714, 0.3560848518589807, -0.3167234185640487, 0.2906938256004951, -0.46547808486925596, 0.36706040401306056, -0.19813746021967482, 0.4411586119813014, -0.4551050492971842, 0.5040363373803984, -0.5601638674909003, 0.44056882028603855, -0.5147431850749246, 0.33366258699206774, -0.4296517940456557, 0.434370698271172, -0.4499428302047948, 0.29790753959550137, -0.49806248834953315, 0.1784541380707438, -0.35585783628217027, 0.3742335164393786, -0.26422788024760635, 0.5252022865052735, -0.44049017523262796, 0.2006105889680961, -0.3166277974139602, 0.4908516680004764, -0.22393158952144265, 0.018838293695583742, -0.172268444922298, 0.11908955711269571, -0.1541811930682784, 0.3275509781400257, -0.19641110990953456, 0.41320796406674776, -0.3808799450102712, 0.21858747915384952, 0.24732606741498622, 0.5868432850708756, 0.13609666096033052, 0.24483562020832791, -0.46356541922656896, 0.16200927150672906, -0.32632985770538986, 0.6952208565826012, -0.0021436097902348132, 0.8289258623120873, 0.3891012310747348, 0.6711402947881583, 0.03596358217923142, 0.349250248568712, 1.1276655513018352, 1.5473048282782813, -1.8403893518454795, -1.2768514342141457, -0.5882191489301483, -0.09516702996075269, -0.9926677691871695, -0.22173203880918804, -1.0925248732578978, -0.14706844845991868, -1.0456049599848136, 0.029803059224005266, -0.6290911934185297, -0.048802228138531106, 0.5421897014871322, 1.1310413073202377, -0.28755712808430484, 0.46233347274323966, -0.14388508625543175, 0.2642620175479232, 0.10186631342239746, 0.49064557661958247, -0.1434348651527113, 0.46070169494196395, -0.1904903218988766, 0.4443569715092468, 0.11218762042116326, 0.646626495692483], [-0.8128924841024062, 0.9779929032177708, -0.6853049659227, 0.5470400034569655, -0.7219163838089683, 0.8378849686385162, -0.7809893094291537, 0.6736595178760095, -0.89837170822828, 0.5176920970891771, -0.7979853474957529, 0.668219422740662, -0.8778431106994855, -2.0777393705280978, 1.5263465671485104, -1.2974986483712654, 0.9076824554447227, -3.239930651181473, 1.100423971881203, -2.4143588823311353, -0.8437255061672536, -1.3912548170837604, -1.835785933507659, -0.9365889176715715, -0.5005759591145563, 0.7832862773880417, -0.6657216757986576, 0.5580312710369524, -0.6888598854292762, 0.8270993293205787, -0.6371509376303792, 0.7398191375625305, -0.6893131630026238, 0.6355955588868223, -0.2742026058147451, 0.8006773264601753, -0.9434655653059023, 0.6659026266506691, -0.9202747982945019, 0.6824351319648875, -1.2615049353902734, 0.18573656723647172, -0.4697276270707167, 0.8567872417149377, -0.8321354899396385, 0.7039107767908893, -0.877898913075529, 0.18157384567132642, -0.6588007000724646, 0.8258597860586746, -0.6375724171173586, 0.9906444191088215, -0.7514302863019051, 0.7605458973149131, -0.8908521683207761, 0.6931719417702337, -0.7535496812737209, 0.7429089532161418, -0.3919138698714494, 0.910008689379351, -0.6205529975389158, 0.28799361575348553, -0.6487602442860594, 0.6411362343434277, -0.48627932877930663, 0.7355832614159741, -0.6082648600009701, 0.7033065451495821, -0.7922071015137949, 0.668759139487983, -0.6834746091942376, 0.7324744861924676, -0.73751971834846, 0.7730686659989991, -0.5211408321864732, 0.7836776996329992, -0.7585595087035621, 0.7255336085269296, -0.7393656506808217, 0.6650508297487021, -0.7779559949978686, 0.7539875888746358, -0.9874795884742842, 0.5528492812080404], [-0.5043278817468443, -0.007634589165275263, -0.31527486848532416, 0.026059331768002344, -0.6714679431121361, -0.21167022763045318, -0.05599414261386208, 0.1870553394077296, 0.44046330511983356, -0.141795266592602, 0.44547149687321547, 0.14609020747112017, 0.1696479955759138, -0.35301761332643933, 0.2950147103238819, 0.3543036988535565, 0.8789037267219896, -0.3983342707140898, 0.6199886701129614, -0.164664701634478, 1.1440825208195649, 0.5419524381527657, -0.42913943963159656, -0.9024271365673382, 0.19786268440938545, -0.24723528165720215, 0.17751869862855316, 0.030562217808828472, 0.7074695699591409, 0.3833804777242341, 0.11641650192446605, 0.06351005394759314, 0.584613134614224, -0.05790895442173132, -0.13358508407648556, -0.34960909003879115, -0.5209681567003556, -0.6803995689531933, 0.10314845940239194, -0.18680834822961698, 0.39084847941133743, -0.12332941339541108, 0.4391200343928531, -0.09559487318933735, 0.41022267781634825, -0.2347094652869381, 0.4883684647749215, 0.3046808169870267, -0.36172873444641596, -0.4537719833931561, 0.1700106246699817, -0.42286032183727906, -0.10315783014616646, -0.48050727249642394, 0.02281682232468238, -0.4003745219932438, 0.13661798802142905, -0.7157600741162168, -0.7053100710797642, -0.5416752070457902, 0.08023707177506725, -0.3278155697672468, 0.5626232959747631, -0.39894745193031755, -0.08417352430205842, -0.5536821475753934, 0.1241538579411264, -0.3218603928778622, -0.1570760003279037, -0.7109044493735961, 0.5520446621514953, 0.2707796725090304, 0.21868273041722092, 0.27309422971016795, 0.27413179303492213, 0.03708598682414413, 0.20002361481533185, 0.3584443041389757, 0.1458983499570355, -0.14012531303376624, -0.26445360147213454, -0.4661445195196298, -0.268686170055812, -0.7997228144812013], [-0.2440881149717917, 0.022690501512084654, -0.2102025749449714, -0.2023892103842881, 0.19959850494679446, 0.4006887580825881, -0.05678966040796372, -0.5153363317620253, 0.07338225275167498, -0.04346126675725455, -0.20498880070007455, 0.5387954107811634, 0.21095182359267628, 0.35367690241458594, -0.26986001048255726, -0.4547337332440762, 0.048096006098248226, -0.16334714975202105, -0.2002808334567673, -0.2940943035868686, -0.3580663164977192, 0.5539118099897069, 0.05566277430228007, 0.0009044162974712027, 0.3374456664456262, 0.05672890576526789, -0.4267316668198011, 0.20279453062198222, 0.0693027894801958, 0.3059266680134122, -0.5321714827782605, 0.3178730175752004, -0.1666510415782357, -0.5618640339124471, -0.3815732355607085, -0.18040122056074037, 0.16792848387310563, 0.25119289571518955, 0.21531583828239376, -0.1803051333681202, -1.4647968798614899, 0.7398009800521346, 0.9941825404485091, -0.4307490473408212, 0.2537342687065821, -0.5651176877654517, -0.006309247346179644, 0.3293261742083681, -0.30971700555408715, 0.09319470154565035, -0.20852681481296415, 0.5105644165691058, -0.5420916493320801, -0.07770080710089979, -0.12935768053048796, 0.39170657698560285, 0.30384022471835065, -0.027228557417580943, -0.475690927163073, -0.49261437674092395, -0.0020999964344553764, -0.02518365062110093, -0.16088101215244052, 0.1014226120099697, -0.010688561813241413, 0.09116342223699306, 0.14339810903110833, -0.33800382338837437, -0.18132911623006526, 0.8410955174971396, 0.015512749454960987, -0.05887473807981558, -0.11221197031724149, 0.1328422294445881, -0.1635704641003327, -0.17456947815818544, -0.023714930559331243, 0.5258152345206186, 0.06462663701857725, -0.43791381531391327, 0.2245194246692207, -0.15760700238807276, -0.17963695966533255, 0.49848212184735136], [0.08673447010145907, -0.08753984181737787, -0.13703554339506624, -0.18790818580126836, 0.042626394261376335, -0.25495486805536843, 0.18224642359063553, 0.12544405409612833, -0.19238056116100094, -0.02014349854323203, 0.9663773782617444, -2.6679191095844255, 0.03692737609485538, 0.13746729584189665, 0.0030020182449519983, 0.4252270004569723, -0.09301022036921938, -0.08934057201720749, -0.0009337772423228683, -0.04507524100569904, -0.3270228732834915, -0.12831623515465276, 1.018348446230992, -1.913777583623319, 0.1282368276510745, 0.19576386661031575, 0.03682796312015481, 0.4675305844081706, -0.21466808459438463, -0.2651664867638783, -0.17824612165916262, -0.12048740298179397, 0.001156175206200798, 0.24463224476367537, 0.48825606265244376, -2.0343825014218355, -0.08853235650973634, 0.1926762911567192, 0.056718251574331295, 0.27732980115315986, -0.39027731384956654, 0.08379887782911602, -0.44061198283843617, -0.05509930387218718, -0.5310623121519198, -0.3917564293060188, 1.2925628786811674, -1.0131637186033149, -0.056931589094898954, 0.034948393706149466, -0.039392070359171354, 0.026720140093258883, -0.14527230665017438, 0.07037032750832793, -0.04847674653073258, 0.04866064601641157, -0.5079496132806424, -0.2854677157283079, -2.1377705357448296, -0.023141831663206998, -0.3378700765519773, 0.8222054928925235, -0.355729148993774, -0.08182686366971105, -0.1565425214513073, 0.13637310834707267, -0.2921645011662269, -0.26320482724843275, -0.007726743226576697, 0.05144062875198325, -0.6006600759087144, -0.3170737181682241, 0.3828510892426, 0.24313045486608478, 0.01060026802961357, 0.26555141598909093, -0.2512710653559012, -0.05445064324434871, 0.07849569565162727, 0.010324939624139488, -0.3308698894851808, -0.10542328450646977, -0.04619318453654729, 0.05873943640261962], [0.4387342381395974, -0.45601747382737995, 0.5365636742015862, -0.6635066419426641, 0.6014792842590496, -0.30181081773571145, 0.5730058059342354, -0.4180635700795033, 0.4705822748632291, -0.637291545966831, 0.3502353106337355, -0.6814741912643647, 0.44375734902948594, -0.4381965495959105, 0.3063364295000694, -0.4390565661873692, 0.743540502407771, -0.4125424169208567, 0.36771839959231917, -0.6392724381090253, 0.27812650297754504, -0.5685588448037119, 0.4506119769279515, -0.6209296976480094, 0.8853311354955337, 0.009747202951047945, 0.30230479733946214, -0.6893007924200925, 0.47878155857677623, -0.6133309097446186, 0.3088781190639146, -0.5357750295832826, 0.590068940586816, -0.4422008393127013, 0.2346919963413429, -0.8538291693277857, -0.9739639061007827, -0.5011656592962411, -2.1561896462858323, 0.21727290876971853, -3.394657541622584, 1.4822795142602145, -1.9283139302304237, 2.682380973211474, -4.025331219486868, 0.13313764863421584, -2.460378650329522, -0.670626386670559, 0.5120155862948859, -0.3292959893769288, 0.36586958420337895, -0.5887062868347588, 0.6304336914389067, -0.6314933337714846, 0.3127970146564266, -0.9337658316723817, 0.5455001895082404, -0.40696823813743466, 0.16875648762901635, -0.8841049269685088, 0.36458582776720283, -0.5569313131233004, 0.6252466339887301, -0.5152614714045505, 0.5429783516759271, -0.4584365002676017, 0.537143613572657, -0.45825921813572096, 0.44961889034003305, -0.5445877409312014, 0.4548630521004012, -0.5742398297296807, 0.587200329719891, -0.42015743145032863, 0.5508632312421681, -0.5658974453777227, 0.5048615077564096, -0.5338849396629056, 0.49742333578513287, -0.5093398562670304, 0.37590204111302405, -0.5492855598662458, 0.6730133183134778, -0.3047035161631802], [0.01326608751043852, -0.02389730590245816, 0.3480822229547421, -0.09260593160757327, 0.1221752582961422, -0.0755402211137942, 0.014514162231959442, -0.2581574822103304, -0.024711282188842915, -0.2874482831611481, 0.02001437645552672, -0.24865988364825733, 0.21287667661651652, -0.38813402829360016, 0.47779030605961753, -0.194236387793682, 0.15426050533939292, -0.43493962130661395, -0.0833860938988745, -0.29718527731251543, 0.04761525625562134, -0.6127655159671814, -0.017971684318901567, -0.5539299799445913, 0.7192582801295615, 0.3410646653900966, -0.04489288516974088, -0.5821329822632004, 0.1927477300731744, -0.16633504721921802, 0.05531686752371596, -0.3236354297590948, -0.18805687837089707, -0.5593433373646065, -0.20042350293561367, -0.5397293679004073, 0.22237863363911625, -0.1425553916919237, 0.03476893042540739, -0.191762585587425, 0.32701948094818667, -0.3479552609564344, -0.22419729069288744, -0.8477574848074569, -2.4558031439221693, 1.0412867987115988, 1.1487161662950998, 0.8400515324135575, 0.08359620163136966, -0.19384303943796588, -0.007958836260516761, -0.1791751064917773, 0.20440930609543903, -0.11387917405113819, -0.05994111704932905, -0.8344558926808823, -1.8779029333002226, 1.33771340185013, 0.9370806806548879, 0.593849592518807, 0.07373082464392025, 0.021631796179994344, 0.05063321379001351, -0.12972368789026195, 0.3334665088360748, 0.02204502720008244, -0.18820387684233933, -0.4662107018380426, -1.7280016031816101, 1.3082810628404582, 0.23014923936581014, 0.02274615009172974, 0.12648809766408578, 0.28211897626833266, -0.018107901468196307, -0.24480800434441988, -0.06609275750343375, -0.07350672871823594, 0.12311308911631921, -0.2522163543180538, -0.4311245692308097, -0.1532645598697716, 0.5108679283494197, 0.03876773602991464], [0.5549681290245267, -0.7122568764520962, 0.7591908925736519, -0.7054437500563299, 0.84140412124385, -0.6979703665328408, 0.6866506956073691, -0.7865391071778635, 0.6938822163086527, -0.6841239239336645, 0.5276420081647402, -0.9227979188236355, 0.6556571226849189, -0.675014464677958, 0.6924967247335269, -0.6034889791803826, 0.7267936278204639, -0.8404658477851422, 0.6938997832504714, -0.6793370787190753, 0.7845755760278761, -0.699330057858243, 0.626831708539142, -0.8294067007909465, 0.8420747887873979, -0.7015849404373232, 0.6515316984683492, -0.7811813234039037, 0.7145823200272855, -0.5776332165472841, 0.756254165084635, -0.8068606357996998, 0.5129865651230052, -1.0789993301354726, 1.2576225909603198, -0.13623425546135423, 0.8818345722059044, -0.9412021111749845, 0.6267634994710538, -0.7911352509775096, 0.8219388324027352, -0.8828619051577394, 0.8000294712124562, -0.7740809803239658, 0.42422533511239385, -1.0668247774715256, 0.5238017157226347, -0.946829504296734, 0.7736021694817374, -0.9178281528022221, 0.8086106311589852, -0.6722153945640883, 0.7382451032346481, -0.6472581070288443, 0.5550715061572381, -0.9284905475144491, 0.590060355129999, -0.8561123152296911, 0.5021360237763649, -1.033805983718961, 0.8682427300503429, -0.8301229424808371, 0.6389590137555097, -0.8274763813309424, 0.7474331599655365, -1.0042927378041007, 0.5678811676108162, -0.9542767499359337, 0.7361557294647411, -0.8112365652346072, 0.5392965927091083, -0.8683195497048303, -2.158407401867383, -1.2396170986839743, -1.7343059175749107, 2.0359461821825957, -4.322573940309592, 1.2437272193858326, -3.9411478700728466, 1.1125183990056124, -2.0644586741879576, 0.1574557180501908, -1.1797863441857954, -0.9595829619589561], [-0.6743577772629712, 0.836383361800966, -1.0151801947905406, 0.7365749445121709, -0.6027232737622121, 0.7662956398856822, -0.8412840293848454, 0.5323338001603972, -0.6761136425305765, 0.7988588789177359, -0.8296756661658488, 0.4280282986058998, -0.6537338238373573, 0.8082832543446551, -1.0551970222761253, 0.5344586178605766, -0.7238718608260581, 0.8189946158734639, -0.8266874872962651, 0.545307353109707, -0.6638330522923557, 0.6846625546875886, -0.6582569016318606, 0.5232117181534334, -0.7664192028200015, 0.6116141221889366, -0.6092434165490171, 0.8003501387478318, -0.7050833728401079, 0.766087615566604, -0.6873485396488025, 0.7146992933772488, -0.8198915611370824, 0.48961242174665115, -0.6644871764719721, 0.732307034167914, -0.7323411799151603, 0.273165133543556, -0.9464978612575856, 0.7239208352270095, -0.7449418596737949, 0.542628187737493, -0.7728285501320474, 0.7763830898786905, -0.7873116584229028, 0.5897875399874647, -1.071483727341155, 0.31479696020959125, -0.6940084393716184, 0.6885786057890336, -0.606361714860497, 0.6132531692153319, -0.855874704028584, 0.8376472609808319, -1.0831215279857211, 0.5198601078037413, -0.8959083731371662, 0.5465654389611508, -0.8093911843955529, 0.38094665098281205, -0.2630256975507618, 0.5901066927954496, 