{"layers": [84, 128, 64, 7], "weights": [[[0.10015144919924551, 0.16506072582729656, -0.1457056578902642, 0.010691095574531241, -0.18615485616387736, 0.21900365546685205, -0.220510641227439, -0.1733053668851519, -0.030180949225050005, -0.024240761786494452, -0.4631636398531062, 0.3075611411379078, -0.021751943949509155, 0.10249872321564119, -0.030610977322589338, -0.23840458892480762, 0.2827233142240545, 0.18575892714166506, 0.17433445592105712, -0.06398427261884322, 0.048370664888705124, -0.053696347357675554, 0.033315132756876864, 0.14601234439735425, 0.19294788615077246, 0.15435993120395972, -0.019299920915083573, -0.06175570855167248, -0.08953609886003104, -0.3709406416908035, 0.2398421233974521, 0.04652558938912812, -0.07911417310686285, 0.010149903927114259, 0.4073816966920409, 0.06458524047628375, -0.004295727237521003, -0.04465849523769941, 0.011340540584931707, -0.22575453909037296, -0.022972253039010973, 0.26692440166684683, -0.15230052681633416, -0.0513075780361347, -0.057988158364269356, 0.17422542681917805, 0.09291629016116379, -0.13897900919676973, 0.034118902744835485, 0.04512741105828852, -0.08163304198207096, -0.07831179123941834, -0.28553495219414005, -0.09698710158750605, -0.4095725396785355, -0.43925088501891574, 0.12010107062300072, 0.054485713620297534, -0.6726099466833221, 0.21259061394156714, -0.1022908534646646, 0.24748899614568778, 0.20275895840815683, 0.35334348051985, 0.05046733461517864, 0.22146558159632004, -0.1245307237233087, 0.5082537087036131, 0.08830638766913282, -0.15572897711939246, -0.18904186596912187, -0.3196204200974758, 0.1210646253795562, -0.056228087450513595, -0.02749173296854375, 0.28109535966075094, 0.299074685531539, -0.09295165982386236, -0.07163353695275414, -0.021053165286554924, -0.13991926388906714, 0.06805427800867206, 0.13894423987049298, -0.32289590835206794], [-0.2297065608592342, -0.07558219454802752, -0.13181847015061127, -0.12447143659516043, -0.0634556968904137, 0.06134617105249624, -0.005023118843061882, 0.028847977428559102, 0.04985913767618876, 0.1230316584436099, 0.08416878751785258, 0.16179007514395083, -0.22631466268125605, -0.08376202781526752, -0.2793683640712446, -0.12467620084544741, -0.024496388762207562, -0.14212834240849076, -0.0999621962048474, -0.3749395970081628, -0.11326010321317943, -0.5023414977920448, -0.4991483162381063, -0.5452473200527934, 0.08755042846425548, 0.5615494309764719, -0.3605727583716577, 0.32907640872756416, 0.4630207496663912, 0.19168539821148417, -0.07984345787487802, -0.72180115715949, 0.03939540918683898, 0.5264644440333878, 0.23752480086334166, 0.41882243546668607, 0.11066667120777532, -0.12306026191951092, 0.13570189700441204, -0.05295020734057832, -0.27854573262477317, -0.19025920380970635, 0.1605749221690188, -0.2550966376073619, 0.06729919611422785, 0.24301684451746017, 0.11847182915700925, 0.33116196986526353, 0.1168625973727202, 0.23545522687086656, -0.1295098474592549, -0.3256924023367712, 0.17076240162994608, 0.04450972542703394, 0.038192584713714124, -0.11240882990503796, 0.08398436222602976, -0.026037272041397348, 0.10755816210564001, 0.07854149135069687, -0.000597046329887452, -0.4071580333196044, 0.03226511595473536, -0.07715540321980005, -0.10966186686164914, -0.31380216360383745, -0.103062668911452, 0.07395351686534846, 0.09047269915343431, -0.0928736777625178, 0.1860727790030883, 0.3865178122201176, -0.08193101595365943, 0.023711115349784095, -0.06184123412357067, -0.02062835015986635, 0.037593125878249985, 0.0058888637872778465, -0.13540604491916958, -0.03941399225501906, 0.11677842239431757, 0.1491626379858816, -0.024800764676115025, 0.0266604932928132], [0.10291595704052844, -0.19167286691907265, -0.13389621089052206, -0.04511737638482291, -0.18264421024394714, -0.10085335785238746, 0.25970009724395826, -0.15434799054143913, -0.02389673780807753, -0.27745007731088583, -0.05576871378580159, -0.2949880830991176, -0.11388461056396366, 0.18402224615425378, -0.1360557773780025, -0.16291787399258736, 0.1185076806846506, -0.2897567866819339, -0.04622529549694797, -0.2821424541283078, 0.012297266938117142, 0.1949128011986759, -0.19213030437304052, -0.025179822613042586, 0.0006769629899679509, 0.1807334201521707, -0.22590529788315186, 0.05530551203100929, -0.17347661088090155, 0.04745904407837968, -0.24075813304424756, -0.08488657083403568, 0.2769696863372982, -0.47674186103016214, -0.03932341806781105, -0.3012460031750903, -0.0889431467383201, -0.03401436643529432, 0.08092838097611302, 0.10382678824718805, 0.016187781969093124, 0.010369905675244345, 0.06522357621178722, -5.812877636398298e-05, -0.29889681854857286, -0.030759899291391096, -0.043723018814124257, -0.02921153750379456, -0.20773046604334375, -0.09956575251844169, 0.22959334474712048, -0.253498276318631, 0.19958442433479842, -0.02542569649535894, 0.27246211911709783, -0.09238619730590589, -0.19319296471938144, 0.5809905644849125, 0.1606319290924368, 0.026389972880594473, 0.12793589124904808, 0.06543145548826435, -0.017421157606956752, 0.007576611035339249, -0.1107887884017672, 0.22208915245227656, 0.014545568020790569, -0.308478695092141, 0.054474369611853785, 0.24131490912007408, -0.06656160944970983, 0.03682798602168368, -0.13861203364102778, -0.15491904186958635, 0.23519200957766473, -0.10693541457345809, 0.0471599815255735, -0.05273841815734842, -0.12380194088033161, -0.281348370740642, 0.035964730800950404, -0.4281320050748284, 0.34264014746228355, 0.010708592789420407], [0.27162594029265635, 0.11115537986427651, 0.20802578015808754, -0.021816799509403916, 0.40485077536842523, -0.006117243777974745, 0.17039409749207451, -0.17387961763724047, 0.17980972456144292, -0.112893117952916, -0.27439803697143544, 0.17956777736219576, -0.2557738637621798, -0.09693938361308, -0.259430557676481, 0.28340845124217073, -0.09500214519037264, -0.1589140815250936, 0.23810713596529717, -0.15815880686768796, -0.004125894926849428, -0.27585449574780113, -0.3762264020977875, 0.404123559043486, 0.11251835726135333, -0.11573033894972451, -0.09458554747835216, 0.05065198255154155, -0.22087729469612793, 0.07376683488211078, -0.21465948118491734, -0.025159737296031864, 0.1290086042962506, 0.02290903304673828, -0.6933295306391478, 0.6591071714244188, -0.1367280767167139, -0.17534047267969338, 0.047804276939406344, -0.1904701796027697, -0.11325871491170278, -0.12317419218217, 0.12583666490459958, 0.04943608516838222, 0.019355135804720106, -0.19295855833872932, -0.43706081572587596, 0.7130813874199091, -0.1966209211407506, -0.10575671711164311, 0.07242053430137843, 0.1761600218683726, -0.0601950983799906, 0.16484964119717682, 0.1896677790844218, 0.015663052547134494, -0.034197615846429746, -0.16201645668130069, -0.3561683852740583, 0.2495247398946561, 0.15126664301147696, -0.23267875896646154, -0.18319731002189799, 0.13954531022921537, 0.14474931235127722, -0.08584353963068142, 0.11895071242821867, -0.1062274084381467, 0.19695863694896232, -0.1512151035428367, -0.04178028175473014, 0.1355909307701215, 0.13372947274697966, 0.2663974606212567, -0.11489122996103646, -0.20614889384291998, 0.1994327241512406, 0.11726912026241657, -0.042872658891594945, -0.04541236175201104, 0.12769628118690762, 0.046927823847324156, 0.0362103001391697, -0.19342538105297297], [-0.03905255085130573, 0.2016496905296982, 0.15720311814674565, 0.04456314110686846, 0.13911112638002518, -0.07147359780056281, -0.19112396818029304, 0.038087717387218424, 0.02887611425339223, 0.03632337501286569, -0.05916041537178218, -0.01097447376844491, -0.09905914023255775, 0.11561873370613501, 0.07761574996107809, -0.13585930701453147, 0.20772247375301073, -0.20052293914442543, 0.04382809286768705, 0.16686248815688762, 0.0763970152123527, 0.2677342651794385, -0.16295469403284157, 0.23345341890083063, -0.07017716396212845, 0.15041748952562004, -0.09718010691475723, -0.19527299127914355, -0.42422853091377205, 0.3195640901809894, -0.045678391768780524, -0.018912308807070392, -0.14116291899696434, -0.06730557840231079, -0.13142730968775798, -0.04213834458625864, -0.36199526838367363, -0.28499070115703284, 0.19746438021374974, -0.49256519057704135, 0.6580436277151926, -0.7281466894747083, 0.7320393722863163, -0.32489878206626516, -0.09930024250223547, -0.5973123627835093, 0.017491942066882708, -0.31411541377781654, -0.06710588785150097, -0.14845652089336814, 0.22366299383272006, -0.055590216816284115, -0.13720075769349135, 0.11123262898339722, -0.04906380144272907, 0.15588018227754272, 0.06451873019063659, 0.30745928993364685, -0.061552195648783066, -0.31052025179862874, -0.16537278913356, -0.03413470824082836, -0.051646180338653674, 0.23884239859667739, -0.028823981515399978, -0.030805321032330968, 0.034897232249677376, 0.09476597775524984, 0.04426406202176199, 0.19155930060973134, -0.33085379669999293, 0.3728396462836519, 0.016278007019087794, 0.05110073897031196, 0.23681306672321414, 0.042411234617188265, 0.00904677658410328, 0.22414270450667473, -0.06643721859880268, 0.07736612929001906, -0.004629202150648649, -0.11995207435207843, -0.13043782199695506, 0.04293793411399802], [0.0009706123039378174, 0.039391398140146194, -0.008813432020032283, 0.008413317702277805, -0.011715957328204601, -0.16214701008858487, -0.14315863818072302, -0.030529331943053014, -0.07400109918648609, -0.21307946712892176, 0.015376970845946109, 0.037671066410650315, 0.32770291301676846, -0.114485758831274, 0.2598029194175164, -0.17453361394833333, -0.044709277474269976, 0.09136736077417675, -0.2567854703453711, -0.1631281730035127, 0.0920067852434735, -0.30884823073679396, -0.12628042422059674, -0.25898878118132695, -0.04940967446891131, -0.39327473921248274, 0.20910795748987904, -0.32617968575408296, 0.03898313427525686, 0.09424509020393783, -0.14513913817127042, 0.17015093457710873, -0.5624805154482867, 0.1267055089132221, -0.1007725123617549, -0.03030798574359634, 0.07253670014727355, 0.032779201169830054, -0.17301681373182504, -0.182183656239024, 0.03186878577206299, 0.1257781345892701, -0.06364866728771383, 0.2935934043036569, 0.3866970091543487, -0.44103415942672497, -0.12510018829837685, -0.022547368650667324, -0.15175432110758014, -0.2256471620329953, -0.24993138450427055, -0.06441667836069971, -0.15972408141781105, 0.3222630223710298, -0.19262337413524294, -0.038697865405435655, 0.11381153772175456, -0.17875780986636963, 0.20942826543174026, 0.2849112716442195, -0.1277802900812402, 0.11462677107100777, 0.17082404253336747, -0.23753833539287464, 0.03764308117258731, -0.30192367498805445, -0.03245836974410308, 0.12025902007933258, 0.3887468832304859, -0.11078980436123657, -0.0756685692577418, 0.11084588331979674, -0.035729537409100634, 0.08539521060219435, 0.008870828979586357, -0.20375334042886561, 0.34964339068160316, -0.3255076010834813, -0.01012688665736161, -0.37398481763124497, 0.10621559941196038, -0.12801256876483288, 0.2737472768995357, -0.024262908776245873], [-0.23540349261351612, 0.0703181527650535, -0.18907569621258674, 0.062377349657244834, -0.14113248816357135, 0.0757683579069539, -0.08700827393207636, -0.07437413565615822, -0.10370043757716056, 0.005519174234457441, 0.01889223198314609, -0.06898578792683874, 0.08570626864995155, -0.03745580728819815, -0.044874513948691276, 0.08601954326748536, -0.07153366782711298, -0.21300597116289713, -0.170563457092064, 0.15892733632911463, 0.06036519166286185, 0.09393633528937355, -0.01807632727535434, -0.3120145424640117, -0.04880259530211419, -0.05748219934709261, 0.03329898537351541, -0.23515661450539194, 0.01893731918663713, 0.06493162648241003, -0.208762761558719, -0.21360803154659766, 0.0920587226060474, 0.07450978063442895, 0.28707388373768783, -0.26496001650624135, 0.05060677529648973, -0.22678243129229173, -0.10682200558034055, 0.04027931476405126, -0.40188786985563124, -0.10118237061022603, -0.3474917624018674, 0.24782957537834283, -0.19627736311790642, 0.09455463957766325, -0.9058250614852776, 0.15190354769376854, 0.07338697817172138, -0.384728418558964, -0.06021698869975814, -0.0488344433740993, -0.10772403890553256, -0.08125988496790527, -0.4527802638405314, -0.09399729886604545, 0.04049034357960034, 0.1041507559849865, 0.4299210107786354, -0.461082732381061, 0.0632723465638919, 0.2670442321989083, -0.2701611606568842, -0.1701173970678119, 0.27409680653629, -0.13076737855706397, -0.08360708268868186, -0.03690768534263718, -0.2249617850350771, 0.26155725393747115, 0.05535105660434131, -0.44611110034313795, 0.08082236791985832, 0.22966752051201555, -0.08552365710897299, 0.38315285241505315, -0.09555602537441187, -0.24121677079898368, -0.11349679207894656, -0.5646727542562447, -0.2710371937780119, -0.11422213227022851, 0.2635801622483366, -0.14020292155832417], [-0.12467776639234636, 0.1482846308020536, 0.17770612016310572, -0.09064796317618987, -0.127638917510314, 0.016920754047367124, 0.18273538302137463, -0.3088600027936741, 0.25657704413329296, 0.12010010714633505, 0.06300928443507939, 0.25798890621082615, 0.10824969359258031, -0.2556915811014763, -0.18831344906092026, -0.05680072748930004, -0.5120199663051918, -0.18521406318378286, -0.1131168552288486, -0.04347957591006993, 0.09711320349686771, -0.2376683151086882, 0.011043763782383217, 0.2836986579072698, 0.028409381776016086, 0.1438633837040713, -0.19717035294636556, 0.05080871046173, -0.10221396239509574, 0.16109374460683923, 0.15196200028870308, 0.22503950218138666, -0.18320068336997108, 0.031007443621501443, -0.18813256717067908, -0.05830908520558598, 0.037589664594562755, -0.24358764466512123, -0.02644546271668758, -0.10653519894959625, -0.2985709508980845, 0.015116929529645298, 0.09545209979218743, -0.21514907161615004, 0.05118807985399884, -0.1201358007274935, 0.3064633360263039, -0.4988482239671428, 0.35749694682819827, -0.1702871847549853, 0.09613737276369223, -0.023700353496045632, -0.005895404827165584, 0.03400558250181726, 0.014247896220574721, -0.1331174113986042, -0.030381674368126645, -0.057383458095974005, -0.16950052817907046, 0.07567250155468987, 0.13423407786460193, -0.16715339864232134, 0.08892914705428843, 0.2486294387865458, 0.1926433589403192, 0.07248483414659745, 0.07457692858973036, -0.278985811334132, -0.19333665808665715, 0.034905674779620394, -0.3063954880396377, -0.16297594811727872, -0.058990114513551614, 0.03022918842663997, 0.11353015968119934, -0.13404732418233317, -0.05189156516243215, -0.18257126801251375, 0.2854631537263316, -0.15963862299867138, 0.013720416928341795, 0.10655052359136069, -0.12938648269557942, -0.07856017649385752], [-0.1814520718159066, 0.11877794813913467, -0.26538234757910734, 0.07515558221622048, -0.2366942563553771, 0.2149980188836309, -0.2788727145949701, 0.17154901403578915, -0.1946012989015143, 0.41735432435497216, -0.2633004238990553, 0.051795465377134274, 0.012725894523275638, 0.1192152307268728, -0.08486664672589034, -0.16873973047418508, -0.08478823392369558, 0.09926048252224104, -0.02874433414017317, 0.2062868346438615, -0.1252084246771113, 0.11536468670922638, 0.07141822087570199, -0.17940217147712972, 0.16670865834955406, 0.32227014087551453, -0.04786752328805783, 0.12590454253412853, -0.032519214174770154, 0.027401030893873527, -0.19250770964005431, 0.19906679120365747, -0.13785970446631535, 0.09626667479971524, 0.29911298593603447, -0.07015117238570955, -0.25697842431060686, -0.01606790640536765, 0.12777985010973056, -0.0019719591230099643, 0.11708239867693186, -0.27190074386199886, 0.5594774890805178, -0.11354820106776482, 0.16969987057274444, -0.3772257831401476, -0.3343279726147914, -0.7596521579434762, -0.09073893283350125, 0.10733665127022488, -0.1301337774719726, 0.18350247496068775, -0.3556939859269437, 0.03251769789298927, -0.4132004763695179, 0.004385547501536164, -0.3368183344334706, 0.24488434707371698, 0.21122511851962983, 0.18758868188452707, -0.04522616189175524, -0.02594035318569313, -0.06327050941605172, 0.11100179434057432, -0.15053300216075324, 0.10597449982435794, -0.22991171698747914, 0.035371333917890546, -0.23886188455282722, -0.004865766681937081, -0.1967758429363397, -0.03141462477132719, 0.09526396162507701, 0.1809574685503476, -0.13033474401307585, 0.06653809599719109, -0.2586500634704954, 0.1901464162210431, -0.19791739775690348, 0.359047410387938, -0.2555654723785878, 0.24905223024893552, -0.09309618150779249, 0.3682899926656708], [-0.06198710241158106, -0.21284130412785113, -0.12738253887943463, -0.13091328379821177, 0.04344265634660802, 0.04269333294824231, -0.05746338900205089, -0.2195404978597469, 0.06994661396627039, 0.0064895739163890855, -0.03993887124273957, -0.06794235711297314, 0.2522002492131536, 0.028538127554639615, 0.10192323347151293, -0.22564103099089106, -0.08026020926390429, 0.22228442439347035, 0.028596102622085937, 0.02402926613165267, -0.16407859220691154, -0.28120742747557004, -0.40650594597541123, -0.1348392960780739, 0.09671201488521185, -0.09644628749841118, 0.18607020880079506, -0.13036026072444612, -0.06423582547609132, -0.2422677901999301, 0.14911403153610792, -0.22395391913824697, -0.0337983833328762, 0.0336787435215806, -0.2797868218983649, -0.27192380916294895, 0.016251550622014596, 0.2633613214113881, -0.1187023821444257, 0.30431232662929375, 0.21780798619641809, 0.023035223987395395, 0.3566237270453266, -0.2986239302163505, 0.09674013419160699, 0.38230292120245946, 0.16119273573917267, 0.48852495307256083, -0.3319043183317035, -0.10506782579428223, -0.22065999414941553, -0.012406723109949313, -0.16154153550932485, -0.270887684810595, -0.060116167986247915, -0.28716203923818295, 0.32250276421554513, -0.06817363246638736, 0.2947897173669985, 0.05042522145546177, 0.0494536992606205, 0.0496198564057081, 0.22911476002864206, 0.11306387692225614, 0.058950218697509986, 0.17060682560657375, 0.21932151739643044, 0.0007865230683352394, -0.08611952076288847, -0.13191524021806603, 0.24493042694913433, -0.5277139873644096, 0.030141490446110582, 0.061507497485967975, -0.3243567372708879, -0.0004905925600794522, 0.13535887464927446, 0.03383532253946444, 0.13925287878074508, -0.09787937954891913, -0.027581698080438397, -0.310823549941018, 0.10515963874465048, 0.07818247019412781], [0.254658705859561, -0.2076187993230196, 0.48937098827758163, 0.16108825057313528, -0.05856293224585639, -0.22655265895021864, -0.10011324993756604, 0.10310883709128081, -0.0013178035233732098, 0.02883674803005333, -0.14472899943985507, 0.3148257059449739, 0.09522620396606873, -0.20181713328495593, 0.1048631899040902, 0.3914227072623973, 0.06476140339834714, 0.10097268966650676, -0.10130563661382246, -0.10129915284235258, -0.10809992706221216, 0.27720126918722876, 0.25563126240103795, 0.19721779238562046, -0.0678493165664564, -0.16736608612455128, -0.09033988298724499, 0.42002320556775563, -0.6334605807131318, 0.31055627890665033, -0.29166881945300294, 0.07701937179672855, 0.2159726013765272, 0.1335098589690515, -0.014810802023849592, 0.32670219515110904, 0.1770501934345908, -0.19505323756045317, 0.014165030061536733, -0.07418227189862883, -0.06931222325632706, -0.009060358675681869, -0.09691684368641862, -0.04108492054217333, -0.08007559877842957, 0.2581805039140102, 0.2537489195356569, -0.21685018724656968, 0.10986002304778981, 0.15142358107997186, 0.12907356044493995, 0.001964654457797301, -0.034553199699806816, 0.3429586629150727, 0.048730343335807565, -0.0871950409299068, -0.08461730681461796, -0.004948808377762293, -0.5180514532654463, 0.0302705286592304, 0.17818840078230802, 0.0662667242896836, 0.09201390447867466, -0.056486769305191205, 0.08993687640862273, -0.08928387569984879, -0.041068160846054115, -0.1452322614654079, -0.26011086112865645, 0.08803017530587628, -0.06459811515555103, -0.07567161038731474, -0.1887118361642249, -0.13837153757970908, 0.1549238024707784, -0.0671717523457122, 0.12342026198386628, 0.0346344719779523, 0.2661231521842592, -0.16802755267101535, 0.15858705985183605, -0.2135727089474372, -0.013738133093966388, -0.28613069043029965], [0.09801409639935897, 0.01322027791026504, 0.3694043690430768, -0.10780023612275047, 0.038539296208414474, -0.14810229805477973, -0.37337587232488956, -0.22008166516410352, 0.235900394705939, -0.015848792149619147, 0.3481138884816196, -0.06735534835636912, 0.016858009371435244, 0.02298042133971044, -0.29306690817791103, -0.24319520800740752, -0.05922868386327656, -0.1372618792467498, -0.09371219238991017, 0.20341307386211363, -0.13365757886889792, -0.11089785821712049, 0.07579602312777055, -0.27312096795476376, 0.07594750546286637, 0.0013057169471155533, 0.231482231207055, 0.051475450159316434, -0.14848004320810074, -0.10662128219975867, -0.012911867347462948, -0.3367040601677031, 0.10222874873098488, -0.18378799392930253, 0.2159865319723718, 0.48525121702379803, -0.07542910639070106, -0.04606226692953782, -0.1426917791629017, 0.25772253546439583, 0.0008577002967916083, 0.17681719166614226, 0.12182458257057933, -0.22074940802188775, -0.09387415922881892, -0.14007753365545073, -0.04521195517641268, -0.5042902734906416, 0.07767528564518991, -0.28067548422362154, 0.00032630536096322273, 0.23790082642890056, -0.3622704220036606, -0.024815470732159443, -0.409964309692331, 0.2553809571200866, 0.17020412325122927, 0.284663661415771, 0.18995613510562367, 0.31405082945519713, -0.046604946915863504, -0.31744908115036985, 0.2294613745352486, -0.21348443296129205, 0.20365291867895446, -0.2181011377738785, 0.12485078472762855, -0.3271861387533907, -0.24829961734276187, -0.1369487791019275, -0.0476392479436449, -0.20088706018147812, -0.12941520246413685, 0.014705906750192359, 0.0409967722002926, 0.04637901613896688, 0.19110311304661481, -0.05635764667915489, 0.0531090333253112, -0.07208176886772308, -0.070216332426021, 0.1660544602669656, 0.15752567619837488, 0.06985977391998358], [0.04392285214354171, 0.04988156155707498, -0.0971838786606369, 0.10264724576819015, -0.04225197975190821, 0.03525733780495159, 0.08064538029688853, -0.1519480724907102, 0.14463304321450068, -0.06083831686608816, -0.2308572183530173, -0.26673642583837076, 0.10518517455766835, -0.1982389899973679, -0.07475346483733579, -0.06854503368028261, -0.03524357661627311, -0.06612496182388632, -0.12907672936637096, -0.08831840316640409, -0.12472048582871234, -0.1588933501758821, 0.03592117984435278, 0.2903605381864422, 0.0915761756346104, -0.048236988783272754, -0.09362495825772743, -0.19339816697787274, 0.05401351685608858, 0.09669515158249535, 0.09710607087642821, -0.15092140522717726, -0.07540451068156835, -0.15960510827037272, 0.02869101669659308, 0.31085386285332167, -0.23153472019766144, 0.0037490421178664112, -0.4465631610282323, 0.5288609986189051, -0.47806122658167444, 0.6276412476753734, -0.4665873286904399, 0.6675698191619162, -0.1087109189907667, 0.0948686300216212, -0.15072075214230543, 0.034154798554574525, -0.2455117661290607, 0.03554376204617808, 0.03884015069638106, -0.12955850138430003, 0.14837350275621403, -0.35636597190277847, -0.036702805649755796, -0.31075157041790247, 0.2383152714066612, -0.13763800452780658, 0.12332440521640539, 0.25592783531985785, 0.001474996016607857, -0.21671934343512372, 0.02477856889471335, 0.09803202066188674, 0.17182359200947106, -0.1806007513620367, 0.16327762389887404, -0.2081215841377292, 0.16228146102794783, -0.3024360624873377, -0.07593126415273777, 0.224044091549544, 0.0425996919485458, -0.0870175670154506, -0.13110098002261358, -0.11118132817962162, 0.09741564774666203, -0.04895215752572448, -0.10423625963205378, 0.09658705512843864, 0.2242003947790248, -0.03679168861691832, -0.21086699766276482, 0.08358679072940976], [0.04870276561045759, -0.030432642066051542, 0.13077805168029816, -0.07026215903736617, 0.06043122952320781, 0.049991641891415965, -0.19722412434677233, -0.05052567797886777, 0.16041404704954038, 0.15749075574394858, -0.14076844266359267, -0.12252003073211812, -0.16331390337937804, 0.07974002517867429, 0.03816845714258669, 0.08674430335475006, -0.09731051580201668, -0.1926422250713557, 0.0922739633975838, 0.026154914210064197, 0.19102945230954863, 0.36011680798846807, 0.2960244764388924, 0.03562545954883305, -0.061107433955953486, 0.01600110558076088, -0.21323849228922817, -0.2584843047222855, 0.24891067146512366, 0.20712567454310118, 0.15859117750556556, 0.07634708191810036, -0.1464294674438307, 0.17722776414109775, -0.1286927627163183, -0.48061109575367317, 0.1773903786566257, 0.6931231515014034, -0.44240067593448146, 0.32408329559039134, 0.4135256398946731, -0.29060406908166486, 0.05025757938904897, 0.08057248529085721, -0.46536664989530463, 0.25844741506830243, 0.48718677201630867, -0.3658554242833795, -0.06749851324977928, 0.03948222480575187, -0.5389269289122128, 0.2176223614921799, -0.4732007157078549, 0.17996480588419753, -0.5392874696105369, 0.5130179225029506, -0.5878921545607706, -0.323227120149978, -0.30113603479547896, -0.40453984441638746, -0.13972256896568383, -0.0965696156471921, 0.11751530246050829, 0.02331470326631147, -0.16242852471873573, 0.17591754936585272, 0.08129946754962233, -0.09576738853469642, 0.2705890883895073, 0.1622223013342057, 0.3885439254426134, 0.19218183316298898, -0.04799082390589045, 0.17441300735880144, -0.10556269761994229, -0.0589444827863555, 0.31538288973397305, 0.008271045830920996, 0.23562295399017036, 0.0173491265575781, -0.012700735322110869, 0.12681433708345488, 0.10672650814138757, -0.16259413674951467], [-0.11672511151979302, -0.16906868253051874, -0.018572077400585106, 0.15670462799882465, -0.1567630794287856, -0.13711585282626096, -0.058629009938610734, -0.019008044937368317, 0.05619988158567505, -0.025885962547414158, -0.5509473612084098, 0.01886505720171751, -0.047571968851037164, 0.32896793894307585, 0.059713598229553334, -0.037639823280783115, -0.028949620617872696, -0.13041635939688892, 0.013601007386979854, -0.14433360874588783, -0.13891983234441843, 0.07256285632563793, 0.07097364828995034, -0.3155363198658521, -0.10530539329972707, 0.029113147499504104, 0.11214869470121804, -0.02439882519841149, 0.028222095637425997, -0.1221992128647985, 0.04791222044336939, -0.36871177281165834, 0.37860385463567575, 0.32450566602810815, 0.3399199466558325, 0.33776844299741876, -0.22293694521722796, -0.15150685008082765, 0.06333707328367652, -0.14787671764745045, -0.04751612307763323, -0.0977600467425555, -0.05670655411556413, -0.003495450860178642, -0.024061568752042142, -0.11076098016627829, -0.5218612059839325, -0.22398346052021983, 0.3407755032644658, -0.0787688414467708, 0.1370415561607013, -0.043039000006162266, 0.0170820004103236, 0.13969422418419558, 0.30331502723674825, 0.1692755186865176, -0.1778948563860771, -0.31056317213002044, -0.05806936336427189, 0.32131844185446, -0.02855842083263766, -0.08239995922376728, 0.11668675174426983, 0.24257430482606268, 0.16572666914468134, -0.05510899537365448, -0.2262702639923946, -0.17770668746291887, -0.13849643441841125, 0.030596873273087286, -0.17583062872637947, -0.3290336044171647, -0.04308057663754573, -0.030909626145498623, -0.02948717112117189, 0.10927614011308222, -0.1985255255639993, 0.24207673644807123, -0.04817148584694528, -0.2316692533745722, -0.06486753069101273, -0.35437044650171545, -0.19928263578861874, 0.3072946092525931], [0.10245453653205006, 0.03337795351215493, -0.013732583962679014, 0.3565950144964208, -0.2801091838910726, 0.21185853250524828, -0.3923340532310946, 0.11038047990688545, 0.037941340721617485, -0.2726676647597553, -0.07896874326823308, 0.05694987660104344, 0.09795604986686823, -0.07079072413736374, -0.14700455717417557, 0.07838172429366938, 0.019178535760616594, -0.10680911641244695, -0.393825760239803, -0.13200548180863114, -0.17743396708617146, -0.5579069455152394, -0.23894102799450695, -0.12080623381056116, -0.052128223656698544, -0.13937553687508794, -0.24290996705160578, -0.029976290246382372, 0.05795163142007255, -0.0821821167209879, -0.0812724201990885, -0.027982386499442017, 0.06738989359994807, -0.30642827041195553, -0.3284034388486402, 0.02761247743645812, -0.25186336626667927, -0.0024949861303247157, -0.17060675733277822, -0.09449250472502443, 0.0041441413941793424, 0.01356516412725067, -0.11324014564727587, 0.27940086289519167, 0.5517581032744865, -0.35916939825223737, -0.21880710023654878, 0.23375411222816847, 0.14815290145456425, 0.4150844425106688, -0.38210368078566287, -0.07069617854382736, -0.003248369731204183, 0.18459690879646581, 0.2552525171123394, 0.16464344885363535, -0.0055116595860807555, 0.3485103305366853, 0.2310732236596504, 0.18800826243217278, 0.034904157059308626, 0.2440939597847306, 0.13882357288214697, -0.21873047331934725, 0.0623371194151161, -0.056444078930268766, -0.12530272363536574, 0.04979727854488751, -0.22545592297687517, 0.1798350956623204, 0.19079766258856493, 0.1997937490241836, -0.05700795137775943, -0.038406426088007914, -0.34504116031177706, 0.012747610780983186, 0.0507187655929494, -0.26429579688668525, 0.066496119498822, -0.05657928331210479, -0.21802315161944, -0.04080227178879147, -0.06410630246201093, 0.10317576446473907], [-0.03441321104071691, 0.189991146573391, 0.16676286506021104, -0.027892525393066653, 0.05552978145605976, 0.11387724346929053, -0.20199620745631264, 0.10593059605912998, 0.042432886894872915, 0.11417831597534094, 0.2095976085168286, 0.11079033669585564, 0.10546470465131848, -0.012291366671036452, -0.03477349848935954, -0.21368291916144483, -0.1626397422047446, -0.11850412003621377, 0.02817606353749537, -0.1320603293213779, -0.1962697400785401, -0.07036191249261786, 0.17555419330333366, -0.23228889823644647, -0.025239674337677914, 0.36555765088698655, -0.06109425782920522, 0.13065096934135115, -0.4259494874021505, -0.14798649577513415, -0.05083866321584827, 0.06834308163573272, 0.023962971998621952, 0.13930265304761716, 0.3784779998189393, -0.16700407065475945, -0.21735305201424213, 0.22144324846678295, 0.023156378497803064, 0.041908453509593886, -0.20422911416877212, -0.11244331694815578, -0.34256825844677014, 0.41809457723297105, -0.21289326215563986, 0.32169340408943337, -0.06177582047466162, -0.30311580910038216, 0.16192878804960673, 0.18271614915389323, -0.12943610111451245, -0.09019266270547166, -0.2484449001035246, -0.09672955166722152, -0.18621743828768203, 0.11922325809318392, -0.17587058014137896, 0.1487554023235785, -0.13338146008930377, 0.18977823964568966, 0.032507951536260085, 0.42362583720573477, 0.03244199130036049, 0.4125795798815116, -0.1851385992281247, 0.48766175320339494, 0.26303931345466364, -0.32077443602040445, -0.1656571608311482, 0.1718214339011491, -0.33930010525954085, 0.3144807417930414, 0.012221470714611549, -0.10924928688701825, 0.12664407981153555, -0.34066695299239413, 0.02803773811677474, -0.05998984818228563, 0.2972386250486282, -0.14505459126641274, -0.1469721093223472, -0.19218136198292332, -0.027118656010119622, -0.1316208337566734], [-0.14927329743295686, 0.03242948240365509, -0.18660525169522352, 0.208632655862074, -0.20267774768855906, -0.08019788372013982, -0.020740314088363705, -0.5347382550022342, 0.00082484552044784, -0.11311365351700264, -0.0422761871797166, 0.042984073440422516, -0.07677651285140247, -0.02289330411937272, -0.04431917460103017, -0.23432264882724152, 0.0591132540919556, 0.1498556984767835, -0.019284365320192908, -0.12115202914412675, -0.2049105367902055, -0.09381058886614622, -0.2963451018980429, 0.3329995384571863, -0.004233925941986851, 0.2971339425120952, 0.12028886202179308, 0.030771054312654356, -0.1750590061428664, 0.2305971573462765, -0.07910920289320209, 0.07104422974178307, -0.1525863572437657, -0.29640829453628564, -0.28752723794436846, -0.21004259256385877, -0.004344152804722182, -0.2433341497542139, -0.06318025839863325, -0.125960002031081, -0.020692669181569524, -0.10341246666382156, 0.1631928148680663, -0.12762445454869686, -0.4391399358236554, 0.037262839917225635, 0.25998369522125736, 0.2149469466102393, 0.21246954558861403, 0.21053151506684847, 0.35277604147187425, 0.1904283377198097, 0.3166636670400887, 0.25759338824244926, 0.3012961055933125, -0.2069698702216123, 0.10718664127163759, 0.22578509036165698, -0.28783292644739755, 0.13693557410636592, 0.09143577655547869, 0.2112705864375074, -0.019331206754075347, -0.05880400929015126, 0.1876316769964554, -0.39799116524038247, 0.22384450203212383, -0.33598596659749486, 0.3092818751641745, 0.012213632023354782, 0.15085573089456616, 0.1272077201345358, -0.0723671348185618, -0.0010726031546594355, 0.07123209463650569, 0.015213681102574237, -0.17073661808580184, -0.1786553784221072, -0.032238713288040614, 0.0633576601498908, 0.15024032113202024, -0.058559570147748256, 0.10428036116483012, 0.018947177979701187], [-0.043098215585758444, 0.1539611866581438, 0.29203100576638674, 0.16902694074261335, -0.12070056894947988, 0.19252317333303837, -0.21669919353892003, -0.3254207839763335, 0.13394925970845953, -0.07185643182503398, 0.09876483734175066, -0.15667548077608798, 0.37628119744749217, 0.20213450171851333, 0.293442202329571, -0.014262947096428148, 0.02461486830687174, 0.21828711084008892, -0.07712223011479918, 0.08730001783850488, 0.13835111802238126, -0.21986142206485063, 0.16010608845538887, -0.11306381993671533, 0.06914748273710895, 0.028053153423247382, -0.06158139254524258, -0.11914495183803304, -0.1084521229551837, -0.23700469783112982, 0.008495978039403848, -0.07761522714134768, 0.21808710689444957, -0.033934844015488894, -0.1055977692650351, 0.19261517062810904, 0.003516058110045765, -0.03107651829428473, 0.0785473133475366, 0.009812273333350769, -0.21482055921535897, 0.050753024485042125, 0.051841364825180675, -0.2573207424937346, 0.31282889780924344, -0.011547608719460157, -0.2566896758351222, 0.7188257234618943, 0.12298032174306361, 0.03593666687030924, 0.11951189568841773, -0.2807454479347625, 0.1882832767388571, -0.17198679939334863, 0.12578598051896367, -0.09023583176374311, 0.056443965220782794, -0.16146679333918706, -0.6117054809277561, 0.24957149519267205, -0.03956156702440191, 0.06495687105281343, 0.05124404625822381, 0.23681404462805034, -0.06782306037853336, 0.027245028262267865, 0.012398523442832987, 0.24049653938151594, 0.24317195873204633, -0.08605851186043582, -0.37650244301498553, 0.17036063467881477, 0.028421647724611053, -0.27146239821370804, 0.371682478398271, -0.3436875729040207, 0.29495877649369, -0.49828549844647774, 0.6603644032135354, -0.2821851511860529, 0.2556980152558873, -0.3697480593350509, 0.05191359504334966, 0.44652535725688464], [0.017821655806333894, -0.025390044171153033, 0.08234899553633694, 0.07029676561607544, 0.08839030075852905, 0.10165219294716063, -0.10253756198472576, -0.046635112417803555, -0.21142310757747132, 0.023085149266182138, -0.1655994720500188, -0.07774111266762629, 0.32120206147555874, -0.169679150944806, -0.4436155648513704, 0.04667677016877195, 0.13966013321082654, -0.431358131151887, -0.2517402035438334, 0.1928503394029919, 0.020244411923418228, 0.02024745969932304, -0.08709465355393024, -0.2074918605617468, -0.12377480090238335, -0.08301025654081402, 0.049509076725660454, 0.12382147918240564, 0.07309177460876642, -0.2223140959606865, -0.2546870563667076, 0.2966461279708614, -0.04771293321105526, -0.10169973705143048, -0.4132224127714674, 0.2091651939720383, 0.16262317644391108, 0.14630691608003582, -0.0901392805180732, -0.17439340093564357, -0.018401740733190595, 0.1462684485635056, -0.032025462788957286, 0.07472007805636469, -0.1728796234365102, 0.271329350958116, -0.09362063916010223, -0.3333574817967275, -0.003255093738543904, 0.034011011223819484, -0.0020663031148570273, 0.2178681873963521, -0.12465278037810856, -0.318449714228268, 0.04296226805162264, -0.3152318425821589, -0.20340020078527202, -0.07525882953891679, 0.05838102335834909, -0.3425151668272126, -0.11011209457079175, 0.40060647867123483, -0.06717364693208644, 0.22518396195139034, -0.18337680236438503, -0.1490599645336413, -0.2528606991143826, -0.006213478558597521, -0.1965076089982213, 0.14524726262974577, -0.08234733253945528, -0.3662035690745398, -0.17439804557896374, -0.05338334252698635, 0.015950224128310767, 0.08905743029655168, -0.22106455235949965, 0.09428613414219225, -0.125316829438039, 0.2086143822241052, -0.33780350332035264, 0.24433408398291598, 0.264912261662904, -0.38556166332531666], [-0.041426844722335855, 0.09695050379277041, -0.13298832311327827, -0.0972447698066446, 0.34323630595769405, -0.38869975337882323, -0.27293061943897484, -0.21531435182111627, 0.0180545378601766, 0.12161318217155455, 0.19321667061376943, -0.07369411520705124, -0.015047994551753973, 0.37591630202722964, -0.12533802486650927, 0.043129696798504716, -0.12583848644479892, 0.008339565712309335, -0.03065278154657513, 0.0006402731508767223, 0.016517747686178266, -0.08552360109046445, 0.07704217938997905, 0.08354028150041105, -0.052520340085131186, -0.17375470484222327, 0.08174684986949263, -0.1798114847662949, -0.20844808518730068, -0.3282823889769626, 0.2352559758421241, -0.2339516734917434, 0.41753954111873154, -0.39556558362700533, -0.09143125355019235, 0.006819884785274263, -0.22332735153714764, 0.12739532960111652, -0.3796592292632081, 0.13372672551189457, -0.4970707981549849, -0.025783764216954944, -0.3472039024927664, 0.19185973023374286, -0.16508818416367635, -0.010038286298038978, 0.012480274820215404, 0.5546297406445904, 0.10152774458393725, 0.11486174189872851, -0.056827699813787776, -0.1720112413414901, -0.06429100491140322, -0.08087874896681037, 0.1416942691325843, -0.3777486241473867, 0.06084101031565522, -0.5135538588251117, -0.2435860774470791, 0.016999011398289937, -0.0518415100118337, -0.1815332801430438, -0.14706654073484682, -0.03296313074396167, -0.0023050611965836614, -0.17598974892413977, -0.12363185741677309, 0.01323732394980294, -0.06786256692122267, -0.37577676218822326, -0.09081127467559812, -0.02739140136234322, 0.13411455449987125, 0.23222971366738643, -0.03784438049997647, -0.10633920785438578, 0.1537482614764776, -0.0014893272028197735, -0.2794937982649148, -0.04202975081152609, 0.13205864739887177, -0.13049699390101602, -0.05396149050536551, -0.0499862158325466], [0.039810759578422165, -0.2266892801164265, -0.1984562578375374, -0.027282574101699802, 0.03159925187659028, -0.0181308850049355, -0.15357714901016659, -0.14875754118347834, 0.14151923421649878, -0.22059254503364414, 0.2887452838561737, -0.12915894501593003, 0.24330174349679767, -0.15231836641577268, 0.07944615322316083, -0.02785632753966555, 0.009129272191864204, 0.2791596317310554, 0.006433382804583723, -0.2858282153919879, 0.1693844174491981, 0.04214373438593312, 0.17230218952910545, 0.13278890353999628, 0.04069544287450534, -0.22279272566858851, 0.003785730495187877, -0.2652166794410558, -0.017084076188328943, -0.015260564375009592, 0.0843352588171744, -0.40236311656067797, -0.007326483378991061, -0.4057966310236241, 0.1673261750662859, 0.0011151154699337164, -0.06952240365407018, -0.18061782353145192, -0.21358613296634926, -0.11172902347416909, -0.020252520965486822, -0.011844542904014614, 0.10370388281642696, -0.08693029632979125, -0.16611757440544872, 0.12737540211060652, 0.21699769810607877, 0.23501675255297866, 0.1639103218680235, 0.17942381417160488, 0.09136228674005709, -0.19716905424717376, -0.1941936695509301, 0.08431776687457956, 0.0741941669149975, 0.06055577152897099, 0.0019787389174196735, 0.1890813439532843, 0.25871518547253924, 0.3499857764282126, -0.3618091932006417, -0.22275381084713453, 0.08175097055789149, -0.061596854281456094, -0.013931300789014986, -0.1454569270453015, -0.11726981100141275, 0.3555760514233787, -0.14059081785724747, 0.1469071360292437, -0.3673608667094086, -0.1780247165334085, 0.11724606539778581, -0.30975191417828796, -0.15571457030911612, -0.22379237442515987, 0.18881812546567656, 0.029579950128422215, 0.23737329024505266, 0.07553577273691073, -0.07177670459465307, 0.10274167364385448, -0.1431928259531477, -0.15900652537512958], [0.03011769959141407, -0.2659436928173486, -0.3463339589008425, 0.04379977966399433, 0.06418400377928246, -0.1835600905745512, 0.01934250022185918, -0.17318998242943429, -0.01807019417441183, -0.16091692864712756, 0.1363970709721369, -0.0876203866886365, -0.04471520820938881, -0.2249984682654809, 0.05108783693813885, -0.15259672038782415, -0.1311709529187242, 0.04815474777939975, 0.100577836166821, 0.12077614377817371, 0.09785108772870675, 0.08113225157205513, 0.26023248895946055, 0.27316081784286533, 0.0707985162254219, 0.197691066539971, -0.3655525825932838, 0.22436951393927293, 0.23176029367920614, -0.34278621607580495, 0.11855966947493787, -0.017647548038220065, 0.07618282831256296, 0.047878304541037975, 0.401001066813504, 0.11226272023434712, -0.05074457375379638, -0.3317976733784769, 0.008464908303007845, -0.12143953160597573, -0.0032426414163944776, -0.21134884154752215, 0.04000784262979061, -0.04226910495647439, 0.06931583081810258, -0.5126726541498862, -0.29089126168648544, -0.5306109875162095, 0.06631976158026728, -0.010775446408796558, 0.06832903772226524, -0.20038134861467283, 0.07086842725468052, 0.11545567242656439, -0.000574962448672035, -0.22815094983553566, 0.06577539339306297, -0.3649384480755964, 0.3291527721831294, 0.15903759986345928, -0.18253236665865644, -0.11032613851829028, 0.02863056230023955, 0.4465472107971545, -0.28614843962194253, 0.22101489625524928, -0.4236196900003496, 0.3166023435258994, -0.28310637366038355, -0.11044869856094049, -0.27896838852577616, -0.14528719614965627, 0.18465639478665222, -0.04877087725640789, 0.0013898437297745697, 0.04810427520498164, 0.10882141263442864, -0.2683526083825709, -0.3103026620182906, -0.20755923887326427, 0.30821337017972356, 0.06906713399454069, -0.09103223987989133, -0.424589980404615], [0.10342677594676544, 0.021427329282792423, 0.06201265279037532, -0.022932873169737595, -0.08717406255320023, 0.12665792013864385, -0.16985988988832115, -0.1288015735666887, 0.026654615853632907, 0.021685351253583986, 0.06113693490265966, 0.15302259232656068, 0.4717836972040425, -0.04587699009995822, 0.2038003966476179, -0.056290137969730716, 0.0817079172615771, 0.10796638600745993, -0.14868590834344342, -0.2212709572584346, -0.129306881051199, 0.07442537379432729, 0.035923947179077924, -0.2628756224500969, -0.047418986913103055, 0.0026671771707565952, -0.04797070593730636, 0.13527956462449403, -0.2676085618596391, 0.1801798592783833, -0.10974061719027205, -0.04727577570161287, 0.1509301531448628, -0.02599006139206278, 0.45418970112183255, 0.005862221628503911, -0.16331058393712417, 0.09217150447365415, 0.030838866973351538, 0.032759481254551824, 0.005652456316612129, 0.02864353235277682, -0.4484462097258425, -0.06420248329608662, 0.21322915319601995, -0.31112323496938754, 0.4610176674078902, -0.5758968369286671, -0.07153730821937122, 0.06841011974041741, 0.14994526081382806, 0.05265897984602816, -0.018630501916760262, 0.2951082301329804, 0.017598290417959704, -0.03670762388355415, -0.014357666353965997, 0.007064288843805799, 0.457740934060686, -0.28964012513906456, -0.0932326600296173, 0.09781453749373768, -0.22911749946528995, -0.011538762145703811, -0.30970410318813935, 0.05456018301050201, -0.3285490927350305, 0.27454538659993255, -0.5750098537475917, 0.47703444888713936, -0.3673788345023028, 0.17001868099916273, -0.11676694667277425, 0.25779479386919335, 0.10021595412039375, 0.2813036144055233, 0.16625101914409113, 0.0556665872261242, -0.07118799103903872, -0.18552403422600147, 0.031634215706945364, 0.3084543187240128, -0.08232024801594201, -0.1365177671731088], [-0.3713264891546234, -0.05024834155661341, 0.09987331931108802, -0.009507276697275916, 0.36135242641546267, -0.4214222660061167, 0.5285487289649052, -0.22841969197506654, 0.32330077985548866, -0.23459247085710072, -0.0201166883713152, -0.29971845824477317, -0.16309338022437828, -0.10594177044439744, -0.3712873559808079, -0.09800809808667277, -0.3992861450351946, 0.2730099479380534, -0.32378405947414296, 0.6468217415707295, -0.21756478664580925, 0.11861813185259534, -0.42589508782415797, 0.5635141640215987, 0.08345687116571744, -0.07684724368539918, 0.28298135161568916, -0.10398194809304818, 0.37496755387925507, -0.09349097388693828, 0.1457003629363727, -0.21497185173518973, -0.08908311916289165, -0.1557822668580388, 0.06519940930739813, 0.4848662158923506, 0.005263699744261166, 0.356705066637587, 0.3446473074673312, 0.1342654562448041, 0.06960692222170906, 0.13060394181081025, 0.04610965119552418, 0.013279281382375328, 0.17635611381877134, -0.1921567727280286, -0.17511448891032197, 0.3777629181423509, 0.11899545107811633, 0.24497151886094007, 0.10215286814702958, 0.17779881404366182, 0.1727052394867379, 0.12343368688297414, -0.029440254344590168, -0.06235514148336693, 0.055570481155508535, -0.04445002700318096, -0.5237442151710723, -0.645289087316781, -0.11952835552040998, 0.18155952756272864, 0.09190821884607052, -0.024543775186265073, 0.12899520765098824, -0.008673374585641627, 0.13329123599999707, 0.02496382525091954, 0.05658315977593685, 0.07008478410541252, -0.10431532392683257, 0.0250525487393378, -0.2363795485440022, -0.11037120618304068, -0.017126371554713474, 0.034269991835434596, 0.011151337336875693, 0.008280777114853892, 0.13009453887925543, -0.16635744750209105, -0.011823617462730477, -0.015781650648847068, -0.09351104368602506, -0.2094136222905712], [-0.1607724990999891, 0.12481994096178345, -0.024465957769784663, 0.06979298864263779, -0.2567027204480773, -0.005368159161007302, 0.016414736948103182, -0.13254508491230604, -0.16928699534163966, 0.14827395076687078, -0.09190227341150058, 0.2514557524682791, -0.10395723698456434, 0.08578064102577333, -0.09663672041090324, -0.0028851187579261874, 0.014446696130562608, -0.0770340184361443, 0.008611386379084644, -0.1882522856240127, 0.2066124096390589, -0.20596028463728014, 0.5134300562973375, -0.4315673781502295, 0.03775560168783476, 0.29761013126171937, -0.0063039052563330835, 0.020928740092327286, 0.12760255155326217, 0.14648603172464075, -0.26798154986447126, -0.31472216551800875, 0.03964665853532181, 0.06613216882400724, -0.5740751129791227, 0.01506371171473515, -0.1316849052229535, -0.14656555132863075, -0.10729642800556147, -0.09950905830085907, -0.03600403991945277, 0.026971588155056084, -0.0869185038810864, 0.24833845106444868, -0.01830206932208096, -0.012221997639417267, -0.2738944085778047, 0.30313434433634073, -0.14494795825628778, -0.006812580708378244, 0.03834565181531739, -0.1145267922984106, 0.11285798940329266, -0.3073318680367845, 0.25079841382940177, 0.09800008501627196, 0.10128428187619833, -0.1963732615608367, -0.07319863471153032, -0.24129567846647237, 0.26740229455713116, -0.007848503949161452, 0.023863394799091234, -0.09516675461289315, -0.09044743403559134, 0.17633266448332602, -0.3588105147642442, -0.04341890836676651, -0.013554496812788289, -0.27567716741700826, 0.08909728081379047, -0.441765634112791, -0.29849715286136796, 0.04755465642897558, -0.06318289933733022, 0.17686119499954733, 0.03223763429511422, -0.09837148099582783, -0.06704577689334033, -0.1476280354852438, 0.05393036240924388, 0.04032954951569606, -0.19248185888248406, -0.023604284861153218], [0.12174165008540366, -0.08821577965596604, -0.2713706602184645, -0.07601124525121332, -0.06142552019058954, 0.12529788468891906, -0.35046467575575896, -0.08993557032224116, -0.14012154862505893, -0.2443022732072044, -0.07477765766216955, -0.37995313332301844, 0.030739878395149637, 0.1324719310867615, -0.15521975316398617, 0.03886903524474228, -0.04495840463987153, 0.0010915565226872162, -0.2771939262092266, -0.1007329578066987, -0.06379977524997485, -0.4133169402438069, -0.1470767138713721, -0.2749857016179219, 0.002321846099570628, -0.009565708367900843, -0.14464691010718958, -0.06269423535419888, -0.3274736115641827, -0.14524446467546168, 0.10794412823973228, 0.146007899397978, 0.11012783772221582, 0.03155946945537632, 0.3357502567802809, -0.09216620543793835, -0.05075567186435265, 0.2825413783762939, 0.05594942384398621, -0.027059961320581697, -0.013261908067959535, 0.24168512488781035, 0.11042467114304354, 0.17603877686155522, -0.01486701762498422, 0.008468992700724846, 0.2785358338805143, -0.37405948970071623, -0.06431673715217326, -0.09758674972983856, 0.24114671698288556, 0.17649207805065664, -0.09061691828648286, 0.07285671249276802, 0.021109968057116034, 0.07514309582103655, -0.12280077419381627, 0.1030534873285815, -0.036288235510454625, -0.002982118237151686, -0.13032011804099813, 0.018337786059912483, -0.10346949134056088, -0.19856155970654163, -0.0013182908795373058, 0.28471734483713423, 0.03741828234017485, 0.05514930275936319, 0.0364972772117934, -0.1656015285770082, -0.22845105115652647, 0.3602897377831199, -0.04779946730718429, 5.724610463312537e-06, -0.09387213667437501, 0.00019604924233591737, -0.015939890628206912, -0.1111985872283248, -0.12022611878288847, -0.06286862935696716, -0.08975535732943585, -0.23802608231802627, -0.0741931392337574, -0.14633280035951587], [0.04080943429221806, 0.06947771429033657, -0.00457603175524855, -0.031118524562182927, 0.15922000404494613, 0.06183079435707262, -0.28228188401567644, -0.14742316568306985, -0.13460184043965098, -0.21968324705126654, -0.4583546494234933, -0.1313745513523296, 0.44623096902017767, 0.29479205455295976, 0.33131574069802205, -0.03681880980054754, -0.22103992729916525, 0.1094988152714787, -0.25230298227232595, -0.1972974509071202, -0.061719002000595546, -0.019168176693381472, 0.2777366627616675, 0.21279376236537467, -0.09952230532183327, -0.24090890156750913, -0.14199437946011928, -0.10052686867453983, 0.29001349599019804, 0.26885842057251974, -0.2862149134528165, -0.07278163269565226, -0.16591183660116807, -0.023058995349793124, 0.2724700151691059, 0.02395544882908306, -0.060614701034279454, -0.08393312468934695, 0.22663457845596693, -0.18022468297373476, 0.021887483469563186, -0.2809509181806461, -0.0999274972287316, -0.3529176204996678, -0.14674917158879763, 0.01594682492705631, -0.06534955822912333, 0.147087051535555, 0.33781573933299747, 0.04128970044237703, 0.4497943672776535, -0.031446643973391065, -0.13815848825453875, 0.4556721779555056, 0.24853590146932716, 0.2413398103878661, 0.056642186332162656, -0.31760382354714234, 0.08623940796349339, 0.470974244208198, -0.2016257195067253, 0.018240228871704355, 0.15991515637349665, 0.0494561869000147, 0.04152068523775751, 0.04208565291575401, 0.10999685329538425, 0.37362486850253845, -0.022947889388596283, -0.07703046279632189, -0.0740415222568539, -0.03490788825927871, -0.02798329269441449, -0.31187594526672036, -0.030177908898250623, 0.07125534212702453, 0.20228285637017884, -0.09139014673201765, 0.06141629561656839, 0.21171196333642642, -0.23866004469872798, -0.04551506042146114, 0.17334278623389615, 0.08505681206441848], [-0.19436970361950287, 0.009586236965640704, 0.059495999345160304, -0.15827361677330018, 0.2842198277787615, -0.2135024025573005, 0.16104033525136685, 0.3540862538303005, -0.10220910965095888, -0.10260759794747537, -0.2018524015845632, -0.263778003899533, -0.06121107788759445, 0.11171010698929579, 0.10165252941575616, 0.1409574885082276, 0.3316135129239989, 0.33233052882607894, 0.23697551675317385, -0.0885344397764825, 0.0807335338360039, 0.05538542846337303, 0.0467111177835255, 0.16605841184852513, -0.39092687928776393, -0.25566408496603693, -0.26954303965137033, -0.5499916937340467, -0.32598010162886654, -0.20693423923304646, -0.643593482392516, -0.21498985508767254, -0.42376446564952946, -0.175191428401985, -0.5239830352232355, -0.49750043217937506, 0.2751375315795791, 0.25991988106692826, -0.1574435365037856, 0.2751720931096479, -0.302672088532337, 0.3070556159910194, 0.0735943445884433, -0.01723517897044737, -0.10467552462782584, -0.02042571467871677, 0.21881755701659317, 0.5399563323930102, -0.0030660587327311795, -0.018839722674030484, -0.1453807060335177, 0.08998080871381263, -0.17228737282289167, 0.0022172532665377773, 0.03184672489677156, 0.031077426453424283, -0.0748652593750262, -0.0042658638288504205, 0.7373770804635505, 0.647499683642497, -0.09040303875420098, 0.1420212610887619, 0.08532507457192559, 0.08770652308960783, 0.1422965088110645, -0.03171641187792579, 0.09636310267400591, -0.08416803367420986, 0.09280870937556851, -0.006874350907614016, 0.10129514072405352, 0.18031826257661523, 0.11356479436629945, 0.14668094642687296, 0.1533492365056451, 0.04611013082480977, 0.12480281407775538, 0.3072963436212684, -0.10938001986981027, -0.1268983778602689, -0.05102117513084423, 0.04665647332785369, -0.185226168449209, -0.07810051524661092], [0.0800521572687945, -0.06495910479080788, -0.27499002613822504, 0.2474815059663023, 0.31819690664117406, 0.018578942843961006, -0.18704973777121411, -0.07968761218119827, 0.014373984909563532, 0.3156958121064654, -0.2223791135981994, 0.19407142187386256, -0.12613458434606079, 0.1634735957412876, 0.18414432136691974, 0.3194042027626593, -0.35154904586179425, 0.08817903526926092, 0.013685250795699998, -0.07291465818571763, -0.13788416680050852, 0.0773164766496621, -0.52117454813172, 0.4886260600629506, 0.1842163735377946, 0.1505962157940551, 0.11891568805657649, 0.002020252476294062, 0.17086516184625386, -0.34271193537889316, 0.1899868539065463, 0.04002309763583013, -0.10973557541738929, 0.3496115002128376, -0.3545597856031633, 0.1593932070932588, -0.2150762303995101, -0.02702561863627652, 0.2950614813427015, 0.07226494865270887, 0.09230723499284439, -0.2109903833030005, -0.05804024292738918, -0.2329601213754485, -0.14161946245256116, -0.14779237715758772, -0.31192655849170825, -0.39419000622481715, 0.07975147292258865, 0.06060306850300256, 0.16760584648868507, -0.041126402413948035, -0.2348374877722788, 0.1514027199904599, 0.10701229175478286, 0.022758315711773485, -0.23979822060982692, 0.057161965392583496, 0.09068024754762168, 0.005270711551794873, -0.22138982160864096, 0.24594591641871666, 0.045645538653137446, -0.017756770656417547, 0.035725852426236576, -0.02615955697238929, -0.1626630353670273, -0.03988935346517608, -0.12009735555345573, 0.03548375404411541, 0.4366709300341892, -0.2719452956324213, 0.06277507702904174, -0.024118336273493496, -0.04138473948644885, -0.07878931613256637, -0.04905461287736674, -0.1124804899668008, 0.004369537627545894, 0.057487233229168315, 0.013448718470602082, -0.04450829653068713, 0.07779424226528024, -0.30681844403194386], [0.21793422528495035, 0.02540888438975737, 0.0977192341231054, -0.0066665358518972, 0.006248979304769934, 0.13016089888800347, 0.08816898288044814, -0.17575571829881403, -0.02813040181601039, 0.06799534739796984, 0.06089198697902424, 0.3000876246468289, 0.15326125961641315, -0.2790115124994034, -0.043894359695617315, 0.06835894118613912, -0.16615681623626416, 0.32705313773333866, 0.23157026018046045, -0.25459993086566596, -0.015951019476296922, 0.27841114233472886, 0.04889928340467814, -0.05227244232892866, 0.2377409224528248, 0.37852696248995454, 0.2690430114319276, -0.1181592313600844, 0.3036487261462357, -0.02522273509298952, 0.35708669344379174, -0.17966928856113654, -0.38035981947670705, 0.29828557868056654, -0.06983603272739594, -0.2804216470667648, -0.21749586589907288, -0.49968029893055876, -0.26717613114770805, -0.026834058318262716, -0.09561047826409244, -0.31255161069870785, 0.19769726376370564, 0.6317813018240432, 0.390165317020067, -0.30539931670038123, -0.4865452534570175, -0.3138758058601261, -0.047683116887234915, -0.1582016761689322, 0.03715490108962273, 0.20454384773129827, -0.26289019800083974, 0.14561447509637668, 0.020027507197470335, -0.07948805955897219, 0.11498272270143564, 0.331051985668673, 0.16642136659154333, 0.19147802516012336, 0.23581153903548768, -0.145067709882561, 0.008528591759397316, -0.0092390290562743, 0.24224539551300306, -0.22317715920832096, 0.09011416333266403, -0.009111739447930678, 0.3187109630342566, 0.09118940273579841, 0.053309077347235764, 0.004551608253364064, 0.00461027107420984, -0.07373380793944206, 0.10997767819458668, -0.11093931853797885, 0.006527415393572729, 0.156195981890032, 0.08790900899418795, 0.2886605288791372, 0.11096162752804971, 0.023919310097911418, 0.14807371856447027, 0.008062623429450279], [-0.11563699999303188, 0.05837606431642919, 0.4782248645114794, -0.21108062896368604, 0.07348543030046739, 0.09512639193455388, -0.7924768286554873, -0.17822830389582553, 0.3759278196541083, 0.01882354760231945, -0.0002735210819289096, 0.08640689759225637, 0.26803159262590476, 0.003601722600554647, 0.0417452452392487, -0.05404963582806116, 0.06584599542114644, -0.3598100077139557, 0.09750790189693534, -0.07108934371885982, -0.03605310344678956, -0.2798689128905173, 0.13013918493229207, -0.05906494526911108, 0.03310862186573573, -0.3902514308054092, -0.09373828964977242, -0.23283888082059134, -0.24596367684790213, 0.30351400280314034, -0.319908253127243, 0.11333368335312353, -0.14954242605151324, -0.15135829612601834, 0.27835498431962175, 0.11624125482791266, -0.11924046491321914, 0.023474347875290968, -0.10503794621902036, 0.09255962595740369, -0.4218068055710456, -0.17999524930391653, -0.21942335980615457, 0.056778602901946536, -0.03177184424548751, -0.11454615535962194, -0.12783783207164, 0.13450998097672862, 0.287377660759129, -0.07029055379613872, -0.19403191871215594, 0.0449640868515798, -0.11475631325162203, -0.24678857042282615, 0.4195334791216242, -0.14848348631788258, 0.1271631810489694, -0.4056302172884751, -0.07329858580399, -0.23241817387747102, -0.04259654863173879, 0.029423548615508312, -0.06667907878010546, 0.008072232789055334, -0.12714050844577665, 0.28400591960750776, -0.017509822395745632, 0.17591459982809649, -0.13617953316739587, 0.05775756951722246, -0.23731455342269017, 0.15894185790912949, 0.32896441559096407, 0.18494004883585818, 0.009350400255178049, -0.05827048107681003, 0.035067479630356536, 0.23490021531488275, -0.22948317029977822, 0.06734107940741195, -0.09418068537840085, -0.10952807172259332, -0.16698164416375166, 0.15624045565727623], [0.03425838580083661, 0.009422511952013176, -0.20143197024889778, -0.29672126556951695, -0.0554581460016117, 0.2229822048740879, -0.19827120780966825, 0.44966468288628775, 0.0112254515741427, 0.33371258703606116, 0.39393942644908714, 0.08519228869619314, 0.05450020104042979, -0.016252073255379643, -0.0006528421659149901, 0.2704983134212879, -0.28590011803237436, 0.31064568047483493, -0.13866155859423615, 0.35242436396231575, 0.20895169657574014, 0.08426566178454287, 0.10103013961476616, -0.18438779988975962, 0.0061036171860556375, -0.03371371798917823, 0.01822797716484874, -0.05538292552658772, -0.02458366827129296, -0.10459502173853927, 0.009504278558170043, 0.07151166276645973, 0.12695705147737618, -0.3017294072503486, -0.10844839850667715, -0.0682559380414561, -0.18175480422294668, -0.057121064439520745, -0.2627732187620088, -0.27701651117339726, 0.019568331549892876, -0.2676518259527818, -0.1971770840404759, 0.06776161848340968, 0.09141280892411718, -0.3677974240866251, 0.0591848564005662, -0.26121052317319643, 0.16340492664235068, -0.0863869849980813, 0.34337073889680925, -0.1847854645333592, 0.560564593479534, -0.2303536773013308, 0.0015893602705807392, -0.18627048945474212, -0.0770510375967883, -0.2077976928761615, 0.3941305368115336, 0.05736746687678514, -0.10300709315418523, -0.027143156300161196, 0.03625440767459971, -0.004788757993623012, -0.08058293248555216, -0.08326942006165465, -0.026558283888181045, -0.03594339611783006, 0.152043302685907, -0.15554325254926588, -0.01834168292222433, 0.12844077360441977, -0.021067519225393783, 0.1312277414832764, 0.05620084716981343, -0.043095171653148474, 0.18058544564278198, 0.06658522804216868, -0.36559813190986196, -0.2574830553900306, 0.35655957623403195, -0.07391388309538163, 0.3138194453106732, 0.08550082188849904], [0.10808711926649306, 0.026209541941736202, 0.13403997601179868, 0.0071370756914709505, 0.3106531405236308, -0.05989078804969653, 0.35681699328850547, -0.13241128215115547, -0.0696882408623322, 0.1501640588995123, 0.03536009081993883, 0.12130217664917269, -0.08074002288993738, -0.11309611948813802, -0.15379141205751004, -0.15244695232440045, -0.05253746061268958, 0.179139546636354, -0.13473644793416006, 0.12286425239169148, -0.43750694262566026, 0.30891589935473496, 0.08829627781129559, -0.35175571878287565, -0.04620677455978866, 0.1669251397892452, -0.18382599970592964, 0.16603675288841363, -0.030550436792497013, 0.2132369107844688, -0.28017550470462665, -0.08476591226415532, -0.4143174563739578, 0.3371542689922522, 0.539493842774435, -0.06808352327489255, -0.12299498548321637, 0.0755355527269807, -0.3365585716030766, -0.1577858165608663, -0.6096868694567972, -0.04450595272973575, -0.2187892325894012, 0.19261357471856103, -0.3713376911626185, 0.3645822203499987, 0.1411570910946764, 0.05518774848045567, 0.18882303510947052, 0.06953424017263651, 0.024816455868966403, 0.031553186632141385, -0.07382434736841909, -0.26945653539531506, 0.3198722342654808, 0.22905101392792526, -0.18786230024872988, 0.22354388734656913, 0.0704412884145678, -0.730436870374599, -0.017165113304004612, 0.1921692098157858, 0.012555353077105208, 0.15321513269569514, -0.09351820093574774, 0.24476782050410606, -0.09278582245479593, 0.11659269817606246, -0.18400031989921928, 0.2553271562930229, 0.24948640209562253, -0.16352337996903618, -0.023670948815026592, 0.06369204857406686, 0.11602433364238908, 0.034979969449415484, -0.13900114259948898, 0.3487243566490703, -0.32183704562784343, -0.043429362320379084, -0.060050342697976114, 0.013107784347711763, 0.03638827628678975, 0.19327940249709455], [0.07328001041906373, -0.14689654473166003, -0.19031543758061742, 0.12060041042313432, -0.43475287455682726, 0.10004089726051897, 0.027663696462224736, 0.36283326898842877, 0.0059967294068509255, -0.07431986254413049, 0.25416509270540266, 0.22036471987411171, 0.07754246805329978, 0.07058781916878182, 0.2648070392995151, -0.0849432972330973, 0.157877428393862, -0.10713164280710029, 0.14797964080803006, 0.11464654276311903, 0.04774481240711656, -0.12889212603967407, 0.02327018591526898, 0.2575888398456772, -0.030856185532156036, -0.07485062347280139, 0.15419161951799315, 0.0051955915043615675, -0.08005232873547524, -0.16853068191808346, -0.04283090922281057, -0.17381287500311507, 0.17258149236390233, 0.08446630462210507, -0.16581938378502187, -0.013595736216176678, 0.2271169885516926, 0.3013490817757015, -0.14882144584473236, 0.2076654316303541, -0.4748785605581843, -0.0524363272507974, 0.13944546267965896, -0.057246809371031944, -0.2661185923697032, -0.06022559943497884, -0.395665482423996, 0.1770538288523197, 0.5161019893277339, 0.04052314927203384, 0.14273548654384188, 0.11069839491537567, 0.10032676289349333, -0.15090063159686976, -0.33203970007420547, -0.249621570726982, -0.16950305565534585, 0.06552492539187786, 0.48802849121478253, 0.08022257178865366, -0.22271993781835814, 0.2331592254491952, -0.21304620660322346, 0.12025848245893248, -0.16459434585447738, -0.2497450526381771, 0.1793386062393443, -0.0813743745405135, -0.05485338447643013, -0.24033901348325226, -0.18745448052730493, -0.34109131774049445, -0.068286086707733, 0.025654011747713548, 0.11662243391348749, -0.05989997842977566, -0.1778466173595796, 0.14453974586905982, -0.15540161459108703, -0.058697227302578835, -0.07685356996085231, -0.07387904997566264, 0.13466276599675733, 0.03279946732171974], [0.15687466205886047, 0.11556415496557332, 0.18327207482799848, -0.06048954932742168, 0.2336935111610479, -0.3892506377329594, 0.05978841062373318, 0.09413984965199973, -0.20866613546185556, -0.027833813785365476, 0.06790966709993926, -0.3976074429310281, -0.1440847430696795, -0.02529407154622019, -0.1735317906830864, -0.16511021532250472, -0.18743050699910152, -0.05560399365313518, -0.21857505159778629, -0.36797745171729646, -0.1969963851759171, -0.15012367735425033, 0.16226125327282886, 0.044165844701005985, 0.035913984994223394, 0.06917808218098091, -0.1997624175368344, -0.24673426422720796, 0.027219675816550236, 0.0251482450844001, -0.04767944334886451, -0.29356009895476326, -0.33698184503994444, -0.023816815192587597, 0.07605527045409638, -0.39259919864865395, 0.07869317734074578, -0.2746633506614683, -0.030444366828815628, -0.2811743437486955, 0.10276678347405925, -0.14059455063508253, -0.25586625720162987, -0.18476717003387688, 0.12958890007062568, -0.6921828938775487, -0.35923822008752576, 0.29698980918462264, -0.18639839959143886, -0.10901504655890616, -0.13333469091719719, -0.08417171444442119, -0.4575235365614285, -0.11973129346550744, -0.06093711986018291, -0.07118295399400633, -0.5826194282702118, -0.02110590111150765, -0.05541870418414113, -0.4641691416081419, -0.192833381777466, -0.33405256363596136, 0.012557757588244322, -0.18856153119412622, -0.03210735729700369, 0.03906119384966688, 0.21184344111407133, -0.15214990044673232, -0.5160111919995258, 0.07023364236215052, 0.20425587949815022, -0.17743603612968642, 0.0764158892466811, -0.05456921440032408, -0.16186054280413137, -0.07442467340515668, 0.03593298582540542, -0.1978671867561047, 0.021838301078690787, 0.01673904134653381, -0.036864488126691713, 0.004182468908312698, 0.18354587195577693, -0.1423363936099721], [0.07951301317310012, 0.09017495857146733, 0.009187544566935567, -0.1810447959542137, -0.00611054996871014, -0.10653477680725966, 0.04830513926709839, -0.0672258410402781, -0.18653220343825005, 0.18331894068723495, 0.10192172569114821, 0.056816355320191164, -0.06143855689759302, -0.022393151048393668, -0.00043664585609778657, -0.10295627616448298, 0.1116321611985949, -0.14847106657079692, 0.01008512776682658, -0.28289950942954156, 0.25100450048905554, -0.1130557178418935, 0.4038183717375118, 0.28503383204958943, 0.04417713512236456, 0.013147822447445787, -0.17102527054808575, -0.20581031126514046, 0.09930860569158595, -0.0013304292822995708, 0.04392254684445637, -0.1683031142830061, -0.15479911722281936, -0.3336063362678887, 0.31721916917740794, -0.46575261876264185, -0.340873598748198, 0.21246241341008312, -0.19278419617466536, -0.1625578862426815, -0.08873795542831102, -0.26009708130761733, -0.13767029534316377, -0.33885808217275215, -0.1223316923182461, -0.026341686579269094, 0.46201685166338174, 0.15724902386917203, -0.21297774315680265, 0.2179086076362036, -0.22286553275981852, -0.275831324987156, -0.21443575865535533, -0.080430944595098, 0.257520108972028, -0.04871592916029201, 0.016591959106101225, -0.18653765278870685, -0.14231550967165535, -0.5870141382142408, 0.2057735038674599, -0.06833474145963717, -0.23525284181336215, 0.23228741798002148, -0.49886814225991644, 0.3627034505545655, -0.42435920296710006, 0.5759843063239549, -0.4909985033095402, 0.4264013627665169, -0.27934404397937956, -0.3370775099442874, 0.043615156803701344, 0.005209560420070075, 0.06951686930243679, -0.29167348333347753, -0.06399964986846567, -0.17147673447726378, 0.09812833985714407, -0.30030953237665653, 0.0006370452534174227, 0.02570035658878411, -0.0831494221572733, -0.06145146149123229], [0.1835266181676333, -0.08492400995085872, 0.0982949874904984, 0.18946083656702203, 0.021168308828538346, -0.14501341029930642, 0.04948824282644424, -0.014094094423753537, -0.04813133629596129, -0.022858784568497124, -0.010758593575009006, -0.0339074675813392, 0.06592439862553486, -0.1466045305731321, 0.06259488692535822, 0.08053184131890166, -0.012625591224035271, -0.0648731813118822, 0.15336246291422556, -0.0742873932792355, 0.04835241786430764, 0.04919569144271157, -0.19045195939477652, -0.08188392200665165, 0.021397570669314803, 0.19370892556611177, 0.1611174168091002, -0.12849109263343922, -0.00910313651335001, 0.04177006707745863, 0.35287415221636437, -0.3420792904389428, 0.15267796279241905, -0.35717654842655966, -0.19491572732738782, -0.18221450091729208, -0.025261960439815805, -0.09712388420501983, 0.3284638787815941, 0.06059604099863141, 0.01041835725145813, -0.058818413541478126, 0.08184422470989133, 0.05370894472695289, 0.31610294859477106, -0.19995030672649, 0.10130169832536749, 0.011064529008289062, -0.13042719468760988, -0.09639705165713533, -0.31265510379955147, 0.234422044705042, -0.6251636741238317, 0.4820810472917226, -0.633654262297395, 0.7294824921021271, -0.4231029556957571, 0.5414987527374829, 0.09054753754260547, 0.1478882535350621, 0.110743672759497, -0.09154245095336745, 0.1105661426928237, -0.004047236847537048, 0.021133400064053388, -0.12176988240543267, -0.018437361488585227, -0.07568811499643038, 0.26166160407206135, -0.19076745445607537, -0.1285164150127042, 0.023402197418402437, -0.008283474044990191, -0.04084687887407835, 0.22864783974304917, 0.06339085522770833, 0.01873735952370363, -0.37032070843610554, 0.009808389043041519, -0.11139006978758663, 0.08679696197450575, -0.19248323360464173, 0.06554256190522294, -0.2587172075104598], [0.18027959292143053, 0.21711332071996434, 0.22170705909381888, -0.08556290606245384, 0.25685305581592427, -0.31799730960830125, -0.2602056073825934, 0.1324363149901381, -0.397437798680632, -0.09961489126512313, -0.16795110025706625, -0.10601532362767604, -0.03276611165918133, -0.007707519248802879, 0.04858489690145125, 0.09655584605405527, 0.03002350150478138, -0.08235704261871114, -0.06570841356304828, -0.13862399566709213, -0.37827053823427087, 0.06102581418796007, -0.06908801358512633, -0.17965408989960857, -0.1274904694782166, -0.19065872767397452, 0.11629507305572959, 0.1847375143004579, -0.32625459505395, -0.2916018627236779, -0.0278571230314804, -0.3471107578925336, -0.603416147263703, -0.27314805468684694, 0.0008194627427880574, 0.2752639843622812, 0.036254132188366726, -0.05464292198179055, 0.08473012478384363, 0.17192959203520886, 0.24306449043499032, -0.046803192454843684, -0.10772609408062744, 0.021949279039082618, 0.10821055487589668, -0.7359356208339849, 0.15764436509527688, 0.5095765380959457, 0.05781471080235226, 0.4705881656365482, -0.1581867073988413, -0.36447347421183174, 0.011488976831601463, 0.01821794985723353, 0.13070631851316875, -0.16580399714841035, -0.48839853724749166, 0.10560613585299936, -0.22281349183511975, 0.01352388333625956, -0.03065593842315126, 0.2627784725526454, 0.07403601018036755, -0.11082920382113039, -0.08019736890643828, 0.12805248976386044, -0.0738341820036051, -0.0954128536915792, -0.06847210516982744, 0.24460833072662772, 0.1881567052404889, 0.21571188555298648, 0.014485247258484603, 0.01536453752041029, 0.17894140706721187, 0.2165910336334016, -0.256119509872299, -0.261085472208594, -0.17795953773222453, -0.29022789188647596, 0.21042810805462256, 0.23454582629935275, 0.0042165975759372995, -0.21995448577661147], [0.272815850327196, -0.0658245576472614, 0.14059871673027594, 0.14389316358114596, 0.06858294037458655, 0.05808805807021505, -0.32614668278912196, -0.07700816587074423, -0.05301085196748003, 0.006707696453531443, -0.10226754481493949, 0.07788171639448892, -0.013249253823403606, -0.006694978710108338, 0.13453985378435804, -0.16146831552694735, 0.23686456701912648, -0.07175376297586294, -0.04472236248212151, -0.07514867603254691, -0.04114900191186462, -0.06523417245911052, -0.07212681886124053, 0.2709334854775521, -0.08120116719267655, -0.07619485963113808, -0.3159551744990999, 0.06036018587872472, -0.09446378339067646, 0.14534317811353759, -0.35162485114432007, -0.03262933331966537, -0.0463634642611906, 0.24519304630750824, -0.2227059561453814, -0.22818241179453097, 0.15359963050248115, 0.1191151102636231, 0.2951945338137749, 0.18531788864547535, 0.6153532151610491, 0.13634374273550748, -0.687840477304439, 1.0164144726155366, 0.4865108916554774, -0.1587075720416687, 0.3914421367977735, -0.17034232337068317, -0.19508890548030186, -0.06322289934610878, 0.15440333233933742, -0.14169138099551776, 0.059523806811804525, -0.12460034232021869, 0.032656791109022726, -0.04810826013911505, 0.11677964864006343, -0.05390797826142932, -0.2708495457397093, -0.06448377082038238, 0.03963204223936951, 0.190308603942862, 0.091507009344968, 0.19651842934951097, 0.051548804607177666, -0.13471997396033963, 0.09082098879637149, 0.20941726014571407, -0.20452014279264377, -0.06965231851610985, -0.003932240625632637, 0.008210790943276028, -0.14849170125525557, -0.10178788920466715, -0.13120993276775997, 0.3098588061112651, -0.5198119613565538, 0.18059257858892658, -0.3056848366522412, 0.20260448579484927, 0.08921565896785728, 0.3833609272147748, -0.16718925374124205, 0.07941168739235124], [-0.09718302816834122, 0.17096030397746098, 0.13933329232094782, -0.33007929279881626, -0.002633297939055501, 0.18950001642660705, 0.0015028428710695467, -0.07854019954579133, -0.09197746218524361, 0.05304537602441125, -0.022898080174439613, 0.2064069140658126, -0.11743419987663689, -0.04816701616789602, -0.016531840090999957, -0.18455086584420424, -0.17133439283865048, 0.2873100928501951, -0.08131648700956143, 0.3242960707307759, -0.19764923783639837, 0.05328737076729701, -0.4692439219146247, 0.24965127762605913, -0.2831560106016841, 0.23430231106622482, -0.21924856089181938, 0.06878143306045768, -0.39449365995079677, 0.11859856850241804, 0.19362538947489719, -0.018972481324268983, -0.2286447856091109, 0.13293296588060433, -0.5715871044796665, 0.485293784644012, -0.0119988823211763, -0.13801169550335846, -0.033635873707213604, 0.04689399048046851, -0.21672688746975924, 0.0573033272565348, -0.2600918882621699, 0.07990842673365837, -0.11592999262438343, 0.09644220877358575, 0.005967716413366877, 0.11288667609958752, 0.1340220059057909, 0.18731707009805548, -0.1482664455429321, -0.07393498258194453, -0.18987945267117085, 0.001605488149566218, 0.15175955917970854, 0.06041816263407778, -0.01443592272267881, 0.030618050607859368, 0.0034824937164176306, -0.22957456421317324, -0.17896246683369885, -0.010553563290836324, -0.14360003215799716, -0.014270232855842746, -0.06769104667547511, 0.08160280394065857, -0.19517430292936144, 0.31199871623275877, -0.023696657386058976, 0.2418652656322637, 0.13213015915918938, -0.326655260957403, -0.3569432704761068, -0.06004295832939398, -0.12137854987950022, 0.030851943308190105, -0.43057352069500454, 0.04905754526613539, 0.1371668018970047, -0.08397484388443403, 0.1568329346089446, -0.3454397898185534, 0.48690470535897634, -0.7769810857620841], [0.18036634016962066, 0.08710833839903116, -0.15801736104190273, 0.0006433934701593807, -0.1629579658837998, 0.21620423366194777, -0.08777948069105017, 0.0019752808917157722, -0.11638495621189836, -0.3043603165117115, 0.538235698072698, 0.05293462331984272, 0.14158875701294268, 0.0010744984624041479, 0.20738991247392516, -0.031100279766317882, 0.34836677956175444, -0.017503927232762295, -0.048361470022296314, -0.10972091129640173, -0.12110456002868446, 0.048629638667515525, 0.04714753987447455, 0.07657965044822097, 0.11610350536153896, -0.21337782846219994, 0.18982278471928066, -0.009849301029108144, -0.002314231737702015, 0.0973673525613389, -0.022423398658574185, 0.08097238934458212, -0.2908384501564229, -0.09544161012350914, 0.024812576718589465, -0.185734877841535, -0.3629850592844829, -0.017997193563740035, -0.13749914034223162, -0.13172249523943472, 0.08534018393670822, -0.21720618833495273, 0.13269400288502917, -0.1710836092847241, -0.02121680172054477, -0.2426837868066744, -0.4871645867285683, -0.2766090567042433, -0.019709385612217804, 0.02965404924440933, -0.11127104900852842, -0.13854351209098711, -0.028218139112991075, 0.12607794396255126, -0.12140883974538795, -0.2622113487119697, 0.07722419197405112, 0.02081749356726223, -0.07517879241592633, 0.07848429768463355, 0.16843522424237511, 0.15027748991486584, -0.054877442958641574, -0.11280387908488788, 0.03558394723362071, 0.07891246108067038, -0.13811029559677368, 0.13515966267595922, 0.020242926250739528, -0.08884183424040665, -0.07623863887611161, 0.13747618393445493, -0.2219667441407168, -0.03376530822215604, 0.21280736497681382, 0.05940367471547697, -0.0666329849566509, -0.159319013025535, 0.4493660021654623, 0.16426180879089314, -0.15975497198392422, -0.03548039196749759, 0.17486134211339466, 0.026684230573698085], [-0.16500125237137264, -0.08945761469929792, -0.1390051090253796, -0.1720159693353317, -0.13720690456317314, 0.2384714347573388, 0.003916956639946516, 0.1121617656961459, -0.031075419997536685, 0.012256772735332776, 0.19303984728185475, 0.0213883938518306, 0.11605386305826354, 0.08504648080920053, -0.06186014910336853, -0.1063059947764006, 0.15715740417053473, -0.28112073138410587, 0.3147146030553108, -0.3104191614359364, 0.03632310962020255, 0.09331220769767978, 0.21164470755892537, 0.14929186206023104, -0.22187815384815482, 0.2398251211888131, -0.13793269364007785, -0.021065129300688254, -0.37245036851970387, 0.25767471908867645, -0.47814916247892914, 0.1975283468243076, -0.07853298655082855, 0.13412458815085573, 0.5768263006838028, 0.5602339776359622, 0.20757463009855884, 0.0211797524622597, -0.09949068030959932, -0.22771364223476256, 0.208850081265577, -0.016859341316282802, 0.09526960398246226, -0.0931365213693307, 0.28617607836392267, -0.033783201603787366, 0.3162864286993934, 0.14613436698805796, 0.058661875752244116, -0.08480257231726035, -0.238341329000436, 0.08946083216589382, -0.24285215414763042, -0.14999220888638723, -0.0020111046742628943, 0.28604178072593495, -0.38266992011061746, -0.10955007357134044, -0.08536319136703811, -0.17095383714298643, 0.38875621601761334, 0.21442648681529095, 0.123265479812183, -0.11582009448627818, 0.37495001987106114, 0.02894671578232715, -0.3066616639979084, -0.008684899810482939, 0.05505660829672739, 0.10067353036497642, -0.01910524757064278, -0.08201001210046582, 0.10552581263860236, 0.012564232718209873, -0.17093745370498145, 0.055805395527193186, 0.05590296964828859, 0.11720410543838852, 0.005792382639076217, -0.34429576654435934, 0.0703435064372046, 0.1158565104805214, -0.04283600007397539, -0.11669875920637941], [-0.16199114484731347, 0.14293152781429858, 0.06606785292926069, -0.018628046390857786, 0.10528904100435221, -0.011448285675901613, -0.24051008802005291, -0.1313152944695241, -0.05426162742218032, -0.10404749386794626, -0.08544749532647683, 0.18227916262425525, -0.0671352160130784, -0.05095481771852875, 0.1526388011622291, -0.5265523686790728, 0.3729336743469914, -0.507192681117597, 0.4285883566762564, -0.6054385406729653, -0.05650858098786268, -0.7869694226023155, -0.08894582278029593, -0.16957337817326643, -0.20891503983710863, 0.23575797426933967, 0.12281193283725507, -0.24588345329002226, 0.007536963897091506, 0.3876869649447357, 0.15433090950914438, 0.08685010631546006, 0.04396281376915368, -0.009256601169708688, -0.35353522426981976, 0.005341112850109713, 0.24863009932951927, 0.3367414459820464, -0.30061631285064433, 0.07051825150001365, -0.020475230475394846, -0.15053974486365132, 0.0003384570419735004, 0.26167719005782064, -0.22539249883273316, 0.07008285704698392, -0.07683067692630874, 0.29177914034542024, 0.05745623970588999, -0.1294235356741295, -0.1150785476151586, 0.32118179649707923, -0.20019334067714079, 0.21441375486077352, -0.3581612453570938, 0.21208994343750723, 0.0737673227386422, 0.1770095595494328, 0.1307436714604016, 0.30916865592030585, -0.3090936324780996, 0.16894305688857528, -0.06843828887884272, 0.20614351322090854, -0.06811295050440544, 0.23654256675318466, -0.21544755179842356, 0.07122664557986581, 0.1541747235153657, 0.13858427851010605, -0.05664650015631222, -0.16175798367311217, -0.1807941774575355, 0.0028402842879199867, -0.005005725148987311, -0.050222685953477245, 0.10736693910109175, -0.02212030246991654, -0.12969533146468104, 0.1465456428959616, -0.10369547928659434, 0.014692599984515818, 0.23281331872911637, 0.15823367042199485], [-0.20717875779626105, -0.04344097768415927, -0.15151444580059964, -0.1182685261647634, -0.19653493735099328, 0.20417169013362269, -0.2029723904772796, 0.15133409199258596, -0.5369152272941466, 0.025035777112587535, -0.07499859810723414, -0.2728351367116258, -0.03830046100730111, -0.09839355722982361, 0.08659953259655993, 0.02493687752312887, -0.4380903256442389, 0.19999763577273258, -0.3155346022626149, 0.27799605004078587, -0.31239156021678594, 0.2429179784015062, 0.4381851016918599, -0.2911908661337681, 0.038890187432622306, -0.020923683043264044, -0.018436132663917963, -0.22307308374502874, -0.008689039959835908, -0.07435536955413917, 0.24598782907774416, -0.24947817071836503, -0.21929050042999793, 0.07432866576576812, 0.3980338964925975, -0.4146379551053516, 0.25480181711954025, 0.21746319485717427, -0.005498065608211729, 0.08886476005644202, -0.1386793147202124, -0.01876900466553676, 0.12639308375785477, -0.16851844567865884, -0.080815136104397, 0.14421467408279223, 0.5897152085097481, -0.16060376728861922, 0.13371145594917444, 0.12255479758462377, 0.09696052946801033, -0.1158153109365437, 0.19930132499611147, -0.04233280184337399, 0.3640855677477915, -0.13872722232136495, 0.32232074641266023, -0.13602706739848788, 0.1002586853563643, -0.22306593513412531, 0.060209020409617765, 0.05572198406500054, -0.2431688214643601, -0.1446160641127182, 0.016481132376531114, -0.33641874442440445, -0.23931511612660544, 0.21749125405257785, -0.11143828952052301, -0.21354006610761783, 0.01124732179496134, -0.10537206233548456, -0.09294123816148207, -0.15958305128226458, 0.1731085408048864, -0.027223477861705994, -0.06825999622638321, 0.08194387924582369, 0.15333764461657534, -0.36286972996968764, 0.10747936612320615, 0.09244444855090796, 0.002895017094864304, -0.05459054919610416], [0.08527134259729345, 0.01717529194479436, -0.059081725134538056, -0.14064870533222462, 0.24878228454330734, -0.20458981487381567, 0.11445524223756309, -0.1589207846110215, -0.027498191067689897, 0.03809294516298934, 0.020617408909904898, 0.18741787117874706, 0.2923436932244943, 0.36350598687270536, 0.16016779917363763, -0.11390283832673424, 0.2804294827617989, -0.3294222018501544, 0.17758373729978855, -0.16632263609356518, 0.3287151782574394, 0.017373560847006825, -0.05350468293942937, 0.13784057133357863, -0.31612108285344404, 0.08805178347912851, -0.1970434181010744, -0.28642626007741234, -0.3446964793013184, -0.3147891519796145, -0.07764861857298477, -0.4056792246422818, 0.07626017386518914, -0.01170985793796461, 0.7758469560953694, 0.467196910201201, -0.19934008673987877, 0.1175482573029842, 0.16084704768432065, -0.07884551251831491, -0.017080799730621397, 0.13680079105100731, 0.28995016169729254, -0.11698414268231674, 0.18266643082720568, -0.06840225233441988, -0.6315393839058255, 0.05238348343451102, 0.22024360752658675, 0.34323625713286987, -0.2305188847177054, 0.1942491053816464, -0.13628463545491315, 0.06131188348071297, 0.01962447727354174, 0.08570295767876208, 0.12757572219028582, -0.08906535541159426, -0.15725945775023542, 0.3142803690134121, 0.2151054382501847, -0.27712215103988247, -0.1514608761041678, 0.06616758931976771, -0.0225592054947003, 0.0007285781116260907, 0.13038703678999122, -0.1448420293355113, 0.013811884551696782, -0.07631215603263042, -0.08769445772012123, 0.19542156872774083, -0.06861187093957137, -0.17964316026625363, 0.2614533252792301, -0.17878386219699796, -0.07617575042949025, -0.009628239110408502, 0.10516289407969458, -0.1535738670453176, 0.1534543151862933, -0.059817135671129965, 0.151908896394559, -0.3440974052772049], [-0.2852817806323582, -0.05911666743741258, -0.07795938022439178, 0.41539894992871823, -0.29678628226950227, 0.15882978881944743, -0.23001415504176803, 0.21468257515036906, -0.00973229199910617, 0.21282074444619342, 0.11559443243065845, 0.037272427071789044, 0.11281983941741468, 0.07503709678140719, 0.2603510932672631, 0.06579329889307509, 0.29763700421160194, 0.2389036208889711, 0.2260503332182619, -0.21908632286165414, 0.01012923049235042, 0.30341195103975155, -0.09131847770285748, -0.12409754122496454, 0.0343793344593814, 0.04597585874939819, 0.03180455809500489, -0.19117533907951476, -0.044952823280131206, -0.0947676195919143, 0.6181566298594157, 0.0015821323495025918, 0.0366556749807923, -0.3071050856287952, -0.2114446480990757, 0.3132371088808494, -0.09999308424595023, -0.011152564192234387, -0.05842135471840594, 0.165274182253226, -0.017191143182638653, 0.2900347461668592, -0.10124132503566774, 0.17395157281766466, -0.12245054858755744, 0.062284876090039056, 0.2767517260652739, -0.17087034603181284, -0.08493617306010669, -0.0031523626108248054, -0.0819822761836409, -0.08246442909520965, 0.125966940249315, 0.11081758429484147, -0.007999031885969973, 0.32759695750718587, 0.018627625600336515, 0.1702419222861918, -0.3143520901554534, -0.3674257757419932, 0.04746327949969969, -0.2704460757950909, 0.15177280022035056, -0.1912448426052625, -0.10264123361078256, -0.11408699162945493, 0.15084271809717054, -0.022193298367853647, 0.23208465941013146, -0.25602584382443183, -0.08140045900069111, 0.10351482668125997, 0.14628435209035437, -0.06141553658753781, 0.17969587186044886, -0.17010643649287535, 0.18935117955721847, -0.022392024434477978, -0.007583778654559406, -0.08826602696998552, 0.008495949409352499, -0.04445171730750525, 0.4109138325789111, -0.1620152892898584], [0.13779881509045816, -0.0650088942901515, 0.2619880790542713, 0.03533114675427328, 0.0013072648983546596, 0.08501351624538539, 0.053067832616505696, -0.2503366746826173, -0.04534339251088137, 0.049237681380748174, 0.03783584389418222, 0.02456053791398183, -0.1266860707033279, 0.11820498190204456, 0.2399126496510738, 0.021253579537600386, 0.16450645662655752, -0.28463026465067365, -0.01725668697394514, -0.15373039263467345, 0.05475661023755821, 0.08276430329463194, -0.03928213533132929, -0.17564816655849674, -0.04517219457623897, -0.037226809549249555, 0.05783729052880777, 0.0720174724075987, 0.09994402910833611, -0.023696785238559354, -0.1832056135726323, -0.15535708721329106, 0.298921080745179, -0.3615562097558445, -0.06631237258757881, -0.17585310635304832, -0.19827985346730442, -0.08219670238209704, 0.30374218590316293, 0.07278170655157676, 0.033005828503336346, 0.11298316982620683, -0.1999331606155431, 0.0016392023595733678, 0.2781525287639666, 0.25597608178188963, -0.31434069181661767, -0.073253184795587, -0.034195446898781005, 0.050598162626989206, 0.12589619906210076, -0.0322046490809117, 0.4516940914833859, -0.1078397320349411, 0.25557018855993385, 0.13349261063184187, -0.4363612430295811, 0.4268025766165519, -0.2132217194987071, -0.46691397856237804, -0.09574053561569061, -0.25634425394923704, -0.20551022222053897, 0.1961377438754644, 0.08043767715550429, -0.08235466654780961, -0.17330182170328468, 0.09505995262919403, 0.10808450992431935, 0.24590517915150792, -0.10684429373666662, 0.21247001419989575, 0.08796465887535541, 0.021132993102733772, 0.0019310711624083818, -0.17107413104574679, -0.06774095949523316, -0.17046115360507025, 0.022931482664232, -0.11372525753179354, -0.089771070548386, 0.0048912033414037406, 0.31265051403715755, -0.14361629974409398], [-0.47011646496364684, -0.09652229911302412, -0.2755050699515558, 0.6987745701074055, -0.5553433476941627, 0.285730658540398, -0.24376597497365807, 0.5591210997932287, -0.41314523341871323, 0.15934133160818637, 0.14339575557438985, 0.3199394998439463, 0.044607706947535276, 0.2232316921827462, -0.18236455293966425, 0.09942951656455402, -0.41027197919980296, 0.052571642932316504, 0.023836448847741776, -0.07753050046642548, -0.2256938058527633, -0.2827536708883646, -0.15423345308405337, -0.1422811247886806, -0.07405672569357336, 0.11916522217044419, 0.1029297555594472, -0.11260850653888566, 0.35358823342498047, 0.07607975539480281, 0.01821619509987435, 0.13779646349800162, -0.024139513458865756, 0.0940855228302079, 0.20105713811784562, 0.10633622874661498, -0.18019994424811497, -0.41399405333992356, -0.3081353575845516, -0.023565859893156745, 0.22181405349836014, -0.005856228349864046, -0.049554001271249655, 0.06680345908091531, 0.02493451985622295, 0.27035579369125223, 0.09014028659371119, 0.09024864633674817, 0.1527070573834357, 0.24767502856478973, 0.01497662274963463, -0.08055620947276104, 0.02338859946937106, 0.1856061765200038, 0.19836304309978484, 0.24091114271469066, -0.07569373914544257, 0.2739176708986583, -0.1313281920650235, -0.13910295295427968, -0.23809536500392306, -0.03949696812958495, -0.005457833369259919, 0.03393531881519019, -0.2219399366786941, -0.0040605951373554015, -0.15517511756459212, 0.051542535880747524, -0.1166861504223776, 0.13497117406267517, -0.023654551484464388, 0.08802441409553148, 0.023387712514792425, -0.005185214241422481, 0.1303099112828802, -0.028424852999098367, 0.35457172152381056, -0.04833678215001881, -0.03511738978989178, -0.07762486326226097, -0.06933807607498267, 0.14161448584742647, 0.05188690784252034, -0.029274914302473993], [-0.20823271632939305, -0.12987081131246614, -0.05369502484529061, 0.005577490324040498, -0.007845105240995734, 0.05257917531970495, -0.0795480675825332, 0.2002142333314724, -0.19282231790252888, 0.25600353646028823, -0.11484381835458315, -0.07861924479994066, -0.2995852918234004, -0.41470786802908893, 0.5026033357432412, -0.36450478646474344, 0.42784963890751765, -0.8164910766696294, 0.5395190307442895, -0.8026201847911624, 0.2995695335358562, -0.22744673978591878, 0.1950767930722339, -0.5495680515075403, 0.10883813379954524, 0.10858358011067432, -0.22092872173966663, 0.07212496838152371, -0.16498883654922314, 0.08957785935538926, -0.5847003779352891, 0.3775836367041213, -0.4929737192313091, 0.1650287087476402, 0.436868335634006, -0.01859241588078631, -0.27710017980434226, -0.02967335012674094, -0.12845380214114746, 0.3655904974044996, -0.39796598143105394, 0.2581304031385867, -0.4356625511503702, 0.31768002399094, -0.4510484858360619, 0.24306031289114224, -0.05296987536078146, -0.18276671476429784, -0.08792521780961132, 0.1957097340947694, -0.2039071608571794, 0.1242169763115174, -0.11628335052562966, 0.15846274246908915, -0.03335004340028488, -0.006148336655576715, -0.33737998395430246, 0.10410908668219851, 0.1304896289397694, 0.20979251231662766, 0.04939160962203709, -0.08230719585124757, 0.0037829618864094468, 0.03631965948797168, -0.19584647897778368, 0.09310597893059393, -0.18530449073183647, 0.2778198118042992, -0.07332241991047037, 0.09573139348159178, -0.4536272849188206, -0.013638679916742929, -0.14331215581967127, 0.22959062795826335, -0.1985436609814811, 0.1785335186123237, -0.27123661656069087, 0.10902542363204841, -0.28402488854586433, 0.146450929991162, -0.25355669198979297, 0.026133090621029528, -0.0776917871497298, 0.15083687875838528], [-0.0982930397289338, -0.08016263246333469, 0.01727257970442884, 0.18004899778097727, -0.38473508738169865, -0.12479315239061921, 0.06579942285471849, 0.24956113238797956, 0.01574763775698721, 0.11081181234027507, -0.1271848541914774, -0.03527804259892757, 0.15297043668553392, -0.2729217432554668, -0.1089891161747076, 0.1851152555879004, 0.33107318924944956, -0.24199791973881557, -0.05457811290210186, -0.05394772599336887, 0.3864925366280107, 0.03189773514974561, -0.16081829034458603, 0.05390581283091732, 0.06697425778063101, -0.1276550433951934, 0.042746558950250715, -0.10972425054645181, 0.42162052906726427, -0.37859889917368306, 0.16060558237634198, -0.03402667935662107, 0.5762605380049446, -0.17969704937637881, -0.17138493182538542, 0.1460043994318188, -0.20748153369871228, -0.37635345602866305, 0.40885197957721825, -0.022385955379453145, 0.08641139547370397, -0.37355221919717296, 0.2748521066036945, -0.28500526233763357, -0.11301312844927787, -0.05480459052186943, 0.20706034873681445, -0.25460668235855055, -0.30176189841708057, 0.14515548711839177, -0.30669956485142746, 0.28650022817535276, 0.013458744277677579, -0.2607590203417539, -0.11696033541268355, -0.005971679587694975, -0.046050979682380935, -0.2834302637009783, -0.34311103288566747, 0.05344321482157624, 0.24098424527168658, 0.14149028202363478, -0.13126812633636564, 0.08890287939783306, 0.13103036826712988, 0.06971745529967019, 0.07729996279367758, -0.04915529487308103, -0.03698799617811461, -0.07183293636200176, 0.17118031577560627, 0.26839162224435786, 0.1974906369269936, 0.03487778804156928, 0.17090936955701144, 0.16092375578217716, -0.1608291132906883, 0.057958827843317504, -0.20159562933334452, -0.22005642632218106, 0.13802522109747886, 0.08185789739040725, -0.16487202740283083, 0.20030211965142172], [-0.04914326483869888, 0.4009725951393787, 0.29168793480532385, -0.0803305967560263, 0.3316558797155061, 0.2570402005689293, -0.10781960974822564, -0.1132232932975249, 0.13256333184408856, -0.012834144967254138, 0.04956626628605691, -0.12512672116923282, -0.24736786704724192, 0.0732143782802018, 0.11937753066631808, -0.20692933178682346, 0.017165426462946005, -0.05041907372120349, 0.1555845125686908, -0.034348809217363156, -0.2331048047713379, 0.07813594379105257, 0.20425811428663346, -0.4113014136201475, -0.19573245436009937, -0.14619630058510527, 0.0014882518620008528, 0.20246311866268168, 0.21271204033378263, 0.1376103334184912, -0.29135639625382204, 0.1493052188211868, -0.03817922180052992, -0.05776886258555618, 0.03495530447960777, -0.343407596375883, 0.0919542128811129, 0.21015235115571246, 0.19496921237759618, -0.30330259473777943, 0.2202706638131447, -0.2850401275422227, 0.3644909802251721, -0.5727630291196476, 0.3303098775373048, 0.018919962895717447, -0.3448924490936487, 0.6811808299063654, -0.27998519152694124, 0.11662280731955878, 0.029646288941841348, 0.09239364897798787, 0.18663872067071885, 0.3419090592140129, -0.024040689985945912, -0.0292552069653393, 0.15252346623013996, -0.12097719818549073, 0.18938877888545233, 0.0026401990244960373, -0.08716023091332445, 0.052999522158558666, 0.05344990501227634, -0.1445655223123017, 0.29368223543221217, -0.08395135174336989, 0.01571351151709719, -0.4427826780094928, -0.24173240875851087, -0.11312042183862515, 0.05894631607070914, -0.45631116504228547, -0.014930009514229674, 0.21170826693881287, 0.10323557692697788, -0.29355913200439676, -0.13683708368530176, -0.11920760023959324, 0.19864776314399435, 0.3579252424555303, 0.061109025748107844, 0.02319953551196288, -0.04952424816366589, -0.21070270099207067], [0.042438749609548486, 0.019810234511790654, -0.17320138460909812, -0.13124793175563826, -0.18588764095261576, -0.1541716736606436, 0.32150323568106737, -0.0166694816005823, 0.11890637806158381, -0.26538322625386207, 0.11459495499019107, -0.26614494267255207, -0.12452006230016338, 0.05064213358793911, 0.18137593895374982, -0.04619176098061897, -0.24447020210989423, 0.10501121709112277, -0.0645080912678957, 0.1398935789684928, -0.16759252927641752, 0.14964869035171563, 0.16487462505725206, -0.07153039404177093, 0.040668611994748936, 0.11980867788629304, -0.21032641822775164, 0.14394539338063336, 0.013821608731652987, 0.22959543242083538, 0.04822771132990635, -0.0033304034395297143, -0.11437948799087065, -0.040403004075281856, -0.12109396685911267, -0.1811789574775592, -0.15475954593646257, -0.1671626027045319, 0.13769171320747875, -0.17754845889481707, 0.026479084494929004, -0.31256652674780894, 0.47265573916730297, 0.1295893510012277, -0.1905452893734452, -0.44157472825461846, 0.27179596010472534, -0.40632040945428977, -0.020527516144172867, 0.29001984967127226, -0.07167943471503302, 0.2490110169821823, 0.03998871601482732, 0.20004414334710693, 0.08312344091512804, -0.11600574225742179, -0.07391402975044459, 0.11976399251295215, -0.35652613998849275, 0.11962238242350584, 0.036257698005392164, 0.16092179732376913, 0.04220357422747937, -0.12272909541025166, 0.21251364560928637, 0.26614503426368485, -0.189456009934396, -0.06680129907735874, 0.1447771537420671, -0.337147879828444, -0.2207711020926174, 0.18126341121247147, 0.08380017541866115, 0.22800839462133868, -0.026471934374732976, 0.22238007185498163, 0.0016768583334157783, 0.05787040020408455, -0.02364939703634738, -0.27421138107051746, 0.21219987320953912, 0.02086485145464396, 0.2877122706423722, 0.09722076756528472], [0.17385362280717762, -0.34784642606706156, 0.17911939745027028, -0.2733052985214473, 0.2170317765417882, -0.17257615997111855, -0.03235300590230156, -0.22933851301517036, 0.09010107010397811, -0.09916520949107499, -0.07844634622310309, -0.3026614394742275, -0.06997795639687492, 0.021867158886480307, 0.20041986666786765, -0.042007329018785976, 0.02764677736967141, -0.25145604755569667, 0.02767034131813284, -0.16015093384239854, 0.012100001171691363, -0.1165345704488808, 0.025139747739908524, -0.176990128076311, -0.24848722449363986, 0.10967809111411288, 0.06562868068823756, 0.22229265616823182, 0.0732988687578573, -0.18867373980072172, -0.1131760865379013, -0.15374273019003687, -0.1760731776523225, -0.18939991117024316, 0.012739011944622573, -0.3661046746083568, -0.33407189138563015, -0.24162543477610882, -0.2955006621148323, 0.26727921128458704, -0.5514279431944499, 0.5775856211509582, -0.5043938555063244, 0.889640239443649, -0.0337844844304317, 0.6720755794163541, -0.08525954099267934, 0.3076720026138808, -0.2873416850395999, -0.2535516394460281, 0.10152750181249762, 0.1931037803279631, 0.18199823864087103, 0.14344643077541497, -0.02213883693728104, -0.039595417318510545, 0.02604913838087659, -0.4869198070140871, -0.43360815229378374, -0.5948173452937068, 0.14412961300337143, 0.18042984352606792, -0.0362095506738556, -0.14543138593906116, 0.10879383025764464, 0.07135822982103386, -0.11079467020077595, -0.0740388879575797, -0.11079883276962271, -0.19565529877794452, 0.09012427765361172, -0.20000523859847547, 0.1365028795925564, 0.008795272917219358, 0.31651374601296794, 0.2206270882630423, 0.0032914010596201606, -0.047870000455879774, -0.049361606662359565, -0.17513618752861307, 0.19060641839748904, 0.007022874123040479, 0.04068654303581957, -0.1510178327714281], [-0.04603917300348658, -0.033783083651125444, -0.03251431143086986, -0.149420635398864, 0.07101626454269182, 0.26332656816702443, -0.010133276998428913, -0.10848391529822216, -0.05264402591936361, -0.10894655834718643, -0.16983765191377348, -0.1465563417122085, -0.12681946310529804, -0.12204831222434845, -0.08646793733242307, -0.03570677200034845, -0.0744601270222137, -0.17678126632507474, -0.09920535771453443, -0.008360982186256706, -0.044375327133738915, -0.2234380947667664, -0.14325060064672102, 0.10241213197684462, 0.1850320044190576, 0.1284129187791205, 0.31718286274671276, -0.09487979978260626, 0.0043325658052591, 0.5432597927179206, 0.09124467020703535, -0.22557725575671608, -0.1283790594048405, -0.0766939421462755, -0.09564602998595811, 0.05758920647542243, -0.14438343241357282, 0.16031282096654131, 0.011371441734322122, -0.07093296721633068, -0.16623118690655816, -0.06642746314413017, 0.131750292849916, 0.2797836916361353, 0.09032371416765071, 0.05749241688618585, -0.04489877872466017, -0.020683112541284347, -0.11909939893960689, -0.10409942800582454, 0.08161468668957071, 0.11412180277263045, -0.1631321987415106, -0.10540384176212317, 0.5205415797068446, -0.32137243225673423, -0.35036231674156204, 0.2344076319719872, 0.13822129689083873, 0.07368016099704085, 0.09742612613148309, 0.16980142502304374, 0.010950110803790313, -0.05463515543127074, -0.026743174036149536, -0.1923508308691279, -0.04150375950972751, 0.33370565802879576, -0.2909964612612593, -0.09218369625019707, 0.13688783156243214, 0.10982005505421187, -0.055354865945308813, -0.033244886833876976, -0.12269768223586776, -0.2585787321778801, 0.12554683510026865, 0.14451280031450497, -0.09060701074881046, -0.21605761151823782, -0.5277886783669127, 0.06863830627299405, 0.10424204139099333, -0.33486164688381514], [0.17716092081662482, 0.025577573160664537, 0.16209919147238622, -0.21909307553310495, 0.19152236926595934, -0.24288032466529846, -0.02597548231362445, -0.23939422069961702, 0.19361402624218343, 0.0045195254138862715, 0.11376654007784032, -0.00917391727321448, 0.0009158776272412757, 0.2612687097289744, -0.040902269059336846, -0.12770706680697652, -0.039154155132261004, -0.05554149503617349, 0.11229030266996878, -0.22346346069314843, 0.06457362524294707, -0.09929999799612811, 0.1261078672368136, -0.039595881716538266, 0.1645152351338121, -0.0646997676871485, 0.19137156107174938, -0.3515458719975301, 0.058195051709846644, -0.08886756625834243, 0.0035585837976133718, -0.16609096440854193, 0.3784394147932315, -0.11345164537611702, 0.4468115843377695, 0.20137577207470997, -0.020294204204131444, 0.14598275037700065, -0.049734692065968304, -0.11031569814132125, 0.17555582968418473, -0.08128896962619707, 0.20985565598262032, -0.22051447742331823, 0.17181280135744811, -0.31142802287991816, 0.25063681908037727, 